svm_type c_svc
kernel_type rbf
gamma 0.09
nr_class 2
total_sv 30
rho 0.479255
label 10002 10003
nr_sv 4 26
SV
0.9626064804509111 1:0.89999998 2:0 3:0.15789473 4:0.1509434 5:0.16129032 6:0.20547946 7:0.875 8:0 9:0.54545456 10:0.83333331 11:0.50485438 12:0.14942528 13:0.68181819 14:0.46153846 15:0.05882353 16:0.6122449 17:0.61467892 18:0.16853933 19:0.90804595 20:0.36842105 21:0.23404256 22:0.77272725 23:0.89423078 24:0.3877551 25:1 26:1 27:1 28:1 29:1 30:0.2 31:0.94736844 32:1 33:1 34:1 35:1 36:0.06329114 37:0.65168542 38:0.2 39:0.27659574 40:0.43589744 41:0.095238097 42:0.47191012 43:0.41428572 44:0.012048192 45:0.22857143 46:0.67532468 47:0.48571429 48:0.58241761 49:0.71875 50:0.43076923 51:0.22222222 52:0.58064514 53:0.74603176 54:0.58730161 55:0.85135138 56:0.46296296 57:0.23188406 58:0.67441863 59:0.90361446 60:1 61:0.72289157 62:0.63492066 63:0.63492066 64:1 65:0.81690139 66:0.75555557 67:0.42857143 68:0.45348838 69:0.094594598 70:0.6111111 71:0.37096775 72:0.026666667 73:0.6964286 74:0.48076922 75:0.19607843 76:0.27272728 77:0.056603774 78:0.56578946 79:0.7719298 80:0.47499999 81:0.21951219 82:1 83:0.76271188 84:0.65476191 85:0.8214286 86:0.765625 87:0.1875 88:0.52941179 89:1 90:0.52564102 91:1 92:0.86274511 93:0.29850745 94:0.80000001 95:1 96:0.70731705 97:0.65384614 98:0.68354428 99:0.64864862 100:1 101:0.90769231 102:0.87037039 103:0.24074075 104:0.25316456 105:0.05479452 106:0.32075471 107:0.2857143 108:0.2658228 109:0.38271606 110:0.60317463 111:0.12698413 112:0.41304347 113:0.24324325 114:0.71428573 115:0.64179105 116:0.82894737 117:0.28125 118:0.78947371 119:0.81132078 120:0.55932206 121:0.77777779 122:0.80952382 123:0.09375 124:0.625 125:0.73134327 126:0.52542371 127:0.66666669 128:0.75925928 129:0.23076923 130:0.66666669 131:0.83116883 132:0.78217822 133:0.76190478 134:1 135:0.78260869 136:1 137:1 138:1 139:0.44444445 140:1 141:0.59322035 142:1 143:1 144:0.79591835 145:0.1 146:0.34117648 147:0 148:0.2 149:0.071428575 150:0.5411765 151:0.50617284 152:0.92000002 153:0.12765957 154:0.63043481 155:0.369863 156:0.53773582 157:0.39080459 158:1 159:0.27659574 160:1 161:0.85000002 162:0.5 163:0.39473686 164:1 165:0.27777779 166:0.625 167:0.75409836 168:0.81914896 169:0.47761193 170:1 171:0.66666669 172:1 173:1 174:0.98245615 175:0.11666667 176:1 177:0.98214287 178:1 179:1 180:0.87804878 181:0 182:0.10989011 183:0.069767445 184:0.065789476 185:0.06122449 186:0.15714286 187:0.41249999 188:0.25287357 189:0.2 190:0.32352942 191:0.15277778 192:0.57291669 193:0.86440676 194:0.82222223 195:0.25641027 196:0.76785713 197:0.9375 198:0.765625 199:0.85897434 200:0.69354838 201:0.1392405 202:0.10869565 203:0.5970149 204:0.68888891 205:1 206:0.953125 207:0.51020408 208:1 209:1 210:0.87719297 211:0.89830506 212:1 213:0.80645162 214:1 215:0.89473683 216:0.93877554 217:0.25641027 218:0 219:0.18292683 220:0.28395063 221:0 222:0.015625 223:0.36956522 224:0 225:0.24444444 226:0.65517241 227:0.36231884 228:0.64367819 229:0.98076922 230:0.41999999 231:0.21621622 232:0.94 233:1 234:0.74603176 235:0.86153847 236:0.36507937 237:0.14634146 238:0.15789473 239:0.58333331 240:0.65822786 241:1 242:0.73770493 243:0.51923078 244:1 245:0.87341774 246:0.87719297 247:1 248:0.85185188 249:0.81967211 250:1 251:1 252:0.8490566 253:0.2 254:0.15789473 255:0.08510638 256:0.097560972 257:0.15789473 258:0.12068965 259:0.60000002 260:0.5 261:0.47999999 262:0.52777779 263:0.44594595 264:0.3488372 265:1 266:0.77777779 267:0.3548387 268:1 269:0.70408165 270:0.22352941 271:1 272:0.35294119 273:0.24193548 274:0.84090906 275:0.8214286 276:0.35897437 277:1 278:1 279:0.83333331 280:1 281:1 282:0.42105263 283:1 284:1 285:1 286:1 287:1 288:0.52054793 
0.7506327295064534 1:0.86666667 2:0.22033899 3:0.10526316 4:0.056603774 5:0.048387095 6:0.12328767 7:1 8:0.83870965 9:0.39393941 10:0.5625 11:0.29126215 12:0.034482758 13:1 14:1 15:0.029411765 16:0.5714286 17:0.54128438 18:0.11235955 19:1 20:1 21:0 22:0.72727275 23:0.77884614 24:0.1632653 25:0.89534885 26:0.89090908 27:0.70212764 28:0.86301368 29:0.89552242 30:0.028571429 31:0.85964912 32:0.89473683 33:0.92982459 34:0.93220341 35:0.765625 36:0 37:0.53932583 38:0.25 39:0.14893617 40:0.30769232 41:0.071428575 42:0.43820226 43:0.34285715 44:0.072289154 45:0 46:0.66233766 47:0.60000002 48:0.63736266 49:0.28125 50:0 51:0.11111111 52:0.25806451 53:0.77777779 54:0.6825397 55:0.56756759 56:0 57:0 58:0.3255814 59:0.80722892 60:0.6825397 61:0.6506024 62:0.50793654 63:0.34920636 64:0.75641024 65:0.73239434 66:0.55555558 67:0.37662336 68:0.39534885 69:0.067567565 70:0.5138889 71:0.3548387 72:0.039999999 73:0.625 74:0.32692307 75:0.019607844 76:0.20454545 77:0 78:0.52631581 79:0.54385966 80:0 81:0.024390243 82:0.88461536 83:0.779661 84:0.65476191 85:0.32142857 86:0.015625 87:0 88:0.52941179 89:0.93877554 90:0.5 91:0.50649351 92:0.05882353 93:0 94:0.55000001 95:0.92424244 96:0.46341464 97:0.6025641 98:0.59493673 99:0.43243244 100:0.78378379 101:0.83076924 102:0.77777779 103:0.11111111 104:0.20253165 105:0.02739726 106:0.26415095 107:0.26984128 108:0.2658228 109:0.27160493 110:0.63492066 111:0.047619049 112:0 113:0 114:0.62337661 115:0.41791046 116:1 117:0.5625 118:0.68421054 119:0.43396226 120:0.44067797 121:1 122:1 123:0.296875 124:0.46875 125:0.49253732 126:0.51694918 127:1 128:1 129:0.21153846 130:0.30769232 131:0.64935064 132:0.54455447 133:0.63492066 134:0.83561641 135:0.47826087 136:0.7903226 137:0.87719297 138:0.70588237 139:0.17777778 140:0.81481481 141:0.50847459 142:0.96551722 143:0.83561641 144:0.67346936 145:0.28333333 146:0.27058825 147:0.07692308 148:0.27500001 149:0 150:0.50588238 151:0.98765433 152:0.16 153:0 154:0.45652175 155:0.3561644 156:0.53773582 157:0.7241379 158:0.6964286 159:0.21276596 160:0.5714286 161:0.80000001 162:0.5350877 163:0.55263156 164:0.54901963 165:0.15277778 166:0.34999999 167:0.67213112 168:0.62765956 169:0.41791046 170:0.85882354 171:0.48888889 172:0.71875 173:0.85454547 174:0.68421054 175:0 176:0.87209302 177:0.8214286 178:0.85135138 179:0.85507244 180:0.78048778 181:0.073170729 182:0 183:0.034883723 184:0.092105262 185:0 186:0.085714288 187:0.375 188:0 189:0.018181818 190:0.20588236 191:0.11111111 192:0.5625 193:0.49152541 194:0.06666667 195:0.051282052 196:0.8035714 197:1 198:0.78125 199:0.48717949 200:0 201:0.075949363 202:0.086956523 203:0.5970149 204:0.56666666 205:0.88732392 206:0.8125 207:0.14285715 208:0.66101694 209:0.84722221 210:0.56140351 211:0.79661018 212:0.91176468 213:0.72580647 214:0.94999999 215:0.90789473 216:0.87755102 217:0.2820513 218:0.10810811 219:0.048780486 220:0.11111111 221:0.011764706 222:0 223:0.17391305 224:0.01923077 225:0.044444446 226:0.44827586 227:0.42028984 228:0.64367819 229:0.48076922 230:0.079999998 231:0.027027028 232:0.83999997 233:0.91891891 234:0.77777779 235:0.35384616 236:0.031746034 237:0 238:0.087719299 239:0.5138889 240:0.43037975 241:0.89999998 242:0.67213112 243:0.11538462 244:0.7096774 245:0.75949365 246:0.50877196 247:0.884058 248:0.74074072 249:0.80327868 250:0.94505495 251:0.94936711 252:0.81132078 253:0.27777779 254:0.33333334 255:0 256:0.21951219 257:0.10526316 258:0.034482758 259:0.65714288 260:1 261:0 262:0.52777779 263:0.47297296 264:0.33720931 265:0.47560975 266:1 267:0 268:0.77777779 269:0.75510204 270:0.25882354 271:0.62711865 272:0.35294119 273:0 274:0.45454547 275:0.73809522 276:0.17948718 277:0.88749999 278:0.86885244 279:0.39583334 280:0.734375 281:0.86363637 282:0.21052632 283:0.86250001 284:0.80769229 285:0.82352942 286:0.8888889 287:0.921875 288:0.43835616 
0.4343944887221864 1:1 2:0.16949153 3:0.052631579 4:0.11320755 5:0.11290322 6:0.12328767 7:0.75 8:0.16129032 9:0.27272728 10:0.6875 11:0.31067961 12:0.034482758 13:0.36363637 14:0.61538464 15:0.20588236 16:0.69387758 17:0.55963302 18:0.089887641 19:0.77011496 20:0.81578946 21:0.17021276 22:0.81818181 23:0.82692307 24:0.22448979 25:0.93023258 26:0.9818182 27:0.72340423 28:0.93150687 29:0.92537314 30:0.1 31:0.91228068 32:0.96052629 33:0.94736844 34:0.93220341 35:0.734375 36:0.037974682 37:0.52808988 38:0 39:0.23404256 40:0.33333334 41:0.10714286 42:0.49438202 43:0.25714287 44:0 45:0.2 46:0.70129871 47:0.63809526 48:0.67032969 49:0.609375 50:0.2923077 51:0.11111111 52:0.19354838 53:0.66666669 54:0.49206349 55:1 56:0.44444445 57:0.028985508 58:0.3255814 59:0.81927711 60:0.93650794 61:0.66265059 62:0.66666669 63:0.36507937 64:0.76923078 65:0.74647886 66:0.68888891 67:0.4025974 68:0.44186047 69:0.067567565 70:0.54166669 71:0.37096775 72:0.026666667 73:0.85714287 74:1 75:0.3137255 76:0.31818181 77:0.03773585 78:0.52631581 79:0.57894737 80:0.375 81:0.24390244 82:0.96153843 83:0.84745765 84:0.66666669 85:0.51190478 86:0.578125 87:0.21875 88:0.32352942 89:0.65306121 90:0.35897437 91:0.76623374 92:0.39215687 93:0.19402985 94:0.52499998 95:0.95454544 96:0.70731705 97:0.83333331 98:0.65822786 99:0.5 100:0.85135138 101:0.87692308 102:0.81481481 103:0.2037037 104:0.25316456 105:0.06849315 106:0.35849056 107:0.38095239 108:0.25316456 109:0.17283951 110:0.44444445 111:0 112:0.043478262 113:0.13513513 114:0.6883117 115:0.089552239 116:0.60526317 117:0.125 118:0.57894737 119:0.43396226 120:0.47457626 121:0.2361111 122:0.17460318 123:0.046875 124:0.84375 125:0.50746268 126:0.40677965 127:0.69565219 128:0.2962963 129:0 130:0.69230771 131:0.72727275 132:0.62376237 133:0.77777779 134:0.9041096 135:0.5869565 136:0.91935486 137:0.89473683 138:0.86274511 139:0.42222223 140:0.98148149 141:0.64406782 142:0.91379309 143:0.69863015 144:0.65306121 145:0.1 146:0 147:0 148:0.1 149:0.11904762 150:0.50588238 151:0.69135803 152:0.80000001 153:0.23404256 154:0.45652175 155:0.32876712 156:0.52830189 157:0.62068963 158:0.89285713 159:0.34042552 160:0.75 161:0.75 162:0.42105263 163:0.52631581 164:0.82352942 165:0.25 166:0.375 167:0.59016395 168:0.64893615 169:0.35820895 170:0.90588236 171:0.51111114 172:0.75 173:0.87272727 174:0.80701756 175:0.016666668 176:0.94186044 177:0.91071427 178:0.83783782 179:0.86956519 180:0.92682928 181:0.073170729 182:0.13186814 183:0.046511628 184:0.11842106 185:0.030612245 186:0.1 187:0.75 188:0.45977011 189:0.12727273 190:0.29411766 191:0.19444445 192:0.57291669 193:0.69491524 194:0.40000001 195:0.025641026 196:0.66071427 197:0.9375 198:0.71875 199:0.52564102 200:0.14516129 201:0.06329114 202:0.13043478 203:0.53731346 204:0.6111111 205:0.85915494 206:0.78125 207:0.22448979 208:0.81355929 209:0.91666669 210:0.84210527 211:0.86440676 212:0.9852941 213:0.75806451 214:1 215:1 216:0.91836733 217:0.42307693 218:0.16216215 219:0.14634146 220:0.18518518 221:0.035294119 222:0.046875 223:0.60869563 224:0.26923078 225:0.17777778 226:0.75862068 227:0.43478259 228:0.67816091 229:0.65384614 230:0.38 231:0.24324325 232:1 233:0.9054054 234:0.60317463 235:0.43076923 236:0.17460318 237:0.097560972 238:0.14035088 239:0.43055555 240:0.55696201 241:0.91428572 242:0.6885246 243:0.30769232 244:0.72580647 245:0.88607597 246:0.89473683 247:0.98550725 248:0.85185188 249:0.77049178 250:0.94505495 251:0.92405063 252:0.79245281 253:0.1 254:0 255:0.04255319 256:0 257:0.15789473 258:0.05172414 259:0.67142856 260:0.47916666 261:0.47999999 262:0.25 263:0.37837839 264:0.33720931 265:0.4512195 266:0.83333331 267:0.29032257 268:0.40000001 269:0.54081631 270:0.22352941 271:0.45762712 272:0.14705883 273:0.14516129 274:0.36363637 275:0.75 276:0.2820513 277:0.94999999 278:0.95081967 279:0.5625 280:0.8125 281:0.90909094 282:0.30263159 283:0.96249998 284:0.92307693 285:0.92156863 286:0.93055558 287:0.84375 288:0.50684929 
0.7341469182205392 1:0.68333334 2:0.11864407 3:0 4:0 5:0.11290322 6:0.1780822 7:0.69318181 8:0.51612902 9:0.21212122 10:0.39583334 11:0.37864077 12:0.080459774 13:0.17045455 14:0.13461539 15:0 16:0.51020408 17:0.56880736 18:0.14606741 19:0.85057473 20:1 21:0.12765957 22:0.68181819 23:0.76923078 24:0.13265306 25:0.87209302 26:1 27:0.70212764 28:0.82191783 29:0.82089549 30:0 31:0.85964912 32:0.93421054 33:0.9649123 34:0.89830506 35:0.71875 36:0.012658228 37:0.69662923 38:0.3125 39:0 40:0 41:0.083333336 42:0.43820226 43:0.38571429 44:0.048192769 45:0.057142857 46:0.66233766 47:0.54285717 48:0.53846157 49:0.203125 50:0 51:0 52:0.12903225 53:0.69841272 54:0.77777779 55:0.94594592 56:0.18518518 57:0.028985508 58:0.3488372 59:0.74698794 60:0.69841272 61:0.83132529 62:0.60317463 63:0.31746033 64:0.73076922 65:0.70422536 66:0.5777778 67:0.37662336 68:0.36046511 69:0 70:0.45833334 71:0.27419356 72:0 73:0.71428573 74:0.51923078 75:0 76:0 77:0.018867925 78:0.5131579 79:0.52631581 80:0.075000003 81:0 82:0.84615386 83:0.66101694 84:0.61904764 85:0.30952382 86:0 87:0 88:0.2647059 89:0.79591835 90:0.56410259 91:0.72727275 92:0.7647059 93:0.26865673 94:0.60000002 95:0.77272725 96:0.4512195 97:0.65384614 98:0.73417723 99:0.47297296 100:0.78378379 101:0.7846154 102:0.72222221 103:0.14814815 104:0.2278481 105:0 106:0.2264151 107:0.20634921 108:0.2278481 109:0.18518518 110:0.60317463 111:0.079365082 112:0 113:0.027027028 114:0.59740257 115:0.14925373 116:0.67105263 117:0.21875 118:0.52631581 119:0.52830189 120:0.44067797 121:0.22222222 122:0.031746034 123:0 124:0.65625 125:0.65671641 126:0.53389829 127:0.9130435 128:0.92592591 129:0.17307693 130:0.41025642 131:0.6883117 132:0.5247525 133:0.71428573 134:0.86301368 135:0.47826087 136:0.80645162 137:0.80701756 138:0.60784316 139:0.26666668 140:0.85185188 141:0.50847459 142:0.81034482 143:0.75342464 144:0.6122449 145:0.23333333 146:0.011764706 147:0.030769231 148:0 149:0.047619049 150:0.49411765 151:0.8888889 152:0.92000002 153:0.14893617 154:0.26086956 155:0.32876712 156:0.4528302 157:0.62068963 158:0.30357143 159:0 160:0.60714287 161:0.72500002 162:0.55263156 163:0.43421054 164:0 165:0 166:0.34999999 167:0.63934427 168:0.58510637 169:0.34328359 170:0.81176472 171:0.44444445 172:0.6875 173:0.81818181 174:0.64912283 175:0.033333335 176:0.88372093 177:0.875 178:0.8918919 179:0.86956519 180:0.73170733 181:0.20731707 182:0.17582418 183:0 184:0 185:0.020408163 186:0.057142857 187:0.6875 188:0.32183909 189:0 190:0.11764706 191:0.097222224 192:0.48958334 193:0.35593221 194:0 195:0 196:0.64285713 197:0.86250001 198:0.90625 199:0.51282054 200:0.11290322 201:0 202:0 203:0.50746268 204:0.58888888 205:0.91549295 206:0.875 207:0.20408164 208:0.72881359 209:0.80555558 210:0.49122807 211:0.84745765 212:0.95588237 213:0.67741936 214:0.88749999 215:0.85526317 216:0.85714287 217:0.43589744 218:0.27027026 219:0 220:0 221:0.023529412 222:0.015625 223:0.65217394 224:0.63461536 225:0 226:0.44827586 227:0.37681159 228:0.63218391 229:0.42307693 230:0 231:0 232:0.75999999 233:0.93243241 234:0.80952382 235:0.35384616 236:0 237:0.036585364 238:0 239:0.44444445 240:0.46835443 241:0.9285714 242:0.6885246 243:0.1923077 244:0.72580647 245:0.69620252 246:0.50877196 247:0.9130435 248:0.75925928 249:0.72131145 250:0.87912089 251:0.8607595 252:0.73584908 253:0.077777781 254:0.19298245 255:0.10638298 256:0.17073171 257:0.078947365 258:0 259:0.71428573 260:0.8125 261:0.75999999 262:0.3888889 263:0.4054054 264:0.24418604 265:0.43902439 266:0.6388889 267:0.22580644 268:0.80000001 269:0.73469388 270:0.22352941 271:0.3898305 272:0.14705883 273:0.048387095 274:0.45454547 275:0.71428573 276:0.17948718 277:0.83749998 278:0.77049178 279:0.47916666 280:0.796875 281:0.83333331 282:0.18421052 283:0.86250001 284:0.82692307 285:0.82352942 286:0.90277779 287:0.890625 288:0.47945204 
-0.2106470961943544 1:0.21666667 2:0.71186441 3:1 4:1 5:1 6:0.21917808 7:0.26136363 8:0.58064514 9:0.45454547 10:0.52083331 11:0.85436893 12:0.16091955 13:0.39772728 14:0.75 15:1 16:0.77551019 17:0.40366971 18:0.26966292 19:0.36781609 20:0.65789473 21:0.95744681 22:0.79545456 23:0.48076922 24:0.35714287 25:0.53488374 26:0.80000001 27:0.80851066 28:0.5479452 29:0.71641791 30:0.48571429 31:0.94736844 32:0.82894737 33:0.92982459 34:0.84745765 35:0.828125 36:0.59493673 37:0.20224719 38:0.33750001 39:0.76595747 40:0.8974359 41:0.60714287 42:0.55056179 43:0.37142858 44:0.45783132 45:0.2857143 46:0.20779221 47:0.34285715 48:0.41758242 49:0.828125 50:0.7846154 51:0.90476191 52:0.90322578 53:0.58730161 54:0.90476191 55:0.83783782 56:0.74074072 57:0.84057969 58:0.79069769 59:0.83132529 60:0.77777779 61:0.85542166 62:0.96825397 63:0.84126985 64:0.76923078 65:1 66:0.97777778 67:0.50649351 68:0.48837209 69:0.36486486 70:0.375 71:0.27419356 72:0.45333335 73:0.6964286 74:0.42307693 75:0.94117647 76:0.95454544 77:0.75471699 78:0.84210527 79:0.87719297 80:0.89999998 81:0.60975611 82:0.36538461 83:0.45762712 84:0.58333331 85:1 86:1 87:0.96875 88:0.61764705 89:0.67346936 90:0.51282054 91:1 92:0.92156863 93:0.86567163 94:0.67500001 95:0.56060606 96:0.78048778 97:0.98717946 98:1 99:0.93243241 100:0.77027029 101:0.95384616 102:0.87037039 103:0.3888889 104:0.54430377 105:0.42465752 106:0.16981132 107:0.25396827 108:0.48101267 109:0.62962961 110:0.50793654 111:0.77777779 112:0.95652175 113:0.94594592 114:0.84415585 115:0.85074627 116:0.44736841 117:0.40625 118:0.31578946 119:0.16981132 120:0.71186441 121:0.7361111 122:0.76190478 123:1 124:0.90625 125:0.20895523 126:0.33898306 127:0.78260869 128:0.55555558 129:0.82692307 130:0.79487181 131:0.46753246 132:0.42574257 133:0.85714287 134:0.60273975 135:1 136:0.62903225 137:0.82456142 138:0.98039216 139:0.62222224 140:0.94444442 141:0.98305082 142:0.81034482 143:0.58904111 144:0.95918369 145:0.44999999 146:0.75294119 147:0.95384616 148:1 149:0.71428573 150:0.3764706 151:0.56790125 152:0.92000002 153:0.72340423 154:0.30434781 155:0.58904111 156:0.6509434 157:0.63218391 158:0.73214287 159:1 160:0.60714287 161:0.85000002 162:0.74561405 163:0.56578946 164:0.78431374 165:0.95833331 166:0.85000002 167:0.42622951 168:0.34042552 169:0.43283582 170:0.60000002 171:0.84444445 172:0.484375 173:0.63636363 174:0.71929824 175:0.43333334 176:0.56976742 177:0.875 178:0.5 179:0.42028984 180:0.87804878 181:0.012195121 182:0.27472529 183:0.51162791 184:0.44736841 185:0.39795917 186:0.028571429 187:0.4375 188:0.58620691 189:0.83636361 190:0.47058824 191:0.52777779 192:0.59375 193:0.86440676 194:0.80000001 195:0.87179488 196:0.14285715 197:0.5625 198:0.921875 199:0.97435898 200:0.90322578 201:0.92405063 202:0.63043481 203:0.37313432 204:0.47777778 205:0.88732392 206:0.796875 207:0.71428573 208:0.55932206 209:0.6111111 210:0.59649122 211:0.79661018 212:0.80882353 213:0.91935486 214:0.58749998 215:0.65789473 216:0.77551019 217:0.35897437 218:0.28378379 219:0.41463414 220:0.4074074 221:0.40000001 222:0.203125 223:0.86956519 224:0.88461536 225:0.77777779 226:0.79310346 227:0.65217394 228:0.73563218 229:0.94230771 230:0.95999998 231:0.83783782 232:0.38 233:0.56756759 234:0.98412699 235:0.84615386 236:0.79365081 237:0.87804878 238:0.78947371 239:0.55555558 240:0.72151899 241:0.87142855 242:0.80327868 243:0.71153843 244:0.74193549 245:0.83544302 246:0.7719298 247:0.68115944 248:1 249:0.91803277 250:0.61538464 251:0.77215189 252:0.7735849 253:0.40000001 254:0.66666669 255:0.63829786 256:0.902439 257:0.63157892 258:0.36206895 259:0.55714285 260:0.22916667 261:0.44 262:0.52777779 263:0.8108108 264:0.48837209 265:0.4512195 266:0.91666669 267:0.93548387 268:0.60000002 269:0.83673471 270:0.69411767 271:0.66101694 272:0.7647059 273:0.83870965 274:0.90909094 275:0.48809522 276:0.41025642 277:0.46250001 278:0.6885246 279:0.6875 280:0.578125 281:0.81818181 282:0.56578946 283:0.46250001 284:0.82692307 285:0.627451 286:0.5138889 287:0.671875 288:0.61643833 
-0.1526292017856807 1:0.2 2:0.67796612 3:0.9649123 4:1 5:0.98387098 6:0.21917808 7:0.27272728 8:0.58064514 9:0.42424244 10:0.52083331 11:0.85436893 12:0.14942528 13:0.40909091 14:0.71153843 15:0.94117647 16:0.77551019 17:0.40366971 18:0.25842696 19:0.35632184 20:0.63157892 21:0.89361703 22:0.75 23:0.47115386 24:0.35714287 25:0.54651165 26:0.80000001 27:0.80851066 28:0.53424656 29:0.71641791 30:0.48571429 31:0.92982459 32:0.80263156 33:0.91228068 34:0.84745765 35:0.8125 36:0.59493673 37:0.20224719 38:0.36250001 39:0.78723407 40:0.82051283 41:0.60714287 42:0.56179774 43:0.37142858 44:0.46987951 45:0.25714287 46:0.19480519 47:0.34285715 48:0.43956044 49:0.8125 50:0.81538463 51:0.92063493 52:0.87096775 53:0.58730161 54:0.90476191 55:0.82432431 56:0.74074072 57:0.85507244 58:0.79069769 59:0.83132529 60:0.80952382 61:0.85542166 62:0.98412699 63:0.85714287 64:0.76923078 65:1 66:1 67:0.49350649 68:0.5 69:0.35135135 70:0.3611111 71:0.30645162 72:0.46666667 73:0.6964286 74:0.42307693 75:0.94117647 76:0.97727275 77:0.79245281 78:0.85526317 79:0.89473683 80:0.89999998 81:0.63414633 82:0.36538461 83:0.45762712 84:0.58333331 85:1 86:0.984375 87:1 88:0.58823532 89:0.6122449 90:0.48717949 91:0.98701298 92:0.90196079 93:0.86567163 94:0.69999999 95:0.56060606 96:0.75609756 97:0.97435898 98:0.98734176 99:0.93243241 100:0.7972973 101:0.92307693 102:0.85185188 103:0.3888889 104:0.54430377 105:0.41095892 106:0.16981132 107:0.25396827 108:0.50632912 109:0.64197528 110:0.50793654 111:0.79365081 112:0.93478262 113:0.8918919 114:0.8051948 115:0.83582091 116:0.43421054 117:0.4375 118:0.31578946 119:0.16981132 120:0.720339 121:0.7361111 122:0.74603176 123:0.96875 124:0.90625 125:0.20895523 126:0.35593221 127:0.78260869 128:0.53703701 129:0.80769229 130:0.82051283 131:0.49350649 132:0.43564355 133:0.85714287 134:0.60273975 135:0.97826087 136:0.61290324 137:0.84210527 138:0.98039216 139:0.64444447 140:0.94444442 141:1 142:0.79310346 143:0.56164384 144:0.95918369 145:0.44999999 146:0.72941178 147:0.92307693 148:1 149:0.71428573 150:0.3764706 151:0.56790125 152:0.92000002 153:0.68085104 154:0.30434781 155:0.58904111 156:0.63207549 157:0.62068963 158:0.75 159:0.97872341 160:0.5714286 161:0.86250001 162:0.75438595 163:0.56578946 164:0.84313726 165:1 166:0.875 167:0.40983605 168:0.34042552 169:0.41791046 170:0.61176473 171:0.84444445 172:0.5 173:0.61818182 174:0.70175439 175:0.38333333 176:0.54651165 177:0.83928573 178:0.48648649 179:0.40579709 180:0.80487806 181:0 182:0.27472529 183:0.51162791 184:0.46052632 185:0.41836736 186:0.042857144 187:0.4375 188:0.59770113 189:0.87272727 190:0.52941179 191:0.55555558 192:0.58333331 193:0.86440676 194:0.82222223 195:0.87179488 196:0.16071428 197:0.5625 198:0.890625 199:0.97435898 200:0.87096775 201:0.84810126 202:0.56521738 203:0.3283582 204:0.46666667 205:0.90140843 206:0.796875 207:0.73469388 208:0.54237288 209:0.59722221 210:0.61403507 211:0.81355929 212:0.82352942 213:0.90322578 214:0.58749998 215:0.67105263 216:0.79591835 217:0.37179488 218:0.2972973 219:0.41463414 220:0.38271606 221:0.36470589 222:0.203125 223:0.82608694 224:0.86538464 225:0.75555557 226:0.7241379 227:0.60869563 228:0.73563218 229:0.92307693 230:0.94 231:0.83783782 232:0.36000001 233:0.54054052 234:0.96825397 235:0.84615386 236:0.80952382 237:0.89024389 238:0.78947371 239:0.58333331 240:0.72151899 241:0.85714287 242:0.81967211 243:0.65384614 244:0.72580647 245:0.82278478 246:0.7368421 247:0.66666669 248:1 249:0.90163934 250:0.61538464 251:0.75949365 252:0.71698111 253:0.3888889 254:0.61403507 255:0.63829786 256:1 257:0.68421054 258:0.37931034 259:0.55714285 260:0.20833333 261:0.47999999 262:0.55555558 263:0.82432431 264:0.48837209 265:0.43902439 266:0.91666669 267:1 268:0.62222224 269:0.84693879 270:0.70588237 271:0.67796612 272:0.7647059 273:0.87096775 274:0.93181819 275:0.48809522 276:0.41025642 277:0.46250001 278:0.6885246 279:0.70833331 280:0.59375 281:0.83333331 282:0.55263156 283:0.47499999 284:0.84615386 285:0.66666669 286:0.5138889 287:0.625 288:0.60273975 
-0.3003794912298511 1:0.06666667 2:0.42372882 3:0.47368422 4:0.41509435 5:0.032258064 6:0.21917808 7:0.045454547 8:0.12903225 9:0 10:0 11:0 12:0.39080459 13:0.10227273 14:0.26923078 15:0.20588236 16:0.20408164 17:0 18:0.55056179 19:0.057471264 20:0.21052632 21:0.31914893 22:0 23:0 24:0.53061223 25:0.058139537 26:0.36363637 27:0.38297874 28:0.1369863 29:0.14925373 30:0.71428573 31:0.087719299 32:0.43421054 33:0.56140351 34:0.32203391 35:0.140625 36:0.83544302 37:0.078651689 38:0.26249999 39:0.42553192 40:0.23076923 41:0 42:0.011235955 43:0.042857144 44:0.3253012 45:0.057142857 46:0 47:0 48:0.043956045 49:0.140625 50:0.72307694 51:0.87301588 52:0.3548387 53:0 54:0.015873017 55:0.081081077 56:0.51851851 57:0.71014494 58:0.093023255 59:0 60:0.031746034 61:0.012048192 62:0.095238097 63:0.095238097 64:0.025641026 65:0.028169014 66:0.044444446 67:0.81818181 68:0.90697676 69:0.85135138 70:0.72222221 71:0.30645162 72:0.57333332 73:0.17857143 74:0.07692308 75:0.50980395 76:0.27272728 77:0.3018868 78:0.052631579 79:0.12280702 80:0.2 81:0.17073171 82:0 83:0 84:0.095238097 85:0.011904762 86:0.34375 87:0.625 88:0.38235295 89:0.06122449 90:0.025641026 91:0 92:0.039215688 93:0.64179105 94:0.34999999 95:0.015151516 96:0.097560972 97:0 98:0 99:0 100:0 101:0.21538462 102:0.24074075 103:0.55555558 104:0.39240506 105:0.12328767 106:0.03773585 107:0.53968257 108:0.77215189 109:0.037037037 110:0.031746034 111:0.42857143 112:0.39130434 113:0.35135135 114:0.19480519 115:0 116:0 117:0 118:0 119:0 120:0.12711865 121:0.1388889 122:0.19047619 123:0.3125 124:0.375 125:0.029850746 126:0.16949153 127:0.20289855 128:0.14814815 129:0.32692307 130:0.07692308 131:0.090909094 132:0.25742576 133:0.19047619 134:0.05479452 135:0 136:0.14516129 137:0.42105263 138:0.54901963 139:0.40000001 140:0.037037037 141:0 142:0.24137931 143:0.3561644 144:0.5714286 145:0.63333333 146:0.40000001 147:0.36923078 148:0.15000001 149:0.47619048 150:0.30588236 151:0.80246913 152:0.2 153:0.44680852 154:0 155:0.2739726 156:0.33018869 157:0.86206895 158:0.32142857 159:0.4893617 160:0.17857143 161:0.40000001 162:0.3508772 163:0.80263156 164:0.05882353 165:0.47222221 166:0.075000003 167:0.21311475 168:0.37234041 169:0.76119405 170:0.17647059 171:0.022222223 172:0.078125 173:0.41818181 174:0.57894737 175:0.64999998 176:0.15116279 177:0.071428575 178:0.10810811 179:0.30434781 180:0.60975611 181:0.39024389 182:0.31868133 183:0.33720931 184:0.21052632 185:0.33673468 186:0.014285714 187:0.22499999 188:0.29885057 189:0.5090909 190:0.05882353 191:0.097222224 192:0.3125 193:0.23728813 194:0.31111112 195:0.46153846 196:0.053571429 197:0.2 198:0.421875 199:0.03846154 200:0.37096775 201:0.75949365 202:0.45652175 203:0.074626863 204:0.21111111 205:0.014084507 206:0.09375 207:0.06122449 208:0.084745765 209:0.22222222 210:0.33333334 211:0 212:0.10294118 213:0.11290322 214:0.1375 215:0.21052632 216:0.30612245 217:0.56410259 218:0.56756759 219:0.4512195 220:0.20987654 221:0.082352944 222:0.234375 223:0.5 224:0.65384614 225:0.60000002 226:0 227:0.11594203 228:0.22988506 229:0.38461539 230:0.57999998 231:0.48648649 232:0.23999999 233:0.10810811 234:0.2857143 235:0.13846155 236:0.76190478 237:0.87804878 238:0.56140351 239:0.055555556 240:0.17721519 241:0.042857144 242:0.29508197 243:0.36538461 244:0.20967741 245:0.18987341 246:0.28070176 247:0 248:0.25925925 249:0.42622951 250:0.1978022 251:0.15189873 252:0.16981132 253:0.30000001 254:0.40350878 255:0.23404256 256:0.2682927 257:0 258:0.48275861 259:0.40000001 260:0.33333334 261:0.28 262:0 263:0.054054055 264:0.26744187 265:0.28048781 266:0.77777779 267:0.48387095 268:0.088888891 269:0.06122449 270:0.27058825 271:0.15254237 272:0.47058824 273:0.51612902 274:0 275:0 276:0.42307693 277:0.037500001 278:0.42622951 279:0.4375 280:0.203125 281:0.24242425 282:0.57894737 283:0 284:0.48076922 285:0.4509804 286:0.22222222 287:0.109375 288:0.4520548 
-0.00257101275565746 1:0.06666667 2:0.33898306 3:0.42105263 4:0.28301886 5:0.016129032 6:0.21917808 7:0.03409091 8:0.32258064 9:0.21212122 10:0.14583333 11:0.019417476 12:0.37931034 13:0.090909094 14:0.28846154 15:0.088235296 16:0.10204082 17:0.0091743115 18:0.55056179 19:0.057471264 20:0.31578946 21:0.42553192 22:0.11363637 23:0.028846154 24:0.60204083 25:0.046511628 26:0.36363637 27:0.42553192 28:0.1369863 29:0.14925373 30:0.8142857 31:0.087719299 32:0.40789473 33:0.57894737 34:0.30508474 35:0.109375 36:0.87341774 37:0 38:0.22499999 39:0.4893617 40:0.23076923 41:0.05952381 42:0 43:0 44:0.30120483 45:0.14285715 46:0.064935066 47:0.057142857 48:0.010989011 49:0 50:0.66153848 51:0.87301588 52:0.3548387 53:0.047619049 54:0.047619049 55:0 56:0.44444445 57:0.73913044 58:0.18604651 59:0.036144577 60:0 61:0 62:0.11111111 63:0.12698413 64:0.051282052 65:0 66:0 67:0.84415585 68:0.89534885 69:0.78378379 70:0.6388889 71:0.29032257 72:0.60000002 73:0.071428575 74:0.07692308 75:0.52941179 76:0.15909091 77:0.16981132 78:0.039473683 79:0.070175439 80:0.27500001 81:0.2682927 82:0.13461539 83:0.10169491 84:0.095238097 85:0 86:0.421875 87:0.59375 88:0.44117647 89:0 90:0.03846154 91:0 92:0.05882353 93:0.61194032 94:0.40000001 95:0.030303031 96:0.085365854 97:0 98:0.037974682 99:0.10810811 100:0.067567565 101:0.21538462 102:0.2037037 103:0.51851851 104:0.43037975 105:0.2739726 106:0.24528302 107:0.5714286 108:0.75949365 109:0.18518518 110:0 111:0.34920636 112:0.28260869 113:0.24324325 114:0.18181819 115:0.2238806 116:0.02631579 117:0 118:0.15789473 119:0.13207547 120:0.11864407 121:0 122:0.063492067 123:0.234375 124:0.3125 125:0.074626863 126:0.14406779 127:0.34782609 128:0.14814815 129:0.34615386 130:0.15384616 131:0.12987013 132:0.22772278 133:0.49206349 134:0.05479452 135:0.021739131 136:0.14516129 137:0.40350878 138:0.49019608 139:0.75555557 140:0.11111111 141:0.016949153 142:0.1724138 143:0.3561644 144:0.55102038 145:0.56666666 146:0.3882353 147:0.46153846 148:0.2 149:0.47619048 150:0.30588236 151:0.75308645 152:0.28 153:0.68085104 154:0.10869565 155:0.26027396 156:0.32075471 157:0.86206895 158:0.35714287 159:0.40425533 160:0 161:0.33750001 162:0.34210527 163:0.7368421 164:0.098039217 165:0.4861111 166:0.15000001 167:0.29508197 168:0.38297874 169:0.62686568 170:0.15294118 171:0.044444446 172:0.109375 173:0.45454547 174:0.59649122 175:0.36666667 176:0.11627907 177:0.035714287 178:0.10810811 179:0.31884059 180:0.60975611 181:0.37804878 182:0.2857143 183:0.26744187 184:0.22368421 185:0.37755102 186:0.17142858 187:0.15000001 188:0.31034482 189:0.4909091 190:0 191:0.069444448 192:0.29166666 193:0.13559322 194:0.31111112 195:0.38461539 196:0.089285716 197:0.21250001 198:0.40625 199:0.025641026 200:0.3548387 201:0.79746836 202:0.52173913 203:0.11940298 204:0.2 205:0 206:0.078125 207:0.081632651 208:0.10169491 209:0.22222222 210:0.28070176 211:0.016949153 212:0.11764706 213:0.096774191 214:0.125 215:0.22368421 216:0.30612245 217:0.75641024 218:0.74324322 219:0.71951222 220:0.56790125 221:0.57647061 222:0.59375 223:0.45652175 224:0.57692307 225:0.62222224 226:0.1724138 227:0.20289855 228:0.25287357 229:0.26923078 230:0.54000002 231:0.54054052 232:0.25999999 233:0.094594598 234:0.26984128 235:0.015384615 236:0.73015875 237:0.902439 238:0.59649122 239:0.069444448 240:0.16455697 241:0 242:0.24590164 243:0.34615386 244:0.24193548 245:0.17721519 246:0.2631579 247:0 248:0.2037037 249:0.40983605 250:0.21978022 251:0.1392405 252:0.20754717 253:0.2888889 254:0.42105263 255:0.23404256 256:0.34146342 257:0.02631579 258:0.43103448 259:0.41428572 260:0.33333334 261:0.47999999 262:0.11111111 263:0.081081077 264:0.30232558 265:0.23170732 266:0.72222221 267:0.41935483 268:0.022222223 269:0.06122449 270:0.28235295 271:0.06779661 272:0.47058824 273:0.54838711 274:0.090909094 275:0.05952381 276:0.26923078 277:0 278:0.40983605 279:0.45833334 280:0.21875 281:0.24242425 282:0.46052632 283:0.0125 284:0.48076922 285:0.41176471 286:0.20833333 287:0.09375 288:0.38356164 
-0.1372813662443843 1:0.033333335 2:0.49152541 3:0.61403507 4:0.50943398 5:0.048387095 6:0.46575344 7:0.056818184 8:0.77419353 9:0.60606062 10:0.41666666 11:0.067961164 12:0.52873564 13:0.10227273 14:0.36538461 15:0.23529412 16:0.22448979 17:0.036697246 18:0.66292137 19:0.10344828 20:0.47368422 21:0.46808511 22:0.090909094 23:0.01923077 24:0.63265306 25:0.13953489 26:0.4909091 27:0.4893617 28:0.15068494 29:0.13432837 30:0.87142855 31:0.3508772 32:0.5 33:0.56140351 34:0.30508474 35:0.109375 36:0.82278478 37:0.02247191 38:0.26249999 39:0.61702126 40:0.43589744 41:0.071428575 42:0.056179777 43:0.014285714 44:0.42168674 45:0.40000001 46:0.15584415 47:0.085714288 48:0.07692308 49:0.0625 50:0.80000001 51:1 52:0.54838711 53:0.015873017 54:0.11111111 55:0.081081077 56:0.57407409 57:0.82608694 58:0.3488372 59:0.072289154 60:0.12698413 61:0.16867469 62:0.25396827 63:0.26984128 64:0.15384616 65:0.11267605 66:0.06666667 67:0.85714287 68:0.83720928 69:0.6891892 70:0.4861111 71:0 72:0.45333335 73:0 74:0.057692308 75:0.627451 76:0.40909091 77:0.33962265 78:0.10526316 79:0 80:0.375 81:0.41463414 82:0.28846154 83:0.25423729 84:0.11904762 85:0 86:0.53125 87:0.703125 88:0.55882353 89:0.14285715 90:0.089743592 91:0.077922076 92:0.23529412 93:0.73134327 94:0.47499999 95:0.10606061 96:0.17073171 97:0.14102565 98:0.15189873 99:0.1891892 100:0.12162162 101:0.36923078 102:0.42592594 103:0.55555558 104:0.48101267 105:0.3561644 106:0.43396226 107:0.74603176 108:0.89873415 109:0 110:0.11111111 111:0.46031746 112:0.41304347 113:0.35135135 114:0.35064936 115:0.044776119 116:0.14473684 117:0.40625 118:0.42105263 119:0.24528302 120:0.19491525 121:0.2361111 122:0.17460318 123:0.359375 124:0.5 125:0.17910448 126:0.23728813 127:0.39130434 128:0.14814815 129:0.38461539 130:0.2820513 131:0.23376623 132:0.28712872 133:0.2857143 134:0.10958904 135:0.065217391 136:0.19354838 137:0.63157892 138:0.68627453 139:0.60000002 140:0.16666667 141:0.033898305 142:0.24137931 143:0.46575344 144:0.69387758 145:0.69999999 146:0.47058824 147:0.50769234 148:0.40000001 149:0.59523809 150:0.43529412 151:0.79012346 152:0.63999999 153:0.85106385 154:0.32608697 155:0.32876712 156:0.36792454 157:0.78160918 158:0.35714287 159:0.4893617 160:0.17857143 161:0.33750001 162:0.33333334 163:0.7368421 164:0.19607843 165:0.52777779 166:0.22499999 167:0.29508197 168:0.32978722 169:0.74626863 170:0.21176471 171:0.022222223 172:0.078125 173:0.36363637 174:0.43859649 175:0.51666665 176:0.1744186 177:0.035714287 178:0.067567565 179:0.23188406 180:0.41463414 181:0.24390244 182:0.29670331 183:0.48837209 184:0.63157892 185:0.74489796 186:0.67142856 187:0.037500001 188:0.36781609 189:0.61818182 190:0.23529412 191:0.18055555 192:0.25 193:0.06779661 194:0.42222223 195:0.51282054 196:0.035714287 197:0.1375 198:0.28125 199:0.03846154 200:0.45161289 201:0.8607595 202:0.60869563 203:0.074626863 204:0.16666667 205:0.070422538 206:0.125 207:0.14285715 208:0.11864407 209:0.18055555 210:0.21052632 211:0.11864407 212:0.088235296 213:0.064516127 214:0.125 215:0.22368421 216:0.30612245 217:1 218:0.95945948 219:0.80487806 220:0.46913579 221:0.29411766 222:0.328125 223:0 224:0.57692307 225:0.68888891 226:0.20689656 227:0.10144927 228:0.18390805 229:0 230:0.46000001 231:0.54054052 232:0.31999999 233:0.067567565 234:0.20634921 235:0.07692308 236:0.74603176 237:0.93902439 238:0.61403507 239:0.041666668 240:0.18987341 241:0.11428571 242:0.24590164 243:0.32692307 244:0.17741935 245:0.1392405 246:0.21052632 247:0.1594203 248:0.27777779 249:0.3442623 250:0.16483517 251:0.075949363 252:0.094339624 253:0.11111111 254:0.43859649 255:0.31914893 256:0.41463414 257:0.078947365 258:0.48275861 259:0.15714286 260:0.29166666 261:0.80000001 262:0.30555555 263:0.12162162 264:0.29069766 265:0.048780486 266:0.5 267:0.48387095 268:0.06666667 269:0.05102041 270:0.27058825 271:0.06779661 272:0.35294119 273:0.48387095 274:0.090909094 275:0.011904762 276:0.34615386 277:0.087499999 278:0.39344263 279:0.29166666 280:0.09375 281:0.13636364 282:0.4868421 283:0.1375 284:0.51923078 285:0.25490198 286:0.11111111 287:0.0625 288:0.60273975 
-0.2195561431486864 1:0.033333335 2:0.37288135 3:0.7368421 4:0.73584908 5:0.48387095 6:0 7:0.079545453 8:0.7096774 9:0.87878788 10:0.70833331 11:0.37864077 12:0 13:0.045454547 14:0.23076923 15:0.23529412 16:0.30612245 17:0.28440368 18:0.078651689 19:0.068965517 20:0.21052632 21:0.36170211 22:0.22727273 23:0.27884614 24:0.10204082 25:0.093023255 26:0.21818182 27:0.19148937 28:0.16438356 29:0.43283582 30:0.042857144 31:0.14035088 32:0.22368421 33:0.1754386 34:0.20338982 35:0.375 36:0.10126583 37:0.044943821 38:0.16249999 39:0.76595747 40:0.84615386 41:0.40476191 42:0.28089887 43:0.042857144 44:0.39759037 45:0.74285716 46:0.4025974 47:0.38095239 48:0.41758242 49:0.125 50:0.70769233 51:0.98412699 52:1 53:0.44444445 54:0.55555558 55:0.10810811 56:0.3888889 57:0.79710144 58:0.58139533 59:0.25301206 60:0.26984128 61:0.18072289 62:0.12698413 63:0.20634921 64:0.16666667 65:0.22535211 66:0.26666668 67:0.70129871 68:0.74418604 69:0.6081081 70:0.5138889 71:0.59677422 72:0.82666665 73:0.42857143 74:0.1923077 75:0.80392158 76:0.70454544 77:0.60377359 78:0.10526316 79:0.52631581 80:0.625 81:0.60975611 82:0.57692307 83:0.49152541 84:0.19047619 85:0.36904761 86:0.625 87:0.8125 88:0.88235295 89:0.40816328 90:0.14102565 91:0.2857143 92:0.27450982 93:0.76119405 94:0.60000002 95:0.15151516 96:0.048780486 97:0.24358974 98:0.17721519 99:0.22972973 100:0.054054055 101:0.092307694 102:0.09259259 103:0.51851851 104:0.59493673 105:0.4520548 106:0.11320755 107:0 108:0.088607594 109:0.50617284 110:0.17460318 111:0.61904764 112:0.67391306 113:0.62162161 114:0 115:0.85074627 116:0.30263159 117:0.75 118:0.71052629 119:0.26415095 120:0.033898305 121:0.59722221 122:0.2857143 123:0.390625 124:0.40625 125:0.074626863 126:0.025423728 127:0.33333334 128:0.16666667 129:0.40384614 130:0.23076923 131:0.051948052 132:0.0099009899 133:0.33333334 134:0.15068494 135:0.19565217 136:0.11290322 137:0.087719299 138:0.13725491 139:0.2888889 140:0.2962963 141:0.16949153 142:0.068965517 143:0.05479452 144:0.081632651 145:0.55000001 146:0.42352942 147:0.56923079 148:0.60000002 149:0.59523809 150:0.05882353 151:0.49382716 152:0.60000002 153:0.93617022 154:0.39130434 155:0.15068494 156:0 157:0.59770113 158:0.25 159:0.36170211 160:0.071428575 161:0.075000003 162:0 163:0.71052629 164:0.23529412 165:0.55555558 166:0.27500001 167:0.065573767 168:0 169:0.70149255 170:0.31764707 171:0.2 172:0.078125 173:0 174:0.14035088 175:0.73333335 176:0.30232558 177:0.32142857 178:0.12162162 179:0.057971016 180:0.21951219 181:0.63414633 182:0.70329672 183:0.91860467 184:0.88157892 185:0.67346936 186:0.2 187:0.0125 188:0.31034482 189:0.81818181 190:0.52941179 191:0.25 192:0.03125 193:0.10169491 194:0.37777779 195:0.58974361 196:0.19642857 197:0.1125 198:0.015625 199:0.1923077 200:0.45161289 201:0.91139239 202:0.73913044 203:0.19402985 204:0.033333335 205:0.35211268 206:0.265625 207:0.2857143 208:0.22033899 209:0.125 210:0.14035088 211:0.54237288 212:0.47058824 213:0.48387095 214:0.3125 215:0.2631579 216:0.2857143 217:0.55128205 218:0.62162161 219:0.56097561 220:0.5925926 221:0.7764706 222:0.8125 223:0 224:0.5 225:0.62222224 226:0.34482759 227:0.26086956 228:0.12643678 229:0 230:0.44 231:0.51351351 232:0.31999999 233:0.12162162 234:0.17460318 235:0.07692308 236:0.58730161 237:0.84146339 238:0.66666669 239:0.20833333 240:0.2278481 241:0.2857143 242:0.21311475 243:0.32692307 244:0.33870968 245:0.41772151 246:0.49122807 247:0.34782609 248:0.5 249:0.59016395 250:0.48351648 251:0.51898736 252:0.6981132 253:0.044444446 254:0.19298245 255:0.36170211 256:0.75609756 257:0.5 258:0.24137931 259:0.11428571 260:0.16666667 261:0.68000001 262:0.47222221 263:0.27027026 264:0.058139537 265:0.024390243 266:0.22222222 267:0.12903225 268:0.11111111 269:0.18367347 270:0 271:0.050847456 272:0.20588236 273:0.56451613 274:0.34090909 275:0.33333334 276:0.1025641 277:0.1125 278:0.3114754 279:0.27083334 280:0.28125 281:0.62121212 282:0.40789473 283:0.125 284:0.48076922 285:0.33333334 286:0.34722221 287:0.546875 288:0.63013697 
-0.01589819482069335 1:0.033333335 2:0.42372882 3:0.66666669 4:0.73584908 5:0.19354838 6:0.43835616 7:0.045454547 8:0.58064514 9:0.63636363 10:0.6875 11:0.24271844 12:0.57471263 13:0.011363637 14:0.01923077 15:0.05882353 16:0.20408164 17:0.1559633 18:0.67415732 19:0.022988506 20:0 21:0.29787233 22:0.27272728 23:0.16346154 24:0.63265306 25:0.046511628 26:0.054545455 27:0.04255319 28:0.08219178 29:0.26865673 30:0.80000001 31:0.070175439 32:0.092105262 33:0.03508772 34:0.18644068 35:0.234375 36:0.8101266 37:0.078651689 38:0.3125 39:0.78723407 40:0.56410259 41:0.11904762 42:0.23595506 43:0.085714288 44:0.37349397 45:0.34285715 46:0.29870129 47:0.24761905 48:0.36263737 49:0.171875 50:0.63076925 51:0.80952382 52:0.64516127 53:0.31746033 54:0.49206349 55:0.12162162 56:0.33333334 57:0.75362319 58:0.41860464 59:0.20481928 60:0.25396827 61:0.096385539 62:0.031746034 63:0.095238097 64:0.11538462 65:0.16901408 66:0.24444444 67:0.29870129 68:0.29069766 69:0.47297296 70:0.66666669 71:0.61290324 72:0.78666669 73:0.39285713 74:0.25 75:0.88235295 76:0.81818181 77:0.47169811 78:0.13157895 79:0.52631581 80:0.69999999 81:0.70731705 82:0.61538464 83:0.47457626 84:0.26190478 85:0.40476191 86:0.609375 87:0.84375 88:0.85294116 89:0.36734694 90:0.23076923 91:0.2857143 92:0.25490198 93:0.77611941 94:0.64999998 95:0.15151516 96:0.14634146 97:0.17948718 98:0.15189873 99:0.28378379 100:0.17567568 101:0.21538462 102:0.16666667 103:0.6111111 104:0.73417723 105:0.47945204 106:0.075471699 107:0.46031746 108:0.48101267 109:0.35802469 110:0.2857143 111:0.61904764 112:0.76086956 113:0.51351351 114:0.077922076 115:0.41791046 116:0.32894737 117:0.90625 118:0.84210527 119:0.32075471 120:0.11016949 121:0.33333334 122:0.34920636 123:0.4375 124:0.5 125:0.089552239 126:0.084745765 127:0.37681159 128:0.18518518 129:0.42307693 130:0.35897437 131:0.090909094 132:0.07920792 133:0.3968254 134:0.1780822 135:0.26086956 136:0.19354838 137:0.15789473 138:0.25490198 139:0.06666667 140:0.3888889 141:0.28813559 142:0.15517241 143:0.10958904 144:0.12244898 145:0.11666667 146:0.50588238 147:0.52307695 148:0.42500001 149:0.47619048 150:0.035294119 151:0.11111111 152:0.47999999 153:0.74468082 154:0.34782609 155:0.1780822 156:0.03773585 157:0.10344828 158:0.19642857 159:0.40425533 160:0.035714287 161:0.0625 162:0.03508772 163:0.10526316 164:0.13725491 165:0.55555558 166:0.32499999 167:0.13114753 168:0.063829787 169:0.1641791 170:0.35294119 171:0.33333334 172:0.171875 173:0.16363636 174:0.2631579 175:0.36666667 176:0.43023255 177:0.53571427 178:0.24324325 179:0.17391305 180:0.2682927 181:0.60975611 182:0.76923078 183:0.87209302 184:0.78947371 185:0.66326529 186:0.5 187:0.1375 188:0.37931034 189:0.70909089 190:0.41176471 191:0.16666667 192:0.041666668 193:0.22033899 194:0.2888889 195:0.46153846 196:0.089285716 197:0.075000003 198:0.078125 199:0.20512821 200:0.48387095 201:0.89873415 202:0.73913044 203:0.074626863 204:0.1 205:0.30985916 206:0.328125 207:0.40816328 208:0.28813559 209:0.2361111 210:0.2631579 211:0.49152541 212:0.55882353 213:0.7096774 214:0.46250001 215:0.40789473 216:0.51020408 217:0.20512821 218:0.37837839 219:0.60975611 220:0.7037037 221:0.7647059 222:0.734375 223:0.021739131 224:0.44230768 225:0.53333336 226:0.48275861 227:0.13043478 228:0.11494253 229:0.01923077 230:0.34 231:0.43243244 232:0.23999999 233:0.067567565 234:0.15873016 235:0.061538462 236:0.49206349 237:0.78048778 238:0.63157892 239:0.1388889 240:0.21518987 241:0.18571429 242:0.1147541 243:0.17307693 244:0.27419356 245:0.4050633 246:0.50877196 247:0.23188406 248:0.2962963 249:0.47540984 250:0.41758242 251:0.46835443 252:0.64150941 253:0.044444446 254:0.2631579 255:0.19148937 256:0.58536583 257:0.2631579 258:0.48275861 259:0.1 260:0.14583333 261:0.44 262:0.25 263:0.17567568 264:0.023255814 265:0.024390243 266:0.19444445 267:0.19354838 268:0.044444446 269:0.1122449 270:0 271:0.016949153 272:0.029411765 273:0.40322581 274:0.18181819 275:0.17857143 276:0.14102565 277:0.050000001 278:0.098360658 279:0 280:0.125 281:0.45454547 282:0.4868421 283:0.0625 284:0.23076923 285:0.039215688 286:0.19444445 287:0.34375 288:0.65753424 
-0.0585912262421032 1:0 2:0.40677965 3:0.66666669 4:0.71698111 5:0.25806451 6:0.52054793 7:0 8:0.38709676 9:0.5151515 10:0.5 11:0.19417475 12:0.44827586 13:0.022727273 14:0.096153848 15:0.14705883 16:0.36734694 17:0.13761468 18:0.50561798 19:0 20:0 21:0.25531915 22:0.090909094 23:0.125 24:0.45918366 25:0 26:0.07272727 27:0 28:0.04109589 29:0.3283582 30:0.61428571 31:0.052631579 32:0.17105263 33:0.01754386 34:0.033898305 35:0.296875 36:0.8101266 37:0.078651689 38:0.3125 39:0.78723407 40:0.69230771 41:0.2857143 42:0.30337077 43:0.028571429 44:0.3253012 45:0.31428573 46:0.23376623 47:0.23809524 48:0.27472529 49:0.109375 50:0.60000002 51:0.87301588 52:0.58064514 53:0.12698413 54:0.23809524 55:0.067567565 56:0.37037036 57:0.73913044 58:0.37209302 59:0.084337346 60:0.095238097 61:0.036144577 62:0 63:0 64:0 65:0.098591551 66:0.044444446 67:0.45454547 68:0.66279072 69:0.7027027 70:0.75 71:0.61290324 72:0.80000001 73:0.5535714 74:0.30769232 75:0.86274511 76:0.72727275 77:0.4528302 78:0.22368421 79:0.43859649 80:0.40000001 81:0.51219511 82:0.46153846 83:0.30508474 84:0.17857143 85:0.22619048 86:0.515625 87:0.765625 88:0.55882353 89:0.12244898 90:0.012820513 91:0.15584415 92:0.23529412 93:0.77611941 94:0.47499999 95:0 96:0 97:0.11538462 98:0.10126583 99:0.14864865 100:0 101:0.061538462 102:0.055555556 103:0.83333331 104:0.73417723 105:0.53424656 106:0.4528302 107:0.50793654 108:0.48101267 109:0.48148149 110:0.23809524 111:0.60317463 112:0.67391306 113:0.48648649 114:0.15584415 115:0.29850745 116:0.15789473 117:0.5 118:0.57894737 119:0.2264151 120:0.042372882 121:0.11111111 122:0.17460318 123:0.359375 124:0.71875 125:0.089552239 126:0.025423728 127:0 128:0 129:0.30769232 130:0.17948718 131:0 132:0 133:0 134:0.02739726 135:0.10869565 136:0.032258064 137:0.052631579 138:0.15686275 139:0.2 140:0.22222222 141:0.06779661 142:0 143:0.01369863 144:0.22448979 145:0.38333333 146:0.42352942 147:0.47692308 148:0.40000001 149:0.40476191 150:0 151:0.60493827 152:0.44 153:0.72340423 154:0.17391305 155:0.08219178 156:0.03773585 157:0.7011494 158:0.30357143 159:0.55319148 160:0.25 161:0.125 162:0.01754386 163:0.7368421 164:0.15686275 165:0.54166669 166:0.30000001 167:0.032786883 168:0.031914894 169:0.82089549 170:0.35294119 171:0.2888889 172:0.09375 173:0.036363635 174:0.21052632 175:0.80000001 176:0.31395349 177:0.2857143 178:0 179:0 180:0.29268292 181:0.51219511 182:0.48351648 183:0.54651165 184:0.47368422 185:0.65306121 186:0.34285715 187:0.16249999 188:0.35632184 189:0.74545455 190:0.32352942 191:0.097222224 192:0.0625 193:0.32203391 194:0.44444445 195:0.64102566 196:0.071428575 197:0.1 198:0.125 199:0.37179488 200:0.58064514 201:0.94936711 202:0.73913044 203:0.11940298 204:0.11111111 205:0.50704223 206:0.4375 207:0.46938777 208:0.28813559 209:0.20833333 210:0.1754386 211:0.45762712 212:0.27941176 213:0.17741935 214:0.0625 215:0.13157895 216:0.26530612 217:0 218:0.22972973 219:0.5487805 220:0.51851851 221:0.56470591 222:0.640625 223:0.021739131 224:0.46153846 225:0.53333336 226:0.27586207 227:0.13043478 228:0.18390805 229:0.096153848 230:0.40000001 231:0.43243244 232:0.36000001 233:0.21621622 234:0.33333334 235:0.15384616 236:0.5714286 237:0.82926828 238:0.70175439 239:0.2638889 240:0.37974682 241:0.25714287 242:0.26229507 243:0.26923078 244:0.33870968 245:0.50632912 246:0.59649122 247:0.14492753 248:0.27777779 249:0.18032786 250:0.13186814 251:0.29113925 252:0.50943398 253:0.022222223 254:0.19298245 255:0.10638298 256:0.56097561 257:0.39473686 258:0.37931034 259:0.14285715 260:0.041666668 261:0.16 262:0.22222222 263:0.25675675 264:0.22093023 265:0.048780486 266:0.25 267:0.3548387 268:0.17777778 269:0.22448979 270:0.31764707 271:0.033898305 272:0.088235296 273:0.45161289 274:0.20454545 275:0.27380952 276:0.47435898 277:0.037500001 278:0.19672132 279:0.125 280:0.171875 281:0.59090906 282:0.77631581 283:0 284:0.28846154 285:0.039215688 286:0.069444448 287:0.375 288:0.71232879 
-0.1302001267445998 1:0.083333336 2:0.47457626 3:0.7368421 4:0.66037738 5:0.3548387 6:0.12328767 7:0.03409091 8:0.45161289 9:0.57575756 10:0.5 11:0.26213592 12:0.011494253 13:0.079545453 14:0.26923078 15:0.29411766 16:0.3877551 17:0.20183486 18:0 19:0.011494253 20:0.10526316 21:0.38297874 22:0.25 23:0.1826923 24:0 25:0.034883723 26:0.16363636 27:0.12765957 28:0.10958904 29:0.34328359 30:0.071428575 31:0.052631579 32:0.13157895 33:0.087719299 34:0.23728813 35:0.4375 36:0.43037975 37:0.15730338 38:0.40000001 39:0.78723407 40:0.64102566 41:0.33333334 42:0.29213482 43:0.11428571 44:0.40963855 45:0.42857143 46:0.22077923 47:0.23809524 48:0.26373628 49:0.125 50:0.60000002 51:0.90476191 52:0.58064514 53:0.14285715 54:0.22222222 55:0.054054055 56:0.3888889 57:0.71014494 58:0.30232558 59:0.084337346 60:0.079365082 61:0.072289154 62:0 63:0.031746034 64:0.07692308 65:0.15492958 66:0.088888891 67:0.74025977 68:0.68604654 69:0.5945946 70:0.8611111 71:0.82258064 72:0.81333333 73:0.5714286 74:0.34615386 75:0.88235295 76:0.65909094 77:0.41509435 78:0.17105263 79:0.47368422 80:0.52499998 81:0.48780489 82:0.42307693 83:0.25423729 84:0.11904762 85:0.22619048 86:0.5625 87:0.734375 88:0.61764705 89:0.06122449 90:0 91:0.15584415 92:0.17647059 93:0.71641791 94:0.52499998 95:0.015151516 96:0 97:0.14102565 98:0.025316456 99:0.094594598 100:0 101:0 102:0.037037037 103:0.66666669 104:0.73417723 105:0.67123288 106:0.26415095 107:0.095238097 108:0.20253165 109:0.55555558 110:0.22222222 111:0.58730161 112:0.56521738 113:0.37837839 114:0.1038961 115:0.43283582 116:0.15789473 117:0.5 118:0.47368422 119:0.13207547 120:0.042372882 121:0.2638889 122:0.17460318 123:0.421875 124:0.625 125:0.059701491 126:0.0084745763 127:0.2173913 128:0 129:0.34615386 130:0.15384616 131:0 132:0 133:0.31746033 134:0 135:0.021739131 136:0 137:0 138:0.11764706 139:0.44444445 140:0 141:0.016949153 142:0.034482758 143:0 144:0.081632651 145:0.36666667 146:0.49411765 147:0.53846157 148:0.40000001 149:0.30952382 150:0.05882353 151:0.54320985 152:0.44 153:0.68085104 154:0.10869565 155:0 156:0.028301887 157:0.65517241 158:0.375 159:0.5106383 160:0.14285715 161:0.075000003 162:0.02631579 163:0.68421054 164:0.23529412 165:0.55555558 166:0.1 167:0 168:0.021276595 169:0.68656719 170:0.34117648 171:0.2 172:0.03125 173:0.036363635 174:0.12280702 175:0.55000001 176:0.22093023 177:0.14285715 178:0.094594598 179:0.028985508 180:0.024390243 181:0.42682928 182:0.48351648 183:0.58139533 184:0.35526314 185:0.30612245 186:0 187:0.1875 188:0.35632184 189:0.63636363 190:0.23529412 191:0 192:0.052083332 193:0.30508474 194:0.40000001 195:0.58974361 196:0.17857143 197:0.075000003 198:0.109375 199:0.34615386 200:0.54838711 201:0.87341774 202:0.69565219 203:0.10447761 204:0.077777781 205:0.45070422 206:0.328125 207:0.34693879 208:0.23728813 209:0.22222222 210:0.14035088 211:0.47457626 212:0.14705883 213:0.14516129 214:0.175 215:0.14473684 216:0.12244898 217:0.41025642 218:0.45945945 219:0.57317072 220:0.62962961 221:0.7764706 222:0.640625 223:0.13043478 224:0.63461536 225:0.73333335 226:0.34482759 227:0.24637681 228:0.16091955 229:0.13461539 230:0.47999999 231:0.51351351 232:0.34 233:0.1891892 234:0.31746033 235:0.23076923 236:0.66666669 237:0.86585367 238:0.71929824 239:0.30555555 240:0.41772151 241:0.27142859 242:0.27868852 243:0.38461539 244:0.46774194 245:0.54430377 246:0.59649122 247:0.17391305 248:0.09259259 249:0.22950819 250:0.26373628 251:0.27848101 252:0.3773585 253:0.088888891 254:0.28070176 255:0.23404256 256:0.53658539 257:0.42105263 258:0.18965517 259:0.17142858 260:0.0625 261:0.2 262:0.25 263:0.2972973 264:0.13953489 265:0.097560972 266:0.41666666 267:0.45161289 268:0.31111112 269:0.31632653 270:0.24705882 271:0.13559322 272:0.2647059 273:0.5 274:0.15909091 275:0.39285713 276:0.30769232 277:0.1125 278:0.29508197 279:0.25 280:0.296875 281:0.77272725 282:0.5131579 283:0.037500001 284:0.23076923 285:0.078431375 286:0.29166666 287:0.5625 288:0.5479452 
-0.2529025330103981 1:0.06666667 2:0.50847459 3:0.68421054 4:0.71698111 5:0.096774191 6:0.32876712 7:0.011363637 8:0.54838711 9:0.57575756 10:0.52083331 11:0.15533981 12:0.48275861 13:0 14:0 15:0.11764706 16:0.081632651 17:0.073394492 18:0.51685393 19:0.045977011 20:0.13157895 21:0.4893617 22:0.38636363 23:0.20192307 24:0.47959185 25:0.046511628 26:0 27:0.12765957 28:0.06849315 29:0.2238806 30:0.51428574 31:0 32:0 33:0 34:0.13559322 35:0.1875 36:0.65822786 37:0.067415729 38:0.28749999 39:0.70212764 40:0.71794873 41:0.11904762 42:0.21348314 43:0.028571429 44:0.38554215 45:0.45714286 46:0.35064936 47:0.24761905 48:0.40659341 49:0.1875 50:0.55384618 51:0.73015875 52:0.48387095 53:0.38095239 54:0.50793654 55:0.16216215 56:0.33333334 57:0.56521738 58:0.27906978 59:0.20481928 60:0.26984128 61:0.20481928 62:0.15873016 63:0.14285715 64:0.15384616 65:0.098591551 66:0.15555556 67:0 68:0 69:0.17567568 70:0.5138889 71:0.17741935 72:0.75999999 73:0.39285713 74:0.26923078 75:0.92156863 76:0.75 77:0.50943398 78:0.10526316 79:0.54385966 80:0.77499998 81:0.75609756 82:0.59615386 83:0.45762712 84:0.21428572 85:0.4642857 86:0.703125 87:0.703125 88:0.55882353 89:0.26530612 90:0.16666667 91:0.35064936 92:0.29411766 93:0.77611941 94:0.42500001 95:0.090909094 96:0.073170729 97:0.32051283 98:0.2278481 99:0.3918919 100:0.21621622 101:0.13846155 102:0 103:0.7037037 104:0.79746836 105:0.46575344 106:0.094339624 107:0.52380955 108:0.34177214 109:0.32098764 110:0.36507937 111:0.65079367 112:0.76086956 113:0.43243244 114:0.038961038 115:0.34328359 116:0.27631578 117:0.875 118:0.78947371 119:0.20754717 120:0.033898305 121:0.27777779 122:0.25396827 123:0.484375 124:0.59375 125:0 126:0.050847456 127:0.26086956 128:0.09259259 129:0.53846157 130:0.46153846 131:0.20779221 132:0.049504951 133:0.2857143 134:0.1369863 135:0.26086956 136:0.19354838 137:0.12280702 138:0 139:0 140:0.18518518 141:0.22033899 142:0.10344828 143:0.06849315 144:0 145:0 146:0.51764709 147:0.56923079 148:0.64999998 149:0.54761904 150:0.011764706 151:0 152:0.2 153:0.61702126 154:0.34782609 155:0.1369863 156:0.03773585 157:0 158:0.089285716 159:0.29787233 160:0 161:0 162:0 163:0 164:0.25490198 165:0.72222221 166:0.67500001 167:0.14754099 168:0.031914894 169:0 170:0.29411766 171:0.33333334 172:0.15625 173:0.054545455 174:0 175:0.2 176:0.43023255 177:0.5535714 178:0.22972973 179:0.11594203 180:0 181:0.597561 182:0.76923078 183:0.86046511 184:0.65789473 185:0.68367344 186:0.37142858 187:0.0125 188:0.36781609 189:0.72727275 190:0.29411766 191:0.097222224 192:0.020833334 193:0.20338982 194:0.2888889 195:0.46153846 196:0 197:0 198:0.03125 199:0.26923078 200:0.51612902 201:0.87341774 202:0.56521738 203:0.029850746 204:0.055555556 205:0.38028169 206:0.359375 207:0.34693879 208:0.20338982 209:0.19444445 210:0.14035088 211:0.50847459 212:0.5 213:0.61290324 214:0.36250001 215:0.34210527 216:0.36734694 217:0.33333334 218:0.36486486 219:0.597561 220:0.82716048 221:0.72941178 222:0.84375 223:0.065217391 224:0.65384614 225:0.53333336 226:0.44827586 227:0.086956523 228:0.080459774 229:0 230:0.38 231:0.27027026 232:0.059999999 233:0.040540539 234:0.11111111 235:0.12307692 236:0.44444445 237:0.73170733 238:0.52631581 239:0.1388889 240:0.18987341 241:0.22857143 242:0.049180329 243:0.096153848 244:0.19354838 245:0.34177214 246:0.45614034 247:0.24637681 248:0.18518518 249:0.3442623 250:0.2857143 251:0.4050633 252:0.6226415 253:0.011111111 254:0.33333334 255:0.36170211 256:0.65853661 257:0.10526316 258:0.51724136 259:0 260:0 261:0.31999999 262:0.27777779 263:0.054054055 264:0 265:0 266:0 267:0.16129032 268:0 269:0.06122449 270:0.035294119 271:0 272:0.088235296 273:0.7096774 274:0.70454544 275:0.19047619 276:0.14102565 277:0.075000003 278:0 279:0.0625 280:0.140625 281:0.37878788 282:0.43421054 283:0.050000001 284:0 285:0 286:0.19444445 287:0.359375 288:0.63013697 
-0.3082531978573698 1:0.18333334 2:0.37288135 3:0.56140351 4:0.52830189 5:0.096774191 6:0.4520548 7:0.15909091 8:0.54838711 9:0.42424244 10:0.35416666 11:0.029126214 12:0.47126436 13:0.14772727 14:0.03846154 15:0.088235296 16:0 17:0 18:0.51685393 19:0.25287357 20:0.34210527 21:0.42553192 22:0.18181819 23:0.096153848 24:0.64285713 25:0.33720931 26:0.34545454 27:0.14893617 28:0 29:0 30:0.87142855 31:0.47368422 32:0.44736841 33:0.19298245 34:0 35:0 36:0.8607595 37:0.02247191 38:0.175 39:0.55319148 40:0.53846157 41:0.11904762 42:0 43:0 44:0.3493976 45:0.45714286 46:0.19480519 47:0.085714288 48:0 49:0.171875 50:0.61538464 51:0.69841272 52:0.19354838 53:0.11111111 54:0 55:0.28378379 56:0.3888889 57:0.65217394 58:0.20930232 59:0.13253012 60:0.063492067 61:0.43373495 62:0.38095239 63:0.31746033 64:0.12820514 65:0.04225352 66:0.13333334 67:0.29870129 68:0.26744187 69:0.013513514 70:0 71:0.048387095 72:0.45333335 73:0.089285716 74:0 75:0.66666669 76:0.70454544 77:0.49056605 78:0 79:0.15789473 80:0.32499999 81:0.46341464 82:0.48076922 83:0.33898306 84:0 85:0.21428572 86:0.4375 87:0.53125 88:0.52941179 89:0.20408164 90:0 91:0.24675325 92:0 93:0.58208954 94:0.34999999 95:0.24242425 96:0.24390244 97:0.26923078 98:0.18987341 99:0.3918919 100:0.32432431 101:0.49230769 102:0.55555558 103:0 104:0 105:0.02739726 106:0 107:0.34920636 108:0.59493673 109:0.25925925 110:0 111:0.47619048 112:0.65217394 113:0.67567569 114:0.025974026 115:0.46268657 116:0.02631579 117:0.4375 118:0.7368421 119:0.35849056 120:0 121:0.3888889 122:0 123:0.296875 124:0.75 125:0.28358209 126:0.084745765 127:0.46376812 128:0.055555556 129:0.40384614 130:0.58974361 131:0.46753246 132:0.23762377 133:0.55555558 134:0.01369863 135:0.23913044 136:0.48387095 137:0.75438595 138:0.66666669 139:0.48888889 140:0.055555556 141:0.28813559 142:0.55172414 143:0.52054793 144:0.6122449 145:0.61666667 146:0.3882353 147:0.55384618 148:0.55000001 149:0.54761904 150:0.047058824 151:0.71604937 152:0 153:0.70212764 154:0.34782609 155:0.21917808 156:0.0094339624 157:0.74712646 158:0 159:0.25531915 160:0.17857143 161:0.175 162:0.070175439 163:0.68421054 164:0.05882353 165:0.65277779 166:0.77499998 167:0.29508197 168:0.13829787 169:0.50746268 170:0 171:0 172:0.15625 173:0.23636363 174:0.24561404 175:0.23333333 176:0 177:0.16071428 178:0.1891892 179:0.1594203 180:0.12195122 181:0.48780489 182:0.48351648 183:0.76744187 184:0.89473683 185:0.79591835 186:0.61428571 187:0 188:0.26436782 189:0.58181816 190:0.35294119 191:0.15277778 192:0 193:0 194:0.2 195:0.35897437 196:0 197:0.037500001 198:0 199:0 200:0.24193548 201:0.70886075 202:0.47826087 203:0.044776119 204:0 205:0 206:0 207:0 208:0 209:0 210:0 211:0.06779661 212:0 213:0 214:0 215:0 216:0 217:0.67948717 218:0.62162161 219:0.41463414 220:0.34567901 221:0.52941179 222:0.671875 223:0.021739131 224:0.44230768 225:0.51111114 226:0.034482758 227:0 228:0 229:0.01923077 230:0.36000001 231:0.16216215 232:0 233:0 234:0 235:0.015384615 236:0.44444445 237:0.68292683 238:0.3859649 239:0.083333336 240:0 241:0.18571429 242:0 243:0 244:0 245:0 246:0 247:0.1594203 248:0 249:0 250:0 251:0 252:0.26415095 253:0.33333334 254:0.3508772 255:0.25531915 256:0.63414633 257:0.23684211 258:0.39655173 259:0.25714287 260:0.083333336 261:0.31999999 262:0.083333336 263:0 264:0.27906978 265:0.18292683 266:0.27777779 267:0.064516127 268:0.022222223 269:0 270:0.34117648 271:0.18644068 272:0.17647059 273:0.59677422 274:0.70454544 275:0.16666667 276:0 277:0.16249999 278:0.14754099 279:0 280:0 281:0 282:0 283:0.1125 284:0.1923077 285:0.019607844 286:0 287:0 288:0 
-0.1952099511970768 1:0.91666669 2:1 3:1 4:0.94339621 5:0.5 6:0.58904111 7:0.26136363 8:0.80645162 9:0.90909094 10:0.66666669 11:0.57281554 12:0.62068963 13:0.34090909 14:0.40384614 15:0.58823532 16:0.44897959 17:0.56880736 18:0.64044946 19:0.44827586 20:0.52631581 21:0.74468082 22:0.63636363 23:0.75961536 24:0.83673471 25:0.62790698 26:0.74545455 27:0.72340423 28:0.46575344 29:0.70149255 30:0.82857144 31:0.80701756 32:0.72368419 33:0.80701756 34:0.74576271 35:0.640625 36:0.91139239 37:1 38:1 39:0.85106385 40:0.64102566 41:0.48809522 42:0.39325842 43:1 44:1 45:0.94285715 46:0.35064936 47:0.46666667 48:0.51648355 49:0.921875 50:0.83076924 51:0.85714287 52:0.83870965 53:0.8888889 54:0.80952382 55:0.82432431 56:0.66666669 57:0.79710144 58:0.62790698 59:0.68674701 60:0.44444445 61:0.89156628 62:0.93650794 63:0.85714287 64:0.61538464 65:0.6056338 66:0.51111114 67:1 68:0.96511626 69:0.93243241 70:0.93055558 71:0.93548387 72:0.95999998 73:0.71428573 74:0.46153846 75:0.54901963 76:0.79545456 77:0.56603771 78:0.52631581 79:0.78947371 80:0.85000002 81:0.60975611 82:0.73076922 83:0.64406782 84:0.58333331 85:0.88095236 86:0.859375 87:0.8125 88:0.7647059 89:0.51020408 90:0.70512819 91:0.92207789 92:0.72549021 93:0.82089549 94:0.60000002 95:0.5151515 96:0.78048778 97:0.92307693 98:0.83544302 99:0.86486489 100:0.6081081 101:0.80000001 102:0.6111111 103:0.51851851 104:0.60759491 105:0.61643833 106:0.47169811 107:0.58730161 108:0.69620252 109:0.81481481 110:1 111:1 112:0.86956519 113:0.8108108 114:0.54545456 115:0.80597013 116:0.47368422 117:1 118:0.57894737 119:0.56603771 120:0.63559324 121:0.59722221 122:0.52380955 123:0.5625 124:0.5 125:0.62686568 126:0.69491524 127:0.55072463 128:0.4074074 129:0.67307693 130:0.61538464 131:0.97402596 132:0.76237625 133:0.79365081 134:0.58904111 135:0.86956519 136:0.56451613 137:0.85964912 138:0.90196079 139:0.62222224 140:0.6111111 141:0.72881359 142:0.67241377 143:0.58904111 144:0.83673471 145:1 146:1 147:1 148:0.77499998 149:0.64285713 150:0.29411766 151:0.8888889 152:0.80000001 153:0.89361703 154:0.43478259 155:0.34246576 156:0.4528302 157:0.87356323 158:0.5 159:0.68085104 160:0.53571427 161:0.46250001 162:0.66666669 163:0.94736844 164:0.80392158 165:0.83333331 166:0.75 167:0.36065573 168:0.93617022 169:0.92537314 170:0.5411765 171:0.75555557 172:0.40625 173:0.45454547 174:0.7719298 175:0.91666669 176:0.58139533 177:0.85714287 178:0.45945945 179:0.44927537 180:0.85365856 181:1 182:0.91208792 183:0.72093022 184:0.82894737 185:0.76530612 186:0.5714286 187:1 188:1 189:1 190:0.58823532 191:0.375 192:0.38541666 193:0.96610171 194:0.73333335 195:0.87179488 196:0.30357143 197:0.4375 198:0.65625 199:0.91025639 200:0.82258064 201:0.87341774 202:0.71739131 203:0.74626863 204:0.86666667 205:0.90140843 206:0.78125 207:0.79591835 208:0.64406782 209:0.75 210:0.84210527 211:0.89830506 212:0.80882353 213:0.88709676 214:0.60000002 215:0.72368419 216:0.87755102 217:0.51282054 218:0.47297296 219:0.57317072 220:0.74074072 221:0.74117649 222:0.734375 223:0.82608694 224:1 225:0.5777778 226:0.51724136 227:0.42028984 228:0.55172414 229:0.92307693 230:0.86000001 231:0.7027027 232:0.40000001 233:0.47297296 234:0.76190478 235:0.87692308 236:0.71428573 237:0.86585367 238:0.63157892 239:0.77777779 240:0.75949365 241:0.91428572 242:0.73770493 243:0.78846157 244:0.64516127 245:0.8607595 246:0.84210527 247:0.72463769 248:0.8888889 249:0.93442625 250:0.56043959 251:0.70886075 252:0.90566039 253:1 254:1 255:1 256:0.78048778 257:0.44736841 258:0.67241377 259:0.9285714 260:0.39583334 261:0.83999997 262:0.47222221 263:0.47297296 264:0.53488374 265:0.40243903 266:0.75 267:0.7096774 268:0.48888889 269:0.5714286 270:0.72941178 271:0.72881359 272:0.91176468 273:0.87096775 274:0.90909094 275:0.8214286 276:0.71794873 277:0.61250001 278:0.6885246 279:0.6875 280:0.4375 281:0.75757575 282:0.75 283:0.52499998 284:0.71153843 285:0.58823532 286:0.5138889 287:0.703125 288:0.73972601 
-0.1216298422129748 1:0.2 2:0.47457626 3:0.82456142 4:0.79245281 5:0.54838711 6:0.49315068 7:0.21590909 8:0.77419353 9:0.75757575 10:0.66666669 11:0.67961162 12:0.56321841 13:0.32954547 14:0.36538461 15:0.58823532 16:1 17:0.63302749 18:0.80898875 19:0.44827586 20:0.5 21:0.72340423 22:0.63636363 23:0.67307693 24:0.85714287 25:0.61627907 26:0.61818182 27:0.55319148 28:0.3561644 29:0.62686568 30:0.8142857 31:0.91228068 32:0.65789473 33:0.68421054 34:0.66101694 35:0.578125 36:0.88607597 37:0.12359551 38:0.2375 39:0.80851066 40:0.79487181 41:0.61904764 42:0.42696628 43:0.25714287 44:0.44578314 45:1 46:1 47:0.94285715 48:0.65934068 49:0.90625 50:0.7846154 51:0.60317463 52:0.93548387 53:0.98412699 54:0.74603176 55:0.82432431 56:0.66666669 57:0.68115944 58:0.58139533 59:0.90361446 60:0.5714286 61:0.85542166 62:0.85714287 63:0.6825397 64:0.48717949 65:0.49295774 66:0.37777779 67:0.75324672 68:0.72093022 69:0.63513511 70:0.6111111 71:0.54838711 72:0.81333333 73:0.58928573 74:0.26923078 75:0.90196079 76:0.86363637 77:0.56603771 78:0.60526317 79:0.87719297 80:0.82499999 81:0.73170733 82:0.84615386 83:0.76271188 84:0.71428573 85:0.80952382 86:0.84375 87:0.609375 88:0.52941179 89:0.83673471 90:0.61538464 91:0.85714287 92:0.60784316 93:0.71641791 94:0.69999999 95:0.69696969 96:0.73170733 97:0.93589741 98:0.77215189 99:0.71621621 100:0.6081081 101:0.64615387 102:0.55555558 103:0.7962963 104:0.84810126 105:0.79452056 106:0.7735849 107:0.80952382 108:0.79746836 109:0.43209878 110:0.36507937 111:0.74603176 112:0.71739131 113:0.7027027 114:0.71428573 115:0.70149255 116:0.42105263 117:0.78125 118:0.52631581 119:0.88679248 120:0.84745765 121:0.6111111 122:0.55555558 123:0.734375 124:0.8125 125:0.86567163 126:0.720339 127:0.62318838 128:0.53703701 129:0.76923078 130:0.35897437 131:0.58441556 132:0.79207921 133:0.77777779 134:0.56164384 135:0.67391306 136:0.3548387 137:0.56140351 138:0.627451 139:0.64444447 140:0.62962961 141:0.64406782 142:0.67241377 143:0.46575344 144:0.77551019 145:0.75 146:0.48235294 147:0.66153848 148:0.77499998 149:0.73809522 150:0.32941177 151:0.82716048 152:0.56 153:0.85106385 154:0.41304347 155:0.42465752 156:0.58490568 157:0.89655173 158:0.48214287 159:0.68085104 160:0.85714287 161:0.85000002 162:0.75438595 163:0.92105263 164:0.68627453 165:0.75 166:0.625 167:0.57377046 168:0.80851066 169:0.91044778 170:0.51764709 171:0.5777778 172:0.359375 173:0.45454547 174:0.7368421 175:0.93333334 176:0.59302324 177:0.75 178:0.44594595 179:0.37681159 180:0.73170733 181:0.52439022 182:0.58241761 183:0.80232561 184:0.82894737 185:0.73469388 186:0.58571428 187:0.33750001 188:0.45977011 189:0.83636361 190:1 191:0.90277779 192:0.57291669 193:0.76271188 194:0.62222224 195:0.84615386 196:1 197:0.85000002 198:0.75 199:0.88461536 200:0.74193549 201:0.8101266 202:0.78260869 203:0.97014928 204:0.76666665 205:0.88732392 206:0.65625 207:0.5714286 208:0.50847459 209:0.65277779 210:0.7368421 211:0.89830506 212:0.75 213:0.72580647 214:0.48750001 215:0.57894737 216:0.79591835 217:0.84615386 218:0.83783782 219:0.79268295 220:0.72839504 221:0.80000001 222:0.765625 223:0.78260869 224:0.82692307 225:0.77777779 226:0.75862068 227:0.72463769 228:0.68965518 229:0.82692307 230:0.88 231:0.2972973 232:0.40000001 233:0.5945946 234:0.76190478 235:0.90769231 236:0.80952382 237:0.80487806 238:0.66666669 239:0.7638889 240:0.82278478 241:0.88571429 242:0.6557377 243:0.57692307 244:0.53225809 245:0.73417723 246:0.80701756 247:0.71014494 248:0.75925928 249:0.77049178 250:0.48351648 251:0.60759491 252:0.73584908 253:0.36666667 254:0.47368422 255:0.36170211 256:0.80487806 257:0.52631581 258:0.74137932 259:0.52857143 260:0.29166666 261:0.63999999 262:0.44444445 263:0.66216218 264:0.74418604 265:0.47560975 266:0.72222221 267:0.96774191 268:0.68888891 269:0.80612242 270:0.7647059 271:0.72881359 272:0.67647058 273:0.7903226 274:0.70454544 275:0.69047618 276:0.52564102 277:0.57499999 278:0.59016395 279:0.58333331 280:0.421875 281:0.69696969 282:0.68421054 283:0.53750002 284:0.75 285:0.52941179 286:0.4861111 287:0.625 288:0.80821919 
-0.04252644495191062 1:0.18333334 2:0.44067797 3:0.75438595 4:0.81132078 5:0.66129035 6:0.63013697 7:0.19318181 8:0.48387095 9:0.42424244 10:0.79166669 11:0.89320385 12:0.64367819 13:0.35227272 14:0.36538461 15:0.35294119 16:0.53061223 17:0.54128438 18:0.7977528 19:0.39080459 20:0.39473686 21:0.72340423 22:0.68181819 23:0.54807693 24:0.76530612 25:0.60465115 26:0.60000002 27:0.57446808 28:0.47945204 29:0.64179105 30:0.9285714 31:0.80701756 32:0.69736844 33:0.7368421 34:0.67796612 35:0.671875 36:0.94936711 37:0.089887641 38:0.22499999 39:0.80851066 40:0.64102566 41:0.65476191 42:0.49438202 43:0.30000001 44:0.33734939 45:0.48571429 46:0.25974026 47:0.51428574 48:0.46153846 49:0.859375 50:0.80000001 51:0.74603176 52:0.16129032 53:0.49206349 54:0.74603176 55:0.78378379 56:0.77777779 57:0.73913044 58:0.62790698 59:0.77108431 60:0.61904764 61:0.80722892 62:0.74603176 63:0.63492066 64:0.55128205 65:0.69014084 66:0.44444445 67:0.87012988 68:0.86046511 69:0.83783782 70:0.84722221 71:0.7096774 72:0.80000001 73:0.5535714 74:0.17307693 75:0.74509805 76:0.72727275 77:0.66037738 78:0.78947371 79:0.71929824 80:0.52499998 81:0.43902439 82:0.51923078 83:0.47457626 84:0.72619045 85:0.8214286 86:0.828125 87:0.75 88:0.17647059 89:0.26530612 90:0.43589744 91:0.8831169 92:0.68627453 93:0.79104477 94:0.82499999 95:0.60606062 96:0.74390244 97:0.8974359 98:0.74683547 99:0.7027027 100:0.63513511 101:0.76923078 102:0.75925928 103:0.64814812 104:0.63291138 105:0.58904111 106:0.47169811 107:0.63492066 108:0.82278478 109:0.43209878 110:0.25396827 111:0.6825397 112:0.80434781 113:0.75675678 114:0.6883117 115:0.67164177 116:0.36842105 117:0.28125 118:0.44736841 119:0.58490568 120:0.85593218 121:0.59722221 122:0.49206349 123:0.515625 124:0.59375 125:0.58208954 126:0.54237288 127:0.57971013 128:0.35185185 129:0.59615386 130:0.58974361 131:0.61038959 132:0.6732673 133:0.65079367 134:0.47945204 135:0.5869565 136:0.51612902 137:0.68421054 138:0.84313726 139:0.66666669 140:0.57407409 141:0.61016947 142:0.60344827 143:0.58904111 144:0.85714287 145:0.68333334 146:0.49411765 147:0.64615387 148:0.55000001 149:0.61904764 150:0.32941177 151:0.86419755 152:0.63999999 153:0.55319148 154:0.19565217 155:0.4520548 156:0.56603771 157:0.91954023 158:0.44642857 159:0.38297874 160:0.071428575 161:0.85000002 162:1 163:0.90789473 164:0.66666669 165:0.69444442 166:0.82499999 167:0.6885246 168:0.84042555 169:0.9402985 170:0.51764709 171:0.48888889 172:0.390625 173:0.60000002 174:0.64912283 175:0.86666667 176:0.59302324 177:0.83928573 178:0.5 179:0.47826087 180:0.85365856 181:0.68292683 182:0.71428573 183:0.80232561 184:0.80263156 185:0.73469388 186:0.60000002 187:0.34999999 188:0.35632184 189:0.67272729 190:0.41176471 191:0.31944445 192:0.41666666 193:0.779661 194:0.68888891 195:0.71794873 196:0.035714287 197:0.51249999 198:0.78125 199:0.85897434 200:0.83870965 201:0.8607595 202:0.65217394 203:0.49253732 204:0.63333333 205:0.85915494 206:0.671875 207:0.5714286 208:0.55932206 209:0.6388889 210:0.68421054 211:0.84745765 212:0.72058821 213:0.74193549 214:0.53750002 215:0.60526317 216:0.89795917 217:0.58974361 218:0.5945946 219:0.74390244 220:0.72839504 221:0.68235296 222:0.6875 223:0.67391306 224:0.61538464 225:0.60000002 226:0.41379312 227:0.37681159 228:0.50574714 229:0.80769229 230:0.75999999 231:0.64864862 232:0.14 233:0.51351351 234:0.82539684 235:0.83076924 236:0.80952382 237:0.80487806 238:0.71929824 239:0.79166669 240:0.82278478 241:0.87142855 242:0.59016395 243:0.55769229 244:0.64516127 245:0.79746836 246:0.75438595 247:0.69565219 248:0.7962963 249:0.75409836 250:0.48351648 251:0.64556962 252:0.7735849 253:0.33333334 254:0.47368422 255:0.36170211 256:0.63414633 257:0.39473686 258:0.56896549 259:0.5 260:0.22916667 261:0.23999999 262:0.3611111 263:0.51351351 264:0.38372093 265:0.41463414 266:0.6111111 267:0.41935483 268:0.62222224 269:1 270:0.67058825 271:0.64406782 272:0.44117647 273:0.69354838 274:0.88636363 275:0.88095236 276:0.56410259 277:0.57499999 278:0.47540984 279:0.47916666 280:0.484375 281:0.75757575 282:0.56578946 283:0.47499999 284:0.67307693 285:0.54901963 286:0.5 287:0.65625 288:0.71232879 
-0.2031620776438542 1:0.93333334 2:0.28813559 3:0.75438595 4:0.52830189 5:0.46774194 6:0.41095892 7:0.38636363 8:0.12903225 9:0.90909094 10:0.75 11:0.77669901 12:0.66666669 13:0.27272728 14:0.25 15:0.088235296 16:0.20408164 17:0.55045873 18:0.77528089 19:0.39080459 20:0.36842105 21:0.72340423 22:0.63636363 23:0.67307693 24:0.81632656 25:0.61627907 26:0.61818182 27:0.55319148 28:0.38356164 29:0.70149255 30:0.97142857 31:0.61403507 32:0.61842108 33:0.70175439 34:0.61016947 35:0.625 36:0.98734176 37:0.89887643 38:0.73750001 39:0.82978725 40:0.58974361 41:0.38095239 42:0.33707866 43:0.9285714 44:0.84337348 45:0.85714287 46:0.35064936 47:0.56190479 48:0.50549453 49:0.8125 50:0.76923078 51:0.71428573 52:0.25806451 53:0.5714286 54:0.73015875 55:0.78378379 56:0.64814812 57:0.72463769 58:0.60465115 59:0.6987952 60:0.8888889 61:0.85542166 62:0.87301588 63:0.66666669 64:0.51282054 65:0.59154928 66:0.66666669 67:0.64935064 68:0.53488374 69:0.41891891 70:0.56944442 71:0.5 72:0.62666667 73:0.96428573 74:0.11538462 75:0.4509804 76:0.68181819 77:0.56603771 78:0.55263156 79:0.94736844 80:0.67500001 81:0.48780489 82:0.67307693 83:0.72881359 84:0.72619045 85:0.83333331 86:0.859375 87:0.734375 88:0.23529412 89:0.5714286 90:0.64102566 91:0.85714287 92:0.74509805 93:0.83582091 94:0.60000002 95:0.57575756 96:0.60975611 97:0.85897434 98:0.78481013 99:0.7972973 100:0.6081081 101:0.75384617 102:0.66666669 103:0.87037039 104:0.98734176 105:0.98630136 106:0.83018869 107:0.90476191 108:0.97468352 109:1 110:0.41269842 111:0.55555558 112:0.45652175 113:0.5945946 114:0.61038959 115:1 116:0.22368421 117:0.71875 118:0.60526317 119:0.7735849 120:0.80508476 121:0.52777779 122:0.38095239 123:0.46875 124:0 125:0.40298507 126:0.58474576 127:0.56521738 128:0.42592594 129:0.78846157 130:0.66666669 131:0.64935064 132:0.68316829 133:0.79365081 134:0.53424656 135:0.65217394 136:0.45161289 137:0.75438595 138:0.7647059 139:0.64444447 140:0.51851851 141:0.62711865 142:0.55172414 143:0.60273975 144:0.85714287 145:0.63333333 146:0.60000002 147:0.73846155 148:0.375 149:0.47619048 150:0.27058825 151:0.81481481 152:0.23999999 153:0.76595747 154:0.47826087 155:0.76712328 156:0.53773582 157:0.88505745 158:0.32142857 159:0.42553192 160:0 161:0.64999998 162:0.75438595 163:0.92105263 164:0.54901963 165:0.7361111 166:0.44999999 167:0.40983605 168:0.80851066 169:0.86567163 170:0.52941179 171:0.55555558 172:0.28125 173:0.45454547 174:0.70175439 175:0.71666664 176:0.55813956 177:0.8214286 178:0.5 179:0.46376812 180:0.73170733 181:0.89024389 182:1 183:0.75581396 184:0.44736841 185:0.54081631 186:0.25714287 187:0.97500002 188:0.74712646 189:0.81818181 190:0.41176471 191:0.31944445 192:0.375 193:0.98305082 194:0.93333334 195:0.76923078 196:0.125 197:0.47499999 198:0.71875 199:0.84615386 200:0.7903226 201:0.83544302 202:0.56521738 203:0.52238804 204:0.74444443 205:0.84507042 206:0.6875 207:0.63265306 208:0.50847459 209:0.69444442 210:0.78947371 211:0.81355929 212:0.7647059 213:0.80645162 214:0.48750001 215:0.63157892 216:0.73469388 217:0.85897434 218:0.41891891 219:0.70731705 220:0.90123457 221:0.87058824 222:0.9375 223:0.97826087 224:0.57692307 225:0.46666667 226:0.86206895 227:0.68115944 228:0.57471263 229:0.80769229 230:0.83999997 231:0.67567569 232:0.18000001 233:0.5 234:0.79365081 235:0.84615386 236:0.79365081 237:0.82926828 238:0.59649122 239:0.69444442 240:0.77215189 241:0.89999998 242:0.6885246 243:0.59615386 244:0.59677422 245:0.8101266 246:0.82456142 247:0.72463769 248:0.7962963 249:0.83606559 250:0.51648355 251:0.72151899 252:0.88679248 253:0.68888891 254:0.52631581 255:0.70212764 256:0.48780489 257:0.39473686 258:0.63793105 259:0.71428573 260:0.125 261:0.75999999 262:0.6388889 263:0.6081081 264:0.68604654 265:0.40243903 266:0.55555558 267:0.45161289 268:0.26666668 269:0.63265306 270:0.69411767 271:0.64406782 272:0.61764705 273:0.74193549 274:0.68181819 275:0.6785714 276:0.5 277:0.52499998 278:0.57377046 279:0.52083331 280:0.421875 281:0.66666669 282:0.4868421 283:0.4375 284:0.75 285:0.64705884 286:0.56944442 287:0.65625 288:0.60273975 
-0.1202462423724601 1:0.13333334 2:0.50847459 3:0.80701756 4:0.60377359 5:0.41935483 6:0.79452056 7:0.22727273 8:0.80645162 9:0.69696969 10:0.58333331 11:0.52427185 12:0.79310346 13:0.31818181 14:0.44230768 15:0.55882353 16:0.2857143 17:0.37614679 18:0.75280899 19:0.42528737 20:0.42105263 21:0.74468082 22:0.72727275 23:0.72115386 24:0.90816325 25:0.54651165 26:0.61818182 27:0.68085104 28:0.47945204 29:0.65671641 30:0.95714283 31:0.78947371 32:0.72368419 33:0.7719298 34:0.67796612 35:0.65625 36:0.96202534 37:0.14606741 38:0.26249999 39:0.78723407 40:0.94871795 41:0.94047618 42:1 43:0.34285715 44:0.46987951 45:0.6857143 46:0.59740257 47:0.87619048 48:0.97802198 49:0.8125 50:0.83076924 51:0.93650794 52:1 53:1 54:1 55:0.83783782 56:0.68518519 57:0.85507244 58:0.69767439 59:0.79518074 60:0.52380955 61:1 62:0.95238096 63:0.77777779 64:0.61538464 65:0.76056337 66:0.62222224 67:0.84415585 68:0.80232561 69:0.71621621 70:0.70833331 71:0.77419353 72:0.89333332 73:0.625 74:0.21153846 75:0.88235295 76:0.43181819 77:0.47169811 78:0.93421054 79:0.7719298 80:0.72500002 81:0.75609756 82:0.44230768 83:0.83050847 84:0.97619045 85:0.88095236 86:0.859375 87:0.78125 88:0.7647059 89:0.79591835 90:0.76923078 91:0.92207789 92:0.7647059 93:0.80597013 94:0.72500002 95:0.57575756 96:0.86585367 97:0.92307693 98:0.82278478 99:0.8108108 100:0.62162161 101:0.86153847 102:0.7962963 103:0.74074072 104:0.79746836 105:0.80821919 106:0.71698111 107:0.6825397 108:0.73417723 109:0.49382716 110:0.3968254 111:0.73015875 112:0.56521738 113:0.27027026 114:1 115:0.74626863 116:0.40789473 117:0.8125 118:1 119:0.67924529 120:0.73728812 121:0.6388889 122:0.5714286 123:0.703125 124:0.6875 125:0.3283582 126:0.44067797 127:0.66666669 128:0.48148149 129:0.69230771 130:0.69230771 131:0.54545456 132:0.6732673 133:0.84126985 134:0.5479452 135:0.78260869 136:0.46774194 137:0.63157892 138:0.60784316 139:0.71111113 140:0.64814812 141:0.67796612 142:0.63793105 143:0.60273975 144:0.79591835 145:0.68333334 146:0.50588238 147:0.69230771 148:0.80000001 149:0.52380955 150:0.80000001 151:0.81481481 152:0.83999997 153:0.80851066 154:0.60869563 155:0.75342464 156:0.86792451 157:0.87356323 158:0.60714287 159:0.72340423 160:0.2857143 161:0.60000002 162:0.7368421 163:0.88157892 164:0.68627453 165:0.77777779 166:0.55000001 167:0.88524592 168:0.90425533 169:0.80597013 170:0.5411765 171:0.73333335 172:0.421875 173:0.87272727 174:0.89473683 175:0.86666667 176:0.66279072 177:0.9285714 178:0.51351351 179:0.55072463 180:0.87804878 181:0.5487805 182:0.62637365 183:0.82558137 184:0.80263156 185:0.95918369 186:1 187:0.34999999 188:0.47126436 189:0.87272727 190:0.7352941 191:0.91666669 192:1 193:0.79661018 194:0.71111113 195:0.82051283 196:0.42857143 197:0.6875 198:0.96875 199:0.94871795 200:0.83870965 201:0.92405063 202:0.82608694 203:0.58208954 204:0.63333333 205:0.92957747 206:0.8125 207:0.79591835 208:0.61016947 209:0.7361111 210:0.7368421 211:0.86440676 212:0.80882353 213:0.85483873 214:0.53750002 215:0.65789473 216:0.77551019 217:0.83333331 218:0.78378379 219:0.76829267 220:0.74074072 221:0.81176472 222:1 223:0.71739131 224:0.73076922 225:0.71111113 226:0.20689656 227:0.52173913 228:0.81609195 229:0.86538464 230:0.80000001 231:0.72972971 232:0.44 233:0.48648649 234:0.71428573 235:0.90769231 236:0.76190478 237:0.87804878 238:0.82456142 239:0.69444442 240:0.82278478 241:0.95714283 242:0.72131145 243:0.71153843 244:0.64516127 245:0.8101266 246:0.87719297 247:0.79710144 248:0.85185188 249:0.90163934 250:0.52747256 251:0.73417723 252:0.90566039 253:0.34444445 254:0.50877196 255:0.40425533 256:0.70731705 257:0.71052629 258:1 259:0.52857143 260:0.39583334 261:0.68000001 262:1 263:1 264:0.95348835 265:0.48780489 266:0.97222221 267:0.83870965 268:0.46666667 269:0.64285713 270:0.63529414 271:0.69491524 272:0.7647059 273:0.7903226 274:0.70454544 275:0.73809522 276:0.53846157 277:0.48750001 278:0.63934427 279:0.64583331 280:0.546875 281:0.89393938 282:0.57894737 283:0.52499998 284:0.86538464 285:0.7647059 286:0.6111111 287:0.765625 288:0.68493152 
-0.1055199773387136 1:0.15000001 2:0.42372882 3:0.7368421 4:0.60377359 5:0.80645162 6:1 7:0.18181819 8:0.51612902 9:0.60606062 10:0.83333331 11:0.71844661 12:1 13:0.375 14:0.42307693 15:0.5 16:0.55102038 17:0.51376146 18:0.76404494 19:0.43678162 20:0.55263156 21:0.70212764 22:0.45454547 23:0.49038461 24:0.70408165 25:0.59302324 26:0.60000002 27:0.61702126 28:0.41095892 29:0.67164177 30:0.72857141 31:0.87719297 32:0.72368419 33:0.84210527 34:0.71186441 35:0.71875 36:0.87341774 37:0.12359551 38:0.27500001 39:0.82978725 40:1 41:1 42:0.96629214 43:0.35714287 44:0.37349397 45:0.5714286 46:0.54545456 47:1 48:1 49:0.890625 50:0.83076924 51:0.90476191 52:0.90322578 53:0.8888889 54:0.90476191 55:0.7972973 56:0.7037037 57:0.81159419 58:0.62790698 59:0.49397591 60:0.5714286 61:0.87951809 62:0.8888889 63:0.73015875 64:0.6025641 65:0.77464789 66:0.68888891 67:0.85714287 68:0.89534885 69:0.85135138 70:0.79166669 71:0.66129035 72:0.81333333 73:0.64285713 74:0.1923077 75:0.80392158 76:0.47727272 77:0.9245283 78:0.85526317 79:0.7719298 80:0.80000001 81:0.60975611 82:0.51923078 83:0.94915253 84:0.85714287 85:0.78571427 86:0.890625 87:0.796875 88:0.7352941 89:0.6122449 90:0.55128205 91:0.89610392 92:0.74509805 93:0.82089549 94:0.72500002 95:0.43939394 96:0.41463414 97:0.96153843 98:0.82278478 99:0.8108108 100:0.67567569 101:0.87692308 102:0.68518519 103:0.72222221 104:0.6708861 105:0.65753424 106:0.56603771 107:0.69841272 108:0.78481013 109:0.54320985 110:0.33333334 111:0.71428573 112:0.47826087 113:0.91891891 114:1 115:0.73134327 116:0.34210527 117:0.5 118:0.81578946 119:0.88679248 120:0.82203388 121:0.7361111 122:0.53968257 123:0.625 124:0.78125 125:0.49253732 126:0.60169494 127:0.78260869 128:0.4074074 129:0.65384614 130:0.61538464 131:0.53246754 132:0.55445546 133:0.82539684 134:0.47945204 135:0.60869563 136:0.51612902 137:0.78947371 138:0.74509805 139:0.73333335 140:0.64814812 141:0.66101694 142:0.65517241 143:0.67123288 144:0.89795917 145:0.68333334 146:0.49411765 147:0.61538464 148:0.72500002 149:0.90476191 150:1 151:0.82716048 152:0.68000001 153:0.65957445 154:0.65217394 155:0.86301368 156:1 157:0.81609195 158:0.5714286 159:0.57446808 160:0.2857143 161:0.69999999 162:0.81578946 163:0.80263156 164:0.74509805 165:0.8611111 166:0.47499999 167:0.52459013 168:0.70212764 169:0.85074627 170:0.56470591 171:0.68888891 172:0.359375 173:0.69090909 174:0.64912283 175:0.83333331 176:0.62790698 177:0.9464286 178:0.52702701 179:0.56521738 180:0.902439 181:0.64634144 182:0.63736266 183:0.82558137 184:0.82894737 185:1 186:0.95714283 187:0.40000001 188:0.43678162 189:0.72727275 190:0.7647059 191:1 192:0.91666669 193:0.81355929 194:0.75555557 195:0.66666669 196:0.375 197:0.69999999 198:0.90625 199:0.91025639 200:0.77419353 201:0.87341774 202:0.80434781 203:0.49253732 204:0.54444444 205:0.90140843 206:0.671875 207:0.69387758 208:0.61016947 209:0.68055558 210:0.59649122 211:0.93220341 212:0.80882353 213:0.85483873 214:0.5 215:0.61842108 216:0.75510204 217:0.65384614 218:0.74324322 219:0.71951222 220:0.7037037 221:0.89411765 222:0.859375 223:0.65217394 224:0.65384614 225:0.71111113 226:0.44827586 227:0.98550725 228:0.88505745 229:0.82692307 230:0.75999999 231:0.8108108 232:0.44 233:0.6081081 234:0.84126985 235:0.8923077 236:0.87301588 237:0.89024389 238:0.78947371 239:0.5138889 240:0.60759491 241:0.9285714 242:0.77049178 243:0.67307693 244:0.69354838 245:0.74683547 246:0.71929824 247:0.71014494 248:0.9074074 249:0.93442625 250:0.52747256 251:0.73417723 252:0.96226418 253:0.36666667 254:0.54385966 255:0.36170211 256:0.39024389 257:1 258:1 259:0.55714285 260:0.33333334 261:0.51999998 262:0.58333331 263:0.93243241 264:0.87209302 265:0.42682928 266:0.83333331 267:0.67741936 268:0.37777779 269:0.72448981 270:0.78823531 271:0.72881359 272:0.64705884 273:0.82258064 274:0.63636363 275:0.72619045 276:0.61538464 277:0.58749998 278:0.57377046 279:0.66666669 280:0.484375 281:0.81818181 282:0.75 283:0.52499998 284:0.75 285:0.74509805 286:0.55555558 287:0.71875 288:0.80821919 
-0.002185900815346301 1:0.16666667 2:0.44067797 3:0.75438595 4:0.6981132 5:0.58064514 6:0.56164384 7:0.19318181 8:0.51612902 9:0.63636363 10:0.75 11:0.86407769 12:0.66666669 13:0.34090909 14:0.40384614 15:0.52941179 16:0.75510204 17:0.85321099 18:0.94382024 19:0.39080459 20:0.47368422 21:0.74468082 22:0.90909094 23:0.80769229 24:1 25:0.63953489 26:0.56363636 27:0.55319148 28:0.47945204 29:0.64179105 30:0.97142857 31:0.80701756 32:0.64473683 33:0.75438595 34:0.64406782 35:0.609375 36:0.98734176 37:0.14606741 38:0.21250001 39:0.61702126 40:0.64102566 41:0.52380955 42:0.43820226 43:0.24285714 44:0.48192772 45:0.60000002 46:0.32467532 47:0.50476193 48:0.45054945 49:0.859375 50:0.86153847 51:0.8888889 52:0.58064514 53:0.50793654 54:0.55555558 55:0.7972973 56:0.72222221 57:0.78260869 58:0.41860464 59:0.36144578 60:0.36507937 61:0.84337348 62:0.77777779 63:0.6825397 64:0.56410259 65:0.57746476 66:0.42222223 67:0.59740257 68:0.51162791 69:0.55405408 70:0.70833331 71:0.5 72:0.69333333 73:0.5714286 74:0.13461539 75:0.7647059 76:0.68181819 77:0.56603771 78:0.69736844 79:0.85964912 80:0.72500002 81:0.78048778 82:0.63461536 83:0.54237288 84:0.59523809 85:0.84523809 86:0.9375 87:0.890625 88:0.7352941 89:0.34693879 90:0.41025642 91:0.84415585 92:0.78431374 93:0.97014928 94:0.77499998 95:0.34848484 96:0.35365853 97:0.83333331 98:0.70886075 99:0.77027029 100:0.58108109 101:0.73846155 102:0.53703701 103:0.96296299 104:0.97468352 105:0.82191783 106:0.67924529 107:0.85714287 108:0.91139239 109:0.35802469 110:0.34920636 111:0.65079367 112:0.69565219 113:0.78378379 114:0.6883117 115:0.46268657 116:0.36842105 117:0.625 118:0.52631581 119:0.67924529 120:0.88135594 121:0.5 122:0.53968257 123:0.609375 124:0.625 125:0.74626863 126:0.80508476 127:0.56521738 128:0.27777779 129:0.59615386 130:0.69230771 131:1 132:0.81188118 133:0.74603176 134:0.42465752 135:0.60869563 136:0.54838711 137:0.84210527 138:0.64705884 139:0.44444445 140:0.53703701 141:0.67796612 142:0.62068963 143:0.56164384 144:0.79591835 145:0.76666665 146:0.47058824 147:0.6769231 148:0.625 149:0.59523809 150:0.28235295 151:0.91358024 152:0.44 153:0.80851066 154:0.32608697 155:0.61643833 156:0.51886791 157:0.954023 158:0.51785713 159:0.63829786 160:0.5 161:0.72500002 162:0.78070176 163:0.90789473 164:0.49019608 165:0.75 166:0.72500002 167:0.3442623 168:0.86170214 169:0.91044778 170:0.47058824 171:0.48888889 172:0.40625 173:0.61818182 174:0.64912283 175:0.93333334 176:0.53488374 177:0.8214286 178:0.5 179:0.49275362 180:0.85365856 181:0.53658539 182:0.56043959 183:0.62790698 184:0.52631581 185:0.67346936 186:0.54285717 187:0.3125 188:0.44827586 189:0.78181821 190:0.41176471 191:0.2638889 192:0.33333334 193:0.71186441 194:0.68888891 195:0.74358976 196:0.23214285 197:0.36250001 198:0.6875 199:0.85897434 200:0.85483873 201:0.91139239 202:0.71739131 203:0.61194032 204:0.71111113 205:0.85915494 206:0.671875 207:0.65306121 208:0.54237288 209:0.6388889 210:0.56140351 211:0.91525424 212:0.7352941 213:0.75806451 214:0.48750001 215:0.60526317 216:0.65306121 217:0.82051283 218:0.7972973 219:0.87804878 220:0.91358024 221:0.7764706 222:0.734375 223:0.76086956 224:0.82692307 225:0.75555557 226:0.44827586 227:0.56521738 228:0.51724136 229:0.84615386 230:0.92000002 231:0.86486489 232:0.36000001 233:0.5945946 234:0.79365081 235:0.84615386 236:0.8888889 237:0.96341461 238:0.71929824 239:0.75 240:0.88607597 241:0.88571429 242:0.6557377 243:0.65384614 244:0.67741936 245:0.70886075 246:0.78947371 247:0.59420288 248:0.75925928 249:0.78688526 250:0.52747256 251:0.69620252 252:0.9245283 253:0.33333334 254:0.45614034 255:0.38297874 256:0.63414633 257:0.47368422 258:0.67241377 259:0.47142857 260:0.27083334 261:0.72000003 262:0.3611111 263:0.52702701 264:0.60465115 265:0.47560975 266:0.75 267:0.67741936 268:0.24444444 269:0.62244898 270:0.75294119 271:0.66101694 272:0.41176471 273:0.61290324 274:0.68181819 275:0.75 276:0.57692307 277:0.51249999 278:0.49180329 279:0.47916666 280:0.53125 281:0.74242425 282:0.55263156 283:0.47499999 284:0.71153843 285:0.70588237 286:0.54166669 287:0.671875 288:0.61643833 
-0.05445691731336923 1:0.23333333 2:0.57627118 3:0.84210527 4:0.9245283 5:0.7096774 6:0.6438356 7:0.25 8:0.77419353 9:0.66666669 10:0.83333331 11:0.89320385 12:0.55172414 13:0.39772728 14:0.53846157 15:0.88235295 16:0.71428573 17:0.74311924 18:0.74157304 19:0.41379312 20:0.36842105 21:0.78723407 22:0.63636363 23:0.70192307 24:0.71428573 25:0.68604654 26:0.56363636 27:0.68085104 28:0.38356164 29:0.46268657 30:0.71428573 31:0.84210527 32:0.68421054 33:0.80701756 34:0.72881359 35:0.75 36:0.88607597 37:0.15730338 38:0.375 39:0.85106385 40:0.87179488 41:0.58333331 42:0.46067417 43:0.38571429 44:0.45783132 45:0.74285716 46:0.37662336 47:0.35238096 48:0.3956044 49:0.859375 50:0.76923078 51:0.96825397 52:0.80645162 53:0.3968254 54:0.53968257 55:0.87837839 56:0.72222221 57:0.79710144 58:0.58139533 59:0.3253012 60:0.41269842 61:0.90361446 62:0.84126985 63:0.69841272 64:0.53846157 65:0.42253521 66:0.46666667 67:0.92207789 68:0.90697676 69:0.93243241 70:0.95833331 71:0.96774191 72:0.94666666 73:0.625 74:0.26923078 75:0.96078432 76:0.79545456 77:0.79245281 78:0.68421054 79:0.7719298 80:0.77499998 81:0.75609756 82:0.63461536 83:0.59322035 84:0.47619048 85:0.84523809 86:0.8125 87:0.796875 88:0.7352941 89:0.59183675 90:0.48717949 91:0.87012988 92:0.56862748 93:0.77611941 94:0.60000002 95:0.40909091 96:0.52439022 97:0.88461536 98:0.73417723 99:0.75675678 100:0.55405408 101:0.55384618 102:0.66666669 103:0.5925926 104:0.63291138 105:0.50684929 106:0.3018868 107:0.41269842 108:0.6708861 109:0.46913579 110:0.47619048 111:0.77777779 112:0.82608694 113:0.8108108 114:0.79220778 115:0.70149255 116:0.42105263 117:0.65625 118:0.57894737 119:0.81132078 120:0.83898306 121:0.6388889 122:0.71428573 123:0.75 124:0.9375 125:0.80597013 126:0.74576271 127:0.60869563 128:0.5 129:0.76923078 130:0.79487181 131:0.58441556 132:0.68316829 133:0.80952382 134:0.58904111 135:0.73913044 136:0.59677422 137:0.42105263 138:0.4509804 139:0.64444447 140:0.6111111 141:0.71186441 142:0.68965518 143:0.57534248 144:0.89795917 145:0.71666664 146:0.51764709 147:0.70769233 148:0.875 149:0.83333331 150:0.36470589 151:0.8888889 152:0.83999997 153:0.89361703 154:0.45652175 155:0.83561641 156:0.60377359 157:0.91954023 158:0.625 159:0.76595747 160:0.78571427 161:0.77499998 162:0.71929824 163:0.94736844 164:0.64705884 165:0.68055558 166:0.55000001 167:0.60655737 168:0.82978725 169:0.91044778 170:0.51764709 171:0.60000002 172:0.4375 173:0.36363637 174:0.56140351 175:0.93333334 176:0.58139533 177:0.9464286 178:0.52702701 179:0.65217394 180:0.97560978 181:0.58536583 182:0.71428573 183:0.98837209 184:0.96052629 185:0.87755102 186:0.71428573 187:0.375 188:0.49425286 189:0.90909094 190:0.52941179 191:0.40277779 192:0.4375 193:0.83050847 194:0.68888891 195:0.82051283 196:0.2857143 197:0.46250001 198:0.734375 199:0.87179488 200:0.7096774 201:0.84810126 202:0.71739131 203:0.62686568 204:0.63333333 205:0.88732392 206:0.65625 207:0.65306121 208:0.52542371 209:0.41666666 210:0.54385966 211:0.91525424 212:0.7647059 213:0.82258064 214:0.52499998 215:0.59210527 216:0.79591835 217:0.80769229 218:0.7027027 219:0.597561 220:0.62962961 221:0.58823532 222:0.59375 223:0.71739131 224:0.78846157 225:0.82222223 226:0.7241379 227:0.37681159 228:0.43678162 229:0.86538464 230:0.83999997 231:0.86486489 232:0.44 233:0.4054054 234:0.55555558 235:0.8923077 236:0.66666669 237:0.85365856 238:0.7719298 239:0.5138889 240:0.60759491 241:0.9285714 242:0.73770493 243:0.78846157 244:0.67741936 245:0.51898736 246:0.66666669 247:0.69565219 248:0.83333331 249:0.91803277 250:0.49450549 251:0.68354428 252:0.94339621 253:0.36666667 254:0.57894737 255:0.53191489 256:0.75609756 257:0.47368422 258:0.74137932 259:0.52857143 260:0.45833334 261:0.88 262:0.3611111 263:0.55405408 264:0.87209302 265:0.47560975 266:0.97222221 267:0.87096775 268:0.55555558 269:0.67346936 270:0.83529413 271:0.779661 272:0.70588237 273:0.77419353 274:0.56818181 275:0.6785714 276:0.80769229 277:0.58749998 278:0.55737704 279:0.66666669 280:0.5 281:0.530303 282:0.72368419 283:0.52499998 284:0.78846157 285:0.7647059 286:0.625 287:0.796875 288:0.82191783 
-0.06205851005037148 1:0.80000001 2:0.49152541 3:0.82456142 4:0.56603771 5:0.45161289 6:0.57534248 7:0.39772728 8:0.93548387 9:1 10:0.91666669 11:0.83495146 12:0.66666669 13:0.20454545 14:0.1923077 15:0.05882353 16:0.22448979 17:0.51376146 18:0.75280899 19:0.40229884 20:0.57894737 21:0.76595747 22:0.75 23:0.64423078 24:0.72448981 25:0.51162791 26:0.5090909 27:0.55319148 28:0.42465752 29:0.61194032 30:0.89999998 31:0.7368421 32:0.60526317 33:0.66666669 34:0.71186441 35:0.625 36:0.96202534 37:0.83146065 38:0.71249998 39:0.76595747 40:0.61538464 41:0.48809522 42:0.38202247 43:0.87142855 44:0.79518074 45:0.88571429 46:0.35064936 47:0.64761907 48:0.54945058 49:0.703125 50:0.63076925 51:0.58730161 52:0 53:0.53968257 54:0.79365081 55:0.7972973 56:0.74074072 57:0.86956519 58:0.81395346 59:0.74698794 60:0.58730161 61:0.91566265 62:0.80952382 63:0.6825397 64:0.56410259 65:0.61971831 66:0.31111112 67:0.83116883 68:0.79069769 69:0.74324322 70:0.7361111 71:0.7096774 72:0.89333332 73:0.85714287 74:0.40384614 75:0.50980395 76:0.79545456 77:0.58490568 78:0.56578946 79:1 80:0.85000002 81:0.51219511 82:0.73076922 83:0.81355929 84:0.83333331 85:0.77380955 86:0.6875 87:0.5625 88:0 89:0.65306121 90:0.57692307 91:0.90909094 92:0.82352942 93:0.86567163 94:0.82499999 95:0.59090906 96:0.65853661 97:0.88461536 98:0.75949365 99:0.6891892 100:0.6081081 101:0.6769231 102:0.53703701 103:0.7037037 104:0.74683547 105:0.68493152 106:0.6226415 107:0.6825397 108:0.69620252 109:0.75308645 110:0.58730161 111:0.49206349 112:0.39130434 113:0.56756759 114:0.61038959 115:0.880597 116:0.43421054 117:0.8125 118:0.57894737 119:0.66037738 120:0.83898306 121:0.69444442 122:0.3968254 123:0.46875 124:0.0625 125:0.47761193 126:0.59322035 127:0.68115944 128:0.5 129:0.88461536 130:0.69230771 131:0.64935064 132:0.7227723 133:0.82539684 134:0.42465752 135:0.60869563 136:0.5 137:0.64912283 138:0.7647059 139:0.80000001 140:0.6111111 141:0.64406782 142:0.62068963 143:0.53424656 144:0.79591835 145:0.81666666 146:0.70588237 147:0.83076924 148:0.42500001 149:0.5 150:0.28235295 151:0.85185188 152:0.68000001 153:0.82978725 154:0.47826087 155:0.61643833 156:0.50943398 157:0.77011496 158:0.35714287 159:0.55319148 160:0.14285715 161:0.78750002 162:0.91228068 163:0.82894737 164:0.70588237 165:0.79166669 166:0.625 167:0.63934427 168:0.76595747 169:0.76119405 170:0.44705883 171:0.55555558 172:0.375 173:0.63636363 174:0.70175439 175:0.68333334 176:0.60465115 177:0.76785713 178:0.51351351 179:0.46376812 180:0.85365856 181:0.9512195 182:0.94505495 183:0.83720928 184:0.7368421 185:0.70408165 186:0.58571428 187:0.83749998 188:0.7011494 189:0.80000001 190:0.64705884 191:0.55555558 192:0.47916666 193:0.94915253 194:0.75555557 195:0.74358976 196:0.089285716 197:0.58749998 198:0.890625 199:0.88461536 200:0.7903226 201:0.8101266 202:0.65217394 203:0.67164177 204:0.62222224 205:0.88732392 206:0.6875 207:0.59183675 208:0.52542371 209:0.65277779 210:0.57894737 211:0.91525424 212:0.7352941 213:0.82258064 214:0.52499998 215:0.57894737 216:0.75510204 217:0.69230771 218:0.6891892 219:0.60975611 220:0.7037037 221:0.71764708 222:0.703125 223:0.95652175 224:0.63461536 225:0.37777779 226:0.68965518 227:0.47826087 228:0.62068963 229:0.88461536 230:0.98000002 231:0.64864862 232:0.079999998 233:0.5 234:0.85714287 235:0.83076924 236:0.77777779 237:0.84146339 238:0.64912283 239:0.625 240:0.73417723 241:0.85714287 242:0.62295079 243:0.55769229 244:0.61290324 245:0.75949365 246:0.70175439 247:0.69565219 248:0.74074072 249:0.77049178 250:0.47252747 251:0.65822786 252:0.7735849 253:0.62222224 254:0.64912283 255:0.72340423 256:0.41463414 257:0.42105263 258:0.46551725 259:0.65714288 260:0.083333336 261:0.80000001 262:0.6111111 263:0.58108109 264:0.52325583 265:0.37804878 266:0.69444442 267:0.54838711 268:0.60000002 269:0.9285714 270:0.71764708 271:0.67796612 272:0.70588237 273:0.74193549 274:0.93181819 275:0.75 276:0.58974361 277:0.48750001 278:0.42622951 279:0.5 280:0.5 281:0.72727275 282:0.57894737 283:0.53750002 284:0.76923078 285:0.627451 286:0.55555558 287:0.65625 288:0.65753424 
-0.07664599996266287 1:0.16666667 2:0.40677965 3:0.7368421 4:0.81132078 5:0.54838711 6:0.57534248 7:0.18181819 8:0.3548387 9:0.42424244 10:0.75 11:0.83495146 12:0.63218391 13:0.35227272 14:0.38461539 15:0.41176471 16:0.42857143 17:0.62385321 18:0.80898875 19:0.43678162 20:0.47368422 21:0.61702126 22:0.54545456 23:0.85576922 24:0.79591835 25:0.61627907 26:0.65454543 27:0.63829786 28:0.41095892 29:0.70149255 30:0.94285715 31:0.68421054 32:0.67105263 33:0.75438595 34:0.69491524 35:0.640625 36:0.97468352 37:0.12359551 38:0.21250001 39:0.70212764 40:0.53846157 41:0.65476191 42:0.48314607 43:0.30000001 44:0.30120483 45:0.42857143 46:0.3116883 47:0.60952383 48:0.61538464 49:0.875 50:0.76923078 51:0.77777779 52:0.41935483 53:0.74603176 54:0.85714287 55:0.77027029 56:0.66666669 57:0.68115944 58:0.20930232 59:0.74698794 60:0.52380955 61:0.80722892 62:0.82539684 63:0.76190478 64:0.52564102 65:0.74647886 66:0.5777778 67:0.70129871 68:0.63953489 69:0.67567569 70:0.7361111 71:0.56451613 72:0.70666665 73:0.53571427 74:0.1923077 75:0.7647059 76:0.70454544 77:0.71698111 78:0.84210527 79:0.68421054 80:0.77499998 81:0.51219511 82:0.59615386 83:0.71186441 84:0.71428573 85:0.79761904 86:0.796875 87:0.6875 88:0.38235295 89:0.55102038 90:0.52564102 91:0.81818181 92:0.68627453 93:0.76119405 94:0.125 95:0.31818181 96:0.56097561 97:0.82051283 98:0.78481013 99:0.83783782 100:0.5945946 101:0.72307694 102:0.7037037 103:0.85185188 104:0.91139239 105:0.75342464 106:0.6226415 107:0.87301588 108:0.97468352 109:0.54320985 110:0.22222222 111:0.66666669 112:0.73913044 113:0.64864862 114:0.6883117 115:0.70149255 116:0.30263159 117:0.28125 118:0.42105263 119:0.6981132 120:0.83050847 121:0.58333331 122:0.53968257 123:0.59375 124:0.5625 125:0.65671641 126:0.78813559 127:0.62318838 128:0.44444445 129:0.65384614 130:0.15384616 131:0.59740257 132:0.94059408 133:0.76190478 134:0.52054793 135:0.76086956 136:0.41935483 137:0.61403507 138:0.74509805 139:0.53333336 140:0.5 141:0.67796612 142:0.56896549 143:0.56164384 144:0.85714287 145:0.66666669 146:0.49411765 147:0.61538464 148:0.57499999 149:0.5714286 150:0.29411766 151:0.81481481 152:0.40000001 153:0.5106383 154:0.28260869 155:0.78082192 156:0.67924529 157:0.89655173 158:0.44642857 159:0.46808511 160:0.25 161:0.6875 162:0.80701756 163:0.88157892 164:0.68627453 165:0.84722221 166:0.52499998 167:0.47540984 168:0.79787236 169:0.89552242 170:0.5411765 171:0.71111113 172:0.328125 173:0.61818182 174:0.85964912 175:0.88333333 176:0.55813956 177:0.9285714 178:0.47297296 179:0.53623188 180:0.902439 181:0.47560975 182:0.52747256 183:0.67441863 184:0.67105263 185:0.65306121 186:0.34285715 187:0.33750001 188:0.40229884 189:0.61818182 190:0.23529412 191:0.3888889 192:0.48958334 193:0.72881359 194:0.66666669 195:0.61538464 196:0.10714286 197:0.47499999 198:0.8125 199:0.83333331 200:0.72580647 201:0.74683547 202:0.2173913 203:0.65671641 204:0.69999999 205:0.84507042 206:0.71875 207:0.6122449 208:0.52542371 209:0.72222221 210:0.80701756 211:0.88135594 212:0.7352941 213:0.7903226 214:0.55000001 215:0.67105263 216:0.85714287 217:0.8974359 218:0.83783782 219:0.84146339 220:0.81481481 221:0.83529413 222:0.921875 223:0.63043481 224:0.63461536 225:0.60000002 226:0.65517241 227:0.65217394 228:0.56321841 229:0.90384614 230:0.75999999 231:0.7027027 232:0.25999999 233:0.5945946 234:0.77777779 235:0.86153847 236:0.82539684 237:0.84146339 238:0.52631581 239:0.8611111 240:0.93670887 241:0.82857144 242:0.6885246 243:0.65384614 244:0.53225809 245:0.8607595 246:0.91228068 247:0.59420288 248:0.77777779 249:0.80327868 250:0.46153846 251:0.72151899 252:0.9245283 253:0.33333334 254:0.43859649 255:0.25531915 256:0.48780489 257:0.31578946 258:0.63793105 259:0.44285715 260:0.20833333 261:0.28 262:0.30555555 263:0.75675678 264:0.69767439 265:0.37804878 266:0.75 267:0.41935483 268:0.48888889 269:0.85714287 270:0.69411767 271:0.62711865 272:0.79411763 273:0.7096774 274:0.70454544 275:0.71428573 276:0.51282054 277:0.52499998 278:0.63934427 279:0.6875 280:0.390625 281:0.80303031 282:0.59210527 283:0.48750001 284:0.73076922 285:0.64705884 286:0.5138889 287:0.75 288:0.60273975 
