svm_type c_svc
kernel_type rbf
gamma 0.09
nr_class 2
total_sv 130
rho 0.0536567
label 141 142
nr_sv 69 61
SV
0.02240594350608487 1:0.2992126 2:0.34 3:0.26666668 4:0.45555556 5:0.63218391 6:0.49038461 7:0.69306928 8:0.71428573 9:0.31999999 10:0.62820512 11:0.41025642 12:0.26213592 13:0.53703701 14:0.55555558 15:0.15873016 16:0.40384614 17:0.2783505 18:0.23584905 19:0.40157479 20:0.55208331 21:0.35185185 22:0.40000001 23:0.52427185 24:0.29565218 25:0.15238096 26:0.10126583 27:0.37037036 28:0.56756759 29:0.37 30:0.37190083 31:0.14942528 32:0.031914894 33:0.23529412 34:0.27160493 35:0.23469388 36:0.2 37:0.34090909 38:0.36904761 39:0.29577464 40:0.34146342 41:0.56164384 42:0.71621621 43:0.32978722 44:0.67241377 45:0.31481481 46:0.55072463 47:0.46575344 48:0.43243244 49:0.27500001 50:0.52307695 51:0.22222222 52:0.5 53:0.5 54:0.4050633 55:0.23404256 56:0.5 57:0.19148937 58:0.39344263 59:0.48314607 60:0.47368422 61:0.091836736 62:0.03846154 63:0.15789473 64:0.38235295 65:0.38709676 66:0.48453608 67:0.58878505 68:0.6981132 69:0.66292137 70:0.70526314 71:0.68627453 72:0.7669903 73:0.3131313 74:0.49397591 75:0.32926831 76:0.35365853 77:0.67532468 78:0.68421054 79:0.27906978 80:0.80000001 81:0.40983605 82:0.59677422 83:0.49367088 84:0.41176471 85:0.24390244 86:0.47368422 87:0.1724138 88:0.40000001 89:0.46153846 90:0.53521127 91:0.31578946 92:0.62666667 93:0.34545454 94:0.58928573 95:0.43820226 96:0.55555558 97:0.23999999 98:0.14634146 99:0.26415095 100:0.54411763 101:0.51162791 102:0.47297296 103:0.73770493 104:0.62608695 105:0.54651165 106:0.67346936 107:0.6936937 108:0.71844661 109:0.38392857 110:0.23 111:0.21875 112:0.33333334 113:0.59740257 114:0.44554454 115:0.32110092 116:0.47674417 117:0.57971013 118:0.66153848 119:0.61038959 120:0.26785713 121:0.36082473 122:0.49473685 123:0.34722221 124:0.45614034 125:0.44444445 126:0.32407406 127:0.42056075 128:0.51851851 129:0.31645569 130:0.58928573 131:0.46728972 132:0.46153846 133:0.36633664 134:0.16483517 135:0.31818181 136:0.44067797 137:0.38532111 138:0.36697248 139:0.66071427 140:0.13483146 141:0.25882354 142:0.26666668 143:0.22340426 144:0.26851851 145:0.81751823 146:0.17431192 147:0.21568628 148:0.23 149:0.51648355 150:0.56701028 151:0.85365856 152:0.46341464 153:0.40277779 154:0.3114754 155:0.44594595 156:0.46153846 157:0.81578946 158:0.69791669 159:0.60606062 160:0.36842105 161:0.32673267 162:0.33707866 163:0.7863248 164:0.65346533 165:0.26027396 166:0.3283582 167:0.49484536 168:0.47524753 169:0.81679392 170:0.67000002 171:0.33333334 172:0.44444445 173:0.46078432 174:0.53097343 175:0.71681416 176:0.079545453 177:0.065789476 178:0.18421052 179:0.28155339 180:0.3956044 181:0.14406779 182:0.072072074 183:0.099009901 184:0.010869565 185:0.32584271 186:0.43396226 187:0.41666666 188:0.68000001 189:0.35593221 190:0.46153846 191:0.37179488 192:0.42253521 193:0.22499999 194:0.71212119 195:0.33333334 196:0.64912283 197:0.49275362 198:0.38043478 199:0.38749999 200:0.56521738 201:0.35849056 202:0.51785713 203:0.48192772 204:0.53246754 205:0.37634408 206:0.38679245 207:0.3773585 208:0.58461541 209:0.55172414 210:0.60975611 211:0.16666667 212:0.091954023 213:0.1884058 214:0.375 215:0.33944955 216:0.41304347 217:0.14285715 218:0.094017096 219:0.11607143 220:0.064516127 221:0.30434781 222:0.375 223:0.15294118 224:0.375 225:0.3773585 226:0.53225809 227:0.33333334 228:0.39285713 229:0.23255815 230:0.5 231:0.26415095 232:0.58461541 233:0.35802469 234:0.41304347 235:0.43373495 236:0.57499999 237:0.25999999 238:0.50980395 239:0.44318181 240:0.5 241:0.34782609 242:0.47368422 243:0.35714287 244:0.61818182 245:0.57446808 246:0.57333332 247:0.21505377 248:0.17021276 249:0.28749999 250:0.36250001 251:0.36036035 252:0.37777779 253:0.24761905 254:0.16814159 255:0.16494845 256:0.30000001 257:0.51111114 258:0.45882353 259:0.48314607 260:0.5411765 261:0.30357143 262:0.48648649 263:0.41935483 264:0.2264151 265:0.65048546 266:0.72093022 267:0.44827586 268:0.30769232 269:0.37662336 270:0.25833333 271:0.56034482 272:0.64285713 273:0.14583333 274:0.29310346 275:0.50537634 276:0.41 277:0.460177 278:0.67105263 279:0.42857143 280:0.44303799 281:0.4732143 282:0.42982456 283:0.19480519 284:0.12162162 285:0.2820513 286:0.27906978 287:0.31481481 288:0.2 
0.005741050144156982 1:0.4566929 2:0.30000001 3:0.40000001 4:0.54444444 5:0.7011494 6:0.59615386 7:0.86138612 8:0.30158731 9:0.61333334 10:0.6025641 11:0.30769232 12:0.19417475 13:0.8611111 14:0.62962961 15:0.55555558 16:0.46153846 17:0.30927834 18:0.21698113 19:0.62992126 20:0.6875 21:0.7037037 22:0.41538462 23:0.55339807 24:0.2521739 25:0.20952381 26:0.20253165 27:0.62962961 28:0.41891891 29:0.34999999 30:0.34710744 31:0.16091955 32:0.063829787 33:0.30588236 34:0.24691358 35:0.21428572 36:0.18095239 37:0.64772725 38:0.69047618 39:0.49295774 40:0.5487805 41:0.72602737 42:0.63513511 43:0.54255319 44:0.81034482 45:0.5 46:0.65217394 47:0.3561644 48:0.36486486 49:0.1875 50:0.35384616 51:0.4074074 52:0.62 53:0.55882353 54:0.4050633 55:0.11702128 56:0.24285714 57:0.55319148 58:0.44262296 59:0.46067417 60:0.43421054 61:0.071428575 62:0.20512821 63:0.50877196 64:0.36764705 65:0.3548387 66:0.36082473 67:0.58878505 68:0.68867922 69:0.64044946 70:0.66315788 71:0.70588237 72:0.7669903 73:0.53535354 74:0.66265059 75:0.52439022 76:0.41463414 77:0.66233766 78:0.63157892 79:0.41860464 80:0.53846157 81:0.52459013 82:0.61290324 83:0.35443038 84:0.38235295 85:0.097560972 86:0.19736843 87:0.39655173 88:0.63636363 89:0.58461541 90:0.59154928 91:0.19736843 92:0.16 93:0.41818181 94:0.48214287 95:0.44943821 96:0.48148149 97:0.13333334 98:0.13414635 99:0.4528302 100:0.4852941 101:0.36046511 102:0.41891891 103:0.72950822 104:0.62608695 105:0.58139533 106:0.66326529 107:0.63963962 108:0.66019416 109:0.41964287 110:0.27000001 111:0.41666666 112:0.51190478 113:0.72727275 114:0.62376237 115:0.37614679 116:0.36046511 117:0.68115944 118:0.60000002 119:0.45454547 120:0.25 121:0.57731956 122:0.51578945 123:0.59722221 124:0.56140351 125:0.4074074 126:0.39814815 127:0.68224299 128:0.43518519 129:0.51898736 130:0.66071427 131:0.46728972 132:0.41880342 133:0.37623763 134:0.16483517 135:0.42424244 136:0.47457626 137:0.40366971 138:0.3119266 139:0.60714287 140:0.12359551 141:0.28235295 142:0.26666668 143:0.23404256 144:0.31481481 145:0.79562044 146:0.22018349 147:0.39215687 148:0.40000001 149:0.48351648 150:0.58762884 151:0.83739835 152:0.56097561 153:1 154:0.75409836 155:0.41891891 156:0.47435898 157:0.85087717 158:0.55208331 159:0.80303031 160:0.63157892 161:0.36633664 162:0.38202247 163:0.87179488 164:0.56435645 165:0.87671232 166:0.52238804 167:0.57731956 168:0.47524753 169:0.82442749 170:0.40000001 171:0.530303 172:0.41269842 173:0.42156863 174:0.46902654 175:0.76991153 176:0.13636364 177:0.11842106 178:0.078947365 179:0.28155339 180:0.32967034 181:0.11016949 182:0.072072074 183:0.10891089 184:0.15217391 185:0.47191012 186:0.47169811 187:0.30555555 188:0.51999998 189:0.54237288 190:0.52307695 191:0.38461539 192:0.43661973 193:0.25 194:0.59090906 195:0.47368422 196:0.64912283 197:0.47826087 198:0.41304347 199:0.64999998 200:0.73913044 201:0.60377359 202:0.44642857 203:0.50602412 204:0.53246754 205:0.3548387 206:0.4245283 207:0.73584908 208:0.6769231 209:0.50574714 210:0.5 211:0.14583333 212:0.13793103 213:0.34782609 214:0.34722221 215:0.33027524 216:0.36956522 217:0.14285715 218:0.05982906 219:0.098214284 220:0.096774191 221:0.35869566 222:0.375 223:0.21176471 224:0.41666666 225:0.56603771 226:0.54838711 227:0.26666668 228:0.35714287 229:0.069767445 230:0.41176471 231:0.52830189 232:0.61538464 233:0.30864197 234:0.36956522 235:0.86746991 236:0.625 237:0.5 238:0.43137255 239:0.47727272 240:0.4512195 241:0.43478259 242:0.44210526 243:0.71428573 244:0.61818182 245:0.45744681 246:0.44 247:0.21505377 248:0.20212767 249:0.33750001 250:0.28749999 251:0.3063063 252:0.35555556 253:0.20952381 254:0.17699115 255:0.25773194 256:0.41111112 257:0.56666666 258:0.50588238 259:0.42696628 260:0.47058824 261:0.66071427 262:0.66216218 263:0.33870968 264:0.20754717 265:0.34951457 266:0.63953489 267:0.56896549 268:0.34615386 269:0.32467532 270:0.25 271:0.64655173 272:0.52857143 273:0.54166669 274:0.48275861 275:0.53763443 276:0.34999999 277:0.44247788 278:0.36842105 279:0.53571427 280:0.44303799 281:0.42857143 282:0.34210527 283:0.24675325 284:0.21621622 285:0.2820513 286:0.23255815 287:0.2962963 288:0.19130434 
0.8315419956985632 1:0.16535433 2:0.11 3:0.26666668 4:0.18888889 5:0.19540229 6:0.44230768 7:0.48514852 8:0.015873017 9:0.10666667 10:0.34615386 11:0.53846157 12:0.8252427 13:0.9074074 14:0.098765433 15:0.25396827 16:0.03846154 17:0.06185567 18:0.94339621 19:0.89763778 20:0.64583331 21:0.14814815 22:0.15384616 23:0.3883495 24:0.80000001 25:0.96190476 26:0.78481013 27:0.18518518 28:0.33783785 29:0.61000001 30:0.8429752 31:0.56321841 32:0.19148937 33:0.5411765 34:0.2962963 35:0.35714287 36:0.8952381 37:0.056818184 38:0.05952381 39:0.35211268 40:0.25609756 41:0.26027396 42:0.3108108 43:0.68085104 44:0.43103448 45:0.14814815 46:0.31884059 47:0.71232879 48:0.51351351 49:0.51249999 50:0.21538462 51:0.25925925 52:0.14 53:0.25 54:0.27848101 55:0.24468085 56:0.22857143 57:0.23404256 58:0.13114753 59:0.42696628 60:0.28947368 61:0.2857143 62:0.33333334 63:0.28070176 64:0.073529415 65:0.4623656 66:0.31958762 67:0.10280374 68:0.13207547 69:0.31460676 70:0.10526316 71:0.23529412 72:0.21359223 73:0.1010101 74:0.048192769 75:0.24390244 76:0.18292683 77:0.29870129 78:0.23684211 79:0.52325583 80:0.53846157 81:0.1147541 82:0.27419356 83:0.69620252 84:0.5147059 85:0.36585367 86:0.35526314 87:0.31034482 88:0.21818182 89:0.26153848 90:0.35211268 91:0.38157895 92:0.22666667 93:0.21818182 94:0.071428575 95:0.47191012 96:0.34567901 97:0.50666666 98:0.36585367 99:0.2264151 100:0.088235296 101:0.54651165 102:0.37837839 103:0.13934426 104:0.16521738 105:0.24418604 106:0.14285715 107:0.25225225 108:0.10679612 109:0.25892857 110:0.050000001 111:0.052083332 112:0.14285715 113:0.20779221 114:0.2970297 115:0.27522936 116:0.37209302 117:0.014492754 118:0.24615385 119:0.59740257 120:0.38392857 121:0.21649484 122:0.89473683 123:0.40277779 124:0.22807017 125:0.20987654 126:0.33333334 127:0.64485979 128:0.7962963 129:0.37974682 130:0.071428575 131:0.41121495 132:0.34188035 133:0.78217822 134:0.94505495 135:0.530303 136:0.06779661 137:0.59633029 138:0.44954127 139:0.13392857 140:0.42696628 141:0.57647061 142:0.36000001 143:0.39361703 144:0.41666666 145:0.22627737 146:0.19266056 147:0.32352942 148:0.18000001 149:0.13186814 150:0.35051546 151:0.065040648 152:0 153:0.19444445 154:0.22950819 155:0.55405408 156:0.66666669 157:0.052631579 158:0.13541667 159:0.24242425 160:0.22807017 161:0.16831683 162:0.46067417 163:0.41880342 164:0.57425743 165:0.31506848 166:0.26865673 167:0.42268041 168:0.33663365 169:0.46564886 170:0.73000002 171:0.46969697 172:0.17460318 173:0.69607842 174:0.56637168 175:0.44247788 176:0.61363637 177:0.60526317 178:0.30263159 179:0.50485438 180:0.65934068 181:0.72881359 182:0.77477479 183:0.61386138 184:0.5869565 185:0.65168542 186:0.50943398 187:0.069444448 188:0.026666667 189:0 190:0.16923077 191:0.57692307 192:0.47887325 193:0.28749999 194:0.27272728 195:0.1754386 196:0.070175439 197:0.2173913 198:0.30434781 199:0.82499999 200:0.73913044 201:0.43396226 202:0.3392857 203:0.37349397 204:0.32467532 205:0.63440859 206:0.47169811 207:0.3018868 208:0.12307692 209:0.58620691 210:0.40243903 211:0.76041669 212:0.74712646 213:0.49275362 214:0.18055555 215:0.52293581 216:0.43478259 217:0.79464287 218:0.66666669 219:0.77678573 220:0.62365592 221:0.60869563 222:0.63541669 223:0.070588239 224:0 225:0 226:0.33870968 227:0.50666666 228:0.40476191 229:0.23255815 230:0.11764706 231:0.33962265 232:0.18461539 233:0.098765433 234:0.25 235:0.68674701 236:0.47499999 237:0.23999999 238:0.17647059 239:0.375 240:0.29268292 241:0.46086955 242:0.34736842 243:0.26785713 244:0 245:0.53191489 246:0.36000001 247:0.8172043 248:0.67021275 249:0.5 250:0.22499999 251:0.46846846 252:0.2888889 253:0.23809524 254:0.19469027 255:0.21649484 256:0.12222222 257:0.13333334 258:0.7647059 259:0.11235955 260:0 261:0.10714286 262:0.36486486 263:0.45161289 264:0.64150941 265:0.24271844 266:0.11627907 267:0.39655173 268:0.01923077 269:0.1038961 270:0.53333336 271:0.61206895 272:0.5 273:0.1875 274:0.13793103 275:0.37634408 276:0.56 277:0.73451328 278:0.65789473 279:0.32142857 280:0.41772151 281:0.58035713 282:0.7280702 283:0.70129871 284:0.6891892 285:0.62820512 286:0.38372093 287:0.49074075 288:0.54782611 
0.002465247493481105 1:0.22047244 2:0.14 3:0.055555556 4:0.21111111 5:0.28735632 6:0.41346154 7:0.49504951 8:0.22222222 9:0.38666666 10:0.56410259 11:0.67948717 12:0.78640777 13:0.73148149 14:0.48148149 15:0.60317463 16:0.69230771 17:0.25773194 18:0.8018868 19:0.41732284 20:0.36458334 21:0.53703701 22:0.46153846 23:0.53398061 24:0.72173911 25:0.71428573 26:0.69620252 27:0.5925926 28:0.48648649 29:0.69999999 30:0.81818181 31:0.48275861 32:0.36170211 33:0.67058825 34:0.50617284 35:0.40816328 36:0.74285716 37:0.22727273 38:0.047619049 39:0 40:0.32926831 41:0.52054793 42:0.5 43:0.57446808 44:0.63793105 45:0.27777779 46:0.62318838 47:0.72602737 48:0.63513511 49:0.46250001 50:0.36923078 51:0.31481481 52:0.63999999 53:0.47058824 54:0.4556962 55:0.32978722 56:0.35714287 57:0.38297874 58:0.40983605 59:0.57303369 60:0.44736841 61:0.6122449 62:0.48717949 63:0.36842105 64:0.32352942 65:0.53763443 66:0.44329897 67:0.28037384 68:0.14150943 69:0.34831461 70:0.29473683 71:0.30392158 72:0.29126215 73:0.26262626 74:0.036144577 75:0.1097561 76:0.29268292 77:0.55844158 78:0.4868421 79:0.33720931 80:0.72307694 81:0.27868852 82:0.5 83:0.6708861 84:0.61764705 85:0.39024389 86:0.63157892 87:0.3275862 88:0.56363636 89:0.52307695 90:0.45070422 91:0.25 92:0.36000001 93:0.40000001 94:0.4642857 95:0.52808988 96:0.46913579 97:0.40000001 98:0.53658539 99:0.58490568 100:0.41176471 101:0.56976742 102:0.55405408 103:0.18032786 104:0.17391305 105:0.40697673 106:0.35714287 107:0.3063063 108:0.21359223 109:0.17857143 110:0.14 111:0.09375 112:0.10714286 113:0.29870129 114:0.31683168 115:0.21100917 116:0.38372093 117:0.30434781 118:0.40000001 119:0.79220778 120:0.52678573 121:0.06185567 122:0.69473684 123:0.47222221 124:0.71929824 125:0.48148149 126:0.28703704 127:0.14953271 128:0.4537037 129:0.35443038 130:0.6964286 131:0.44859812 132:0.3931624 133:0.41584158 134:0.74725276 135:0.69696969 136:0.49152541 137:0.67889911 138:0.50458717 139:0.24107143 140:0.46067417 141:0.68235296 142:0.66666669 143:0.47872341 144:0.30555555 145:0.18248175 146:0.22018349 147:0.19607843 148:0.14 149:0.21978022 150:0.2783505 151:0.16260162 152:0.1097561 153:0.2361111 154:0.37704918 155:0.72972971 156:0.73076922 157:0.3508772 158:0.61458331 159:0.46969697 160:0.63157892 161:0.35643566 162:0.39325842 163:0.26495728 164:0.65346533 165:0.3561644 166:0.50746268 167:0.53608245 168:0.34653464 169:0.29770991 170:0.69999999 171:0.56060606 172:0.38095239 173:0.75490195 174:0.60176992 175:0.30088496 176:0.59090906 177:0.64473683 178:0.46052632 179:0.53398061 180:0.60439563 181:0.78813559 182:0.77477479 183:0.73267329 184:0.68478262 185:0.67415732 186:0.55660379 187:0.30555555 188:0.30666667 189:0.11864407 190:0.2923077 191:0.67948717 192:0.70422536 193:0.44999999 194:0.71212119 195:0.3508772 196:0.64912283 197:0.47826087 198:0.44565219 199:0.44999999 200:0.56521738 201:0.52830189 202:0.64285713 203:0.54216868 204:0.50649351 205:0.44086021 206:0.40566039 207:0.5471698 208:0.50769234 209:0.66666669 210:0.56097561 211:0.57291669 212:0.68965518 213:0.69565219 214:0.58333331 215:0.55045873 216:0.5 217:0.75 218:0.66666669 219:0.6785714 220:0.55913979 221:0.60869563 222:0.69791669 223:0.23529412 224:0.18055555 225:0.18867925 226:0.46774194 227:0.61333334 228:0.54761904 229:0.31395349 230:0.39705881 231:0.4528302 232:0.72307694 233:0.34567901 234:0.33695653 235:0.46987951 236:0.38749999 237:0.5 238:0.58823532 239:0.47727272 240:0.40243903 241:0.45217392 242:0.40000001 243:0.51785713 244:0.38181818 245:0.60638297 246:0.53333336 247:0.68817204 248:0.65957445 249:0.61250001 250:0.46250001 251:0.55855858 252:0.44444445 253:0.32380953 254:0.23893805 255:0.19587629 256:0.14444445 257:0.30000001 258:0.82352942 259:0.25842696 260:0.1882353 261:0.17857143 262:0.47297296 263:0.77419353 264:0.76415092 265:0.66019416 266:0.61627907 267:0.60344827 268:0.42307693 269:0.29870129 270:0.60833335 271:0.70689654 272:0.61428571 273:0.5625 274:0.44827586 275:0.44086021 276:0.61000001 277:0.63716817 278:0.61842108 279:0.66071427 280:0.51898736 281:0.6875 282:0.80701756 283:0.70129871 284:0.63513511 285:0.75641024 286:0.54651165 287:0.56481481 288:0.66086954 
0.03660075258822074 1:0.37007874 2:0.36000001 3:0.32222223 4:0.42222223 5:0.62068963 6:0.42307693 7:0.77227724 8:0.66666669 9:0.37333333 10:0.42307693 11:0.21794872 12:0.15533981 13:0.62962961 14:0.51851851 15:0.26984128 16:0.28846154 17:0.31958762 18:0.24528302 19:0.33070865 20:0.64583331 21:0.44444445 22:0.32307693 23:0.56310678 24:0.31304348 25:0.23809524 26:0.11392405 27:0.35185185 28:0.28378379 29:0.33000001 30:0.35537189 31:0.068965517 32:0.04255319 33:0.23529412 34:0.16049382 35:0.18367347 36:0.18095239 37:0.53409094 38:0.5714286 39:0.42253521 40:0.47560975 41:0.58904111 42:0.63513511 43:0.4893617 44:0.70689654 45:0.24074075 46:0.52173913 47:0.32876712 48:0.35135135 49:0.22499999 50:0.33846155 51:0.31481481 52:0.62 53:0.57352942 54:0.41772151 55:0.11702128 56:0.2 57:0.27659574 58:0.39344263 59:0.41573033 60:0.46052632 61:0.13265306 62:0.064102568 63:0.2631579 64:0.33823529 65:0.34408602 66:0.38144329 67:0.57943922 68:0.63207549 69:0.56179774 70:0.65263158 71:0.627451 72:0.815534 73:0.4848485 74:0.57831323 75:0.51219511 76:0.41463414 77:0.61038959 78:0.67105263 79:0.36046511 80:0.56923079 81:0.3442623 82:0.53225809 83:0.37974682 84:0.35294119 85:0.14634146 86:0.27631578 87:0.34482759 88:0.5090909 89:0.56923079 90:0.59154928 91:0.11842106 92:0.30666667 93:0.5090909 94:0.4642857 95:0.48314607 96:0.49382716 97:0.026666667 98:0.1097561 99:0.3018868 100:0.35294119 101:0.39534885 102:0.3918919 103:0.73770493 104:0.67826086 105:0.59302324 106:0.66326529 107:0.72072071 108:0.65048546 109:0.29464287 110:0.34 111:0.34375 112:0.44047618 113:0.6883117 114:0.44554454 115:0.16513762 116:0.6511628 117:0.55072463 118:0.47692308 119:0.38961038 120:0.1875 121:0.29896906 122:0.47368422 123:0.375 124:0.3859649 125:0.38271606 126:0.4537037 127:0.64485979 128:0.3611111 129:0.25316456 130:0.375 131:0.50467288 132:0.47008547 133:0.20792079 134:0.065934069 135:0.24242425 136:0.18644068 137:0.43119267 138:0.30275229 139:0.6160714 140:0.067415729 141:0.1882353 142:0.13333334 143:0.22340426 144:0.24074075 145:0.82481754 146:0.20183486 147:0.29411766 148:0.31 149:0.36263737 150:0.49484536 151:0.86178863 152:0.5 153:0.6111111 154:0.47540984 155:0.28378379 156:0.35897437 157:0.87719297 158:0.80208331 159:0.5 160:0.24561404 161:0.34653464 162:0.37078652 163:0.8888889 164:0.83168316 165:0.52054793 166:0.41791046 167:0.57731956 168:0.5247525 169:0.86259544 170:0.36000001 171:0.34848484 172:0.38095239 173:0.38235295 174:0.460177 175:0.75221241 176:0.090909094 177:0.065789476 178:0.092105262 179:0.22330096 180:0.29670331 181:0.076271184 182:0.090090089 183:0.099009901 184:0.076086953 185:0.38202247 186:0.4528302 187:0.18055555 188:0.31999999 189:0.50847459 190:0.52307695 191:0.33333334 192:0.38028169 193:0.38749999 194:0.80303031 195:0.36842105 196:0.59649122 197:0.52173913 198:0.41304347 199:0.41249999 200:0.57971013 201:0.47169811 202:0.48214287 203:0.51807231 204:0.55844158 205:0.39784947 206:0.3018868 207:0.49056605 208:0.53846157 209:0.48275861 210:0.52439022 211:0.083333336 212:0.034482758 213:0.057971016 214:0.18055555 215:0.30275229 216:0.31521741 217:0.089285716 218:0.051282052 219:0.098214284 220:0.10752688 221:0.35869566 222:0.3125 223:0.11764706 224:0.19444445 225:0.39622641 226:0.46774194 227:0.26666668 228:0.29761904 229:0.20930232 230:0.58823532 231:0.33962265 232:0.53846157 233:0.33333334 234:0.41304347 235:0.39759037 236:0.38749999 237:0.23999999 238:0.33333334 239:0.47727272 240:0.48780489 241:0.31304348 242:0.34736842 243:0.5 244:0.4909091 245:0.47872341 246:0.46666667 247:0.15053764 248:0.10638298 249:0.1875 250:0.175 251:0.2882883 252:0.31111112 253:0.23809524 254:0.13274336 255:0.21649484 256:0.34444445 257:0.45555556 258:0.3764706 259:0.52808988 260:0.24705882 261:0.44642857 262:0.56756759 263:0.19354838 264:0.12264151 265:0.80582523 266:0.66279072 267:0.39655173 268:0.03846154 269:0.27272728 270:0.25833333 271:0.88793105 272:0.62857145 273:0.4375 274:0.27586207 275:0.58064514 276:0.41999999 277:0.38053098 278:0.30263159 279:0.39285713 280:0.30379745 281:0.4375 282:0.3508772 283:0.14285715 284:0.12162162 285:0.1923077 286:0.15116279 287:0.25 288:0.14782609 
0.3347052522803657 1:0.48818898 2:0.47999999 3:0.48888889 4:0.65555555 5:0.67816091 6:0.55769229 7:0.71287131 8:0.44444445 9:0.66666669 10:0.64102566 11:0.52564102 12:0.63106793 13:0.4537037 14:0.35802469 15:0.77777779 16:0.65384614 17:0.36082473 18:0.73584908 19:0.66929132 20:0.3125 21:0.44444445 22:0.50769234 23:0.70873785 24:0.55652171 25:0.61904764 26:0.36708862 27:0.74074072 28:0.58108109 29:0.76999998 30:0.72727275 31:0.55172414 32:0.34042552 33:0.67058825 34:0.5925926 35:0.46938777 36:0.59047621 37:0.61363637 38:0.4642857 39:0.57746476 40:0.71951222 41:0.75342464 42:0.58108109 43:0.60638297 44:0.60344827 45:0.81481481 46:0.71014494 47:0.63013697 48:0.51351351 49:0.61250001 50:0.60000002 51:0.7962963 52:0.56 53:0.69117647 54:0.62025315 55:0.54255319 56:0.47142857 57:0.55319148 58:0.40983605 59:0.8202247 60:0.61842108 61:0.35714287 62:0.32051283 63:0.50877196 64:0.38235295 65:0.65591395 66:0.54639173 67:0.31775701 68:0.26415095 69:0.33707866 70:0.29473683 71:0.40196079 72:0.43689319 73:0.54545456 74:0.57831323 75:0.48780489 76:0.69512194 77:0.75324672 78:0.56578946 79:0.58139533 80:0.69230771 81:0.70491803 82:0.72580647 83:0.69620252 84:0.55882353 85:0.597561 86:0.53947371 87:0.84482759 88:0.58181816 89:0.6769231 90:0.67605633 91:0.65789473 92:0.66666669 93:0.80000001 94:0.51785713 95:0.74157304 96:0.60493827 97:0.45333335 98:0.42682928 99:0.81132078 100:0.4852941 101:0.77906978 102:0.64864862 103:0.32786885 104:0.34782609 105:0.39534885 106:0.34693879 107:0.41441441 108:0.3883495 109:0.4642857 110:0.58999997 111:0.52083331 112:0.59523809 113:0.74025977 114:0.7227723 115:0.45871559 116:0.77906978 117:0.84057969 118:0.70769233 119:0.66233766 120:0.5089286 121:0.24742268 122:0.53684211 123:0.70833331 124:0.7368421 125:0.53086418 126:0.3888889 127:0.31775701 128:0.67592591 129:0.65822786 130:0.64285713 131:0.70093459 132:0.52136755 133:0.40594059 134:0.72527474 135:0.95454544 136:0.72881359 137:0.85321099 138:0.58715594 139:0.60714287 140:0.57303369 141:0.7764706 142:0.70666665 143:0.58510637 144:0.47222221 145:0.37956205 146:0.51376146 147:0.54901963 148:0.56999999 149:0.58241761 150:0.54639173 151:0.41463414 152:0.5487805 153:0.77777779 154:0.70491803 155:0.6081081 156:0.6025641 157:0.28070176 158:0.61458331 159:0.75757575 160:0.7719298 161:0.45544556 162:0.49438202 163:0.23076923 164:0.5247525 165:0.53424656 166:0.67164177 167:0.76288658 168:0.48514852 169:0.37404579 170:0.63999999 171:0.69696969 172:0.52380955 173:0.82352942 174:0.69026548 175:0.55752212 176:0.63636363 177:0.71052629 178:0.52631581 179:0.61165047 180:0.61538464 181:0.47457626 182:0.44144145 183:0.42574257 184:0.39130434 185:0.53932583 186:0.39622641 187:0.72222221 188:0.54666668 189:0.79661018 190:0.56923079 191:0.6025641 192:0.52112675 193:0.52499998 194:0.57575756 195:0.70175439 196:0.52631581 197:0.69565219 198:0.54347825 199:0.55000001 200:0.50724638 201:0.88679248 202:0.6964286 203:0.83132529 204:0.62337661 205:0.80645162 206:0.6509434 207:0.73584908 208:0.52307695 209:0.77011496 210:0.63414633 211:0.65625 212:0.60919541 213:0.62318838 214:0.52777779 215:0.63302749 216:0.60869563 217:0.45535713 218:0.41025642 219:0.39285713 220:0.48387095 221:0.57608694 222:0.41666666 223:0.49411765 224:0.6388889 225:0.98113209 226:0.7903226 227:0.53333336 228:0.5 229:0.5 230:0.5 231:0.90566039 232:0.60000002 233:0.49382716 234:0.63043481 235:0.53012049 236:0.47499999 237:0.92000002 238:0.58823532 239:0.82954544 240:0.70731705 241:0.63478261 242:0.64210528 243:0.8035714 244:0.56363636 245:0.88297874 246:0.78666669 247:0.62365592 248:0.60638297 249:0.63749999 250:0.5 251:0.68468469 252:0.65555555 253:0.4952381 254:0.460177 255:0.4742268 256:0.6111111 257:0.56666666 258:0.91764706 259:0.65168542 260:0.70588237 261:0.73214287 262:0.71621621 263:0.59677422 264:0.75471699 265:0.67961162 266:0.46511629 267:0.75862068 268:0.53846157 269:0.46753246 270:0.78333336 271:0.61206895 272:0.32857144 273:0.83333331 274:0.60344827 275:0.75268817 276:1 277:0.61946905 278:0.4868421 279:0.8035714 280:0.6708861 281:0.8660714 282:1 283:0.77922076 284:0.62162161 285:0.71794873 286:0.58139533 287:0.62962961 288:0.62608695 
0.6327609487855376 1:0.36220473 2:0.47 3:0.13333334 4:0.33333334 5:0.60919541 6:0.56730771 7:0.44554454 8:0.36507937 9:0.17333333 10:0.35897437 11:0.78205127 12:0.49514562 13:0.42592594 14:0.61728394 15:0.25396827 16:0.23076923 17:0.52577317 18:0.41509435 19:0.51181102 20:0.5625 21:0.2037037 22:0.2923077 23:0.54368931 24:0.2173913 25:0.37142858 26:0.1392405 27:0.12962963 28:0.3918919 29:0.47 30:0.32231405 31:0.21839081 32:0.05319149 33:0.2 34:0.33333334 35:0.53061223 36:0.33333334 37:0.23863636 38:0.23809524 39:0.098591551 40:0.37804878 41:0.5479452 42:0.5945946 43:0.28723404 44:0.37931034 45:0.14814815 46:0.39130434 47:0.42465752 48:0.51351351 49:0.26249999 50:0.23076923 51:0.074074075 52:0.12 53:0.35294119 54:0.2658228 55:0.24468085 56:0.24285714 57:0.021276595 58:0.098360658 59:0.38202247 60:0.22368421 61:0.19387755 62:0.07692308 63:0.01754386 64:0.044117648 65:0.25806451 66:0.13402061 67:0.46728972 68:0.39622641 69:0.42696628 70:0.57894737 71:0.5 72:0.2038835 73:0.12121212 74:0.18072289 75:0.12195122 76:0.28048781 77:0.32467532 78:0.36842105 79:0.08139535 80:0.23076923 81:0.13114753 82:0.24193548 83:0.2278481 84:0.20588236 85:0.19512194 86:0.052631579 87:0.05172414 88:0.036363635 89:0 90:0.11267605 91:0.15789473 92:0.053333335 93:0.054545455 94:0 95:0.17977528 96:0.098765433 97:0.2 98:0 99:0 100:0 101:0.29069766 102:0.12162162 103:0.63934427 104:0.53913045 105:0.38372093 106:0.2857143 107:0.21621622 108:0.029126214 109:0.0625 110:0.16 111:0.11458334 112:0.21428572 113:0.33766234 114:0.24752475 115:0.19266056 116:0.38372093 117:0.1884058 118:0.16923077 119:0.20779221 120:0.10714286 121:0.30927834 122:0.46315789 123:0.20833333 124:0.087719299 125:0 126:0.018518519 127:0.52336448 128:0.31481481 129:0.36708862 130:0 131:0.1682243 132:0.025641026 133:0.49504951 134:0 135:0.30303031 136:0.050847456 137:0.29357797 138:0.082568809 139:0.53571427 140:0.02247191 141:0.16470589 142:0.039999999 143:0.04255319 144:0 145:0.47445256 146:0.082568809 147:0.088235296 148:0.17 149:0.24175824 150:0.20618556 151:0.38211381 152:0.14634146 153:0.097222224 154:0 155:0.067567565 156:0.089743592 157:0.23684211 158:0.16666667 159:0.030303031 160:0 161:0 162:0 163:0.4957265 164:0.27722773 165:0.24657534 166:0 167:0.18556701 168:0.01980198 169:0.58015269 170:0.28 171:0.43939394 172:0 173:0.088235296 174:0.053097345 175:0.50442475 176:0.11363637 177:0.065789476 178:0 179:0.009708738 180:0.010989011 181:0.60169494 182:0.54954952 183:0.48514852 184:0.29347825 185:0.21348314 186:0.16981132 187:0.19444445 188:0.30666667 189:0.13559322 190:0.07692308 191:0.012820513 192:0 193:0.15000001 194:0.13636364 195:0.03508772 196:0 197:0 198:0.032608695 199:0.28749999 200:0.17391305 201:0.11320755 202:0 203:0.24096386 204:0.11688311 205:0.38709676 206:0.16037735 207:0 208:0 209:0.18390805 210:0.15853658 211:0.16666667 212:0.12643678 213:0.14492753 214:0.083333336 215:0.064220183 216:0.076086953 217:0.84821427 218:0.76068377 219:0.59821427 220:0.44086021 221:0.38043478 222:0.072916664 223:0.12941177 224:0.22222222 225:0.11320755 226:0.22580644 227:0 228:0.023809524 229:0.10465116 230:0.05882353 231:0.1509434 232:0.21538462 233:0.049382716 234:0.086956523 235:0.20481928 236:0.21250001 237:0.039999999 238:0.13725491 239:0.31818181 240:0.19512194 241:0.20869565 242:0.38947368 243:0.19642857 244:0.036363635 245:0.43617022 246:0.30666667 247:0.16129032 248:0.18085106 249:0.2 250:0.1125 251:0.25225225 252:0.16666667 253:0.2 254:0.2920354 255:0.14432989 256:0.32222223 257:0.47777778 258:0.21176471 259:0.39325842 260:0.51764709 261:0.16071428 262:0.35135135 263:0.3548387 264:0.084905662 265:0.2038835 266:0.29069766 267:0.13793103 268:0.096153848 269:0.51948053 270:0.26666668 271:0.36206895 272:0.44285715 273:0.041666668 274:0.24137931 275:0.59139782 276:0.25999999 277:0.34513274 278:0.64473683 279:0.39285713 280:0.41772151 281:0.625 282:0.41228071 283:0.24675325 284:0.17567568 285:0.24358974 286:0.36046511 287:0.57407409 288:0.30434781 
0.2719450373186538 1:0.42519686 2:0.38999999 3:0.44444445 4:0.83333331 5:0.89655173 6:0.56730771 7:0.88118809 8:0.74603176 9:0.72000003 10:0.58974361 11:0.6025641 12:0.3883495 13:0.74074072 14:0.60493827 15:0.65079367 16:0.38461539 17:0.21649484 18:0.41509435 19:0.55905509 20:0.53125 21:0.57407409 22:0.64615387 23:0.63106793 24:0.29565218 25:0.70476192 26:0.58227849 27:0.48148149 28:0.74324322 29:0.92000002 30:0.52066118 31:0.59770113 32:0.58510637 33:0.87058824 34:0.44444445 35:0.67346936 36:0.58095241 37:0.5 38:0.29761904 39:0.3943662 40:0.69512194 41:0.82191783 42:0.63513511 43:0.63829786 44:0.60344827 45:0.5925926 46:0.47826087 47:0.67123288 48:0.52702701 49:0.51249999 50:0.56923079 51:0.5925926 52:0.38 53:0.5 54:0.48101267 55:0.37234041 56:0.48571429 57:0.63829786 58:0.36065573 59:0.77528089 60:0.5 61:0.31632653 62:0.46153846 63:0.36842105 64:0.22058824 65:0.73118281 66:0.44329897 67:0.47663552 68:0.83962262 69:0.56179774 70:0.16842106 71:0.52941179 72:0.49514562 73:0.42424244 74:0.42168674 75:0.36585367 76:0.65853661 77:0.72727275 78:0.56578946 79:0.56976742 80:0.6769231 81:0.59016395 82:0.51612902 83:0.56962025 84:0.5147059 85:0.52439022 86:0.5131579 87:0.68965518 88:0.41818181 89:0.46153846 90:0.57746476 91:0.57894737 92:0.61333334 93:0.70909089 94:0.30357143 95:0.85393256 96:0.60493827 97:0.47999999 98:0.597561 99:0.66037738 100:0.22058824 101:1 102:0.7972973 103:0.46721312 104:0.44347826 105:0.80232561 106:0.40816328 107:0.6036036 108:0.39805827 109:0.3482143 110:0.43000001 111:0.38541666 112:0.71428573 113:0.90909094 114:0.62376237 115:0.4678899 116:0.93023258 117:0.82608694 118:0.49230769 119:0.62337661 120:0.4375 121:0.36082473 122:0.67368424 123:0.75 124:0.59649122 125:0.34567901 126:0.35185185 127:0.27102804 128:0.5 129:0.58227849 130:0.4642857 131:0.65420562 132:0.52136755 133:0.47524753 134:0.75824177 135:0.78787881 136:0.49152541 137:1 138:0.78899086 139:0.51785713 140:0.46067417 141:0.88235295 142:0.68000001 143:0.90425533 144:0.48148149 145:0.29927006 146:0.32110092 147:0.34313726 148:0.60000002 149:0.70329672 150:0.68041235 151:0.34959349 152:0.42682928 153:0.77777779 154:0.59016395 155:0.78378379 156:0.78205127 157:0.36842105 158:0.71875 159:0.74242425 160:0.40350878 161:0.26732674 162:0.48314607 163:0.36752138 164:0.81188118 165:0.58904111 166:0.5970149 167:0.64948452 168:0.41584158 169:0.35114503 170:0.73000002 171:0.66666669 172:0.52380955 173:0.95098037 174:0.72566372 175:0.4159292 176:0.59090906 177:0.88157892 178:0.32894737 179:0.79611653 180:0.92307693 181:0.53389829 182:0.2882883 183:0.22772278 184:0.2173913 185:0.25842696 186:0.3018868 187:0.70833331 188:0.45333335 189:0.49152541 190:0.49230769 191:0.65384614 192:0.6056338 193:0.47499999 194:0.54545456 195:0.7719298 196:0.40350878 197:0.34782609 198:0.42391303 199:0.44999999 200:0.47826087 201:0.64150941 202:0.53571427 203:0.72289157 204:0.49350649 205:0.43010753 206:0.36792454 207:0.39622641 208:0.2923077 209:0.88505745 210:0.53658539 211:0.33333334 212:0.43678162 213:0.49275362 214:0.2361111 215:0.77064222 216:0.63043481 217:0.38392857 218:0.2820513 219:0.21428572 220:0.21505377 221:0.32608697 222:0.23958333 223:0.32941177 224:0.54166669 225:0.60377359 226:0.54838711 227:0.63999999 228:0.4642857 229:0.46511629 230:0.66176468 231:0.94339621 232:0.41538462 233:0.28395063 234:0.44565219 235:0.60240966 236:0.61250001 237:0.80000001 238:0.41176471 239:0.71590906 240:0.60975611 241:0.69565219 242:0.69473684 243:0.73214287 244:0.38181818 245:0.9893617 246:0.78666669 247:0.61290324 248:0.61702126 249:0.60000002 250:0.4375 251:0.81981981 252:0.56666666 253:0.30476192 254:0.32743362 255:0.37113401 256:0.65555555 257:0.66666669 258:0.5529412 259:0.39325842 260:0.70588237 261:0.75 262:0.71621621 263:0.82258064 264:0.41509435 265:0.75728154 266:0.66279072 267:0.81034482 268:0.36538461 269:0.32467532 270:0.38333333 271:0.87068963 272:0.58571428 273:0.72916669 274:0.46551725 275:0.72043014 276:0.47 277:0.78761059 278:0.78947371 279:0.6785714 280:0.79746836 281:0.97321427 282:0.74561405 283:0.85714287 284:0.74324322 285:0.69230771 286:0.72093022 287:0.92592591 288:0.39130434 
1.258732165675423 1:0.30708662 2:0.23 3:0.11111111 4:0.41111112 5:0.62068963 6:0.54807693 7:0.1980198 8:0.44444445 9:0.053333335 10:0.5 11:0.73076922 12:0.54368931 13:0.37037036 14:0.79012346 15:0.2857143 16:0.76923078 17:0.46391752 18:0.63207549 19:0.30708662 20:0.34375 21:0.27777779 22:0.49230769 23:0.51456308 24:0.63478261 25:0.60952383 26:0.68354428 27:0.5925926 28:0.54054052 29:0.62 30:0.81818181 31:0.55172414 32:0.23404256 33:0.58823532 34:0.69135803 35:0.39795917 36:0.72380954 37:0.34090909 38:0.2857143 39:0.14084508 40:0.2682927 41:0.4520548 42:0.47297296 43:0.17021276 44:0.79310346 45:0.18518518 46:0.34782609 47:0.83561641 48:0.72972971 49:0.2375 50:0.46153846 51:0.18518518 52:0.68000001 53:0.80882353 54:0.54430377 55:0.24468085 56:0.5 57:0.21276596 58:0.60655737 59:0.57303369 60:0.53947371 61:0.53061223 62:0.75641024 63:0.29824561 64:0.67647058 65:0.60215056 66:0.54639173 67:0.75700933 68:0.60377359 69:0.64044946 70:0.70526314 71:0.59803921 72:0.66019416 73:0.45454547 74:0.45783132 75:0.82926828 76:0.36585367 77:0.4025974 78:0.35526314 79:0.15116279 80:0.2923077 81:0.37704918 82:0.41935483 83:0.78481013 84:0.67647058 85:0.21951219 86:0.35526314 87:0.36206895 88:0.74545455 89:0.81538463 90:0.52112675 91:0.19736843 92:0.36000001 93:0.2 94:0.6964286 95:0.46067417 96:0.53086418 97:0.36000001 98:0.48780489 99:0.41509435 100:0.67647058 101:0.63953489 102:0.6081081 103:0.66393441 104:0.72173911 105:0.54651165 106:0.5714286 107:0.51351351 108:0.35922331 109:0.58928573 110:0.22 111:0.33333334 112:0.53571427 113:0.63636363 114:0.42574257 115:0.28440368 116:0.058139537 117:0.31884059 118:0.36923078 119:0.70129871 120:0.4732143 121:0.19587629 122:0.2 123:0.6388889 124:0.78947371 125:0.62962961 126:0.30555555 127:0.21495327 128:0.2037037 129:0.29113925 130:0.60714287 131:0.42056075 132:0.35897437 133:0.36633664 134:0.54945058 135:0.78787881 136:0.50847459 137:0.54128438 138:0.51376146 139:0.38392857 140:0.37078652 141:0.40000001 142:0.56 143:0.58510637 144:0.3611111 145:0.7883212 146:0.25688073 147:0.29411766 148:0.19 149:0.32967034 150:0.30927834 151:0.85365856 152:0.12195122 153:0 154:0.16393442 155:0.51351351 156:0.53846157 157:0.64912283 158:0.51041669 159:0.42424244 160:0.56140351 161:0.43564355 162:0.42696628 163:0.64957267 164:0.46534654 165:0.47945204 166:0.67164177 167:0.45360824 168:0.35643566 169:0.48854962 170:0.25999999 171:0.39393941 172:0.44444445 173:0.5 174:0.55752212 175:0.33628318 176:0.31818181 177:0.2631579 178:0.31578946 179:0.43689319 180:0.48351648 181:0.49152541 182:0.42342341 183:0.5247525 184:0.36956522 185:0.38202247 186:0.48113209 187:0.25 188:0.36000001 189:0.18644068 190:0.32307693 191:0.61538464 192:0.73239434 193:0.1375 194:0.66666669 195:0.29824561 196:0.54385966 197:0.73913044 198:0.5 199:0.28749999 200:0.50724638 201:0.26415095 202:0.71428573 203:0.61445785 204:0.51948053 205:0.34408602 206:0.64150941 207:0.66037738 208:0.50769234 209:0.52873564 210:0.597561 211:0.34375 212:0.56321841 213:0.42028984 214:0.43055555 215:0.38532111 216:0.45652175 217:0.60714287 218:0.90598291 219:1 220:0.84946239 221:0.72826087 222:0.625 223:0.32941177 224:0.27777779 225:0.4528302 226:0.54838711 227:0.78666669 228:0.72619045 229:0.13953489 230:0.14705883 231:0.28301886 232:0.64615387 233:0.67901236 234:0.57608694 235:0.27710843 236:0.42500001 237:0.2 238:0.84313726 239:0.56818181 240:0.56097561 241:0.30434781 242:0.51578945 243:0.2857143 244:0.65454543 245:0.58510637 246:0.66666669 247:0.40860215 248:0.47872341 249:0.34999999 250:0.47499999 251:0.36936936 252:0.41111112 253:0.48571429 254:0.43362832 255:0.45360824 256:0.45555556 257:0.5 258:0.3882353 259:0.40449437 260:0.11764706 261:0.053571429 262:0.48648649 263:0.77419353 264:0.40566039 265:0.30097088 266:0.38372093 267:0.70689654 268:0.61538464 269:0.59740257 270:0.51666665 271:0.41379312 272:0.67142856 273:0.45833334 274:0.7241379 275:0.49462366 276:0.55000001 277:0.44247788 278:0.39473686 279:0.375 280:0.5316456 281:0.54464287 282:0.62280703 283:0.54545456 284:0.3108108 285:0.3974359 286:0.5 287:0.3888889 288:0.37391305 
0.9307319182058862 1:0.33070865 2:0.23999999 3:0.22222222 4:0.32222223 5:0 6:0.60576922 7:0.44554454 8:0.49206349 9:0.026666667 10:0.55128205 11:0.23076923 12:0.70873785 13:0.28703704 14:0.27160493 15:0.17460318 16:0.59615386 17:0.44329897 18:0.71698111 19:0.18897638 20:0 21:0.25925925 22:0.7846154 23:0.85436893 24:0.67826086 25:0.2857143 26:0.24050634 27:0.27777779 28:0.56756759 29:0.52999997 30:0.6280992 31:0.74712646 32:0.67021275 33:0.48235294 34:0.27160493 35:0.10204082 36:0.46666667 37:0.26136363 38:0.21428572 39:0.22535211 40:0.35365853 41:0.28767124 42:0.48648649 43:0.27659574 44:0.41379312 45:0 46:0.57971013 47:0.89041096 48:0.91891891 49:0.375 50:0.33846155 51:0.055555556 52:0.56 53:0.67647058 54:0.46835443 55:0.17021276 56:0.071428575 57:0.17021276 58:0.47540984 59:0.5955056 60:0.65789473 61:0.24489796 62:0.30769232 63:0.087719299 64:0.29411766 65:0.59139782 66:0.65979379 67:0.43925235 68:0.63207549 69:0.52808988 70:0.76842105 71:0.7352941 72:0.91262138 73:0.23232323 74:0.18072289 75:0.20731707 76:0.42682928 77:0.41558442 78:0.44736841 79:0.30232558 80:0.36923078 81:0 82:0.56451613 83:0.97468352 84:1 85:0.37804878 86:0.42105263 87:0.10344828 88:0.58181816 89:0.69230771 90:0.66197181 91:0.19736843 92:0.12 93:0.21818182 94:0.5714286 95:0.60674155 96:0.61728394 97:0.40000001 98:0.34146342 99:0.094339624 100:0.45588234 101:0.6511628 102:0.41891891 103:0.44262296 104:0.64347827 105:0.45348838 106:0.58163267 107:0.73873872 108:0.46601942 109:0.22321428 110:0.25 111:0.19791667 112:0.42857143 113:0.23376623 114:0.21782178 115:0.35779816 116:0.5 117:0 118:0.40000001 119:0.42857143 120:0.36607143 121:0.38144329 122:0.38947368 123:0.069444448 124:0.59649122 125:0.49382716 126:0.62962961 127:0.27102804 128:0.10185185 129:0.18987341 130:0.85714287 131:0.8037383 132:0.60683763 133:0.46534654 134:0.2857143 135:0.31818181 136:0.66101694 137:0.70642203 138:0.3119266 139:0.76785713 140:0.78651685 141:0.60000002 142:0.16 143:0.28723404 144:0.1388889 145:0.37956205 146:0.23853211 147:0.32352942 148:0.44 149:0.60439563 150:0.42268041 151:0.34146342 152:0.53658539 153:0.34722221 154:0.63934427 155:0.5945946 156:1 157:0.1491228 158:0.48958334 159:0.21212122 160:0.7368421 161:0.59405941 162:0.94382024 163:0.35042736 164:0.18811882 165:0.1780822 166:0.73134327 167:0.54639173 168:0.81188118 169:0.62595421 170:0.37 171:0.34848484 172:0.71428573 173:0.64705884 174:1 175:0.73451328 176:0.80681819 177:0.52631581 178:0.13157895 179:0.33009708 180:0.52747256 181:0.65254235 182:0.55855858 183:0.47524753 184:0.48913044 185:0.43820226 186:0.2735849 187:0.4861111 188:0.51999998 189:0.45762712 190:0.70769233 191:0.53846157 192:1 193:0.32499999 194:0.57575756 195:0.1754386 196:0.57894737 197:1 198:0.81521738 199:0.41249999 200:0.34782609 201:0.3773585 202:0.85714287 203:0.6506024 204:0.72727275 205:0.37634408 206:0.25471699 207:0.1509434 208:0.50769234 209:0.74712646 210:0.93902439 211:0.5 212:0.57471263 213:0.1594203 214:0.1388889 215:0.42201835 216:0.52173913 217:0.71428573 218:0.66666669 219:0.625 220:0.40860215 221:0.032608695 222:0.083333336 223:0.48235294 224:0.625 225:0.58490568 226:0.7903226 227:0.60000002 228:0.21428572 229:0.43023255 230:0.54411763 231:0.18867925 232:0.63076925 233:0.76543212 234:0.59782606 235:0.33734939 236:0.27500001 237:0.34 238:0.7647059 239:0.625 240:0.51219511 241:0.30434781 242:0.2631579 243:0.21428572 244:0.5272727 245:0.91489363 246:0.63999999 247:0.53763443 248:0.54255319 249:0.175 250:0.1125 251:0.53153151 252:0.35555556 253:0.43809524 254:0.42477876 255:0.49484536 256:0.37777779 257:0 258:0.61176473 259:0.5955056 260:0.65882355 261:0.44642857 262:0.83783782 263:0.62903225 264:0.2735849 265:0.57281554 266:0.43023255 267:0.22413793 268:0.78846157 269:0.94805193 270:0.48333332 271:0.31034482 272:0.028571429 273:0.33333334 274:0.70689654 275:0.73118281 276:0.41999999 277:0.31858408 278:0.2631579 279:0.48214287 280:0.89873415 281:0.89285713 282:0.33333334 283:0.74025977 284:0.82432431 285:0.47435898 286:0.27906978 287:0.43518519 288:0.09565217 
0.2468180223965946 1:0.48031497 2:0.30000001 3:0.24444444 4:0.40000001 5:0.63218391 6:0.54807693 7:0.49504951 8:0.95238096 9:0.41333333 10:0.70512819 11:0.42307693 12:0.33009708 13:0.60185188 14:0.72839504 15:0.74603176 16:0.92307693 17:0.37113401 18:0.32075471 19:0.60629922 20:0.64583331 21:0.85185188 22:0.69230771 23:0.79611653 24:0.47826087 25:0.53333336 26:0.62025315 27:0.6111111 28:0.71621621 29:0.70999998 30:0.58677685 31:0.73563218 32:0.24468085 33:0.5411765 34:0.5925926 35:0.45918366 36:0.37142858 37:0.38636363 38:0.45238096 39:0.21126761 40:0.32926831 41:0.71232879 42:0.71621621 43:0.37234041 44:0.93103451 45:0.4074074 46:0.55072463 47:0.57534248 48:0.52702701 49:0.33750001 50:0.2923077 51:0.33333334 52:0.81999999 53:0.67647058 54:0.55696201 55:0.32978722 56:0.37142858 57:0.34042552 58:0.50819671 59:0.71910113 60:0.72368419 61:0.34693879 62:0.16666667 63:0.29824561 64:0.69117647 65:0.91397852 66:1 67:0.61682242 68:0.76415092 69:0.5955056 70:0.90526319 71:0.81372547 72:0.5825243 73:0.28282827 74:0.36144578 75:0.28048781 76:0.43902439 77:0.74025977 78:0.69736844 79:0.15116279 80:0.49230769 81:0.42622951 82:0.77419353 83:0.62025315 84:0.57352942 85:0.62195122 86:0.19736843 87:0.36206895 88:0.83636361 89:0.69230771 90:0.69014084 91:0.61842108 92:0.25333333 93:0.41818181 94:0.58928573 95:0.66292137 96:0.79012346 97:0.31999999 98:0.085365854 99:0.49056605 100:0.61764705 101:0.69767439 102:0.82432431 103:0.45901638 104:0.27826086 105:0.47674417 106:0.36734694 107:0.27927929 108:0.34951457 109:0.76785713 110:0.43000001 111:0.29166666 112:0.39285713 113:0.77922076 114:0.57425743 115:0.55963302 116:0.36046511 117:0.884058 118:0.61538464 119:0.59740257 120:0.3482143 121:0.39175257 122:0.40000001 123:0.625 124:0.75438595 125:0.51851851 126:0.47222221 127:0.59813082 128:0.71296299 129:0.5316456 130:0.78571427 131:0.70093459 132:0.69230771 133:0.33663365 134:0.48351648 135:0.63636363 136:0.67796612 137:0.72477067 138:0.58715594 139:0.4732143 140:0.20224719 141:0.44705883 142:0.60000002 143:0.39361703 144:0.37037036 145:0.69343066 146:0.48623854 147:0.27450982 148:0.38 149:0.51648355 150:0.6082474 151:0.62601626 152:0.79268295 153:0.6111111 154:0.70491803 155:0.41891891 156:0.52564102 157:0.43859649 158:0.95833331 159:1 160:0.7368421 161:0.42574257 162:0.49438202 163:0.52136755 164:0.59405941 165:0.82191783 166:0.86567163 167:0.82474226 168:0.73267329 169:0.28244275 170:0.49000001 171:0.56060606 172:0.63492066 173:0.60784316 174:0.73451328 175:0.54867256 176:0.29545453 177:0.40789473 178:0.44736841 179:0.41747573 180:0.51648355 181:0.51694918 182:0.42342341 183:0.27722773 184:0.22826087 185:0.47191012 186:0.5 187:0.52777779 188:0.2 189:0.40677965 190:0.52307695 191:0.3974359 192:0.47887325 193:0.33750001 194:0.34848484 195:0.28070176 196:0.70175439 197:0.52173913 198:0.47826087 199:0.63749999 200:0.31884059 201:0.50943398 202:0.78571427 203:0.71084338 204:0.79220778 205:0.41935483 206:0.44339624 207:0.58490568 208:0.61538464 209:0.63218391 210:0.64634144 211:0.41666666 212:0.27586207 213:0.34782609 214:0.45833334 215:0.38532111 216:0.46739131 217:0.375 218:0.34188035 219:0.30357143 220:0.24731183 221:0.52173913 222:0.46875 223:0.88235295 224:0.19444445 225:0.3773585 226:0.58064514 227:0.40000001 228:0.39285713 229:0.52325583 230:0.20588236 231:0.32075471 232:0.69230771 233:0.38271606 234:0.43478259 235:0.73493975 236:0.1875 237:0.25999999 238:0.72549021 239:0.71590906 240:0.73170733 241:0.4173913 242:0.50526315 243:0.5 244:0.67272729 245:0.78723407 246:0.72000003 247:0.61290324 248:0.35106382 249:0.33750001 250:0.4375 251:0.45945945 252:0.51111114 253:0.63809526 254:0.22123894 255:0.28865978 256:0.5 257:0.62222224 258:0.61176473 259:0.60674155 260:0.52941179 261:0.58928573 262:0.71621621 263:0.43548387 264:0.26415095 265:0.54368931 266:0.80232561 267:0.91379309 268:0.69230771 269:0.42857143 270:0.31666666 271:0.73275864 272:1 273:0.875 274:0.87931037 275:0.84946239 276:0.62 277:0.52212387 278:0.5131579 279:0.53571427 280:0.65822786 281:0.75 282:0.57017541 283:0.85714287 284:0.24324325 285:0.5 286:0.55813956 287:0.47222221 288:0.33043477 
0.6201837633023046 1:0.42519686 2:0.38999999 3:0.40000001 4:0.72222221 5:0.82758623 6:0.61538464 7:0.78217822 8:0.73015875 9:0.61333334 10:0.48717949 11:0.64102566 12:0.44660193 13:0.67592591 14:0.66666669 15:0.63492066 16:0.28846154 17:0.34020618 18:0.40566039 19:0.54330707 20:0.57291669 21:0.64814812 22:0.69230771 23:0.80582523 24:0.37391305 25:0.48571429 26:0.60759491 27:0.5925926 28:0.66216218 29:0.94999999 30:0.57851237 31:0.56321841 32:0.43617022 33:0.65882355 34:0.35802469 35:0.54081631 36:0.40952381 37:0.57954544 38:0.36904761 39:0.35211268 40:0.64634144 41:0.75342464 42:0.62162161 43:0.68085104 44:0.68965518 45:0.62962961 46:0.49275362 47:0.67123288 48:0.6081081 49:0.58749998 50:0.66153848 51:0.62962961 52:0.41999999 53:0.67647058 54:0.68354428 55:0.5106383 56:0.52857143 57:0.76595747 58:0.50819671 59:0.93258429 60:0.68421054 61:0.56122446 62:0.56410259 63:0.54385966 64:0.30882353 65:0.76344085 66:0.58762884 67:0.89719623 68:0.44339624 69:0.29213482 70:0.2631579 71:0.65686274 72:0.66019416 73:0.45454547 74:0.40963855 75:0.37804878 76:0.69512194 77:0.74025977 78:0.57894737 79:0.58139533 80:0.70769233 81:0.77049178 82:0.53225809 83:0.65822786 84:0.67647058 85:0.64634144 86:0.65789473 87:0.91379309 88:0.61818182 89:0.70769233 90:0.73239434 91:0.63157892 92:0.78666669 93:1 94:0.48214287 95:0.94382024 96:0.71604937 97:0.58666664 98:0.71951222 99:0.86792451 100:0.39705881 101:0.93023258 102:0.71621621 103:0.62295079 104:0.98260868 105:0.83720928 106:0.34693879 107:0.54954952 108:0.592233 109:0.4642857 110:0.41 111:0.41666666 112:0.63095236 113:0.90909094 114:0.58415842 115:0.59633029 116:0.76744187 117:0.73913044 118:0.43076923 119:0.6883117 120:0.44642857 121:0.50515461 122:0.50526315 123:0.6111111 124:0.42105263 125:0.44444445 126:0.4074074 127:0.37383178 128:0.52777779 129:0.56962025 130:0.5 131:0.79439253 132:0.58974361 133:0.37623763 134:0.53846157 135:0.84848487 136:0.54237288 137:0.96330273 138:0.70642203 139:0.22321428 140:0.47191012 141:0.81176472 142:0.46666667 143:0.58510637 144:0.44444445 145:0.68613136 146:0.40366971 147:0.42156863 148:0.44 149:0.64835167 150:0.61855668 151:0.71544713 152:0.57317072 153:0.80555558 154:0.49180329 155:0.7972973 156:0.79487181 157:0.61403507 158:0.8125 159:0.81818181 160:0.50877196 161:0.31683168 162:0.56179774 163:0.42735043 164:0.73267329 165:0.56164384 166:0.62686568 167:0.81443298 168:0.49504951 169:0.39694658 170:0.80000001 171:0.68181819 172:0.33333334 173:1 174:0.75221241 175:0.23893805 176:0.47727272 177:0.82894737 178:0.2631579 179:0.62135923 180:0.60439563 181:0.66949153 182:0.65765768 183:0.58415842 184:0.5 185:0.5955056 186:0.51886791 187:0.81944442 188:0.57333332 189:0.81355929 190:0.69230771 191:0.69230771 192:0.61971831 193:0.57499999 194:0.60606062 195:0.7368421 196:0.45614034 197:0.60869563 198:0.5869565 199:0.47499999 200:0.60869563 201:0.79245281 202:0.5714286 203:0.93975902 204:0.70129871 205:0.55913979 206:0.52830189 207:0.58490568 208:0.2923077 209:1 210:0.82926828 211:0.36458334 212:0.48275861 213:0.66666669 214:0.29166666 215:0.74311924 216:0.67391306 217:0.7410714 218:0.64957267 219:0.4642857 220:0.53763443 221:0.52173913 222:0.53125 223:0.45882353 224:0.72222221 225:0.90566039 226:0.67741936 227:0.63999999 228:0.55952382 229:0.53488374 230:0.75 231:0.86792451 232:0.53846157 233:0.48148149 234:0.61956519 235:0.73493975 236:0.69999999 237:0.88 238:0.50980395 239:0.88636363 240:0.73170733 241:0.55652171 242:0.61052632 243:0.78571427 244:0.5272727 245:0.94680852 246:0.75999999 247:0.59139782 248:0.62765956 249:0.75 250:0.52499998 251:0.74774772 252:0.56666666 253:0.42857143 254:0.43362832 255:0.37113401 256:0.54444444 257:0.63333333 258:0.57647061 259:0.60674155 260:0.70588237 261:0.6785714 262:0.67567569 263:0.80645162 264:0.41509435 265:0.74757284 266:0.66279072 267:0.75862068 268:0.51923078 269:0.38961038 270:0.38333333 271:0.71551722 272:0.5714286 273:0.60416669 274:0.60344827 275:0.82795697 276:0.47999999 277:0.76991153 278:0.7368421 279:0.71428573 280:0.83544302 281:0.96428573 282:0.64912283 283:0.63636363 284:0.67567569 285:0.78205127 286:0.58139533 287:0.68518519 288:0.33913043 
0.003942540562048584 1:0.38582677 2:0.25999999 3:0.24444444 4:0.48888889 5:0.65517241 6:0.51923078 7:0.63366336 8:0.23809524 9:0.46666667 10:0.34615386 11:0.42307693 12:0.33009708 13:0.43518519 14:0.22222222 15:0.6825397 16:0.40384614 17:0.20618556 18:0.32075471 19:0.44881889 20:0.30208334 21:0.74074072 22:0.52307695 23:0.66990292 24:0.28695652 25:0.60952383 26:0.39240506 27:0.72222221 28:0.7027027 29:0.88 30:0.52066118 31:0.22988506 32:0.28723404 33:0.80000001 34:0.48148149 35:0.64285713 36:0.46666667 37:0.44318181 38:0.23809524 39:0.1971831 40:0.37804878 41:0.5479452 42:0.47297296 43:0.52127659 44:0.41379312 45:0.48148149 46:0.2173913 47:0.4520548 48:0.41891891 49:0.33750001 50:0.2923077 51:0.44444445 52:0.30000001 53:0.39705881 54:0.46835443 55:0.31914893 56:0.25714287 57:0.55319148 58:0.37704918 59:0.64044946 60:0.46052632 61:0.42857143 62:0.35897437 63:0.54385966 64:0.35294119 65:0.68817204 66:0.44329897 67:0.093457945 68:0.21698113 69:0.58426964 70:0.32631579 71:0.66666669 72:0.7669903 73:0.29292929 74:0.30120483 75:0.18292683 76:0.37804878 77:0.62337661 78:0.52631581 79:0.3488372 80:0.43076923 81:0.40983605 82:0.27419356 83:0.4556962 84:0.47058824 85:0.46341464 86:0.34210527 87:0.5 88:0.41818181 89:0.32307693 90:0.46478873 91:0.35526314 92:0.46666667 93:0.61818182 94:0.35714287 95:0.69662923 96:0.49382716 97:0.38666666 98:0.51219511 99:0.6226415 100:0.38235295 101:0.80232561 102:0.64864862 103:0.13114753 104:0.13913043 105:0.43023255 106:0.37755102 107:0.54054052 108:0.49514562 109:0.4017857 110:0.27000001 111:0.1875 112:0.4642857 113:0.67532468 114:0.59405941 115:0.39449543 116:0.58139533 117:0.44927537 118:0.21538462 119:0.46753246 120:0.3482143 121:0.39175257 122:0.51578945 123:0.5 124:0.3859649 125:0.2345679 126:0.28703704 127:0.50467288 128:0.3425926 129:0.43037975 130:0.3392857 131:0.57943922 132:0.38461539 133:0.58415842 134:0.70329672 135:0.71212119 136:0.40677965 137:0.91743118 138:0.61467892 139:0.58035713 140:0.31460676 141:0.71764708 142:0.54666668 143:0.77659577 144:0.35185185 145:0.37956205 146:0.33944955 147:0.36274511 148:0.50999999 149:0.60439563 150:0.62886596 151:0.41463414 152:0.31707317 153:0.80555558 154:0.42622951 155:0.47297296 156:0.53846157 157:0.63157892 158:0.72916669 159:0.65151513 160:0.50877196 161:0.2970297 162:0.40449437 163:0.5726496 164:0.58415842 165:0.5479452 166:0.58208954 167:0.6082474 168:0.33663365 169:0.7557252 170:0.61000001 171:0.59090906 172:0.34920636 173:0.90196079 174:0.65486723 175:0.65486723 176:0.44318181 177:0.60526317 178:0.35526314 179:0.70873785 180:0.72527474 181:0.33050847 182:0.32432431 183:0.25742576 184:0.19565217 185:0.31460676 186:0.35849056 187:0.45833334 188:0.36000001 189:0.55932206 190:0.35384616 191:0.51282054 192:0.54929578 193:0.6875 194:0.68181819 195:0.59649122 196:0.40350878 197:0.42028984 198:0.44565219 199:0.51249999 200:0.57971013 201:0.6981132 202:0.48214287 203:0.62650603 204:0.51948053 205:0.52688169 206:0.3773585 207:0.4528302 208:0.2923077 209:0.80459768 210:0.57317072 211:0.30208334 212:0.28735632 213:0.46376812 214:0.2638889 215:0.61467892 216:0.51086956 217:0.375 218:0.32478634 219:0.3392857 220:0.34408602 221:0.32608697 222:0.25 223:0.31764707 224:0.43055555 225:0.6981132 226:0.46774194 227:0.46666667 228:0.47619048 229:0.5 230:0.5147059 231:0.64150941 232:0.52307695 233:0.34567901 234:0.45652175 235:0.56626505 236:0.42500001 237:0.68000001 238:0.41176471 239:0.65909094 240:0.52439022 241:0.53913045 242:0.52631581 243:0.75 244:0.29090908 245:0.80851066 246:0.65333331 247:0.36559141 248:0.42553192 249:0.71249998 250:0.33750001 251:0.6036036 252:0.42222223 253:0.41904762 254:0.31858408 255:0.41237113 256:0.5777778 257:0.65555555 258:0.50588238 259:0.40449437 260:0.3764706 261:0.8035714 262:0.45945945 263:0.5 264:0.2735849 265:0.8252427 266:0.73255813 267:0.75862068 268:0.36538461 269:0.33766234 270:0.32499999 271:0.56034482 272:0.52857143 273:0.64583331 274:0.60344827 275:0.62365592 276:0.38 277:0.60176992 278:0.84210527 279:0.78571427 280:0.70886075 281:0.8660714 282:0.58771932 283:0.42857143 284:0.54054052 285:0.88461536 286:0.60465115 287:0.76851851 288:0.27826086 
0.3653816538450841 1:0.30708662 2:0.28 3:0.2888889 4:0.5777778 5:0.79310346 6:0.60576922 7:0.49504951 8:0.42857143 9:0.75999999 10:0.65384614 11:0.53846157 12:0.37864077 13:0.55555558 14:0.46913579 15:0.85714287 16:0.76923078 17:0.2783505 18:0.40566039 19:0.52755904 20:0.36458334 21:0.75925928 22:0.58461541 23:0.61165047 24:0.31304348 25:0.93333334 26:0.70886075 27:0.74074072 28:0.63513511 29:1 30:0.56198347 31:0.80459768 32:0.63829786 33:0.82352942 34:0.56790125 35:0.68367344 36:0.58095241 37:0.34090909 38:0.25 39:0.25352111 40:0.5 41:0.72602737 42:0.72972971 43:0.35106382 44:0.39655173 45:0.51851851 46:0.66666669 47:0.67123288 48:0.55405408 49:0.40000001 50:0.35384616 51:0.5 52:0.68000001 53:0.5 54:0.51898736 55:0.27659574 56:0.47142857 57:0.59574467 58:0.49180329 59:0.70786518 60:0.64473683 61:0.68367344 62:0.56410259 63:0.47368422 64:0.39705881 65:0.67741936 66:0.61855668 67:0.40186915 68:0.24528302 69:0.49438202 70:0.36842105 71:0.49019608 72:0.49514562 73:0.25252524 74:0.20481928 75:0.20731707 76:0.42682928 77:0.63636363 78:0.53947371 79:0.29069766 80:0.41538462 81:0.37704918 82:0.46774194 83:0.50632912 84:0.45588234 85:0.51219511 86:0.52631581 87:0.53448278 88:0.67272729 89:0.43076923 90:0.5633803 91:0.52631581 92:0.66666669 93:0.58181816 94:0.51785713 95:0.60674155 96:0.5925926 97:0.56 98:0.70731705 99:0.64150941 100:0.5 101:0.76744187 102:0.78378379 103:0.23770492 104:0.24347825 105:0.48837209 106:0.42857143 107:0.4954955 108:0.45631069 109:0.41964287 110:0.2 111:0.26041666 112:0.53571427 113:0.87012988 114:0.60396039 115:0.51376146 116:0.43023255 117:0.63768119 118:0.6769231 119:0.63636363 120:0.35714287 121:0.49484536 122:0.60000002 123:0.58333331 124:0.80701756 125:0.34567901 126:0.33333334 127:0.52336448 128:0.46296296 129:0.50632912 130:0.75 131:0.40186915 132:0.47008547 133:0.74257427 134:0.96703297 135:0.93939394 136:0.50847459 137:0.90825689 138:0.8440367 139:0.5 140:0.65168542 141:0.88235295 142:0.78666669 143:0.92553192 144:0.5462963 145:0.58394158 146:0.22935779 147:0.37254903 148:0.34999999 149:0.53846157 150:0.65979379 151:0.47154471 152:0.20731707 153:0.55555558 154:0.62295079 155:0.6891892 156:0.76923078 157:0.45614034 158:0.40625 159:0.65151513 160:0.75438595 161:0.26732674 162:0.35955057 163:0.55555558 164:0.59405941 165:0.57534248 166:0.67164177 167:0.43298969 168:0.27722773 169:0.5648855 170:0.56999999 171:0.54545456 172:0.44444445 173:0.82352942 174:0.62831861 175:0.40707964 176:0.5 177:0.65789473 178:0.46052632 179:0.70873785 180:0.92307693 181:0.61016947 182:0.52252251 183:0.44554454 184:0.23913044 185:0.35955057 186:0.36792454 187:0.1388889 188:0.17333333 189:0.49152541 190:0.49230769 191:0.70512819 192:0.67605633 193:0.40000001 194:0.40909091 195:0.59649122 196:0.64912283 197:0.37681159 198:0.34782609 199:0.5 200:0.56521738 201:0.56603771 202:0.66071427 203:0.62650603 204:0.51948053 205:0.4623656 206:0.49056605 207:0.47169811 208:0.41538462 209:0.7241379 210:0.58536583 211:0.58333331 212:0.60919541 213:0.59420288 214:0.3888889 215:0.58715594 216:0.54347825 217:0.58035713 218:0.58119661 219:0.48214287 220:0.30107528 221:0.34782609 222:0.35416666 223:0.24705882 224:0.30555555 225:0.41509435 226:0.45161289 227:0.62666667 228:0.51190478 229:0.33720931 230:0.44117647 231:0.64150941 232:0.66153848 233:0.24691358 234:0.34782609 235:0.45783132 236:0.51249999 237:0.60000002 238:0.78431374 239:0.55681819 240:0.53658539 241:0.53913045 242:0.58947366 243:0.66071427 244:0.5272727 245:0.67021275 246:0.73333335 247:1 248:0.92553192 249:0.72500002 250:0.48750001 251:0.72072071 252:0.5777778 253:0.35238096 254:0.32743362 255:0.30927834 256:0.51111114 257:0.56666666 258:0.42352942 259:0.42696628 260:0.34117648 261:0.53571427 262:0.71621621 263:0.67741936 264:0.31132075 265:0.56310678 266:0.40697673 267:0.79310346 268:0.51923078 269:0.2857143 270:0.28333333 271:0.67241377 272:0.5 273:0.83333331 274:0.56896549 275:0.43010753 276:0.38 277:0.5840708 278:0.52631581 279:0.76785713 280:0.54430377 281:0.8660714 282:0.75438595 283:0.76623374 284:0.58108109 285:0.67948717 286:0.59302324 287:1 288:0.49565217 
0.2312557782210013 1:0.43307087 2:0.41 3:0.41111112 4:0.42222223 5:0.41379312 6:0.28846154 7:0.53465348 8:0.49206349 9:0.58666664 10:0.55128205 11:0.42307693 12:0.31067961 13:0.51851851 14:0.50617284 15:0.6825397 16:0.51923078 17:0.35051546 18:0.40566039 19:0.63779527 20:0.45833334 21:0.66666669 22:0.56923079 23:0.67961162 24:0.35652173 25:0.58095241 26:0.46835443 27:0.57407409 28:0.47297296 29:0.55000001 30:0.46280992 31:0.41379312 32:0.34042552 33:0.63529414 34:0.53086418 35:0.45918366 36:0.42857143 37:0.69318181 38:0.5714286 39:0.30985916 40:0.43902439 41:0.41095892 42:0.37837839 43:0.59574467 44:0.51724136 45:0.53703701 46:0.66666669 47:0.56164384 48:0.35135135 49:0.58749998 50:0.60000002 51:0.64814812 52:0.68000001 53:0.60294116 54:0.46835443 55:0.42553192 56:0.48571429 57:0.55319148 58:0.42622951 59:0.55056179 60:0.5131579 61:0.3877551 62:0.2820513 63:0.49122807 64:0.42647058 65:0.4623656 66:0.40206185 67:0.29906541 68:0.20754717 69:0.22471911 70:0.29473683 71:0.27450982 72:0.29126215 73:0.35353535 74:0.55421686 75:0.23170732 76:0.29268292 77:0.38961038 78:0.32894737 79:0.3255814 80:0.52307695 81:0.36065573 82:0.54838711 83:0.46835443 84:0.25 85:0.62195122 86:0.52631581 87:0.51724136 88:0.5090909 89:0.44615385 90:0.45070422 91:0.60526317 92:0.62666667 93:0.36363637 94:0.32142857 95:0.49438202 96:0.50617284 97:0.37333333 98:0.25609756 99:0.39622641 100:0.42647058 101:0.46511629 102:0.41891891 103:0.25409836 104:0.15652174 105:0.11627907 106:0.21428572 107:0.16216215 108:0.16504854 109:0.11607143 110:0.37 111:0.27083334 112:0.20238096 113:0.25974026 114:0.15841584 115:0.17431192 116:0.60465115 117:0.49275362 118:0.2923077 119:0.37662336 120:0.10714286 121:0.31958762 122:0.36842105 123:0.22222222 124:0.47368422 125:0.30864197 126:0.28703704 127:0.39252338 128:0.39814815 129:0.30379745 130:0.51785713 131:0.44859812 132:0.43589744 133:0.32673267 134:0.21978022 135:0.36363637 136:0.28813559 137:0.47706422 138:0.35779816 139:0.3482143 140:0.20224719 141:0.52941179 142:0.50666666 143:0.28723404 144:0.19444445 145:0.30656934 146:0.18348624 147:0.2647059 148:0.23 149:0.18681319 150:0.25773194 151:0.19512194 152:0.47560975 153:0.55555558 154:0.44262296 155:0.33783785 156:0.20512821 157:0.03508772 158:0.51041669 159:0.4848485 160:0.43859649 161:0.22772278 162:0.29213482 163:0.26495728 164:0.59405941 165:0.41095892 166:0.50746268 167:0.50515461 168:0.40594059 169:0.52671754 170:0.79000002 171:0.43939394 172:0.36507937 173:0.44117647 174:0.49557522 175:0.31858408 176:0.35227272 177:0.32894737 178:0.36842105 179:0.31067961 180:0.35164836 181:0.22033899 182:0.2072072 183:0.36633664 184:0.15217391 185:0.24719101 186:0.2735849 187:0.45833334 188:0.36000001 189:0.44067797 190:0.43076923 191:0.3974359 192:0.26760563 193:0.42500001 194:0.43939394 195:0.36842105 196:0.50877196 197:0.43478259 198:0.39130434 199:0.46250001 200:0.60869563 201:0.64150941 202:0.64285713 203:0.50602412 204:0.50649351 205:0.50537634 206:0.41509435 207:0.58490568 208:0.50769234 209:0.55172414 210:0.56097561 211:0.32291666 212:0.25287357 213:0.36231884 214:0.40277779 215:0.36697248 216:0.40217391 217:0.44642857 218:0.37606838 219:0.4107143 220:0.30107528 221:0.32608697 222:0.28125 223:0.7647059 224:0.91666669 225:0.71698111 226:0.64516127 227:0.37333333 228:0.30952382 229:0.47674417 230:0.61764705 231:0.60377359 232:0.60000002 233:0.38271606 234:0.42391303 235:0.46987951 236:0.34999999 237:0.56 238:0.627451 239:0.52272725 240:0.47560975 241:0.45217392 242:0.45263159 243:0.5535714 244:0.41818181 245:0.65957445 246:0.62666667 247:0.37634408 248:0.34042552 249:0.40000001 250:0.3125 251:0.44144145 252:0.43333334 253:0.48571429 254:0.4159292 255:0.34020618 256:0.43333334 257:0.3888889 258:0.28235295 259:0.70786518 260:0.69411767 261:0.64285713 262:0.6081081 263:0.43548387 264:0.23584905 265:0.52427185 266:0.47674417 267:0.58620691 268:0.42307693 269:0.45454547 270:0.34999999 271:0.70689654 272:0.44285715 273:0.54166669 274:0.55172414 275:0.63440859 276:0.41 277:0.78761059 278:0.56578946 279:0.5714286 280:0.56962025 281:0.66071427 282:0.48245615 283:0.55844158 284:0.44594595 285:0.6025641 286:0.52325583 287:0.5 288:0.33043477 
0.9980809091655268 1:0.44094488 2:0.43000001 3:0.41111112 4:0.3888889 5:0.31034482 6:0.1826923 7:0.82178217 8:0.50793654 9:0.45333335 10:0.53846157 11:0.34615386 12:0.2038835 13:0.7037037 14:0.50617284 15:0.47619048 16:0.44230768 17:0.25773194 18:0.3018868 19:0.48031497 20:0.375 21:0.48148149 22:0.38461539 23:0.47572815 24:0.28695652 25:0.48571429 26:0.35443038 27:0.53703701 28:0.35135135 29:0.47999999 30:0.42975205 31:0.49425286 32:0.31914893 33:0.63529414 34:0.44444445 35:0.30612245 36:0.27619049 37:0.53409094 38:0.45238096 39:0.32394367 40:0.29268292 41:0.21917808 42:0.3108108 43:0.65957445 44:0.75862068 45:0.27777779 46:0.47826087 47:0.39726028 48:0.35135135 49:0.4375 50:0.36923078 51:0.24074075 52:0.5 53:0.38235295 54:0.4050633 55:0.29787233 56:0.47142857 57:0.34042552 58:0.40983605 59:0.35955057 60:0.38157895 61:0.3877551 62:0.5 63:0.29824561 64:0.32352942 65:0.33333334 66:0.40206185 67:0.31775701 68:0.10377359 69:0.37078652 70:0.33684212 71:0.23529412 72:0.33009708 73:0.30303031 74:0.43373495 75:0.19512194 76:0.13414635 77:0.20779221 78:0.30263159 79:0.30232558 80:0.66153848 81:0.22950819 82:0.25806451 83:0.36708862 84:0.39705881 85:0.29268292 86:0.32894737 87:0 88:0.16363636 89:0.36923078 90:0.49295774 91:0.19736843 92:0.33333334 93:0.07272727 94:0.21428572 95:0.35955057 96:0.45679012 97:0.29333332 98:0.23170732 99:0.075471699 100:0.29411766 101:0.44186047 102:0.5 103:0.20491803 104:0.13913043 105:0.19767442 106:0.30612245 107:0.24324325 108:0.31067961 109:0.29464287 110:0.25 111:0.13541667 112:0.071428575 113:0.16883117 114:0.21782178 115:0.25688073 116:0.56976742 117:0.37681159 118:0.24615385 119:0.35064936 120:0.21428572 121:0.26804122 122:0.53684211 123:0.25 124:0.3508772 125:0.32098764 126:0.35185185 127:0.20560747 128:0.3611111 129:0.18987341 130:0.39285713 131:0.37383178 132:0.41025642 133:0.31683168 134:0.2857143 135:0.28787878 136:0.18644068 137:0.50458717 138:0.44036698 139:0.41964287 140:0.25842696 141:0.48235294 142:0.53333336 143:0.39361703 144:0.4074074 145:0.67883211 146:0.1559633 147:0.098039217 148:0.1 149:0.0989011 150:0.21649484 151:0.62601626 152:0.20731707 153:0.19444445 154:0.13114753 155:0.27027026 156:0.42307693 157:0.57017541 158:0.57291669 159:0.24242425 160:0.28070176 161:0.2970297 162:0.49438202 163:0.34188035 164:0.53465348 165:0.21917808 166:0.47761193 167:0.49484536 168:0.53465348 169:0.33587787 170:0.74000001 171:0.4848485 172:0.46031746 173:0.58823532 174:0.68141592 175:0.460177 176:0.52272725 177:0.5131579 178:0.59210527 179:0.44660193 180:0.58241761 181:0.20338982 182:0.16216215 183:0.13861386 184:0.11956522 185:0.078651689 186:0.18867925 187:0.47222221 188:0.62666667 189:0.30508474 190:0.2923077 191:0.32051283 192:0.3943662 193:0.38749999 194:0.56060606 195:0.15789473 196:0.33333334 197:0.47826087 198:0.53260869 199:0.4375 200:0.43478259 201:0.33962265 202:0.53571427 203:0.57831323 204:0.70129871 205:0.38709676 206:0.3490566 207:0.3018868 208:0.53846157 209:0.62068963 210:0.69512194 211:0.52083331 212:0.51724136 213:0.55072463 214:0.66666669 215:0.55045873 216:0.63043481 217:0.29464287 218:0.26495728 219:0.39285713 220:0.31182796 221:0.097826086 222:0.14583333 223:0.27058825 224:0.47222221 225:0.52830189 226:0.53225809 227:0.36000001 228:0.40476191 229:0.33720931 230:0.39705881 231:0.33962265 232:0.53846157 233:0.45679012 234:0.56521738 235:0.43373495 236:0.41249999 237:0.34 238:0.60784316 239:0.59090906 240:0.65853661 241:0.36521739 242:0.45263159 243:0.35714287 244:0.5090909 245:0.61702126 246:0.69333333 247:0.58064514 248:0.59574467 249:0.61250001 250:0.55000001 251:0.57657659 252:0.58888888 253:0.41904762 254:0.40707964 255:0.44329897 256:0.42222223 257:0.25555557 258:0.14117648 259:0.32584271 260:0.47058824 261:0.5535714 262:0.47297296 263:0.37096775 264:0.20754717 265:0.61165047 266:0.59302324 267:0.53448278 268:0.30769232 269:0.38961038 270:0.35833332 271:0.64655173 272:0.45714286 273:0.41666666 274:0.53448278 275:0.51612902 276:0.43000001 277:0.71681416 278:0.52631581 279:0.5714286 280:0.5316456 281:0.6339286 282:0.55263156 283:0.72727275 284:0.5945946 285:0.69230771 286:0.54651165 287:0.5462963 288:0.33913043 
0.004814782411366511 1:0.37795275 2:0.37 3:0.42222223 4:0.32222223 5:0.18390805 6:0.10576923 7:0.55445546 8:0.36507937 9:0.47999999 10:0.43589744 11:0.29487181 12:0.1262136 13:0.44444445 14:0.32098764 15:0.52380955 16:0.42307693 17:0.25773194 18:0.20754717 19:0.74015749 20:0.41666666 21:0.51851851 22:0.38461539 23:0.53398061 24:0.20869565 25:0.74285716 26:0.6708861 27:0.64814812 28:0.36486486 29:0.56999999 30:0.45454547 31:0.32183909 32:0.28723404 33:0.61176473 34:0.38271606 35:0.30612245 36:0.26666668 37:0.48863637 38:0.33333334 39:0.26760563 40:0.2682927 41:0.16438356 42:0.1891892 43:0.62765956 44:0.56896549 45:0.37037036 46:0.39130434 47:0.28767124 48:0.25675675 49:0.44999999 50:0.47692308 51:0.37037036 52:0.34 53:0.36764705 54:0.34177214 55:0.53191489 56:0.45714286 57:0.40425533 58:0.21311475 59:0.42696628 60:0.38157895 61:0.30612245 62:0.21794872 63:0.21052632 64:0.13235295 65:0.37634408 66:0.38144329 67:0.18691589 68:0.12264151 69:0.14606741 70:0.1368421 71:0.55882353 72:0.41747573 73:0.27272728 74:0.33734939 75:0.14634146 76:0.14634146 77:0.1038961 78:0.14473684 79:0.36046511 80:0.52307695 81:0.19672132 82:0.19354838 83:0.21518987 84:0.23529412 85:0.46341464 86:0.31578946 87:0.1724138 88:0.12727273 89:0.26153848 90:0.38028169 91:0.32894737 92:0.53333336 93:0.40000001 94:0.19642857 95:0.40449437 96:0.41975307 97:0.21333334 98:0.21951219 99:0.2264151 100:0.11764706 101:0.47674417 102:0.47297296 103:0.18852459 104:0.12173913 105:0.12790698 106:0.17346939 107:0.32432431 108:0.66019416 109:0.20535715 110:0.15000001 111:0.083333336 112:0.095238097 113:0.12987013 114:0.12871288 115:0.11009175 116:0.3488372 117:0.23188406 118:0.10769231 119:0.23376623 120:0.19642857 121:0.051546391 122:0.2736842 123:0.2638889 124:0.3508772 125:0.19753087 126:0.28703704 127:0.31775701 128:0.58333331 129:0.4050633 130:0.3392857 131:0.42990655 132:0.43589744 133:0.5247525 134:0.67032969 135:0.69696969 136:0.28813559 137:0.64220184 138:0.47706422 139:0.19642857 140:0.25842696 141:0.62352943 142:0.46666667 143:0.35106382 144:0.28703704 145:0.21897811 146:0.17431192 147:0.17647059 148:0.090000004 149:0.010989011 150:0.14432989 151:0.30081302 152:0.29268292 153:0.43055555 154:0.21311475 155:0.21621622 156:0.38461539 157:0.087719299 158:0.42708334 159:0.36363637 160:0.2631579 161:0.23762377 162:0.46067417 163:0.23931624 164:0.44554454 165:0.38356164 166:0.50746268 167:0.56701028 168:0.57425743 169:0.46564886 170:0.73000002 171:0.65151513 172:0.33333334 173:0.65686274 174:0.7079646 175:0.22123894 176:0.43181819 177:0.55263156 178:0.36842105 179:0.407767 180:0.53846157 181:0.30508474 182:0.23423423 183:0.21782178 184:0.22826087 185:0.02247191 186:0.13207547 187:0.52777779 188:0.36000001 189:0.30508474 190:0.27692309 191:0.26923078 192:0.30985916 193:0.3125 194:0.33333334 195:0.12280702 196:0.19298245 197:0.44927537 198:0.55434781 199:0.28749999 200:0.33333334 201:0.28301886 202:0.32142857 203:0.56626505 204:0.70129871 205:0.60215056 206:0.4245283 207:0.35849056 208:0.40000001 209:0.64367819 210:0.74390244 211:0.375 212:0.34482759 213:0.43478259 214:0.44444445 215:0.54128438 216:0.5869565 217:0.38392857 218:0.41880342 219:0.53571427 220:0.29032257 221:0.032608695 222:0 223:0.3882353 224:0.4861111 225:0.5471698 226:0.46774194 227:0.30666667 228:0.34523809 229:0.39534885 230:0.36764705 231:0.43396226 232:0.50769234 233:0.43209878 234:0.52173913 235:0.37349397 236:0.34999999 237:0.54000002 238:0.56862748 239:0.625 240:0.63414633 241:0.66086954 242:0.7368421 243:0.6785714 244:0.5090909 245:0.65957445 246:0.65333331 247:0.52688169 248:0.53191489 249:0.5625 250:0.42500001 251:0.57657659 252:0.52222222 253:0.46666667 254:0.44247788 255:0.53608245 256:0.41111112 257:0.24444444 258:0.047058824 259:0.46067417 260:0.51764709 261:0.5535714 262:0.52702701 263:0.46774194 264:0.1981132 265:0.51456308 266:0.3488372 267:0.56896549 268:0.38461539 269:0.42857143 270:0.31666666 271:0.51724136 272:0.47142857 273:0.66666669 274:0.58620691 275:0.60215056 276:0.44999999 277:0.76991153 278:0.67105263 279:0.75 280:0.55696201 281:0.7410714 282:0.56140351 283:0.58441556 284:0.52702701 285:0.64102566 286:0.55813956 287:0.50925928 288:0.24347825 
0.3086010352497781 1:0.40157479 2:0.41 3:0.43333334 4:0.54444444 5:0.68965518 6:0.51923078 7:0.7227723 8:0.60317463 9:0.70666665 10:0.80769229 11:0.58974361 12:0.43689319 13:0.77777779 14:0.45679012 15:0.6825397 16:0.71153843 17:0.556701 18:0.50943398 19:0.61417323 20:0.36458334 21:0.64814812 22:0.63076925 23:0.78640777 24:0.57391304 25:0.6761905 26:0.54430377 27:0.96296299 28:0.63513511 29:0.47999999 30:0.66115701 31:0.56321841 32:0.38297874 33:0.56470591 34:0.66666669 35:0.44897959 36:0.58095241 37:0.57954544 38:0.48809522 39:0.43661973 40:0.63414633 41:0.86301368 42:0.7972973 43:0.67021275 44:0.79310346 45:0.72222221 46:0.9130435 47:0.75342464 48:0.75675678 49:0.55000001 50:0.61538464 51:0.66666669 52:0.89999998 53:0.92647058 54:0.78481013 55:0.43617022 56:0.40000001 57:0.82978725 58:0.72131145 59:0.70786518 60:0.81578946 61:0.56122446 62:0.32051283 63:0.70175439 64:0.69117647 65:0.67741936 66:0.76288658 67:0.59813082 68:0.7264151 69:0.78651685 70:0.64210528 71:0.50980395 72:0.54368931 73:0.52525252 74:0.50602412 75:0.47560975 76:0.60975611 77:0.8051948 78:0.71052629 79:0.5 80:0.72307694 81:0.81967211 82:1 83:0.74683547 84:0.64705884 85:0.64634144 86:0.67105263 87:0.58620691 88:0.83636361 89:0.8923077 90:0.90140843 91:0.4868421 92:0.53333336 93:0.74545455 94:0.83928573 95:0.77528089 96:0.76543212 97:0.49333334 98:0.41463414 99:0.6226415 100:0.70588237 101:0.77906978 102:0.72972971 103:0.42622951 104:0.5043478 105:0.31395349 106:0.35714287 107:0.47747749 108:0.48543689 109:0.58035713 110:0.38999999 111:0.375 112:0.52380955 113:0.8051948 114:0.59405941 115:0.33944955 116:0.68604654 117:0.68115944 118:0.83076924 119:0.75324672 120:0.49107143 121:0.19587629 122:0.84210527 123:0.55555558 124:0.84210527 125:0.69135803 126:0.64814812 127:0.39252338 128:0.5 129:0.48101267 130:0.8035714 131:0.81308413 132:0.64957267 133:0.55445546 134:0.52747256 135:0.72727275 136:0.61016947 137:0.66055048 138:0.48623854 139:0.4732143 140:0.41573033 141:0.71764708 142:0.51999998 143:0.52127659 144:0.39814815 145:0.49635038 146:0.44954127 147:0.46078432 148:0.40000001 149:0.62637365 150:0.76288658 151:0.35772356 152:0.5 153:0.70833331 154:0.80327868 155:0.6081081 156:0.73076922 157:0.3508772 158:0.52083331 159:0.62121212 160:0.9649123 161:0.53465348 162:0.67415732 163:0.3931624 164:0.79207921 165:0.5479452 166:0.74626863 167:0.8041237 168:0.77227724 169:0.41221374 170:0.66000003 171:0.63636363 172:0.58730161 173:0.57843137 174:0.56637168 175:0.37168142 176:0.44318181 177:0.39473686 178:0.38157895 179:0.55339807 180:0.45054945 181:0.36440679 182:0.4054054 183:0.33663365 184:0.26086956 185:0.51685393 186:0.5 187:0.4861111 188:0.54666668 189:0.76271188 190:0.7846154 191:0.58974361 192:0.57746476 193:0.44999999 194:0.66666669 195:0.78947371 196:1 197:0.85507244 198:0.71739131 199:0.63749999 200:0.75362319 201:0.79245281 202:0.8214286 203:0.84337348 204:0.85714287 205:0.72043014 206:0.61320752 207:0.8490566 208:0.80000001 209:0.7241379 210:0.74390244 211:0.51041669 212:0.47126436 213:0.57971013 214:0.65277779 215:0.5321101 216:0.57608694 217:0.39285713 218:0.34188035 219:0.30357143 220:0.34408602 221:0.44565219 222:0.35416666 223:0.40000001 224:0.3888889 225:0.81132078 226:0.88709676 227:0.53333336 228:0.44047618 229:0.45348838 230:0.5147059 231:0.79245281 232:0.84615386 233:0.60493827 234:0.71739131 235:0.6987952 236:0.55000001 237:0.66000003 238:0.66666669 239:0.84090906 240:0.81707317 241:0.63478261 242:0.50526315 243:0.6964286 244:0.61818182 245:0.62765956 246:0.68000001 247:0.56989247 248:0.45744681 249:0.57499999 250:0.55000001 251:0.44144145 252:0.82222223 253:0.44761905 254:0.38053098 255:0.36082473 256:0.53333336 257:0.77777779 258:0.63529414 259:0.49438202 260:0.41176471 261:0.64285713 262:0.75675678 263:0.69354838 264:0.33018869 265:0.592233 266:0.59302324 267:0.70689654 268:0.76923078 269:0.61038959 270:0.45833334 271:0.78448278 272:0.60000002 273:0.6875 274:0.67241377 275:0.88172042 276:0.66000003 277:0.69026548 278:0.5 279:0.75 280:0.55696201 281:0.6160714 282:0.57894737 283:0.71428573 284:0.45945945 285:0.47435898 286:0.54651165 287:0.3888889 288:0.4173913 
0.0445685290670244 1:0.49606299 2:0.47 3:0.5 4:0.65555555 5:0.90804595 6:0.70192307 7:0.79207921 8:0.50793654 9:0.81333333 10:0.61538464 11:0.67948717 12:0.592233 13:0.68518519 14:0.41975307 15:0.84126985 16:0.78846157 17:0.51546389 18:0.73584908 19:0.5905512 20:0.33333334 21:0.81481481 22:0.69230771 23:0.84466022 24:0.67826086 25:0.58095241 26:0.34177214 27:0.74074072 28:0.58108109 29:0.67000002 30:0.76859504 31:0.62068963 32:0.47872341 33:0.7647059 34:0.72839504 35:0.53061223 36:0.74285716 37:0.64772725 38:0.44047618 39:0.42253521 40:0.56097561 41:0.69863015 42:0.74324322 43:0.67021275 44:0.62068963 45:0.74074072 46:0.66666669 47:0.72602737 48:0.74324322 49:0.42500001 50:0.53846157 51:0.94444442 52:0.83999997 53:0.85294116 54:0.75949365 55:0.42553192 56:0.30000001 57:0.76595747 58:0.45901638 59:0.73033708 60:0.82894737 61:0.5 62:0.37179488 63:0.7368421 64:0.66176468 65:0.77419353 66:0.76288658 67:0.44859812 68:0.5 69:0.53932583 70:0.64210528 71:0.68627453 72:0.67961162 73:0.57575756 74:0.51807231 75:0.36585367 76:0.60975611 77:0.77922076 78:0.67105263 79:0.56976742 80:0.6769231 81:0.50819671 82:0.72580647 83:0.69620252 84:0.75 85:0.58536583 86:0.52631581 87:0.82758623 88:0.78181821 89:0.7846154 90:0.8309859 91:0.5 92:0.61333334 93:0.58181816 94:0.64285713 95:0.74157304 96:0.76543212 97:0.50666666 98:0.42682928 99:0.83018869 100:0.7352941 101:0.8488372 102:0.72972971 103:0.38524589 104:0.43478259 105:0.51162791 106:0.55102038 107:0.62162161 108:0.57281554 109:0.53571427 110:0.46000001 111:0.39583334 112:0.61904764 113:0.98701298 114:0.73267329 115:0.44036698 116:0.87209302 117:0.82608694 118:0.69230771 119:0.79220778 120:0.54464287 121:0.37113401 122:0.82105261 123:0.66666669 124:0.84210527 125:0.64197528 126:0.5925926 127:0.33644861 128:0.50925928 129:0.56962025 130:0.9285714 131:0.76635516 132:0.64957267 133:0.34653464 134:0.50549453 135:0.60606062 136:0.67796612 137:0.75229359 138:0.58715594 139:0.5714286 140:0.53932583 141:0.69411767 142:0.69333333 143:0.61702126 144:0.50925928 145:0.41605839 146:0.4678899 147:0.5 148:0.55000001 149:0.75824177 150:0.81443298 151:0.33333334 152:0.43902439 153:0.7638889 154:0.70491803 155:0.7027027 156:0.79487181 157:0.28947368 158:0.70833331 159:0.77272725 160:0.7719298 161:0.5247525 162:0.65168542 163:0.32478634 164:0.75247526 165:0.60273975 166:0.73134327 167:0.84536082 168:0.66336632 169:0.38931298 170:0.69999999 171:0.46969697 172:0.41269842 173:0.71568626 174:0.68141592 175:0.460177 176:0.51136363 177:0.38157895 178:0.34210527 179:0.45631069 180:0.49450549 181:0.46610171 182:0.45945945 183:0.54455447 184:0.45652175 185:0.53932583 186:0.51886791 187:0.6388889 188:0.56 189:0.62711865 190:0.63076925 191:0.64102566 192:0.67605633 193:0.47499999 194:0.65151513 195:0.59649122 196:0.80701756 197:0.76811594 198:0.60869563 199:0.64999998 200:0.78260869 201:0.8490566 202:0.85714287 203:0.73493975 204:0.6883117 205:0.68817204 206:0.58490568 207:0.90566039 208:0.69230771 209:0.83908045 210:0.81707317 211:0.58333331 212:0.45977011 213:0.57971013 214:0.5138889 215:0.60550457 216:0.55434781 217:0.51785713 218:0.52136755 219:0.5535714 220:0.45161289 221:0.47826087 222:0.4375 223:0.40000001 224:0.45833334 225:0.86792451 226:0.62903225 227:0.53333336 228:0.5714286 229:0.37209302 230:0.33823529 231:0.7735849 232:0.73846155 233:0.54320985 234:0.65217394 235:0.66265059 236:0.42500001 237:0.92000002 238:0.78431374 239:0.73863637 240:0.74390244 241:0.6695652 242:0.51578945 243:0.8035714 244:0.61818182 245:0.78723407 246:0.82666665 247:0.67741936 248:0.45744681 249:0.5625 250:0.41249999 251:0.51351351 252:0.6111111 253:0.52380955 254:0.46902654 255:0.52577317 256:0.63333333 257:0.76666665 258:0.7647059 259:0.57303369 260:0.60000002 261:1 262:0.63513511 263:0.7096774 264:0.46226415 265:0.75728154 266:0.58139533 267:0.96551722 268:0.46153846 269:0.5714286 270:0.60000002 271:0.85344827 272:0.48571429 273:0.77083331 274:0.62068963 275:0.88172042 276:0.80000001 277:0.65486723 278:0.4868421 279:0.76785713 280:0.58227849 281:0.76785713 282:0.78070176 283:0.76623374 284:0.58108109 285:0.66666669 286:0.55813956 287:0.4537037 288:0.45217392 
0.3432983902991928 1:0.2519685 2:0.47 3:0.41111112 4:0.3888889 5:0.33333334 6:0.28846154 7:0.41584158 8:0.76190478 9:0.56 10:0.47435898 11:0.35897437 12:0.27184466 13:0.56481481 14:0.48148149 15:0.50793654 16:0.42307693 17:0.3298969 18:0.3773585 19:0.50393701 20:0.36458334 21:0.37037036 22:0.33846155 23:0.55339807 24:0.29565218 25:0.6857143 26:0.37974682 27:0.35185185 28:0.3918919 29:0.47999999 30:0.40495867 31:0.47126436 32:0.28723404 33:0.45882353 34:0.39506173 35:0.37755102 36:0.35238096 37:0.19318181 38:0.26190478 39:0.22535211 40:0.37804878 41:0.42465752 42:0.3918919 43:0.42553192 44:0.67241377 45:0.46296296 46:0.50724638 47:0.46575344 48:0.4054054 49:0.63749999 50:0.53846157 51:0.48148149 52:0.44 53:0.54411763 54:0.46835443 55:0.46808511 56:0.54285717 57:0.23404256 58:0.3442623 59:0.51685393 60:0.44736841 61:0.56122446 62:0.38461539 63:0.29824561 64:0.35294119 65:0.37634408 66:0.35051546 67:0.29906541 68:0.20754717 69:0.17977528 70:0.24210526 71:0.28431374 72:0.28155339 73:0.15151516 74:0.26506025 75:0.19512194 76:0.24390244 77:0.3116883 78:0.2631579 79:0.30232558 80:0.47692308 81:0.3114754 82:0.32258064 83:0.36708862 84:0.25 85:0.48780489 86:0.31578946 87:0.43103448 88:0.36363637 89:0.43076923 90:0.45070422 91:0.30263159 92:0.37333333 93:0.23636363 94:0.26785713 95:0.39325842 96:0.41975307 97:0.28 98:0.24390244 99:0.18867925 100:0.38235295 101:0.45348838 102:0.4054054 103:0.26229507 104:0.16521738 105:0.08139535 106:0.22448979 107:0.1981982 108:0.17475729 109:0.044642858 110:0.25 111:0.22916667 112:0.21428572 113:0.23376623 114:0.14851485 115:0.30275229 116:0.55813956 117:0.37681159 118:0.26153848 119:0.2857143 120:0.11607143 121:0.56701028 122:0.44210526 123:0.34722221 124:0.31578946 125:0.22222222 126:0.27777779 127:0.42056075 128:0.3611111 129:0.2278481 130:0.2857143 131:0.31775701 132:0.33333334 133:0.42574257 134:0.48351648 135:0.5151515 136:0.15254237 137:0.41284403 138:0.3119266 139:0.39285713 140:0.28089887 141:0.44705883 142:0.33333334 143:0.27659574 144:0.21296297 145:0.26277372 146:0.20183486 147:0.33333334 148:0.19 149:0.12087912 150:0.2371134 151:0.048780486 152:0.14634146 153:0.47222221 154:0.3442623 155:0.14864865 156:0.25641027 157:0.15789473 158:0.39583334 159:0.43939394 160:0.40350878 161:0.20792079 162:0.28089887 163:0.24786325 164:0.51485151 165:0.369863 166:0.43283582 167:0.39175257 168:0.28712872 169:0.22900763 170:0.25999999 171:0.30303031 172:0.23809524 173:0.38235295 174:0.4159292 175:0.2920354 176:0.28409091 177:0.32894737 178:0.31578946 179:0.31067961 180:0.34065935 181:0.29661018 182:0.22522523 183:0.25742576 184:0.23913044 185:0.29213482 186:0.2264151 187:0 188:0.12 189:0.3898305 190:0.21538462 191:0.23076923 192:0.23943663 193:0.1375 194:0.24242425 195:0.31578946 196:0.33333334 197:0.36231884 198:0.38043478 199:0.30000001 200:0.36231884 201:0.3018868 202:0.3392857 203:0.43373495 204:0.46753246 205:0.58064514 206:0.44339624 207:0.33962265 208:0.30769232 209:0.47126436 210:0.5 211:0.38541666 212:0.32183909 213:0.26086956 214:0.30555555 215:0.37614679 216:0.38043478 217:0.375 218:0.35042736 219:0.38392857 220:0.43010753 221:0.29347825 222:0.17708333 223:0.2 224:0.3611111 225:0.43396226 226:0.33870968 227:0.28 228:0.2857143 229:0.29069766 230:0.38235295 231:0.41509435 232:0.41538462 233:0.34567901 234:0.41304347 235:0.3493976 236:0.33750001 237:0.36000001 238:0.52941179 239:0.47727272 240:0.4512195 241:0.51304346 242:0.51578945 243:0.44642857 244:0.40000001 245:0.55319148 246:0.51999998 247:0.4623656 248:0.39361703 249:0.40000001 250:0.38749999 251:0.46846846 252:0.3888889 253:0.40000001 254:0.64601767 255:0.44329897 256:0.3888889 257:0.30000001 258:0.22352941 259:0.51685393 260:0.68235296 261:0.53571427 262:0.51351351 263:0.3548387 264:0.20754717 265:0.63106793 266:0.59302324 267:0.5 268:0.25 269:0.37662336 270:0.30833334 271:0.70689654 272:0.44285715 273:0.4375 274:0.41379312 275:0.44086021 276:0.28999999 277:0.39823008 278:0.28947368 279:0.375 280:0.4556962 281:0.52678573 282:0.42982456 283:0.46753246 284:0.37837839 285:0.47435898 286:0.45348838 287:0.48148149 288:0.30434781 
0.5510533261912174 1:0.42519686 2:0.41 3:0.53333336 4:0.58888888 5:0.77011496 6:0.51923078 7:0.87128711 8:0.49206349 9:0.54666668 10:0.46153846 11:0.57692307 12:0.29126215 13:0.77777779 14:0.60493827 15:0.3968254 16:0.34615386 17:0.41237113 18:0.25471699 19:0.51968503 20:0.46875 21:0.24074075 22:0.46153846 23:0.68932039 24:0.28695652 25:0.42857143 26:0.39240506 27:0.4074074 28:0.16216215 29:0.44999999 30:0.39669421 31:0.35632184 32:0.31914893 33:0.34117648 34:0.18518518 35:0.21428572 36:0.18095239 37:0.56818181 38:0.42857143 39:0.38028169 40:0.63414633 41:0.83561641 42:0.6081081 43:0.71276593 44:0.89655173 45:0.83333331 46:0.42028984 47:0.46575344 48:0.28378379 49:0.4375 50:0.53846157 51:0.7037037 52:0.36000001 53:0.66176468 54:0.30379745 55:0.4893617 56:0.41428572 57:0.55319148 58:0.21311475 59:0.5955056 60:0.39473686 61:0.37755102 62:0.38461539 63:0.43859649 64:0.014705882 65:0.44086021 66:0.35051546 67:0.53271025 68:0.40566039 69:0.21348314 70:0.33684212 71:0.37254903 72:0.46601942 73:0.38383839 74:0.3493976 75:0.29268292 76:0.5487805 77:0.53246754 78:0.42105263 79:0.47674417 80:0.53846157 81:0.49180329 82:0.37096775 83:0.27848101 84:0.32352942 85:0.39024389 86:0.28947368 87:0.3275862 88:0.25454545 89:0.69230771 90:0.57746476 91:0.43421054 92:0.45333335 93:0.41818181 94:0.14285715 95:0.64044946 96:0.51851851 97:0.33333334 98:0.34146342 99:0.47169811 100:0.13235295 101:0.47674417 102:0.35135135 103:0.59016395 104:0.38260868 105:0.22093023 106:0.36734694 107:0.42342341 108:0.407767 109:0.22321428 110:0.34 111:0.32291666 112:0.55952382 113:0.61038959 114:0.38613862 115:0.21100917 116:0.67441863 117:0.55072463 118:0.38461539 119:0.32467532 120:0.25892857 121:0.34020618 122:0.47368422 123:0.43055555 124:0.31578946 125:0.56790125 126:0.5 127:0.31775701 128:0.32407406 129:0.37974682 130:0.2857143 131:0.73831773 132:0.56410259 133:0.22772278 134:0.38461539 135:0.54545456 136:0.23728813 137:0.65137613 138:0.34862384 139:0.3125 140:0.29213482 141:0.45882353 142:0.25333333 143:0.35106382 144:0.28703704 145:0.13868614 146:0.26605505 147:0.4509804 148:0.57999998 149:0.53846157 150:0.49484536 151:0.25203252 152:0.47560975 153:0.65277779 154:0.49180329 155:0.4054054 156:0.67948717 157:0.62280703 158:0.80208331 159:0.60606062 160:0.33333334 161:0.44554454 162:0.6179775 163:0.52991456 164:0.71287131 165:0.3561644 166:0.41791046 167:0.90721649 168:0.6732673 169:0.31297711 170:0.43000001 171:0.5 172:0.22222222 173:0.68627453 174:0.61061949 175:0.28318584 176:0.375 177:0.38157895 178:0.18421052 179:0.43689319 180:0.41758242 181:0.720339 182:0.9099099 183:0.65346533 184:0.44565219 185:0.33707866 186:0.4245283 187:0.3611111 188:0.37333333 189:0.71186441 190:0.53846157 191:0.34615386 192:0.67605633 193:0.5 194:0.54545456 195:0.71929824 196:0.52631581 197:0.69565219 198:0.57608694 199:0.625 200:0.59420288 201:0.6981132 202:0.35714287 203:0.75903612 204:0.59740257 205:0.67741936 206:0.5 207:0.6226415 208:0.24615385 209:0.73563218 210:0.60975611 211:0.45833334 212:0.43678162 213:0.53623188 214:0.22222222 215:0.42201835 216:0.39130434 217:0.875 218:0.4957265 219:0.375 220:0.38709676 221:0.33695653 222:0.25 223:0.24705882 224:0.40277779 225:0.6981132 226:0.33870968 227:0.26666668 228:0.39285713 229:0.36046511 230:0.33823529 231:0.60377359 232:0.30769232 233:0.49382716 234:0.48913044 235:0.55421686 236:0.42500001 237:0.46000001 238:0.17647059 239:0.70454544 240:0.57317072 241:0.45217392 242:0.43157893 243:0.4642857 244:0.32727271 245:0.68085104 246:0.56 247:0.39784947 248:0.34042552 249:0.4375 250:0.25 251:0.38738739 252:0.3888889 253:0.24761905 254:0.460177 255:0.48453608 256:0.48888889 257:0.64444447 258:0.68235296 259:0.29213482 260:0.52941179 261:0.5714286 262:0.43243244 263:0.45161289 264:0.40566039 265:0.66019416 266:0.6511628 267:0.43103448 268:0.23076923 269:0.44155845 270:0.34999999 271:0.68965518 272:0.52857143 273:0.25 274:0.56896549 275:0.86021507 276:0.47 277:0.39823008 278:0.52631581 279:0.48214287 280:0.50632912 281:0.6160714 282:0.39473686 283:0.4025974 284:0.44594595 285:0.3974359 286:0.27906978 287:0.33333334 288:0.2 
0.3434379325706586 1:0.55118108 2:0.46000001 3:0.43333334 4:0.43333334 5:0.59770113 6:0.48076922 7:0.78217822 8:0.49206349 9:0.56 10:0.58974361 11:0.66666669 12:0.54368931 13:0.48148149 14:0.50617284 15:0.66666669 16:0.61538464 17:0.54639173 18:0.64150941 19:0.5905512 20:0.5 21:0.68518519 22:0.60000002 23:0.71844661 24:0.55652171 25:0.62857145 26:0.55696201 27:0.7037037 28:0.56756759 29:0.68000001 30:0.64462811 31:0.41379312 32:0.4893617 33:0.69411767 34:0.76543212 35:0.71428573 36:0.5714286 37:0.68181819 38:0.5714286 39:0.47887325 40:0.5 41:0.68493152 42:0.62162161 43:0.58510637 44:0.5 45:0.48148149 46:0.72463769 47:0.71232879 48:0.6891892 49:0.57499999 50:0.61538464 51:0.5925926 52:0.69999999 53:0.77941179 54:0.74683547 55:0.84042555 56:0.65714288 57:0.55319148 58:0.54098362 59:0.69662923 60:0.80263156 61:0.48979592 62:0.35897437 63:0.45614034 64:0.5 65:0.64516127 66:0.71134019 67:0.41121495 68:0.5 69:0.49438202 70:0.43157893 71:0.48039216 72:0.48543689 73:0.56565654 74:0.6506024 75:0.46341464 76:0.42682928 77:0.54545456 78:0.52631581 79:0.47674417 80:0.60000002 81:0.60655737 82:0.75806451 83:0.63291138 84:0.63235295 85:0.51219511 86:0.5131579 87:0.62068963 88:0.78181821 89:0.72307694 90:0.76056337 91:0.46052632 92:0.75999999 93:0.61818182 94:0.60714287 95:0.62921351 96:0.71604937 97:0.34666666 98:0.37804878 99:0.5471698 100:0.57352942 101:0.67441863 102:0.75675678 103:0.43442622 104:0.40000001 105:0.58139533 106:0.46938777 107:0.36036035 108:0.407767 109:0.4642857 110:0.47999999 111:0.38541666 112:0.36904761 113:0.53246754 114:0.41584158 115:0.44954127 116:0.68604654 117:0.59420288 118:0.58461541 119:0.58441556 120:0.3482143 121:0.43298969 122:0.45263159 123:0.41666666 124:0.80701756 125:0.50617284 126:0.46296296 127:0.50467288 128:0.51851851 129:0.50632912 130:0.71428573 131:0.54205608 132:0.50427353 133:0.58415842 134:0.41758242 135:0.78787881 136:0.47457626 137:0.54128438 138:0.4678899 139:0.3482143 140:0.34831461 141:0.71764708 142:0.72000003 143:0.45744681 144:0.43518519 145:0.5182482 146:0.44954127 147:0.4509804 148:0.41 149:0.52747256 150:0.46391752 151:0.52845526 152:0.48780489 153:0.6111111 154:0.6557377 155:0.63513511 156:0.61538464 157:0.4649123 158:0.75 159:0.59090906 160:0.7719298 161:0.41584158 162:0.51685393 163:0.44444445 164:0.61386138 165:0.57534248 166:0.77611941 167:0.61855668 168:0.51485151 169:0.48091602 170:0.57999998 171:0.77272725 172:0.61904764 173:0.53921568 174:0.56637168 175:0.37168142 176:0.42045453 177:0.55263156 178:0.55263156 179:0.45631069 180:0.52747256 181:0.5 182:0.44144145 183:0.48514852 184:0.46739131 185:0.52808988 186:0.49056605 187:0.80555558 188:0.61333334 189:0.66101694 190:0.80000001 191:0.73076922 192:0.69014084 193:0.55000001 194:0.5 195:0.54385966 196:0.7368421 197:0.65217394 198:0.63043481 199:0.61250001 200:0.59420288 201:0.6981132 202:0.71428573 203:0.59036142 204:0.70129871 205:0.74193549 206:0.61320752 207:0.73584908 208:0.66153848 209:0.63218391 210:0.71951222 211:0.47916666 212:0.47126436 213:0.49275362 214:0.55555558 215:0.5321101 216:0.53260869 217:0.4642857 218:0.45299146 219:0.49107143 220:0.51612902 221:0.43478259 222:0.44791666 223:0.56470591 224:0.625 225:0.7735849 226:0.83870965 227:0.69333333 228:0.6785714 229:0.58139533 230:0.60294116 231:0.60377359 232:0.60000002 233:0.60493827 234:0.68478262 235:0.59036142 236:0.52499998 237:0.66000003 238:0.66666669 239:0.64772725 240:0.74390244 241:0.71304345 242:0.7368421 243:0.89285713 244:0.76363635 245:0.72340423 246:0.81333333 247:0.59139782 248:0.54255319 249:0.53750002 250:0.53750002 251:0.62162161 252:0.65555555 253:0.4952381 254:0.43362832 255:0.46391752 256:0.5777778 257:0.67777777 258:0.52941179 259:0.65168542 260:0.57647061 261:0.625 262:0.67567569 263:0.87096775 264:0.51886791 265:0.84466022 266:0.51162791 267:0.65517241 268:0.51923078 269:0.66233766 270:0.55000001 271:0.70689654 272:0.61428571 273:0.70833331 274:0.65517241 275:0.73118281 276:0.58999997 277:0.71681416 278:0.65789473 279:0.64285713 280:0.63291138 281:0.66964287 282:0.62280703 283:0.55844158 284:0.64864862 285:0.57692307 286:0.63953489 287:0.68518519 288:0.48695651 
0.1125599283798414 1:0.42519686 2:0.34 3:0.67777777 4:0.53333336 5:0.55172414 6:0.29807693 7:0.75247526 8:0.41269842 9:0.57333332 10:0.53846157 11:0.70512819 12:0.37864077 13:0.49074075 14:0.43209878 15:0.5714286 16:0.61538464 17:0.31958762 18:0.29245284 19:0.49606299 20:0.40625 21:0.68518519 22:0.56923079 23:0.74757284 24:0.40000001 25:0.31428573 26:0.20253165 27:0.68518519 28:0.52702701 29:0.68000001 30:0.58677685 31:0.36781609 32:0.21276596 33:0.61176473 34:0.48148149 35:0.27551019 36:0.26666668 37:0.57954544 38:0.34523809 39:0.21126761 40:0.28048781 41:0.56164384 42:0.5 43:0.71276593 44:0.7241379 45:0.44444445 46:0.50724638 47:0.68493152 48:0.6891892 49:0.57499999 50:0.81538463 51:0.46296296 52:0.66000003 53:0.61764705 54:0.5316456 55:0.40425533 56:0.69999999 57:0.65957445 58:0.54098362 59:0.76404494 60:0.71052629 61:0.24489796 62:0.26923078 63:0.50877196 64:0.45588234 65:0.56989247 66:0.6082474 67:0.26168224 68:0.13207547 69:0.30337077 70:0.35789475 71:0.27450982 72:0.27184466 73:0.41414142 74:0.43373495 75:0.34146342 76:0.47560975 77:0.8051948 78:0.71052629 79:0.47674417 80:0.70769233 81:0.44262296 82:0.74193549 83:0.77215189 84:0.7352941 85:0.73170733 86:0.64473683 87:0.48275861 88:0.81818181 89:0.70769233 90:0.77464789 91:0.61842108 92:0.66666669 93:0.70909089 94:0.75 95:0.75280899 96:0.83950615 97:0.37333333 98:0.2682927 99:0.58490568 100:0.57352942 101:0.68604654 102:0.67567569 103:0.31967214 104:0.16521738 105:0.29069766 106:0.36734694 107:0.2882883 108:0.21359223 109:0.25 110:0.33000001 111:0.23958333 112:0.33333334 113:0.64935064 114:0.49504951 115:0.27522936 116:0.79069769 117:0.44927537 118:0.43076923 119:0.8051948 120:0.5089286 121:0.3298969 122:0.56842107 123:0.34722221 124:0.71929824 125:0.46913579 126:0.44444445 127:0.38317758 128:0.3888889 129:0.44303799 130:0.75 131:0.64485979 132:0.63247865 133:0.22772278 134:0.1978022 135:0.59090906 136:0.52542371 137:0.72477067 138:0.59633029 139:0.2857143 140:0.24719101 141:0.56470591 142:0.61333334 143:0.43617022 144:0.3611111 145:0.31386861 146:0.32110092 147:0.35294119 148:0.47999999 149:0.70329672 150:0.51546389 151:0.35772356 152:0.36585367 153:0.52777779 154:1 155:0.94594592 156:0.82051283 157:0.28070176 158:0.8125 159:0.66666669 160:0.87719297 161:0.40594059 162:0.49438202 163:0.23076923 164:0.76237625 165:0.53424656 166:0.68656719 167:0.72164947 168:0.62376237 169:0.32824427 170:0.80000001 171:0.56060606 172:0.5714286 173:0.7352941 174:0.79646015 175:0.34513274 176:0.43181819 177:0.43421054 178:0.5 179:0.45631069 180:0.52747256 181:0.28813559 182:0.54954952 183:0.74257427 184:0.39130434 185:0.48314607 186:0.74528301 187:0.47222221 188:0.29333332 189:0.62711865 190:0.86153847 191:0.75641024 192:0.90140843 193:0.46250001 194:0.62121212 195:0.50877196 196:0.78947371 197:0.57971013 198:0.53260869 199:0.5625 200:0.76811594 201:0.71698111 202:0.75 203:0.72289157 204:0.8051948 205:0.48387095 206:0.49056605 207:0.71698111 208:0.6769231 209:0.79310346 210:0.85365856 211:0.4375 212:0.36781609 213:0.56521738 214:0.6111111 215:0.52293581 216:0.56521738 217:0.32142857 218:0.52991456 219:0.48214287 220:0.37634408 221:0.45652175 222:0.51041669 223:0.52941179 224:0.8611111 225:0.7735849 226:0.7096774 227:0.78666669 228:0.78571427 229:0.77906978 230:0.92647058 231:0.6226415 232:0.83076924 233:0.48148149 234:0.52173913 235:0.68674701 236:0.60000002 237:0.63999999 238:0.78431374 239:0.71590906 240:0.67073172 241:0.48695651 242:0.49473685 243:0.75 244:0.65454543 245:0.81914896 246:0.78666669 247:0.40860215 248:0.38297874 249:0.625 250:0.55000001 251:0.53153151 252:0.47777778 253:0.43809524 254:0.539823 255:0.48453608 256:0.43333334 257:0.77777779 258:0.50588238 259:0.48314607 260:0.31764707 261:0.5714286 262:0.83783782 263:0.88709676 264:0.38679245 265:0.77669901 266:0.53488374 267:0.65517241 268:0.65384614 269:0.42857143 270:0.30000001 271:0.79310346 272:0.48571429 273:0.625 274:0.60344827 275:0.68817204 276:0.51999998 277:0.73451328 278:0.55263156 279:0.75 280:0.55696201 281:0.75 282:0.57017541 283:0.45454547 284:0.41891891 285:0.6025641 286:0.44186047 287:0.43518519 288:0.24347825 
0.09699558790377001 1:0.32283464 2:0.22 3:0.2888889 4:0.69999999 5:0.80459768 6:0.50961536 7:0.39603961 8:0.41269842 9:0.51999998 10:0.47435898 11:0.43589744 12:0.25242719 13:0.26851851 14:0.43209878 15:0.49206349 16:0.1923077 17:0.14432989 18:0.2264151 19:0.42519686 20:0.69791669 21:0.46296296 22:0.38461539 23:0.66990292 24:0.26956522 25:0.11428571 26:0.30379745 27:0.5925926 28:0.3108108 29:0.72000003 30:0.53719008 31:0.080459774 32:0.13829787 33:0.52941179 34:0.30864197 35:0.2857143 36:0.27619049 37:0.52272725 38:0.17857143 39:0.23943663 40:0.5 41:0.68493152 42:0.67567569 43:0.74468082 44:0.34482759 45:0.5 46:0.40579709 47:0.4520548 48:0.41891891 49:0.64999998 50:0.35384616 51:0.46296296 52:0.34 53:0.33823529 54:0.31645569 55:0.57446808 56:0.48571429 57:0.61702126 58:0.16393442 59:0.58426964 60:0.44736841 61:0.15306123 62:0.20512821 63:0.49122807 64:0.17647059 65:0.48387095 66:0.43298969 67:0.22429906 68:0.1981132 69:0.26966292 70:0.21052632 71:0.17647059 72:0.25242719 73:0.60606062 74:0.33734939 75:0.23170732 76:0.53658539 77:0.76623374 78:0.7368421 79:1 80:0.56923079 81:0.50819671 82:0.53225809 83:0.50632912 84:0.5147059 85:0.597561 86:0.42105263 87:0.60344827 88:0.47272727 89:0.38461539 90:0.3943662 91:0.61842108 92:0.40000001 93:0.61818182 94:0.26785713 95:0.62921351 96:0.53086418 97:0.17333333 98:0.15853658 99:0.52830189 100:0.27941176 101:0.60465115 102:0.5 103:0.45901638 104:0.32173914 105:0.24418604 106:0.23469388 107:0.1981982 108:0.19417475 109:0.11607143 110:0.25999999 111:0.29166666 112:0.58333331 113:0.87012988 114:0.58415842 115:0.45871559 116:0.8488372 117:0.57971013 118:0.33846155 119:0.54545456 120:0.33035713 121:0.7525773 122:1 123:0.58333331 124:0.33333334 125:0.24691358 126:0.30555555 127:0.8224299 128:0.96296299 129:0.69620252 130:0.3392857 131:0.59813082 132:0.54700857 133:0.49504951 134:0.82417583 135:0.72727275 136:0.27118644 137:0.78899086 138:0.55963302 139:0.42857143 140:0.34831461 141:0.48235294 142:0.38666666 143:0.37234041 144:0.26851851 145:0.00729927 146:0.13761468 147:0.20588236 148:0.54000002 149:0.63736266 150:0.58762884 151:0.46341464 152:0.34146342 153:0.56944442 154:0.40983605 155:0.41891891 156:0.47435898 157:0.5 158:0.23958333 159:0.45454547 160:0.50877196 161:0.18811882 162:0.38202247 163:0.27350429 164:0.30693069 165:0.56164384 166:0.53731346 167:0.59793812 168:0.41584158 169:0.52671754 170:0.57999998 171:0.77272725 172:0.36507937 173:0.71568626 174:0.65486723 175:0.44247788 176:0.35227272 177:0.52631581 178:0.27631578 179:0.33980581 180:0.47252747 181:0.0084745763 182:0.018018018 183:0.0099009899 184:0.13043478 185:0.34831461 186:0.44339624 187:0.7638889 188:0.34666666 189:0.55932206 190:0.35384616 191:0.33333334 192:0.42253521 193:0.55000001 194:0.42424244 195:0.49122807 196:0.3508772 197:0.27536231 198:0.34782609 199:0.57499999 200:0.43478259 201:0.56603771 202:0.30357143 203:0.57831323 204:0.50649351 205:0.8924731 206:0.58490568 207:0.64150941 208:0.26153848 209:0.65517241 210:0.597561 211:0.47916666 212:0.40229884 213:0.53623188 214:0.31944445 215:0.45871559 216:0.44565219 217:0.017857144 218:0.051282052 219:0.0625 220:0.26881722 221:0.41304347 222:0.35416666 223:0.58823532 224:0.45833334 225:0.66037738 226:0.41935483 227:0.31999999 228:0.33333334 229:0.59302324 230:0.35294119 231:0.6226415 232:0.32307693 233:0.18518518 234:0.29347825 235:0.66265059 236:0.41249999 237:0.51999998 238:0.23529412 239:0.57954544 240:0.46341464 241:0.60000002 242:0.62105262 243:0.58928573 244:0.27272728 245:0.63829786 246:0.51999998 247:0.3548387 248:0.41489363 249:0.51249999 250:0.27500001 251:0.44144145 252:0.35555556 253:0.06666667 254:0.17699115 255:0.2371134 256:0.55555558 257:0.71111113 258:0.32941177 259:0.62921351 260:0.64705884 261:0.60714287 262:0.45945945 263:0.41935483 264:0.1509434 265:0.57281554 266:0.83720928 267:0.58620691 268:0.38461539 269:0.18181819 270:0.19166666 271:0.38793105 272:0.64285713 273:0.625 274:0.44827586 275:0.62365592 276:0.41999999 277:0.44247788 278:0.89473683 279:0.66071427 280:0.49367088 281:0.77678573 282:0.54385966 283:0.29870129 284:0.43243244 285:0.48717949 286:0.36046511 287:0.42592594 288:0.19130434 
