svm_type c_svc
kernel_type rbf
gamma 0.09
nr_class 2
total_sv 88
rho 0.155392
label 151 152
nr_sv 49 39
SV
0.07301778635333075 1:0.62162161 2:0.97530866 3:0.95614034 4:1 5:1 6:0.66666669 7:0.34090909 8:0.58415842 9:0.8230769 10:0.65384614 11:0.46341464 12:0.40206185 13:0.65686274 14:0.44537815 15:0.92982459 16:0.86440676 17:0.67105263 18:0.54918033 19:0.76785713 20:0.54054052 21:0.55056179 22:0.60227275 23:0.66176468 24:0.48913044 25:0.70422536 26:0.67567569 27:0.81707317 28:0.79310346 29:0.765625 30:0.40789473 31:0.63636363 32:0.75999999 33:0.81690139 34:0.85714287 35:0.9066667 36:0.67226893 37:0.51948053 38:0.9245283 39:0.88999999 40:0.96078432 41:0.77941179 42:1 43:0.66666669 44:0.58064514 45:0.83333331 46:0.79545456 47:0.85714287 48:0.86516851 49:0.83116883 50:0.6785714 51:0.81914896 52:0.82926828 53:0.71052629 54:0.8918919 55:0.80645162 56:0.81355929 57:0.73584908 58:0.70689654 59:0.63934427 60:0.66666669 61:0.59615386 62:0.60714287 63:0.71641791 64:0.65789473 65:0.53424656 66:0.31707317 67:0.29487181 68:0.37804878 69:0.44155845 70:0.38157895 71:0.27692309 72:0.33783785 73:0.6875 74:0.83783782 75:0.93814433 76:0.93939394 77:0.67272729 78:0.94999999 79:0.6111111 80:0.60606062 81:0.65811968 82:0.62886596 83:0.47058824 84:0.87012988 85:0.73417723 86:0.52499998 87:0.60526317 88:0.61538464 89:0.66666669 90:0.94444442 91:0.58490568 92:0.53125 93:0.71698111 94:0.62295079 95:0.78333336 96:0.8125 97:0.38461539 98:0.41860464 99:0.625 100:0.77777779 101:0.62962961 102:0.67500001 103:0.2739726 104:0.28378379 105:0.4074074 106:0.40697673 107:0.45833334 108:0.57499999 109:0.89411765 110:0.85057473 111:0.93577981 112:0.91764706 113:0.89393938 114:0.65625 115:0.75 116:0.45783132 117:0.68932039 118:0.70588237 119:0.34722221 120:0.47560975 121:0.78703701 122:0.44329897 123:0.78571427 124:0.93636364 125:0.69444442 126:0.80392158 127:0.77777779 128:0.68656719 129:0.63855422 130:0.66101694 131:0.61194032 132:0.80327868 133:0.74358976 134:0.82716048 135:0.79220778 136:0.77108431 137:0.79411763 138:0.60000002 139:0.65625 140:0.79710144 141:0.75362319 142:0.92307693 143:0.9285714 144:0.81944442 145:0.72164947 146:0.95505619 147:0.88297874 148:0.90588236 149:0.95522386 150:0.6875 151:0.65048546 152:0.43835616 153:0.78991598 154:0.88235295 155:0.56578946 156:0.38554215 157:0.83333331 158:0.37704918 159:0.84799999 160:0.91666669 161:0.60975611 162:0.65263158 163:0.85416669 164:0.62025315 165:0.50999999 166:0.56790125 167:0.53521127 168:0.67647058 169:0.65476191 170:0.75531918 171:0.72727275 172:0.80219781 173:0.7368421 174:0.65079367 175:0.75324672 176:0.8607595 177:0.70422536 178:0.80263156 179:0.79220778 180:0.72368419 181:0.34313726 182:0.34146342 183:0.53125 184:0.49382716 185:0.48837209 186:0.71111113 187:0.55555558 188:0.60294116 189:0.81481481 190:0.84810126 191:0.85185188 192:0.89705884 193:0.88235295 194:0.66666669 195:0.82795697 196:0.89361703 197:0.78313255 198:0.91764706 199:0.6769231 200:0.55405408 201:0.67164177 202:0.69999999 203:0.57831323 204:0.64102566 205:0.45901638 206:0.51724136 207:0.62711865 208:0.578125 209:0.54285717 210:0.45652175 211:0.55555558 212:0.60606062 213:0.62121212 214:0.5625 215:0.52173913 216:0.4642857 217:0.36448598 218:0.39130434 219:0.42857143 220:0.38554215 221:0.32631579 222:0.54736841 223:0.51428574 224:0.515625 225:0.80392158 226:0.578125 227:0.55172414 228:0.8888889 229:0.65853661 230:0.56756759 231:0.84444445 232:0.57425743 233:0.70886075 234:0.91566265 235:0.40579709 236:0.41025642 237:0.65822786 238:0.625 239:0.66666669 240:0.82089549 241:0.55737704 242:0.6056338 243:0.60000002 244:0.625 245:0.57534248 246:0.61904764 247:0.48076922 248:0.59420288 249:0.53521127 250:0.58749998 251:0.55555558 252:0.66666669 253:0.61764705 254:0.86419755 255:0.92783505 256:0.85714287 257:0.86885244 258:0.5955056 259:0.32098764 260:0.68493152 261:0.80000001 262:0.71428573 263:0.33898306 264:0.48235294 265:0.47872341 266:0.3493976 267:0.89795917 268:0.96808511 269:0.73417723 270:0.75700933 271:0.61904764 272:0.44 273:0.5955056 274:0.74626863 275:0.69014084 276:0.66666669 277:0.72857141 278:0.77173913 279:0.76744187 280:0.7972973 281:0.66666669 282:0.60655737 283:0.69090909 284:0.82051283 285:0.8125 286:0.75294119 287:0.8877551 288:0.77450979 
0.01243147848771024 1:0.7027027 2:0.58024693 3:0.71052629 4:0.77027029 5:0.71232879 6:0.7011494 7:0.53409094 8:0.60396039 9:0.7153846 10:0.60576922 11:0.53658539 12:0.78350514 13:0.57843137 14:0.39495799 15:0.81578946 16:0.72881359 17:0.53947371 18:0.69672132 19:0.64285713 20:0.43243244 21:0.49438202 22:0.47727272 23:0.70588237 24:0.67391306 25:0.69014084 26:0.7027027 27:0.76829267 28:0.75862068 29:0.84375 30:0.5 31:0.61818182 32:0.74666667 33:0.70422536 34:0.61428571 35:0.60000002 36:0.53781515 37:0.46753246 38:0.64150941 39:0.70999998 40:0.54901963 41:0.52941179 42:0.66666669 43:0.61904764 44:0.59139782 45:0.76851851 46:0.68181819 47:0.59740257 48:0.53932583 49:0.8051948 50:0.73809522 51:0.92553192 52:0.73170733 53:0.56578946 54:0.6081081 55:0.75806451 56:0.76271188 57:0.79245281 58:0.74137932 59:0.80327868 60:0.7037037 61:0.76923078 62:0.58928573 63:0.73134327 64:0.85526317 65:0.65753424 66:0.39024389 67:0.57692307 68:0.73170733 69:0.67532468 70:0.61842108 71:0.60000002 72:0.63513511 73:0.51249999 74:0.62162161 75:0.71134019 76:0.75757575 77:0.38181818 78:0.46666667 79:0.63333333 80:0.61616164 81:0.59829062 82:0.69072163 83:0.39705881 84:0.54545456 85:0.82278478 86:0.625 87:0.55263156 88:0.54945058 89:0.46666667 90:0.75 91:0.7735849 92:0.5625 93:0.6981132 94:0.62295079 95:0.68333334 96:0.734375 97:0.43589744 98:0.39534885 99:0.66071427 100:0.74603176 101:0.68518519 102:0.52499998 103:0.39726028 104:0.32432431 105:0.51851851 106:0.53488374 107:0.55208331 108:0.52499998 109:0.63529414 110:0.64367819 111:0.77981651 112:0.72941178 113:0.66666669 114:0.484375 115:0.4642857 116:0.67469877 117:0.74757284 118:0.77450979 119:0.52777779 120:0.51219511 121:0.49074075 122:0.45360824 123:0.75 124:0.88181818 125:0.47222221 126:0.66666669 127:0.46666667 128:0.68656719 129:0.53012049 130:0.57627118 131:0.5970149 132:0.78688526 133:0.44871795 134:0.72839504 135:0.61038959 136:0.79518074 137:0.88235295 138:0.63999999 139:0.359375 140:0.73913044 141:0.76811594 142:0.82051283 143:0.63095236 144:0.52777779 145:0.38144329 146:0.64044946 147:0.74468082 148:0.75294119 149:0.61194032 150:0.53125 151:0.33980581 152:0.57534248 153:0.75630254 154:0.79411763 155:0.5 156:0.44578314 157:0.44999999 158:0.37704918 159:0.83200002 160:0.85833335 161:0.39024389 162:0.61052632 163:0.47916666 164:0.60759491 165:0.51999998 166:0.44444445 167:0.47887325 168:0.7647059 169:0.40476191 170:0.74468082 171:0.80681819 172:0.84615386 173:0.7473684 174:0.6825397 175:0.54545456 176:0.78481013 177:0.70422536 178:0.64473683 179:0.53246754 180:0.46052632 181:0.58823532 182:0.76829267 183:0.79166669 184:0.91358024 185:0.93023258 186:0.87777776 187:0.64197528 188:0.60294116 189:0.75925928 190:0.70886075 191:0.64814812 192:0.67647058 193:0.80000001 194:0.65476191 195:0.84946239 196:0.94680852 197:0.56626505 198:0.78823531 199:0.76923078 200:0.6891892 201:0.65671641 202:0.61428571 203:0.43373495 204:0.56410259 205:0.6557377 206:0.63793105 207:0.66101694 208:0.71875 209:0.71428573 210:0.56521738 211:0.66666669 212:0.4848485 213:0.4848485 214:0.609375 215:0.56521738 216:0.51785713 217:0.56074768 218:0.47826087 219:0.47252747 220:0.49397591 221:0.44210526 222:0.58947366 223:0.78571427 224:0.71875 225:0.74509805 226:0.453125 227:0.43103448 228:0.53968257 229:0.86585367 230:0.62162161 231:0.80000001 232:0.49504951 233:0.60759491 234:0.66265059 235:0.63768119 236:0.46153846 237:0.64556962 238:0.51249999 239:0.60000002 240:0.61194032 241:0.6885246 242:0.54929578 243:0.61333334 244:0.72222221 245:0.68493152 246:0.74603176 247:0.53846157 248:0.47826087 249:0.52112675 250:0.66250002 251:0.58333331 252:0.54545456 253:0.64705884 254:0.58024693 255:0.77319586 256:0.60317463 257:0.62295079 258:0.88764048 259:0.65432101 260:0.89041096 261:0.78260869 262:0.72727275 263:0.45762712 264:0.82352942 265:0.56382978 266:0.49397591 267:0.84693879 268:0.87234044 269:0.6708861 270:0.84112149 271:0.76190478 272:0.57333332 273:0.48314607 274:0.52238804 275:0.61971831 276:0.77011496 277:0.67142856 278:0.6630435 279:0.70930231 280:0.74324322 281:0.66666669 282:0.6885246 283:0.54545456 284:0.70512819 285:0.71875 286:0.63529414 287:0.71428573 288:0.61764705 
0.3106697895640835 1:0.5945946 2:0.64197528 3:0.71929824 4:0.6891892 5:0.78082192 6:0.75862068 7:0.39772728 8:0.46534654 9:0.7153846 10:0.61538464 11:0.597561 12:0.74226803 13:0.61764705 14:0.40336135 15:0.83333331 16:0.80508476 17:0.65789473 18:0.6885246 19:0.6785714 20:0.43243244 21:0.44943821 22:0.39772728 23:0.58823532 24:0.67391306 25:0.76056337 26:0.75675678 27:0.80487806 28:0.73563218 29:0.890625 30:0.67105263 31:0.70909089 32:0.83999997 33:0.87323946 34:0.9285714 35:0.95999998 36:0.73949581 37:0.35064936 38:0.5471698 39:0.69 40:0.47058824 41:0.4852941 42:0.57692307 43:0.52380955 44:0.52688169 45:0.78703701 46:0.67045456 47:0.54545456 48:0.51685393 49:0.76623374 50:0.61904764 51:0.77659577 52:0.78048778 53:0.56578946 54:0.5945946 55:0.72580647 56:0.779661 57:0.75471699 58:0.70689654 59:0.70491803 60:0.5925926 61:0.76923078 62:0.66071427 63:0.70149255 64:0.84210527 65:0.80821919 66:0.48780489 67:0.56410259 68:0.48780489 69:0.55844158 70:0.68421054 71:0.73846155 72:0.67567569 73:0.40000001 74:0.52702701 75:0.69072163 76:0.65151513 77:0.30909091 78:0.36666667 79:0.6111111 80:0.62626261 81:0.58974361 82:0.65979379 83:0.33823529 84:0.42857143 85:0.8101266 86:0.61250001 87:0.53947371 88:0.61538464 89:0.44 90:0.6388889 91:0.8490566 92:0.65625 93:0.73584908 94:0.60655737 95:0.63333333 96:0.71875 97:0.43589744 98:0.46511629 99:0.73214287 100:0.79365081 101:0.77777779 102:0.72500002 103:0.3561644 104:0.24324325 105:0.54320985 106:0.66279072 107:0.64583331 108:0.66250002 109:0.5411765 110:0.74712646 111:0.77064222 112:0.81176472 113:0.66666669 114:0.40625 115:0.41666666 116:0.49397591 117:0.64077669 118:0.7647059 119:0.45833334 120:0.43902439 121:0.56481481 122:0.43298969 123:0.69047618 124:0.84545457 125:0.5138889 126:0.65686274 127:0.48888889 128:0.68656719 129:0.54216868 130:0.55932206 131:0.49253732 132:0.73770493 133:0.53846157 134:0.82716048 135:0.74025977 136:0.85542166 137:0.91176468 138:0.69999999 139:0.5 140:0.82608694 141:0.9130435 142:0.96153843 143:0.84523809 144:0.83333331 145:0.41237113 146:0.7977528 147:0.74468082 148:0.83529413 149:0.73134327 150:0.484375 151:0.30097088 152:0.41095892 153:0.74789917 154:0.88235295 155:0.56578946 156:0.38554215 157:0.55000001 158:0.44262296 159:0.83999997 160:0.89999998 161:0.5 162:0.70526314 163:0.52083331 164:0.65822786 165:0.52999997 166:0.41975307 167:0.47887325 168:0.70588237 169:0.48809522 170:0.79787236 171:0.89772725 172:0.85714287 173:0.82105261 174:0.79365081 175:0.63636363 176:0.94936711 177:0.85915494 178:0.96052629 179:0.90909094 180:0.78947371 181:0.59803921 182:0.56097561 183:0.67708331 184:0.72839504 185:0.69767439 186:0.63333333 187:0.64197528 188:0.55882353 189:0.73148149 190:0.75949365 191:0.6111111 192:0.60294116 193:0.82352942 194:0.61904764 195:0.83870965 196:0.95744681 197:0.61445785 198:0.83529413 199:0.81538463 200:0.67567569 201:0.68656719 202:0.67142856 203:0.55421686 204:0.65384614 205:0.67213112 206:0.67241377 207:0.72881359 208:0.671875 209:0.71428573 210:0.65217394 211:0.7962963 212:0.62121212 213:0.57575756 214:0.5625 215:0.62318838 216:0.58928573 217:0.55140185 218:0.61956519 219:0.6813187 220:0.67469877 221:0.60000002 222:0.67368424 223:0.69999999 224:0.6875 225:0.79411763 226:0.53125 227:0.39655173 228:0.61904764 229:0.87804878 230:0.71621621 231:0.81111109 232:0.60396039 233:0.65822786 234:0.68674701 235:0.72463769 236:0.55128205 237:0.69620252 238:0.60000002 239:0.62666667 240:0.64179105 241:0.70491803 242:0.69014084 243:0.66666669 244:0.80555558 245:0.73972601 246:0.69841272 247:0.51923078 248:0.56521738 249:0.63380283 250:0.73750001 251:0.70833331 252:0.75757575 253:0.67647058 254:0.7037037 255:0.79381442 256:0.65079367 257:0.80327868 258:0.76404494 259:0.48148149 260:0.69863015 261:0.73913044 262:0.6883117 263:0.59322035 264:0.7764706 265:0.67021275 266:0.44578314 267:0.80612242 268:0.91489363 269:0.70886075 270:0.87850469 271:0.8888889 272:0.57333332 273:0.48314607 274:0.56716418 275:0.69014084 276:0.82758623 277:0.6857143 278:0.77173913 279:0.81395346 280:0.87837839 281:0.66666669 282:0.78688526 283:0.70909089 284:0.85897434 285:0.828125 286:0.74117649 287:0.8877551 288:0.85294116 
0.4778010783838589 1:0.47297296 2:0.71604937 3:0.7719298 4:0.7027027 5:0.68493152 6:0.63218391 7:0.32954547 8:0.46534654 9:0.73076922 10:0.58653843 11:0.47560975 12:0.65979379 13:0.61764705 14:0.38655463 15:0.85964912 16:0.81355929 17:0.60526317 18:0.73770493 19:0.75 20:0.48648649 21:0.55056179 22:0.52272725 23:0.63235295 24:0.79347825 25:0.81690139 26:0.9054054 27:0.86585367 28:0.85057473 29:0.875 30:0.7631579 31:0.96363634 32:0.97333336 33:0.94366199 34:0.97142857 35:1 36:0.90756303 37:0.24675325 38:0.47169811 39:0.60000002 40:0.4509804 41:0.38235295 42:0.62820512 43:0.48809522 44:0.48387095 45:0.77777779 46:0.71590906 47:0.62337661 48:0.70786518 49:0.76623374 50:0.59523809 51:0.79787236 52:0.78048778 53:0.67105263 54:0.83783782 55:0.75806451 56:0.61016947 57:0.58490568 58:0.60344827 59:0.63934427 60:0.74074072 61:0.67307693 62:0.5714286 63:0.62686568 64:0.77631581 65:0.75342464 66:0.60975611 67:0.48717949 68:0.47560975 69:0.41558442 70:0.36842105 71:0.36923078 72:0.51351351 73:0.28749999 74:0.4054054 75:0.67010307 76:0.57575756 77:0.25454545 78:0.41666666 79:0.47777778 80:0.41414142 81:0.55555558 82:0.556701 83:0.39705881 84:0.58441556 85:0.69620252 86:0.5 87:0.56578946 88:0.61538464 89:0.56 90:0.68055558 91:0.71698111 92:0.59375 93:0.71698111 94:0.55737704 95:0.83333331 96:0.71875 97:0.56410259 98:0.44186047 99:0.64285713 100:0.80952382 101:0.83333331 102:0.94999999 103:0.34246576 104:0.2972973 105:0.45679012 106:0.45348838 107:0.57291669 108:0.72500002 109:0.50588238 110:0.64367819 111:0.75229359 112:0.68235296 113:0.62121212 114:0.390625 115:0.42857143 116:0.36144578 117:0.63106793 118:0.65686274 119:0.33333334 120:0.36585367 121:0.51851851 122:0.40206185 123:0.76190478 124:0.89999998 125:0.59722221 126:0.64705884 127:0.44444445 128:0.65671641 129:0.61445785 130:0.66101694 131:0.56716418 132:0.62295079 133:0.51282054 134:0.91358024 135:0.83116883 136:0.83132529 137:0.94117647 138:0.83999997 139:0.578125 140:0.89855075 141:0.9130435 142:1 143:1 144:1 145:0.44329897 146:0.83146065 147:0.75531918 148:0.78823531 149:0.76119405 150:0.453125 151:0.33009708 152:0.28767124 153:0.77310926 154:0.84313726 155:0.56578946 156:0.28915662 157:0.58333331 158:0.42622951 159:0.83200002 160:0.89999998 161:0.62195122 162:0.70526314 163:0.55208331 164:0.63291138 165:0.56999999 166:0.55555558 167:0.57746476 168:0.7647059 169:0.54761904 170:0.84042555 171:0.94318181 172:0.87912089 173:0.83157897 174:0.76190478 175:0.70129871 176:0.96202534 177:0.91549295 178:0.94736844 179:0.92207789 180:0.88157892 181:0.55882353 182:0.47560975 183:0.64583331 184:0.64197528 185:0.6511628 186:0.65555555 187:0.50617284 188:0.44117647 189:0.71296299 190:0.77215189 191:0.77777779 192:0.7647059 193:0.82352942 194:0.64285713 195:0.82795697 196:0.91489363 197:0.85542166 198:0.94117647 199:0.83076924 200:0.6891892 201:0.70149255 202:0.69999999 203:0.66265059 204:0.70512819 205:0.72131145 206:0.81034482 207:0.74576271 208:0.765625 209:0.82857144 210:0.80434781 211:0.83333331 212:0.71212119 213:0.74242425 214:0.6875 215:0.73913044 216:0.78571427 217:0.55140185 218:0.5869565 219:0.5714286 220:0.54216868 221:0.47368422 222:0.68421054 223:0.52857143 224:0.5 225:0.72549021 226:0.5 227:0.43103448 228:0.76190478 229:0.75609756 230:0.56756759 231:0.85555553 232:0.58415842 233:0.6708861 234:0.84337348 235:0.62318838 236:0.47435898 237:0.69620252 238:0.66250002 239:0.70666665 240:0.80597013 241:0.81967211 242:0.73239434 243:0.66666669 244:0.79166669 245:0.78082192 246:0.71428573 247:0.61538464 248:0.57971013 249:0.63380283 250:0.73750001 251:0.80555558 252:0.87878788 253:0.64705884 254:0.7037037 255:0.74226803 256:0.6825397 257:0.75409836 258:0.77528089 259:0.34567901 260:0.60273975 261:0.72173911 262:0.6883117 263:0.42372882 264:0.81176472 265:0.64893615 266:0.39759037 267:0.85714287 268:0.92553192 269:0.70886075 270:0.99065423 271:0.82539684 272:0.53333336 273:0.57303369 274:0.67164177 275:0.59154928 276:0.94252872 277:0.82857144 278:0.84782606 279:0.88372093 280:0.87837839 281:0.84126985 282:1 283:0.78181821 284:0.92307693 285:0.859375 286:0.88235295 287:0.94897962 288:0.99019605 
0.03679343397568041 1:0.7972973 2:0.86419755 3:0.91228068 4:0.97297299 5:0.95890409 6:0.64367819 7:0.51136363 8:0.53465348 9:0.80000001 10:0.71153843 11:0.64634144 12:0.45360824 13:0.78431374 14:0.44537815 15:0.86842108 16:0.86440676 17:0.63157892 18:0.45081967 19:1 20:0.52702701 21:0.49438202 22:0.625 23:0.55882353 24:0.40217391 25:0.78873241 26:0.8108108 27:0.74390244 28:0.7011494 29:0.671875 30:0.38157895 31:0.81818181 32:0.9066667 33:0.81690139 34:0.75714284 35:0.85333335 36:0.60504204 37:0.66233766 38:0.98113209 39:0.86000001 40:0.84313726 41:0.54411763 42:0.78205127 43:0.76190478 44:0.64516127 45:0.85185188 46:0.77272725 47:0.61038959 48:0.75280899 49:0.96103895 50:0.72619045 51:0.81914896 52:0.84146339 53:0.56578946 54:0.7972973 55:1 56:0.91525424 57:0.88679248 58:0.75862068 59:0.57377046 60:0.66666669 61:0.75 62:0.58928573 63:0.70149255 64:0.61842108 65:0.57534248 66:0.43902439 67:0.56410259 68:0.52439022 69:0.46753246 70:0.44736841 71:0.43076923 72:0.55405408 73:0.80000001 74:0.87837839 75:0.90721649 76:0.89393938 77:0.65454543 78:0.78333336 79:0.84444445 80:0.74747473 81:0.71794873 82:0.78350514 83:0.57352942 84:0.6883117 85:0.92405063 86:0.72500002 87:0.61842108 88:0.60439563 89:0.60000002 90:0.81944442 91:0.9245283 92:0.71875 93:0.75471699 94:0.67213112 95:0.78333336 96:0.859375 97:0.56410259 98:0.51162791 99:0.64285713 100:0.74603176 101:0.57407409 102:0.64999998 103:0.61643833 104:0.51351351 105:0.51851851 106:0.48837209 107:0.58333331 108:0.69999999 109:0.67058825 110:0.94252872 111:0.94495416 112:0.90588236 113:0.80303031 114:0.8125 115:0.40476191 116:0.56626505 117:0.75728154 118:0.7647059 119:0.5 120:0.56097561 121:0.53703701 122:0.43298969 123:0.77380955 124:0.89090908 125:0.6388889 126:0.67647058 127:0.53333336 128:0.71641791 129:0.60240966 130:0.69491524 131:0.61194032 132:0.81967211 133:0.53846157 134:0.81481481 135:0.64935064 136:0.72289157 137:0.69117647 138:0.74000001 139:0.5625 140:0.81159419 141:0.78260869 142:0.88461536 143:0.83333331 144:0.8888889 145:0.4742268 146:0.87640452 147:0.87234044 148:0.82352942 149:0.80597013 150:1 151:0.29126215 152:0.46575344 153:0.78991598 154:0.81372547 155:0.60526317 156:0.49397591 157:0.625 158:0.36885247 159:0.85600001 160:0.89999998 161:0.53658539 162:0.60000002 163:0.59375 164:0.62025315 165:0.50999999 166:0.46913579 167:0.45070422 168:0.60294116 169:0.53571427 170:0.71276593 171:0.73863637 172:0.74725276 173:0.7157895 174:0.69841272 175:0.67532468 176:0.78481013 177:0.76056337 178:0.78947371 179:0.77922076 180:0.7368421 181:0.56862748 182:0.34146342 183:0.51041669 184:0.48148149 185:0.44186047 186:0.64444447 187:0.7037037 188:0.66176468 189:0.75925928 190:0.77215189 191:0.72222221 192:0.7647059 193:1 194:0.70238096 195:0.86021507 196:0.93617022 197:0.6987952 198:0.90588236 199:0.90769231 200:0.72972971 201:0.67164177 202:0.71428573 203:0.50602412 204:0.62820512 205:0.6885246 206:0.81034482 207:0.66101694 208:0.59375 209:0.42857143 210:0.43478259 211:0.62962961 212:0.60606062 213:0.57575756 214:0.515625 215:0.44927537 216:0.5714286 217:0.57009345 218:0.48913044 219:0.48351648 220:0.38554215 221:0.30526316 222:0.48421052 223:0.85714287 224:0.8125 225:0.82352942 226:0.578125 227:0.46551725 228:0.6825397 229:0.93902439 230:0.8108108 231:0.89999998 232:0.70297033 233:0.63291138 234:0.86746991 235:0.60869563 236:0.53846157 237:0.69620252 238:0.63749999 239:0.63999999 240:0.80597013 241:0.70491803 242:0.59154928 243:0.50666666 244:0.52777779 245:0.49315068 246:0.60317463 247:0.51923078 248:0.52173913 249:0.43661973 250:0.46250001 251:0.52777779 252:0.68181819 253:0.88235295 254:0.79012346 255:0.91752577 256:0.85714287 257:0.86885244 258:0.5955056 259:0.53086418 260:0.75342464 261:0.81739128 262:0.76623374 263:0.54237288 264:0.35294119 265:0.60638297 266:0.43373495 267:0.87755102 268:0.96808511 269:0.64556962 270:0.64485979 271:0.77777779 272:0.54666668 273:0.56179774 274:0.71641791 275:0.64788735 276:0.63218391 277:0.75714284 278:0.70652175 279:0.81395346 280:0.78378379 281:0.73015875 282:0.55737704 283:0.74545455 284:0.71794873 285:0.78125 286:0.81176472 287:0.84693879 288:0.7352941 
0.5047444833438255 1:0.54054052 2:0.54320985 3:0.64035088 4:0.7027027 5:0.61643833 6:0.65517241 7:0.34090909 8:0.54455447 9:0.70769233 10:0.59615386 11:0.51219511 12:0.78350514 13:0.54901963 14:0.3277311 15:0.7719298 16:0.70338982 17:0.52631581 18:0.72950822 19:0.5535714 20:0.44594595 21:0.52808988 22:0.54545456 23:0.7352941 24:0.68478262 25:0.50704223 26:0.62162161 27:0.69512194 28:0.57471263 29:0.546875 30:0.46052632 31:0.12727273 32:0.33333334 33:0.35211268 34:0.45714286 35:0.49333334 36:0.54621851 37:0.33766234 38:0.47169811 39:0.66000003 40:0.47058824 41:0.47058824 42:0.6025641 43:0.51190478 44:0.51612902 45:0.77777779 46:0.64772725 47:0.50649351 48:0.49438202 49:0.6883117 50:0.59523809 51:0.73404253 52:0.69512194 53:0.5131579 54:0.55405408 55:0.59677422 56:0.84745765 57:0.94339621 58:0.84482759 59:0.80327868 60:0.57407409 61:0.59615386 62:0.48214287 63:0.58208954 64:0.68421054 65:0.73972601 66:0.53658539 67:0.51282054 68:0.63414633 69:0.67532468 70:0.57894737 71:0.55384618 72:0.52702701 73:0.40000001 74:0.54054052 75:0.71134019 76:0.69696969 77:0.32727271 78:0.44999999 79:0.55555558 80:0.53535354 81:0.59829062 82:0.68041235 83:0.38235295 84:0.49350649 85:0.77215189 86:0.57499999 87:0.5131579 88:0.53846157 89:0.44 90:0.72222221 91:0.67924529 92:0.703125 93:0.81132078 94:0.6885246 95:0.61666667 96:0.640625 97:0.25641027 98:0.3488372 99:0.42857143 100:0.63492066 101:0.5925926 102:0.5 103:0.28767124 104:0.22972973 105:0.35802469 106:0.44186047 107:0.44791666 108:0.46250001 109:0.62352943 110:0.58620691 111:0.71559632 112:0.75294119 113:0.59090906 114:0.421875 115:0.70238096 116:0.59036142 117:0.71844661 118:0.75490195 119:0.44444445 120:0.47560975 121:0.89814812 122:0.37113401 123:0.70238096 124:0.85454547 125:0.4861111 126:0.627451 127:0.77777779 128:0.68656719 129:0.56626505 130:0.79661018 131:0.76119405 132:0.77049178 133:0.58974361 134:0.66666669 135:0.54545456 136:0.6987952 137:0.75 138:0.38 139:0.5625 140:0.27536231 141:0.24637681 142:0.55128205 143:0.47619048 144:0.40277779 145:0.44329897 146:0.5955056 147:0.69148934 148:0.70588237 149:0.52238804 150:0.453125 151:0.43689319 152:0.46575344 153:0.68907565 154:0.82352942 155:0.52631581 156:0.40963855 157:0.69166666 158:0.32786885 159:0.736 160:0.78333336 161:0.39024389 162:0.57894737 163:0.67708331 164:0.56962025 165:0.5 166:0.53086418 167:0.67605633 168:0.82352942 169:0.4642857 170:0.70212764 171:0.70454544 172:0.78021979 173:0.60000002 174:0.46031746 175:0.4025974 176:0.72151899 177:0.30985916 178:0.56578946 179:0.27272728 180:0.2631579 181:0.60784316 182:0.68292683 183:0.77083331 184:0.85185188 185:0.86046511 186:0.81111109 187:0.61728394 188:0.54411763 189:0.69444442 190:0.72151899 191:0.44444445 192:0.57352942 193:0.72941178 194:0.54761904 195:0.75268817 196:0.91489363 197:0.53012049 198:0.70588237 199:0.58461541 200:0.54054052 201:0.52238804 202:0.65714288 203:0.54216868 204:0.64102566 205:0.44262296 206:0.60344827 207:0.71186441 208:0.671875 209:0.64285713 210:0.43478259 211:0.44444445 212:0.57575756 213:0.27272728 214:0.1875 215:0.13043478 216:0.14285715 217:0.43925235 218:0.47826087 219:0.45054945 220:0.44578314 221:0.41052631 222:0.57894737 223:0.58571428 224:0.578125 225:0.7352941 226:0.453125 227:0.44827586 228:0.53968257 229:0.74390244 230:0.58108109 231:0.72222221 232:0.47524753 233:0.56962025 234:0.6506024 235:0.50724638 236:0.41025642 237:0.58227849 238:0.5 239:0.70666665 240:0.73134327 241:0.42622951 242:0.53521127 243:0.66666669 244:0.81944442 245:0.69863015 246:0.60317463 247:0.36538461 248:0.63768119 249:0.22535211 250:0.2375 251:0.16666667 252:0.1969697 253:0.45588234 254:0.51851851 255:0.77319586 256:0.55555558 257:0.6557377 258:0.88764048 259:0.35802469 260:0.78082192 261:0.78260869 262:0.72727275 263:0.50847459 264:0.85882354 265:0.5106383 266:0.3493976 267:0.77551019 268:0.87234044 269:0.6708861 270:0.89719623 271:0.66666669 272:0.45333335 273:0.55056179 274:0.68656719 275:0.74647886 276:0.91954023 277:0.48571429 278:0.63043481 279:0.70930231 280:0.56756759 281:0.46031746 282:0.63934427 283:0.16363636 284:0.62820512 285:0.390625 286:0.45882353 287:0.44897959 288:0.5 
0.3493702651999743 1:0.54054052 2:0.72839504 3:0.80701756 4:0.75675678 5:0.72602737 6:0.57471263 7:0.40909091 8:0.56435645 9:0.79230767 10:0.66346157 11:0.597561 12:0.48453608 13:0.61764705 14:0.40336135 15:0.87719297 16:0.83898306 17:0.69736844 18:0.54098362 19:0.71428573 20:0.48648649 21:0.55056179 22:0.625 23:0.69117647 24:0.56521738 25:0.73239434 26:0.75675678 27:0.92682928 28:0.81609195 29:0.953125 30:0.56578946 31:0.78181821 32:0.70666665 33:0.8309859 34:0.85714287 35:0.72000003 36:0.50420171 37:0.38961038 38:0.6981132 39:0.75 40:0.70588237 41:0.60294116 42:0.75641024 43:0.53571427 44:0.59139782 45:0.82407409 46:0.77272725 47:0.67532468 48:0.73033708 49:0.76623374 50:0.65476191 51:0.81914896 52:0.81707317 53:0.68421054 54:0.9054054 55:0.77419353 56:0.76271188 57:0.7735849 58:0.81034482 59:0.83606559 60:0.92592591 61:0.86538464 62:0.85714287 63:0.86567163 64:0.89473683 65:0.84931505 66:0.68292683 67:0.75641024 68:0.81707317 69:0.63636363 70:0.5131579 71:0.64615387 72:0.5945946 73:0.57499999 74:0.72972971 75:0.7525773 76:0.68181819 77:0.47272727 78:0.71666664 79:0.56666666 80:0.54545456 81:0.61538464 82:0.68041235 83:0.5147059 84:0.67532468 85:0.6708861 86:0.53750002 87:0.63157892 88:0.60439563 89:0.56 90:0.7638889 91:0.58490568 92:0.578125 93:0.67924529 94:0.67213112 95:0.88333333 96:0.828125 97:0.58974361 98:0.72093022 99:0.76785713 100:0.80952382 101:0.72222221 102:0.57499999 103:0.50684929 104:0.5 105:0.61728394 106:0.55813956 107:0.59375 108:0.66250002 109:0.70588237 110:0.7011494 111:0.77981651 112:0.75294119 113:0.60606062 114:0.5625 115:0.6785714 116:0.59036142 117:0.72815531 118:0.70588237 119:0.3888889 120:0.43902439 121:0.73148149 122:0.40206185 123:0.78571427 124:0.90909094 125:0.625 126:0.68627453 127:0.71111113 128:0.67164177 129:0.57831323 130:0.779661 131:0.61194032 132:0.81967211 133:0.69230771 134:0.95061731 135:0.83116883 136:0.92771083 137:0.88235295 138:0.81999999 139:0.765625 140:0.84057969 141:0.76811594 142:0.92307693 143:0.8214286 144:0.79166669 145:0.51546389 146:0.76404494 147:0.77659577 148:0.7764706 149:0.67164177 150:0.640625 151:0.49514562 152:0.46575344 153:0.7647059 154:0.872549 155:0.61842108 156:0.38554215 157:0.70833331 158:0.35245901 159:0.80000001 160:0.89999998 161:0.57317072 162:0.65263158 163:0.75 164:0.55696201 165:0.49000001 166:0.45679012 167:0.47887325 168:0.69117647 169:0.66666669 170:0.74468082 171:0.73863637 172:0.84615386 173:0.75789475 174:0.77777779 175:0.71428573 176:0.84810126 177:0.81690139 178:0.82894737 179:0.64935064 180:0.68421054 181:0.79411763 182:0.75609756 183:0.78125 184:0.74074072 185:0.58139533 186:0.5777778 187:0.60493827 188:0.54411763 189:0.75925928 190:0.8101266 191:0.85185188 192:0.7647059 193:0.83529413 194:0.66666669 195:0.8924731 196:0.97872341 197:0.81927711 198:0.91764706 199:0.73846155 200:0.67567569 201:0.67164177 202:0.72857141 203:0.61445785 204:0.66666669 205:0.60655737 206:0.84482759 207:0.81355929 208:0.796875 209:0.75714284 210:0.65217394 211:0.62962961 212:0.63636363 213:0.68181819 214:0.703125 215:0.60869563 216:0.71428573 217:0.54205608 218:0.6630435 219:0.64835167 220:0.59036142 221:0.42105263 222:0.55789477 223:0.55714285 224:0.703125 225:0.80392158 226:0.546875 227:0.56896549 228:0.90476191 229:0.70731705 230:0.58108109 231:0.87777776 232:0.66336632 233:0.70886075 234:0.96385545 235:0.55072463 236:0.5 237:0.69620252 238:0.64999998 239:0.66666669 240:0.82089549 241:0.80327868 242:0.78873241 243:0.75999999 244:0.83333331 245:0.75342464 246:0.73015875 247:0.69230771 248:0.73913044 249:0.67605633 250:0.75 251:0.7638889 252:0.78787881 253:0.69117647 254:0.72839504 255:0.81443298 256:0.73015875 257:0.70491803 258:0.51685393 259:0.43209878 260:0.78082192 261:0.80000001 262:0.76623374 263:0.54237288 264:0.44705883 265:0.56382978 266:0.38554215 267:0.86734694 268:0.95744681 269:0.72151899 270:0.71028036 271:0.66666669 272:0.50666666 273:0.53932583 274:0.58208954 275:0.63380283 276:0.59770113 277:0.75714284 278:0.77173913 279:0.79069769 280:0.71621621 281:0.73015875 282:0.55737704 283:0.61818182 284:0.83333331 285:0.828125 286:0.75294119 287:0.90816325 288:0.81372547 
0.1306421614024968 1:0.3918919 2:0.50617284 3:0.58771932 4:0.55405408 5:0.56164384 6:0.68965518 7:0.39772728 8:0.56435645 9:0.69999999 10:0.625 11:0.52439022 12:0.67010307 13:0.56862748 14:0.33613446 15:0.84210527 16:0.78813559 17:0.43421054 18:0.66393441 19:0.71428573 20:0.45945945 21:0.44943821 22:0.52272725 23:0.47058824 24:0.65217394 25:0.81690139 26:0.78378379 27:0.73170733 28:0.7011494 29:0.765625 30:0.64473683 31:0.92727274 32:0.94666666 33:0.87323946 34:0.87142855 35:0.9066667 36:0.77310926 37:0.24675325 38:0.43396226 39:0.58999997 40:0.4509804 41:0.33823529 42:0.46153846 43:0.48809522 44:0.45161289 45:0.6388889 46:0.54545456 47:0.46753246 48:0.51685393 49:0.64935064 50:0.52380955 51:0.80851066 52:0.80487806 53:0.5 54:0.6081081 55:0.74193549 56:0.67796612 57:0.60377359 58:0.58620691 59:0.54098362 60:0.62962961 61:0.80769229 62:0.73214287 63:0.79104477 64:0.88157892 65:0.82191783 66:0.82926828 67:0.46153846 68:0.4512195 69:0.64935064 70:0.85526317 71:0.84615386 72:0.74324322 73:0.33750001 74:0.48648649 75:0.62886596 76:0.5 77:0.30909091 78:0.38333333 79:0.52222222 80:0.49494949 81:0.56410259 82:0.56701028 83:0.41176471 84:0.49350649 85:0.68354428 86:0.55000001 87:0.53947371 88:0.53846157 89:0.46666667 90:0.59722221 91:0.67924529 92:0.53125 93:0.6226415 94:0.49180329 95:0.64999998 96:0.625 97:0.51282054 98:0.41860464 99:0.8214286 100:0.80952382 101:0.7962963 102:0.75 103:0.26027396 104:0.3108108 105:0.5925926 106:0.61627907 107:0.65625 108:0.71249998 109:0.43529412 110:0.50574714 111:0.66055048 112:0.58823532 113:0.43939394 114:0.328125 115:0.38095239 116:0.59036142 117:0.71844661 118:0.70588237 119:0.45833334 120:0.30487806 121:0.44444445 122:0.36082473 123:0.70238096 124:0.89999998 125:0.5138889 126:0.52941179 127:0.44444445 128:0.70149255 129:0.53012049 130:0.57627118 131:0.50746268 132:0.55737704 133:0.58974361 134:0.83950615 135:0.75324672 136:0.77108431 137:0.86764705 138:0.66000003 139:0.609375 140:0.89855075 141:0.9130435 142:0.93589741 143:0.85714287 144:0.83333331 145:0.3298969 146:0.56179774 147:0.58510637 148:0.60000002 149:0.53731346 150:0.40625 151:0.28155339 152:0.46575344 153:0.70588237 154:0.80392158 155:0.59210527 156:0.22891566 157:0.49166667 158:0.32786885 159:0.80800003 160:0.86666667 161:0.43902439 162:0.52631581 163:0.51041669 164:0.55696201 165:0.52999997 166:0.50617284 167:0.47887325 168:0.55882353 169:0.41666666 170:0.68085104 171:0.78409094 172:0.8901099 173:0.78947371 174:0.80952382 175:0.58441556 176:0.8101266 177:0.80281693 178:0.88157892 179:0.85714287 180:0.7631579 181:0.70588237 182:0.67073172 183:0.79166669 184:0.74074072 185:0.76744187 186:0.75555557 187:0.51851851 188:0.44117647 189:0.69444442 190:0.72151899 191:0.7037037 192:0.5147059 193:0.82352942 194:0.54761904 195:0.77419353 196:0.87234044 197:0.67469877 198:0.7647059 199:0.83076924 200:0.58108109 201:0.67164177 202:0.69999999 203:0.55421686 204:0.64102566 205:0.80327868 206:0.87931037 207:0.93220341 208:0.71875 209:0.69999999 210:0.73913044 211:0.85185188 212:0.81818181 213:0.78787881 214:0.625 215:0.65217394 216:0.71428573 217:0.43925235 218:0.45652175 219:0.49450549 220:0.55421686 221:0.44210526 222:0.66315788 223:0.47142857 224:0.5 225:0.70588237 226:0.390625 227:0.37931034 228:0.60317463 229:0.78048778 230:0.56756759 231:0.75555557 232:0.54455447 233:0.56962025 234:0.77108431 235:0.59420288 236:0.51282054 237:0.64556962 238:0.55000001 239:0.58666664 240:0.68656719 241:0.83606559 242:0.81690139 243:0.72000003 244:0.77777779 245:0.72602737 246:0.6825397 247:0.61538464 248:0.62318838 249:0.63380283 250:0.73750001 251:0.7638889 252:0.83333331 253:0.39705881 254:0.51851851 255:0.62886596 256:0.46031746 257:0.37704918 258:0.75280899 259:0.39506173 260:0.76712328 261:0.73913044 262:0.6883117 263:0.54237288 264:0.7764706 265:0.5106383 266:0.30120483 267:0.82653064 268:0.89361703 269:0.54430377 270:0.85046726 271:0.77777779 272:0.50666666 273:0.53932583 274:0.64179105 275:0.50704223 276:0.83908045 277:0.74285716 278:0.71739131 279:0.82558137 280:0.8918919 281:0.74603176 282:0.83606559 283:0.69090909 284:0.85897434 285:0.765625 286:0.7764706 287:0.79591835 288:0.84313726 
0.2106986441335314 1:0.58108109 2:0.86419755 3:0.87719297 4:0.8108108 5:0.84931505 6:0.59770113 7:0.36363637 8:0.66336632 9:0.83076924 10:0.65384614 11:0.65853661 12:0.54639173 13:0.58823532 14:0.41176471 15:0.92982459 16:0.83898306 17:0.68421054 18:0.54918033 19:0.66071427 20:0.51351351 21:0.56179774 22:0.61363637 23:0.64705884 24:0.52173913 25:0.61971831 26:0.7027027 27:0.81707317 28:0.71264368 29:0.65625 30:0.38157895 31:0.61818182 32:0.68000001 33:0.76056337 34:0.8142857 35:0.80000001 36:0.56302524 37:0.51948053 38:0.75471699 39:0.81 40:0.84313726 41:0.67647058 42:0.88461536 43:0.55952382 44:0.55913979 45:0.8425926 46:0.79545456 47:0.71428573 48:0.78651685 49:0.79220778 50:0.69047618 51:0.81914896 52:0.82926828 53:0.68421054 54:0.9054054 55:0.74193549 56:0.72881359 57:0.6981132 58:0.7241379 59:0.6557377 60:0.7037037 61:0.59615386 62:0.5535714 63:0.68656719 64:0.7368421 65:0.67123288 66:0.46341464 67:0.47435898 68:0.63414633 69:0.66233766 70:0.63157892 71:0.58461541 72:0.5 73:0.57499999 74:0.7027027 75:0.77319586 76:0.81818181 77:0.60000002 78:0.89999998 79:0.60000002 80:0.5151515 81:0.59829062 82:0.72164947 83:0.57352942 84:0.74025977 85:0.69620252 86:0.53750002 87:0.53947371 88:0.62637365 89:0.62666667 90:0.8611111 91:0.67924529 92:0.59375 93:0.73584908 94:0.63934427 95:0.80000001 96:0.765625 97:0.38461539 98:0.55813956 99:0.66071427 100:0.74603176 101:0.7037037 102:0.67500001 103:0.4520548 104:0.55405408 105:0.65432101 106:0.59302324 107:0.5625 108:0.52499998 109:0.84705883 110:0.80459768 111:0.86238533 112:0.80000001 113:0.68181819 114:0.609375 115:0.8214286 116:0.60240966 117:0.7669903 118:0.72549021 119:0.47222221 120:0.5 121:0.8425926 122:0.40206185 123:0.80952382 124:0.93636364 125:0.65277779 126:0.72549021 127:0.76666665 128:0.62686568 129:0.57831323 130:0.67796612 131:0.55223882 132:0.73770493 133:0.70512819 134:0.79012346 135:0.67532468 136:0.81927711 137:0.7352941 138:0.60000002 139:0.734375 140:0.75362319 141:0.71014494 142:0.88461536 143:0.75 144:0.75 145:0.67010307 146:0.80898875 147:0.81914896 148:0.81176472 149:0.79104477 150:0.671875 151:0.61165047 152:0.52054793 153:0.78151262 154:0.84313726 155:0.63157892 156:0.40963855 157:0.79166669 158:0.3442623 159:0.84799999 160:0.93333334 161:0.57317072 162:0.60000002 163:0.84375 164:0.59493673 165:0.51999998 166:0.49382716 167:0.46478873 168:0.60294116 169:0.60714287 170:0.69148934 171:0.67045456 172:0.71428573 173:0.58947366 174:0.49206349 175:0.53246754 176:0.72151899 177:0.61971831 178:0.75 179:0.62337661 180:0.57894737 181:0.80392158 182:0.75609756 183:0.84375 184:0.66666669 185:0.55813956 186:0.6111111 187:0.61728394 188:0.57352942 189:0.75925928 190:0.84810126 191:0.9074074 192:0.7647059 193:0.80000001 194:0.64285713 195:0.83870965 196:0.94680852 197:0.77108431 198:0.88235295 199:0.64615387 200:0.62162161 201:0.65671641 202:0.74285716 203:0.59036142 204:0.66666669 205:0.40983605 206:0.70689654 207:0.66101694 208:0.640625 209:0.5714286 210:0.45652175 211:0.3888889 212:0.5 213:0.5151515 214:0.46875 215:0.44927537 216:0.4642857 217:0.58878505 218:0.71739131 219:0.72527474 220:0.59036142 221:0.43157893 222:0.62105262 223:0.51428574 224:0.59375 225:0.80392158 226:0.53125 227:0.58620691 228:0.87301588 229:0.68292683 230:0.51351351 231:0.80000001 232:0.66336632 233:0.70886075 234:0.93975902 235:0.49275362 236:0.43589744 237:0.68354428 238:0.63749999 239:0.62666667 240:0.74626863 241:0.59016395 242:0.64788735 243:0.62666667 244:0.69444442 245:0.60273975 246:0.50793654 247:0.40384614 248:0.53623188 249:0.45070422 250:0.5625 251:0.54166669 252:0.530303 253:0.63235295 254:0.79012346 255:0.84536082 256:0.76190478 257:0.75409836 258:0.56179774 259:0.35802469 260:0.78082192 261:0.77391303 262:0.75324672 263:0.55932206 264:0.49411765 265:0.52127659 266:0.36144578 267:0.86734694 268:0.97872341 269:0.73417723 270:0.73831773 271:0.5714286 272:0.47999999 273:0.57303369 274:0.62686568 275:0.66197181 276:0.64367819 277:0.62857145 278:0.68478262 279:0.74418604 280:0.6081081 281:0.60317463 282:0.52459013 283:0.41818181 284:0.66666669 285:0.6875 286:0.57647061 287:0.75510204 288:0.70588237 
0.05880850873856756 1:0.32432431 2:0.39506173 3:0.49122807 4:0.32432431 5:0.30136988 6:0.52873564 7:0.5 8:0.68316829 9:0.70769233 10:0.68269229 11:0.53658539 12:0.65979379 13:0.53921568 14:0.33613446 15:0.80701756 16:0.72881359 17:0.38157895 18:0.68032789 19:0.6785714 20:0.45945945 21:0.46067417 22:0.55681819 23:0.58823532 24:0.78260869 25:0.70422536 26:0.72972971 27:0.76829267 28:0.68965518 29:0.78125 30:0.63157892 31:0.67272729 32:0.74666667 33:0.70422536 34:0.5 35:0.49333334 36:0.60504204 37:0.19480519 38:0.24528302 39:0.44999999 40:0.23529412 41:0.17647059 42:0.38461539 43:0.53571427 44:0.63440859 45:0.76851851 46:0.60227275 47:0.42857143 48:0.49438202 49:0.61038959 50:0.53571427 51:0.80851066 52:0.73170733 53:0.46052632 54:0.5945946 55:0.69354838 56:0.67796612 57:0.66037738 58:0.67241377 59:0.6557377 60:0.7037037 61:0.75 62:0.6964286 63:0.77611941 64:0.84210527 65:0.73972601 66:0.41463414 67:0.75641024 68:0.82926828 69:0.71428573 70:0.61842108 71:0.70769233 72:0.7027027 73:0.26249999 74:0.25675675 75:0.48453608 76:0.37878788 77:0.16363636 78:0.34999999 79:0.62222224 80:0.66666669 81:0.64957267 82:0.61855668 83:0.45588234 84:0.49350649 85:0.68354428 86:0.55000001 87:0.5 88:0.51648355 89:0.40000001 90:0.625 91:0.66037738 92:0.515625 93:0.5471698 94:0.49180329 95:0.71666664 96:0.671875 97:0.48717949 98:0.51162791 99:0.76785713 100:0.79365081 101:0.57407409 102:0.47499999 103:0.63013697 104:0.43243244 105:0.54320985 106:0.44186047 107:0.5 108:0.52499998 109:0.43529412 110:0.37931034 111:0.55045873 112:0.41176471 113:0.25757575 114:0.265625 115:0.63095236 116:0.6506024 117:0.75728154 118:0.70588237 119:0.54166669 120:0.34146342 121:0.6574074 122:0.40206185 123:0.73809522 124:0.81818181 125:0.40277779 126:0.54901963 127:0.67777777 128:0.58208954 129:0.49397591 130:0.59322035 131:0.55223882 132:0.70491803 133:0.71794873 134:0.76543212 135:0.66233766 136:0.77108431 137:0.67647058 138:0.60000002 139:0.84375 140:0.76811594 141:0.62318838 142:0.70512819 143:0.51190478 144:0.44444445 145:0.43298969 146:0.48314607 147:0.60638297 148:0.49411765 149:0.35820895 150:0.328125 151:0.48543689 152:0.50684929 153:0.68907565 154:0.78431374 155:0.63157892 156:0.31325302 157:0.69166666 158:0.31967214 159:0.77600002 160:0.83333331 161:0.40243903 162:0.49473685 163:0.76041669 164:0.50632912 165:0.5 166:0.48148149 167:0.45070422 168:0.57352942 169:0.6785714 170:0.70212764 171:0.70454544 172:0.80219781 173:0.75789475 174:0.69841272 175:0.70129871 176:0.70886075 177:0.78873241 178:0.75 179:0.61038959 180:0.47368422 181:0.7352941 182:0.73170733 183:0.76041669 184:0.72839504 185:0.73255813 186:0.75555557 187:0.76543212 188:0.70588237 189:0.74074072 190:0.68354428 191:0.55555558 192:0.52941179 193:0.81176472 194:0.60714287 195:0.80645162 196:0.88297874 197:0.66265059 198:0.81176472 199:0.72307694 200:0.6081081 201:0.62686568 202:0.60000002 203:0.50602412 204:0.56410259 205:0.6557377 206:0.7758621 207:0.779661 208:0.640625 209:0.55714285 210:0.52173913 211:0.7037037 212:0.65151513 213:0.66666669 214:0.546875 215:0.56521738 216:0.53571427 217:0.42056075 218:0.43478259 219:0.45054945 220:0.42168674 221:0.34736842 222:0.55789477 223:0.62857145 224:0.671875 225:0.74509805 226:0.40625 227:0.3275862 228:0.52380955 229:0.84146339 230:0.7027027 231:0.80000001 232:0.54455447 233:0.5316456 234:0.75903612 235:0.60869563 236:0.51282054 237:0.58227849 238:0.52499998 239:0.53333336 240:0.67164177 241:0.75409836 242:0.71830988 243:0.57333332 244:0.66666669 245:0.68493152 246:0.63492066 247:0.53846157 248:0.55072463 249:0.50704223 250:0.625 251:0.625 252:0.59090906 253:0.33823529 254:0.44444445 255:0.70103091 256:0.44444445 257:0.32786885 258:0.68539327 259:0.49382716 260:0.83561641 261:0.76521736 262:0.72727275 263:0.47457626 264:0.7764706 265:0.57446808 266:0.42168674 267:0.84693879 268:0.89361703 269:0.5316456 270:0.90654206 271:0.6825397 272:0.51999998 273:0.56179774 274:0.62686568 275:0.53521127 276:0.87356323 277:0.6857143 278:0.69565219 279:0.77906978 280:0.75675678 281:0.74603176 282:0.77049178 283:0.67272729 284:0.70512819 285:0.8125 286:0.78823531 287:0.69387758 288:0.65686274 
0.001955414796776102 1:0.64864862 2:0.96296299 3:0.86842108 4:0.91891891 5:0.67123288 6:0.75862068 7:0.20454545 8:0.51485151 9:0.69230771 10:0.55769229 11:0.15853658 12:0.95876288 13:0.10784314 14:0.31092438 15:0.71929824 16:0.72881359 17:0.17105263 18:0.90163934 19:0.16071428 20:0.081081077 21:0.14606741 22:0.14772727 23:0.19117647 24:0.6630435 25:0.53521127 26:0.47297296 27:0.76829267 28:0.60919541 29:0.578125 30:0.53947371 31:0.21818182 32:0.34666666 33:0.50704223 34:0.52857143 35:0.66666669 36:0.71428573 37:0.27272728 38:0.58490568 39:0.72000003 40:0.58823532 41:0.35294119 42:0.21794872 43:0.14285715 44:0.37634408 45:0.75 46:0.53409094 47:0.11688311 48:0.12359551 49:0.12987013 50:0.2857143 51:0.56382978 52:0.39024389 53:0.078947365 54:0.16216215 55:0.080645159 56:0.084745765 57:0.094339624 58:0.31034482 59:0.40983605 60:0.35185185 61:0.48076922 62:0.3392857 63:0.55223882 64:0.7631579 65:0.84931505 66:0.63414633 67:0.24358974 68:0.20731707 69:0.29870129 70:0.38157895 71:0.30769232 72:0.21621622 73:0.30000001 74:0.54054052 75:0.73195875 76:0.72727275 77:0.45454547 78:0.18333334 79:0.12222222 80:0.29292929 81:0.55555558 82:0.57731956 83:0.10294118 84:0.051948052 85:0.29113925 86:0.25 87:0.23684211 88:0.42857143 89:0.14666666 90:0.18055555 91:0.5471698 92:0.484375 93:0.32075471 94:0.24590164 95:0.30000001 96:0.265625 97:0.48717949 98:0.60465115 99:0.60714287 100:0.76190478 101:0.64814812 102:0.42500001 103:0.20547946 104:0.25675675 105:0.44444445 106:0.36046511 107:0.34375 108:0.34999999 109:0.58823532 110:0.88505745 111:0.94495416 112:0.92941177 113:0.72727275 114:0.265625 115:0.5 116:0.42168674 117:0.71844661 118:0.67647058 119:0.19444445 120:0.036585364 121:0.57407409 122:0.3298969 123:0.63095236 124:0.70909089 125:0.15277778 126:0.12745099 127:0.47777778 128:0.50746268 129:0.28915662 130:0.18644068 131:0.17910448 132:0.19672132 133:0.46153846 134:0.77777779 135:0.67532468 136:0.68674701 137:0.63235295 138:0.60000002 139:0.15625 140:0.62318838 141:0.53623188 142:0.69230771 143:0.5714286 144:0.65277779 145:0.48453608 146:0.84269661 147:0.80851066 148:0.84705883 149:0.76119405 150:0.28125 151:0.407767 152:0.31506848 153:0.71428573 154:0.75490195 155:0.38157895 156:0.024096385 157:0.42500001 158:0.18032786 159:0.75199997 160:0.83333331 161:0.18292683 162:0.11578947 163:0.22916667 164:0.2278481 165:0.18000001 166:0.17283951 167:0.070422538 168:0.22058824 169:0.25 170:0.63829786 171:0.56818181 172:0.73626375 173:0.52631581 174:0.5714286 175:0.20779221 176:0.5316456 177:0.53521127 178:0.67105263 179:0.5714286 180:0.57894737 181:0.25490198 182:0.12195122 183:0.3125 184:0.28395063 185:0.24418604 186:0.13333334 187:0.18518518 188:0.29411766 189:0.6574074 190:0.6708861 191:0.27777779 192:0.014705882 193:0.22352941 194:0.25 195:0.52688169 196:0.69148934 197:0.22891566 198:0.22352941 199:0.16923077 200:0.14864865 201:0.11940298 202:0.22857143 203:0.24096386 204:0.23076923 205:0.13114753 206:0.20689656 207:0.35593221 208:0.421875 209:0.51428574 210:0.34782609 211:0.57407409 212:0.57575756 213:0.69696969 214:0.75 215:0.72463769 216:0.66071427 217:0.093457945 218:0.19565217 219:0.31868133 220:0.26506025 221:0.1368421 222:0.14736842 223:0.17142858 224:0.359375 225:0.66666669 226:0.40625 227:0.20689656 228:0.063492067 229:0.20731707 230:0.24324325 231:0.64444447 232:0.28712872 233:0.06329114 234:0.20481928 235:0.13043478 236:0.11538462 237:0.20253165 238:0.2 239:0.14666666 240:0.11940298 241:0.39344263 242:0.38028169 243:0.47999999 244:0.55555558 245:0.53424656 246:0.41269842 247:0.51923078 248:0.53623188 249:0.64788735 250:0.72500002 251:0.7361111 252:0.62121212 253:0.61764705 254:0.7037037 255:0.84536082 256:0.85714287 257:0.60655737 258:0.78651685 259:0.30864197 260:0.6438356 261:0.6695652 262:0.59740257 263:0.10169491 264:0.3764706 265:0.095744684 266:0.28915662 267:0.75510204 268:0.60638297 269:0 270:0.42990655 271:0.23809524 272:0.079999998 273:0.15730338 274:0.11940298 275:0.11267605 276:0.62068963 277:0.47142857 278:0.65217394 279:0.68604654 280:0.58108109 281:0.44444445 282:0.45901638 283:0.2 284:0.56410259 285:0.625 286:0.52941179 287:0.5714286 288:0.54901963 
0.03745246844308831 1:0.54054052 2:0.76543212 3:0.84210527 4:0.8108108 5:0.78082192 6:0.57471263 7:0.35227272 8:0.58415842 9:0.76923078 10:0.71153843 11:0.63414633 12:0.44329897 13:0.47058824 14:0.33613446 15:0.89473683 16:0.84745765 17:0.5 18:0.40983605 19:0.5 20:0.36486486 21:0.44943821 22:0.59090906 23:0.55882353 24:0.38043478 25:0.50704223 26:0.6081081 27:0.65853661 28:0.65517241 29:0.546875 30:0.31578946 31:0.36363637 32:0.56 33:0.57746476 34:0.61428571 35:0.69333333 36:0.52941179 37:0.32467532 38:0.6981132 39:0.79000002 40:0.78431374 41:0.5147059 42:0.62820512 43:0.40476191 44:0.44086021 45:0.71296299 46:0.64772725 47:0.62337661 48:0.64044946 49:0.51948053 50:0.47619048 51:0.84042555 52:0.87804878 53:0.59210527 54:0.74324322 55:0.5 56:0.44067797 57:0.6226415 58:0.7241379 59:0.60655737 60:0.62962961 61:0.48076922 62:0.42857143 63:0.5970149 64:0.67105263 65:0.58904111 66:0.48780489 67:0.34615386 68:0.30487806 69:0.3116883 70:0.27631578 71:0.24615385 72:0.32432431 73:0.48750001 74:0.64864862 75:0.8041237 76:0.83333331 77:0.70909089 78:0.78333336 79:0.56666666 80:0.54545456 81:0.63247865 82:0.68041235 83:0.61764705 84:0.76623374 85:0.68354428 86:0.5625 87:0.63157892 88:0.6813187 89:0.62666667 90:0.84722221 91:0.66037738 92:0.640625 93:0.73584908 94:0.62295079 95:0.78333336 96:0.75 97:0.23076923 98:0.23255815 99:0.6785714 100:0.77777779 101:0.74074072 102:0.85000002 103:0.09589041 104:0.12162162 105:0.30864197 106:0.33720931 107:0.48958334 108:0.57499999 109:0.62352943 110:0.81609195 111:0.87155962 112:0.7647059 113:0.69696969 114:0.671875 115:0.4642857 116:0.6506024 117:0.77669901 118:0.74509805 119:0.625 120:0.5487805 121:0.49074075 122:0.44329897 123:0.83333331 124:0.85454547 125:0.5 126:0.67647058 127:0.44444445 128:0.70149255 129:0.54216868 130:0.54237288 131:0.53731346 132:0.75409836 133:0.42307693 134:0.72839504 135:0.64935064 136:0.55421686 137:0.55882353 138:0.57999998 139:0.265625 140:0.68115944 141:0.63768119 142:0.70512819 143:0.70238096 144:0.7638889 145:0.42268041 146:0.77528089 147:0.74468082 148:0.7764706 149:0.79104477 150:0.703125 151:0.26213592 152:0.49315068 153:0.77310926 154:0.872549 155:0.72368419 156:0.49397591 157:0.46666667 158:0.31967214 159:0.824 160:0.94166666 161:0.5 162:0.61052632 163:0.36458334 164:0.4050633 165:0.43000001 166:0.48148149 167:0.40845069 168:0.60294116 169:0.26190478 170:0.42553192 171:0.54545456 172:0.63736266 173:0.60000002 174:0.60317463 175:0.44155845 176:0.62025315 177:0.73239434 178:0.75 179:0.74025977 180:0.72368419 181:0.46078432 182:0.23170732 183:0.375 184:0.33333334 185:0.31395349 186:0.46666667 187:0.44444445 188:0.52941179 189:0.71296299 190:0.75949365 191:0.74074072 192:0.69117647 193:0.65882355 194:0.4642857 195:0.77419353 196:0.86170214 197:0.63855422 198:0.87058824 199:0.44615385 200:0.32432431 201:0.46268657 202:0.54285717 203:0.51807231 204:0.58974361 205:0.14754099 206:0.25862068 207:0.33898306 208:0.359375 209:0.47142857 210:0.43478259 211:0.42592594 212:0.59090906 213:0.56060606 214:0.671875 215:0.78260869 216:0.85714287 217:0.38317758 218:0.40217391 219:0.36263737 220:0.27710843 221:0.25263157 222:0.41052631 223:0.31428573 224:0.453125 225:0.7647059 226:0.546875 227:0.51724136 228:0.6825397 229:0.597561 230:0.45945945 231:0.76666665 232:0.58415842 233:0.54430377 234:0.73493975 235:0.31884059 236:0.2820513 237:0.59493673 238:0.5625 239:0.49333334 240:0.5970149 241:0.27868852 242:0.38028169 243:0.34666666 244:0.47222221 245:0.41095892 246:0.53968257 247:0.44230768 248:0.59420288 249:0.6056338 250:0.67500001 251:0.69444442 252:0.75757575 253:0.47058824 254:0.66666669 255:0.76288658 256:0.65079367 257:0.70491803 258:0.57303369 259:0.30864197 260:0.76712328 261:0.78260869 262:0.74025977 263:0.66101694 264:0.35294119 265:0.39361703 266:0.26506025 267:0.90816325 268:0.95744681 269:0.56962025 270:0.57943922 271:0.3968254 272:0.28 273:0.51685393 274:0.5970149 275:0.47887325 276:0.49425286 277:0.42857143 278:0.47826087 279:0.61627907 280:0.58108109 281:0.46031746 282:0.24590164 283:0.41818181 284:0.65384614 285:0.75 286:0.71764708 287:0.77551019 288:0.64705884 
0.1152071297573122 1:0.54054052 2:0.81481481 3:0.82456142 4:0.82432431 5:0.76712328 6:0.20689656 7:0.22727273 8:0.48514852 9:0.68461537 10:0.60576922 11:0.4512195 12:0.15463917 13:0.068627454 14:0.27731094 15:0.75438595 16:0.76271188 17:0.22368421 18:0.1557377 19:0.089285716 20:0.067567565 21:0.13483146 22:0.23863636 23:0.20588236 24:0.032608695 25:0.40845069 26:0.43243244 27:0.58536583 28:0.55172414 29:0.53125 30:0.13157895 31:0.23636363 32:0.30666667 33:0.49295774 34:0.55714285 35:0.56 36:0.38655463 37:0.2857143 38:0.5471698 39:0.70999998 40:0.50980395 41:0.38235295 42:0.25641027 43:0.15476191 44:0.36559141 45:0.7037037 46:0.55681819 47:0.22077923 48:0.19101124 49:0.16883117 50:0.27380952 51:0.52127659 52:0.5487805 53:0.21052632 54:0.28378379 55:0.12903225 56:0.033898305 57:0.075471699 58:0.25862068 59:0.39344263 60:0.4074074 61:0.28846154 62:0.32142857 63:0.53731346 64:0.71052629 65:0.71232879 66:0.51219511 67:0.07692308 68:0.18292683 69:0.23376623 70:0.27631578 71:0.24615385 72:0.22972973 73:0.42500001 74:0.6081081 75:0.79381442 76:0.75757575 77:0.40000001 78:0.16666667 79:0.06666667 80:0.26262626 81:0.62393165 82:0.67010307 83:0.25 84:0.29870129 85:0.34177214 86:0.26249999 87:0.27631578 88:0.42857143 89:0.21333334 90:0.33333334 91:0.47169811 92:0.46875 93:0.3018868 94:0.21311475 95:0.30000001 96:0.34375 97:0.2820513 98:0.48837209 99:0.5535714 100:0.71428573 101:0.62962961 102:0.52499998 103:0.12328767 104:0.13513513 105:0.39506173 106:0.40697673 107:0.34375 108:0.34999999 109:0.58823532 110:0.82758623 111:0.88073397 112:0.83529413 113:0.66666669 114:0.234375 115:0.53571427 116:0.48192772 117:0.77669901 118:0.72549021 119:0.41666666 120:0.2682927 121:0.56481481 122:0.3298969 123:0.61904764 124:0.77272725 125:0.27777779 126:0.32352942 127:0.42222223 128:0.43283582 129:0.26506025 130:0.18644068 131:0.13432837 132:0.29508197 133:0.44871795 134:0.61728394 135:0.64935064 136:0.63855422 137:0.57352942 138:0.56 139:0.15625 140:0.44927537 141:0.60869563 142:0.66666669 143:0.58333331 144:0.7638889 145:0.41237113 146:0.67415732 147:0.74468082 148:0.74117649 149:0.70149255 150:0.28125 151:0.37864077 152:0.39726028 153:0.67226893 154:0.72549021 155:0.53947371 156:0.12048193 157:0.42500001 158:0.18032786 159:0.77600002 160:0.875 161:0.30487806 162:0.29473683 163:0.1875 164:0.16455697 165:0.22 166:0.14814815 167:0.070422538 168:0.17647059 169:0.095238097 170:0.38297874 171:0.43181819 172:0.53846157 173:0.50526315 174:0.46031746 175:0.29870129 176:0.5316456 177:0.57746476 178:0.71052629 179:0.66233766 180:0.67105263 181:0.16666667 182:0.073170729 183:0.3125 184:0.2962963 185:0.13953489 186:0.055555556 187:0.098765433 188:0.30882353 189:0.60185188 190:0.62025315 191:0.4074074 192:0.13235295 193:0.11764706 194:0.15476191 195:0.56989247 196:0.73404253 197:0.25301206 198:0.28235295 199:0.10769231 200:0.081081077 201:0.10447761 202:0.17142858 203:0.19277108 204:0.23076923 205:0.049180329 206:0.10344828 207:0.20338982 208:0.1875 209:0.32857144 210:0.15217391 211:0.35185185 212:0.530303 213:0.77272725 214:0.828125 215:0.81159419 216:0.73214287 217:0.018691588 218:0.14130434 219:0.26373628 220:0.15662651 221:0.042105265 222:0.010526316 223:0.057142857 224:0.359375 225:0.69607842 226:0.390625 227:0.29310346 228:0.15873016 229:0.1097561 230:0.13513513 231:0.6111111 232:0.40594059 233:0.17721519 234:0.25301206 235:0.028985508 236:0.025641026 237:0.1392405 238:0.0625 239:0.039999999 240:0.059701491 241:0.18032786 242:0.26760563 243:0.31999999 244:0.4861111 245:0.28767124 246:0.19047619 247:0.26923078 248:0.53623188 249:0.66197181 250:0.72500002 251:0.69444442 252:0.62121212 253:0.45588234 254:0.46913579 255:0.71134019 256:0.63492066 257:0.55737704 258:0.089887641 259:0.33333334 260:0.60273975 261:0.64347827 262:0.5714286 263:0.40677965 264:0.047058824 265:0.021276595 266:0.18072289 267:0.74489796 268:0.75531918 269:0.15189873 270:0.15887851 271:0.015873017 272:0.013333334 273:0.10112359 274:0.089552239 275:0.028169014 276:0.068965517 277:0.35714287 278:0.46739131 279:0.43023255 280:0.41891891 281:0.33333334 282:0.29508197 283:0.34545454 284:0.56410259 285:0.609375 286:0.61176473 287:0.67346936 288:0.58823532 
0.1090400750134014 1:0.52702701 2:0.53086418 3:0.59649122 4:0.6891892 5:0.60273975 6:0.74712646 7:0.57954544 8:0.76237625 9:0.76153845 10:0.66346157 11:0.48780489 12:0.71134019 13:0.59803921 14:0.39495799 15:0.80701756 16:0.77118641 17:0.39473686 18:0.66393441 19:0.8214286 20:0.48648649 21:0.50561798 22:0.52272725 23:0.63235295 24:0.6630435 25:0.84507042 26:0.74324322 27:0.80487806 28:0.81609195 29:0.921875 30:0.56578946 31:0.92727274 32:0.88 33:0.8309859 34:0.69999999 35:0.54666668 36:0.58823532 37:0.32467532 38:0.3773585 39:0.66000003 40:0.54901963 41:0.5147059 42:0.6025641 43:0.65476191 44:0.65591395 45:0.7962963 46:0.625 47:0.55844158 48:0.60674155 49:0.72727275 50:0.64285713 51:0.90425533 52:0.76829267 53:0.5131579 54:0.64864862 55:0.80645162 56:0.72881359 57:0.67924529 58:0.67241377 59:0.70491803 60:0.8888889 61:0.84615386 62:0.75 63:0.79104477 64:0.90789473 65:0.78082192 66:0.70731705 67:0.5 68:0.76829267 69:0.83116883 70:0.69736844 71:0.73846155 72:0.6891892 73:0.41249999 74:0.3918919 75:0.61855668 76:0.59090906 77:0.43636364 78:0.5 79:0.69999999 80:0.65656567 81:0.61538464 82:0.64948452 83:0.42647058 84:0.55844158 85:0.73417723 86:0.57499999 87:0.56578946 88:0.62637365 89:0.51999998 90:0.70833331 91:0.6981132 92:0.609375 93:0.71698111 94:0.63934427 95:0.81666666 96:0.78125 97:0.48717949 98:0.53488374 99:0.875 100:0.85714287 101:0.7037037 102:0.60000002 103:0.2739726 104:0.41891891 105:0.5925926 106:0.51162791 107:0.51041669 108:0.61250001 109:0.56470591 110:0.50574714 111:0.6880734 112:0.62352943 113:0.530303 114:0.421875 115:0.45238096 116:0.71084338 117:0.815534 118:0.72549021 119:0.5 120:0.32926831 121:0.4074074 122:0.38144329 123:0.77380955 124:0.89090908 125:0.45833334 126:0.55882353 127:0.44444445 128:0.64179105 129:0.56626505 130:0.59322035 131:0.58208954 132:0.77049178 133:0.57692307 134:0.79012346 135:0.72727275 136:0.80722892 137:0.92647058 138:0.75999999 139:0.546875 140:0.81159419 141:0.81159419 142:0.85897434 143:0.71428573 144:0.52777779 145:0.34020618 146:0.57303369 147:0.72340423 148:0.63529414 149:0.52238804 150:0.515625 151:0.30097088 152:0.53424656 153:0.78991598 154:0.88235295 155:0.69736844 156:0.33734939 157:0.46666667 158:0.35245901 159:0.80800003 160:0.85000002 161:0.41463414 162:0.48421052 163:0.5 164:0.59493673 165:0.50999999 166:0.48148149 167:0.46478873 168:0.57352942 169:0.42857143 170:0.69148934 171:0.73863637 172:0.87912089 173:0.84210527 174:0.84126985 175:0.61038959 176:0.8101266 177:0.77464789 178:0.78947371 179:0.61038959 180:0.53947371 181:0.70588237 182:0.78048778 183:0.8125 184:0.8888889 185:0.96511626 186:0.93333334 187:0.64197528 188:0.61764705 189:0.69444442 190:0.72151899 191:0.74074072 192:0.60294116 193:0.84705883 194:0.64285713 195:0.8172043 196:0.92553192 197:0.63855422 198:0.74117649 199:0.7846154 200:0.56756759 201:0.67164177 202:0.71428573 203:0.51807231 204:0.56410259 205:0.72131145 206:0.82758623 207:0.86440676 208:0.71875 209:0.69999999 210:0.67391306 211:0.83333331 212:0.75757575 213:0.75757575 214:0.59375 215:0.56521738 216:0.625 217:0.51401871 218:0.44565219 219:0.47252747 220:0.49397591 221:0.36842105 222:0.61052632 223:0.58571428 224:0.578125 225:0.78431374 226:0.46875 227:0.41379312 228:0.60317463 229:0.80487806 230:0.66216218 231:0.81111109 232:0.49504951 233:0.50632912 234:0.73493975 235:0.60869563 236:0.52564102 237:0.65822786 238:0.53750002 239:0.53333336 240:0.68656719 241:0.86885244 242:0.81690139 243:0.73333335 244:0.83333331 245:0.75342464 246:0.73015875 247:0.63461536 248:0.65217394 249:0.6056338 250:0.76249999 251:0.79166669 252:0.75757575 253:0.61764705 254:0.51851851 255:0.69072163 256:0.50793654 257:0.32786885 258:0.88764048 259:0.5925926 260:0.87671232 261:0.77391303 262:0.79220778 263:0.47457626 264:0.83529413 265:0.54255319 266:0.42168674 267:0.84693879 268:0.87234044 269:0.50632912 270:0.85046726 271:0.71428573 272:0.47999999 273:0.53932583 274:0.5970149 275:0.52112675 276:0.78160918 277:0.67142856 278:0.65217394 279:0.72093022 280:0.71621621 281:0.69841272 282:0.86885244 283:0.63636363 284:0.76923078 285:0.625 286:0.70588237 287:0.69387758 288:0.69607842 
0.1948406620215603 1:0.77027029 2:0.69135803 3:0.70175439 4:0.67567569 5:0.53424656 6:0.73563218 7:0.52272725 8:0.68316829 9:0.69230771 10:0.55769229 11:0.43902439 12:0.83505154 13:0.40196079 14:0.40336135 15:0.7280702 16:0.66949153 17:0.46052632 18:0.68032789 19:0.51785713 20:0.28378379 21:0.22471911 22:0.22727273 23:0.5147059 24:0.60869563 25:0.80281693 26:0.63513511 27:0.63414633 28:0.64367819 29:0.734375 30:0.47368422 31:0.58181816 32:0.60000002 33:0.5633803 34:0.37142858 35:0.33333334 36:0.54621851 37:0.4025974 38:0.6226415 39:0.76999998 40:0.52941179 41:0.33823529 42:0.46153846 43:0.42857143 44:0.52688169 45:0.74074072 46:0.625 47:0.32467532 48:0.30337077 49:0.50649351 50:0.58333331 51:0.78723407 52:0.56097561 53:0.30263159 54:0.24324325 55:0.45161289 56:0.52542371 57:0.52830189 58:0.58620691 59:0.78688526 60:0.5925926 61:0.71153843 62:0.60714287 63:0.74626863 64:0.82894737 65:0.71232879 66:0.48780489 67:0.58974361 68:0.80487806 69:0.81818181 70:0.71052629 71:0.76923078 72:0.77027029 73:0.36250001 74:0.56756759 75:0.71134019 76:0.69696969 77:0.40000001 78:0.34999999 79:0.30000001 80:0.36363637 81:0.59829062 82:0.65979379 83:0.20588236 84:0.33766234 85:0.4050633 86:0.28749999 87:0.35526314 88:0.3956044 89:0.21333334 90:0.40277779 91:0.39622641 92:0.25 93:0.2264151 94:0.3442623 95:0.5 96:0.59375 97:0.43589744 98:0.48837209 99:0.60714287 100:0.66666669 101:0.53703701 102:0.375 103:0.28767124 104:0.14864865 105:0.33333334 106:0.29069766 107:0.16666667 108:0.27500001 109:0.64705884 110:0.59770113 111:0.75229359 112:0.7647059 113:0.63636363 114:0.359375 115:0.2857143 116:0.60240966 117:0.71844661 118:0.75490195 119:0.47222221 120:0.41463414 121:0.32407406 122:0.22680412 123:0.59523809 124:0.78181821 125:0.30555555 126:0.61764705 127:0.2888889 128:0.40298507 129:0.25301206 130:0.35593221 131:0.43283582 132:0.75409836 133:0.47435898 134:0.67901236 135:0.51948053 136:0.73493975 137:0.79411763 138:0.74000001 139:0.234375 140:0.59420288 141:0.56521738 142:0.58974361 143:0.39285713 144:0.41666666 145:0.36082473 146:0.5955056 147:0.70212764 148:0.62352943 149:0.35820895 150:0.4375 151:0.28155339 152:0.52054793 153:0.70588237 154:0.7647059 155:0.43421054 156:0.43373495 157:0.2 158:0.22131148 159:0.72799999 160:0.80000001 161:0.23170732 162:0.53684211 163:0.29166666 164:0.36708862 165:0.33000001 166:0.27160493 167:0.30985916 168:0.69117647 169:0.39285713 170:0.69148934 171:0.71590906 172:0.74725276 173:0.70526314 174:0.71428573 175:0.4025974 176:0.64556962 177:0.5633803 178:0.55263156 179:0.44155845 180:0.42105263 181:0.57843137 182:0.86585367 183:0.83333331 184:1 185:1 186:0.94444442 187:0.44444445 188:0.5147059 189:0.74074072 190:0.6708861 191:0.44444445 192:0.33823529 193:0.31764707 194:0.41666666 195:0.75268817 196:0.86170214 197:0.3253012 198:0.36470589 199:0.43076923 200:0.41891891 201:0.37313432 202:0.42857143 203:0.38554215 204:0.44871795 205:0.6557377 206:0.68965518 207:0.67796612 208:0.671875 209:0.64285713 210:0.69565219 211:0.64814812 212:0.5 213:0.5151515 214:0.53125 215:0.50724638 216:0.5 217:0.49532712 218:0.28260869 219:0.31868133 220:0.3253012 221:0.14736842 222:0.47368422 223:0.41428572 224:0.5 225:0.67647058 226:0.390625 227:0.27586207 228:0.23809524 229:0.32926831 230:0.22972973 231:0.60000002 232:0.30693069 233:0.18987341 234:0.26506025 235:0.43478259 236:0.34615386 237:0.34177214 238:0.22499999 239:0.37333333 240:0.38805971 241:0.81967211 242:0.63380283 243:0.54666668 244:0.66666669 245:0.71232879 246:0.74603176 247:0.61538464 248:0.53623188 249:0.53521127 250:0.6875 251:0.625 252:0.5 253:0.66176468 254:0.43209878 255:0.8041237 256:0.66666669 257:0.44262296 258:0.83146065 259:0.7037037 260:0.76712328 261:0.7478261 262:0.70129871 263:0.32203391 264:0.78823531 265:0.34042552 266:0.36144578 267:0.73469388 268:0.69148934 269:0.48101267 270:0.8224299 271:0.60317463 272:0.41333333 273:0.34831461 274:0.23880596 275:0.3943662 276:0.75862068 277:0.69999999 278:0.67391306 279:0.72093022 280:0.6081081 281:0.44444445 282:0.62295079 283:0.5272727 284:0.65384614 285:0.65625 286:0.44705883 287:0.36734694 288:0.39215687 
0.02614616777301864 1:0.3918919 2:0.74074072 3:0.7719298 4:0.74324322 5:0.63013697 6:0.21839081 7:0.15909091 8:0.43564355 9:0.72307694 10:0.53846157 11:0.17073171 12:0.40206185 13:0.40196079 14:0.29411766 15:0.7719298 16:0.73728812 17:0.19736843 18:0.52459013 19:0.5535714 20:0.3108108 21:0.25842696 22:0.23863636 23:0.27941176 24:0.53260869 25:0.95774651 26:0.94594592 27:0.87804878 28:0.83908045 29:0.796875 30:0.75 31:0.78181821 32:0.73333335 33:0.76056337 34:0.87142855 35:0.82666665 36:0.8487395 37:0.14285715 38:0.56603771 39:0.64999998 40:0.43137255 41:0.23529412 42:0.15384616 43:0.21428572 44:0.40860215 45:0.76851851 46:0.67045456 47:0.12987013 48:0 49:0.48051947 50:0.39285713 51:0.60638297 52:0.60975611 53:0.11842106 54:0.067567565 55:0.46774194 56:0.47457626 57:0.41509435 58:0.53448278 59:0.50819671 60:0.4074074 61:0.80769229 62:0.6785714 63:0.71641791 64:0.90789473 65:0.89041096 66:0.80487806 67:0.46153846 68:0.42682928 69:0.45454547 70:0.40789473 71:0.41538462 72:0.51351351 73:0.075000003 74:0.4054054 75:0.67010307 76:0.56060606 77:0.23636363 78:0.083333336 79:0.13333334 80:0.22222222 81:0.52991456 82:0.48453608 83:0.05882353 84:0.051948052 85:0.34177214 86:0.21250001 87:0.23684211 88:0.31868133 89:0.16 90:0.22222222 91:0.49056605 92:0.546875 93:0.43396226 94:0.22950819 95:0.44999999 96:0.4375 97:0.76923078 98:0.81395346 99:0.8035714 100:0.85714287 101:0.75925928 102:0.64999998 103:0.28767124 104:0.22972973 105:0.37037036 106:0.3488372 107:0.375 108:0.52499998 109:0.29411766 110:0.68965518 111:0.77981651 112:0.7647059 113:0.530303 114:0.203125 115:0.14285715 116:0.24096386 117:0.62135923 118:0.60784316 119:0.18055555 120:0.18292683 121:0.37962964 122:0.22680412 123:0.4642857 124:0.67272729 125:0.2638889 126:0.28431374 127:0.27777779 128:0.49253732 129:0.31325302 130:0.18644068 131:0.26865673 132:0.32786885 133:0.56410259 134:0.91358024 135:0.87012988 136:0.84337348 137:0.89705884 138:0.81999999 139:0.4375 140:0.79710144 141:0.884058 142:0.87179488 143:0.75 144:0.81944442 145:0.3298969 146:0.7977528 147:0.79787236 148:0.7647059 149:0.71641791 150:0.265625 151:0.26213592 152:0.26027396 153:0.73109245 154:0.77450979 155:0.47368422 156:0.19277108 157:0.375 158:0.27868852 159:0.78399998 160:0.84166664 161:0.40243903 162:0.38947368 163:0.3125 164:0.4050633 165:0.31 166:0.25925925 167:0.26760563 168:0.38235295 169:0.5714286 170:0.79787236 171:0.86363637 172:0.85714287 173:0.81052631 174:0.93650794 175:0.54545456 176:0.69620252 177:0.69014084 178:0.84210527 179:0.84415585 180:0.85526317 181:0.61764705 182:0.40243903 183:0.63541669 184:0.61728394 185:0.45348838 186:0.44444445 187:0.27160493 188:0.36764705 189:0.71296299 190:0.70886075 191:0.4074074 192:0.2647059 193:0.42352942 194:0.36904761 195:0.68817204 196:0.76595747 197:0.38554215 198:0.40000001 199:0.46153846 200:0.48648649 201:0.44776121 202:0.44285715 203:0.45783132 204:0.44871795 205:0.67213112 206:0.7758621 207:0.779661 208:0.796875 209:0.8142857 210:0.69565219 211:0.6111111 212:0.57575756 213:0.69696969 214:0.6875 215:0.69565219 216:0.66071427 217:0.56074768 218:0.63043481 219:0.5714286 220:0.48192772 221:0.43157893 222:0.61052632 223:0.32857144 224:0.578125 225:0.75490195 226:0.53125 227:0.3275862 228:0.34920636 229:0.5 230:0.3918919 231:0.75555557 232:0.46534654 233:0.27848101 234:0.33734939 235:0.55072463 236:0.48717949 237:0.46835443 238:0.42500001 239:0.37333333 240:0.28358209 241:0.80327868 242:0.84507042 243:0.74666667 244:0.84722221 245:0.69863015 246:0.58730161 247:0.57692307 248:0.66666669 249:0.67605633 250:0.75 251:0.7361111 252:0.72727275 253:0.64705884 254:0.7037037 255:0.79381442 256:0.71428573 257:0.55737704 258:0.91011238 259:0.32098764 260:0.6438356 261:0.69565219 262:0.59740257 263:0.22033899 264:1 265:0.5 266:0.28915662 267:0.72448981 268:0.71276593 269:0.25316456 270:0.9626168 271:0.6825397 272:0.33333334 273:0.26966292 274:0.3283582 275:0.25352111 276:0.86206895 277:1 278:0.8369565 279:0.82558137 280:0.82432431 281:0.73015875 282:0.91803277 283:0.80000001 284:0.84615386 285:0.6875 286:0.63529414 287:0.68367344 288:0.74509805 
0.1862516720365364 1:0.36486486 2:0.43209878 3:0.54385966 4:0.48648649 5:0.2739726 6:0.24137931 7:0.19318181 8:0.65346533 9:0.74615383 10:0.64423078 11:0.43902439 12:0.36082473 13:0.19607843 14:0.2184874 15:0.74561405 16:0.69491524 17:0.27631578 18:0.36065573 19:0.32142857 20:0.24324325 21:0.29213482 22:0.30681819 23:0.4852941 24:0.36956522 25:0.69014084 26:0.7027027 27:0.75609756 28:0.59770113 29:0.53125 30:0.18421052 31:0.54545456 32:0.47999999 33:0.35211268 34:0.27142859 35:0.22666667 36:0.2857143 37:0 38:0.13207547 39:0.49000001 40:0.29411766 41:0.30882353 42:0.21794872 43:0.27380952 44:0.59139782 45:0.78703701 46:0.60227275 47:0.32467532 48:0.14606741 49:0.32467532 50:0.51190478 51:0.74468082 52:0.74390244 53:0.2631579 54:0.24324325 55:0.43548387 56:0.62711865 57:0.64150941 58:0.7758621 59:0.86885244 60:0.87037039 61:0.75 62:1 63:0.79104477 64:0.80263156 65:0.76712328 66:0.87804878 67:0.80769229 68:0.87804878 69:0.87012988 70:0.75 71:0.7846154 72:0.82432431 73:0 74:0.17567568 75:0.50515461 76:0.46969697 77:0.25454545 78:0.16666667 79:0.24444444 80:0.5151515 81:0.63247865 82:0.65979379 83:0.27941176 84:0.16883117 85:0.2278481 86:0.1125 87:0.30263159 88:0.48351648 89:0.30666667 90:0.31944445 91:0.11320755 92:0.21875 93:0.3773585 94:0.50819671 95:0.58333331 96:0.65625 97:0.33333334 98:0.58139533 99:0.73214287 100:0.66666669 101:0.51851851 102:0.57499999 103:0.34246576 104:0 105:0.086419754 106:0.19767442 107:0.1875 108:0.1875 109:0.62352943 110:0.34482759 111:0.55045873 112:0.44705883 113:0.28787878 114:0.125 115:0.76190478 116:0.57831323 117:0.7669903 118:0.71568626 119:0.55555558 120:0.28048781 121:0.94444442 122:0.082474224 123:0.63095236 124:0.81818181 125:0.3888889 126:0.34313726 127:0.73333335 128:0.37313432 129:0.3493976 130:0.40677965 131:0.47761193 132:0.72131145 133:0.64102566 134:0.82716048 135:0.71428573 136:0.72289157 137:0.69117647 138:0.63999999 139:0.796875 140:0.56521738 141:0.39130434 142:0.3974359 143:0.26190478 144:0.31944445 145:0.67010307 146:0.44943821 147:0.67021275 148:0.43529412 149:0.10447761 150:0.21875 151:0.48543689 152:0.3561644 153:0.66386557 154:0.7352941 155:0.47368422 156:0.16867469 157:0.40000001 158:0.090163931 159:0.63999999 160:0.72500002 161:0.28048781 162:0.2736842 163:0.67708331 164:0.21518987 165:0.28 166:0.2962963 167:0.36619717 168:0.66176468 169:0.63095236 170:0.5106383 171:0.65909094 172:0.86813188 173:0.70526314 174:0.82539684 175:0.3116883 176:0.50632912 177:0.40845069 178:0.5131579 179:0.25974026 180:0.27631578 181:0.67647058 182:0.76829267 183:0.82291669 184:0.95061731 185:0.97674417 186:1 187:0.49382716 188:0.55882353 189:0.71296299 190:0.70886075 191:0.48148149 192:0.17647059 193:0.22352941 194:0.32142857 195:0.65591395 196:0.78723407 197:0.33734939 198:0.35294119 199:0.32307693 200:0.33783785 201:0.3283582 202:0.38571429 203:0.44578314 204:0.55128205 205:0.57377046 206:0.81034482 207:0.779661 208:0.65625 209:0.75714284 210:1 211:0.62962961 212:0.60606062 213:0.66666669 214:0.546875 215:0.43478259 216:0.4107143 217:0.34579438 218:0.26086956 219:0.21978022 220:0.26506025 221:0.1368421 222:0.46315789 223:0.2 224:0.4375 225:0.69607842 226:0.375 227:0.3275862 228:0.12698413 229:0.21951219 230:0.27027026 231:0.66666669 232:0.41584158 233:0.17721519 234:0.21686748 235:0.37681159 236:0.33333334 237:0.32911393 238:0.27500001 239:0.26666668 240:0.29850745 241:0.73770493 242:0.85915494 243:0.68000001 244:0.81944442 245:0.86301368 246:0.90476191 247:0.42307693 248:0.66666669 249:0.6056338 250:0.57499999 251:0.29166666 252:0.33333334 253:0.47058824 254:0.4074074 255:0.64948452 256:0.36507937 257:0.22950819 258:0.46067417 259:0.17283951 260:0.71232879 261:0.6695652 262:0.67532468 263:0.59322035 264:0.2 265:0.24468085 266:0.15662651 267:0.62244898 268:0.72340423 269:0.32911393 270:0.25233644 271:0.38095239 272:0.28 273:0.31460676 274:0.3283582 275:0.28169015 276:0.41379312 277:0.58571428 278:0.57608694 279:0.66279072 280:0.7027027 281:0.5714286 282:0.44262296 283:0.30909091 284:0.55128205 285:0.40625 286:0.32941177 287:0.29591838 288:0.3137255 
0.2522913607487355 1:0.37837839 2:0.58024693 3:0.69298244 4:0.6081081 5:0.26027396 6:0.022988506 7:0.38636363 8:0.57425743 9:0.6769231 10:0.48076922 11:0.073170729 12:0.48453608 13:0.3137255 14:0.3277311 15:0.70175439 16:0.61016947 17:0.02631579 18:0.51639342 19:0.4107143 20:0.27027026 21:0.21348314 22:0.29545453 23:0.47058824 24:0.54347825 25:0.63380283 26:0.55405408 27:0.67073172 28:0.60919541 29:0.53125 30:0.36842105 31:0.43636364 32:0.44 33:0.43661973 34:0.24285714 35:0.2 36:0.5714286 37:0.27272728 38:0.6226415 39:0.69 40:0.49019608 41:0.10294118 42:0 43:0.27380952 44:0.4623656 45:0.75925928 46:0.53409094 47:0.090909094 48:0.41573033 49:0.44155845 50:0.51190478 51:0.71276593 52:0.39024389 53:0.14473684 54:0.32432431 55:0.43548387 56:0.49152541 57:0.4528302 58:0.60344827 59:0.80327868 60:0.53703701 61:0.5 62:0.48214287 63:0.64179105 64:0.71052629 65:0.60273975 66:0.097560972 67:0.52564102 68:0.73170733 69:0.76623374 70:0.67105263 71:0.60000002 72:0.51351351 73:0.16249999 74:0.44594595 75:0.63917524 76:0.59090906 77:0.14545454 78:0.016666668 79:0.13333334 80:0.27272728 81:0.52136755 82:0.53608245 83:0.073529415 84:0.35064936 85:0.11392405 86:0.1375 87:0.22368421 88:0.29670331 89:0.013333334 90:0.16666667 91:0.018867925 92:0.203125 93:0.26415095 94:0.27868852 95:0.44999999 96:0.265625 97:0 98:0.3255814 99:0.625 100:0.61904764 101:0.44444445 102:0 103:0.3561644 104:0.22972973 105:0.33333334 106:0.24418604 107:0.26041666 108:0.15000001 109:0.3882353 110:0.45977011 111:0.72477067 112:0.69411767 113:0.39393941 114:0.078125 115:0.73809522 116:0.45783132 117:0.67961162 118:0.627451 119:0.18055555 120:0.048780486 121:0.9074074 122:0.25773194 123:0.58333331 124:0.67272729 125:0.16666667 126:0.17647059 127:0.97777778 128:0.40298507 129:0.28915662 130:0.27118644 131:0.44776121 132:0.42622951 133:0.98717946 134:0.66666669 135:0.5714286 136:0.66265059 137:0.66176468 138:0.28 139:0.796875 140:0.52173913 141:0.40579709 142:0.43589744 143:0.25 144:0.18055555 145:0.59793812 146:0.51685393 147:0.62765956 148:0.61176473 149:0.44776121 150:0.15625 151:0.61165047 152:0.41095892 153:0.68067229 154:0.7352941 155:0.36842105 156:0.048192769 157:0.63333333 158:0.17213115 159:0.75199997 160:0.72500002 161:0.19512194 162:0.22105263 163:0.48958334 164:0.25316456 165:0.30000001 166:0.16049382 167:0.21126761 168:0.30882353 169:0.22619048 170:0.5106383 171:0.56818181 172:0.70329672 173:0.64210528 174:0.34920636 175:0.20779221 176:0.41772151 177:0.45070422 178:0.47368422 179:0.3116883 180:0.11842106 181:0.82352942 182:0.87804878 183:0.88541669 184:0.71604937 185:0.76744187 186:0.62222224 187:0.30864197 188:0.47058824 189:0.71296299 190:0.60759491 191:0.25925925 192:0.39705881 193:0.2 194:0.32142857 195:0.72043014 196:0.72340423 197:0.28915662 198:0.27058825 199:0.16923077 200:0.33783785 201:0.40298507 202:0.40000001 203:0.44578314 204:0.30769232 205:0.26229507 206:0.44827586 207:0.57627118 208:0.421875 209:0.48571429 210:0.30434781 211:0.31481481 212:0.43939394 213:0.530303 214:0.40625 215:0.34782609 216:0.21428572 217:0.26168224 218:0.20652173 219:0.31868133 220:0.33734939 221:0.17894737 222:0.46315789 223:0.25714287 224:0.40625 225:0.66666669 226:0.375 227:0.05172414 228:0 229:0.31707317 230:0.24324325 231:0.63333333 232:0.27722773 233:0 234:0.12048193 235:0.24637681 236:0.21794872 237:0.2278481 238:0.175 239:0.093333334 240:0 241:0.50819671 242:0.49295774 243:0.42666668 244:0.56944442 245:0.50684929 246:0.26984128 247:0.28846154 248:0.43478259 249:0.40845069 250:0.53750002 251:0.40277779 252:0.15151516 253:0.38235295 254:0.43209878 255:0.70103091 256:0.65079367 257:0.40983605 258:0.89887643 259:0.49382716 260:0.73972601 261:0.73913044 262:0.61038959 263:0.084745765 264:0.80000001 265:0.31914893 266:0.3253012 267:0.72448981 268:0.69148934 269:0.15189873 270:1 271:0.52380955 272:0.36000001 273:0.22471911 274:0.1641791 275:0.18309858 276:0.954023 277:0.54285717 278:0.63043481 279:0.59302324 280:0.58108109 281:0.44444445 282:0.70491803 283:0.29090908 284:0.48717949 285:0.40625 286:0.35294119 287:0.30612245 288:0.41176471 
0.05285205307438719 1:0.3918919 2:0.66666669 3:0.75438595 4:0.74324322 5:0.5479452 6:0.55172414 7:0.36363637 8:0.63366336 9:0.74615383 10:0.625 11:0.34146342 12:0.61855668 13:0.57843137 14:0.38655463 15:0.81578946 16:0.74576271 17:0.38157895 18:0.69672132 19:0.6785714 20:0.41891891 21:0.47191012 22:0.59090906 23:0.63235295 24:0.63043481 25:0.49295774 26:0.54054052 27:0.71951222 28:0.63218391 29:0.5625 30:0.39473686 31:0.40000001 32:0.58666664 33:0.53521127 34:0.41428572 35:0.36000001 36:0.53781515 37:0.44155845 38:0.71698111 39:0.73000002 40:0.66666669 41:0.39705881 42:0.48717949 43:0.60714287 44:0.58064514 45:0.7962963 46:0.71590906 47:0.51948053 48:0.57303369 49:0.8051948 50:0.70238096 51:0.86170214 52:0.68292683 53:0.43421054 54:0.6081081 55:0.7096774 56:0.779661 57:0.71698111 58:0.74137932 59:0.6885246 60:0.7037037 61:0.5 62:0.51785713 63:0.61194032 64:0.61842108 65:0.4520548 66:0.097560972 67:0.52564102 68:0.64634144 69:0.62337661 70:0.52631581 71:0.40000001 72:0.41891891 73:0.47499999 74:0.63513511 75:0.70103091 76:0.63636363 77:0.41818181 78:0.34999999 79:0.65555555 80:0.56565654 81:0.61538464 82:0.64948452 83:0.47058824 84:0.53246754 85:0.70886075 86:0.53750002 87:0.4868421 88:0.51648355 89:0.50666666 90:0.70833331 91:0.58490568 92:0.5 93:0.56603771 94:0.59016395 95:0.71666664 96:0.671875 97:0.07692308 98:0.25581396 99:0.5 100:0.50793654 101:0.37037036 102:0.25 103:0.3561644 104:0.33783785 105:0.38271606 106:0.31395349 107:0.375 108:0.36250001 109:0.62352943 110:0.60919541 111:0.78899086 112:0.72941178 113:0.62121212 114:0.3125 115:0.83333331 116:0.60240966 117:0.72815531 118:0.72549021 119:0.40277779 120:0.30487806 121:0.89814812 122:0.43298969 123:0.75 124:0.81818181 125:0.5138889 126:0.55882353 127:0.91111112 128:0.64179105 129:0.50602412 130:0.49152541 131:0.56716418 132:0.63934427 133:0.76923078 134:0.7037037 135:0.61038959 136:0.66265059 137:0.61764705 138:0.30000001 139:0.671875 140:0.68115944 141:0.47826087 142:0.52564102 143:0.34523809 144:0.27777779 145:0.59793812 146:0.55056179 147:0.64893615 148:0.69411767 149:0.5970149 150:0.5 151:0.61165047 152:0.49315068 153:0.77310926 154:0.7647059 155:0.44736841 156:0.25301206 157:0.78333336 158:0.3114754 159:0.75999999 160:0.80833334 161:0.41463414 162:0.44210526 163:0.76041669 164:0.54430377 165:0.41 166:0.32098764 167:0.30985916 168:0.45588234 169:0.45238096 170:0.60638297 171:0.56818181 172:0.5714286 173:0.53684211 174:0.34920636 175:0.36363637 176:0.56962025 177:0.47887325 178:0.42105263 179:0.32467532 180:0.17105263 181:0.79411763 182:0.81707317 183:0.88541669 184:0.75308645 185:0.82558137 186:0.75555557 187:0.67901236 188:0.5147059 189:0.66666669 190:0.68354428 191:0.5925926 192:0.52941179 193:0.81176472 194:0.60714287 195:0.80645162 196:0.85106385 197:0.59036142 198:0.67058825 199:0.63076925 200:0.55405408 201:0.55223882 202:0.60000002 203:0.43373495 204:0.41025642 205:0.36065573 206:0.46551725 207:0.44067797 208:0.40625 209:0.45714286 210:0.32608697 211:0.25925925 212:0.40909091 213:0.40909091 214:0.359375 215:0.26086956 216:0.17857143 217:0.45794392 218:0.51086956 219:0.51648355 220:0.49397591 221:0.43157893 222:0.60000002 223:0.54285717 224:0.609375 225:0.74509805 226:0.453125 227:0.3275862 228:0.52380955 229:0.70731705 230:0.58108109 231:0.74444443 232:0.48514852 233:0.49367088 234:0.6987952 235:0.46376812 236:0.46153846 237:0.55696201 238:0.44999999 239:0.36000001 240:0.46268657 241:0.40983605 242:0.45070422 243:0.47999999 244:0.5138889 245:0.46575344 246:0.38095239 247:0.15384616 248:0.36231884 249:0.35211268 250:0.42500001 251:0.27777779 252:0.1969697 253:0.39705881 254:0.56790125 255:0.73195875 256:0.66666669 257:0.54098362 258:0.85393256 259:0.37037036 260:0.89041096 261:0.80000001 262:0.71428573 263:0.32203391 264:0.78823531 265:0.47872341 266:0.33734939 267:0.79591835 268:0.90425533 269:0.56962025 270:0.93457943 271:0.66666669 272:0.49333334 273:0.40449437 274:0.40298507 275:0.45070422 276:0.90804595 277:0.45714286 278:0.59782606 279:0.61627907 280:0.54054052 281:0.47619048 282:0.60655737 283:0.14545454 284:0.55128205 285:0.578125 286:0.44705883 287:0.44897959 288:0.46078432 
0.3431679684560657 1:0.25675675 2:0.35802469 3:0.48245615 4:0.3108108 5:0.28767124 6:0.48275861 7:0.43181819 8:0.61386138 9:0.72307694 10:0.66346157 11:0.62195122 12:0.59793812 13:0.53921568 14:0.31932774 15:0.78947371 16:0.75423729 17:0.43421054 18:0.48360655 19:0.71428573 20:0.44594595 21:0.44943821 22:0.55681819 23:0.58823532 24:0.45652175 25:0.67605633 26:0.74324322 27:0.81707317 28:0.74712646 29:0.625 30:0.30263159 31:0.63636363 32:0.68000001 33:0.67605633 34:0.54285717 35:0.45333335 36:0.42857143 37:0.16883117 38:0.16981132 39:0.41 40:0.11764706 41:0.17647059 42:0.43589744 43:0.53571427 44:0.60215056 45:0.74074072 46:0.59090906 47:0.45454547 48:0.56179774 49:0.62337661 50:0.54761904 51:0.79787236 52:0.73170733 53:0.46052632 54:0.63513511 55:0.64516127 56:0.64406782 57:0.6981132 58:0.68965518 59:0.70491803 60:0.83333331 61:0.76923078 62:0.6785714 63:0.73134327 64:0.77631581 65:0.73972601 66:0.58536583 67:0.73076922 68:0.73170733 69:0.66233766 70:0.59210527 71:0.69230771 72:0.74324322 73:0.22499999 74:0.28378379 75:0.4742268 76:0.33333334 77:0.07272727 78:0.31666666 79:0.60000002 80:0.66666669 81:0.64957267 82:0.67010307 83:0.47058824 84:0.50649351 85:0.70886075 86:0.55000001 87:0.53947371 88:0.56043959 89:0.41333333 90:0.58333331 91:0.73584908 92:0.59375 93:0.67924529 94:0.60655737 95:0.71666664 96:0.71875 97:0.53846157 98:0.72093022 99:0.85714287 100:0.82539684 101:0.6111111 102:0.55000001 103:0.56164384 104:0.45945945 105:0.50617284 106:0.41860464 107:0.5 108:0.55000001 109:0.3882353 110:0.36781609 111:0.55045873 112:0.40000001 113:0.21212122 114:0.25 115:0.65476191 116:0.66265059 117:0.7669903 118:0.70588237 119:0.58333331 120:0.35365853 121:0.66666669 122:0.40206185 123:0.71428573 124:0.81818181 125:0.41666666 126:0.53921568 127:0.69999999 128:0.5970149 129:0.50602412 130:0.59322035 131:0.62686568 132:0.75409836 133:0.70512819 134:0.77777779 135:0.70129871 136:0.79518074 137:0.79411763 138:0.56 139:0.765625 140:0.66666669 141:0.56521738 142:0.58974361 143:0.4642857 144:0.47222221 145:0.40206185 146:0.43820226 147:0.56382978 148:0.47058824 149:0.31343284 150:0.359375 151:0.47572815 152:0.42465752 153:0.65546221 154:0.7352941 155:0.60526317 156:0.33734939 157:0.67500001 158:0.29508197 159:0.77600002 160:0.84166664 161:0.42682928 162:0.55789477 163:0.72916669 164:0.44303799 165:0.44999999 166:0.43209878 167:0.49295774 168:0.69117647 169:0.60714287 170:0.69148934 171:0.68181819 172:0.72527474 173:0.80000001 174:0.6825397 175:0.6883117 176:0.72151899 177:0.67605633 178:0.67105263 179:0.53246754 180:0.36842105 181:0.72549021 182:0.68292683 183:0.76041669 184:0.71604937 185:0.74418604 186:0.78888887 187:0.74074072 188:0.7352941 189:0.78703701 190:0.74683547 191:0.62962961 192:0.58823532 193:0.81176472 194:0.63095236 195:0.79569894 196:0.91489363 197:0.66265059 198:0.83529413 199:0.75384617 200:0.6081081 201:0.64179105 202:0.64285713 203:0.49397591 204:0.58974361 205:0.67213112 206:0.79310346 207:0.83050847 208:0.671875 209:0.60000002 210:0.65217394 211:0.64814812 212:0.65151513 213:0.74242425 214:0.640625 215:0.52173913 216:0.44642857 217:0.42056075 218:0.47826087 219:0.46153846 220:0.42168674 221:0.31578946 222:0.57894737 223:0.58571428 224:0.65625 225:0.74509805 226:0.421875 227:0.34482759 228:0.52380955 229:0.86585367 230:0.71621621 231:0.82222223 232:0.54455447 233:0.54430377 234:0.75903612 235:0.60869563 236:0.51282054 237:0.58227849 238:0.52499998 239:0.53333336 240:0.71641791 241:0.72131145 242:0.70422536 243:0.54666668 244:0.7361111 245:0.73972601 246:0.87301588 247:0.55769229 248:0.59420288 249:0.52112675 250:0.60000002 251:0.4861111 252:0.5151515 253:0.27941176 254:0.37037036 255:0.67010307 256:0.41269842 257:0.3442623 258:0.67415732 259:0.43209878 260:0.82191783 261:0.7478261 262:0.66233766 263:0.54237288 264:0.71764708 265:0.54255319 266:0.38554215 267:0.82653064 268:0.90425533 269:0.50632912 270:0.68224299 271:0.69841272 272:0.49333334 273:0.53932583 274:0.65671641 275:0.53521127 276:0.55172414 277:0.65714288 278:0.67391306 279:0.82558137 280:0.74324322 281:0.65079367 282:0.42622951 283:0.61818182 284:0.66666669 285:0.75 286:0.67058825 287:0.58163267 288:0.50980395 
0.6092561366975602 1:0.55405408 2:0.8888889 3:0.85087717 4:0.9054054 5:0.89041096 6:0.59770113 7:0.36363637 8:0.49504951 9:0.79230767 10:0.69230771 11:0.52439022 12:0.41237113 13:0.67647058 14:0.51260507 15:0.99122804 16:0.97457629 17:0.68421054 18:0.44262296 19:0.8214286 20:1 21:1 22:1 23:1 24:0.41304347 25:0.81690139 26:0.93243241 27:0.92682928 28:0.83908045 29:0.796875 30:0.43421054 31:0.87272727 32:0.93333334 33:0.92957747 34:0.94285715 35:0.94666666 36:0.68907565 37:0.54545456 38:0.88679248 39:0.82999998 40:0.80392158 41:0.63235295 42:0.76923078 43:0.6785714 44:0.61290324 45:0.8425926 46:0.79545456 47:0.67532468 48:0.70786518 49:0.85714287 50:0.84523809 51:0.87234044 52:0.92682928 53:0.69736844 54:0.77027029 55:0.91935486 56:0.96610171 57:0.9245283 58:1 59:0.73770493 60:0.5925926 61:0.88461536 62:0.75 63:0.73134327 64:0.78947371 65:0.69863015 66:0.58536583 67:0.57692307 68:0.62195122 69:0.62337661 70:0.55263156 71:0.58461541 72:0.5945946 73:0.73750001 74:0.8918919 75:0.92783505 76:0.92424244 77:0.56363636 78:0.80000001 79:0.72222221 80:0.73737371 81:0.70940173 82:0.77319586 83:0.58823532 84:0.74025977 85:0.77215189 86:0.72500002 87:0.80263156 88:0.80219781 89:0.83999997 90:0.84722221 91:0.7735849 92:0.65625 93:0.88679248 94:1 95:1 96:0.859375 97:0.51282054 98:0.48837209 99:0.73214287 100:0.90476191 101:0.85185188 102:0.875 103:0.56164384 104:0.54054052 105:0.62962961 106:0.67441863 107:0.67708331 108:0.77499998 109:0.90588236 110:0.90804595 111:0.88990825 112:0.82352942 113:0.81818181 114:0.640625 115:0.76190478 116:0.50602412 117:0.75728154 118:0.78431374 119:0.47222221 120:0.41463414 121:0.77777779 122:0.51546389 123:0.94047618 124:1 125:0.81944442 126:0.72549021 127:0.77777779 128:1 129:1 130:1 131:1 132:0.91803277 133:0.75641024 134:0.87654322 135:0.84415585 136:0.85542166 137:0.92647058 138:0.81999999 139:0.828125 140:0.89855075 141:0.92753625 142:0.98717946 143:0.97619045 144:0.94444442 145:0.78350514 146:0.88764048 147:0.87234044 148:0.88235295 149:0.82089549 150:0.671875 151:0.64077669 152:0.38356164 153:0.78991598 154:0.84313726 155:0.57894737 156:0.3493976 157:0.85000002 158:0.46721312 159:0.96799999 160:1 161:0.71951222 162:0.62105262 163:0.875 164:1 165:1 166:1 167:1 168:0.70588237 169:0.77380955 170:0.88297874 171:0.88636363 172:0.84615386 173:0.77894735 174:0.73015875 175:0.8831169 176:0.88607597 177:0.8309859 178:0.89473683 179:0.92207789 180:0.84210527 181:0.44117647 182:0.35365853 183:0.48958334 184:0.41975307 185:0.41860464 186:0.55555558 187:0.64197528 188:0.63235295 189:0.74074072 190:0.74683547 191:0.7962963 192:0.69117647 193:0.90588236 194:0.73809522 195:0.75268817 196:0.95744681 197:0.77108431 198:0.85882354 199:0.87692308 200:0.74324322 201:0.83582091 202:0.82857144 203:0.6987952 204:0.61538464 205:0.6885246 206:0.75862068 207:0.81355929 208:0.75 209:0.72857141 210:0.65217394 211:0.68518519 212:0.69696969 213:0.71212119 214:0.546875 215:0.65217394 216:0.6785714 217:0.45794392 218:0.46739131 219:0.47252747 220:0.40963855 221:0.33684212 222:0.54736841 223:0.67142856 224:0.78125 225:0.89215684 226:0.71875 227:0.55172414 228:0.77777779 229:0.84146339 230:0.82432431 231:0.91111112 232:0.77227724 233:0.82278478 234:0.85542166 235:0.66666669 236:0.61538464 237:0.79746836 238:1 239:0.83999997 240:0.85074627 241:0.75409836 242:0.73239434 243:0.70666665 244:0.80555558 245:0.75342464 246:0.74603176 247:0.5 248:0.59420288 249:0.61971831 250:0.71249998 251:0.75 252:0.83333331 253:0.67647058 254:0.96296299 255:0.94845361 256:0.80952382 257:0.78688526 258:0.5955056 259:0.2962963 260:0.78082192 261:0.81739128 262:0.71428573 263:0.47457626 264:0.42352942 265:0.59574467 266:0.61445785 267:1 268:1 269:0.74683547 270:0.72897196 271:0.82539684 272:1 273:1 274:1 275:0.85915494 276:0.71264368 277:0.80000001 278:0.84782606 279:0.86046511 280:0.94594592 281:0.77777779 282:0.60655737 283:0.83636361 284:0.91025639 285:0.796875 286:0.87058824 287:0.91836733 288:0.81372547 
0.7755882486233082 1:0.58108109 2:0.80246913 3:0.78070176 4:0.74324322 5:0.78082192 6:0.7241379 7:0.43181819 8:0.63366336 9:0.74615383 10:0.66346157 11:0.60975611 12:0.69072163 13:0.37254903 14:0.31092438 15:0.86842108 16:0.82203388 17:0.40789473 18:0.54098362 19:0.3392857 20:0.24324325 21:0.33707866 22:0.51136363 23:0.45588234 24:0.34782609 25:0.36619717 26:0.4054054 27:0.48780489 28:0.51724136 29:0.453125 30:0.13157895 31:0.29090908 32:0.44 33:0.43661973 34:0.52857143 35:0.62666667 36:0.45378152 37:0.35064936 38:0.71698111 39:0.80000001 40:0.84313726 41:0.60294116 42:0.6025641 43:0.40476191 44:0.43010753 45:0.72222221 46:0.64772725 47:0.64935064 48:0.57303369 49:0.49350649 50:0.4642857 51:0.80851066 52:0.82926828 53:0.56578946 54:0.6081081 55:0.40322581 56:0.42372882 57:0.58490568 58:0.68965518 59:0.63934427 60:0.57407409 61:0.42307693 62:0.39285713 63:0.5970149 64:0.68421054 65:0.61643833 66:0.53658539 67:0.23076923 68:0.28048781 69:0.24675325 70:0.27631578 71:0.21538462 72:0.32432431 73:0.48750001 74:0.72972971 75:0.85567009 76:0.80303031 77:0.5090909 78:0.75 79:0.55555558 80:0.57575756 81:0.63247865 82:0.63917524 83:0.5 84:0.64935064 85:0.64556962 86:0.52499998 87:0.63157892 88:0.67032969 89:0.58666664 90:0.72222221 91:0.6981132 92:0.625 93:0.71698111 94:0.55737704 95:0.71666664 96:0.671875 97:0.46153846 98:0.53488374 99:0.75 100:0.77777779 101:0.64814812 102:0.80000001 103:0.16438356 104:0.17567568 105:0.4074074 106:0.36046511 107:0.47916666 108:0.57499999 109:0.62352943 110:0.79310346 111:0.87155962 112:0.81176472 113:0.75757575 114:0.59375 115:0.52380955 116:0.61445785 117:0.7669903 118:0.7352941 119:0.59722221 120:0.46341464 121:0.47222221 122:0.42268041 123:0.84523809 124:0.84545457 125:0.4861111 126:0.58823532 127:0.41111112 128:0.62686568 129:0.48192772 130:0.45762712 131:0.41791046 132:0.59016395 133:0.2820513 134:0.58024693 135:0.48051947 136:0.53012049 137:0.41176471 138:0.44 139:0.140625 140:0.52173913 141:0.40579709 142:0.61538464 143:0.61904764 144:0.68055558 145:0.41237113 146:0.74157304 147:0.72340423 148:0.68235296 149:0.73134327 150:0.5 151:0.28155339 152:0.56164384 153:0.75630254 154:0.79411763 155:0.65789473 156:0.40963855 157:0.46666667 158:0.31967214 159:0.792 160:0.88333333 161:0.42682928 162:0.49473685 163:0.34375 164:0.36708862 165:0.33000001 166:0.35802469 167:0.35211268 168:0.42647058 169:0 170:0.37234041 171:0.38636363 172:0.45054945 173:0.48421052 174:0.49206349 175:0.20779221 176:0.51898736 177:0.5633803 178:0.55263156 179:0.58441556 180:0.56578946 181:0.65686274 182:0.5487805 183:0.5 184:0.43209878 185:0.40697673 186:0.41111112 187:0.44444445 188:0.5 189:0.75925928 190:0.78481013 191:0.7962963 192:0.64705884 193:0.67058825 194:0.4642857 195:0.74193549 196:0.87234044 197:0.61445785 198:0.7647059 199:0.41538462 200:0.35135135 201:0.44776121 202:0.58571428 203:0.54216868 204:0.55128205 205:0.19672132 206:0.25862068 207:0.40677965 208:0.46875 209:0.54285717 210:0.5 211:0.62962961 212:0.66666669 213:0.74242425 214:0.703125 215:0.66666669 216:0.6964286 217:0.44859812 218:0.56521738 219:0.49450549 220:0.39759037 221:0.24210526 222:0.46315789 223:0.25714287 224:0.453125 225:0.7352941 226:0.5 227:0.41379312 228:0.52380955 229:0.5 230:0.3918919 231:0.77777779 232:0.54455447 233:0.49367088 234:0.66265059 235:0.27536231 236:0.24358974 237:0.55696201 238:0.48750001 239:0.45333335 240:0.49253732 241:0.3442623 242:0.40845069 243:0.47999999 244:0.59722221 245:0.52054793 246:0.53968257 247:0.46153846 248:0.59420288 249:0.6056338 250:0.69999999 251:0.72222221 252:0.72727275 253:0.55882353 254:0.61728394 255:0.70103091 256:0.65079367 257:0.62295079 258:0.69662923 259:0.49382716 260:0.76712328 261:0.73913044 262:0.70129871 263:0.49152541 264:0.58823532 265:0.32978722 266:0.31325302 267:0.87755102 268:0.87234044 269:0.44303799 270:0.64485979 271:0.33333334 272:0.26666668 273:0.41573033 274:0.44776121 275:0.33802816 276:0.42528737 277:0.17142858 278:0.41304347 279:0.40697673 280:0.37837839 281:0.26984128 282:0.098360658 283:0.12727273 284:0.5 285:0.484375 286:0.50588238 287:0.59183675 288:0.5 
0.359251257350404 1:0.66216218 2:0.82716048 3:0.90350878 4:0.91891891 5:0.82191783 6:0.50574714 7:0.29545453 8:0.49504951 9:0.79230767 10:0.69230771 11:0.43902439 12:0.40206185 13:0.20588236 14:0.26050422 15:0.74561405 16:0.73728812 17:0.47368422 18:0.4180328 19:0.42857143 20:0.27027026 21:0.29213482 22:0.23863636 23:0.35294119 24:0.23913044 25:0.87323946 26:0.83783782 27:0.89024389 28:0.71264368 29:0.5 30:0.21052632 31:0.54545456 32:0.54666668 33:0.67605633 34:0.69999999 35:0.66666669 36:0.51260507 37:0.42857143 38:0.8490566 39:0.86000001 40:0.86274511 41:0.57352942 42:0.47435898 43:0.32142857 44:0.51612902 45:0.80555558 46:0.72727275 47:0.35064936 48:0.23595506 49:0.37662336 50:0.38095239 51:0.57446808 52:0.58536583 53:0.22368421 54:0.28378379 55:0.61290324 56:0.59322035 57:0.58490568 58:0.63793105 59:0.60655737 60:0.51851851 61:0.98076922 62:0.75 63:0.82089549 64:1 65:0.86301368 66:0.56097561 67:0.53846157 68:0.43902439 69:0.62337661 70:0.78947371 71:0.73846155 72:0.5945946 73:0.42500001 74:0.72972971 75:0.87628865 76:0.89393938 77:0.45454547 78:0.23333333 79:0.35555556 80:0.41414142 81:0.64102566 82:0.70103091 83:0.2647059 84:0.14285715 85:0.43037975 86:0.28749999 87:0.35526314 88:0.40659341 89:0.10666667 90:0.069444448 91:0.83018869 92:0.796875 93:0.64150941 94:0.3114754 95:0.13333334 96:0.125 97:1 98:0.93023258 99:0.85714287 100:0.84126985 101:0.51851851 102:0.25 103:0.69863015 104:0.67567569 105:0.76543212 106:0.59302324 107:0.3125 108:0.22499999 109:0.51764709 110:0.80459768 111:0.90825689 112:0.80000001 113:0.56060606 114:0.359375 115:0.36904761 116:0.43373495 117:0.73786408 118:0.67647058 119:0.2361111 120:0.18292683 121:0.39814815 122:0.20618556 123:0.47619048 124:0.64545453 125:0.18055555 126:0.039215688 127:0.30000001 128:0.46268657 129:0.26506025 130:0.06779661 131:0.074626863 132:0.081967212 133:0.51282054 134:0.85185188 135:0.74025977 136:0.72289157 137:0.55882353 138:0.28 139:0.234375 140:0.68115944 141:0.60869563 142:0.66666669 143:0.5 144:0.44444445 145:0.24742268 146:0.7977528 147:0.81914896 148:0.7647059 149:0.47761193 150:0.1875 151:0.21359223 152:0.3561644 153:0.74789917 154:0.70588237 155:0.34210527 156:0.13253012 157:0.34166667 158:0.23770492 159:0.78399998 160:0.79166669 161:0.20731707 162:0.11578947 163:0.33333334 164:0.4050633 165:0.34 166:0.18518518 167:0.14084508 168:0.16176471 169:0.5714286 170:0.78723407 171:0.85227275 172:0.84615386 173:0.7473684 174:0.50793654 175:0.51948053 176:0.73417723 177:0.8309859 178:0.84210527 179:0.6883117 180:0.55263156 181:0.039215688 182:0.097560972 183:0.4375 184:0.34567901 185:0.10465116 186:0.033333335 187:0.28395063 188:0.54411763 189:0.75925928 190:0.78481013 191:0.27777779 192:0.05882353 193:0.49411765 194:0.38095239 195:0.67741936 196:0.70212764 197:0.24096386 198:0.2 199:0.52307695 200:0.43243244 201:0.34328359 202:0.27142859 203:0.18072289 204:0.17948718 205:0.73770493 206:0.86206895 207:0.81355929 208:0.71875 209:0.47142857 210:0.2173913 211:0.72222221 212:0.66666669 213:0.72727275 214:0.640625 215:0.47826087 216:0.25 217:0.10280374 218:0.26086956 219:0.37362638 220:0.30120483 221:0.14736842 222:0.1368421 223:0.25714287 224:0.546875 225:0.78431374 226:0.59375 227:0.39655173 228:0.23809524 229:0.39024389 230:0.33783785 231:0.72222221 232:0.49504951 233:0.31645569 234:0.38554215 235:0.49275362 236:0.38461539 237:0.41772151 238:0.47499999 239:0.38666666 240:0.37313432 241:0.91803277 242:0.81690139 243:0.73333335 244:0.93055558 245:0.60273975 246:0.47619048 247:0.71153843 248:0.60869563 249:0.61971831 250:0.85000002 251:0.65277779 252:0.56060606 253:0.64705884 254:0.60493827 255:0.71134019 256:0.66666669 257:0.57377046 258:0.30337077 259:0.39506173 260:0.63013697 261:0.71304345 262:0.62337661 263:0.42372882 264:0.32941177 265:0.22340426 266:0.22891566 267:0.72448981 268:0.75531918 269:0.39240506 270:0.44859812 271:0.47619048 272:0.29333332 273:0.33707866 274:0.2238806 275:0.28169015 276:0.34482759 277:0.78571427 278:0.69565219 279:0.86046511 280:0.62162161 281:0.53968257 282:0.40983605 283:0.60000002 284:0.73076922 285:0.84375 286:0.5529412 287:0.6122449 288:0.54901963 
0.004852717064443272 1:0.2972973 2:0.76543212 3:0.89473683 4:0.85135138 5:0.83561641 6:1 7:0.079545453 8:0.39603961 9:0.76923078 10:0.65384614 11:0.43902439 12:0.87628865 13:0.11764706 14:0.16806723 15:0.7368421 16:0.75423729 17:0.32894737 18:0.6557377 19:0.21428572 20:0.16216215 21:0.14606741 22:0.22727273 23:0.39705881 24:0.65217394 25:0.64788735 26:0.75675678 27:0.74390244 28:0.79310346 29:0.828125 30:0.71052629 31:0.38181818 32:0.56 33:0.53521127 34:0.74285716 35:0.77333331 36:0.8067227 37:0.22077923 38:0.6981132 39:0.82999998 40:0.90196079 41:0.4852941 42:0.42307693 43:0.19047619 44:0.38709676 45:0.75 46:0.73863637 47:0.3116883 48:0.26966292 49:0.24675325 50:0.26190478 51:0.55319148 52:0.62195122 53:0.25 54:0.28378379 55:0.27419356 56:0.40677965 57:0.60377359 58:0.74137932 59:0.77049178 60:0.66666669 61:0.48076922 62:0.5 63:0.80597013 64:0.94736844 65:0.89041096 66:0.68292683 67:0.29487181 68:0.52439022 69:0.74025977 70:0.77631581 71:0.69230771 72:0.7027027 73:0.34999999 74:0.7027027 75:0.81443298 76:0.81818181 77:0.56363636 78:0.28333333 79:0.24444444 80:0.34343433 81:0.58974361 82:0.70103091 83:0.32352942 84:0.18181819 85:0.25316456 86:0.27500001 87:0.39473686 88:0.41758242 89:0.2 90:0.19444445 91:0.39622641 92:0.640625 93:0.83018869 94:0.54098362 95:0.55000001 96:0.390625 97:0.33333334 98:0.6511628 99:0.89285713 100:0.82539684 101:0.64814812 102:0.44999999 103:0.52054793 104:0.43243244 105:0.64197528 106:0.59302324 107:0.55208331 108:0.4375 109:0.57647061 110:0.75862068 111:0.88073397 112:0.82352942 113:0.69696969 114:0.28125 115:0.39285713 116:0.36144578 117:0.67961162 118:0.7352941 119:0.3611111 120:0.13414635 121:0.44444445 122:0.2371134 123:0.5 124:0.76363635 125:0.27777779 126:0.11764706 127:0.36666667 128:0.53731346 129:0.25301206 130:0.20338982 131:0.29850745 132:0.32786885 133:0.46153846 134:0.86419755 135:0.70129871 136:0.83132529 137:0.89705884 138:0.66000003 139:0.421875 140:0.76811594 141:0.62318838 142:0.71794873 143:0.61904764 144:0.6111111 145:0.38144329 146:0.73033708 147:0.75531918 148:0.7764706 149:0.67164177 150:0.1875 151:0.29126215 152:0.369863 153:0.72268909 154:0.75490195 155:0.47368422 156:0.060240965 157:0.44166666 158:0.22950819 159:0.736 160:0.85000002 161:0.31707317 162:0.17894737 163:0.39583334 164:0.36708862 165:0.34 166:0.28395063 167:0.23943663 168:0.27941176 169:0.45238096 170:0.70212764 171:0.80681819 172:0.83516484 173:0.80000001 174:0.76190478 175:0.4025974 176:0.68354428 177:0.71830988 178:0.81578946 179:0.81818181 180:0.72368419 181:0.039215688 182:0.048780486 183:0.40625 184:0.34567901 185:0.12790698 186:0.044444446 187:0.22222222 188:0.42647058 189:0.74074072 190:0.79746836 191:0.46296296 192:0.16176471 193:0.42352942 194:0.40476191 195:0.72043014 196:0.79787236 197:0.3493976 198:0.30588236 199:0.33846155 200:0.45945945 201:0.50746268 202:0.44285715 203:0.43373495 204:0.38461539 205:0.3442623 206:0.70689654 207:0.93220341 208:0.828125 209:0.80000001 210:0.63043481 211:0.4074074 212:0.57575756 213:0.75757575 214:0.703125 215:0.66666669 216:0.58928573 217:0.065420561 218:0.15217391 219:0.31868133 220:0.25301206 221:0.10526316 222:0.031578947 223:0.085714288 224:0.359375 225:0.72549021 226:0.5 227:0.37931034 228:0.23809524 229:0.31707317 230:0.2027027 231:0.65555555 232:0.51485151 233:0.34177214 234:0.42168674 235:0.34782609 236:0.33333334 237:0.36708862 238:0.44999999 239:0.45333335 240:0.43283582 241:0.62295079 242:0.71830988 243:0.72000003 244:0.83333331 245:0.68493152 246:0.58730161 247:0.38461539 248:0.52173913 249:0.6056338 250:0.72500002 251:0.70833331 252:0.62121212 253:0.22058824 254:0.56790125 255:0.6082474 256:0.66666669 257:0.55737704 258:0.53932583 259:0.074074075 260:0.50684929 261:0.62608695 262:0.54545456 263:0.37288135 264:0.56470591 265:0.13829787 266:0.048192769 267:0.69387758 268:0.70212764 269:0.35443038 270:0.75700933 271:0.34920636 272:0.21333334 273:0.24719101 274:0.3283582 275:0.30985916 276:0.58620691 277:0.67142856 278:0.67391306 279:0.73255813 280:0.7972973 281:0.73015875 282:0.6557377 283:0.5272727 284:0.66666669 285:0.75 286:0.67058825 287:0.70408165 288:0.69607842 
