svm_type c_svc
kernel_type rbf
gamma 0.09
nr_class 2
total_sv 54
rho -0.00500042
label 20101 20102
nr_sv 28 26
SV
0.5695379034222097 1:0.60606062 2:0.63461536 3:0.67647058 4:0.66666669 5:0.46296296 6:0.1884058 7:0.65671641 8:0.69565219 9:0.70491803 10:0.66666669 11:0.52941179 12:0.25 13:0.5272727 14:0.5 15:0.52173913 16:0.56043959 17:0.46226415 18:0.47368422 19:0.76363635 20:0.63636363 21:0.19117647 22:0.62105262 23:0.6081081 24:0.59523809 25:0.70689654 26:0.44210526 27:0.25 28:0.47572815 29:0.75342464 30:0.61250001 31:0.65333331 32:0.49333334 33:0.49206349 34:0.52173913 35:0.68292683 36:0.53521127 37:0.38095239 38:0.42857143 39:0.50793654 40:0.51612902 41:0.5 42:0.38181818 43:0.58904111 44:0.60344827 45:0.73333335 46:0.68333334 47:0.48695651 48:0.37599999 49:0.61842108 50:0.56363636 51:0.46296296 52:0.66265059 53:0.44117647 54:0.2905983 55:0.83950615 56:0.75806451 57:0.36538461 58:0.62601626 59:0.60919541 60:0.45454547 61:1 62:0.95588237 63:0.66666669 64:0.57943922 65:0.42857143 66:0.42168674 67:0.80000001 68:0.4512195 69:0.2857143 70:0.61682242 71:0.40350878 72:0.41964287 73:0.3974359 74:0.36250001 75:0.5714286 76:0.50724638 77:0.29885057 78:0.46218488 79:0.80000001 80:0.68421054 81:0.81690139 82:0.58064514 83:0.32380953 84:0.49586776 85:0.67647058 86:0.50746268 87:0.64935064 88:0.49397591 89:0.23893805 90:0.24107143 91:0.61643833 92:0.71264368 93:0.5151515 94:0.4509804 95:0.31395349 96:0.41025642 97:0.86516851 98:0.82894737 99:0.70731705 100:0.39325842 101:0.21176471 102:0.36000001 103:0.46774194 104:0.53658539 105:0.41935483 106:0.52127659 107:0.3493976 108:0.48101267 109:0.47272727 110:0.63235295 111:0.76811594 112:0.58461541 113:0.49152541 114:0.38202247 115:0.68888891 116:0.80000001 117:0.89610392 118:0.59493673 119:0.19642857 120:0.46601942 121:0.38709676 122:0.71052629 123:0.80952382 124:0.6964286 125:0.37078652 126:0.3963964 127:0.55714285 128:0.73469388 129:0.6122449 130:0.375 131:0.47126436 132:0.37333333 133:0.63492066 134:0.69565219 135:0.71428573 136:0.23333333 137:0.54285717 138:0.72307694 139:0.41538462 140:0.79245281 141:0.64516127 142:0.6891892 143:0.73015875 144:0.63768119 145:0.5 146:0.7241379 147:0.78947371 148:0.66666669 149:0.52941179 150:0.23188406 151:0.4375 152:0.5869565 153:0.57692307 154:0.6964286 155:0.5106383 156:0.40697673 157:0.5714286 158:0.375 159:0.45161289 160:0.72307694 161:0.70512819 162:0.45217392 163:0.55172414 164:0.75 165:0.30769232 166:0.66666669 167:0.68085104 168:0.51685393 169:0.40322581 170:0.58241761 171:0.43835616 172:0.58749998 173:0.48051947 174:0.6885246 175:0.65714288 176:0.60000002 177:0.62857145 178:0.64772725 179:0.6056338 180:0.60606062 181:0.73863637 182:0.78125 183:0.66071427 184:0.79365081 185:0.62903225 186:0.43055555 187:0.48571429 188:0.52631581 189:0.60377359 190:0.78125 191:0.53947371 192:0.28712872 193:0.75 194:0.70588237 195:0.58974361 196:0.71249998 197:0.50980395 198:0.33333334 199:0.83333331 200:0.69863015 201:0.26190478 202:0.71900827 203:0.55319148 204:0.19767442 205:0.92105263 206:0.71666664 207:0.53846157 208:0.58333331 209:0.33823529 210:0.38461539 211:0.95588237 212:0.85714287 213:0.73333335 214:0.8425926 215:0.64772725 216:0.36904761 217:0.75362319 218:0.7846154 219:0.8607595 220:0.77272725 221:0.73333335 222:0.61333334 223:0.578125 224:0.52542371 225:0.69863015 226:0.5625 227:0.33734939 228:0.52336448 229:0.84210527 230:0.79761904 231:0.82716048 232:0.5411765 233:0.33027524 234:0.44067797 235:0.80459768 236:0.75268817 237:0.57692307 238:0.47169811 239:0.32926831 240:0.34146342 241:0.84415585 242:0.94594592 243:0.67532468 244:0.38947368 245:0.34848484 246:0.49397591 247:1 248:1 249:0.78494626 250:0.74038464 251:0.64197528 252:0.55681819 253:0.62068963 254:0.67605633 255:0.78378379 256:0.61842108 257:0.51999998 258:0.49367088 259:0.75 260:0.65789473 261:0.66129035 262:0.63235295 263:0.63768119 264:0.64285713 265:0.64102566 266:0.63333333 267:0.7096774 268:0.58620691 269:0.52747256 270:0.74683547 271:0.58139533 272:0.43243244 273:0.62068963 274:0.44444445 275:0.40963855 276:0.82352942 277:0.65957445 278:0.421875 279:0.67567569 280:0.33663365 281:0.56716418 282:0.91525424 283:0.86885244 284:0.71875 285:0.66666669 286:0.63855422 287:0.61904764 288:0.82352942 
0.9477566238317114 1:0.31818181 2:0.65384614 3:0.54411763 4:0.56410259 5:0.5925926 6:0.59420288 7:0.29850745 8:0.39130434 9:0.45901638 10:0.43478259 11:0.71764708 12:0.59090906 13:0.16363636 14:0.35714287 15:0.23913044 16:0.47252747 17:0.75471699 18:0.75789475 19:0.43636364 20:0.52272725 21:0.19117647 22:0.53684211 23:0.6891892 24:0.78571427 25:0.3275862 26:0.43157893 27:0.30555555 28:0.33009708 29:0.57534248 30:0.69999999 31:0.37333333 32:0.37333333 33:0.50793654 34:0.33695653 35:0.53658539 36:0.5633803 37:0.22857143 38:0.34065935 39:0.50793654 40:0.43548387 41:0.46808511 42:0.38181818 43:0.32876712 44:0.27586207 45:0.17777778 46:0.33333334 47:0.54782611 48:0.472 49:0.42105263 50:0.29090908 51:0.055555556 52:0.21686748 53:0.29411766 54:0.35897437 55:0.62962961 56:0.66129035 57:0.26923078 58:0.33333334 59:0.28735632 60:0.20454545 61:0.5714286 62:0.63235295 63:0.54385966 64:0.31775701 65:0.36507937 66:0.31325302 67:0.61176473 68:0.40243903 69:0.20879121 70:0.17757009 71:0.2631579 72:0.20535715 73:0.34615386 74:0.27500001 75:0.58441556 76:0.46376812 77:0.34482759 78:0.31932774 79:0.41818181 80:0.50877196 81:0.61971831 82:0.43548387 83:0.36190477 84:0.45454547 85:0.32352942 86:0.37313432 87:0.29870129 88:0.21686748 89:0.28318584 90:0.3125 91:0.53424656 92:0.68965518 93:0.25757575 94:0.20588236 95:0.23255815 96:0.064102568 97:0.58426964 98:0.55263156 99:0.53658539 100:0.22471911 101:0.1882353 102:0.093333334 103:0.59677422 104:0.52439022 105:0.24731183 106:0.22340426 107:0.13253012 108:0.25316456 109:0.78181821 110:0.54411763 111:0.60869563 112:0.55384618 113:0.67796612 114:0.43820226 115:0.82222223 116:0.46666667 117:0.62337661 118:0.4556962 119:0.35714287 120:0.61165047 121:0.51612902 122:0.42105263 123:0.53968257 124:0.3392857 125:0.56179774 126:0.62162161 127:0.62857145 128:0.5714286 129:0.46938777 130:0.27777779 131:0.55172414 132:0.58666664 133:0.65079367 134:0.47826087 135:0.55555558 136:0.25 137:0.40000001 138:0.47692308 139:0.6769231 140:0.47169811 141:0.54838711 142:0.47297296 143:0.49206349 144:0.42028984 145:0.63636363 146:0.67241377 147:0.63157892 148:0.55555558 149:0.60784316 150:0.46376812 151:0.5 152:0.34782609 153:0.40384614 154:0.5535714 155:0.61702126 156:0.79069769 157:0.76785713 158:0.5625 159:0.41935483 160:0.38461539 161:0.71794873 162:0.73913044 163:0.7241379 164:0.5 165:0.30769232 166:0.46913579 167:0.60638297 168:0.78651685 169:0.72580647 170:0.48351648 171:0.32876712 172:0.375 173:0.22077923 174:0.55737704 175:0.77142859 176:0.31999999 177:0.45714286 178:0.45454547 179:0.3943662 180:0.4848485 181:0.48863637 182:0.65625 183:0.6785714 184:0.66666669 185:0.5 186:0.3611111 187:0.27142859 188:0.33333334 189:0.39622641 190:0.390625 191:0.32894737 192:0.26732674 193:0.5 194:0.58823532 195:0.30769232 196:0.36250001 197:0.38235295 198:0.34210527 199:0.625 200:0.71232879 201:0.23809524 202:0.43801653 203:0.61702126 204:0.36046511 205:0.68421054 206:0.71666664 207:0.64615387 208:0.33333334 209:0.44117647 210:0.42857143 211:0.38235295 212:0.37662336 213:0.41111112 214:0.4537037 215:0.29545453 216:0.22619048 217:0.57971013 218:0.64615387 219:0.72151899 220:0.72727275 221:0.61666667 222:0.37333333 223:0.296875 224:0.27118644 225:0.46575344 226:0.44999999 227:0.28915662 228:0.34579438 229:0.61842108 230:0.59523809 231:0.45679012 232:0.29411766 233:0.37614679 234:0.50847459 235:0.60919541 236:0.63440859 237:0.30769232 238:0.33018869 239:0.5 240:0.51219511 241:0.59740257 242:0.77027029 243:0.58441556 244:0.2736842 245:0.31818181 246:0.30120483 247:0.25806451 248:0.40277779 249:0.49462366 250:0.38461539 251:0.2962963 252:0.375 253:0.46551725 254:0.67605633 255:0.58108109 256:0.52631581 257:0.74000001 258:0.63291138 259:0.52083331 260:0.5 261:0.45161289 262:0.57352942 263:0.84057969 264:0.71428573 265:0.46153846 266:0.53333336 267:0.37096775 268:0.46551725 269:0.73626375 270:0.78481013 271:0.41860464 272:0.48648649 273:0.34482759 274:0.56790125 275:0.81927711 276:0.83823532 277:0.19148937 278:0.28125 279:0.3918919 280:0.37623763 281:0.50746268 282:0.94915253 283:0.59016395 284:0.359375 285:0.49382716 286:0.37349397 287:0.52380955 288:0.95588237 
0.06578442891255792 1:0.62121212 2:0.55769229 3:0.7647059 4:0.78205127 5:0.5 6:0.40579709 7:0.70149255 8:0.5869565 9:0.77049178 10:0.71014494 11:0.71764708 12:0.43181819 13:0.60000002 14:0.52380955 15:0.56521738 16:0.54945058 17:0.74528301 18:0.65263158 19:0.80000001 20:0.63636363 21:0.33823529 22:0.67368424 23:0.77027029 24:0.65476191 25:0.63793105 26:0.40000001 27:0.27777779 28:0.61165047 29:0.84931505 30:0.77499998 31:0.58666664 32:0.40000001 33:0.36507937 34:0.57608694 35:0.80487806 36:0.71830988 37:0.44761905 38:0.47252747 39:0.49206349 40:0.58064514 41:0.56382978 42:0.35454544 43:0.65753424 44:0.67241377 45:0.5777778 46:0.75 47:0.60000002 48:0.44800001 49:0.72368419 50:0.72727275 51:0.75925928 52:0.75903612 53:0.46078432 54:0.41025642 55:1 56:1 57:0.76923078 58:0.75609756 59:0.55172414 60:0.39772728 61:0.84523809 62:0.80882353 63:0.87719297 64:0.76635516 65:0.90476191 66:0.74698794 67:0.62352943 68:0.2682927 69:0.30769232 70:0.51401871 71:0.45614034 72:0.375 73:0.41025642 74:0.52499998 75:0.74025977 76:0.44927537 77:0.42528737 78:0.55462188 79:0.70909089 80:0.71929824 81:0.90140843 82:0.61290324 83:0.48571429 84:0.61983472 85:0.69117647 86:0.5970149 87:0.77922076 88:0.43373495 89:0.30088496 90:0.41964287 91:0.76712328 92:0.86206895 93:0.66666669 94:0.36274511 95:0.24418604 96:0.32051283 97:0.70786518 98:0.7368421 99:0.80487806 100:0.43820226 101:0.42352942 102:0.50666666 103:0.20967741 104:0.40243903 105:0.51612902 106:0.35106382 107:0.3493976 108:0.41772151 109:0.58181816 110:0.54411763 111:0.72463769 112:0.72307694 113:0.57627118 114:0.44943821 115:0.80000001 116:0.51111114 117:0.92207789 118:0.62025315 119:0.30357143 120:0.62135923 121:0.53225809 122:0.71052629 123:0.74603176 124:0.42857143 125:0.57303369 126:0.68468469 127:0.60000002 128:0.65306121 129:0.71428573 130:0.3611111 131:0.57471263 132:0.62666667 133:0.80952382 134:0.57971013 135:0.65079367 136:0.31666666 137:0.5 138:0.56923079 139:0.69230771 140:0.64150941 141:0.69354838 142:0.3918919 143:0.58730161 144:0.47826087 145:0.63636363 146:0.62068963 147:0.68421054 148:0.6388889 149:0.33333334 150:0.37681159 151:0.64583331 152:0.43478259 153:0.46153846 154:0.5714286 155:0.53191489 156:0.68604654 157:0.6964286 158:0.4375 159:0.38709676 160:0.56923079 161:0.69230771 162:0.69565219 163:0.68965518 164:0.4375 165:0.26923078 166:0.61728394 167:0.58510637 168:0.87640452 169:0.64516127 170:0.43956044 171:0.20547946 172:0.60000002 173:0.51948053 174:0.77049178 175:0.67142856 176:0.38666666 177:0.35714287 178:0.625 179:0.8309859 180:0.75757575 181:0.80681819 182:0.765625 183:0.6785714 184:0.80952382 185:0.66129035 186:0.41666666 187:0.62857145 188:0.57894737 189:0.73584908 190:0.84375 191:0.55263156 192:0.43564355 193:0.875 194:0.86764705 195:0.84615386 196:0.78750002 197:0.51960784 198:0.37719297 199:0.83333331 200:0.76712328 201:0.71428573 202:0.82644629 203:0.84042555 204:0.38372093 205:0.96052629 206:0.98333335 207:0.86153847 208:0.83333331 209:0.7647059 210:0.63736266 211:0.7352941 212:0.5714286 213:0.55555558 214:0.75925928 215:0.80681819 216:0.61904764 217:0.59420288 218:0.75384617 219:0.83544302 220:0.66666669 221:0.78333336 222:0.65333331 223:0.5625 224:0.66101694 225:0.79452056 226:0.625 227:0.3253012 228:0.46728972 229:0.92105263 230:0.86904764 231:0.97530866 232:0.44705883 233:0.29357797 234:0.5 235:0.79310346 236:0.78494626 237:0.75641024 238:0.4245283 239:0.40243903 240:0.58536583 241:0.93506491 242:1 243:0.94805193 244:0.40000001 245:0.40909091 246:0.56626505 247:0.5 248:0.69444442 249:0.77419353 250:0.60576922 251:0.71604937 252:0.625 253:0.44827586 254:0.61971831 255:0.62162161 256:0.61842108 257:0.5 258:0.50632912 259:0.60416669 260:0.5 261:0.51612902 262:0.52941179 263:0.76811594 264:0.67142856 265:0.58974361 266:0.33333334 267:0.43548387 268:0.44827586 269:0.73626375 270:0.73417723 271:0.46511629 272:0.27027026 273:0.34482759 274:0.41975307 275:0.86746991 276:1 277:0.59574467 278:0.359375 279:0.44594595 280:0.28712872 281:0.49253732 282:0.84745765 283:0.54098362 284:0.625 285:0.55555558 286:0.42168674 287:0.63492066 288:0.75 
0.3779123856714262 1:0.36363637 2:0.67307693 3:0.66176468 4:0.52564102 5:0.2037037 6:0.884058 7:0.56716418 8:0.54347825 9:0.6885246 10:0.39130434 11:0.17647059 12:0.82954544 13:0.60000002 14:0.9285714 15:0.71739131 16:0.21978022 17:0.056603774 18:0.82105261 19:0.67272729 20:0.90909094 21:0.45588234 22:0.28421053 23:0.27027026 24:0.73809522 25:0.60344827 26:0.40000001 27:0.2361111 28:0.23300971 29:0.5479452 30:0.67500001 31:0.37333333 32:0.25333333 33:0.30158731 34:0.18478261 35:0.32926831 36:0.47887325 37:0.11428571 38:0.34065935 39:0.5714286 40:0.32258064 41:0.095744684 42:0.15454546 43:0.47945204 44:0.62068963 45:0.8888889 46:0.30000001 47:0.09565217 48:0.104 49:0.90789473 50:0.65454543 51:0.85185188 52:0.31325302 53:0.029411765 54:0.14529915 55:0.91358024 56:0.90322578 57:0.75 58:0.26016259 59:0.47126436 60:0.47727272 61:0.89285713 62:0.82352942 63:0.82456142 64:0.28037384 65:0.095238097 66:0.26506025 67:0.58823532 68:0.48780489 69:0.82417583 70:0.81308413 71:0.67543858 72:0.58035713 73:0.21794872 74:0.175 75:0.58441556 76:0.42028984 77:0.13793103 78:0.10084034 79:0.65454543 80:0.3508772 81:0.63380283 82:0.41935483 83:0.076190479 84:0.14876033 85:0.82352942 86:0.43283582 87:0.50649351 88:0.3493976 89:0.10619469 90:0.13392857 91:0.61643833 92:0.64367819 93:0.18181819 94:0.18627451 95:0.27906978 96:0.2820513 97:0.56179774 98:0.34210527 99:0.34146342 100:0.20224719 101:0.070588239 102:0.13333334 103:0.40322581 104:0.32926831 105:0.096774191 106:0.22340426 107:0.048192769 108:0.30379745 109:0.34545454 110:0.54411763 111:0.63768119 112:0.76923078 113:0.84745765 114:0.55056179 115:0.53333336 116:0.48888889 117:0.76623374 118:0.74683547 119:0.44642857 120:0.34951457 121:0.53225809 122:0.7368421 123:0.65079367 124:0.76785713 125:0.25842696 126:0.26126125 127:0.77142859 128:0.77551019 129:0.51020408 130:0.5138889 131:0.31034482 132:0.36000001 133:1 134:0.50724638 135:0.38095239 136:0.44999999 137:0.5 138:0.44615385 139:0.93846154 140:0.39622641 141:0.25806451 142:0.35135135 143:0.46031746 144:0.24637681 145:0.39393941 146:0.51724136 147:0.3859649 148:0.52777779 149:0.43137255 150:0.59420288 151:0.0625 152:0.34782609 153:0.25 154:0.375 155:0.19148937 156:0.43023255 157:0.44642857 158:0.625 159:0.41935483 160:0.47692308 161:0.11538462 162:0.14782609 163:0.36206895 164:0.39583334 165:0.15384616 166:0.4074074 167:0.32978722 168:0.26966292 169:0.45161289 170:0.43956044 171:0.1369863 172:0.21250001 173:0.32467532 174:0.55737704 175:0.62857145 176:0.22666667 177:0.17142858 178:0.23863636 179:0.35211268 180:0.34848484 181:0.89772725 182:0.875 183:0.78571427 184:0.66666669 185:0.67741936 186:0.625 187:0.5 188:0.45614034 189:0.64150941 190:0.578125 191:0.02631579 192:0.07920792 193:0.86250001 194:0.7647059 195:0.8974359 196:0.375 197:0.019607844 198:0.061403509 199:0.875 200:0.79452056 201:0.71428573 202:0.32231405 203:0.12765957 204:0.24418604 205:0.96052629 206:1 207:0.81538463 208:0.1875 209:0.073529415 210:0.46153846 211:0.45588234 212:0.3116883 213:0.18888889 214:0.16666667 215:0 216:0.011904762 217:0.23188406 218:0.35384616 219:0.73417723 220:0.5 221:0.28333333 222:0.17333333 223:0.453125 224:0.33898306 225:0.68493152 226:0.51249999 227:0.024096385 228:0.093457945 229:0.78947371 230:0.59523809 231:0.7037037 232:0.30588236 233:0.027522936 234:0.11016949 235:0.7011494 236:0.48387095 237:0.26923078 238:0.23584905 239:0.024390243 240:0.036585364 241:0.59740257 242:0.63513511 243:0.48051947 244:0.10526316 245:0.10606061 246:0.10843374 247:0.25806451 248:0.18055555 249:0.17204301 250:0.13461539 251:0.098765433 252:0.06818182 253:0.41379312 254:0.69014084 255:0.63513511 256:0.5 257:0.56 258:0.91139239 259:0.625 260:0.68421054 261:0.54838711 262:0.19117647 263:0.33333334 264:0.8142857 265:0.61538464 266:0.5 267:0.58064514 268:0.1724138 269:0.0989011 270:0.55696201 271:0.44186047 272:0.2972973 273:0.31034482 274:0.22222222 275:0.096385539 276:0.85294116 277:0.53191489 278:0.296875 279:0.25675675 280:0.24752475 281:0.55223882 282:0.84745765 283:0.40983605 284:0.296875 285:0.24691358 286:0.20481928 287:0.38095239 288:0.32352942 
1.16531958377499 1:0.74242425 2:0.73076922 3:0 4:0 5:0.2962963 6:0.9130435 7:0.83582091 8:0.43478259 9:0.016393442 10:0.2173913 11:0.57647061 12:1 13:0.63636363 14:0 15:0.13043478 16:0.43956044 17:0.5754717 18:0.84210527 19:0.72727275 20:0.52272725 21:0.38235295 22:0.63157892 23:0.63513511 24:0.89285713 25:0.48275861 26:0.38947368 27:0.70833331 28:0.73786408 29:0.4520548 30:0.85000002 31:0.2 32:0.47999999 33:1 34:0.71739131 35:0.32926831 36:0.6056338 37:0.38095239 38:0.36263737 39:0.063492067 40:0 41:0.54255319 42:0.69999999 43:0.2739726 44:0.22413793 45:0.06666667 46:0.80000001 47:1 48:1 49:0.013157895 50:0 51:0.53703701 52:0.66265059 53:1 54:1 55:0 56:0 57:0.71153843 58:0.79674798 59:1 60:1 61:0 62:0.14705883 63:0.92982459 64:0.85981309 65:0.5714286 66:0.62650603 67:0.40000001 68:0.46341464 69:0.91208792 70:0.86915886 71:0.57894737 72:0.54464287 73:0.58974361 74:0.33750001 75:0 76:0.2173913 77:0.52873564 78:0.56302524 79:0.40000001 80:0.3508772 81:0 82:1 83:1 84:1 85:0.29411766 86:0 87:0 88:0.84337348 89:1 90:1 91:0 92:0 93:0 94:0.98039216 95:1 96:1 97:0.13483146 98:0 99:0.48780489 100:0.95505619 101:0.74117649 102:0.51999998 103:0.56451613 104:0.64634144 105:0.69892472 106:0.91489363 107:0.71084338 108:0.59493673 109:0.89090908 110:1 111:0 112:0 113:0.55932206 114:0.51685393 115:0.8888889 116:1 117:0 118:0.2278481 119:0.78571427 120:0.80582523 121:0.62903225 122:1 123:0 124:0.4107143 125:0.5955056 126:0.74774772 127:0.65714288 128:0.79591835 129:0.081632651 130:0.6111111 131:0.62068963 132:0.73333335 133:0.66666669 134:0.57971013 135:0.66666669 136:0.98333335 137:0.74285716 138:0.75384617 139:0.60000002 140:0.39622641 141:0.93548387 142:1 143:0.98412699 144:0.49275362 145:0.83333331 146:0.89655173 147:0.24561404 148:0 149:0.21568628 150:0.65217394 151:0.625 152:0.82608694 153:0.03846154 154:0.053571429 155:0.74468082 156:0.82558137 157:0.5535714 158:0.625 159:0.19354838 160:0.40000001 161:0.79487181 162:0.71304345 163:0.56896549 164:0.9375 165:0.38461539 166:0.69135803 167:0.82978725 168:0.77528089 169:0.12903225 170:0.60439563 171:0.63013697 172:0.88749999 173:0.62337661 174:0.55737704 175:0.31428573 176:0.41333333 177:1 178:1 179:0.66197181 180:0.4848485 181:0.64772725 182:0.65625 183:0.2857143 184:0.12698413 185:0.19354838 186:0.58333331 187:0.27142859 188:0.47368422 189:0 190:0.515625 191:1 192:1 193:0.075000003 194:0 195:0 196:0.48750001 197:1 198:1 199:0 200:0 201:0.33333334 202:0.71074378 203:1 204:1 205:0 206:0.050000001 207:0.44615385 208:0.76041669 209:0.60294116 210:0.6813187 211:0 212:0.42857143 213:0.82222223 214:0.87962961 215:0.54545456 216:0.34523809 217:0.57971013 218:0.46153846 219:0.37974682 220:0.45454547 221:0.25 222:0.29333332 223:0.34375 224:0.10169491 225:0 226:0.83749998 227:1 228:1 229:0 230:0 231:0 232:0.81176472 233:1 234:1 235:0 236:0 237:0.11538462 238:0.8773585 239:1 240:1 241:0.12987013 242:0 243:0.29870129 244:0.88421053 245:0.71212119 246:0.66265059 247:0.25806451 248:0.31944445 249:0.88172042 250:1 251:0.5925926 252:0.42045453 253:0.75862068 254:0.61971831 255:0.067567565 256:0.34210527 257:0.60000002 258:0.68354428 259:0.89583331 260:0.47368422 261:0 262:0.54411763 263:0.81159419 264:0.80000001 265:0.66666669 266:0.46666667 267:0 268:0.91379309 269:0.73626375 270:0.78481013 271:0.58139533 272:0.62162161 273:0.34482759 274:0.93827158 275:0.73493975 276:0.80882353 277:0.44680852 278:0 279:0.63513511 280:0.88118809 281:0.53731346 282:1 283:0.42622951 284:0.578125 285:1 286:1 287:0.49206349 288:0.57352942 
0.6755012691489074 1:0.56060606 2:0.80769229 3:0.60294116 4:0.66666669 5:0.48148149 6:0.17391305 7:0.5970149 8:0.65217394 9:0.54098362 10:0.60869563 11:0.7764706 12:0.19318181 13:0.56363636 14:0.42857143 15:0.23913044 16:0.54945058 17:0.71698111 18:0.61052632 19:0.67272729 20:0.52272725 21:0 22:0.62105262 23:0.87837839 24:0.69047618 25:0.58620691 26:0.41052631 27:0.11111111 28:0.57281554 29:0.86301368 30:0.46250001 31:0.40000001 32:0.38666666 33:0.41269842 34:0.45652175 35:0.597561 36:0.12676056 37:0.40000001 38:0.54945058 39:0.76190478 40:0.77419353 41:0.68085104 42:0.4909091 43:0.50684929 44:0.51724136 45:0.42222223 46:0.58333331 47:0.48695651 48:0.40799999 49:0.68421054 50:0.63636363 51:0.44444445 52:0.6506024 53:0.42156863 54:0.43589744 55:0.8888889 56:0.59677422 57:0.1923077 58:0.65040648 59:0.55172414 60:0.52272725 61:0.8214286 62:0.67647058 63:0.45614034 64:0.58878505 65:0.5714286 66:0.6987952 67:0.80000001 68:0.40243903 69:0.29670331 70:0.42990655 71:0.31578946 72:0.33035713 73:0.46153846 74:0.53750002 75:0.83116883 76:0.69565219 77:0.57471263 78:0.59663868 79:0.61818182 80:0.59649122 81:0.66197181 82:0.38709676 83:0.30476192 84:0.51239669 85:0.72058821 86:0.52238804 87:0.63636363 88:0.37349397 89:0.24778761 90:0.4017857 91:0.75342464 92:0.68965518 93:0.40909091 94:0.37254903 95:0.37209302 96:0.41025642 97:0.69662923 98:0.59210527 99:0.58536583 100:0.35955057 101:0.36470589 102:0.49333334 103:0.45161289 104:0.47560975 105:0.43010753 106:0.36170211 107:0.28915662 108:0.4556962 109:0.65454543 110:0.67647058 111:0.71014494 112:0.66153848 113:0.66101694 114:0.57303369 115:0.73333335 116:0.73333335 117:0.77922076 118:0.46835443 119:0.26785713 120:0.67961162 121:0.45161289 122:0.60526317 123:0.71428573 124:0.39285713 125:0.5955056 126:0.7027027 127:0.44285715 128:0.81632656 129:0.53061223 130:0.22222222 131:0.68965518 132:0.65333331 133:0.44444445 134:0.68115944 135:0.60317463 136:0.18333334 137:0.44285715 138:0.55384618 139:0.38461539 140:0.58490568 141:0.58064514 142:0.45945945 143:0.5714286 144:0.49275362 145:0.46969697 146:0.65517241 147:0.7719298 148:0.55555558 149:0.58823532 150:0.43478259 151:0.41666666 152:0.52173913 153:0.55769229 154:0.76785713 155:0.65957445 156:0.79069769 157:0.60714287 158:0.5625 159:0.16129032 160:0.63076925 161:0.73076922 162:0.77391303 163:0.5 164:0.77083331 165:0.23076923 166:0.61728394 167:0.65957445 168:0.77528089 169:0.24193548 170:0.51648355 171:0.26027396 172:0.58749998 173:0.62337661 174:0.52459013 175:0.47142857 176:0.36000001 177:0.34285715 178:0.57954544 179:0.70422536 180:0.43939394 181:0.625 182:0.640625 183:0.60714287 184:0.71428573 185:0.5 186:0.3888889 187:0.45714286 188:0.52631581 189:0.52830189 190:0.640625 191:0.47368422 192:0.39603961 193:0.77499998 194:0.72058821 195:0.53846157 196:0.73750001 197:0.50980395 198:0.41228071 199:0.8611111 200:0.71232879 201:0.16666667 202:0.70247936 203:0.70212764 204:0.61627907 205:0.90789473 206:0.66666669 207:0.50769234 208:0.63541669 209:0.57352942 210:0.62637365 211:0.69117647 212:0.53246754 213:0.60000002 214:0.73148149 215:0.56818181 216:0.5714286 217:0.53623188 218:0.66153848 219:0.69620252 220:0.63636363 221:0.64999998 222:0.56 223:0.5625 224:0.54237288 225:0.61643833 226:0.53750002 227:0.31325302 228:0.57943922 229:0.90789473 230:0.76190478 231:0.80246913 232:0.41176471 233:0.28440368 234:0.60169494 235:0.87356323 236:0.73118281 237:0.56410259 238:0.4245283 239:0.62195122 240:0.65853661 241:0.72727275 242:0.7972973 243:0.63636363 244:0.35789475 245:0.530303 246:0.71084338 247:0.37096775 248:0.54166669 249:0.7096774 250:0.61538464 251:0.60493827 252:0.81818181 253:0.53448278 254:0.69014084 255:0.6891892 256:0.60526317 257:0.62 258:0.36708862 259:0.75 260:0.71052629 261:0.56451613 262:0.58823532 263:0.79710144 264:0.42857143 265:0.71794873 266:0.46666667 267:0.41935483 268:0.46551725 269:0.72527474 270:0.63291138 271:0.69767439 272:0.5945946 273:0.44827586 274:0.46913579 275:0.66265059 276:0.47058824 277:0.44680852 278:0.328125 279:0.41891891 280:0.25742576 281:0.35820895 282:0.57627118 283:0.37704918 284:0.375 285:0.46913579 286:0.36144578 287:0.50793654 288:0.5147059 
0.2437836149248811 1:0.72727275 2:0.75 3:0.97058821 4:0.91025639 5:0.62962961 6:0.14492753 7:0.67164177 8:0.54347825 9:0.67213112 10:0.69565219 11:0.82352942 12:0.25 13:0.65454543 14:0.5 15:0.67391306 16:0.64835167 17:0.8018868 18:0.61052632 19:0.70909089 20:0.56818181 21:0.22058824 22:0.64210528 23:0.7972973 24:0.4642857 25:0.65517241 26:0.41052631 27:0.30555555 28:0.52427185 29:0.80821919 30:0.77499998 31:0.47999999 32:0.33333334 33:0.36507937 34:0.52173913 35:1 36:0.66197181 37:0.32380953 38:0.49450549 39:0.74603176 40:0.62903225 41:0.65957445 42:0.60000002 43:0.52054793 44:0.43103448 45:0.53333336 46:0.56666666 47:0.4173913 48:0.40799999 49:0.71052629 50:0.70909089 51:0.81481481 52:0.61445785 53:0.44117647 54:0.46153846 55:0.95061731 56:0.82258064 57:0.5 58:0.53658539 59:0.37931034 60:0.39772728 61:0.86904764 62:0.75 63:0.82456142 64:0.53271025 65:0.93650794 66:0.85542166 67:0.47058824 68:0.21951219 69:0.25274727 70:0.34579438 71:0.49122807 72:0.4017857 73:0.58974361 74:0.55000001 75:0.8051948 76:0.60869563 77:0.49425286 78:0.53781515 79:0.69090909 80:0.57894737 81:0.73239434 82:0.5 83:0.2857143 84:0.40495867 85:0.80882353 86:0.5970149 87:0.67532468 88:0.49397591 89:0.4159292 90:0.59821427 91:0.73972601 92:0.77011496 93:0.36363637 94:0.34313726 95:0.24418604 96:0.3974359 97:0.74157304 98:0.69736844 99:0.64634144 100:0.38202247 101:0.24705882 102:0.34666666 103:0.20967741 104:0.24390244 105:0.27956989 106:0.25531915 107:0.096385539 108:0.25316456 109:0.60000002 110:0.75 111:0.884058 112:0.73846155 113:0.79661018 114:0.48314607 115:0.5777778 116:0.55555558 117:0.74025977 118:0.54430377 119:0.32142857 120:0.52427185 121:0.27419356 122:0.65789473 123:0.85714287 124:0.85714287 125:0.53932583 126:0.58558559 127:0.38571429 128:0.65306121 129:0.73469388 130:0.3888889 131:0.49425286 132:0.50666666 133:0.53968257 134:0.56521738 135:0.58730161 136:0.51666665 137:0.30000001 138:0.49230769 139:0.43076923 140:0.5471698 141:0.54838711 142:0.35135135 143:0.38095239 144:0.33333334 145:0.39393941 146:0.7241379 147:0.91228068 148:0.81944442 149:0.54901963 150:0.46376812 151:0.25 152:0.39130434 153:0.65384614 154:0.73214287 155:0.72340423 156:0.93023258 157:0.3392857 158:0.5 159:0.48387095 160:0.58461541 161:0.65384614 162:0.8347826 163:0.29310346 164:0.52083331 165:0.36538461 166:0.54320985 167:0.62765956 168:0.95505619 169:0.29032257 170:0.47252747 171:0.369863 172:0.52499998 173:0.45454547 174:0.91803277 175:0.45714286 176:0.34666666 177:0.40000001 178:0.59090906 179:0.91549295 180:0.81818181 181:0.57954544 182:0.53125 183:0.53571427 184:0.55555558 185:0.3548387 186:0.2361111 187:0.58571428 188:0.64912283 189:0.8490566 190:0.71875 191:0.42105263 192:0.36633664 193:0.75 194:0.64705884 195:0.64102566 196:0.67500001 197:0.53921568 198:0.57017541 199:0.83333331 200:0.80821919 201:0.64285713 202:0.60330576 203:0.71276593 204:0.52325583 205:0.93421054 206:0.86666667 207:0.76923078 208:0.52083331 209:0.89705884 210:0.8901099 211:0.5147059 212:0.41558442 213:0.45555556 214:0.5925926 215:0.81818181 216:0.6785714 217:0.53623188 218:0.50769234 219:0.70886075 220:0.59090906 221:0.40000001 222:0.33333334 223:0.671875 224:0.61016947 225:0.76712328 226:0.6875 227:0.27710843 228:0.52336448 229:0.88157892 230:0.76190478 231:0.83950615 232:0.57647061 233:0.34862384 234:0.50847459 235:0.87356323 236:0.80645162 237:0.6025641 238:0.50943398 239:0.57317072 240:0.70731705 241:0.87012988 242:0.9054054 243:0.75324672 244:0.46315789 245:0.39393941 246:0.54216868 247:0.45161289 248:0.54166669 249:0.50537634 250:0.46153846 251:0.34567901 252:0.39772728 253:0.86206895 254:0.77464789 255:0.7027027 256:0.7368421 257:0.72000003 258:0.34177214 259:0.85416669 260:0.57894737 261:0.51612902 262:0.61764705 263:0.76811594 264:0.42857143 265:0.53846157 266:0.30000001 267:0.51612902 268:0.62068963 269:0.71428573 270:0.50632912 271:0.60465115 272:0.35135135 273:0.43103448 274:0.56790125 275:0.83132529 276:0.54411763 277:0.59574467 278:0.359375 279:0.41891891 280:0.38613862 281:0.35820895 282:0.47457626 283:0.47540984 284:0.484375 285:0.48148149 286:0.36144578 287:0.30158731 288:0.5147059 
0.01469575379020764 1:0.5151515 2:0.90384614 3:0.61764705 4:0.64102566 5:0.57407409 6:0.57971013 7:0.67164177 8:0.76086956 9:0.44262296 10:0.39130434 11:0.29411766 12:0.70454544 13:0.60000002 14:0.83333331 15:0.56521738 16:0.34065935 17:0.056603774 18:0.78947371 19:0.76363635 20:0.86363637 21:0.22058824 22:0.17894737 23:0.067567565 24:0.78571427 25:0.67241377 26:0.37894738 27:0.1388889 28:0.13592233 29:0.39726028 30:0.76249999 31:0.44 32:0.37333333 33:0.23809524 34:0.032608695 35:0.65853661 36:0.77464789 37:0.19047619 38:0.45054945 39:0.82539684 40:0.61290324 41:0.32978722 42:0.29090908 43:0.52054793 44:0.65517241 45:0.60000002 46:0.30000001 47:0.17391305 48:0.21600001 49:0.65789473 50:0.45454547 51:0.46296296 52:0.26506025 53:0.029411765 54:0.17094018 55:0.82716048 56:0.7096774 57:0.44230768 58:0.16260162 59:0.20689656 60:0.29545453 61:0.79761904 62:0.67647058 63:0.50877196 64:0.20560747 65:0.33333334 66:0.53012049 67:0.80000001 68:0.58536583 69:0.50549453 70:0.44859812 71:0.51754385 72:0.5625 73:0.33333334 74:0.33750001 75:0.74025977 76:0.78260869 77:0.50574714 78:0.23529412 79:0.83636361 80:0.61403507 81:0.76056337 82:0.59677422 83:0.20952381 84:0.19008264 85:0.7647059 86:0.3283582 87:0.46753246 88:0.48192772 89:0.097345136 90:0.14285715 91:0.69863015 92:0.7011494 93:0.1969697 94:0.20588236 95:0.11627907 96:0.17948718 97:0.75280899 98:0.61842108 99:0.41463414 100:0.15730338 101:0.31764707 102:0.45333335 103:1 104:0.67073172 105:0.49462366 106:0.62765956 107:0.49397591 108:0.44303799 109:0.43636364 110:0.69117647 111:0.68115944 112:0.70769233 113:0.86440676 114:0.31460676 115:0.60000002 116:0.64444447 117:0.72727275 118:0.50632912 119:0.32142857 120:0.27184466 121:0.38709676 122:0.89473683 123:0.71428573 124:0.8035714 125:0.23595506 126:0.12612613 127:0.37142858 128:0.81632656 129:0.55102038 130:0.41666666 131:0.21839081 132:0.12 133:0.34920636 134:0.49275362 135:0.47619048 136:0.25 137:0.30000001 138:0.50769234 139:0.21538462 140:0.41509435 141:0.29032257 142:0.25675675 143:0.50793654 144:0.43478259 145:0.43939394 146:0.75862068 147:0.57894737 148:0.68055558 149:0.58823532 150:0.43478259 151:0.16666667 152:0.54347825 153:0.5 154:0.75 155:0.38297874 156:0.41860464 157:0.375 158:0.46875 159:0.096774191 160:0.47692308 161:0.1025641 162:0.078260869 163:0.20689656 164:0.58333331 165:0.096153848 166:0.25925925 167:0.20212767 168:0.12359551 169:0.12903225 170:0.47252747 171:0.16438356 172:0.15000001 173:0.064935066 174:0.49180329 175:0.17142858 176:0.34666666 177:0.31428573 178:0.22727273 179:0.61971831 180:1 181:0.65909094 182:0.65625 183:0.85714287 184:0.92063493 185:0.85483873 186:0.68055558 187:0.44285715 188:0.49122807 189:0.66037738 190:0.53125 191:0.19736843 192:0.22772278 193:0.69999999 194:0.57352942 195:0.56410259 196:0.38749999 197:0 198:0.061403509 199:0.56944442 200:0.56164384 201:0 202:0.1570248 203:0 204:0.093023255 205:0.86842108 206:0.68333334 207:0.52307695 208:0 209:0.029411765 210:0.46153846 211:0.66176468 212:0.53246754 213:0.41111112 214:0.21296297 215:0.26136363 216:0.19047619 217:0.85507244 218:0.84615386 219:0.89873415 220:0.83333331 221:0.81666666 222:0.66666669 223:0.75 224:0.61016947 225:0.68493152 226:0.5625 227:0.15662651 228:0.21495327 229:0.90789473 230:0.70238096 231:0.61728394 232:0.41176471 233:0.018348623 234:0.11016949 235:0.80459768 236:0.58064514 237:0.15384616 238:0.14150943 239:0.048780486 240:0.085365854 241:0.85714287 242:0.78378379 243:0.44155845 244:0.063157894 245:0.31818181 246:0.42168674 247:0.72580647 248:0.4861111 249:0.33333334 250:0.15384616 251:0.24691358 252:0.18181819 253:0.63793105 254:0.8309859 255:0.7027027 256:0.60526317 257:0.5 258:0.59493673 259:0.91666669 260:0.94736844 261:0.61290324 262:0.45588234 263:0.26086956 264:0.35714287 265:0.92307693 266:0.73333335 267:0.41935483 268:0.27586207 269:0 270:0.06329114 271:0.55813956 272:0.62162161 273:0.086206898 274:0.086419754 275:0 276:0.014705882 277:0.63829786 278:0.375 279:0.067567565 280:0.07920792 281:0.19402985 282:0.30508474 283:0.62295079 284:0.4375 285:0.16049382 286:0.036144577 287:0.49206349 288:0.30882353 
0.3226824875295405 1:0.45454547 2:0.76923078 3:0.85294116 4:0.78205127 5:0.2962963 6:0.66666669 7:0.74626863 8:0.69565219 9:0.72131145 10:0.49275362 11:0.2 12:0.82954544 13:0.69090909 14:1 15:0.78260869 16:0.31868133 17:0.16037735 18:0.84210527 19:0.78181821 20:0.70454544 21:0.39705881 22:0.14736842 23:0.1891892 24:0.85714287 25:0.65517241 26:0.33684212 27:0.18055555 28:0.33980581 29:0.6438356 30:0.91250002 31:0.23999999 32:0.093333334 33:0.079365082 34:0.17391305 35:0.58536583 36:0.66197181 37:0.085714288 38:0.31868133 39:0.63492066 40:0.61290324 41:0.26595744 42:0.07272727 43:0.43835616 44:0.56896549 45:0.73333335 46:0.69999999 47:0.14782609 48:0.071999997 49:0.71052629 50:0.61818182 51:0.87037039 52:0.40963855 53:0.078431375 54:0.15384616 55:0.83950615 56:0.85483873 57:0.80769229 58:0.26016259 59:0.22988506 60:0.23863636 61:0.76190478 62:0.66176468 63:0.66666669 64:0.47663552 65:0.71428573 66:0.49397591 67:0.51764709 68:0.37804878 69:0.48351648 70:0.66355139 71:0.7280702 72:0.49107143 73:0.21794872 74:0.21250001 75:0.74025977 76:0.68115944 77:0.34482759 78:0.12605043 79:0.83636361 80:0.50877196 81:0.81690139 82:0.85483873 83:0.15238096 84:0.18181819 85:0.95588237 86:0.53731346 87:0.6883117 88:0.60240966 89:0.15044248 90:0.1875 91:0.86301368 92:0.80459768 93:0.56060606 94:0.29411766 95:0.12790698 96:0.23076923 97:0.69662923 98:0.57894737 99:0.51219511 100:0.33707866 101:0.56470591 102:0.72000003 103:0.7903226 104:0.5487805 105:0.40860215 106:0.44680852 107:0.42168674 108:0.87341774 109:0.23636363 110:0.5 111:0.79710144 112:0.92307693 113:0.84745765 114:0.19101124 115:0.46666667 116:0.44444445 117:0.87012988 118:0.75949365 119:0.30357143 120:0.25242719 121:0.43548387 122:0.89473683 123:0.84126985 124:1 125:0.26966292 126:0.25225225 127:0.32857144 128:0.63265306 129:0.69387758 130:0.55555558 131:0.18390805 132:0.18666667 133:0.3968254 134:0.44927537 135:0.33333334 136:0.40000001 137:0.60000002 138:0.49230769 139:0 140:0.11320755 141:0.064516127 142:0.2027027 143:0.55555558 144:0.37681159 145:0.30303031 146:0.56896549 147:0.64912283 148:0.625 149:0.19607843 150:0.1884058 151:0.16666667 152:0.45652175 153:0.42307693 154:0.64285713 155:0.021276595 156:0.22093023 157:0.30357143 158:0.5625 159:0.54838711 160:0.55384618 161:0.064102568 162:0.11304348 163:0.068965517 164:0.29166666 165:0.26923078 166:0.38271606 167:0.18085106 168:0.13483146 169:0.064516127 170:0.41758242 171:0.23287672 172:0.26249999 173:0.23376623 174:0.16393442 175:0 176:0.079999998 177:0.071428575 178:0.22727273 179:0.3943662 180:0.27272728 181:0.59090906 182:0.515625 183:0.9285714 184:0.8888889 185:0.77419353 186:0.625 187:0.40000001 188:0.42105263 189:0.75471699 190:0.859375 191:0.11842106 192:0.13861386 193:0.73750001 194:0.58823532 195:0.69230771 196:0.55000001 197:0.05882353 198:0.061403509 199:0.69444442 200:0.58904111 201:0.80952382 202:0.29752067 203:0.05319149 204:0.069767445 205:0.89473683 206:0.81666666 207:0.70769233 208:0.3125 209:0.5 210:0.51648355 211:0.23529412 212:0.20779221 213:0.15555556 214:0.41666666 215:0.77272725 216:0.52380955 217:0.9130435 218:0.92307693 219:0.82278478 220:1 221:0.78333336 222:0.60000002 223:0.65625 224:0.50847459 225:0.83561641 226:0.76249999 227:0.10843374 228:0 229:0.92105263 230:0.75 231:0.82716048 232:0.49411765 233:0.036697246 234:0 235:0.79310346 236:0.7096774 237:0.51282054 238:0.23584905 239:0 240:0.036585364 241:0.85714287 242:0.8918919 243:0.59740257 244:0.17894737 245:0.34848484 246:0.45783132 247:0.27419356 248:0.2638889 249:0.21505377 250:0.46153846 251:0.55555558 252:0.65909094 253:0.39655173 254:0.66197181 255:0.62162161 256:0.55263156 257:0.2 258:0.77215189 259:0.75 260:0.65789473 261:0.59677422 262:0.41176471 263:0.086956523 264:0.38571429 265:1 266:0.56666666 267:0.67741936 268:0.34482759 269:0.043956045 270:0.1392405 271:0.41860464 272:0.37837839 273:0.37931034 274:0.17283951 275:0.012048192 276:0.11764706 277:0.55319148 278:0.28125 279:0.2027027 280:0.22772278 281:0.26865673 282:0.11864407 283:0.3114754 284:0.140625 285:0.098765433 286:0.21686748 287:0.23809524 288:0.27941176 
0.2101395963192548 1:0.69696969 2:0.71153843 3:0.80882353 4:0.85897434 5:0.5925926 6:0.13043478 7:0.71641791 8:0.69565219 9:0.72131145 10:0.69565219 11:0.7764706 12:0.13636364 13:0.56363636 14:0.52380955 15:0.67391306 16:0.64835167 17:0.82075471 18:0.70526314 19:0.63636363 20:0.63636363 21:0.44117647 22:0.63157892 23:0.8918919 24:0.70238096 25:0.74137932 26:0.51578945 27:0.44444445 28:0.39805827 29:0.56164384 30:0.52499998 31:0.51999998 32:0.37333333 33:0.36507937 34:0.32608697 35:0.56097561 36:0.38028169 37:0.42857143 38:0.53846157 39:0.6825397 40:0.58064514 41:0.5106383 42:0.37272727 43:0.58904111 44:0.48275861 45:0.42222223 46:0.46666667 47:0.56521738 48:0.472 49:0.72368419 50:0.69090909 51:0.77777779 52:0.63855422 53:0.52941179 54:0.47863248 55:0.82716048 56:0.7903226 57:0.86538464 58:0.54471546 59:0.45977011 60:0.42045453 61:0.98809522 62:0.97058821 63:0.84210527 64:0.43925235 65:0.50793654 66:0.48192772 67:0.70588237 68:0.30487806 69:0.27472529 70:0.42990655 71:0.49122807 72:0.52678573 73:0.57692307 74:0.52499998 75:0.8051948 76:0.60869563 77:0.39080459 78:0.49579832 79:0.72727275 80:0.56140351 81:0.67605633 82:0.5 83:0.40952381 84:0.61157024 85:0.67647058 86:0.61194032 87:0.79220778 88:0.62650603 89:0.43362832 90:0.5714286 91:0.60273975 92:0.71264368 93:0.69696969 94:0.4509804 95:0.33720931 96:0.38461539 97:0.86516851 98:0.92105263 99:0.73170733 100:0.26966292 101:0.23529412 102:0.31999999 103:0.37096775 104:0.40243903 105:0.37634408 106:0.36170211 107:0.19277108 108:0.51898736 109:0.65454543 110:0.61764705 111:0.84057969 112:0.86153847 113:0.67796612 114:0.49438202 115:0.86666667 116:0.71111113 117:0.85714287 118:0.58227849 119:0.21428572 120:0.62135923 121:0.51612902 122:0.65789473 123:0.73015875 124:0.6785714 125:0.75280899 126:0.7027027 127:0.60000002 128:0.59183675 129:0.59183675 130:0.43055555 131:0.79310346 132:0.75999999 133:0.85714287 134:0.69565219 135:0.77777779 136:0.26666668 137:0.38571429 138:0.81538463 139:0.49230769 140:0.56603771 141:0.56451613 142:0.37837839 143:0.42857143 144:0.59420288 145:0.5 146:0.68965518 147:0.78947371 148:0.65277779 149:0.43137255 150:0.37681159 151:0.52083331 152:0.69565219 153:0.59615386 154:0.73214287 155:0.70212764 156:0.8488372 157:0.5535714 158:0.28125 159:0.38709676 160:0.70769233 161:0.74358976 162:0.80000001 163:0.65517241 164:0.70833331 165:0.51923078 166:0.60493827 167:0.5106383 168:0.92134833 169:0.59677422 170:0.45054945 171:0.39726028 172:0.41249999 173:0.11688311 174:0.63934427 175:0.67142856 176:0.40000001 177:0.38571429 178:0.39772728 179:0.29577464 180:0.40909091 181:0.68181819 182:0.625 183:0.625 184:0.65079367 185:0.5 186:0.45833334 187:0.5714286 188:0.52631581 189:0.66037738 190:0.671875 191:0.52631581 192:0.50495052 193:0.73750001 194:0.70588237 195:0.84615386 196:0.75 197:0.52941179 198:0.51754385 199:0.81944442 200:0.79452056 201:0.90476191 202:0.66942149 203:0.60638297 204:0.55813956 205:0.88157892 206:0.86666667 207:0.73846155 208:0.41666666 209:0.45588234 210:0.52747256 211:0.88235295 212:0.84415585 213:0.75555557 214:0.6574074 215:0.625 216:0.34523809 217:0.60869563 218:0.61538464 219:0.70886075 220:0.66666669 221:0.66666669 222:0.54666668 223:0.734375 224:0.62711865 225:0.71232879 226:0.67500001 227:0.38554215 228:0.55140185 229:0.85526317 230:0.78571427 231:0.85185188 232:0.57647061 233:0.4678899 234:0.54237288 235:0.82758623 236:0.80645162 237:0.74358976 238:0.5 239:0.64634144 240:0.5 241:0.8051948 242:0.87837839 243:0.74025977 244:0.30526316 245:0.5 246:0.54216868 247:0.83870965 248:0.83333331 249:0.73118281 250:0.57692307 251:0.54320985 252:0.43181819 253:0.60344827 254:0.70422536 255:0.67567569 256:0.63157892 257:0.63999999 258:0.37974682 259:0.77083331 260:0.65789473 261:0.69354838 262:0.60294116 263:0.79710144 264:0.54285717 265:0.43589744 266:0.23333333 267:0.46774194 268:0.58620691 269:0.74725276 270:0.65822786 271:0.60465115 272:0.67567569 273:0.55172414 274:0.5925926 275:0.81927711 276:0.7352941 277:0.65957445 278:0.453125 279:0.47297296 280:0.25742576 281:0.47761193 282:0.79661018 283:0.75409836 284:0.515625 285:0.4074074 286:0.27710843 287:0.42857143 288:0.63235295 
0.4221798109215711 1:0.65151513 2:0.75 3:0.61764705 4:0.62820512 5:0.6111111 6:0.57971013 7:0.5970149 8:0.60869563 9:0.62295079 10:0.66666669 11:0.78823531 12:0.625 13:0.61818182 14:0.5714286 15:0.54347825 16:0.61538464 17:0.79245281 18:0.87368423 19:0.70909089 20:0.65909094 21:0.5 22:0.70526314 23:0.85135138 24:1 25:0.60344827 26:0.53684211 27:0.33333334 28:0.50485438 29:0.82191783 30:0.92500001 31:0.53333336 32:0.41333333 33:0.36507937 34:0.41304347 35:0.84146339 36:0.81690139 37:0.35238096 38:0.52747256 39:0.58730161 40:0.64516127 41:0.54255319 42:0.38181818 43:0.4520548 44:0.25862068 45:0.46666667 46:0.64999998 47:0.56521738 48:0.44 49:0.60526317 50:0.41818181 51:0.55555558 52:0.63855422 53:0.46078432 54:0.45299146 55:0.85185188 56:0.75806451 57:0.78846157 58:0.66666669 59:0.41379312 60:0.31818181 61:0.75 62:0.58823532 63:0.64912283 64:0.61682242 65:0.5714286 66:0.62650603 67:0.87058824 68:0.29268292 69:0.2857143 70:0.44859812 71:0.3859649 72:0.2857143 73:0.33333334 74:0.48750001 75:0.67532468 76:0.55072463 77:0.56321841 78:0.52100843 79:0.5272727 80:0.52631581 81:0.63380283 82:0.54838711 83:0.45714286 84:0.60330576 85:0.72058821 86:0.58208954 87:0.75324672 88:0.45783132 89:0.30973452 90:0.38392857 91:0.73972601 92:0.85057473 93:0.72727275 94:0.37254903 95:0.24418604 96:0.23076923 97:0.66292137 98:0.63157892 99:0.71951222 100:0.42696628 101:0.48235294 102:0.47999999 103:0.67741936 104:0.4512195 105:0.47311828 106:0.45744681 107:0.3253012 108:0.4556962 109:0.61818182 110:0.63235295 111:0.76811594 112:0.66153848 113:0.81355929 114:0.58426964 115:0.84444445 116:0.66666669 117:0.76623374 118:0.58227849 119:0.30357143 120:0.67961162 121:0.67741936 122:0.55263156 123:0.71428573 124:0.60714287 125:0.60674155 126:0.65765768 127:0.69999999 128:0.83673471 129:0.77551019 130:0.31944445 131:0.7241379 132:0.69333333 133:0.76190478 134:0.76811594 135:0.61904764 136:0.28333333 137:0.65714288 138:0.6769231 139:0.58461541 140:0.56603771 141:0.51612902 142:0.48648649 143:0.6825397 144:0.57971013 145:0.86363637 146:0.7758621 147:0.68421054 148:0.6111111 149:0.49019608 150:0.49275362 151:0.91666669 152:0.65217394 153:0.57692307 154:0.76785713 155:0.65957445 156:0.8488372 157:1 158:0.65625 159:0.41935483 160:0.75384617 161:0.74358976 162:0.82608694 163:0.91379309 164:0.54166669 165:0.23076923 166:0.69135803 167:0.64893615 168:0.89887643 169:0.87096775 170:0.51648355 171:0.28767124 172:0.61250001 173:0.44155845 174:0.54098362 175:0.75714284 176:0.37333333 177:0.27142859 178:0.56818181 179:0.81690139 180:0.5151515 181:0.77272725 182:0.796875 183:0.64285713 184:0.71428573 185:0.62903225 186:0.44444445 187:0.44285715 188:0.45614034 189:0.49056605 190:0.765625 191:0.56578946 192:0.38613862 193:0.67500001 194:0.63235295 195:0.53846157 196:0.6875 197:0.52941179 198:0.43859649 199:0.65277779 200:0.61643833 201:0.61904764 202:0.70247936 203:0.64893615 204:0.52325583 205:0.85526317 206:0.83333331 207:0.7846154 208:0.60416669 209:0.52941179 210:0.65934068 211:0.52941179 212:0.4025974 213:0.53333336 214:0.74074072 215:0.73863637 216:0.5 217:0.53623188 218:0.83076924 219:0.84810126 220:0.87878788 221:1 222:0.72000003 223:0.578125 224:0.54237288 225:0.75342464 226:0.61250001 227:0.37349397 228:0.51401871 229:0.85526317 230:0.73809522 231:0.85185188 232:0.49411765 233:0.30275229 234:0.50847459 235:0.79310346 236:0.7096774 237:0.66666669 238:0.48113209 239:0.62195122 240:0.58536583 241:0.89610392 242:0.93243241 243:0.83116883 244:0.37894738 245:0.4848485 246:0.56626505 247:0.40322581 248:0.5138889 249:0.69892472 250:0.63461536 251:0.50617284 252:0.46590909 253:0.63793105 254:0.73239434 255:0.72972971 256:0.64473683 257:0.57999998 258:0.55696201 259:0.72916669 260:0.81578946 261:0.7096774 262:0.52941179 263:0.73913044 264:0.72857141 265:0.76923078 266:0.46666667 267:0.62903225 268:0.5 269:0.72527474 270:0.84810126 271:0.46511629 272:0.64864862 273:0.62068963 274:0.50617284 275:0.72289157 276:0.92647058 277:0.61702126 278:0.53125 279:0.52702701 280:0.26732674 281:0.49253732 282:0.81355929 283:0.52459013 284:0.578125 285:0.5925926 286:0.36144578 287:0.5714286 288:0.79411763 
0.08882145678413891 1:0.28787878 2:0.51923078 3:0.64705884 4:0.55128205 5:0.31481481 6:0.66666669 7:0.5970149 8:0.52173913 9:0.49180329 10:0.34782609 11:0.22352941 12:0.73863637 13:0.40000001 14:0.38095239 15:0.15217391 16:0.27472529 17:0.16037735 18:0.68421054 19:0.65454543 20:0.65909094 21:0.044117648 22:0.073684208 23:0.1891892 24:0.71428573 25:0.75862068 26:0.43157893 27:0.069444448 28:0.37864077 29:1 30:0.69999999 31:0.33333334 32:0.23999999 33:0.11111111 34:0.22826087 35:0.63414633 36:0.5633803 37:0.10476191 38:0.2857143 39:0.46031746 40:0.27419356 41:0.08510638 42:0.15454546 43:0.4520548 44:0.60344827 45:0.66666669 46:0.21666667 47:0.043478262 48:0.104 49:0.5 50:0.54545456 51:0.62962961 52:0.27710843 53:0.049019609 54:0.07692308 55:0.7037037 56:0.58064514 57:0.25 58:0.08130081 59:0.37931034 60:0.23863636 61:0.91666669 62:0.83823532 63:0.63157892 64:0.14018692 65:0.15873016 66:0.36144578 67:0.69411767 68:0.4512195 69:0.35164836 70:0.40186915 71:0.55263156 72:0.52678573 73:0.33333334 74:0.2 75:0.51948053 76:0.43478259 77:0.14942528 78:0.033613447 79:0.92727274 80:0.54385966 81:0.80281693 82:0.54838711 83:0.047619049 84:0.049586777 85:0.86764705 86:0.40298507 87:0.55844158 88:0.50602412 89:0.14159292 90:0.044642858 91:0.71232879 92:0.67816091 93:0.1969697 94:0.029411765 95:0.29069766 96:0.25641027 97:0.89887643 98:0.82894737 99:0.597561 100:0.13483146 101:0.28235295 102:0.23999999 103:0.74193549 104:0.65853661 105:0.53763443 106:0.68085104 107:0.51807231 108:0.41772151 109:0.40000001 110:0.36764705 111:0.55072463 112:0.64615387 113:0.45762712 114:0.15730338 115:0.46666667 116:0.35555556 117:0.64935064 118:0.62025315 119:0.125 120:0.097087376 121:0.080645159 122:0.36842105 123:0.52380955 124:0.6964286 125:0.089887641 126:0.13513513 127:0.2857143 128:0.65306121 129:0.48979592 130:0.33333334 131:0.13793103 132:0.093333334 133:0.44444445 134:0.63768119 135:0.44444445 136:0.36666667 137:0.71428573 138:0.55384618 139:0.38461539 140:0.32075471 141:0.16129032 142:0.27027026 143:0.61904764 144:0.46376812 145:0.36363637 146:0.53448278 147:0.47368422 148:0.5138889 149:0.54901963 150:0.37681159 151:0.10416666 152:0.47826087 153:0.30769232 154:0.48214287 155:0 156:0.093023255 157:0.23214285 158:0.25 159:0.064516127 160:0.56923079 161:0.15384616 162:0.12173913 163:0.22413793 164:0.54166669 165:0.23076923 166:0.37037036 167:0.24468085 168:0.22471911 169:0 170:0.37362638 171:0.19178082 172:0.36250001 173:0.45454547 174:0.45901638 175:0.057142857 176:0.13333334 177:0.2 178:0.31818181 179:0.53521127 180:0.34848484 181:0.59090906 182:0.5625 183:0.5714286 184:0.77777779 185:0.45161289 186:0.2361111 187:0.44285715 188:0.29824561 189:0.50943398 190:0.515625 191:0.052631579 192:0 193:0.77499998 194:0.54411763 195:0.69230771 196:0.60000002 197:0.16666667 198:0.078947365 199:0.79166669 200:0.6438356 201:0.30952382 202:0.28925619 203:0.17021276 204:0.13953489 205:0.93421054 206:0.85000002 207:0.6769231 208:0.14583333 209:0.32352942 210:0.48351648 211:0.45588234 212:0.42857143 213:0.40000001 214:0.30555555 215:0.36363637 216:0.33333334 217:0.66666669 218:0.6769231 219:0.77215189 220:0.59090906 221:0.53333336 222:0.46666667 223:0.515625 224:0.42372882 225:0.67123288 226:0.47499999 227:0.084337346 228:0.14953271 229:0.80263156 230:0.77380955 231:0.79012346 232:0.40000001 233:0.21100917 234:0.27966103 235:0.86206895 236:0.76344085 237:0.37179488 238:0.16037735 239:0.19512194 240:0.17073171 241:0.92207789 242:0.9054054 243:0.55844158 244:0.10526316 245:0.34848484 246:0.3253012 247:0.67741936 248:0.5 249:0.31182796 250:0.28846154 251:0.51851851 252:0.31818181 253:0.34482759 254:0.63380283 255:0.54054052 256:0.31578946 257:0.62 258:0.73417723 259:0.5625 260:0.47368422 261:0.37096775 262:0.19117647 263:0.39130434 264:0.64285713 265:0.48717949 266:0.36666667 267:0.19354838 268:0.25862068 269:0.37362638 270:0.68354428 271:0.53488374 272:0.37837839 273:0.068965517 274:0.17283951 275:0.25301206 276:0.88235295 277:0.4893617 278:0.234375 279:0.054054055 280:0.15841584 281:0.35820895 282:0.91525424 283:0.29508197 284:0.15625 285:0.061728396 286:0.096385539 287:0.30158731 288:0.61764705 
0.4272497127910903 1:0.22727273 2:0.51923078 3:0.64705884 4:0.46153846 5:0 6:0.66666669 7:0.53731346 8:0.67391306 9:0.57377046 10:0.27536231 11:0.023529412 12:0.65909094 13:0.41818181 14:0.59523809 15:0.34782609 16:0.26373628 17:0.10377359 18:0.7157895 19:0.72727275 20:0.84090906 21:0.073529415 22:0.2 23:0.28378379 24:0.78571427 25:0.7241379 26:0.47368422 27:0.19444445 28:0.25242719 29:0.4520548 30:0.96249998 31:0.31999999 32:0.28 33:0.3968254 34:0.20652173 35:0.20731707 36:0.90140843 37:0.076190479 38:0.25274727 39:0.5714286 40:0.40322581 41:0.15957446 42:0.23636363 43:0.4520548 44:0.5 45:0.64444447 46:0.26666668 47:0.060869563 48:0.112 49:0.47368422 50:0.32727271 51:0.48148149 52:0.3493976 53:0.088235296 54:0.1965812 55:0.71604937 56:0.61290324 57:0.096153848 58:0.13821138 59:0.44827586 60:0.27272728 61:0.8214286 62:0.79411763 63:0.47368422 64:0.26168224 65:0.85714287 66:0.59036142 67:0.67058825 68:0.58536583 69:0.45054945 70:0.42056075 71:0.5350877 72:0.51785713 73:0.21794872 74:0.1875 75:0.54545456 76:0.52173913 77:0.27586207 78:0.2184874 79:0.74545455 80:0.63157892 81:0.77464789 82:0.58064514 83:0.057142857 84:0.11570248 85:0.67647058 86:0.43283582 87:0.46753246 88:0.50602412 89:0.15044248 90:0.17857143 91:0.6438356 92:0.66666669 93:0.045454547 94:0.019607844 95:0.36046511 96:0.46153846 97:1 98:0.86842108 99:0.5 100:0.13483146 101:0.32941177 102:0.70666665 103:0.98387098 104:0.74390244 105:0.64516127 106:0.80851066 107:0.86746991 108:0.88607597 109:0.21818182 110:0.47058824 111:0.59420288 112:0.56923079 113:0.50847459 114:0.20224719 115:0.37777779 116:0.60000002 117:0.64935064 118:0.51898736 119:0.14285715 120:0.14563107 121:0.080645159 122:0.36842105 123:0.36507937 124:0.58928573 125:0.20224719 126:0.22522523 127:0.41428572 128:0.87755102 129:0.42857143 130:0.22222222 131:0.32183909 132:0.29333332 133:0.38095239 134:0.59420288 135:0.41269842 136:0.16666667 137:0.30000001 138:0.49230769 139:0.53846157 140:0.33962265 141:0.25806451 142:0.32432431 143:0.2857143 144:0.24637681 145:0.77272725 146:0.55172414 147:0.56140351 148:0.56944442 149:0.47058824 150:0.2173913 151:0.85416669 152:0.45652175 153:0.61538464 154:0.625 155:0.10638298 156:0.19767442 157:0.875 158:0.46875 159:0.29032257 160:0.58461541 161:0.32051283 162:0.22608696 163:0.79310346 164:0.58333331 165:0.057692308 166:0.32098764 167:0.37234041 168:0.41573033 169:0.7096774 170:0.45054945 171:0.15068494 172:0.30000001 173:0.29870129 174:0.42622951 175:0.74285716 176:0.31999999 177:0.34285715 178:0.36363637 179:0.22535211 180:0.060606062 181:0.69318181 182:0.5 183:0.375 184:0.50793654 185:0.29032257 186:0.27777779 187:0.37142858 188:0.43859649 189:0.50943398 190:0.46875 191:0.18421052 192:0.21782178 193:0.64999998 194:0.63235295 195:0.71794873 196:0.41249999 197:0.13725491 198:0.18421052 199:0.58333331 200:0.6438356 201:0.095238097 202:0.21487603 203:0.24468085 204:0.22093023 205:0.92105263 206:0.76666665 207:0.50769234 208:0.19791667 209:0.80882353 210:0.73626375 211:0.7352941 212:0.64935064 213:0.5 214:0.32407406 215:0.70454544 216:0.54761904 217:0.072463766 218:0.27692309 219:0.68354428 220:0.4848485 221:0.21666667 222:0.34666666 223:0.5625 224:0.40677965 225:0.67123288 226:0.5 227:0.096385539 228:0.28037384 229:0.89473683 230:0.71428573 231:0.67901236 232:0.50588238 233:0.12844037 234:0.22881356 235:0.86206895 236:0.68817204 237:0 238:0.20754717 239:0.17073171 240:0.17073171 241:0.84415585 242:0.8918919 243:0.51948053 244:0.17894737 245:0.43939394 246:0.61445785 247:0.87096775 248:0.65277779 249:0.43010753 250:0.24038461 251:0.17283951 252:0.36363637 253:0.29310346 254:0.66197181 255:0.56756759 256:0.44736841 257:0.16 258:0.39240506 259:0.60416669 260:0.57894737 261:0.53225809 262:0.39705881 263:0.028985508 264:0.32857144 265:0.48717949 266:0.43333334 267:0.24193548 268:0.31034482 269:0.13186814 270:0.34177214 271:0.6511628 272:0.4054054 273:0.017241379 274:0.22222222 275:0.24096386 276:0.42647058 277:0.70212764 278:0.296875 279:0.094594598 280:0.24752475 281:0.40298507 282:0.27118644 283:0.6557377 284:0.5 285:0.28395063 286:0.24096386 287:0.14285715 288:0 
0.711445505972405 1:0.28787878 2:0.44230768 3:0.57352942 4:0.58974361 5:0.25925925 6:0.39130434 7:0.44776121 8:0.36956522 9:0.50819671 10:0.57971013 11:0.61176473 12:0.46590909 13:0.45454547 14:0.35714287 15:0.54347825 16:0.49450549 17:0.67924529 18:0.63157892 19:0.5090909 20:0.54545456 21:0.45588234 22:0.60000002 23:0.77027029 24:0.76190478 25:0.53448278 26:0.45263159 27:0.45833334 28:0.47572815 29:0.73972601 30:0.76249999 31:0.30666667 32:0.29333332 33:0.38095239 34:0.46739131 35:0.71951222 36:0.36619717 37:0.12380952 38:0.24175824 39:0.55555558 40:0.58064514 41:0.43617022 42:0.41818181 43:0.23287672 44:0.31034482 45:0.33333334 46:0.56666666 47:0.61739129 48:0.55199999 49:0.59210527 50:0.74545455 51:0.7962963 52:0.48192772 53:0.38235295 54:0.40170941 55:0.64197528 56:0.7096774 57:0.63461536 58:0.52032518 59:0.29885057 60:0.30681819 61:0.64285713 62:0.75 63:0.80701756 64:0.66355139 65:0.33333334 66:0.54216868 67:0.45882353 68:0.32926831 69:0.25274727 70:0.36448598 71:0.24561404 72:0.21428572 73:0.26923078 74:0.27500001 75:0.6883117 76:0.56521738 77:0.56321841 78:0.55462188 79:0.43636364 80:0.42105263 81:0.70422536 82:0.58064514 83:0.55238098 84:0.63636363 85:0.54411763 86:0.64179105 87:0.63636363 88:0.39759037 89:0.32743362 90:0.4107143 91:0.41095892 92:0.7241379 93:0.5 94:0.33333334 95:0.31395349 96:0.32051283 97:0.56179774 98:0.7368421 99:0.69512194 100:0.55056179 101:0.43529412 102:0.34666666 103:0.25806451 104:0.39024389 105:0.34408602 106:0.31914893 107:0.22891566 108:0.27848101 109:0.5090909 110:0.4852941 111:0.53623188 112:0.58461541 113:0.67796612 114:0.53932583 115:0.80000001 116:0.51111114 117:0.64935064 118:0.5316456 119:0.4642857 120:0.70873785 121:0.58064514 122:0.39473686 123:0.84126985 124:0.44642857 125:0.34831461 126:0.72072071 127:0.58571428 128:0.48979592 129:0.71428573 130:0.3888889 131:0.43678162 132:0.61333334 133:0.66666669 134:0.63768119 135:0.73015875 136:0.46666667 137:0.45714286 138:0.6769231 139:0.6769231 140:0.5471698 141:0.67741936 142:0.41891891 143:0.6825397 144:0.62318838 145:0.62121212 146:0.46551725 147:0.43859649 148:0.43055555 149:0.37254903 150:0.27536231 151:0.72916669 152:0.36956522 153:0.59615386 154:0.5714286 155:0.5106383 156:0.69767439 157:0.83928573 158:0.65625 159:0.58064514 160:0.53846157 161:0.58974361 162:0.79130435 163:0.79310346 164:0.54166669 165:0.46153846 166:0.55555558 167:0.46808511 168:0.96629214 169:0.75806451 170:0.46153846 171:0.3561644 172:0.47499999 173:0.50649351 174:0.81967211 175:1 176:0.25333333 177:0.2857143 178:0.5 179:0.90140843 180:0.87878788 181:0.61363637 182:0.796875 183:0.60714287 184:0.60317463 185:0.83870965 186:0.70833331 187:0.24285714 188:0.3859649 189:0.49056605 190:0.578125 191:0.43421054 192:0.24752475 193:0.58749998 194:0.63235295 195:0.69230771 196:0.51249999 197:0.41176471 198:0.32456142 199:0.6388889 200:0.78082192 201:0.71428573 202:0.56198347 203:0.44680852 204:0.44186047 205:0.77631581 206:0.93333334 207:0.87692308 208:0.66666669 209:0.60294116 210:0.72527474 211:0.39705881 212:0.4025974 213:0.3888889 214:0.60185188 215:0.59090906 216:0.51190478 217:0.37681159 218:0.49230769 219:0.75949365 220:0.65151513 221:0.58333331 222:0.69333333 223:0.28125 224:0.27118644 225:0.67123288 226:0.6875 227:0.3253012 228:0.42990655 229:0.68421054 230:0.70238096 231:0.72839504 232:0.45882353 233:0.35779816 234:0.51694918 235:0.62068963 236:0.67741936 237:0.61538464 238:0.50943398 239:0.41463414 240:0.39024389 241:0.54545456 242:0.91891891 243:0.87012988 244:0.60000002 245:0.45454547 246:0.54216868 247:0.25806451 248:0.54166669 249:0.53763443 250:0.46153846 251:0.46913579 252:0.5 253:0.3275862 254:0.50704223 255:0.5 256:0.57894737 257:0.34 258:0.50632912 259:0.4375 260:0.57894737 261:0.74193549 262:0.69117647 263:0.53623188 264:0.51428574 265:0.41025642 266:0.53333336 267:0.54838711 268:0.55172414 269:0.63736266 270:0.64556962 271:0.41860464 272:0.62162161 273:0.5 274:0.56790125 275:0.66265059 276:0.67647058 277:0.53191489 278:0.421875 279:0.44594595 280:0.37623763 281:0.41791046 282:0.89830506 283:0.3442623 284:0.40625 285:0.45679012 286:0.42168674 287:0.65079367 288:0.69117647 
0.07569858817779719 1:0.59090906 2:0.98076922 3:0.79411763 4:0.74358976 5:0.44444445 6:0.46376812 7:0.43283582 8:0.36956522 9:0.39344263 10:0.20289855 11:0.070588239 12:0.32954547 13:0.56363636 14:0.73809522 15:0.5869565 16:0.16483517 17:0.056603774 18:0.36842105 19:0.67272729 20:0.45454547 21:0.16176471 22:0.14736842 23:0.28378379 24:0.59523809 25:0.53448278 26:0.28421053 27:0.097222224 28:0.10679612 29:0.58904111 30:0.75 31:0.46666667 32:0.37333333 33:0.38095239 34:0.15217391 35:0.51219511 36:0.69014084 37:0.23809524 38:0.48351648 39:0.71428573 40:0.5 41:0.22340426 42:0.19090909 43:0.5479452 44:0.53448278 45:0.64444447 46:0.30000001 47:0.069565214 48:0.088 49:0.56578946 50:0.4909091 51:0.64814812 52:0.14457831 53:0 54:0.085470088 55:0.86419755 56:0.77419353 57:0.59615386 58:0.21951219 59:0.36781609 60:0.32954547 61:0.66666669 62:0.5 63:0.14035088 64:0 65:0 66:0.25301206 67:0.68235296 68:0.37804878 69:0.43956044 70:0.49532712 71:0.47368422 72:0.49107143 73:0.57692307 74:0.4375 75:0.76623374 76:0.63768119 77:0.31034482 78:0.15966387 79:0.94545454 80:0.57894737 81:0.64788735 82:0.48387095 83:0.028571429 84:0.090909094 85:0.79411763 86:0.44776121 87:0.55844158 88:0.22891566 89:0 90:0.080357142 91:0.84931505 92:0.79310346 93:0.43939394 94:0.28431374 95:0.30232558 96:0.41025642 97:0.64044946 98:0.4868421 99:0.20731707 100:0.044943821 101:0.22352941 102:0.16 103:0.67741936 104:0.46341464 105:0.48387095 106:0.76595747 107:0.73493975 108:0.8101266 109:0.78181821 110:0.79411763 111:0.884058 112:0.90769231 113:0.84745765 114:0.33707866 115:0.26666668 116:0.17777778 117:0.59740257 118:0.4556962 119:0.053571429 120:0.16504854 121:0.14516129 122:0.60526317 123:0.71428573 124:0.51785713 125:0.078651689 126:0.14414415 127:0.2857143 128:0.46938777 129:0.32653061 130:0.40277779 131:0.25287357 132:0.34666666 133:0.49206349 134:0.49275362 135:0.36507937 136:0.30000001 137:0.5714286 138:0.38461539 139:0.70769233 140:0.4528302 141:0.29032257 142:0.43243244 143:0.73015875 144:0.40579709 145:0.69696969 146:0.82758623 147:0.78947371 148:0.66666669 149:0.72549021 150:0.39130434 151:0.625 152:0.17391305 153:0.28846154 154:0.48214287 155:0.10638298 156:0.19767442 157:0.8035714 158:0.5625 159:0.64516127 160:0.50769234 161:0.1923077 162:0.15652174 163:0.70689654 164:0.33333334 165:0.25 166:0.51851851 167:0.40425533 168:0.32584271 169:0.67741936 170:0.3956044 171:0.26027396 172:0.33750001 173:0.41558442 174:0.52459013 175:0.58571428 176:0.14666666 177:0.24285714 178:0.32954547 179:0.49295774 180:0.33333334 181:0.31818181 182:0.375 183:0.5535714 184:0.50793654 185:0.37096775 186:0.18055555 187:0.61428571 188:0.68421054 189:0.90566039 190:0.65625 191:0.11842106 192:0.12871288 193:0.625 194:0.5147059 195:0.64102566 196:0.41249999 197:0.15686275 198:0.15789473 199:0.7361111 200:0.73972601 201:0.5 202:0.3140496 203:0.23404256 204:0.24418604 205:0.75 206:0.58333331 207:0.43076923 208:0.03125 209:0.25 210:0.46153846 211:0.088235296 212:0 213:0.12222222 214:0.17592593 215:0.19318181 216:0.071428575 217:0.37681159 218:0.41538462 219:0.55696201 220:0.5151515 221:0.31666666 222:0.23999999 223:0.8125 224:0.67796612 225:0.86301368 226:0.625 227:0.14457831 228:0.19626169 229:0.90789473 230:0.76190478 231:0.67901236 232:0.34117648 233:0.1559633 234:0.28813559 235:0.94252872 236:0.76344085 237:0.38461539 238:0.20754717 239:0.15853658 240:0.23170732 241:0.8831169 242:0.82432431 243:0.45454547 244:0.010526316 245:0.1969697 246:0.3493976 247:0.25806451 248:0.16666667 249:0.17204301 250:0.13461539 251:0.16049382 252:0.079545453 253:0.7241379 254:0.94366199 255:0.75675678 256:0.7631579 257:0.56 258:0.58227849 259:0.64583331 260:0.18421052 261:0.33870968 262:0.30882353 263:0.1594203 264:0.40000001 265:0.61538464 266:0.1 267:0.45161289 268:0.24137931 269:0.17582418 270:0.34177214 271:0.51162791 272:0.10810811 273:0.12068965 274:0.18518518 275:0.27710843 276:0.45588234 277:0.68085104 278:0.3125 279:0.17567568 280:0.14851485 281:0.52238804 282:0.66101694 283:0.44262296 284:0.234375 285:0.16049382 286:0.096385539 287:0.38095239 288:0.29411766 
0.02181687547745944 1:0.30303031 2:0.75 3:0.64705884 4:0.69230771 5:0.4074074 6:0.40579709 7:0.28358209 8:0.56521738 9:0.54098362 10:0.37681159 11:0.35294119 12:0.45454547 13:0.25454545 14:0.71428573 15:0.41304347 16:0.20879121 17:0.16037735 18:0.61052632 19:0.40000001 20:0.61363637 21:0.2647059 22:0.31578946 23:0.17567568 24:0.66666669 25:0.22413793 26:0.40000001 27:0.22222222 28:0.34951457 29:0.60273975 30:0.85000002 31:0.18666667 32:0.31999999 33:0.20634921 34:0.30434781 35:0.63414633 36:0.77464789 37:0.12380952 38:0.36263737 39:0.5714286 40:0.51612902 41:0.34042552 42:0.32727271 43:0.09589041 44:0.25862068 45:0.2 46:0.083333336 47:0.2 48:0.22400001 49:0.30263159 50:0.38181818 51:0.37037036 52:0.24096386 53:0.12745099 54:0.17948718 55:0.54320985 56:0.62903225 57:0.73076922 58:0.29268292 59:0.1724138 60:0.20454545 61:0.38095239 62:0.44117647 63:0.36842105 64:0.21495327 65:0.17460318 66:0.48192772 67:0.23529412 68:0.1097561 69:0.25274727 70:0.43925235 71:0.27192983 72:0.2857143 73:0.47435898 74:0.40000001 75:0.77922076 76:0.62318838 77:0.36781609 78:0.31092438 79:0.63636363 80:0.50877196 81:0.3943662 82:0.27419356 83:0.17142858 84:0.28925619 85:0.75 86:0.64179105 87:0.46753246 88:0.25301206 89:0.11504425 90:0.2767857 91:0.84931505 92:0.93103451 93:0.4848485 94:0.2647059 95:0.1627907 96:0.21794872 97:0.5955056 98:0.57894737 99:0.29268292 100:0.10112359 101:0.35294119 102:0.46666667 103:0.91935486 104:0.91463417 105:0.84946239 106:0.79787236 107:0.46987951 108:0.4556962 109:0.63636363 110:0.7647059 111:0.76811594 112:0.72307694 113:0.86440676 114:0.58426964 115:0.55555558 116:0.64444447 117:0.6883117 118:0.54430377 119:0.4107143 120:0.51456308 121:0.27419356 122:0.7368421 123:0.65079367 124:0.26785713 125:0.15730338 126:0.4054054 127:0.37142858 128:0.69387758 129:0.22448979 130:0.2638889 131:0.27586207 132:0.33333334 133:0.65079367 134:0.57971013 135:0.31746033 136:0.30000001 137:0.60000002 138:0.72307694 139:0.80000001 140:0.64150941 141:0.12903225 142:0.14864865 143:0.77777779 144:0.942029 145:0.60606062 146:0.7241379 147:0.68421054 148:0.4861111 149:0.627451 150:0.75362319 151:0.58333331 152:0.56521738 153:0.53846157 154:0.42857143 155:0.29787233 156:0.68604654 157:0.83928573 158:0.5 159:0.51612902 160:0.2923077 161:0.20512821 162:0.40000001 163:0.82758623 164:0.64583331 165:0.25 166:0.30864197 167:0.36170211 168:0.34831461 169:0.7096774 170:0.49450549 171:0.1780822 172:0.25 173:0.15584415 174:0.37704918 175:0.75714284 176:0.29333332 177:0.14285715 178:0.19318181 179:0.47887325 180:0.60606062 181:0.57954544 182:0.671875 183:0.66071427 184:0.5714286 185:0.51612902 186:0.59722221 187:0.45714286 188:0.59649122 189:0.60377359 190:0.375 191:0.17105263 192:0.36633664 193:0.52499998 194:0.52941179 195:0.17948718 196:0.16249999 197:0.14705883 198:0.33333334 199:0.65277779 200:0.83561641 201:0.42857143 202:0.21487603 203:0.14893617 204:0.23255815 205:0.68421054 206:0.75 207:0.55384618 208:0.1875 209:0.073529415 210:0.40659341 211:0.17647059 212:0.14285715 213:0.16666667 214:0.19444445 215:0.42045453 216:0.48809522 217:0.23188406 218:0.35384616 219:0.72151899 220:0.78787881 221:0.73333335 222:0.54666668 223:0.515625 224:0.59322035 225:0.69863015 226:0.6875 227:0.30120483 228:0.28971961 229:0.68421054 230:0.69047618 231:0.49382716 232:0.3882353 233:0.22018349 234:0.32203391 235:0.79310346 236:0.80645162 237:0.48717949 238:0.2735849 239:0.13414635 240:0.24390244 241:0.66233766 242:0.7027027 243:0.58441556 244:0.2631579 245:0.27272728 246:0.48192772 247:0.096774191 248:0.20833333 249:0.16129032 250:0.25961539 251:0.37037036 252:0.48863637 253:0.43103448 254:0.77464789 255:0.67567569 256:0.56578946 257:0.63999999 258:0.44303799 259:0.47916666 260:0.5 261:0.53225809 262:0.41176471 263:0.50724638 264:0.40000001 265:0.35897437 266:0.43333334 267:0.29032257 268:0.27586207 269:0.32967034 270:0.31645569 271:0.20930232 272:0.35135135 273:0.25862068 274:0.41975307 275:0.27710843 276:0.55882353 277:0.19148937 278:0.3125 279:0.2972973 280:0.37623763 281:0.31343284 282:0.779661 283:0.24590164 284:0.421875 285:0.2345679 286:0.38554215 287:0.60317463 288:0.88235295 
0.2511211953967237 1:0.28787878 2:0.67307693 3:0.57352942 4:0.6025641 5:0.4074074 6:0.57971013 7:0.3283582 8:0.52173913 9:0.47540984 10:0.26086956 11:0.35294119 12:0.625 13:0.36363637 14:0.61904764 15:0.28260869 16:0.16483517 17:0.17924528 18:0.67368424 19:0.34545454 20:0.54545456 21:0.2647059 22:0.33684212 23:0.1891892 24:0.65476191 25:0.12068965 26:0.33684212 27:0.15277778 28:0.33980581 29:0.56164384 30:0.77499998 31:0.12 32:0.28 33:0.26984128 34:0.30434781 35:0.51219511 36:0.61971831 37:0.12380952 38:0.36263737 39:0.5714286 40:0.53225809 41:0.27659574 42:0.28181818 43:0.09589041 44:0.27586207 45:0.22222222 46:0.06666667 47:0.16521738 48:0.192 49:0.35526314 50:0.5090909 51:0.46296296 52:0.16867469 53:0.098039217 54:0.1965812 55:0.65432101 56:0.7903226 57:0.88461536 58:0.30894309 59:0.20689656 60:0.20454545 61:0.48809522 62:0.5 63:0.22807017 64:0.19626169 65:0.2857143 66:0.49397591 67:0.22352941 68:0.25609756 69:0.61538464 70:0.59813082 71:0.44736841 72:0.5089286 73:0.43589744 74:0.40000001 75:0.74025977 76:0.55072463 77:0.31034482 78:0.27731094 79:0.60000002 80:0.47368422 81:0.40845069 82:0.29032257 83:0.13333334 84:0.24793388 85:0.79411763 86:0.58208954 87:0.4025974 88:0.24096386 89:0.11504425 90:0.2767857 91:0.83561641 92:0.85057473 93:0.4848485 94:0.2647059 95:0.15116279 96:0.20512821 97:0.6179775 98:0.53947371 99:0.21951219 100:0.033707865 101:0.32941177 102:0.49333334 103:0.95161289 104:0.70731705 105:0.52688169 106:0.67021275 107:0.49397591 108:0.73417723 109:0.58181816 110:0.70588237 111:0.65217394 112:0.63076925 113:0.79661018 114:0.52808988 115:0.55555558 116:0.5777778 117:0.61038959 118:0.46835443 119:0.35714287 120:0.48543689 121:0.32258064 122:0.71052629 123:0.66666669 124:0.26785713 125:0.14606741 126:0.41441441 127:0.41428572 128:0.69387758 129:0.26530612 130:0.3611111 131:0.26436782 132:0.31999999 133:0.5714286 134:0.59420288 135:0.17460318 136:0.21666667 137:0.5714286 138:0.76923078 139:0.69230771 140:0.60377359 141:0.096774191 142:0.21621622 143:0.66666669 144:0.85507244 145:0.56060606 146:0.67241377 147:0.56140351 148:0.34722221 149:0.56862748 150:0.76811594 151:0.60416669 152:0.65217394 153:0.55769229 154:0.375 155:0.29787233 156:0.68604654 157:0.78571427 158:0.5 159:0.61290324 160:0.27692309 161:0.20512821 162:0.39130434 163:0.63793105 164:0.60416669 165:0.21153846 166:0.30864197 167:0.39361703 168:0.40449437 169:0.58064514 170:0.47252747 171:0.19178082 172:0.27500001 173:0.15584415 174:0.45901638 175:0.77142859 176:0.31999999 177:0.14285715 178:0.18181819 179:0.50704223 180:0.57575756 181:0.60227275 182:0.71875 183:0.6785714 184:0.60317463 185:0.51612902 186:0.55555558 187:0.48571429 188:0.63157892 189:0.64150941 190:0.421875 191:0.14473684 192:0.35643566 193:0.58749998 194:0.61764705 195:0.2820513 196:0.16249999 197:0.11764706 198:0.30701753 199:0.75 200:0.87671232 201:0.52380955 202:0.22314049 203:0.20212767 204:0.26744187 205:0.78947371 206:0.75 207:0.53846157 208:0.10416666 209:0.13235295 210:0.43956044 211:0.19117647 212:0.18181819 213:0.17777778 214:0.2037037 215:0.32954547 216:0.42857143 217:0.26086956 218:0.41538462 219:0.73417723 220:0.74242425 221:0.66666669 222:0.54666668 223:0.484375 224:0.54237288 225:0.67123288 226:0.67500001 227:0.28915662 228:0.28971961 229:0.68421054 230:0.65476191 231:0.43209878 232:0.34117648 233:0.21100917 234:0.32203391 235:0.78160918 236:0.74193549 237:0.41025642 238:0.2735849 239:0.21951219 240:0.29268292 241:0.62337661 242:0.71621621 243:0.59740257 244:0.2736842 245:0.27272728 246:0.44578314 247:0.11290322 248:0.2361111 249:0.17204301 250:0.25 251:0.28395063 252:0.40909091 253:0.3275862 254:0.70422536 255:0.6081081 256:0.43421054 257:0.5 258:0.43037975 259:0.47916666 260:0.5 261:0.51612902 262:0.33823529 263:0.46376812 264:0.44285715 265:0.43589744 266:0.46666667 267:0.30645162 268:0.34482759 269:0.31868133 270:0.32911393 271:0.3488372 272:0.24324325 273:0.18965517 274:0.44444445 275:0.31325302 276:0.57352942 277:0.21276596 278:0.28125 279:0.24324325 280:0.39603961 281:0.35820895 282:0.71186441 283:0.21311475 284:0.4375 285:0.25925925 286:0.38554215 287:0.58730161 288:0.70588237 
0.2408341205695712 1:0.39393941 2:0.75 3:0.83823532 4:0.85897434 5:0.44444445 6:0 7:0.35820895 8:0.54347825 9:0.72131145 10:0.50724638 11:0.14117648 12:0 13:0.41818181 14:0.71428573 15:0.73913044 16:0.18681319 17:0 18:0 19:0.5090909 20:0.63636363 21:0.19117647 22:0.16842106 23:0.094594598 24:0.095238097 25:0.20689656 26:0.33684212 27:0.15277778 28:0.407767 29:0.79452056 30:0.53750002 31:0.013333334 32:0.026666667 33:0.11111111 34:0.29347825 35:0.5487805 36:0.49295774 37:0.14285715 38:0.31868133 39:0.69841272 40:0.58064514 41:0.20212767 42:0.07272727 43:0.24657534 44:0.3275862 45:0.55555558 46:0.26666668 47:0.052173913 48:0.088 49:0.40789473 50:0.5090909 51:0.75925928 52:0.28915662 53:0.05882353 54:0.07692308 55:0.66666669 56:0.67741936 57:0.53846157 58:0.18699187 59:0.12643678 60:0.15909091 61:0.44047618 62:0.32352942 63:0.31578946 64:0.18691589 65:0.34920636 66:0.49397591 67:0 68:0.012195121 69:0.41758242 70:0.48598132 71:0.28947368 72:0.26785713 73:0.48717949 74:0.44999999 75:0.84415585 76:0.73913044 77:0.28735632 78:0.15126051 79:0.76363635 80:0.61403507 81:0.84507042 82:0.61290324 83:0.01904762 84:0.16528925 85:0.92647058 86:0.74626863 87:0.96103895 88:0.50602412 89:0.061946902 90:0.089285716 91:1 92:1 93:0.72727275 94:0.25490198 95:0.31395349 96:0.38461539 97:0.70786518 98:0.72368419 99:0.47560975 100:0.11235955 101:0.49411765 102:0.58666664 103:0.98387098 104:0.84146339 105:0.63440859 106:0.76595747 107:0.90361446 108:1 109:0.38181818 110:0.60294116 111:0.79710144 112:0.86153847 113:0.81355929 114:0.25842696 115:0.33333334 116:0.33333334 117:0.79220778 118:0.77215189 119:0.23214285 120:0.26213592 121:0.19354838 122:0.5 123:0.74603176 124:0.53571427 125:0.11235955 126:0.1981982 127:0.34285715 128:0.48979592 129:0.2857143 130:0.16666667 131:0.13793103 132:0.30666667 133:0.2857143 134:0.46376812 135:0.38095239 136:0.28333333 137:0.67142856 138:0.75384617 139:0.61538464 140:0.26415095 141:0.080645159 142:0.013513514 143:0.66666669 144:0.40579709 145:0.84848487 146:0.74137932 147:0.7368421 148:0.56944442 149:0.52941179 150:0.33333334 151:0.83333331 152:0.5 153:0.65384614 154:0.60714287 155:0.14893617 156:0.45348838 157:0.9464286 158:0.71875 159:0.80645162 160:0.40000001 161:0.20512821 162:0.35652173 163:0.74137932 164:0.4375 165:0.46153846 166:0.19753087 167:0.20212767 168:0.33707866 169:0.59677422 170:0.45054945 171:0.09589041 172:0.175 173:0.37662336 174:0.60655737 175:0.48571429 176:0.093333334 177:0 178:0.27272728 179:0.64788735 180:0.45454547 181:0.54545456 182:0.546875 183:0.5535714 184:0.61904764 185:0.46774194 186:0.45833334 187:0.54285717 188:0.59649122 189:0.75471699 190:0.609375 191:0.02631579 192:0.22772278 193:0.64999998 194:0.60294116 195:0.71794873 196:0.33750001 197:0.098039217 198:0.21052632 199:0.81944442 200:0.84931505 201:0.54761904 202:0.19008264 203:0.13829787 204:0.19767442 205:0.78947371 206:0.69999999 207:0.50769234 208:0.14583333 209:0.39705881 210:0.65934068 211:0.029411765 212:0.051948052 213:0.22222222 214:0.33333334 215:0.44318181 216:0.22619048 217:0.11594203 218:0.33846155 219:0.72151899 220:0.72727275 221:0.55000001 222:0.62666667 223:0.625 224:0.66101694 225:1 226:0.77499998 227:0.072289154 228:0.12149533 229:0.77631581 230:0.75 231:0.87654322 232:0.5411765 233:0.11926606 234:0.16949153 235:0.87356323 236:0.8924731 237:0.74358976 238:0.29245284 239:0.19512194 240:0.21951219 241:0.8051948 242:0.87837839 243:0.81818181 244:0.28421053 245:0.42424244 246:0.54216868 247:0.096774191 248:0.11111111 249:0.30107528 250:0.34615386 251:0.28395063 252:0.11363637 253:0.34482759 254:0.66197181 255:0.77027029 256:0.57894737 257:0.31999999 258:0 259:0.47916666 260:0.55263156 261:0.69354838 262:0.47058824 263:0.2173913 264:0 265:0.41025642 266:0.60000002 267:0.58064514 268:0.29310346 269:0.13186814 270:0 271:0.20930232 272:0.2972973 273:0.22413793 274:0.28395063 275:0.084337346 276:0.11764706 277:0.14893617 278:0.3125 279:0.27027026 280:0.27722773 281:0.29850745 282:0.42372882 283:0 284:0.046875 285:0.19753087 286:0.3493976 287:0.49206349 288:0.33823529 
0.4201061591900173 1:0.25757575 2:1 3:0.70588237 4:0.67948717 5:0.33333334 6:0.56521738 7:0.38805971 8:0.84782606 9:0.62295079 10:0.33333334 11:0.1882353 12:0.68181819 13:0.25454545 14:0.5714286 15:0.10869565 16:0.043956045 17:0.20754717 18:0.76842105 19:0.29090908 20:0.47727272 21:0.044117648 22:0.21052632 23:0.27027026 24:0.80952382 25:0.05172414 26:0.36842105 27:0.069444448 28:0.28155339 29:0.47945204 30:0.80000001 31:0.026666667 32:0.026666667 33:0.12698413 34:0.15217391 35:0.23170732 36:0.45070422 37:0.11428571 38:0.54945058 39:0.8888889 40:0.7096774 41:0.24468085 42:0.2090909 43:0.34246576 44:0.46551725 45:0.44444445 46:0.28333333 47:0.17391305 48:0.23999999 49:0.5 50:0.4909091 51:0.14814815 52:0.10843374 53:0.10784314 54:0.21367522 55:0.60493827 56:0.51612902 57:0.15384616 58:0.1300813 59:0.48275861 60:0.36363637 61:0.5 62:0.4852941 63:0.56140351 64:0.30841121 65:0.26984128 66:0.30120483 67:0.41176471 68:0.15853658 69:0.62637365 70:0.85046726 71:0.67543858 72:0.52678573 73:0.52564102 74:0.5 75:0.92207789 76:0.81159419 77:0.34482759 78:0.14285715 79:0.83636361 80:0.68421054 81:0.63380283 82:0.40322581 83:0.10476191 84:0.1570248 85:0.91176468 86:0.64179105 87:0.32467532 88:0.28915662 89:0.088495575 90:0.14285715 91:0.76712328 92:0.74712646 93:0.1969697 94:0.029411765 95:0.20930232 96:0.1923077 97:0.70786518 98:0.55263156 99:0.51219511 100:0.20224719 101:0.21176471 102:0.29333332 103:0.64516127 104:0.74390244 105:0.49462366 106:0.29787233 107:0.072289154 108:0.24050634 109:0.76363635 110:0.7352941 111:0.75362319 112:0.72307694 113:0.76271188 114:0.31460676 115:0.75555557 116:0.80000001 117:0.79220778 118:0.50632912 119:0.17857143 120:0.32038835 121:0.56451613 122:0.52631581 123:0.58730161 124:0.10714286 125:0 126:0.15315315 127:0.54285717 128:0.75510204 129:0.51020408 130:0 131:0.11494253 132:0.10666667 133:0.5714286 134:0.59420288 135:0.46031746 136:0.033333335 137:0.42857143 138:0.35384616 139:0.69230771 140:0.33962265 141:0.19354838 142:0.081081077 143:0.36507937 144:0.2173913 145:0.60606062 146:0.74137932 147:0.82456142 148:0.58333331 149:0.58823532 150:0.27536231 151:0.33333334 152:0.67391306 153:0.88461536 154:0.60714287 155:0.04255319 156:0.22093023 157:0.5714286 158:0.59375 159:0.51612902 160:0.24615385 161:0 162:0.13913043 163:0.43103448 164:0.625 165:0.26923078 166:0 167:0.18085106 168:0.14606741 169:0.25806451 170:0.41758242 171:0.20547946 172:0.025 173:0.051948052 174:0.21311475 175:0.35714287 176:0 177:0.071428575 178:0 179:0.12676056 180:0 181:0.19318181 182:0.4375 183:0.8035714 184:0.73015875 185:0.30645162 186:0.44444445 187:0.5 188:0.61403507 189:0.56603771 190:0.421875 191:0 192:0.10891089 193:0.66250002 194:0.67647058 195:0.35897437 196:0.175 197:0.0098039219 198:0.10526316 199:0.75 200:0.73972601 201:0.23809524 202:0 203:0.08510638 204:0.10465116 205:0.75 206:0.53333336 207:0.55384618 208:0.0625 209:0.16176471 210:0.43956044 211:0.11764706 212:0.038961038 213:0 214:0 215:0.022727273 216:0 217:0.13043478 218:0.50769234 219:0.8101266 220:0.95454544 221:0.93333334 222:0.65333331 223:0.5 224:0.54237288 225:0.56164384 226:0.58749998 227:0.10843374 228:0.14953271 229:0.86842108 230:0.72619045 231:0.48148149 232:0.29411766 233:0.11009175 234:0.15254237 235:0.85057473 236:0.73118281 237:0.12820514 238:0 239:0.14634146 240:0.060975611 241:0.55844158 242:0.62162161 243:0.38961038 244:0 245:0.22727273 246:0.25301206 247:0 248:0.013888889 249:0 250:0 251:0 252:0 253:0.27586207 254:0.71830988 255:0.7027027 256:0.53947371 257:0.34 258:0.51898736 259:0.45833334 260:0.63157892 261:0.64516127 262:0.5 263:0.28985506 264:0.24285714 265:0.38461539 266:0.40000001 267:0.29032257 268:0.24137931 269:0.27472529 270:0.10126583 271:0.3255814 272:0.35135135 273:0 274:0.20987654 275:0.24096386 276:0.10294118 277:0 278:0.109375 279:0 280:0.14851485 281:0.43283582 282:0.23728813 283:0 284:0 285:0 286:0 287:0.33333334 288:0.073529415 
0.4079897321114929 1:0.28787878 2:0.44230768 3:0.57352942 4:0.6025641 5:0.27777779 6:0.014492754 7:0.5970149 8:0.60869563 9:0.75409836 10:0.53623188 11:0.14117648 12:0.045454547 13:0.54545456 14:0.64285713 15:0.67391306 16:0.1978022 17:0.0094339624 18:0.031578947 19:0.83636361 20:0.75 21:0.30882353 22:0.042105265 23:0.040540539 24:0.071428575 25:0.65517241 26:0.33684212 27:0.2361111 28:0.31067961 29:0.82191783 30:0.44999999 31:0.25333333 32:0.13333334 33:0.20634921 34:0.28260869 35:0.73170733 36:0.29577464 37:0.03809524 38:0.054945055 39:0 40:0.032258064 41:0 42:0.11818182 43:0.2739726 44:0.15517241 45:0.22222222 46:0.16666667 47:0.060869563 48:0.112 49:0.46052632 50:0.34545454 51:0.62962961 52:0.24096386 53:0.029411765 54:0.042735044 55:0.83950615 56:0.82258064 57:0.75 58:0.18699187 59:0.11494253 60:0.13636364 61:0.79761904 62:0.7352941 63:0.63157892 64:0.23364486 65:0.52380955 66:0.60240966 67:0.29411766 68:0.036585364 69:0.08791209 70:0.10280374 71:0.21929824 72:0.044642858 73:0.29487181 74:0.025 75:0.090909094 76:0 77:0 78:0.10084034 79:0.54545456 80:0.3508772 81:0.53521127 82:0.41935483 83:0.0095238099 84:0.14049587 85:0.66176468 86:0.41791046 87:0.62337661 88:0.43373495 89:0.061946902 90:0.026785715 91:0.86301368 92:0.83908045 93:0.39393941 94:0.16666667 95:0.12790698 96:0.20512821 97:0.78651685 98:0.65789473 99:0.5487805 100:0.20224719 101:0.51764709 102:0.66666669 103:0.29032257 104:0 105:0.021505376 106:0.14893617 107:0 108:0.075949363 109:0.21818182 110:0.35294119 111:0.40579709 112:0.43076923 113:0.55932206 114:0.13483146 115:0.51111114 116:0.44444445 117:0.75324672 118:0.72151899 119:0.17857143 120:0.17475729 121:0.20967741 122:0.42105263 123:0.65079367 124:0.64285713 125:0.14606741 126:0.081081077 127:0.45714286 128:0.59183675 129:0.40816328 130:0.31944445 131:0.10344828 132:0.16 133:0.49206349 134:0.44927537 135:0.3968254 136:0.5 137:0.75714284 138:0.75384617 139:0.33846155 140:0.11320755 141:0.12903225 142:0.37837839 143:0.93650794 144:0.47826087 145:0.59090906 146:0.55172414 147:0.71929824 148:0.69444442 149:0.627451 150:0.1884058 151:0.83333331 152:0.45652175 153:0.48076922 154:0.58928573 155:0.25531915 156:0.30232558 157:1 158:0.6875 159:0.7096774 160:0.55384618 161:0.24358974 162:0.18260869 163:0.87931037 164:0.375 165:0.44230768 166:0.46913579 167:0.25531915 168:0.16853933 169:0.87096775 170:0.46153846 171:0.23287672 172:0.36250001 173:0.37662336 174:0.52459013 175:0.72857141 176:0.14666666 177:0.12857144 178:0.46590909 179:0.77464789 180:0.31818181 181:0.72727275 182:0.625 183:0.3392857 184:0.5714286 185:0.7096774 186:0.47222221 187:0.22857143 188:0.03508772 189:0.35849056 190:0.5625 191:0.10526316 192:0.21782178 193:0.64999998 194:0.55882353 195:0.71794873 196:0.47499999 197:0.17647059 198:0.18421052 199:0.69444442 200:0.60273975 201:0.69047618 202:0.25619835 203:0.21276596 204:0.25581396 205:1 206:0.89999998 207:0.66153848 208:0.21875 209:0.52941179 210:0.76923078 211:0.27941176 212:0.23376623 213:0.17777778 214:0.35185185 215:0.53409094 216:0.2857143 217:0.23188406 218:0.2 219:0.29113925 220:0.18181819 221:0.26666668 222:0.61333334 223:0.25 224:0.016949153 225:0.41095892 226:0.5 227:0.084337346 228:0.19626169 229:0.86842108 230:0.73809522 231:0.79012346 232:0.40000001 233:0.12844037 234:0.23728813 235:0.82758623 236:0.74193549 237:0.56410259 238:0.2264151 239:0.15853658 240:0.19512194 241:0.96103895 242:1 243:0.71428573 244:0.24210526 245:0.42424244 246:0.54216868 247:0.3548387 248:0.34722221 249:0.30107528 250:0.23076923 251:0.38271606 252:0.19318181 253:0.29310346 254:0.67605633 255:0.58108109 256:0.47368422 257:0.16 258:0.60759491 259:0.72916669 260:0.65789473 261:0.58064514 262:0.29411766 263:0.2173913 264:0.37142858 265:0.79487181 266:0.53333336 267:0.53225809 268:0.13793103 269:0.13186814 270:0.25316456 271:0.58139533 272:0.37837839 273:0.15517241 274:0.037037037 275:0.024096385 276:0.20588236 277:0.70212764 278:0.328125 279:0.25675675 280:0.15841584 281:0.37313432 282:0.47457626 283:0.39344263 284:0.34375 285:0.25925925 286:0.21686748 287:0.61904764 288:0.2647059 
0.01010104788767284 1:0.27272728 2:0.75 3:0.52941179 4:0.57692307 5:0.18518518 6:0.37681159 7:0.49253732 8:0.65217394 9:0.45901638 10:0.23188406 11:0.082352944 12:0.31818181 13:0.41818181 14:0.42857143 15:0 16:0 17:0.075471699 18:0.22105263 19:0.58181816 20:0.54545456 21:0.10294118 22:0.063157894 23:0.040540539 24:0.35714287 25:0.5 26:0.38947368 27:0.055555556 28:0.067961164 29:0.39726028 30:0.61250001 31:0.40000001 32:0.17333333 33:0.19047619 34:0.043478262 35:0.24390244 36:0.71830988 37:0.16190477 38:0.42857143 39:0.60317463 40:0.45161289 41:0.17021276 42:0.15454546 43:0.4520548 44:0.43103448 45:0.11111111 46:0 47:0.078260869 48:0.176 49:0.61842108 50:0.5272727 51:0.12962963 52:0.072289154 53:0.029411765 54:0.11965812 55:0.80246913 56:0.62903225 57:0.15384616 58:0.065040648 59:0.31034482 60:0.27272728 61:0.79761904 62:0.58823532 63:0.45614034 64:0.10280374 65:0.23809524 66:0.3493976 67:0.3764706 68:0.048780486 69:0.043956045 70:0 71:0 72:0 73:0.48717949 74:0.28749999 75:0.70129871 76:0.53623188 77:0.21839081 78:0.084033616 79:0.70909089 80:0.36842105 81:0.42253521 82:0.16129032 83:0.028571429 84:0.14049587 85:0.7647059 86:0.43283582 87:0.22077923 88:0.21686748 89:0.061946902 90:0.11607143 91:0.69863015 92:0.65517241 93:0.12121212 94:0.029411765 95:0.19767442 96:0.24358974 97:0.67415732 98:0.4868421 99:0.43902439 100:0.067415729 101:0.3882353 102:0.57333332 103:0.30645162 104:0.1097561 105:0 106:0.095744684 107:0.084337346 108:0.2658228 109:0.34545454 110:0.58823532 111:0.55072463 112:0.64615387 113:0.64406782 114:0.21348314 115:0.42222223 116:0.66666669 117:0.66233766 118:0.43037975 119:0.10714286 120:0.23300971 121:0.30645162 122:0.55263156 123:0.46031746 124:0.2857143 125:0.056179777 126:0.11711711 127:0.38571429 128:0.73469388 129:0.44897959 130:0.25 131:0.19540229 132:0.10666667 133:0.44444445 134:0.49275362 135:0.41269842 136:0.23333333 137:0.55714285 138:0.52307695 139:0.27692309 140:0.11320755 141:0.33870968 142:0.43243244 143:0.53968257 144:0.33333334 145:0.71212119 146:0.56896549 147:0.68421054 148:0.5138889 149:0.58823532 150:0.26086956 151:0.85416669 152:0.43478259 153:0.63461536 154:0.6785714 155:0.063829787 156:0.24418604 157:0.9285714 158:0.40625 159:0.3548387 160:0.36923078 161:0.12820514 162:0.16521738 163:0.81034482 164:0.64583331 165:0.23076923 166:0.37037036 167:0.32978722 168:0.23595506 169:0.77419353 170:0.43956044 171:0.26027396 172:0.34999999 173:0.16883117 174:0.37704918 175:0.78571427 176:0.06666667 177:0.32857144 178:0.39772728 179:0.3943662 180:0.28787878 181:0.69318181 182:0.59375 183:0.66071427 184:0.61904764 185:0.46774194 186:0.40277779 187:0.37142858 188:0.47368422 189:0.43396226 190:0.359375 191:0.065789476 192:0.15841584 193:0.57499999 194:0.60294116 195:0.15384616 196:0.25 197:0.13725491 198:0.21929824 199:0.68055558 200:0.73972601 201:0.19047619 202:0.11570248 203:0.19148937 204:0.20930232 205:0.78947371 206:0.61666667 207:0.56923079 208:0.125 209:0.27941176 210:0.59340662 211:0.29411766 212:0.15584415 213:0.13333334 214:0.26851851 215:0.27272728 216:0.30952382 217:0.34782609 218:0.52307695 219:0.60759491 220:0.69696969 221:0.64999998 222:0.60000002 223:0.625 224:0.45762712 225:0.42465752 226:0.47499999 227:0.13253012 228:0.24299066 229:0.97368419 230:0.66666669 231:0.38271606 232:0.21176471 233:0.17431192 234:0.32203391 235:0.98850572 236:0.69892472 237:0.17948718 238:0.066037737 239:0.25609756 240:0.24390244 241:0.83116883 242:0.71621621 243:0.41558442 244:0.021052632 245:0.34848484 246:0.45783132 247:0.33870968 248:0.2361111 249:0.17204301 250:0.16346154 251:0.13580246 252:0.14772727 253:0.3275862 254:0.76056337 255:0.6081081 256:0.52631581 257:0.34 258:0.50632912 259:0.72916669 260:0.63157892 261:0.53225809 262:0.38235295 263:0.1884058 264:0.38571429 265:0.71794873 266:0.40000001 267:0.20967741 268:0.15517241 269:0.24175824 270:0.32911393 271:0.67441863 272:0.51351351 273:0.034482758 274:0.16049382 275:0.22891566 276:0.41176471 277:0.5106383 278:0.328125 279:0.067567565 280:0.099009901 281:0.55223882 282:0.57627118 283:0.36065573 284:0.328125 285:0.22222222 286:0.060240965 287:0.60317463 288:0.55882353 
0.1103006441938015 1:0.83333331 2:1 3:0.52941179 4:0.48717949 5:0.51851851 6:0.72463769 7:0.62686568 8:0.93478262 9:0.75409836 10:0.50724638 11:0.1882353 12:0.67045456 13:0.56363636 14:0.83333331 15:0.56521738 16:0.35164836 17:0.14150943 18:0.70526314 19:0.70909089 20:0.70454544 21:0.19117647 22:0.22105263 23:0.10810811 24:0.70238096 25:0.48275861 26:0.44210526 27:0.083333336 28:0.21359223 29:0.61643833 30:0.875 31:0.22666667 32:0.2 33:0.23809524 34:0.17391305 35:0.52439022 36:0.70422536 37:0.55238098 38:0.6813187 39:0.79365081 40:0.61290324 41:0.52127659 42:0.62727273 43:0.47945204 44:0.60344827 45:0.53333336 46:0.18333334 47:0.086956523 48:0.296 49:0.67105263 50:0.72727275 51:0.77777779 52:0.40963855 53:0.19607843 54:0.41025642 55:0.81481481 56:0.64516127 57:0.5 58:0.21138212 59:0.22988506 60:0.23863636 61:0.70238096 62:0.69117647 63:0.57894737 64:0.22429906 65:0.34920636 66:0.46987951 67:0.51764709 68:0.40243903 69:0.56043959 70:0.59813082 71:0.5 72:0.49107143 73:0.66666669 74:0.60000002 75:0.83116883 76:0.59420288 77:0.56321841 78:0.59663868 79:0.94545454 80:0.64912283 81:0.5633803 82:0.25806451 83:0.095238097 84:0.25619835 85:1 86:0.61194032 87:0.55844158 88:0.44578314 89:0.16814159 90:0.33035713 91:0.87671232 92:0.73563218 93:0.15151516 94:0.13725491 95:0.18604651 96:0.17948718 97:0.84269661 98:0.60526317 99:0.4512195 100:0.10112359 101:0.3764706 102:0.38666666 103:0.7903226 104:0.597561 105:0.43010753 106:0.4893617 107:0.48192772 108:0.58227849 109:1 110:0.75 111:0.59420288 112:0.49230769 113:0.84745765 114:0.83146065 115:1 116:0.86666667 117:0.8831169 118:0.59493673 119:0.35714287 120:0.34951457 121:0.61290324 122:0.97368419 123:0.63492066 124:0.76785713 125:0.31460676 126:0.27927929 127:0.54285717 128:0.93877554 129:0.26530612 130:0.27777779 131:0.31034482 132:0.17333333 133:0.49206349 134:0.56521738 135:0.31746033 136:0.11666667 137:0.40000001 138:0.58461541 139:0.66153848 140:0.24528302 141:0.032258064 142:0.1891892 143:0.60317463 144:0.43478259 145:0.84848487 146:0.7758621 147:0.64912283 148:0.5138889 149:0.90196079 150:0.85507244 151:0.6875 152:0.69565219 153:0.65384614 154:0.76785713 155:0.59574467 156:0.44186047 157:0.8035714 158:0.84375 159:0.45161289 160:0.64615387 161:0.29487181 162:0.22608696 163:0.62068963 164:0.85416669 165:0.21153846 166:0.32098764 167:0.39361703 168:0.38202247 169:0.41935483 170:0.47252747 171:0.21917808 172:0.125 173:0.45454547 174:0.59016395 175:0.41428572 176:0.13333334 177:0.085714288 178:0.20454545 179:0.59154928 180:0.36363637 181:0.40909091 182:0.34375 183:0.42857143 184:0.22222222 185:0.46774194 186:0.75 187:0.51428574 188:0.66666669 189:0.5471698 190:0.421875 191:0.38157895 192:0.46534654 193:0.83749998 194:0.77941179 195:0.79487181 196:0.48750001 197:0.12745099 198:0.18421052 199:0.80555558 200:0.72602737 201:0.40476191 202:0.25619835 203:0.15957446 204:0.25581396 205:0.92105263 206:0.80000001 207:0.50769234 208:0.03125 209:0.10294118 210:0.53846157 211:0.2647059 212:0.23376623 213:0.088888891 214:0.14814815 215:0.10227273 216:0.13095239 217:0.47826087 218:0.49230769 219:0.56962025 220:0.46969697 221:0.23333333 222:0.47999999 223:0.6875 224:0.67796612 225:0.68493152 226:0.57499999 227:0.31325302 228:0.44859812 229:0.97368419 230:0.86904764 231:0.87654322 232:0.48235294 233:0.091743119 234:0.24576271 235:0.91954023 236:0.73118281 237:0.38461539 238:0.26415095 239:0.23170732 240:0.32926831 241:0.87012988 242:0.67567569 243:0.38961038 244:0.052631579 245:0.36363637 246:0.3493976 247:0.30645162 248:0.15277778 249:0.07526882 250:0.14423077 251:0.11111111 252:0.056818184 253:1 254:1 255:0.5945946 256:0.52631581 257:0.77999997 258:0.77215189 259:0.875 260:1 261:0.58064514 262:0.55882353 263:0.34782609 264:0.75714284 265:0.69230771 266:0.76666665 267:0.43548387 268:0.44827586 269:0.17582418 270:0.5316456 271:0.6511628 272:0.5945946 273:0.27586207 274:0.37037036 275:0.24096386 276:0.60294116 277:0.46808511 278:0.3125 279:0.2027027 280:0.16831683 281:0.41791046 282:0.52542371 283:0.26229507 284:0.21875 285:0.12345679 286:0.12048193 287:0.34920636 288:0.5147059 
0.08701726450703889 1:0.40909091 2:0.98076922 3:0.89705884 4:0.78205127 5:0.42592594 6:0.84057969 7:0.73134327 8:0.97826087 9:0.75409836 10:0.44927537 11:0.1882353 12:0.86363637 13:0.67272729 14:0.85714287 15:0.60869563 16:0.17582418 17:0.056603774 18:0.80000001 19:0.74545455 20:0.72727275 21:0.39705881 22:0.08421053 23:0.013513514 24:0.78571427 25:0.55172414 26:0.36842105 27:0.19444445 28:0.2038835 29:0.3561644 30:0.96249998 31:0.21333334 32:0.079999998 33:0.12698413 34:0.27173913 35:0.42682928 36:0.88732392 37:0.33333334 38:0.51648355 39:0.85714287 40:0.66129035 41:0.27659574 42:0.25454545 43:0.60273975 44:0.53448278 45:0.51111114 46:0.28333333 47:0.19130434 48:0.176 49:0.64473683 50:0.5090909 51:0.53703701 52:0.22891566 53:0.11764706 54:0.21367522 55:0.90123457 56:0.85483873 57:0.73076922 58:0.14634146 59:0.18390805 60:0.30681819 61:0.76190478 62:0.64705884 63:0.63157892 64:0.29906541 65:0.90476191 66:1 67:0.58823532 68:0.28048781 69:0.41758242 70:0.57943922 71:0.85087717 72:0.66071427 73:0.38461539 74:0.38749999 75:0.87012988 76:0.81159419 77:0.43678162 78:0.18487395 79:0.92727274 80:0.61403507 81:0.70422536 82:0.5 83:0.19047619 84:0.18181819 85:0.95588237 86:0.58208954 87:0.45454547 88:0.39759037 89:0.18584071 90:0.20535715 91:0.86301368 92:0.85057473 93:0.42424244 94:0.19607843 95:0.19767442 96:0.21794872 97:0.67415732 98:0.57894737 99:0.52439022 100:0.22471911 101:0.32941177 102:0.44 103:0.54838711 104:0.5 105:0.37634408 106:0.43617022 107:0.30120483 108:0.59493673 109:0.41818181 110:0.57352942 111:0.73913044 112:0.80000001 113:0.84745765 114:0.34831461 115:0.73333335 116:0.71111113 117:0.83116883 118:0.63291138 119:0.42857143 120:0.33009708 121:0.29032257 122:0.7631579 123:0.66666669 124:0.51785713 125:0.26966292 126:0.23423423 127:0.32857144 128:0.5714286 129:0.67346936 130:0.41666666 131:0.24137931 132:0.14666666 133:0.41269842 134:0.49275362 135:0.36507937 136:0.40000001 137:0.22857143 138:0.49230769 139:0.16923077 140:0.20754717 141:0.064516127 142:0.17567568 143:0.12698413 144:0.49275362 145:0.39393941 146:0.67241377 147:0.64912283 148:0.75 149:0.66666669 150:0.46376812 151:0.16666667 152:0.63043481 153:0.5 154:0.6964286 155:0.29787233 156:0.33720931 157:0.375 158:0.71875 159:0.54838711 160:0.32307693 161:0.15384616 162:0.14782609 163:0.18965517 164:0.54166669 165:0.34615386 166:0.24691358 167:0.20212767 168:0.14606741 169:0.11290322 170:0.37362638 171:0.19178082 172:0.2 173:0.064935066 174:0.60655737 175:0.14285715 176:0.10666667 177:0.057142857 178:0.23863636 179:0.45070422 180:0.78787881 181:0 182:0.09375 183:0.5 184:0.55555558 185:0.27419356 186:0.2638889 187:0.40000001 188:0.42105263 189:0.58490568 190:0.46875 191:0.092105262 192:0.12871288 193:0.83749998 194:0.75 195:0.51282054 196:0.33750001 197:0.078431375 198:0.070175439 199:0.69444442 200:0.6438356 201:0.40476191 202:0.1570248 203:0.12765957 204:0.15116279 205:0.86842108 206:0.80000001 207:0.69230771 208:0.19791667 209:0.63235295 210:0.92307693 211:0.20588236 212:0.18181819 213:0.13333334 214:0.4537037 215:0.95454544 216:0.80952382 217:0.11594203 218:0.26153848 219:0.6708861 220:0.59090906 221:0.16666667 222:0.25333333 223:0.703125 224:0.54237288 225:0.69863015 226:0.52499998 227:0.096385539 228:0.14018692 229:1 230:0.84523809 231:0.71604937 232:0.36470589 233:0.082568809 234:0.14406779 235:0.80459768 236:0.66666669 237:0.3974359 238:0.094339624 239:0.060975611 240:0.048780486 241:0.84415585 242:0.87837839 243:0.72727275 244:0.14736842 245:0.27272728 246:0.33734939 247:0.24193548 248:0.19444445 249:0.19354838 250:0.22115384 251:0.19753087 252:0.21590909 253:0.48275861 254:0.73239434 255:0.56756759 256:0.46052632 257:0.47999999 258:0.46835443 259:0.9375 260:0.68421054 261:0.53225809 262:0.45588234 263:0.23188406 264:0.31428573 265:0.76923078 266:0.40000001 267:0.5 268:0.1724138 269:0.07692308 270:0.11392405 271:0.44186047 272:0.43243244 273:0.36206895 274:0.061728396 275:0.036144577 276:0.20588236 277:0.53191489 278:0.3125 279:0.25675675 280:0.10891089 281:0.074626863 282:0.10169491 283:0.29508197 284:0.265625 285:0.16049382 286:0.18072289 287:0.031746034 288:0.35294119 
0.01732908959420203 1:0.40909091 2:0.67307693 3:0.80882353 4:0.80769229 5:0.4074074 6:0.11594203 7:0.53731346 8:0.47826087 9:0.6557377 10:0.40579709 11:0.094117649 12:0.090909094 13:0.4909091 14:0.61904764 15:0.65217394 16:0.2857143 17:0.03773585 18:0.14736842 19:0.60000002 20:0.5 21:0.16176471 22:0.08421053 23:0.16216215 24:0.32142857 25:0.51724136 26:0.32631579 27:0.2361111 28:0.22330096 29:0.72602737 30:0.86250001 31:0.25333333 32:0.079999998 33:0.047619049 34:0.22826087 35:0.86585367 36:0.64788735 37:0.20952381 38:0.35164836 39:0.71428573 40:0.58064514 41:0.19148937 42:0.018181818 43:0.42465752 44:0.41379312 45:0.5777778 46:0.38333333 47:0.017391304 48:0 49:0.59210527 50:0.54545456 51:0.74074072 52:0.37349397 53:0.049019609 54:0.008547009 55:0.80246913 56:0.61290324 57:0.21153846 58:0.10569106 59:0.48275861 60:0.59090906 61:0.78571427 62:0.58823532 63:0.61403507 64:0.23364486 65:0.71428573 66:0.83132529 67:0.75294119 68:0.4512195 69:0.59340662 70:0.61682242 71:0.74561405 72:0.75 73:0.42307693 74:0.36250001 75:0.75324672 76:0.63768119 77:0.21839081 78:0 79:0.63636363 80:0.3859649 81:0.61971831 82:0.45161289 83:0.03809524 84:0 85:0.72058821 86:0.50746268 87:0.61038959 88:0.44578314 89:0.061946902 90:0.0089285718 91:0.61643833 92:0.68965518 93:0.1969697 94:0.088235296 95:0.22093023 96:0.37179488 97:0.5955056 98:0.55263156 99:0.5 100:0.17977528 101:0 102:0.18666667 103:0.5 104:0.39024389 105:0.45161289 106:0.63829786 107:0.21686748 108:0 109:0.40000001 110:0.5 111:0.75362319 112:0.75384617 113:0.76271188 114:0 115:0.60000002 116:0.2888889 117:0.6883117 118:0.48101267 119:0.053571429 120:0 121:0.46774194 122:0.57894737 123:0.73015875 124:0.71428573 125:0.13483146 126:0 127:0.52857143 128:0.5714286 129:0.42857143 130:0.2361111 131:0.045977011 132:0.29333332 133:0.36507937 134:0.40579709 135:0.34920636 136:0.33333334 137:0 138:0.38461539 139:0.26153848 140:0.056603774 141:0.22580644 142:0.16216215 143:0 144:0 145:0.62121212 146:0.55172414 147:0.70175439 148:0.68055558 149:0.70588237 150:0 151:0.58333331 152:0.39130434 153:0.55769229 154:0.76785713 155:0.23404256 156:0.011627907 157:0.71428573 158:0.40625 159:0.61290324 160:0.49230769 161:0.089743592 162:0.017391304 163:0.81034482 164:0.4375 165:0.40384614 166:0.2962963 167:0.14893617 168:0.23595506 169:1 170:0.45054945 171:0.32876712 172:0.27500001 173:0.27272728 174:0.86885244 175:0.67142856 176:0.12 177:0.2857143 178:0.32954547 179:0.69014084 180:0.65151513 181:0.39772728 182:0.296875 183:0.5714286 184:0.60317463 185:0.22580644 186:0.027777778 187:0.45714286 188:0.56140351 189:0.88679248 190:0.671875 191:0.013157895 192:0.069306932 193:0.625 194:0.60294116 195:0.84615386 196:0.5 197:0.15686275 198:0.087719299 199:0.7361111 200:0.79452056 201:0.66666669 202:0.23140496 203:0.21276596 204:0.3255814 205:0.77631581 206:0.69999999 207:0.76923078 208:0.27083334 209:0.7647059 210:0.98901099 211:0.27941176 212:0.20779221 213:0.24444444 214:0.28703704 215:0.67045456 216:0.60714287 217:0.37681159 218:0.35384616 219:0.59493673 220:0.59090906 221:0.51666665 222:0.49333334 223:0.578125 224:0.42372882 225:0.68493152 226:0.63749999 227:0.16867469 228:0.14018692 229:0.81578946 230:0.60714287 231:0.58024693 232:0.47058824 233:0.22935779 234:0.21186441 235:0.81609195 236:0.66666669 237:0.23076923 238:0.16037735 239:0.19512194 240:0.19512194 241:0.67532468 242:0.64864862 243:0.45454547 244:0.15789473 245:0.1969697 246:0.38554215 247:0.20967741 248:0.16666667 249:0.086021505 250:0.096153848 251:0.024691358 252:0.079545453 253:0.31034482 254:0.57746476 255:0.64864862 256:0.65789473 257:0.46000001 258:0.37974682 259:0.66666669 260:0.31578946 261:0.45161289 262:0.47058824 263:0.20289855 264:0.40000001 265:0.56410259 266:0.26666668 267:0.53225809 268:0.39655173 269:0.20879121 270:0.37974682 271:0.53488374 272:0.32432431 273:0.27586207 274:0.098765433 275:0.15662651 276:0.42647058 277:0.5106383 278:0.234375 279:0.24324325 280:0.089108914 281:0.074626863 282:0.33898306 283:0.39344263 284:0.1875 285:0.049382716 286:0 287:0.015873017 288:0.29411766 
