svm_type c_svc
kernel_type rbf
gamma 0.09
nr_class 2
total_sv 85
rho -0.272802
label 20121 20122
nr_sv 47 38
SV
0.7029953146239141 1:0.55769229 2:0 3:0.13953489 4:0.21951219 5:0.020833334 6:0.36585367 7:0.83333331 8:0.64705884 9:0.42424244 10:0.65625 11:0.3888889 12:0.56842107 13:1 14:0.875 15:0.1388889 16:0 17:0 18:0.64077669 19:0.71794873 20:0.66101694 21:0.25806451 22:0 23:0.31914893 24:0.77570093 25:0.61627907 26:0.18518518 27:0 28:0 29:0.097560972 30:0.58064514 31:0.25316456 32:0 33:0 34:0.12195122 35:0.12727273 36:0.48913044 37:0.70886075 38:0.66292137 39:0.65853661 40:0.65168542 41:0.53012049 42:0.51948053 43:0.85365856 44:1 45:0.97674417 46:1 47:0.85185188 48:0.66666669 49:0.44444445 50:0.60465115 51:0.48571429 52:0.57999998 53:0.70588237 54:0.61818182 55:0.62222224 56:0.85294116 57:0.77272725 58:0.14035088 59:0.19047619 60:0.28358209 61:0.50819671 62:0.52941179 63:0.27272728 64:0.109375 65:0.32894737 66:0.25352111 67:0.39784947 68:0.37234041 69:0.30263159 70:0.19753087 71:0.26136363 72:0.40000001 73:0.828125 74:1 75:0.91011238 76:0.90217394 77:0.79310346 78:0.60493827 79:0.75999999 80:1 81:0.95918369 82:0.96363634 83:0.96428573 84:0.63999999 85:0.41666666 86:0.69999999 87:0.58974361 88:0.51111114 89:0.58490568 90:0.4909091 91:0.57894737 92:1 93:1 94:0.64814812 95:0.37142858 96:0.25454545 97:0.53846157 98:0.79365081 99:0.5 100:0.67741936 101:0.52222222 102:0.1780822 103:0.56976742 104:0.50602412 105:0.53571427 106:0.56666666 107:0.58762884 108:0.58333331 109:0.44444445 110:0 111:0.37837839 112:0.071428575 113:0.19047619 114:0.44186047 115:0.73076922 116:0.63636363 117:0.71052629 118:0.375 119:0.73170733 120:0.78181821 121:0.83333331 122:0.39473686 123:0.10204082 124:0 125:0.035714287 126:0.97872341 127:0.71604937 128:0.54237288 129:0.19512194 130:0 131:0 132:0.83333331 133:0.46739131 134:0.38181818 135:0.05882353 136:0.42105263 137:0.15000001 138:0.30000001 139:0.53521127 140:0.08510638 141:0.075000003 142:0.1 143:0.12765957 144:0.35714287 145:0.47191012 146:0.3125 147:0.46153846 148:0.19354838 149:0.5 150:0.48192772 151:0.49397591 152:0.35294119 153:0.48275861 154:0.36666667 155:0.94999999 156:0.84810126 157:0.71084338 158:1 159:0.5 160:0 161:0.375 162:0.83950615 163:0.57303369 164:0.42857143 165:0.90322578 166:0.24390244 167:0.1891892 168:0.96052629 169:0.36559141 170:0 171:0.77142859 172:0.21875 173:0.91176468 174:1 175:0.25806451 176:0 177:0.098039217 178:0.064516127 179:0.27777779 180:0.51999998 181:0.43298969 182:0.55140185 183:0.55696201 184:0.55714285 185:0.41176471 186:0.30120483 187:0.45679012 188:0.90140843 189:0.80952382 190:0.85106385 191:0.7647059 192:0.34615386 193:0.47169811 194:1 195:0.75 196:0.52830189 197:0.54347825 198:0.48275861 199:0.69767439 200:0.6111111 201:0.86666667 202:0.23913044 203:0.078125 204:0.30645162 205:0.55555558 206:0.73170733 207:0.5 208:0.1 209:0.3974359 210:0.23529412 211:0.50746268 212:0.30666667 213:0.45454547 214:0.51351351 215:0.60000002 216:0.61538464 217:0.67816091 218:0.78947371 219:0.71264368 220:0.48780489 221:0.43678162 222:0.50649351 223:0.84375 224:1 225:0.80434781 226:1 227:0.83999997 228:0.58490568 229:0.39655173 230:0.75 231:0.5 232:0.75438595 233:1 234:0.70491803 235:0.22222222 236:0.60000002 237:0.6111111 238:0.20408164 239:0.31578946 240:0.40243903 241:1 242:1 243:0.57692307 244:0.42857143 245:0.42105263 246:0.30434781 247:0.69696969 248:0.85897434 249:0.71232879 250:0.80000001 251:0.72727275 252:0.66176468 253:0.625 254:0.40000001 255:0.27500001 256:0.5 257:0.1754386 258:0.54054052 259:0.79411763 260:0.51612902 261:0.23076923 262:0.77777779 263:0.39473686 264:0.80327868 265:0.66666669 266:0.94285715 267:0.19512194 268:0 269:0.17647059 270:0.85294116 271:0.56896549 272:0.66000003 273:0.54545456 274:0.12765957 275:0.23913044 276:0.84722221 277:0.89999998 278:0.59090906 279:0.61290324 280:0.56756759 281:0.33333334 282:0.95999998 283:0.52325583 284:0.16949153 285:0.020408163 286:0.10526316 287:0.13333334 288:0.5970149 
0.3646758263165983 1:0.94230771 2:0.60784316 3:0.58139533 4:0.43902439 5:0.52083331 6:0.32926831 7:0.71428573 8:0.82352942 9:0.78787881 10:0.4375 11:0.5 12:0.28421053 13:0.64912283 14:0.875 15:0.3611111 16:0.26666668 17:0.5 18:0.18446602 19:0.5 20:1 21:0.3548387 22:0.40909091 23:0.29787233 24:0.12149533 25:0.68604654 26:0.74074072 27:0.54285717 28:0.48275861 29:0.31707317 30:0 31:0.68354428 32:0.14516129 33:0.375 34:0.19512194 35:0.34545454 36:0.043478262 37:0.79746836 38:0.43820226 39:0.48780489 40:0.55056179 41:0.53012049 42:0.51948053 43:0.80487806 44:0.6111111 45:0.72093022 46:0.6226415 47:0.9074074 48:0.85964912 49:0.64444447 50:0.44186047 51:0.17142858 52:0.34 53:0.49019608 54:0.58181816 55:0.73333335 56:0.5 57:0.47727272 58:0.59649122 59:0.53968257 60:0.46268657 61:1 62:0.68627453 63:0.54545456 64:0.796875 65:0.7631579 66:0.54929578 67:0.24731183 68:0.13829787 69:0.052631579 70:0.12345679 71:0.10227273 72:0.28 73:1 74:0.95348835 75:0.88764048 76:0.90217394 77:0.91954023 78:1 79:0.80000001 80:0.54000002 81:0.79591835 82:0.94545454 83:0.76785713 84:0.75999999 85:0.54166669 86:0.32499999 87:0.66666669 88:0.82222223 89:0.64150941 90:0.5272727 91:1 92:0.61290324 93:0.47619048 94:0.46296296 95:0.80000001 96:0.67272729 97:1 98:1 99:0.83333331 100:0.82258064 101:0.84444445 102:0.76712328 103:0.3255814 104:0.25301206 105:0.23809524 106:0.34444445 107:0.37113401 108:0.4642857 109:0.44444445 110:0.58823532 111:0.62162161 112:0.64285713 113:0.47619048 114:0.63953489 115:0.59615386 116:0.75757575 117:0.42105263 118:0.6875 119:0.43902439 120:0.78181821 121:0.5925926 122:0.86842108 123:0.10204082 124:0.36363637 125:0.35714287 126:0.68085104 127:0.62962961 128:0.94915253 129:0.46341464 130:0.47368422 131:0.51612902 132:0.52380955 133:0.60869563 134:0.67272729 135:0.32352942 136:0.55263156 137:0.60000002 138:0.875 139:0.18309858 140:0.14893617 141:0.30000001 142:0.34999999 143:0.36170211 144:0.75 145:0.26966292 146:0.64583331 147:0.53846157 148:0.54838711 149:0.53333336 150:0.79518074 151:0.25301206 152:0.64705884 153:0.20689656 154:0.56666666 155:0.32499999 156:0.83544302 157:0.26506025 158:0.5 159:0.39473686 160:0.43181819 161:0.34999999 162:0.74074072 163:0.48314607 164:0.65306121 165:0.54838711 166:0.46341464 167:0.48648649 168:0.53947371 169:0.17204301 170:0.40909091 171:0.31428573 172:0.40625 173:0.64705884 174:0.33333334 175:0.1827957 176:0.31944445 177:0.19607843 178:0.58064514 179:0.5 180:0.78666669 181:0.59793812 182:0.64485979 183:0.4050633 184:0.45714286 185:0.36470589 186:0.50602412 187:0.39506173 188:0.42253521 189:0.2857143 190:0.40425533 191:0.4509804 192:0.63461536 193:0.7735849 194:0.48888889 195:0.56818181 196:0.66037738 197:0.69565219 198:0.79310346 199:0.6511628 200:0.5 201:0.42222223 202:0.30434781 203:0.625 204:0.7903226 205:1 206:0.97560978 207:0.64285713 208:0.63999999 209:0.67948717 210:0.61764705 211:0.62686568 212:0.56 213:0.50649351 214:0.58108109 215:0.57333332 216:0.76923078 217:0.87356323 218:0.7631579 219:0.80459768 220:0.76829267 221:0.85057473 222:0.81818181 223:0.609375 224:0.36842105 225:0.39130434 226:0.41176471 227:0.54000002 228:0.75471699 229:0.82758623 230:0.75 231:0.54166669 232:0.66666669 233:0.73584908 234:0.63934427 235:0.6388889 236:0.40000001 237:0.19444445 238:0.65306121 239:0.84210527 240:0.65853661 241:0.80000001 242:0.58823532 243:0.44230768 244:0.65079367 245:0.80263156 246:0.50724638 247:0.89393938 248:0.78205127 249:0.72602737 250:0.75384617 251:0.70129871 252:0.67647058 253:0.8125 254:0.5 255:0.82499999 256:0.72727275 257:0.50877196 258:0.25675675 259:0.79411763 260:0.77419353 261:0.57692307 262:0.55555558 263:0.5 264:0.29508197 265:0.66666669 266:0.88571429 267:0.31707317 268:0.52941179 269:0.49019608 270:0.25 271:0.94827586 272:1 273:0.33333334 274:0.61702126 275:0.5869565 276:0.2361111 277:0.56666666 278:0.68181819 279:0.38709676 280:0.54054052 281:0.87179488 282:0.2 283:0.54651165 284:0.3898305 285:0.51020408 286:0.24561404 287:0.71666664 288:0.43283582 
0.5901075567848671 1:0.59615386 2:0.41176471 3:0.53488374 4:0.51219511 5:0.45833334 6:0.56097561 7:0.2857143 8:0.49019608 9:0.93939394 10:0.8125 11:0.55555558 12:0.54736841 13:0.3859649 14:0.39285713 15:0.3611111 16:0.55555558 17:0.43333334 18:0.53398061 19:0.29487181 20:0.15254237 21:0.064516127 22:0.40909091 23:0 24:0.54205608 25:0.29069766 26:0.25925925 27:0.60000002 28:0.89655173 29:0.46341464 30:0.47311828 31:0.58227849 32:0.24193548 33:0.55000001 34:0.51219511 35:0.36363637 36:0.55434781 37:0.54430377 38:0.46067417 39:0.597561 40:0.51685393 41:0.50602412 42:0.44155845 43:0.41463414 44:0.44444445 45:0.86046511 46:0.75471699 47:0.83333331 48:0.66666669 49:0.42222223 50:0.44186047 51:0.71428573 52:0.80000001 53:0.78431374 54:0.74545455 55:0.68888891 56:0.38235295 57:0.45454547 58:0.42105263 59:0.2857143 60:0.46268657 61:0.54098362 62:0.43137255 63:0.31818181 64:0.59375 65:0.69736844 66:0.46478873 67:0.56989247 68:0.52127659 69:0.52631581 70:0.37037036 71:0.31818181 72:0.42666668 73:0.703125 74:0.73255813 75:0.6179775 76:0.61956519 77:0.65517241 78:0.74074072 79:0.44 80:0.47999999 81:0.46938777 82:0.70909089 83:0.8214286 84:0.66000003 85:0.35416666 86:0.2 87:0.53846157 88:0.97777778 89:0.88679248 90:0.69090909 91:0.81578946 92:0.22580644 93:0.34920636 94:0.46296296 95:0.41428572 96:0.18181819 97:0.34615386 98:0.41269842 99:0.22916667 100:0.58064514 101:0.63333333 102:0.34246576 103:0.54651165 104:0.51807231 105:0.47619048 106:0.53333336 107:0.51546389 108:0.53571427 109:0.22222222 110:0.27450982 111:0.67567569 112:0.35714287 113:0.45238096 114:0.56976742 115:0.36538461 116:0.4848485 117:1 118:0.71875 119:0.60975611 120:0.69090909 121:0.46296296 122:0.44736841 123:0.22448979 124:0.63636363 125:0.64285713 126:0.72340423 127:0.32098764 128:0.33898306 129:0 130:0.39473686 131:0.16129032 132:0.33333334 133:0.23913044 134:0.25454545 135:0.29411766 136:0.7631579 137:0.47499999 138:0.34999999 139:0.43661973 140:0.27659574 141:0.44999999 142:0.64999998 143:0.34042552 144:0.6785714 145:0.29213482 146:0.3125 147:0.23076923 148:0.19354838 149:0.36666667 150:0.78313255 151:0.096385539 152:0 153:0.37931034 154:1 155:0.67500001 156:0.63291138 157:0.21686748 158:0 159:0.23684211 160:0.59090906 161:0.67500001 162:0.79012346 163:0.22471911 164:0 165:0 166:0.48780489 167:0.4054054 168:0.81578946 169:0.21505377 170:0.29545453 171:0.40000001 172:0.78125 173:1 174:0.63333333 175:0.1827957 176:0.27777779 177:0.37254903 178:0.45161289 179:0.37037036 180:0.78666669 181:0.35051546 182:0.42056075 183:0.2278481 184:0.30000001 185:0.35294119 186:0.40963855 187:0.17283951 188:0.42253521 189:0.61904764 190:0.80851066 191:0.94117647 192:0.88461536 193:0.75471699 194:0.64444447 195:0.5 196:0.66037738 197:0.69565219 198:0.58620691 199:0.60465115 200:0.19444445 201:0.35555556 202:0.47826087 203:0.4375 204:0.5 205:0.55555558 206:0.39024389 207:0.023809524 208:0.38 209:0.57692307 210:0.30882353 211:0.37313432 212:0.42666668 213:0.46753246 214:0.54054052 215:0.62666667 216:0.72307694 217:0.82758623 218:0.84210527 219:0.74712646 220:0.43902439 221:0.48275861 222:0.61038959 223:0.59375 224:0.70175439 225:1 226:0.86274511 227:0.95999998 228:0.83018869 229:0.68965518 230:0.60000002 231:0.625 232:0.70175439 233:0.71698111 234:0.72131145 235:0.055555556 236:0.2 237:0.5 238:0.77551019 239:0.61403507 240:0.58536583 241:0.022222223 242:0.17647059 243:0.15384616 244:0.47619048 245:0.57894737 246:0.40579709 247:0.78787881 248:0.75641024 249:0.73972601 250:0.72307694 251:0.64935064 252:0.44117647 253:0.8125 254:0.32499999 255:0.34999999 256:0.25 257:0.28070176 258:0.47297296 259:0.32352942 260:0.67741936 261:0.76923078 262:1 263:0.65789473 264:0.52459013 265:0.27450982 266:0.74285716 267:0.63414633 268:0.70588237 269:0.74509805 270:0.83823532 271:0.24137931 272:0.36000001 273:0.33333334 274:0.55319148 275:0.43478259 276:0.70833331 277:0.53333336 278:0.43181819 279:0.38709676 280:0.8918919 281:1 282:0.5 283:0.59302324 284:0.40677965 285:0.3877551 286:0.49122807 287:0.5 288:0.61194032 
0.5392133748592994 1:0.94230771 2:0.80392158 3:0.79069769 4:0.75609756 5:0.64583331 6:0.30487806 7:0.71428573 8:1 9:1 10:0.96875 11:0.55555558 12:0.2631579 13:0.7368421 14:0.53571427 15:0.52777779 16:0.55555558 17:0.30000001 18:0.39805827 19:0.62820512 20:0.35593221 21:0.54838711 22:0.54545456 23:0.44680852 24:0.68224299 25:0.45348838 26:0.3888889 27:0.91428572 28:0.79310346 29:0.902439 30:0.79569894 31:0.75949365 32:0.27419356 33:0.52499998 34:0.39024389 35:0.41818181 36:0.68478262 37:0.56962025 38:0.5955056 39:0.53658539 40:0.43820226 41:0.27710843 42:0.2857143 43:0.65853661 44:0.5 45:0.48837209 46:0.43396226 47:0.55555558 48:0.56140351 49:0.66666669 50:0.48837209 51:0.5714286 52:0.54000002 53:0.50980395 54:0.54545456 55:0.35555556 56:0.32352942 57:0.52272725 58:0.36842105 59:0.41269842 60:0.28358209 61:0.26229507 62:0.29411766 63:0.54545456 64:0.546875 65:0.67105263 66:0.35211268 67:0.43010753 68:0.24468085 69:0.14473684 70:0.098765433 71:0.079545453 72:0.14666666 73:0.90625 74:0.68604654 75:0.74157304 76:0.71739131 77:0.85057473 78:0.93827158 79:0.77999997 80:0.44 81:0.53061223 82:0.61818182 83:0.66071427 84:0.83999997 85:0.5 86:0.34999999 87:0.66666669 88:0.86666667 89:0.83018869 90:0.72727275 91:0.31578946 92:0.64516127 93:0.74603176 94:0.72222221 95:0.67142856 96:0.38181818 97:0.38461539 98:0.66666669 99:0.625 100:0.7903226 101:0.72222221 102:0.46575344 103:0.63953489 104:0.6506024 105:0.60714287 106:0.64444447 107:0.6082474 108:0.61904764 109:0.35185185 110:0.56862748 111:0.94594592 112:0.73809522 113:0.76190478 114:0.48837209 115:0.5 116:0.78787881 117:0.89473683 118:0.8125 119:0.65853661 120:0.56363636 121:0.37037036 122:0.55263156 123:0.44897959 124:0.54545456 125:0.39285713 126:0.57446808 127:0.41975307 128:0.42372882 129:0.48780489 130:0.5 131:0.67741936 132:0.71428573 133:0.18478261 134:0.30909091 135:0.67647058 136:0.7368421 137:0.875 138:0.89999998 139:0.12676056 140:0.19148937 141:0.5 142:0.44999999 143:0.31914893 144:0.44642857 145:0.19101124 146:0.5625 147:0.57692307 148:0.43548387 149:0.53333336 150:0.90361446 151:0.16867469 152:0.55882353 153:0.89655173 154:0.76666665 155:0.44999999 156:1 157:0.13253012 158:0.83333331 159:0.81578946 160:0.68181819 161:0.57499999 162:0.79012346 163:0.15730338 164:0.73469388 165:0.93548387 166:0.80487806 167:0.54054052 168:0.68421054 169:0.29032257 170:0.79545456 171:0.65714288 172:0.59375 173:0.67647058 174:0.86666667 175:0.15053764 176:0.2638889 177:0.39215687 178:0.30645162 179:0.37037036 180:0.95999998 181:0.48453608 182:0.41121495 183:0.25316456 184:0.18571429 185:0.27058825 186:0.51807231 187:0.30864197 188:0.32394367 189:0.21428572 190:0.19148937 191:0.39215687 192:0.59615386 193:0.3773585 194:0.40000001 195:0.47727272 196:0.52830189 197:0.80434781 198:0.81034482 199:0.51162791 200:0.3888889 201:0.55555558 202:0.54347825 203:0.53125 204:0.45161289 205:0.72222221 206:0.48780489 207:0.38095239 208:0.5 209:0.58974361 210:0.29411766 211:0.40298507 212:0.13333334 213:0.2857143 214:0.54054052 215:0.41333333 216:0.56923079 217:0.7011494 218:0.69736844 219:0.49425286 220:0.36585367 221:0.48275861 222:0.46753246 223:0.578125 224:0.45614034 225:0.45652175 226:0.43137255 227:0.41999999 228:0.50943398 229:0.60344827 230:0.75 231:1 232:1 233:1 234:0.86885244 235:0.5 236:0.69999999 237:0.75 238:0.51020408 239:0.63157892 240:0.5487805 241:0.088888891 242:0.5147059 243:0.53846157 244:0.50793654 245:0.59210527 246:0.31884059 247:0.87878788 248:1 249:0.97260273 250:1 251:1 252:0.85294116 253:0.60416669 254:0.625 255:0.75 256:0.77272725 257:0.45614034 258:0.33783785 259:0.58823532 260:0.87096775 261:1 262:0.8888889 263:0.63157892 264:0.32786885 265:0.54901963 266:0.91428572 267:0.80487806 268:0.78431374 269:0.70588237 270:0.33823529 271:0.58620691 272:0.56 273:0.63636363 274:0.70212764 275:0.56521738 276:0.3888889 277:0.86666667 278:0.86363637 279:0.64516127 280:0.67567569 281:0.69230771 282:0.34 283:0.53488374 284:0.3898305 285:0.46938777 286:0.2631579 287:0.46666667 288:0.29850745 
0.1951825546844283 1:0.65384614 2:0.29411766 3:0.48837209 4:0.60975611 5:0.25 6:0.30487806 7:0.5714286 8:0.627451 9:0.54545456 10:0.5625 11:0.25 12:0.30526316 13:0.50877196 14:0.64285713 15:0.30555555 16:0.42222223 17:0.76666665 18:0.27184466 19:0.43589744 20:0.33898306 21:0.19354838 22:0.38636363 23:0.46808511 24:0.25233644 25:0.90697676 26:0.7037037 27:0.42857143 28:0.44827586 29:0.43902439 30:0.33333334 31:0.70886075 32:0.33870968 33:0.30000001 34:0.31707317 35:0.29090908 36:0.14130434 37:0.69620252 38:0.47191012 39:0.51219511 40:0.48314607 41:0.3493976 42:0.48051947 43:0.58536583 44:0.37037036 45:0.67441863 46:0.58490568 47:0.5925926 48:0.75438595 49:0.44444445 50:0.41860464 51:0.62857145 52:0.60000002 53:0.66666669 54:0.65454543 55:0.97777778 56:0.44117647 57:0.40909091 58:0.24561404 59:0.49206349 60:0.55223882 61:0.73770493 62:0.33333334 63:0.5 64:0.703125 65:0.84210527 66:0.74647886 67:0.48387095 68:0.28723404 69:0.18421052 70:0.20987654 71:0.18181819 72:0.25333333 73:0.640625 74:0.63953489 75:0.41573033 76:0.5869565 77:0.59770113 78:0.55555558 79:0.54000002 80:0.40000001 81:0.36734694 82:0.47272727 83:0.64285713 84:0.62 85:0.25 86:0.32499999 87:0.48717949 88:0.75555557 89:0.75471699 90:0.76363635 91:0.57894737 92:0.41935483 93:0.47619048 94:0.42592594 95:0.60000002 96:0.47272727 97:0.37179488 98:0.65079367 99:0.52083331 100:0.75806451 101:0.76666665 102:0.65753424 103:0.33720931 104:0.48192772 105:0.39285713 106:0.51111114 107:0.4742268 108:0.4642857 109:0.33333334 110:0.47058824 111:0.48648649 112:0.5 113:0.59523809 114:0.48837209 115:0.5 116:0.81818181 117:0.39473686 118:0.5625 119:0.58536583 120:0.5272727 121:0.27777779 122:0.47368422 123:0.24489796 124:0.38636363 125:0.60714287 126:0.63829786 127:0.25925925 128:0.42372882 129:0.21951219 130:0.44736841 131:0.41935483 132:0.59523809 133:0.71739131 134:0.72727275 135:0.20588236 136:0.57894737 137:0.57499999 138:0.80000001 139:0.42253521 140:0.34042552 141:0.2 142:0.34999999 143:0.40425533 144:0.51785713 145:0.26966292 146:0.5 147:0.23076923 148:0.3548387 149:0.53333336 150:0.80722892 151:0.24096386 152:0.2647059 153:0.034482758 154:0.30000001 155:0.32499999 156:0.83544302 157:0.27710843 158:0.54761904 159:0.36842105 160:0.61363637 161:0.52499998 162:0.92592591 163:0.20224719 164:0.1632653 165:0.064516127 166:0.56097561 167:0.64864862 168:0.77631581 169:0.23655914 170:0.47727272 171:0.40000001 172:0.4375 173:0.79411763 174:0.80000001 175:0.23655914 176:0.54166669 177:0.41176471 178:0.30645162 179:0.74074072 180:0.94666666 181:0.49484536 182:0.54205608 183:0.2658228 184:0.37142858 185:0.3882353 186:0.39759037 187:0.34567901 188:0.42253521 189:0.071428575 190:0.31914893 191:0.41176471 192:0.44230768 193:0.60377359 194:0.44444445 195:0.38636363 196:0.58490568 197:0.56521738 198:0.65517241 199:0.20930232 200:0.22222222 201:0.33333334 202:0.41304347 203:0.515625 204:0.67741936 205:0.2962963 206:0.53658539 207:0.45238096 208:0.68000001 209:0.74358976 210:0.70588237 211:0.35820895 212:0.47999999 213:0.46753246 214:0.55405408 215:0.73333335 216:0.55384618 217:0.65517241 218:0.4868421 219:0.48275861 220:0.5 221:0.58620691 222:0.77922076 223:0.515625 224:0.2631579 225:0.26086956 226:0.33333334 227:0.40000001 228:0.58490568 229:0.81034482 230:0.64999998 231:0.64583331 232:0.7368421 233:0.9245283 234:0.80327868 235:0.44444445 236:0.16666667 237:0.41666666 238:0.32653061 239:0.66666669 240:0.68292683 241:0.71111113 242:0.47058824 243:0.5 244:0.52380955 245:0.78947371 246:0.71014494 247:0.92424244 248:0.83333331 249:0.6438356 250:0.84615386 251:0.66233766 252:0.7647059 253:0.95833331 254:0.27500001 255:0.64999998 256:0.56818181 257:0.19298245 258:0.33783785 259:0.64705884 260:0.45161289 261:0.34615386 262:0.33333334 263:0.28947368 264:0.27868852 265:0.52941179 266:0.80000001 267:0.43902439 268:0.4509804 269:0.66666669 270:0.60294116 271:0.29310346 272:0.38 273:0.21212122 274:0.53191489 275:0.69565219 276:0.54166669 277:0.26666668 278:0.40909091 279:0.51612902 280:0.64864862 281:0.84615386 282:0.41999999 283:0.63953489 284:0.28813559 285:0.73469388 286:0.3859649 287:0.58333331 288:0.76119405 
0.4778313643270243 1:0.59615386 2:0.15686275 3:0.20930232 4:0.48780489 5:0.27083334 6:0.18292683 7:0.88095236 8:0.80392158 9:0.66666669 10:0.8125 11:0.25 12:0.18947369 13:0.94736844 14:0.85714287 15:0.30555555 16:0.44444445 17:0.46666667 18:0.34951457 19:0.69230771 20:1 21:0.54838711 22:0.5 23:0.36170211 24:0.47663552 25:0.88372093 26:1 27:0.2857143 28:0.20689656 29:0.29268292 30:0.3548387 31:0.46835443 32:0.27419356 33:0.075000003 34:0.073170729 35:0 36:0.021739131 37:0.93670887 38:1 39:1 40:1 41:0.98795182 42:0.71428573 43:0.92682928 44:0.8888889 45:0.81395346 46:0.81132078 47:0.75925928 48:0.59649122 49:0.71111113 50:0.69767439 51:0.37142858 52:0.72000003 53:0.70588237 54:0.61818182 55:0.33333334 56:0.41176471 57:0.88636363 58:0.82456142 59:0.69841272 60:0.44776121 61:0.49180329 62:0.49019608 63:0.59090906 64:0.765625 65:0.89473683 66:0.50704223 67:0.11827957 68:0.12765957 69:0.02631579 70:0 71:0.045454547 72:0 73:0.109375 74:0.3255814 75:0.33707866 76:0.2173913 77:0.34482759 78:0.43209878 79:0.56 80:0.56 81:0.51020408 82:0.38181818 83:0.5 84:0.57999998 85:0.5 86:0.57499999 87:0.56410259 88:0.84444445 89:0.64150941 90:0.5090909 91:0.44736841 92:0.22580644 93:0.41269842 94:0.62962961 95:0.74285716 96:0.5090909 97:0.24358974 98:0.44444445 99:0.14583333 100:0.43548387 101:0.54444444 102:0.32876712 103:0 104:0.096385539 105:0.095238097 106:0.055555556 107:0.082474224 108:0.047619049 109:0.018518519 110:0.13725491 111:0.45945945 112:0.19047619 113:0.52380955 114:0.51162791 115:0.48076922 116:0.78787881 117:0.71052629 118:0.40625 119:0.53658539 120:0.85454547 121:0.37037036 122:0.60526317 123:0.26530612 124:0.43181819 125:0.42857143 126:1 127:0.60493827 128:0.91525424 129:0.36585367 130:0.52631581 131:0.38709676 132:0.66666669 133:0.86956519 134:0.96363634 135:0.088235296 136:0.18421052 137:0.47499999 138:0.42500001 139:0.3943662 140:0.27659574 141:0.2 142:0.1 143:0 144:0 145:0.12359551 146:0.27083334 147:0.40384614 148:0.19354838 149:0.61666667 150:0.63855422 151:0.10843374 152:0.35294119 153:0.34482759 154:0.26666668 155:0.47499999 156:0.78481013 157:0.26506025 158:1 159:0.52631581 160:0.36363637 161:0.40000001 162:0.86419755 163:0.30337077 164:0.97959185 165:0.80645162 166:0.73170733 167:0.51351351 168:1 169:0.15053764 170:0.75 171:0.45714286 172:0.1875 173:0.47058824 174:0.89999998 175:0.10752688 176:0.15277778 177:0.29411766 178:0 179:0.25925925 180:0.53333336 181:0.58762884 182:0.69158876 183:0.59493673 184:0.64285713 185:0.5529412 186:0.43373495 187:0.51851851 188:0.74647886 189:0.5714286 190:0.63829786 191:0.7647059 192:0.73076922 193:0.5471698 194:0.66666669 195:0.65909094 196:0.94339621 197:0.84782606 198:0.56896549 199:0.62790698 200:0.69444442 201:0.66666669 202:0.9130435 203:0.78125 204:0.64516127 205:0.5 206:1 207:0.69047618 208:0.63999999 209:0.76923078 210:0.42647058 211:0.49253732 212:0.73333335 213:0.6883117 214:0.64864862 215:0.80000001 216:0.63076925 217:0.26436782 218:0.27631578 219:0.25287357 220:0 221:0.16091955 222:0.22077923 223:0.578125 224:0.47368422 225:0.19565217 226:0.21568628 227:0.34 228:0.35849056 229:0.58620691 230:0.60000002 231:0.22916667 232:0.50877196 233:0.6981132 234:0.52459013 235:0.47222221 236:0.56666666 237:0.47222221 238:0.69387758 239:0.85964912 240:0.63414633 241:0.97777778 242:0.45588234 243:0.30769232 244:0.52380955 245:0.56578946 246:0.47826087 247:0.45454547 248:0.30769232 249:0.10958904 250:0.16923077 251:0.18181819 252:0.32352942 253:0.52083331 254:0.30000001 255:0.32499999 256:0.40909091 257:0.29824561 258:0.2027027 259:0.41176471 260:0.64516127 261:0.34615386 262:0.2962963 263:0.39473686 264:0.27868852 265:0.56862748 266:0.85714287 267:0.58536583 268:0.4509804 269:0.50980395 270:0.72058821 271:0.67241377 272:0.83999997 273:0.63636363 274:0.63829786 275:0.56521738 276:0.7361111 277:0.73333335 278:0.68181819 279:0.12903225 280:0.51351351 281:0.38461539 282:0.059999999 283:0.59302324 284:0.35593221 285:0.081632651 286:0.21052632 287:0 288:0.089552239 
0.4394733724500784 1:1 2:1 3:0.86046511 4:0.87804878 5:0.39583334 6:0.15853658 7:0 8:0.56862748 9:0.33333334 10:0.4375 11:0.55555558 12:0.21052632 13:0.50877196 14:0.60714287 15:0.5 16:0.66666669 17:0.89999998 18:0.25242719 19:0 20:0.33898306 21:0.41935483 22:0.68181819 23:1 24:0.54205608 25:0.1744186 26:0.12962963 27:0.5714286 28:0.55172414 29:0.48780489 30:0.37634408 31:0.17721519 32:0.14516129 33:0.34999999 34:0.24390244 35:0.40000001 36:0.086956523 37:0.10126583 38:0.16853933 39:0.43902439 40:0.44943821 41:0.49397591 42:0.64935064 43:0.51219511 44:0.51851851 45:0.69767439 46:0.8490566 47:0.9074074 48:0.92982459 49:0 50:0.11627907 51:0.2857143 52:0.77999997 53:0.47058824 54:0.36363637 55:0.44444445 56:0.35294119 57:0.68181819 58:0.78947371 59:1 60:1 61:0.21311475 62:0.21568628 63:0.45454547 64:0.78125 65:0.96052629 66:0.85915494 67:0.086021505 68:0.10638298 69:0.30263159 70:0.41975307 71:0.51136363 72:0.73333335 73:0.0625 74:0.20930232 75:0.56179774 76:0.59782606 77:0.55172414 78:0.38271606 79:0.60000002 80:0.44 81:0.59183675 82:0.74545455 83:0.58928573 84:0.40000001 85:0.10416666 86:0.025 87:0.43589744 88:0.82222223 89:0.4528302 90:0.16363636 91:0.47368422 92:0.77419353 93:0.8888889 94:0.98148149 95:0.9285714 96:0.96363634 97:0.85897434 98:1 99:0.625 100:0.69354838 101:0.65555555 102:0.57534248 103:0.75581396 104:0.79518074 105:0.65476191 106:0.48888889 107:0.24742268 108:0.19047619 109:1 110:1 111:0.67567569 112:0.71428573 113:0.42857143 114:0.41860464 115:0.88461536 116:0.18181819 117:0.21052632 118:0.5 119:0.43902439 120:0.56363636 121:0.83333331 122:0.52631581 123:0.30612245 124:0.88636363 125:0.89285713 126:0.31914893 127:0.54320985 128:0.40677965 129:0.36585367 130:0.78947371 131:1 132:0.76190478 133:0.56521738 134:0.2 135:0 136:0.60526317 137:0.42500001 138:0.625 139:0.59154928 140:0.10638298 141:0.27500001 142:0.32499999 143:0.23404256 144:0.2857143 145:0.69662923 146:1 147:0.76923078 148:0.54838711 149:0.38333333 150:0.37349397 151:0.42168674 152:0.94117647 153:0.24137931 154:0.60000002 155:0.5 156:0.4556962 157:0.33734939 158:0.85714287 159:0.84210527 160:0.88636363 161:0.69999999 162:0.41975307 163:0.32584271 164:0.59183675 165:0.7096774 166:0.75609756 167:0.86486489 168:0.52631581 169:0.51612902 170:0.15909091 171:0.057142857 172:0.4375 173:0.38235295 174:0.18333334 175:0.23655914 176:0.069444448 177:0.21568628 178:0.25806451 179:0.24074075 180:0.41333333 181:0.3298969 182:0.43925235 183:0.48101267 184:0.5 185:0.34117648 186:0.20481928 187:0.14814815 188:0.30985916 189:0.80952382 190:0.95744681 191:0.627451 192:0.57692307 193:0.4528302 194:0.44444445 195:0.59090906 196:0.96226418 197:0.47826087 198:0.10344828 199:0.83720928 200:0.83333331 201:0.82222223 202:0.93478262 203:1 204:1 205:0.66666669 206:0.53658539 207:0 208:0.44 209:0.65384614 210:0.55882353 211:0.44776121 212:0.31999999 213:0.2857143 214:0.45945945 215:0.51999998 216:0.72307694 217:0.24137931 218:0.22368421 219:0.28735632 220:0.24390244 221:0.47126436 222:0.37662336 223:0.25 224:0.070175439 225:0.52173913 226:0.627451 227:0.77999997 228:1 229:0.5 230:0.25 231:0.33333334 232:0.59649122 233:0.60377359 234:0.72131145 235:0.58333331 236:0.89999998 237:0.75 238:0.87755102 239:1 240:1 241:0.24444444 242:0.39705881 243:0.25 244:0.47619048 245:0.56578946 246:0.52173913 247:0.30303031 248:0.58974361 249:0.71232879 250:0.55384618 251:0.46753246 252:0.29411766 253:0.75 254:0.89999998 255:0.92500001 256:0.90909094 257:0.24561404 258:0.067567565 259:0.67647058 260:0.7096774 261:0.61538464 262:0.48148149 263:0.60526317 264:0.3114754 265:0 266:0.42857143 267:0.65853661 268:0.7647059 269:1 270:0.67647058 271:0.25862068 272:0.41999999 273:0.57575756 274:0.80851066 275:0.95652175 276:0.70833331 277:0.18333334 278:0.47727272 279:0.12903225 280:0.51351351 281:0.53846157 282:0.059999999 283:0.11627907 284:0.23728813 285:0.1632653 286:0.14035088 287:0.40000001 288:0.10447761 
0.1444066483270896 1:0.17307693 2:0.3137255 3:0.27906978 4:0.2682927 5:0.16666667 6:0.29268292 7:0.5714286 8:0.52941179 9:0.54545456 10:0.53125 11:0.25 12:0.29473683 13:0.43859649 14:0.71428573 15:0.25 16:0.33333334 17:0.33333334 18:0.31067961 19:0.29487181 20:0.47457626 21:0.3548387 22:0.56818181 23:0.40425533 24:0.42990655 25:0.31395349 26:0.4074074 27:0.77142859 28:0.86206895 29:0.60975611 30:0.47311828 31:0.2658228 32:0.41935483 33:0.67500001 34:0.46341464 35:0.45454547 36:0.44565219 37:0.4556962 38:0.49438202 39:0.60975611 40:0.40449437 41:0.46987951 42:0.49350649 43:0.34146342 44:0.42592594 45:0.62790698 46:0.5471698 47:0.5925926 48:0.42105263 49:0.64444447 50:0.79069769 51:0.91428572 52:0.80000001 53:0.56862748 54:0.56363636 55:0.40000001 56:0.44117647 57:0.77272725 58:0.70175439 59:0.52380955 60:0.44776121 61:0.40983605 62:0.49019608 63:0.77272725 64:0.921875 65:0.90789473 66:0.6056338 67:0.60215056 68:0.58510637 69:0.60526317 70:0.43209878 71:0.29545453 72:0.18666667 73:0.5625 74:0.3255814 75:0.41573033 76:0.56521738 77:0.42528737 78:0.2962963 79:0.63999999 80:0.12 81:0.36734694 82:0.43636364 83:0.23214285 84:0.079999998 85:0.83333331 86:0.34999999 87:0.48717949 88:0.64444447 89:0.32075471 90:0.29090908 91:0.5 92:0.64516127 93:0.65079367 94:0.5925926 95:0.54285717 96:0.32727271 97:0.44871795 98:0.6825397 99:0.52083331 100:0.72580647 101:0.69999999 102:0.5479452 103:0.61627907 104:0.51807231 105:0.41666666 106:0.41111112 107:0.36082473 108:0.41666666 109:0.2962963 110:0.27450982 111:0.2972973 112:0.23809524 113:0.14285715 114:0.24418604 115:0.55769229 116:0.60606062 117:0.44736841 118:0.375 119:0.073170729 120:0.38181818 121:0.48148149 122:0.36842105 123:0.040816326 124:0.40909091 125:0.10714286 126:0.21276596 127:0.28395063 128:0.35593221 129:0.19512194 130:0.65789473 131:0.45161289 132:0.16666667 133:0.36956522 134:0.36363637 135:0.32352942 136:0.68421054 137:0.55000001 138:0.44999999 139:0.21126761 140:0.29787233 141:0.42500001 142:0.47499999 143:0.38297874 144:0.58928573 145:0.14606741 146:0.25 147:0.32692307 148:0.19354838 149:0.2 150:0.3253012 151:0.27710843 152:0.67647058 153:0.51724136 154:0.40000001 155:0.025 156:0.32911393 157:0.28915662 158:0.71428573 159:0.23684211 160:0.36363637 161:0.27500001 162:0.43209878 163:0.42696628 164:0.79591835 165:0.45161289 166:0.63414633 167:0.51351351 168:0.30263159 169:0.47311828 170:0.43181819 171:0.34285715 172:0.65625 173:0.47058824 174:0.18333334 175:0.12903225 176:0.16666667 177:0.33333334 178:0.37096775 179:0.33333334 180:0.57333332 181:0.72164947 182:0.53271025 183:0.37974682 184:0.31428573 185:0.070588239 186:0.18072289 187:0.48148149 188:0.40845069 189:0.52380955 190:0.38297874 191:0.13725491 192:0.21153846 193:0.73584908 194:0.42222223 195:0.47727272 196:0.52830189 197:0.19565217 198:0.39655173 199:0.90697676 200:0.75 201:0.62222224 202:0.63043481 203:0.46875 204:0.59677422 205:1 206:0.78048778 207:0.42857143 208:0.68000001 209:0.66666669 210:0.54411763 211:0.50746268 212:0.34666666 213:0.37662336 214:0.48648649 215:0.44 216:0.69230771 217:0.22988506 218:0.42105263 219:0.47126436 220:0.36585367 221:0.56321841 222:0.45454547 223:0.25 224:0.40350878 225:0.73913044 226:0.64705884 227:0.68000001 228:0.50943398 229:0.65517241 230:0.64999998 231:0.64583331 232:0.78947371 233:0.6981132 234:0.55737704 235:0.72222221 236:0.76666665 237:0.80555558 238:0.79591835 239:0.78947371 240:0.65853661 241:0.60000002 242:0.67647058 243:0.63461536 244:0.73015875 245:0.7631579 246:0.47826087 247:0.45454547 248:0.70512819 249:0.73972601 250:0.63076925 251:0.58441556 252:0.27941176 253:0.083333336 254:0.32499999 255:0.40000001 256:0.31818181 257:0.14035088 258:0.43243244 259:0.44117647 260:0.64516127 261:0.76923078 262:0.48148149 263:0.23684211 264:0.62295079 265:0.3137255 266:0.2 267:0.53658539 268:0.43137255 269:0.50980395 270:0.66176468 271:0.53448278 272:0.38 273:0.5151515 274:0.70212764 275:0.65217394 276:0.65277779 277:0.56666666 278:0.38636363 279:0.51612902 280:0.78378379 281:0.58974361 282:0.47999999 283:0.3488372 284:0.44067797 285:0.36734694 286:0.3508772 287:0.5 288:0.43283582 
0.5743211294295313 1:0.96153843 2:0.35294119 3:0.3488372 4:0.31707317 5:0.3125 6:0.18292683 7:1 8:0.82352942 9:0.69696969 10:0.75 11:0.30555555 12:0.12631579 13:0.61403507 14:1 15:0.41666666 16:0.2 17:0.26666668 18:0.16504854 19:0.65384614 20:0.61016947 21:0.3548387 22:0.31818181 23:0.40425533 24:0.14018692 25:0.60465115 26:0.53703701 27:0.62857145 28:0.58620691 29:0.80487806 30:0.32258064 31:0.50632912 32:0.75806451 33:0.94999999 34:0.70731705 35:0.70909089 36:0.46739131 37:0.51898736 38:0.56179774 39:0.67073172 40:0.48314607 41:0.55421686 42:0.77922076 43:0.39024389 44:0.48148149 45:0.90697676 46:0.79245281 47:0.75925928 48:0.94736844 49:0.75555557 50:0.74418604 51:0.5714286 52:0.66000003 53:0.64705884 54:0.81818181 55:0.5777778 56:0 57:0 58:0.087719299 59:0.079365082 60:0.17910448 61:0.1147541 62:0.039215688 63:0.45454547 64:0.59375 65:0.80263156 66:0.76056337 67:0.31182796 68:0.34042552 69:0.67105263 70:0.69135803 71:0.67045456 72:0.77333331 73:0.90625 74:0.61627907 75:0.52808988 76:0.63043481 77:0.60919541 78:0.60493827 79:0.56 80:0.28 81:0.53061223 82:0.63636363 83:0.8035714 84:0.75999999 85:0.70833331 86:0.52499998 87:0.17948718 88:0.35555556 89:0.56603771 90:0.60000002 91:0.5 92:0 93:0 94:0.11111111 95:0.18571429 96:0.018181818 97:0.21794872 98:0.34920636 99:0.27083334 100:0.74193549 101:0.64444447 102:0.46575344 103:0.60465115 104:0.66265059 105:0.5714286 106:0.73333335 107:0.73195875 108:0.70238096 109:0.35185185 110:0.27450982 111:0.45945945 112:0.23809524 113:0.35714287 114:0.54651165 115:0.82692307 116:1 117:0.5 118:0.46875 119:0.36585367 120:0.80000001 121:0.9074074 122:0.42105263 123:0.040816326 124:0.25 125:0.071428575 126:0.93617022 127:0.43209878 128:0.69491524 129:0.024390243 130:0.52631581 131:0.48387095 132:0.64285713 133:0.56521738 134:0.78181821 135:0.20588236 136:0.7368421 137:0.80000001 138:0.64999998 139:0.63380283 140:0.85106385 141:0.60000002 142:0.69999999 143:0.65957445 144:1 145:0.70786518 146:0.35416666 147:0.28846154 148:0.17741935 149:0.36666667 150:0.77108431 151:0.62650603 152:0.32352942 153:0.51724136 154:0.43333334 155:0.27500001 156:0.70886075 157:0.60240966 158:0.90476191 159:0.18421052 160:0.06818182 161:0 162:0.79012346 163:0.52808988 164:0.71428573 165:0.67741936 166:0.80487806 167:0.5945946 168:0.69736844 169:0.61290324 170:0.79545456 171:0.6857143 172:0.90625 173:1 174:0.5 175:0.73118281 176:0.56944442 177:0.29411766 178:0.51612902 179:0.51851851 180:0.72000003 181:0.51546389 182:0.36448598 183:0.11392405 184:0.11428571 185:0.28235295 186:0.37349397 187:0.71604937 188:0.71830988 189:0.76190478 190:0.87234044 191:1 192:0.80769229 193:0.5471698 194:0.40000001 195:0.22727273 196:0.49056605 197:0.63043481 198:0.62068963 199:0.62790698 200:0.22222222 201:0 202:0.41304347 203:0.359375 204:0.38709676 205:0.51851851 206:0.56097561 207:0.40476191 208:0.80000001 209:0.80769229 210:0.67647058 211:0.38805971 212:0.10666667 213:0.14285715 214:0.43243244 215:0.49333334 216:0.47692308 217:0.31034482 218:0.25 219:0.26436782 220:0.073170729 221:0.19540229 222:0.38961038 223:0.546875 224:0.66666669 225:0.71739131 226:0.54901963 227:0.60000002 228:0.86792451 229:0.56896549 230:0.47499999 231:0.45833334 232:0.43859649 233:0.50943398 234:0.80327868 235:0.22222222 236:0.23333333 237:0.11111111 238:0.30612245 239:0.47368422 240:0.57317072 241:0.06666667 242:0.32352942 243:0.59615386 244:0.61904764 245:0.80263156 246:0.82608694 247:0.16666667 248:0.35897437 249:0.34246576 250:0.47692308 251:0.53246754 252:0.5 253:0.72916669 254:0.30000001 255:0.42500001 256:0.27272728 257:0.29824561 258:0.28378379 259:0.5 260:0.45161289 261:0.69230771 262:0.55555558 263:0.34210527 264:0.14754099 265:0.74509805 266:0.5714286 267:0.21951219 268:0.15686275 269:0.19607843 270:0.2647059 271:0.24137931 272:0.5 273:0.63636363 274:0.59574467 275:0.76086956 276:0.45833334 277:0.58333331 278:0.63636363 279:0.67741936 280:0.78378379 281:0.8974359 282:0.47999999 283:0.59302324 284:0.72881359 285:0.40816328 286:0.3859649 287:0.51666665 288:0.34328359 
0.2417131261437402 1:0.71153843 2:0.39215687 3:0.3255814 4:0.29268292 5:0.25 6:0.21951219 7:0.73809522 8:0.72549021 9:0.45454547 10:0.53125 11:0.25 12:0.12631579 13:0.71929824 14:0.73214287 15:0.1388889 16:0.31111112 17:0.46666667 18:0.097087376 19:0.51282054 20:0.59322035 21:0.38709676 22:0.40909091 23:0.65957445 24:0.28971961 25:0.46511629 26:0.53703701 27:0.6857143 28:0.65517241 29:0.65853661 30:0.34408602 31:0.68354428 32:0.43548387 33:0.64999998 34:0.48780489 35:0.54545456 36:0.15217391 37:0.18987341 38:0.25842696 39:0.43902439 40:0.29213482 41:0.38554215 42:0.50649351 43:0.24390244 44:0.31481481 45:0.48837209 46:0.4528302 47:0.51851851 48:0.63157892 49:0.62222224 50:0.62790698 51:0.45714286 52:0.57999998 53:0.58823532 54:0.83636361 55:0.42222223 56:0.32352942 57:0.5 58:0.42105263 59:0.53968257 60:0.65671641 61:0.47540984 62:0.39215687 63:0.61363637 64:0.734375 65:0.96052629 66:0.95774651 67:0.68817204 68:0.60638297 69:0.57894737 70:0.37037036 71:0.42045453 72:0.54666668 73:0.453125 74:0.26744187 75:0.24719101 76:0.36956522 77:0.25287357 78:0.25925925 79:0.46000001 80:0.16 81:0.18367347 82:0.34545454 83:0.23214285 84:0.18000001 85:0.52083331 86:0.27500001 87:0.20512821 88:0.53333336 89:0.28301886 90:0.23636363 91:0.42105263 92:0.16129032 93:0.46031746 94:0.68518519 95:0.61428571 96:0.5090909 97:0.37179488 98:0.49206349 99:0.35416666 100:0.80645162 101:0.81111109 102:0.75342464 103:0.38372093 104:0.44578314 105:0.34523809 106:0.52222222 107:0.45360824 108:0.39285713 109:0.2962963 110:0.23529412 111:0.27027026 112:0.35714287 113:0.2857143 114:0.22093023 115:0.69230771 116:0.60606062 117:0.23684211 118:0.21875 119:0.24390244 120:0.23636363 121:0.72222221 122:0.44736841 123:0 124:0.34090909 125:0.17857143 126:0.23404256 127:0.56790125 128:0.52542371 129:0.097560972 130:0.57894737 131:0.67741936 132:0.23809524 133:0.65217394 134:0.4909091 135:0.11764706 136:0.7631579 137:0.52499998 138:0.5 139:0.52112675 140:0.42553192 141:0.42500001 142:0.55000001 143:0.53191489 144:0.4642857 145:0.77528089 146:0.20833333 147:0.21153846 148:0.20967741 149:0.13333334 150:0.13253012 151:0.78313255 152:0.61764705 153:0.34482759 154:0.33333334 155:0.075000003 156:0.27848101 157:0.74698794 158:0.80952382 159:0.34210527 160:0.43181819 161:0.34999999 162:0.30864197 163:0.75280899 164:0.81632656 165:0.58064514 166:0.73170733 167:0.5945946 168:0.30263159 169:0.8172043 170:0.70454544 171:0.34285715 172:0.5 173:0.70588237 174:0.2 175:0.94623655 176:0.2638889 177:0.27450982 178:0.45161289 179:0.42592594 180:0.51999998 181:0.65979379 182:0.51401871 183:0.37974682 184:0.35714287 185:0.22352941 186:0.28915662 187:0.39506173 188:0.33802816 189:0.21428572 190:0.46808511 191:0.35294119 192:0.38461539 193:0.5471698 194:0.51111114 195:0.20454545 196:0.67924529 197:0.45652175 198:0.44827586 199:0.83720928 200:0.3888889 201:0.44444445 202:0.80434781 203:0.609375 204:0.61290324 205:0.8888889 206:0.56097561 207:0.38095239 208:0.81999999 209:0.85897434 210:0.79411763 211:0.1641791 212:0.18666667 213:0.18181819 214:0.3918919 215:0.44 216:0.50769234 217:0.27586207 218:0.39473686 219:0.39080459 220:0.21951219 221:0.41379312 222:0.53246754 223:0.21875 224:0.21052632 225:0.28260869 226:0.15686275 227:0.40000001 228:0.64150941 229:0.65517241 230:0.60000002 231:0.52083331 232:0.47368422 233:0.67924529 234:0.83606559 235:0.44444445 236:0.73333335 237:0.47222221 238:0.55102038 239:0.7719298 240:0.82926828 241:0.53333336 242:0.61764705 243:0.53846157 244:0.63492066 245:0.80263156 246:0.86956519 247:0.10606061 248:0.34615386 249:0.4520548 250:0.33846155 251:0.49350649 252:0.4852941 253:0.70833331 254:0.175 255:0.27500001 256:0.29545453 257:0.087719299 258:0.17567568 259:0.67647058 260:0.74193549 261:0.57692307 262:0.33333334 263:0.18421052 264:0.1147541 265:0.54901963 266:0.85714287 267:0.46341464 268:0.39215687 269:0.56862748 270:0.35294119 271:0.63793105 272:0.72000003 273:0.45454547 274:0.53191489 275:0.82608694 276:0.6111111 277:0.75 278:0.72727275 279:0.32258064 280:0.72972971 281:0.76923078 282:0.41999999 283:0.61627907 284:0.55932206 285:0.40816328 286:0.43859649 287:0.58333331 288:0.31343284 
0.2212166081036478 1:0.38461539 2:0.098039217 3:0.13953489 4:0.29268292 5:0.125 6:0.25609756 7:0.5 8:0.49019608 9:0.45454547 10:0.46875 11:0.25 12:0.38947368 13:0.52631581 14:0.60714287 15:0.16666667 16:0.26666668 17:0.33333334 18:0.37864077 19:0.35897437 20:0.33898306 21:0.25806451 22:0.61363637 23:0.44680852 24:0.46728972 25:0.37209302 26:0.25925925 27:0.71428573 28:0.79310346 29:0.51219511 30:0.52688169 31:0.58227849 32:0.22580644 33:0.375 34:0.24390244 35:0.27272728 36:0.59782606 37:0.2278481 38:0.33707866 39:0.39024389 40:0.24719101 41:0.26506025 42:0.3116883 43:0.39024389 44:0.57407409 45:0.88372093 46:0.71698111 47:0.74074072 48:0.63157892 49:0.62222224 50:0.72093022 51:0.60000002 52:0.69999999 53:0.4509804 54:0.41818181 55:0.46666667 56:0.52941179 57:0.75 58:0.70175439 59:0.52380955 60:0.43283582 61:0.32786885 62:0.50980395 63:0.75 64:0.875 65:0.88157892 66:0.57746476 67:0.49462366 68:0.56382978 69:0.5 70:0.35802469 71:0.27272728 72:0.16 73:0.5 74:0.27906978 75:0.29213482 76:0.40217391 77:0.27586207 78:0.12345679 79:0.80000001 80:0.22 81:0.51020408 82:0.61818182 83:0.4642857 84:0.23999999 85:0.8125 86:0.27500001 87:0.2820513 88:0.48888889 89:0.24528302 90:0.27272728 91:0.52631581 92:0.58064514 93:0.61904764 94:0.57407409 95:0.54285717 96:0.32727271 97:0.47435898 98:0.65079367 99:0.5625 100:0.67741936 101:0.64444447 102:0.49315068 103:0.66279072 104:0.39759037 105:0.29761904 106:0.24444444 107:0.20618556 108:0.40476191 109:0.09259259 110:0.13725491 111:0.27027026 112:0.26190478 113:0.071428575 114:0.1744186 115:0.42307693 116:0.54545456 117:0.47368422 118:0.34375 119:0 120:0.36363637 121:0.31481481 122:0.39473686 123:0.081632651 124:0.27272728 125:0.071428575 126:0.23404256 127:0.24691358 128:0.27118644 129:0.17073171 130:0.52631581 131:0.38709676 132:0.16666667 133:0.34782609 134:0.16363636 135:0.14705883 136:0.71052629 137:0.44999999 138:0.34999999 139:0.18309858 140:0.19148937 141:0.25 142:0.30000001 143:0.19148937 144:0.5 145:0.14606741 146:0.14583333 147:0.17307693 148:0.11290322 149:0.16666667 150:0.28915662 151:0.20481928 152:0.5 153:0.37931034 154:0.36666667 155:0.050000001 156:0.2658228 157:0.14457831 158:0.80952382 159:0.36842105 160:0.31818181 161:0.2 162:0.41975307 163:0.28089887 164:0.79591835 165:0.51612902 166:0.56097561 167:0.43243244 168:0.30263159 169:0.34408602 170:0.5 171:0.40000001 172:0.5625 173:0.32352942 174:0.11666667 175:0.086021505 176:0.1388889 177:0.17647059 178:0.22580644 179:0.18518518 180:0.42666668 181:0.8041237 182:0.73831773 183:0.62025315 184:0.47142857 185:0.094117649 186:0.19277108 187:0.49382716 188:0.38028169 189:0.30952382 190:0.23404256 191:0 192:0 193:0.75471699 194:0.37777779 195:0.47727272 196:0.50943398 197:0.13043478 198:0.39655173 199:0.97674417 200:0.72222221 201:0.77777779 202:0.71739131 203:0.5625 204:0.64516127 205:0.98148149 206:0.65853661 207:0.42857143 208:0.62 209:0.66666669 210:0.55882353 211:0.82089549 212:0.47999999 213:0.4025974 214:0.56756759 215:0.54666668 216:0.7846154 217:0.25287357 218:0.44736841 219:0.59770113 220:0.60975611 221:0.81609195 222:0.67532468 223:0.234375 224:0.22807017 225:0.26086956 226:0.3137255 227:0.40000001 228:0.3018868 229:0.65517241 230:0.67500001 231:0.625 232:0.82456142 233:0.7735849 234:0.60655737 235:0.66666669 236:0.93333334 237:0.83333331 238:0.87755102 239:0.75438595 240:0.67073172 241:0.5777778 242:0.64705884 243:0.5 244:0.61904764 245:0.69736844 246:0.42028984 247:0.54545456 248:0.82051283 249:0.93150687 250:0.81538463 251:0.71428573 252:0.36764705 253:0.66666669 254:0.22499999 255:0.32499999 256:0.20454545 257:0.14035088 258:0.41891891 259:0.41176471 260:0.7096774 261:0.65384614 262:0.33333334 263:0.28947368 264:0.60655737 265:0.43137255 266:0.65714288 267:0.53658539 268:0.39215687 269:0.4509804 270:0.80882353 271:0.60344827 272:0.60000002 273:0.4848485 274:0.61702126 275:0.67391306 276:0.79166669 277:0.64999998 278:0.52272725 279:0.54838711 280:0.75675678 281:0.61538464 282:0.51999998 283:0.51162791 284:0.33898306 285:0.24489796 286:0.22807017 287:0.38333333 288:0.47761193 
0.03901030415195365 1:0.28846154 2:0.39215687 3:0.3255814 4:0.48780489 5:0.3125 6:0.20731707 7:0.5714286 8:0.72549021 9:0.57575756 10:0.65625 11:0.44444445 12:0.1368421 13:0.40350878 14:0.6964286 15:0.27777779 16:0.44444445 17:0.76666665 18:0.2038835 19:0.15384616 20:0.33898306 21:0.38709676 22:0.65909094 23:0.65957445 24:0.39252338 25:0.13953489 26:0.16666667 27:0.54285717 28:0.68965518 29:0.53658539 30:0.37634408 31:0.16455697 32:0.14516129 33:0.27500001 34:0.14634146 35:0.32727271 36:0.086956523 37:0.59493673 38:0.5955056 39:0.78048778 40:0.5955056 41:0.72289157 42:0.93506491 43:0.36585367 44:0.37037036 45:0.60465115 46:0.71698111 47:0.75925928 48:0.71929824 49:0.55555558 50:0.58139533 51:0.65714288 52:1 53:0.90196079 54:0.90909094 55:0.42222223 56:0.35294119 57:0.77272725 58:0.84210527 59:0.85714287 60:0.85074627 61:0.14754099 62:0.25490198 63:0.54545456 64:0.84375 65:0.94736844 66:0.84507042 67:0.12903225 68:0.25531915 69:0.53947371 70:0.7037037 71:0.65909094 72:0.83999997 73:0.625 74:0.60465115 75:0.68539327 76:0.80434781 77:0.74712646 78:0.65432101 79:0.41999999 80:0.28 81:0.51020408 82:0.58181816 83:0.60714287 84:0.40000001 85:0.52083331 86:0.47499999 87:0.58974361 88:0.91111112 89:0.73584908 90:0.5090909 91:0.47368422 92:0.7096774 93:0.80952382 94:0.94444442 95:0.91428572 96:0.63636363 97:0.82051283 98:0.93650794 99:0.66666669 100:0.7903226 101:0.74444443 102:0.49315068 103:0.80232561 104:0.91566265 105:0.78571427 106:0.51111114 107:0.40206185 108:0.29761904 109:0.4074074 110:0.35294119 111:0.48648649 112:0.47619048 113:0.33333334 114:0.63953489 115:1 116:0.69696969 117:0.5 118:0.625 119:0.31707317 120:0.89090908 121:1 122:0.52631581 123:0.24489796 124:0.52272725 125:0.5714286 126:0.97872341 127:0.60493827 128:0.47457626 129:0.36585367 130:0.78947371 131:0.77419353 132:0.95238096 133:0.56521738 134:0.27272728 135:0.05882353 136:0.63157892 137:0.42500001 138:0.92500001 139:0.5633803 140:0.10638298 141:0.22499999 142:0.25 143:0.12765957 144:0.75 145:0.56179774 146:0.35416666 147:0.36538461 148:0.30645162 149:0.36666667 150:0.72289157 151:0.6506024 152:0.82352942 153:0.51724136 154:0.5 155:0.27500001 156:0.70886075 157:0.42168674 158:0.71428573 159:0.34210527 160:0.38636363 161:0.44999999 162:0.77777779 163:0.34831461 164:0.5714286 165:0.51612902 166:0.65853661 167:0.67567569 168:0.75 169:0.51612902 170:0.36363637 171:0.2857143 172:0.625 173:0.7352941 174:0.63333333 175:0.29032257 176:0.069444448 177:0.098039217 178:0.16129032 179:0.18518518 180:0.53333336 181:0.46391752 182:0.58878505 183:0.56962025 184:0.64285713 185:0.5529412 186:0.51807231 187:0.28395063 188:0.47887325 189:0.90476191 190:0.97872341 191:0.80392158 192:0.59615386 193:0.49056605 194:0.53333336 195:0.61363637 196:0.90566039 197:0.65217394 198:0.41379312 199:0.69767439 200:0.75 201:0.86666667 202:1 203:0.8125 204:0.62903225 205:0.83333331 206:0.85365856 207:0.54761904 208:0.80000001 209:0.8974359 210:0.7647059 211:0.44776121 212:0.36000001 213:0.36363637 214:0.48648649 215:0.58666664 216:0.60000002 217:0.51724136 218:0.36842105 219:0.40229884 220:0.25609756 221:0.39080459 222:0.62337661 223:0.34375 224:0.28070176 225:0.47826087 226:0.56862748 227:0.75999999 228:0.83018869 229:0.63793105 230:0.27500001 231:0.3125 232:0.71929824 233:0.83018869 234:0.86885244 235:0.47222221 236:0.60000002 237:0.66666669 238:0.81632656 239:0.87719297 240:0.86585367 241:0.40000001 242:0.54411763 243:0.5 244:0.76190478 245:0.77631581 246:0.62318838 247:0.31818181 248:0.58974361 249:0.63013697 250:0.55384618 251:0.42857143 252:0.32352942 253:0.33333334 254:0.32499999 255:0.47499999 256:0.40909091 257:0.24561404 258:0.14864865 259:0.52941179 260:0.83870965 261:0.73076922 262:0.48148149 263:0.34210527 264:0.1147541 265:0.19607843 266:0.42857143 267:0.36585367 268:0.43137255 269:0.58823532 270:0.5 271:0.18965517 272:0.46000001 273:0.39393941 274:0.65957445 275:0.80434781 276:0.65277779 277:0.21666667 278:0.56818181 279:0.58064514 280:0.75675678 281:0.71794873 282:0.30000001 283:0.069767445 284:0.16949153 285:0.10204082 286:0.087719299 287:0.34999999 288:0.074626863 
0.1265224095827283 1:0.78846157 2:0.60784316 3:0.51162791 4:0.78048778 5:0.22916667 6:0.17073171 7:0.71428573 8:0.50980395 9:0.42424244 10:0.9375 11:0.25 12:0.11578947 13:0.68421054 14:0.375 15:0.11111111 16:0.40000001 17:0.66666669 18:0.17475729 19:0.35897437 20:0.30508474 21:0.25806451 22:0.52272725 23:0.53191489 24:0.24299066 25:0.27906978 26:0.35185185 27:0.60000002 28:0.82758623 29:0.85365856 30:0.3548387 31:0.41772151 32:0.22580644 33:0.32499999 34:0.46341464 35:0.45454547 36:0.44565219 37:0.59493673 38:0.55056179 39:0.5487805 40:0.65168542 41:0.60240966 42:0.49350649 43:0.56097561 44:0.53703701 45:0.76744187 46:0.81132078 47:0.72222221 48:0.61403507 49:0.73333335 50:0.60465115 51:0.54285717 52:0.68000001 53:0.52941179 54:0.4909091 55:0.33333334 56:0.52941179 57:0.65909094 58:0.47368422 59:0.47619048 60:0.55223882 61:0.57377046 62:0.58823532 63:0.34090909 64:0.5 65:0.7631579 66:0.61971831 67:0.55913979 68:0.45744681 69:0.34210527 70:0.2962963 71:0.34090909 72:0.44 73:0.859375 74:0.62790698 75:0.57303369 76:0.52173913 77:0.66666669 78:0.60493827 79:0.68000001 80:0.22 81:0.69387758 82:0.60000002 83:0.66071427 84:0.72000003 85:0.6875 86:0.125 87:0.48717949 88:0.71111113 89:0.52830189 90:0.54545456 91:0.68421054 92:0.25806451 93:0.63492066 94:0.64814812 95:0.5714286 96:0.5272727 97:0.57692307 98:0.58730161 99:0.35416666 100:0.62903225 101:0.62222224 102:0.5479452 103:0.45348838 104:0.43373495 105:0.44047618 106:0.44444445 107:0.40206185 108:0.4642857 109:0.37037036 110:0.47058824 111:0.64864862 112:0.38095239 113:0.54761904 114:0.56976742 115:0.5 116:0.60606062 117:0.47368422 118:0.25 119:0.56097561 120:0.89090908 121:0.33333334 122:0.34210527 123:0.12244898 124:0.52272725 125:0.5714286 126:0.76595747 127:0.2962963 128:0.30508474 129:0.14634146 130:0.65789473 131:0.58064514 132:0.69047618 133:0.32608697 134:0.40000001 135:0.23529412 136:0.86842108 137:0.72500002 138:0.92500001 139:0.12676056 140:0.29787233 141:0.40000001 142:0.375 143:0.31914893 144:0.5714286 145:0.21348314 146:0.60416669 147:0.78846157 148:0.24193548 149:0.58333331 150:0.67469877 151:0.24096386 152:0.67647058 153:0.31034482 154:0.2 155:0.175 156:0.55696201 157:0.30120483 158:0.54761904 159:0.34210527 160:0.61363637 161:0.47499999 162:0.72839504 163:0.39325842 164:0.30612245 165:0.41935483 166:0.68292683 167:0.51351351 168:0.56578946 169:0.21505377 170:0.11363637 171:0.60000002 172:0.875 173:0.7647059 174:0.66666669 175:0.043010753 176:0.27777779 177:0.627451 178:0.30645162 179:0.66666669 180:0.88 181:0.50515461 182:0.54205608 183:0.37974682 184:0.35714287 185:0.47058824 186:0.45783132 187:0.41975307 188:0.3943662 189:0.42857143 190:0.5106383 191:0.68627453 192:0.61538464 193:0.8490566 194:0.48888889 195:0.5 196:0.83018869 197:0.63043481 198:0.60344827 199:0.95348835 200:0.3611111 201:0.46666667 202:0.65217394 203:0.40625 204:0.48387095 205:0.7962963 206:0.51219511 207:0.33333334 208:0.57999998 209:0.67948717 210:0.66176468 211:0.65671641 212:0.61333334 213:0.58441556 214:0.48648649 215:0.66666669 216:0.83076924 217:0.62068963 218:0.5131579 219:0.39080459 220:0.39024389 221:0.41379312 222:0.38961038 223:0.546875 224:0.40350878 225:0.45652175 226:0.54901963 227:0.57999998 228:0.49056605 229:0.70689654 230:0.72500002 231:0.58333331 232:0.63157892 233:0.83018869 234:0.73770493 235:0.5 236:0.56666666 237:0.47222221 238:0.30612245 239:0.56140351 240:0.60975611 241:0.44444445 242:0.5 243:0.48076922 244:0.47619048 245:0.71052629 246:0.60869563 247:0.74242425 248:0.70512819 249:0.6438356 250:0.76923078 251:0.63636363 252:0.58823532 253:0.72916669 254:0.5 255:0.55000001 256:0.93181819 257:0.28070176 258:0.22972973 259:0.58823532 260:0.61290324 261:0.1923077 262:0.33333334 263:0.18421052 264:0.049180329 265:0.15686275 266:0.74285716 267:0.63414633 268:0.56862748 269:0.66666669 270:0.39705881 271:0.39655173 272:0.41999999 273:0.54545456 274:0.55319148 275:0.56521738 276:0.45833334 277:0.48333332 278:0.38636363 279:0.74193549 280:0.86486489 281:0.79487181 282:0.38 283:0.73255813 284:0.35593221 285:0.3877551 286:0.56140351 287:0.51666665 288:0.25373134 
0.06531559241727175 1:0.82692307 2:0.43137255 3:0.48837209 4:0.63414633 5:0.16666667 6:0.17073171 7:0.76190478 8:0.68627453 9:0.45454547 10:0.96875 11:0.27777779 12:0.1368421 13:0.7719298 14:0.53571427 15:0.11111111 16:0.42222223 17:0.43333334 18:0.15533981 19:0.5 20:0.30508474 21:0.38709676 22:0.36363637 23:0.42553192 24:0.22429906 25:0.41860464 26:0.4074074 27:0.74285716 28:0.7241379 29:0.60975611 30:0.37634408 31:0.54430377 32:0.3548387 33:0.42500001 34:0.39024389 35:0.5090909 36:0.25 37:0.58227849 38:0.56179774 39:0.46341464 40:0.55056179 41:0.59036142 42:0.5714286 43:0.43902439 44:0.51851851 45:0.69767439 46:0.90566039 47:0.75925928 48:0.71929824 49:0.75555557 50:0.62790698 51:0.51428574 52:0.63999999 53:0.50980395 54:0.63636363 55:0.37777779 56:0.17647059 57:0.47727272 58:0.28070176 59:0.33333334 60:0.56716418 61:0.40983605 62:0.39215687 63:0.45454547 64:0.59375 65:0.81578946 66:0.81690139 67:0.7096774 68:0.57446808 69:0.4868421 70:0.4074074 71:0.36363637 72:0.54666668 73:0.5625 74:0.56976742 75:0.51685393 76:0.44565219 77:0.56321841 78:0.5925926 79:0.57999998 80:0.31999999 81:0.63265306 82:0.43636364 83:0.66071427 84:0.77999997 85:0.52083331 86:0.22499999 87:0.46153846 88:0.66666669 89:0.47169811 90:0.58181816 91:0.5 92:0 93:0.36507937 94:0.55555558 95:0.45714286 96:0.30909091 97:0.38461539 98:0.44444445 99:0.3125 100:0.7096774 101:0.71111113 102:0.63013697 103:0.5 104:0.60240966 105:0.51190478 106:0.47777778 107:0.50515461 108:0.4642857 109:0.25925925 110:0.39215687 111:0.62162161 112:0.30952382 113:0.42857143 114:0.43023255 115:0.38461539 116:0.63636363 117:0.52631581 118:0.3125 119:0.53658539 120:0.87272727 121:0.24074075 122:0.31578946 123:0.10204082 124:0.5 125:0.39285713 126:0.59574467 127:0.22222222 128:0.32203391 129:0.12195122 130:0.39473686 131:0.38709676 132:0.40476191 133:0.35869566 134:0.38181818 135:0.11764706 136:0.84210527 137:0.55000001 138:0.875 139:0.25352111 140:0.38297874 141:0.375 142:0.44999999 143:0.46808511 144:0.60714287 145:0.34831461 146:0.52083331 147:0.73076922 148:0.24193548 149:0.48333332 150:0.6506024 151:0.15662651 152:0.47058824 153:0.34482759 154:0.16666667 155:0.27500001 156:0.5316456 157:0.22891566 158:0.69047618 159:0.18421052 160:0.43181819 161:0.42500001 162:0.69135803 163:0.40449437 164:0.48979592 165:0.29032257 166:0.60975611 167:0.4054054 168:0.57894737 169:0.22580644 170:0.31818181 171:0.40000001 172:0.65625 173:0.67647058 174:0.56666666 175:0.053763442 176:0.2638889 177:0.70588237 178:0.32258064 179:0.51851851 180:1 181:0.556701 182:0.54205608 183:0.44303799 184:0.37142858 185:0.45882353 186:0.45783132 187:0.30864197 188:0.35211268 189:0.095238097 190:0.25531915 191:0.47058824 192:0.36538461 193:0.67924529 194:0.51111114 195:0.29545453 196:0.66037738 197:0.5869565 198:0.56896549 199:0.90697676 200:0.30555555 201:0.35555556 202:0.65217394 203:0.453125 204:0.58064514 205:0.68518519 206:0.39024389 207:0.16666667 208:0.5 209:0.58974361 210:0.63235295 211:0.46268657 212:0.62666667 213:0.58441556 214:0.58108109 215:0.82666665 216:0.90769231 217:0.63218391 218:0.60526317 219:0.42528737 220:0.36585367 221:0.43678162 222:0.53246754 223:0.40625 224:0.2631579 225:0.13043478 226:0.21568628 227:0.36000001 228:0.3773585 229:0.63793105 230:0.69999999 231:0.625 232:0.66666669 233:0.75471699 234:0.80327868 235:0.25 236:0.46666667 237:0.52777779 238:0.40816328 239:0.61403507 240:0.78048778 241:0.40000001 242:0.41176471 243:0.40384614 244:0.50793654 245:0.64473683 246:0.69565219 247:0.72727275 248:0.69230771 249:0.73972601 250:0.93846154 251:0.74025977 252:0.85294116 253:0.75 254:0.42500001 255:0.47499999 256:0.90909094 257:0.28070176 258:0.1891892 259:0.41176471 260:0.45161289 261:0.26923078 262:0.44444445 263:0.28947368 264:0.18032786 265:0.29411766 266:0.54285717 267:0.43902439 268:0.49019608 269:0.58823532 270:0.39705881 271:0.44827586 272:0.34 273:0.33333334 274:0.38297874 275:0.60869563 276:0.5138889 277:0.56666666 278:0.36363637 279:0.45161289 280:0.67567569 281:0.61538464 282:0.31999999 283:0.80232561 284:0.49152541 285:0.44897959 286:0.59649122 287:0.48333332 288:0.19402985 
0.01300417614817352 1:0.84615386 2:0.37254903 3:0.27906978 4:0.43902439 5:0.1875 6:0.12195122 7:0.73809522 8:0.64705884 9:0.42424244 10:0.65625 11:0.30555555 12:0.1368421 13:0.78947371 14:0.85714287 15:0.6111111 16:0.66666669 17:0.56666666 18:0.22330096 19:0.55128205 20:0.54237288 21:0.58064514 22:0.52272725 23:0.46808511 24:0.35514018 25:0.51162791 26:0.4074074 27:0.60000002 28:0.20689656 29:0.24390244 30:0.31182796 31:0.64556962 32:0.17741935 33:0.2 34:0.14634146 35:0.14545454 36:0.086956523 37:0.55696201 38:0.53932583 39:0.65853661 40:0.76404494 41:0.77108431 42:0.89610392 43:0.39024389 44:0.33333334 45:0.55813956 46:0.67924529 47:0.62962961 48:0.61403507 49:0.66666669 50:0.3488372 51:0.22857143 52:0.60000002 53:0.49019608 54:0.5272727 55:0.22222222 56:0.05882353 57:0.68181819 58:0.63157892 59:0.63492066 60:0.71641791 61:0.18032786 62:0.039215688 63:0.56818181 64:0.75 65:0.72368419 66:0.77464789 67:0.48387095 68:0.38297874 69:0.32894737 70:0.38271606 71:0.31818181 72:0.42666668 73:0.90625 74:0.67441863 75:0.65168542 76:0.46739131 77:0.43678162 78:0.39506173 79:0.46000001 80:0.41999999 81:0.6122449 82:0.5272727 83:0.44642857 84:0.34 85:0.41666666 86:0.55000001 87:0.2820513 88:0.51111114 89:0.52830189 90:0.47272727 91:0.36842105 92:0.32258064 93:0.65079367 94:0.68518519 95:0.71428573 96:0.61818182 97:0.12820514 98:0.34920636 99:0.5625 100:0.74193549 101:0.69999999 102:0.67123288 103:0.59302324 104:0.54216868 105:0.45238096 106:0.31111112 107:0.2783505 108:0.44047618 109:0.24074075 110:0.29411766 111:0.43243244 112:0.33333334 113:0.26190478 114:0.38372093 115:0.40384614 116:0.81818181 117:0.28947368 118:0.46875 119:0.31707317 120:0.40000001 121:0.62962961 122:0.71052629 123:0.44897959 124:0.47727272 125:0.21428572 126:0.55319148 127:0.32098764 128:0.47457626 129:0.53658539 130:0.63157892 131:0.61290324 132:0.35714287 133:0.35869566 134:0.34545454 135:0.35294119 136:0.31578946 137:0.32499999 138:0.27500001 139:0.80281693 140:0.17021276 141:0.125 142:0.125 143:0.04255319 144:0.32142857 145:1 146:0.16666667 147:0.34615386 148:0.24193548 149:0.15000001 150:0.55421686 151:1 152:0.7352941 153:0.44827586 154:0.33333334 155:0.125 156:0.46835443 157:0.85542166 158:0.88095236 159:0.57894737 160:0.72727275 161:0.57499999 162:0.55555558 163:0.84269661 164:0.75510204 165:0.87096775 166:0.60975611 167:0.67567569 168:0.36842105 169:0.80645162 170:0.72727275 171:0.37142858 172:0.3125 173:0.44117647 174:0.1 175:0.63440859 176:0.1388889 177:0.078431375 178:0.16129032 179:0.055555556 180:0.21333334 181:0.61855668 182:0.48598132 183:0.36708862 184:0.25714287 185:0.29411766 186:0.3253012 187:0.33333334 188:0.33802816 189:0.38095239 190:0.34042552 191:0.50980395 192:0.38461539 193:0.35849056 194:0.24444444 195:0.38636363 196:0.49056605 197:0.43478259 198:0.44827586 199:0.3488372 200:0.47222221 201:0.60000002 202:0.43478259 203:0.53125 204:0.53225809 205:0.31481481 206:0.31707317 207:0.38095239 208:0.44 209:0.62820512 210:0.63235295 211:0.10447761 212:0.10666667 213:0.25974026 214:0.14864865 215:0.26666668 216:0.44615385 217:0.49425286 218:0.52631581 219:0.43678162 220:0.37804878 221:0.40229884 222:0.49350649 223:0.25 224:0.3508772 225:0.69565219 226:0.68627453 227:0.54000002 228:0.67924529 229:0.13793103 230:0.22499999 231:0.47916666 232:0.63157892 233:0.73584908 234:0.78688526 235:0.25 236:0.23333333 237:0.52777779 238:0.81632656 239:0.71929824 240:0.76829267 241:0.31111112 242:0.39705881 243:0.53846157 244:0.73015875 245:0.67105263 246:0.76811594 247:0.5 248:0.53846157 249:0.49315068 250:0.58461541 251:0.45454547 252:0.36764705 253:0.875 254:0.52499998 255:0.52499998 256:0.38636363 257:0.15789473 258:0.094594598 259:0.7647059 260:1 261:0.80769229 262:0.5925926 263:0.23684211 264:0.14754099 265:0.66666669 266:0.34285715 267:0.51219511 268:0.70588237 269:0.64705884 270:0.54411763 271:0.62068963 272:0.25999999 273:0.4848485 274:0.85106385 275:0.76086956 276:0.625 277:0.53333336 278:0.27272728 279:0.25806451 280:0.51351351 281:0.46153846 282:0.22 283:0.40697673 284:0.22033899 285:0.14285715 286:0.12280702 287:0.25 288:0.13432837 
0.0593684666251294 1:0.40384614 2:0.3137255 3:0.23255815 4:0.24390244 5:0.0625 6:0.12195122 7:0.61904764 8:0.68627453 9:0.36363637 10:0.46875 11:0.27777779 12:0.14736842 13:0.64912283 14:0.71428573 15:0.52777779 16:0.64444447 17:0.66666669 18:0.18446602 19:0.41025642 20:0.45762712 21:0.48387095 22:0.54545456 23:0.61702126 24:0.32710281 25:0.45348838 26:0.4074074 27:0.65714288 28:0.24137931 29:0.41463414 30:0.24731183 31:0.62025315 32:0.12903225 33:0.22499999 34:0.19512194 35:0.30909091 36:0.086956523 37:0.46835443 38:0.33707866 39:0.36585367 40:0.38202247 41:0.3253012 42:0.41558442 43:0.14634146 44:0.22222222 45:0.46511629 46:0.58490568 47:0.64814812 48:0.63157892 49:0.48888889 50:0.30232558 51:0.2857143 52:0.57999998 53:0.47058824 54:0.38181818 55:0.022222223 56:0.11764706 57:0.81818181 58:0.80701756 59:0.87301588 60:0.83582091 61:0.44262296 62:0.37254903 63:0.68181819 64:0.734375 65:0.93421054 66:0.84507042 67:0.30107528 68:0.41489363 69:0.22368421 70:0.17283951 71:0.48863637 72:0.82666665 73:0.34375 74:0.44186047 75:0.46067417 76:0.43478259 77:0.39080459 78:0.32098764 79:0.31999999 80:0.22 81:0.3877551 82:0.40000001 83:0.21428572 84:0.18000001 85:0.47916666 86:0.52499998 87:0.30769232 88:0.51111114 89:0.32075471 90:0.29090908 91:0.21052632 92:0.3548387 93:0.77777779 94:0.8888889 95:0.78571427 96:0.83636361 97:0.58974361 98:0.77777779 99:0.79166669 100:0.83870965 101:0.64444447 102:0.69863015 103:0.88372093 104:0.84337348 105:0.98809522 106:0.93333334 107:0.67010307 108:0.53571427 109:0.18518518 110:0.21568628 111:0.32432431 112:0.19047619 113:0.071428575 114:0.08139535 115:0.46153846 116:0.63636363 117:0.21052632 118:0.25 119:0.24390244 120:0.10909091 121:0.14814815 122:0.47368422 123:0.40816328 124:0.56818181 125:0.2857143 126:0.31914893 127:0.13580246 128:0.16949153 129:0.39024389 130:0.65789473 131:0.58064514 132:0.33333334 133:0.14130434 134:0.25454545 135:0.23529412 136:0.39473686 137:0.34999999 138:0.34999999 139:0.80281693 140:0.10638298 141:0.15000001 142:0.30000001 143:0.17021276 144:0.25 145:0.8202247 146:0.29166666 147:0.26923078 148:0.16129032 149:0.15000001 150:0.19277108 151:0.91566265 152:0.79411763 153:0.31034482 154:0.16666667 155:0 156:0.050632913 157:0.92771083 158:0.78571427 159:0.60526317 160:0.68181819 161:0.47499999 162:0.33333334 163:0.87640452 164:0.91836733 165:0.93548387 166:0.63414633 167:0.5945946 168:0.32894737 169:0.91397852 170:0.79545456 171:0.40000001 172:0.34375 173:0.38235295 174:0.1 175:0.77419353 176:0.097222224 177:0.078431375 178:0.14516129 179:0.14814815 180:0.30666667 181:0.53608245 182:0.50467288 183:0.2278481 184:0.1 185:0.094117649 186:0.096385539 187:0.24691358 188:0.32394367 189:0.23809524 190:0.25531915 191:0.05882353 192:0.07692308 193:0.3018868 194:0.13333334 195:0.29545453 196:0.43396226 197:0.15217391 198:0.46551725 199:0.48837209 200:0.58333331 201:0.73333335 202:0.76086956 203:0.640625 204:0.7096774 205:0.3888889 206:0.43902439 207:0.59523809 208:0.68000001 209:0.71794873 210:0.75 211:0.46268657 212:0.28 213:0.15584415 214:0.21621622 215:0.22666667 216:0.52307695 217:0.35632184 218:0.32894737 219:0.35632184 220:0.2682927 221:0.36781609 222:0.41558442 223:0.15625 224:0.19298245 225:0.56521738 226:0.627451 227:0.68000001 228:0.66037738 229:0.05172414 230:0.050000001 231:0.29166666 232:0.57894737 233:0.73584908 234:0.6885246 235:0.41666666 236:0.60000002 237:0.83333331 238:0.91836733 239:0.9649123 240:0.86585367 241:0.37777779 242:0.54411763 243:0.82692307 244:0.8888889 245:0.89473683 246:0.884058 247:0.63636363 248:0.78205127 249:0.86301368 250:0.81538463 251:0.84415585 252:0.7647059 253:0.85416669 254:0.42500001 255:0.42500001 256:0.43181819 257:0.12280702 258:0.094594598 259:0.64705884 260:0.64516127 261:0.5 262:0.37037036 263:0.18421052 264:0 265:0.68627453 266:0.22857143 267:0.41463414 268:0.627451 269:0.68627453 270:0.5147059 271:0.68965518 272:0.34 273:0.4848485 274:0.78723407 275:0.82608694 276:0.625 277:0.56666666 278:0.15909091 279:0.22580644 280:0.48648649 281:0.61538464 282:0.2 283:0.46511629 284:0.16949153 285:0.14285715 286:0.12280702 287:0.33333334 288:0.1641791 
0.1165534964118131 1:0.30769232 2:0.23529412 3:0.1627907 4:0.19512194 5:0.10416666 6:0.65853661 7:0.21428572 8:0.60784316 9:0.27272728 10:0.375 11:0.3888889 12:0.84210527 13:0.47368422 14:0.58928573 15:0.41666666 16:0.51111114 17:0.66666669 18:0.88349515 19:0.34615386 20:0.44067797 21:0.54838711 22:0.52272725 23:0.5106383 24:0.92523366 25:0.31395349 26:0.37037036 27:0.65714288 28:0.24137931 29:0.31707317 30:0.96774191 31:0.49367088 32:0.14516129 33:0.27500001 34:0.34146342 35:0.29090908 36:0.93478262 37:0.18987341 38:0.12359551 39:0.19512194 40:0.29213482 41:0.22891566 42:0.3116883 43:0.17073171 44:0.27777779 45:0.3255814 46:0.4528302 47:0.57407409 48:0.40350878 49:0.26666668 50:0.30232558 51:0.057142857 52:0.38 53:0.29411766 54:0.36363637 55:0.17777778 56:0.17647059 57:0.90909094 58:0.78947371 59:0.73015875 60:0.92537314 61:0.54098362 62:0.60784316 63:0.56818181 64:0.75 65:0.86842108 66:0.88732392 67:0.38709676 68:0.5106383 69:0.55263156 70:0.55555558 71:0.69318181 72:0.95999998 73:0.359375 74:0.25581396 75:0.35955057 76:0.32608697 77:0.39080459 78:0.37037036 79:0.47999999 80:0.23999999 81:0.42857143 82:0.45454547 83:0.3392857 84:0.46000001 85:0.58333331 86:0.375 87:0.35897437 88:0.48888889 89:0.41509435 90:0.34545454 91:0.28947368 92:0.83870965 93:0.82539684 94:0.8888889 95:0.95714283 96:0.76363635 97:0.53846157 98:0.6825397 99:0.875 100:0.80645162 101:0.77777779 102:0.67123288 103:0.88372093 104:0.75903612 105:0.76190478 106:0.58888888 107:0.38144329 108:0.38095239 109:0.09259259 110:0.098039217 111:0.27027026 112:0.14285715 113:0.19047619 114:0.37209302 115:0.23076923 116:0.30303031 117:0.2631579 118:0.375 119:0.2682927 120:0.36363637 121:0.11111111 122:0.02631579 123:0.2857143 124:0.56818181 125:0.35714287 126:0.57446808 127:0.086419754 128:0.25423729 129:0.41463414 130:0.68421054 131:0.51612902 132:0.66666669 133:0.13043478 134:0.23636363 135:0.29411766 136:0.34210527 137:0.34999999 138:0.72500002 139:0.32394367 140:0.17021276 141:0.22499999 142:0.2 143:0.23404256 144:0.2857143 145:0.13483146 146:0.14583333 147:0.11538462 148:0.064516127 149:0.15000001 150:0.67469877 151:0.37349397 152:0.70588237 153:0.27586207 154:0.26666668 155:0.22499999 156:0.8101266 157:0.084337346 158:0.78571427 159:0.63157892 160:0.61363637 161:0.67500001 162:0.98765433 163:0.033707865 164:0.75510204 165:0.90322578 166:0.65853661 167:0.83783782 168:0.93421054 169:0.13978495 170:0.61363637 171:0.48571429 172:0.21875 173:0.41176471 174:0.75 175:0.043010753 176:0.11111111 177:0.17647059 178:0.14516129 179:0.24074075 180:0.85333335 181:0.58762884 182:0.52336448 183:0.36708862 184:0.25714287 185:0.27058825 186:0.31325302 187:0.27160493 188:0.35211268 189:0.35714287 190:0.34042552 191:0.43137255 192:0.36538461 193:0.35849056 194:0.35555556 195:0.56818181 196:0.60377359 197:0.5869565 198:0.55172414 199:0.55813956 200:0.91666669 201:0.86666667 202:0.76086956 203:0.765625 204:0.66129035 205:0.48148149 206:0.60975611 207:0.73809522 208:0.80000001 209:0.78205127 210:0.70588237 211:0.79104477 212:0.57333332 213:0.54545456 214:0.47297296 215:0.56 216:0.60000002 217:0.31034482 218:0.22368421 219:0.26436782 220:0.25609756 221:0.35632184 222:0.45454547 223:0.140625 224:0.15789473 225:0.30434781 226:0.39215687 227:0.38 228:0.49056605 229:0.22413793 230:0.1 231:0.375 232:0.50877196 233:0.6226415 234:0.78688526 235:0.3888889 236:0.5 237:0.77777779 238:0.79591835 239:0.80701756 240:0.81707317 241:0.35555556 242:0.54411763 243:0.69230771 244:0.76190478 245:0.86842108 246:0.84057969 247:0.39393941 248:0.58974361 249:0.57534248 250:0.64615387 251:0.58441556 252:0.67647058 253:0.375 254:0.075000003 255:0.125 256:0.27272728 257:0.052631579 258:0.5945946 259:0.38235295 260:0.48387095 261:0.38461539 262:0.33333334 263:0.23684211 264:0.42622951 265:0.3137255 266:0.22857143 267:0.46341464 268:0.54901963 269:0.72549021 270:0.9852941 271:0.24137931 272:0.18000001 273:0.5151515 274:0.82978725 275:0.76086956 276:0.97222221 277:0.28333333 278:0.06818182 279:0.3548387 280:0.56756759 281:0.53846157 282:0.34 283:0.3255814 284:0.18644068 285:0.10204082 286:0.070175439 287:0.31666666 288:0.19402985 
0.224396812440122 1:0.1923077 2:0.3137255 3:0.27906978 4:0.21951219 5:0.29166666 6:0.79268295 7:0.61904764 8:0.68627453 9:0.69696969 10:0.53125 11:0.3611111 12:0.9894737 13:0.33333334 14:0.66071427 15:0.55555558 16:0.44444445 17:0.53333336 18:0.99029124 19:0.12820514 20:0.27118644 21:0.38709676 22:0.56818181 23:0.38297874 24:0.95327103 25:0 26:0.4074074 27:0.82857144 28:0.62068963 29:0.56097561 30:1 31:0 32:0.29032257 33:0.44999999 34:0.36585367 35:0.36363637 36:0.92391306 37:0.48101267 38:0.19101124 39:0.2682927 40:0.21348314 41:0.33734939 42:0.50649351 43:0.53658539 44:0.4074074 45:0.60465115 46:0.71698111 47:0.72222221 48:0.61403507 49:0.53333336 50:0.3255814 51:0.5714286 52:0.68000001 53:0.64705884 54:0.80000001 55:0.24444444 56:0.38235295 57:0.70454544 58:0.54385966 59:0.49206349 60:0.56716418 61:0 62:0.27450982 63:0.65909094 64:0.75 65:0.88157892 66:0.76056337 67:0.24731183 68:0.19148937 69:0.21052632 70:0.13580246 71:0.15909091 72:0.28 73:0.875 74:0.77906978 75:0.73033708 76:0.75 77:0.66666669 78:0.5925926 79:0.86000001 80:0.5 81:0.87755102 82:0.80000001 83:0.6964286 84:0.63999999 85:0.79166669 86:0.89999998 87:0.92307693 88:0.8888889 89:0.66037738 90:0.54545456 91:0.28947368 92:0.7096774 93:0.79365081 94:0.72222221 95:0.75714284 96:0.47272727 97:0.33333334 98:0.69841272 99:0.875 100:0.93548387 101:0.87777776 102:0.67123288 103:0.68604654 104:0.61445785 105:0.45238096 106:0.46666667 107:0.4742268 108:0.4642857 109:0.31481481 110:0.17647059 111:0.24324325 112:0.23809524 113:0.30952382 114:0.45348838 115:0.69230771 116:0.72727275 117:0.55263156 118:0.5 119:0.24390244 120:0.60000002 121:0.37037036 122:0.36842105 123:0.36734694 124:0.54545456 125:0.10714286 126:0.70212764 127:0.12345679 128:0.20338982 129:0.24390244 130:0.60526317 131:0.41935483 132:0.52380955 133:0.22826087 134:0.40000001 135:0.5 136:0.57894737 137:0.5 138:0.72500002 139:0.1971831 140:0.31914893 141:0.40000001 142:0.375 143:0.29787233 144:0.8035714 145:0.067415729 146:0.22916667 147:0.21153846 148:0.12903225 149:0.23333333 150:0.72289157 151:0.15662651 152:0.38235295 153:0.48275861 154:0.40000001 155:0.15000001 156:0.8101266 157:0.3253012 158:0.85714287 159:0.5 160:0.70454544 161:0.67500001 162:0.91358024 163:0.28089887 164:0.79591835 165:0.51612902 166:0.902439 167:0.8108108 168:0.77631581 169:0.40860215 170:0.70454544 171:0.48571429 172:0.5625 173:0.5 174:0.63333333 175:0.12903225 176:0.16666667 177:0.27450982 178:0.22580644 179:0.16666667 180:0.60000002 181:0.64948452 182:0.71962619 183:0.4050633 184:0.11428571 185:0.14117648 186:0.20481928 187:0.43209878 188:0.43661973 189:0.35714287 190:0.36170211 191:0.39215687 192:0.46153846 193:0.24528302 194:0.31111112 195:0.45454547 196:0.4528302 197:0.15217391 198:0.34482759 199:0.60465115 200:0.8888889 201:0.82222223 202:0.73913044 203:0.625 204:0.59677422 205:0.5925926 206:0.73170733 207:0.59523809 208:0.63999999 209:0.83333331 210:0.75 211:0.34328359 212:0.25333333 213:0.22077923 214:0.27027026 215:0.38666666 216:0.32307693 217:0.88505745 218:0.82894737 219:1 220:1 221:1 222:1 223:0.484375 224:0.42105263 225:0.60869563 226:0.70588237 227:0.77999997 228:0.6981132 229:0.10344828 230:0.64999998 231:0.83333331 232:0.80701756 233:0.88679248 234:0.95081967 235:0.33333334 236:0.73333335 237:1 238:0.91836733 239:0.9649123 240:0.74390244 241:0.42222223 242:0.54411763 243:0.69230771 244:0.79365081 245:0.89473683 246:0.81159419 247:0.59090906 248:0.65384614 249:0.79452056 250:0.80000001 251:0.71428573 252:0.67647058 253:0.041666668 254:0.075000003 255:0.22499999 256:0.22727273 257:0.15789473 258:0.66216218 259:0.35294119 260:0 261:0.5 262:0.5925926 263:0.39473686 264:0.22950819 265:0.43137255 266:0.40000001 267:0.65853661 268:0.58823532 269:0.68627453 270:0.5147059 271:0.068965517 272:0.14 273:0.66666669 274:0.82978725 275:0.80434781 276:0.54166669 277:0 278:0.13636364 279:0.74193549 280:0.5945946 281:0.58974361 282:0.31999999 283:0 284:0.20338982 285:0.30612245 286:0.14035088 287:0.31666666 288:0.11940298 
0.1518570981592709 1:0.61538464 2:0.21568628 3:0.11627907 4:0.12195122 5:0.10416666 6:0.15853658 7:0.59523809 8:0.72549021 9:0.42424244 10:0.40625 11:0.22222222 12:0.094736844 13:0.61403507 14:0.66071427 15:0.33333334 16:0.48888889 17:0.43333334 18:0.17475729 19:0.51282054 20:0.45762712 21:0.48387095 22:0.43181819 23:0.55319148 24:0.32710281 25:0.5 26:0.46296296 27:0.80000001 28:0.41379312 29:0.48780489 30:0.3548387 31:0.60759491 32:0.17741935 33:0.27500001 34:0.19512194 35:0.34545454 36:0.30434781 37:0.60759491 38:0.50561798 39:0.41463414 40:0.46067417 41:0.3493976 42:0.46753246 43:0.51219511 44:0.4074074 45:0.62790698 46:0.71698111 47:0.77777779 48:0.64912283 49:0.60000002 50:0.37209302 51:0.37142858 52:0.75999999 53:0.72549021 54:0.54545456 55:0.13333334 56:0.20588236 57:0.68181819 58:0.66666669 59:0.71428573 60:0.71641791 61:0.40983605 62:0.29411766 63:0.75 64:0.875 65:0.90789473 66:0.8309859 67:0.096774191 68:0.13829787 69:0.40789473 70:0.12345679 71:0.39772728 72:0.74666667 73:0.265625 74:0.36046511 75:0.42696628 76:0.35869566 77:0.37931034 78:0.30864197 79:0.5 80:0.40000001 81:0.40816328 82:0.40000001 83:0.21428572 84:0.18000001 85:0.45833334 86:0.57499999 87:0.43589744 88:0.48888889 89:0.32075471 90:0.5090909 91:0.44736841 92:0.45161289 93:0.85714287 94:0.77777779 95:0.69999999 96:0.61818182 97:0.55128205 98:0.87301588 99:1 100:0.95161289 101:0.74444443 102:0.68493152 103:0.97674417 104:1 105:0.9285714 106:0.98888886 107:0.76288658 108:0.65476191 109:0.2037037 110:0.15686275 111:0.27027026 112:0.023809524 113:0.14285715 114:0.20930232 115:0.44230768 116:0.75757575 117:0.23684211 118:0.25 119:0.17073171 120:0 121:0.22222222 122:0.34210527 123:0.24489796 124:0.40909091 125:0.071428575 126:0.19148937 127:0.24691358 128:0.22033899 129:0.29268292 130:0.47368422 131:0.32258064 132:0.14285715 133:0.23913044 134:0.30909091 135:0.38235295 136:0.5 137:0.34999999 138:0.32499999 139:0.78873241 140:0.19148937 141:0.32499999 142:0.27500001 143:0.14893617 144:0.32142857 145:0.7977528 146:0.0625 147:0.07692308 148:0.016129032 149:0.11666667 150:0.10843374 151:0.92771083 152:0.38235295 153:0.31034482 154:0.2 155:0.025 156:0.17721519 157:0.96385545 158:0.90476191 159:0.60526317 160:0.52272725 161:0.40000001 162:0.33333334 163:0.80898875 164:0.87755102 165:0.87096775 166:0.63414633 167:0.54054052 168:0.25 169:0.87096775 170:0.79545456 171:0.5714286 172:0.34375 173:0.29411766 174:0.15000001 175:0.74193549 176:0.097222224 177:0.05882353 178:0.17741935 179:0.12962963 180:0.41333333 181:0.78350514 182:0.69158876 183:0.56962025 184:0.47142857 185:0.12941177 186:0.072289154 187:0.55555558 188:0.57746476 189:0.35714287 190:0.29787233 191:0.078431375 192:0.13461539 193:0.33962265 194:0.22222222 195:0.45454547 196:0.52830189 197:0.23913044 198:0.55172414 199:0.60465115 200:0.72222221 201:0.82222223 202:0.67391306 203:0.5625 204:0.64516127 205:0.51851851 206:0.48780489 207:0.76190478 208:0.69999999 209:0.67948717 210:0.69117647 211:0.29850745 212:0.14666666 213:0.35064936 214:0.33783785 215:0.06666667 216:0.40000001 217:0.29885057 218:0.52631581 219:0.62068963 220:0.58536583 221:0.77011496 222:0.8051948 223:0.375 224:0.36842105 225:0.39130434 226:0.47058824 227:0.57999998 228:0.60377359 229:0.22413793 230:0.375 231:0.58333331 232:0.84210527 233:0.98113209 234:0.78688526 235:0.25 236:0.5 237:0.83333331 238:0.93877554 239:0.92982459 240:0.84146339 241:0.35555556 242:0.54411763 243:0.69230771 244:0.84126985 245:0.85526317 246:0.76811594 247:0.72727275 248:0.84615386 249:0.82191783 250:0.80000001 251:0.93506491 252:0.80882353 253:0.52083331 254:0.1 255:0.22499999 256:0.18181819 257:0.052631579 258:0.1891892 259:0.52941179 260:0.45161289 261:0.5 262:0.44444445 263:0.28947368 264:0.14754099 265:0.80392158 266:0.34285715 267:0.46341464 268:0.627451 269:0.58823532 270:0.5 271:0.56896549 272:0.25999999 273:0.33333334 274:0.70212764 275:0.80434781 276:0.65277779 277:0.51666665 278:0.20454545 279:0.48387095 280:0.54054052 281:0.58974361 282:0.28 283:0.46511629 284:0.15254237 285:0.06122449 286:0.12280702 287:0.30000001 288:0.28358209 
0.0124062611298991 1:0.21153846 2:0.37254903 3:0.3255814 4:0.46341464 5:0.45833334 6:0.19512194 7:0.45238096 8:0.35294119 9:0.39393941 10:0.53125 11:0.6111111 12:0.1368421 13:0.43859649 14:0.75 15:0.52777779 16:0.75555557 17:0.76666665 18:0.24271844 19:0.34615386 20:0.35593221 21:0.32258064 22:0.52272725 23:0.53191489 24:0.25233644 25:0.44186047 26:0.12962963 27:0.62857145 28:0.89655173 29:0.85365856 30:0.51612902 31:0.72151899 32:0.43548387 33:0.75 34:0.73170733 35:0.72727275 36:0.36956522 37:0.24050634 38:0.19101124 39:0.20731707 40:0.21348314 41:0.39759037 42:0.44155845 43:0.17073171 44:0.35185185 45:0.44186047 46:0.52830189 47:0.68518519 48:0.50877196 49:0.51111114 50:0.3255814 51:0.45714286 52:0.80000001 53:0.74509805 54:0.74545455 55:0.26666668 56:0.14705883 57:0.54545456 58:0.57894737 59:0.50793654 60:0.55223882 61:0.24590164 62:0.25490198 63:0.68181819 64:0.96875 65:0.93421054 66:0.97183096 67:0.52688169 68:0.46808511 69:0.5131579 70:0.55555558 71:0.48863637 72:0.57333332 73:0.578125 74:0.20930232 75:0.35955057 76:0.41304347 77:0.22988506 78:0.28395063 79:0.62 80:0.25999999 81:0.53061223 82:0.4909091 83:0.32142857 84:0.36000001 85:0.47916666 86:0.57499999 87:0.69230771 88:0.82222223 89:0.75471699 90:0.83636361 91:0.2631579 92:0.45161289 93:0.50793654 94:0.5 95:0.67142856 96:0.5272727 97:0.23076923 98:0.60317463 99:0.6875 100:0.80645162 101:0.9222222 102:0.87671232 103:0.40697673 104:0.49397591 105:0.63095236 106:0.58888888 107:0.63917524 108:0.77380955 109:0.24074075 110:0.29411766 111:0.37837839 112:0.52380955 113:0.45238096 114:0.39534885 115:0.53846157 116:0.78787881 117:0.28947368 118:0.625 119:0.43902439 120:0.21818182 121:0.31481481 122:0.84210527 123:0.44897959 124:0.59090906 125:0.4642857 126:0.59574467 127:0.18518518 128:0.30508474 129:0.29268292 130:0.60526317 131:0.51612902 132:0.19047619 133:0.086956523 134:0.23636363 135:0.44117647 136:0.81578946 137:0.875 138:0.89999998 139:0.14084508 140:0.46808511 141:0.69999999 142:0.69999999 143:0.61702126 144:0.60714287 145:0.19101124 146:0.3125 147:0.34615386 148:0.40322581 149:0.34999999 150:0.31325302 151:0.20481928 152:0.52941179 153:0.41379312 154:0.46666667 155:0.27500001 156:0.39240506 157:0.084337346 158:0.85714287 159:0.71052629 160:0.75 161:0.85000002 162:0.61728394 163:0.19101124 164:1 165:0.96774191 166:0.87804878 167:0.8918919 168:0.44736841 169:0.21505377 170:0.95454544 171:0.65714288 172:0.4375 173:0.91176468 174:0.23333333 175:0.58064514 176:0.6388889 177:0.66666669 178:0.7096774 179:0.72222221 180:0.47999999 181:0.62886596 182:0.40186915 183:0.2658228 184:0.38571429 185:0.28235295 186:0.48192772 187:0.33333334 188:0.22535211 189:0.40476191 190:0.57446808 191:0.56862748 192:0.69230771 193:0.28301886 194:0.22222222 195:0.5 196:0.56603771 197:0.65217394 198:0.67241377 199:0.58139533 200:0.77777779 201:0.55555558 202:0.56521738 203:0.609375 204:0.69354838 205:0.5 206:0.65853661 207:0.5 208:0.80000001 209:0.84615386 210:0.85294116 211:0.62686568 212:0.42666668 213:0.54545456 214:0.64864862 215:0.56 216:0.70769233 217:0.42528737 218:0.53947371 219:0.44827586 220:0.24390244 221:0.42528737 222:0.36363637 223:0.15625 224:0.40350878 225:0.67391306 226:0.50980395 227:0.60000002 228:0.67924529 229:0.18965517 230:0.44999999 231:0.66666669 232:0.7719298 233:0.83018869 234:0.86885244 235:0.47222221 236:0.40000001 237:0.6111111 238:0.77551019 239:0.78947371 240:0.73170733 241:0.44444445 242:0.5 243:0.48076922 244:0.80952382 245:0.93421054 246:0.9710145 247:0.33333334 248:0.6025641 249:0.58904111 250:0.66153848 251:0.76623374 252:0.69117647 253:0.083333336 254:0.55000001 255:0.55000001 256:0.5 257:0.49122807 258:0.22972973 259:0.61764705 260:0.80645162 261:0.80769229 262:0.48148149 263:0.63157892 264:0.22950819 265:0.84313726 266:0.31428573 267:0.65853661 268:0.82352942 269:0.84313726 270:0.64705884 271:0.93103451 272:0.5 273:0.57575756 274:0.89361703 275:0.95652175 276:0.7638889 277:0.73333335 278:0.56818181 279:0.58064514 280:0.78378379 281:0.92307693 282:0.68000001 283:0.69767439 284:1 285:0.83673471 286:0.59649122 287:0.88333333 288:0.55223882 
0.09559579266990292 1:0.42307693 2:0.49019608 3:0.44186047 4:0.65853661 5:0.8125 6:0.30487806 7:0.64285713 8:0.60784316 9:0.57575756 10:0.59375 11:0.94444442 12:0.25263157 13:0.66666669 14:0.66071427 15:0.52777779 16:0.73333335 17:0.66666669 18:0.24271844 19:0.47435898 20:0.23728813 21:0.12903225 22:0.38636363 23:0.38297874 24:0.24299066 25:0.47674417 26:0.055555556 27:0.60000002 28:0.37931034 29:0.48780489 30:0.33333334 31:0.60759491 32:0.38709676 33:0.64999998 34:0.53658539 35:0.5090909 36:0.19565217 37:0.55696201 38:0.48314607 39:0.56097561 40:0.38202247 41:0.59036142 42:0.67532468 43:0.68292683 44:0.57407409 45:0.79069769 46:0.75471699 47:1 48:0.9649123 49:0.71111113 50:0.6511628 51:0.71428573 52:0.77999997 53:0.80392158 54:0.92727274 55:0.2888889 56:0.05882353 57:0.45454547 58:0.3508772 59:0.30158731 60:0.3283582 61:0.24590164 62:0.25490198 63:0.70454544 64:0.828125 65:0.78947371 66:0.87323946 67:0.53763443 68:0.41489363 69:0.46052632 70:0.4074074 71:0.28409091 72:0.45333335 73:1 74:0.60465115 75:0.53932583 76:0.48913044 77:0.35632184 78:0.64197528 79:0.98000002 80:0.40000001 81:0.67346936 82:0.78181821 83:0.53571427 84:0.5 85:0.60416669 86:0.75 87:0.87179488 88:0.8888889 89:0.66037738 90:0.65454543 91:0.31578946 92:0.54838711 93:0.55555558 94:0.31481481 95:0.42857143 96:0.27272728 97:0.14102565 98:0.5714286 99:0.6875 100:0.7096774 101:0.82222223 102:0.78082192 103:0.19767442 104:0.40963855 105:0.5 106:0.52222222 107:0.51546389 108:0.52380955 109:0.31481481 110:0.33333334 111:0.64864862 112:0.83333331 113:0.42857143 114:0.46511629 115:0.51923078 116:0.78787881 117:0.5 118:0.9375 119:0.48780489 120:0.63636363 121:0.3888889 122:0.81578946 123:0.42857143 124:0.59090906 125:0.35714287 126:0.61702126 127:0.14814815 128:0.3898305 129:0.24390244 130:0.47368422 131:0.29032257 132:0.047619049 133:0.065217391 134:0.21818182 135:0.32352942 136:0.47368422 137:0.42500001 138:0.375 139:0.056338027 140:0.34042552 141:0.60000002 142:0.47499999 143:0.38297874 144:0.4107143 145:0.19101124 146:0.27083334 147:0.46153846 148:0.80645162 149:0.43333334 150:0.3493976 151:0.13253012 152:0.2647059 153:0.37931034 154:0.60000002 155:0.32499999 156:0.2278481 157:0.096385539 158:0.76190478 159:0.57894737 160:0.5 161:0.5 162:0.48148149 163:0.10112359 164:0.71428573 165:0.74193549 166:0.73170733 167:0.8108108 168:0.43421054 169:0.17204301 170:0.61363637 171:0.5714286 172:0.375 173:0.44117647 174:0.11666667 175:0.23655914 176:0.33333334 177:0.4509804 178:0.46774194 179:0.35185185 180:0.44 181:0.6082474 182:0.47663552 183:0.48101267 184:0.54285717 185:0.3764706 186:0.49397591 187:0.41975307 188:0.29577464 189:0.21428572 190:0.29787233 191:0.29411766 192:0.28846154 193:0.3018868 194:0.31111112 195:0.59090906 196:0.47169811 197:0.34782609 198:0.51724136 199:0.53488374 200:0.6388889 201:0.62222224 202:0.47826087 203:0.5 204:0.56451613 205:0.27777779 206:0.63414633 207:0.5714286 208:0.56 209:0.69230771 210:0.64705884 211:0.40298507 212:0.30666667 213:0.38961038 214:0.43243244 215:0.38666666 216:0.44615385 217:0.60919541 218:0.64473683 219:0.63218391 220:0.34146342 221:0.58620691 222:0.84415585 223:0.421875 224:0.29824561 225:0.30434781 226:0.13725491 227:0.28 228:0.52830189 229:0.24137931 230:0.52499998 231:0.64583331 232:0.64912283 233:0.75471699 234:0.96721309 235:0.22222222 236:0.36666667 237:0.55555558 238:0.71428573 239:0.70175439 240:0.69512194 241:0.17777778 242:0.42647058 243:0.59615386 244:0.73015875 245:0.71052629 246:0.81159419 247:0.22727273 248:0.48717949 249:0.60273975 250:0.58461541 251:0.5714286 252:0.60294116 253:0.3125 254:0.375 255:0.44999999 256:0.56818181 257:0.78947371 258:0.28378379 259:0.29411766 260:0.16129032 261:0.5 262:0.51851851 263:0.84210527 264:0.26229507 265:0.70588237 266:0.51428574 267:0.56097561 268:0.56862748 269:0.64705884 270:0.52941179 271:0.63793105 272:0.30000001 273:0.60606062 274:0.85106385 275:0.86956519 276:0.66666669 277:0.46666667 278:0.29545453 279:0.45161289 280:0.54054052 281:0.61538464 282:0.31999999 283:0.47674417 284:0.42372882 285:0.46938777 286:0.3508772 287:0.48333332 288:0.2238806 
0.1947149955607658 1:0.46153846 2:0.78431374 3:0.60465115 4:0.80487806 5:1 6:0.35365853 7:0.64285713 8:0.54901963 9:0.60606062 10:0.5625 11:0.8611111 12:0.2 13:0.68421054 14:0.76785713 15:0.6388889 16:0.84444445 17:0.93333334 18:0.28155339 19:0.46153846 20:0.42372882 21:0.41935483 22:0.56818181 23:0.57446808 24:0.29906541 25:0.47674417 26:0.27777779 27:0.85714287 28:0.75862068 29:0.70731705 30:0.36559141 31:0.63291138 32:0.38709676 33:0.69999999 34:0.51219511 35:0.58181816 36:0.19565217 37:0.43037975 38:0.30337077 39:0.39024389 40:0.29213482 41:0.43373495 42:0.58441556 43:0.39024389 44:0.48148149 45:0.62790698 46:0.64150941 47:0.85185188 48:0.66666669 49:0.77777779 50:0.53488374 51:0.62857145 52:0.88 53:0.82352942 54:0.83636361 55:0.33333334 56:0.23529412 57:0.63636363 58:0.50877196 59:0.42857143 60:0.49253732 61:0.26229507 62:0.29411766 63:0.77272725 64:0.890625 65:0.88157892 66:0.92957747 67:0.51612902 68:0.44680852 69:0.47368422 70:0.43209878 71:0.38636363 72:0.50666666 73:0.734375 74:0.3255814 75:0.46067417 76:0.51086956 77:0.35632184 78:0.50617284 79:0.89999998 80:0.34 81:0.55102038 82:0.63636363 83:0.39285713 84:0.5 85:0.5 86:0.67500001 87:0.71794873 88:0.84444445 89:0.73584908 90:0.85454547 91:0.36842105 92:0.51612902 93:0.63492066 94:0.53703701 95:0.60000002 96:0.45454547 97:0.21794872 98:0.61904764 99:0.77083331 100:0.7903226 101:0.84444445 102:0.82191783 103:0.31395349 104:0.43373495 105:0.52380955 106:0.53333336 107:0.51546389 108:0.55952382 109:0.42592594 110:0.49019608 111:0.78378379 112:0.95238096 113:0.9285714 114:0.46511629 115:0.57692307 116:0.75757575 117:0.5 118:0.78125 119:0.41463414 120:0.5090909 121:0.2962963 122:1 123:0.59183675 124:0.65909094 125:0.5714286 126:0.65957445 127:0.19753087 128:0.62711865 129:0.48780489 130:0.71052629 131:0.61290324 132:0.23809524 133:0.097826086 134:0.43636364 135:0.67647058 136:0.86842108 137:0.69999999 138:0.57499999 139:0.18309858 140:0.4893617 141:0.69999999 142:0.64999998 143:0.46808511 144:0.51785713 145:0.39325842 146:0.54166669 147:0.61538464 148:0.83870965 149:0.60000002 150:0.31325302 151:0.21686748 152:0.61764705 153:0.55172414 154:0.69999999 155:0.44999999 156:0.24050634 157:0.12048193 158:0.90476191 159:0.84210527 160:0.79545456 161:0.85000002 162:0.53086418 163:0.15730338 164:0.79591835 165:0.93548387 166:0.80487806 167:0.8108108 168:0.40789473 169:0.19354838 170:0.72727275 171:0.5714286 172:0.5 173:0.61764705 174:0.13333334 175:0.23655914 176:0.375 177:0.4509804 178:0.5 179:0.37037036 180:0.37333333 181:0.61855668 182:0.46728972 183:0.4050633 184:0.38571429 185:0.28235295 186:0.57831323 187:0.28395063 188:0.26760563 189:0.61904764 190:0.59574467 191:0.56862748 192:0.76923078 193:0.35849056 194:0.33333334 195:0.65909094 196:0.64150941 197:0.5869565 198:0.68965518 199:0.58139533 200:0.72222221 201:0.66666669 202:0.5869565 203:0.5 204:0.53225809 205:0.33333334 206:0.63414633 207:0.54761904 208:0.66000003 209:0.74358976 210:0.66176468 211:0.17910448 212:0.16 213:0.33766234 214:0.41891891 215:0.40000001 216:0.40000001 217:0.65517241 218:0.57894737 219:0.50574714 220:0.24390244 221:0.40229884 222:0.50649351 223:0.3125 224:0.33333334 225:0.54347825 226:0.49019608 227:0.60000002 228:0.71698111 229:0.29310346 230:0.34999999 231:0.41666666 232:0.66666669 233:0.81132078 234:0.85245901 235:0.25 236:0.33333334 237:0.55555558 238:0.6122449 239:0.64912283 240:0.60975611 241:0.11111111 242:0.36764705 243:0.57692307 244:0.71428573 245:0.75 246:0.84057969 247:0.075757578 248:0.32051283 249:0.43835616 250:0.44615385 251:0.51948053 252:0.5 253:0.35416666 254:0.67500001 255:0.67500001 256:0.88636363 257:1 258:0.33783785 259:0.79411763 260:0.45161289 261:0.73076922 262:0.62962961 263:0.81578946 264:0.19672132 265:0.7647059 266:0.5714286 267:0.73170733 268:0.78431374 269:0.82352942 270:0.64705884 271:0.74137932 272:0.54000002 273:0.75757575 274:0.91489363 275:0.82608694 276:0.70833331 277:0.53333336 278:0.40909091 279:0.54838711 280:0.72972971 281:0.76923078 282:0.40000001 283:0.5 284:0.61016947 285:0.51020408 286:0.47368422 287:0.64999998 288:0.31343284 
0.1232176904144652 1:0.57692307 2:0.39215687 3:0.39534885 4:0.46341464 5:0.41666666 6:0.28048781 7:0.45238096 8:0.47058824 9:0.36363637 10:0.40625 11:0.44444445 12:0.17894737 13:0.52631581 14:0.5535714 15:0.41666666 16:0.68888891 17:0.89999998 18:0.36893204 19:0.3974359 20:0.35593221 21:0.25806451 22:0.5 23:0.5106383 24:0.28971961 25:0.40697673 26:0.48148149 27:0.85714287 28:0.79310346 29:0.82926828 30:0.39784947 31:0.70886075 32:0.40322581 33:0.69999999 34:0.65853661 35:0.70909089 36:0.34782609 37:0.34177214 38:0.16853933 39:0.20731707 40:0.19101124 41:0.26506025 42:0.35064936 43:0.19512194 44:0.33333334 45:0.55813956 46:0.47169811 47:0.5 48:0.47368422 49:0.48888889 50:0.3488372 51:0.31428573 52:0.66000003 53:0.47058824 54:0.56363636 55:0.33333334 56:0.23529412 57:0.45454547 58:0.40350878 59:0.41269842 60:0.25373134 61:0.29508197 62:0.13725491 63:0.61363637 64:0.734375 65:0.82894737 66:0.71830988 67:0.56989247 68:0.35106382 69:0.38157895 70:0.27160493 71:0.25 72:0.34666666 73:0.359375 74:0.26744187 75:0.43820226 76:0.54347825 77:0.55172414 78:0.62962961 79:0.38 80:0.2 81:0.65306121 82:0.78181821 83:0.76785713 84:0.86000001 85:0.25 86:0.42500001 87:0.64102566 88:0.80000001 89:0.81132078 90:0.81818181 91:0.23684211 92:0.16129032 93:0.53968257 94:0.57407409 95:0.62857145 96:0.4909091 97:0.07692308 98:0.53968257 99:0.79166669 100:0.95161289 101:0.91111112 102:0.87671232 103:0.12790698 104:0.45783132 105:0.59523809 106:0.69999999 107:0.72164947 108:0.80952382 109:0.2037037 110:0.35294119 111:0.5945946 112:0.59523809 113:0.78571427 114:0.56976742 115:0.40384614 116:0.69696969 117:0.39473686 118:0.5625 119:0.65853661 120:0.56363636 121:0.16666667 122:0.55263156 123:0.44897959 124:0.75 125:0.89285713 126:0.80851066 127:0.049382716 128:0.30508474 129:0.34146342 130:0.81578946 131:0.7096774 132:0.16666667 133:0.010869565 134:0.38181818 135:0.67647058 136:0.94736844 137:1 138:0.67500001 139:0.098591551 140:0.46808511 141:0.75 142:0.80000001 143:0.72340423 144:0.71428573 145:0.089887641 146:0.33333334 147:0.36538461 148:0.3548387 149:0.5 150:0.38554215 151:0.13253012 152:0.55882353 153:0.44827586 154:0.46666667 155:0.5 156:0.30379745 157:0 158:0.66666669 159:0.7368421 160:0.79545456 161:0.97500002 162:0.56790125 163:0.02247191 164:0.65306121 165:0.77419353 166:0.92682928 167:0.8918919 168:0.35526314 169:0.16129032 170:0.81818181 171:0.62857145 172:0.53125 173:0.85294116 174:0.25 175:0.11827957 176:0.34722221 177:0.49019608 178:0.58064514 179:0.9074074 180:0.72000003 181:0.45360824 182:0.46728972 183:0.36708862 184:0.47142857 185:0.48235294 186:0.61445785 187:0.19753087 188:0.28169015 189:0.61904764 190:0.82978725 191:0.86274511 192:0.96153843 193:0.20754717 194:0.24444444 195:0.70454544 196:0.81132078 197:0.9130435 198:0.89655173 199:0.37209302 200:0.5 201:0.62222224 202:0.63043481 203:0.640625 204:0.58064514 205:0.16666667 206:0.48780489 207:0.73809522 208:0.81999999 209:0.79487181 210:0.77941179 211:0.029850746 212:0.23999999 213:0.44155845 214:0.55405408 215:0.53333336 216:0.75384617 217:0.55172414 218:0.39473686 219:0.36781609 220:0.23170732 221:0.36781609 222:0.35064936 223:0.25 224:0.24561404 225:0.41304347 226:0.33333334 227:0.41999999 228:0.50943398 229:0.24137931 230:0.375 231:0.39583334 232:0.59649122 233:0.67924529 234:0.77049178 235:0.25 236:0.26666668 237:0.3888889 238:0.53061223 239:0.54385966 240:0.47560975 241:0.11111111 242:0.32352942 243:0.40384614 244:0.63492066 245:0.7368421 246:0.68115944 247:0.16666667 248:0.24358974 249:0.43835616 250:0.46153846 251:0.53246754 252:0.45588234 253:0.625 254:0.375 255:0.60000002 256:0.52272725 257:0.40350878 258:0.25675675 259:0.61764705 260:0.45161289 261:0.61538464 262:0.51851851 263:0.52631581 264:0.21311475 265:0.627451 266:0.2857143 267:0.53658539 268:0.78431374 269:0.88235295 270:0.70588237 271:0.55172414 272:0.079999998 273:0.36363637 274:0.87234044 275:0.80434781 276:0.4861111 277:0.61666667 278:0.25 279:0.54838711 280:0.78378379 281:0.74358976 282:0.28 283:0.41860464 284:0.40677965 285:0.48979592 286:0.49122807 287:0.78333336 288:0.50746268 
0.0295674081123296 1:0.30769232 2:0.39215687 3:0.41860464 4:0.41463414 5:0.41666666 6:0.21951219 7:0.5 8:0.35294119 9:0.42424244 10:0.40625 11:0.3888889 12:0.14736842 13:0.49122807 14:0.53571427 15:0.44444445 16:0.75555557 17:0.89999998 18:0.33009708 19:0.33333334 20:0.18644068 21:0.19354838 22:0.47727272 23:0.53191489 24:0.28037384 25:0.38372093 26:0.037037037 27:0.65714288 28:0.79310346 29:0.75609756 30:0.39784947 31:0.65822786 32:0.32258064 33:0.64999998 34:0.56097561 35:0.70909089 36:0.32608697 37:0.30379745 38:0.21348314 39:0.2682927 40:0.22471911 41:0.31325302 42:0.2857143 43:0.17073171 44:0.22222222 45:0.3488372 46:0.41509435 47:0.48148149 48:0.40350878 49:0.51111114 50:0.3488372 51:0.37142858 52:0.68000001 53:0.56862748 54:0.61818182 55:0.31111112 56:0.11764706 57:0.36363637 58:0.36842105 59:0.36507937 60:0.20895523 61:0.27868852 62:0.15686275 63:0.54545456 64:0.71875 65:0.78947371 66:0.76056337 67:0.52688169 68:0.31914893 69:0.31578946 70:0.30864197 71:0.28409091 72:0.41333333 73:0.5 74:0.30232558 75:0.44943821 76:0.55434781 77:0.55172414 78:0.62962961 79:0.40000001 80:0.16 81:0.46938777 82:0.58181816 83:0.58928573 84:0.68000001 85:0.22916667 86:0.5 87:0.71794873 88:0.97777778 89:0.98113209 90:0.92727274 91:0.21052632 92:0.41935483 93:0.71428573 94:0.64814812 95:0.62857145 96:0.43636364 97:0.11538462 98:0.55555558 99:0.85416669 100:1 101:0.94444442 102:0.86301368 103:0.24418604 104:0.46987951 105:0.58333331 106:0.73333335 107:0.79381442 108:0.85714287 109:0.25925925 110:0.39215687 111:0.48648649 112:0.64285713 113:0.76190478 114:0.62790698 115:0.40384614 116:0.72727275 117:0.36842105 118:0.59375 119:0.60975611 120:0.63636363 121:0.14814815 122:0.57894737 123:0.48979592 124:0.63636363 125:0.64285713 126:0.80851066 127:0.049382716 128:0.22033899 129:0.34146342 130:0.65789473 131:0.64516127 132:0.21428572 133:0 134:0.16363636 135:0.55882353 136:0.94736844 137:0.89999998 138:0.64999998 139:0.084507041 140:0.36170211 141:0.67500001 142:0.67500001 143:0.65957445 144:0.625 145:0.056179777 146:0.35416666 147:0.46153846 148:0.37096775 149:0.53333336 150:0.43373495 151:0.12048193 152:0.47058824 153:0.44827586 154:0.53333336 155:0.52499998 156:0.2658228 157:0.012048192 158:0.61904764 159:0.68421054 160:0.84090906 161:0.97500002 162:0.56790125 163:0.033707865 164:0.65306121 165:0.83870965 166:0.92682928 167:0.86486489 168:0.36842105 169:0.16129032 170:0.61363637 171:0.60000002 172:0.625 173:0.70588237 174:0.23333333 175:0.11827957 176:0.30555555 177:0.4509804 178:0.61290324 179:0.81481481 180:0.73333335 181:0.42268041 182:0.44859812 183:0.32911393 184:0.51428574 185:0.50588238 186:0.60240966 187:0.20987654 188:0.30985916 189:0.5714286 190:0.85106385 191:0.88235295 192:1 193:0.18867925 194:0.31111112 195:0.63636363 196:0.75471699 197:0.89130437 198:0.91379309 199:0.3488372 200:0.6388889 201:0.75555557 202:0.65217394 203:0.546875 204:0.43548387 205:0.24074075 206:0.53658539 207:0.69047618 208:0.81999999 209:0.87179488 210:0.82352942 211:0.11940298 212:0.25333333 213:0.38961038 214:0.54054052 215:0.63999999 216:0.86153847 217:0.58620691 218:0.38157895 219:0.37931034 220:0.14634146 221:0.31034482 222:0.2857143 223:0.265625 224:0.21052632 225:0.39130434 226:0.3137255 227:0.38 228:0.35849056 229:0.13793103 230:0.15000001 231:0.29166666 232:0.56140351 233:0.71698111 234:0.73770493 235:0.25 236:0.26666668 237:0.41666666 238:0.55102038 239:0.50877196 240:0.40243903 241:0.11111111 242:0.35294119 243:0.51923078 244:0.71428573 245:0.7368421 246:0.71014494 247:0.22727273 248:0.25641027 249:0.46575344 250:0.49230769 251:0.5714286 252:0.5147059 253:0.1875 254:0.375 255:0.55000001 256:0.52272725 257:0.33333334 258:0.14864865 259:0.52941179 260:0.48387095 261:0.61538464 262:0.4074074 263:0.39473686 264:0.16393442 265:0.68627453 266:0.31428573 267:0.56097561 268:0.72549021 269:0.74509805 270:0.64705884 271:0.65517241 272:0.30000001 273:0.5151515 274:0.82978725 275:0.73913044 276:0.54166669 277:0.63333333 278:0.34090909 279:0.54838711 280:0.72972971 281:0.79487181 282:0.40000001 283:0.47674417 284:0.40677965 285:0.48979592 286:0.52631581 287:0.78333336 288:0.53731346 
