svm_type c_svc
kernel_type rbf
gamma 0.09
nr_class 3
total_sv 130
rho 0.302309 0.0917261 -0.245122
label 20131 20132 20133
nr_sv 22 67 41
SV
1.001859463825382 0 1:0.75714284 2:0.7027027 3:0.79452056 4:0.80000001 5:0.67741936 6:0.7764706 7:0.58620691 8:0.6964286 9:0.80000001 10:0.77464789 11:0.60000002 12:0.88043481 13:0.38709676 14:0.32631579 15:0.3253012 16:0.75308645 17:0.68000001 18:0.79166669 19:0.41489363 20:0.56790125 21:0.56410259 22:0.22222222 23:0.37681159 24:0.68867922 25:0.33333334 26:0.44 27:0.37037036 28:0.26530612 29:0.22413793 30:0.69662923 31:0.28985506 32:0.50819671 33:0.46000001 34:0.21666667 35:0.125 36:0.83333331 37:0.66153848 38:0.7027027 39:0.7638889 40:0.7096774 41:0.83928573 42:0.56164384 43:0.71014494 44:0.77272725 45:0.83333331 46:0.78947371 47:0.55102038 48:0.37662336 49:0.69736844 50:0.82051283 51:0.80263156 52:0.79487181 53:0.64705884 54:0.42622951 55:0.8125 56:0.84722221 57:0.82857144 58:0.65151513 59:0.41999999 60:0.50793654 61:0.75531918 62:0.76249999 63:0.66666669 64:0.40000001 65:0.3108108 66:0.42647058 67:0.60000002 68:0.48453608 69:0.46052632 70:0.24324325 71:0.22105263 72:0.43434343 73:0.51351351 74:0.6081081 75:0.67123288 76:0.72602737 77:0.73770493 78:0.5 79:0.66216218 80:0.77777779 81:0.85454547 82:0.85000002 83:0.64285713 84:0.49367088 85:0.75280899 86:0.5 87:0.65517241 88:0.70666665 89:0.74242425 90:0.56 91:0.7912088 92:0.79220778 93:0.83018869 94:0.55000001 95:0.41935483 96:0.42857143 97:0.82352942 98:0.74358976 99:0.66666669 100:0.38805971 101:0.34831461 102:0.5714286 103:0.78095239 104:0.76999998 105:0.59722221 106:0.38356164 107:0.26136363 108:0.48750001 109:0.82352942 110:0.76712328 111:0.77941179 112:0.77777779 113:0.82608694 114:0.71929824 115:0.75438595 116:0.73469388 117:0.76363635 118:0.84722221 119:0.70212764 120:0.51898736 121:0.779661 122:0.10465116 123:0.26666668 124:0.76363635 125:0.68000001 126:0.74226803 127:0.75 128:0.35294119 129:0.49295774 130:0.36764705 131:0.3943662 132:0.35164836 133:0.68965518 134:0.35593221 135:0.37777779 136:0.36363637 137:0.30000001 138:0.51136363 139:0.62857145 140:0.25 141:0.43548387 142:0.33333334 143:0.20779221 144:0.33823529 145:0.8607595 146:0.69512194 147:0.69620252 148:0.66176468 149:0.73913044 150:0.4909091 151:0.77499998 152:0.77049178 153:0.80000001 154:0.82352942 155:0.54000002 156:0.28048781 157:0.68478262 158:0.16666667 159:0.22619048 160:0.83018869 161:0.65277779 162:0.53333336 163:0.66279072 164:0.34375 165:0.41791046 166:0.46666667 167:0.69512194 168:0.77419353 169:0.68000001 170:0.29787233 171:0.44680852 172:0.3548387 173:0.36923078 174:0.42666668 175:0.76712328 176:0.34482759 177:0.46774194 178:0.34545454 179:0.23333333 180:0.27692309 181:0.66216218 182:0.92647058 183:0.87878788 184:0.86956519 185:0.94117647 186:0.68604654 187:0.64516127 188:0.83823532 189:0.78181821 190:0.90769231 191:0.65151513 192:0.52439022 193:0.77011496 194:0.61428571 195:0.71929824 196:0.73170733 197:0.57894737 198:0.41095892 199:0.93181819 200:0.81159419 201:0.83823532 202:0.60000002 203:0.46031746 204:0.45070422 205:0.85714287 206:0.78260869 207:0.70212764 208:0.47297296 209:0.40909091 210:0.50602412 211:0.84523809 212:0.56578946 213:0.5 214:0.56140351 215:0.67567569 216:0.67605633 217:0.90769231 218:0.67164177 219:0.79310346 220:0.75 221:0.6964286 222:0.7361111 223:0.63157892 224:0.80000001 225:0.84313726 226:0.72881359 227:0.48888889 228:0.52054793 229:0.69047618 230:0.65753424 231:0.74390244 232:0.68421054 233:0.45652175 234:0.41935483 235:0.78723407 236:0.85333335 237:0.70329672 238:0.6081081 239:0.47272727 240:0.48333332 241:0.71428573 242:0.79569894 243:0.72222221 244:0.52439022 245:0.30120483 246:0.36363637 247:0.65853661 248:0.60975611 249:0.50769234 250:0.43243244 251:0.46987951 252:0.71830988 253:0.69047618 254:0.77777779 255:0.75 256:0.6769231 257:0.74137932 258:0.703125 259:0.66101694 260:0.83333331 261:0.86792451 262:0.82456142 263:0.33333334 264:0.62666667 265:0.36923078 266:0.12371134 267:0.22368421 268:0.77777779 269:0.6226415 270:0.77011496 271:0.44578314 272:0.51249999 273:0.46753246 274:0.36842105 275:0.50684929 276:0.80821919 277:0.4375 278:0.59090906 279:0.51923078 280:0.38 281:0.46478873 282:0.67816091 283:0.37096775 284:0.45454547 285:0.56363636 286:0.30612245 287:0.17460318 288:0.55555558 
0.3582336715358188 0.5152536942422561 1:0.87142855 2:0.91891891 3:0.82191783 4:0.9375 5:0.74193549 6:0.89411765 7:0.70689654 8:0.66071427 9:0.75 10:0.8309859 11:0.62222224 12:0.86956519 13:0.64516127 14:0.40000001 15:0.25301206 16:0.71604937 17:0.77333331 18:0.73958331 19:0.59574467 20:0.5925926 21:0.61538464 22:0.2037037 23:0.28985506 24:0.7264151 25:0.38666666 26:0.63999999 27:0.55555558 28:0.081632651 29:0.31034482 30:0.85393256 31:0.31884059 32:0.52459013 33:0.34 34:0.06666667 35:0.2361111 36:0.81111109 37:0.69230771 38:0.82432431 39:0.79166669 40:0.85483873 41:0.89285713 42:0.47945204 43:0.884058 44:0.69696969 45:0.63333333 46:0.7631579 47:0.65306121 48:0.45454547 49:0.94736844 50:0.80769229 51:0.64473683 52:0.71794873 53:0.55882353 54:0.42622951 55:0.88541669 56:0.79166669 57:0.84285712 58:0.60606062 59:0.40000001 60:0.42857143 61:0.80851066 62:0.67500001 63:0.51851851 64:0.42857143 65:0.33783785 66:0.5 67:0.81904763 68:0.69072163 69:0.60526317 70:0.56756759 71:0.68421054 72:0.82828283 73:0.63513511 74:0.8108108 75:0.95890409 76:0.94520545 77:0.85245901 78:0.5945946 79:0.85135138 80:0.77777779 81:0.74545455 82:0.76249999 83:0.66071427 84:0.55696201 85:0.98876405 86:0.65151513 87:0.56896549 88:0.60000002 89:0.69696969 90:0.57333332 91:0.92307693 92:0.83116883 93:0.86792451 94:0.625 95:0.46774194 96:0.47619048 97:0.83529413 98:0.73076922 99:0.66666669 100:0.43283582 101:0.33707866 102:0.51428574 103:0.7904762 104:0.70999998 105:0.80555558 106:0.91780823 107:0.78409094 108:0.77499998 109:0.77941179 110:0.87671232 111:0.82352942 112:0.83950615 113:0.884058 114:0.7368421 115:0.61403507 116:0.55102038 117:0.61818182 118:0.83333331 119:0.5106383 120:0.54430377 121:0.69491524 122:0.3255814 123:0.27777779 124:0.4909091 125:0.58666664 126:0.7525773 127:0.66666669 128:0.45588234 129:0.53521127 130:0.17647059 131:0.46478873 132:0.41758242 133:0.27586207 134:0.52542371 135:0.51111114 136:0.10909091 137:0.40000001 138:0.60227275 139:0.18571429 140:0.35714287 141:0.40322581 142:0.21428572 143:0.29870129 144:0.27941176 145:0.48101267 146:0.91463417 147:0.79746836 148:0.92647058 149:0.95652175 150:0.72727275 151:0.30000001 152:0.59016395 153:0.5272727 154:0.91176468 155:0.40000001 156:0.24390244 157:0.31521741 158:0.36363637 159:0.2857143 160:0.56603771 161:0.6388889 162:0.58888888 163:0.27906978 164:0.40625 165:0.50746268 166:0.29333332 167:0.76829267 168:0.74193549 169:0.18666667 170:0.38297874 171:0.44680852 172:0.16129032 173:0.53846157 174:0.73333335 175:0.23287672 176:0.41379312 177:0.5 178:0.36363637 179:0.2888889 180:0.43076923 181:0.37837839 182:0.57352942 183:0.72727275 184:0.71014494 185:0.58823532 186:0.38372093 187:0.83870965 188:0.80882353 189:0.63636363 190:0.6769231 191:0.25757575 192:0.42682928 193:0.87356323 194:0.60000002 195:0.50877196 196:0.5487805 197:0.56140351 198:0.4520548 199:0.96590906 200:0.79710144 201:0.75 202:0.58823532 203:0.58730161 204:0.50704223 205:0.83516484 206:0.81159419 207:0.78723407 208:0.56756759 209:0.55681819 210:0.56626505 211:0.6785714 212:0.43421054 213:0.35416666 214:0.52631581 215:0.56756759 216:0.49295774 217:0.64615387 218:0.71641791 219:0.67241377 220:0.69999999 221:0.60714287 222:0.29166666 223:0.89473683 224:0.70909089 225:0.627451 226:0.66101694 227:0.088888891 228:0.38356164 229:0.91666669 230:0.60273975 231:0.56097561 232:0.63157892 233:0.43478259 234:0.38709676 235:0.96808511 236:0.80000001 237:0.6813187 238:0.62162161 239:0.54545456 240:0.5 241:0.91836733 242:0.80645162 243:0.74074072 244:0.58536583 245:0.48192772 246:0.57954544 247:0.62195122 248:0.57317072 249:0.38461539 250:0.32432431 251:0.39759037 252:0.6056338 253:0.90476191 254:0.8888889 255:0.96052629 256:0.84615386 257:1 258:0.625 259:0.67796612 260:0.41666666 261:0.52830189 262:0.89473683 263:0.26190478 264:0.66666669 265:0.6769231 266:0.29896906 267:0.21052632 268:0.72222221 269:0.56603771 270:0.75862068 271:0.68674701 272:0.52499998 273:0.48051947 274:0.42105263 275:0.68493152 276:0.80821919 277:0.515625 278:0.66666669 279:0.38461539 280:0.2 281:0.59154928 282:0.79310346 283:0.46774194 284:0.5151515 285:0.60000002 286:0.06122449 287:0.20634921 288:0.60000002 
0.535341778923962 0.5946539573145072 1:0.9285714 2:0.94594592 3:0.87671232 4:0.92500001 5:0.74193549 6:0.87058824 7:0.62068963 8:0.75 9:0.85000002 10:0.8309859 11:0.51111114 12:0.89130437 13:0.44086021 14:0.28421053 15:0.24096386 16:0.71604937 17:0.73333335 18:0.82291669 19:0.52127659 20:0.44444445 21:0.43589744 22:0.33333334 23:0.34782609 24:0.68867922 25:0.56 26:0.54000002 27:0.44444445 28:0.36734694 29:0.13793103 30:0.68539327 31:0.46376812 32:0.50819671 33:0.51999998 34:0.71666664 35:0.33333334 36:0.78888887 37:0.72307694 38:0.7972973 39:0.79166669 40:0.83870965 41:1 42:0.56164384 43:0.89855075 44:0.77272725 45:0.78333336 46:0.90789473 47:0.63265306 48:0.41558442 49:0.88157892 50:0.69230771 51:0.7368421 52:0.8974359 53:0.75 54:0.40983605 55:0.91666669 56:0.79166669 57:0.8142857 58:0.71212119 59:0.30000001 60:0.50793654 61:0.88297874 62:0.86250001 63:0.62962961 64:0.52857143 65:0.5 66:0.5147059 67:0.76190478 68:0.67010307 69:0.84210527 70:0.74324322 71:0.7263158 72:0.84848487 73:0.75675678 74:0.6891892 75:0.78082192 76:0.82191783 77:0.81967211 78:0.52702701 79:0.78378379 80:0.79365081 81:0.81818181 82:0.82499999 83:0.625 84:0.41772151 85:0.75280899 86:0.43939394 87:0.43103448 88:0.53333336 89:0.69696969 90:0.47999999 91:0.87912089 92:0.6883117 93:0.6226415 94:0.60000002 95:0.43548387 96:0.33333334 97:0.89411765 98:0.70512819 99:0.54761904 100:0.28358209 101:0.50561798 102:0.85714287 103:0.6761905 104:0.57999998 105:0.43055555 106:0.68493152 107:0.76136363 108:0.80000001 109:0.83823532 110:0.93150687 111:0.91176468 112:0.86419755 113:0.9130435 114:0.80701756 115:0.59649122 116:0.65306121 117:0.80000001 118:0.8888889 119:0.68085104 120:0.5316456 121:0.37288135 122:0.10465116 123:0.2 124:0.65454543 125:0.83999997 126:0.7525773 127:0.35416666 128:0.2647059 129:0.32394367 130:0.29411766 131:0.57746476 132:0.46153846 133:0.34482759 134:0.45762712 135:0.46666667 136:0.21818182 137:0.27777779 138:0.46590909 139:0.27142859 140:0.35714287 141:0.46774194 142:0.52380955 143:0.37662336 144:0.52941179 145:0.51898736 146:0.89024389 147:0.82278478 148:0.82352942 149:0.884058 150:0.70909089 151:0.3125 152:0.67213112 153:0.56363636 154:0.86764705 155:0.51999998 156:0.34146342 157:0.34782609 158:0.25757575 159:0.22619048 160:0.88679248 161:0.7638889 162:0.6111111 163:0.23255815 164:0.4375 165:0.35820895 166:0.29333332 167:0.80487806 168:0.77419353 169:0.26666668 170:0.44680852 171:0.46808511 172:0.25806451 173:0.38461539 174:0.49333334 175:0.369863 176:0.5 177:0.51612902 178:0.47272727 179:0.26666668 180:0.43076923 181:0.33783785 182:0.52941179 183:0.68181819 184:0.72463769 185:0.66176468 186:0.40697673 187:0.77419353 188:0.92647058 189:0.81818181 190:0.7846154 191:0.54545456 192:0.46341464 193:0.74712646 194:0.41428572 195:0.49122807 196:0.65853661 197:0.61403507 198:0.4520548 199:0.94318181 200:0.72463769 201:0.64705884 202:0.56470591 203:0.58730161 204:0.45070422 205:0.92307693 206:0.92753625 207:0.89361703 208:0.5 209:0.36363637 210:0.38554215 211:0.78571427 212:0.60526317 213:0.58333331 214:0.59649122 215:0.9054054 216:0.84507042 217:0.58461541 218:0.53731346 219:0.51724136 220:0.64999998 221:0.5535714 222:0.27777779 223:0.82456142 224:0.78181821 225:0.68627453 226:0.72881359 227:0.37777779 228:0.53424656 229:0.89285713 230:0.42465752 231:0.597561 232:0.67105263 233:0.36956522 234:0.37096775 235:0.90425533 236:0.69333333 237:0.5714286 238:0.63513511 239:0.38181818 240:0.48333332 241:0.87755102 242:0.82795697 243:0.66666669 244:0.56097561 245:0.16867469 246:0.34090909 247:0.68292683 248:0.60975611 249:0.49230769 250:0.43243244 251:0.44578314 252:0.5633803 253:0.88095236 254:0.91358024 255:0.88157892 256:0.87692308 257:0.89655173 258:0.796875 259:0.83050847 260:0.66666669 261:0.6226415 262:0.84210527 263:0.30952382 264:0.70666665 265:0.61538464 266:0.19587629 267:0.22368421 268:0.83333331 269:0.5471698 270:0.85057473 271:0.59036142 272:0.46250001 273:0.4025974 274:0.36842105 275:0.53424656 276:0.95890409 277:0.609375 278:0.66666669 279:0.51923078 280:0.38 281:0.25352111 282:0.7241379 283:0.51612902 284:0.59090906 285:0.60000002 286:0.65306121 287:0.11111111 288:0.52222222 
0 0.1681382451748732 1:0.98571426 2:0.87837839 3:0.94520545 4:0.89999998 5:0.87096775 6:0.83529413 7:0.65517241 8:0.66071427 9:0.71666664 10:0.81690139 11:0.73333335 12:0.85869563 13:0.41935483 14:0.34736842 15:0.16867469 16:0.7037037 17:1 18:0.76041669 19:0.53191489 20:0.56790125 21:0.3974359 22:0.18518518 23:0.50724638 24:0.73584908 25:0.38666666 26:0.47999999 27:0.42592594 28:0.44897959 29:0.5 30:0.73033708 31:0.39130434 32:0.63934427 33:0.60000002 34:0.81666666 35:0.52777779 36:0.94444442 37:0.72307694 38:0.9054054 39:1 40:1 41:0.875 42:0.52054793 43:0.84057969 44:0.74242425 45:0.75 46:0.84210527 47:0.87755102 48:0.51948053 49:0.90789473 50:0.84615386 51:0.68421054 52:0.82051283 53:0.67647058 54:0.47540984 55:0.9375 56:0.91666669 57:0.80000001 58:0.74242425 59:0.30000001 60:0.53968257 61:0.80851066 62:0.69999999 63:0.51851851 64:0.52857143 65:0.4054054 66:0.45588234 67:0.72380954 68:0.63917524 69:0.60526317 70:0.6081081 71:0.37894738 72:0.44444445 73:0.6081081 74:0.77027029 75:0.89041096 76:0.95890409 77:0.85245901 78:0.54054052 79:0.83783782 80:0.76190478 81:0.74545455 82:0.72500002 83:0.85714287 84:0.58227849 85:0.88764048 86:0.56060606 87:0.51724136 88:0.58666664 89:0.66666669 90:0.57333332 91:0.96703297 92:0.81818181 93:0.7735849 94:0.60000002 95:0.48387095 96:0.52380955 97:0.78823531 98:0.65384614 99:0.59523809 100:0.29850745 101:0.43820226 102:0.67142856 103:0.78095239 104:0.61000001 105:0.59722221 106:0.57534248 107:0.54545456 108:0.55000001 109:0.91176468 110:0.89041096 111:0.86764705 112:0.82716048 113:0.85507244 114:0.66666669 115:0.59649122 116:0.48979592 117:0.69090909 118:0.84722221 119:0.53191489 120:0.59493673 121:0.47457626 122:0.22093023 123:0.18888889 124:0.47272727 125:0.75999999 126:0.89690721 127:0.3125 128:0.47058824 129:0.30985916 130:0.13235295 131:0.64788735 132:0.51648355 133:0.18965517 134:0.35593221 135:0.35555556 136:0.14545454 137:0.40000001 138:0.61363637 139:0.2 140:0.42857143 141:0.5 142:0.45238096 143:0.46753246 144:0.63235295 145:0.50632912 146:0.98780489 147:0.93670887 148:0.95588237 149:0.942029 150:0.58181816 151:0.33750001 152:0.59016395 153:0.5090909 154:0.89705884 155:0.44 156:0.15853658 157:0.28260869 158:0.30303031 159:0.25 160:0.60377359 161:0.7361111 162:0.52222222 163:0.29069766 164:0.703125 165:0.43283582 166:0.30666667 167:0.78048778 168:0.64516127 169:0.31999999 170:0.65957445 171:0.65957445 172:0.30645162 173:0.38461539 174:0.46666667 175:0.28767124 176:0.44827586 177:0.51612902 178:0.40000001 179:0.34444445 180:0.63076925 181:0.44594595 182:0.61764705 183:0.83333331 184:0.75362319 185:0.67647058 186:0.41860464 187:0.80645162 188:0.7647059 189:0.69090909 190:0.73846155 191:0.46969697 192:0.48780489 193:0.83908045 194:0.47142857 195:0.56140351 196:0.62195122 197:0.75438595 198:0.53424656 199:0.96590906 200:0.72463769 201:0.55882353 202:0.5529412 203:0.63492066 204:0.63380283 205:0.87912089 206:0.76811594 207:0.68085104 208:0.45945945 209:0.39772728 210:0.44578314 211:0.71428573 212:0.52631581 213:0.5625 214:0.56140351 215:0.8108108 216:0.8309859 217:0.47692308 218:0.71641791 219:0.70689654 220:0.71666664 221:0.51785713 222:0.22222222 223:0.80701756 224:0.78181821 225:0.60784316 226:0.69491524 227:0.35555556 228:0.47945204 229:0.85714287 230:0.5479452 231:0.60975611 232:0.69736844 233:0.52173913 234:0.53225809 235:0.90425533 236:0.86666667 237:0.59340662 238:0.63513511 239:0.5090909 240:0.51666665 241:0.8877551 242:0.82795697 243:0.81481481 244:0.597561 245:0.16867469 246:0.25 247:0.65853661 248:0.597561 249:0.44615385 250:0.47297296 251:0.57831323 252:0.69014084 253:0.96428573 254:1 255:1 256:0.90769231 257:1 258:0.71875 259:0.79661018 260:0.52083331 261:0.58490568 262:0.7719298 263:0.19047619 264:0.69333333 265:0.55384618 266:0.25773194 267:0.18421052 268:0.37037036 269:0.35849056 270:0.86206895 271:0.57831323 272:0.66250002 273:0.45454547 274:0.28070176 275:0.6438356 276:0.76712328 277:0.59375 278:0.83333331 279:0.61538464 280:0.30000001 281:0.36619717 282:0.7011494 283:0.5 284:0.5151515 285:0.65454543 286:0.6122449 287:0.047619049 288:0.48888889 
2.326699910654424 0.4886147710435012 1:0.47142857 2:0.63513511 3:0.65753424 4:0.71249998 5:0.67741936 6:0.47058824 7:0.24137931 8:0.66071427 9:0.78333336 10:0.76056337 11:0.5777778 12:0.45652175 13:0.20430107 14:0.15789473 15:0.14457831 16:0.61728394 17:0.73333335 18:0.39583334 19:0.22340426 20:0.38271606 21:0.26923078 22:0.37037036 23:0.60869563 24:0.4528302 25:0.13333334 26:0.31999999 27:0.5925926 28:0.48979592 29:0.31034482 30:0.48314607 31:0.36231884 32:0.47540984 33:0.66000003 34:0.83333331 35:0.5138889 36:0.44444445 37:0.32307693 38:0.5 39:0.54166669 40:0.80645162 41:0.91071427 42:0.5479452 43:0.31884059 44:0.36363637 45:0.44999999 46:0.7368421 47:0.53061223 48:0.36363637 49:0.27631578 50:0.20512821 51:0.17105263 52:0.64102566 53:0.69117647 54:0.55737704 55:0.51041669 56:0.40277779 57:0.24285714 58:0.46969697 59:0.36000001 60:0.52380955 61:0.56382978 62:0.53750002 63:0.4074074 64:0.61428571 65:0.5 66:0.5147059 67:0.40000001 68:0.24742268 69:0.25 70:0.37837839 71:0.23157895 72:0.22222222 73:0.64864862 74:0.83783782 75:0.71232879 76:0.65753424 77:0.55737704 78:0.5 79:0.41891891 80:0.58730161 81:0.72727275 82:0.67500001 83:0.35714287 84:0.36708862 85:0.57303369 86:0.33333334 87:0.086206898 88:0.26666668 89:0.36363637 90:0.54666668 91:0.75824177 92:0.6883117 93:0.16981132 94:0.1 95:0.3548387 96:0.36507937 97:0.61176473 98:0.67948717 99:0.71428573 100:0.1641791 101:0.32584271 102:0.42857143 103:0.38095239 104:0.38 105:0.29166666 106:0.05479452 107:0 108:0.25 109:0.70588237 110:0.75342464 111:0.72058821 112:0.64197528 113:0.63768119 114:0.57894737 115:0.54385966 116:0.75510204 117:0.76363635 118:0.72222221 119:0.59574467 120:0.34177214 121:0.62711865 122:0.1627907 123:0.13333334 124:0.32727271 125:0.37333333 126:0.59793812 127:0.45833334 128:0.36764705 129:0.23943663 130:0.16176471 131:0.3943662 132:0.5714286 133:0.31034482 134:0.44067797 135:0.62222224 136:0.30909091 137:0.22222222 138:0.45454547 139:0.35714287 140:0.51785713 141:0.62903225 142:0.2857143 143:0.16883117 144:0.57352942 145:0.43037975 146:0.53658539 147:0.68354428 148:0.66176468 149:0.52173913 150:0.30909091 151:0.4375 152:0.72131145 153:0.92727274 154:0.83823532 155:0.62 156:0.20731707 157:0.51086956 158:0.31818181 159:0.30952382 160:0.71698111 161:0.2638889 162:0.17777778 163:0.39534885 164:0.3125 165:0.34328359 166:0.21333334 167:0.53658539 168:0.49462366 169:0.29333332 170:0.40425533 171:0.5106383 172:0.30645162 173:0.24615385 174:0.40000001 175:0.52054793 176:0.63793105 177:0.56451613 178:0.47272727 179:0.40000001 180:0.32307693 181:0.16216215 182:0.11764706 183:0.39393941 184:0.31884059 185:0.30882353 186:0.44186047 187:0.45161289 188:0.79411763 189:0.72727275 190:0.64615387 191:0.31818181 192:0.34146342 193:0.62068963 194:0.60000002 195:0.40350878 196:0.40243903 197:0.31578946 198:0.30136988 199:0.72727275 200:0.62318838 201:0.30882353 202:0.2 203:0.46031746 204:0.42253521 205:0.70329672 206:0.68115944 207:0.5106383 208:0.25675675 209:0.18181819 210:0.20481928 211:0.55952382 212:0.47368422 213:0.29166666 214:0.15789473 215:0.36486486 216:0.47887325 217:0.046153847 218:0.25373134 219:0.25862068 220:0.25 221:0.2857143 222:0.52777779 223:0.3508772 224:0.4909091 225:0.58823532 226:0.84745765 227:0.66666669 228:0.53424656 229:0.45238096 230:0.1780822 231:0.35365853 232:0.63157892 233:0.56521738 234:0.59677422 235:0.41489363 236:0.37333333 237:0.23076923 238:0.41891891 239:0.41818181 240:0.56666666 241:0.42857143 242:0.41935483 243:0.2962963 244:0.51219511 245:0.12048193 246:0.28409091 247:0.2682927 248:0.18292683 249:0.092307694 250:0.21621622 251:0.3493976 252:0.42253521 253:0.4642857 254:0.66666669 255:0.78947371 256:0.70769233 257:0.67241377 258:0.53125 259:0.33898306 260:0.66666669 261:0.98113209 262:0.9649123 263:0.80952382 264:0.54666668 265:0.26153848 266:0.10309278 267:0.21052632 268:0.68518519 269:0.33962265 270:0.57471263 271:0.21686748 272:0.33750001 273:0.24675325 274:0.31578946 275:0.56164384 276:0.71232879 277:0.078125 278:0.40909091 279:0.40384614 280:0.47999999 281:0.5633803 282:0.44827586 283:0.32258064 284:0.43939394 285:0.5272727 286:0.53061223 287:0.2857143 288:0.43333334 
0.2564791541354414 0.03496848648356412 1:0.82857144 2:0.75675678 3:0.72602737 4:0.76249999 5:0.59677422 6:0.63529414 7:0.63793105 8:0.85714287 9:0.88333333 10:0.91549295 11:0.60000002 12:0.81521738 13:0.39784947 14:0.18947369 15:0.12048193 16:0.7037037 17:0.53333336 18:0.69791669 19:0.44680852 20:0.41975307 21:0.089743592 22:0.2037037 23:0.24637681 24:0.71698111 25:0.38666666 26:0.54000002 27:0.4074074 28:0.34693879 29:0.12068965 30:0.77528089 31:0.40579709 32:0.63934427 33:0.46000001 34:0.63333333 35:0.29166666 36:0.76666665 37:0.70769233 38:0.7027027 39:0.70833331 40:0.74193549 41:0.78571427 42:0.52054793 43:0.75362319 44:0.71212119 45:0.69999999 46:0.80263156 47:0.67346936 48:0.42857143 49:0.77631581 50:0.65384614 51:0.64473683 52:0.87179488 53:0.67647058 54:0.50819671 55:0.86458331 56:0.69444442 57:0.62857145 58:0.72727275 59:0.47999999 60:0.55555558 61:0.81914896 62:0.76249999 63:0.57407409 64:0.69999999 65:0.75675678 66:0.57352942 67:0.62857145 68:0.53608245 69:0.44736841 70:0.47297296 71:0.35789475 72:0.39393941 73:0.63513511 74:0.67567569 75:0.75342464 76:0.76712328 77:0.80327868 78:0.54054052 79:0.8108108 80:0.80952382 81:0.92727274 82:0.88749999 83:0.78571427 84:0.48101267 85:0.80898875 86:0.46969697 87:0.55172414 88:0.68000001 89:0.72727275 90:0.49333334 91:0.86813188 92:0.72727275 93:0.56603771 94:0.58749998 95:0.51612902 96:0.49206349 97:0.83529413 98:0.70512819 99:0.64285713 100:0.47761193 101:0.64044946 102:0.94285715 103:0.61904764 104:0.49000001 105:0.45833334 106:0.43835616 107:0.375 108:0.53750002 109:0.7647059 110:0.71232879 111:0.66176468 112:0.67901236 113:0.68115944 114:0.64912283 115:0.52631581 116:0.75510204 117:0.80000001 118:0.90277779 119:0.76595747 120:0.46835443 121:0.37288135 122:0.058139537 123:0.12222222 124:0.70909089 125:0.53333336 126:0.59793812 127:0.29166666 128:0.36764705 129:0.04225352 130:0.25 131:0.3943662 132:0.31868133 133:0.24137931 134:0.45762712 135:0.44444445 136:0.38181818 137:0.32222223 138:0.32954547 139:0.17142858 140:0.39285713 141:0.54838711 142:0.26190478 143:0.23376623 144:0.44117647 145:0.34177214 146:0.80487806 147:0.77215189 148:0.72058821 149:0.73913044 150:0.63636363 151:0.27500001 152:0.81967211 153:0.87272727 154:0.95588237 155:0.75999999 156:0.34146342 157:0.33695653 158:0.1969697 159:0.16666667 160:0.88679248 161:0.65277779 162:0.40000001 163:0.29069766 164:0.4375 165:0.044776119 166:0.46666667 167:0.69512194 168:0.45161289 169:0.21333334 170:0.63829786 171:0.5106383 172:0.40322581 173:0.23076923 174:0.25333333 175:0.28767124 176:0.53448278 177:0.58064514 178:0.36363637 179:0.11111111 180:0.52307695 181:0.77027029 182:0.72058821 183:0.66666669 184:0.79710144 185:0.7647059 186:0.69767439 187:0.72580647 188:0.86764705 189:0.85454547 190:0.93846154 191:0.66666669 192:0.46341464 193:0.83908045 194:0.62857145 195:0.71929824 196:0.81707317 197:0.84210527 198:0.5479452 199:0.84090906 200:0.60869563 201:0.5147059 202:0.64705884 203:0.69841272 204:0.46478873 205:0.86813188 206:0.76811594 207:0.61702126 208:0.58108109 209:0.31818181 210:0.33734939 211:0.76190478 212:0.57894737 213:0.5 214:0.70175439 215:0.77027029 216:0.73239434 217:0.95384616 218:0.85074627 219:0.89655173 220:0.80000001 221:0.89285713 222:0.70833331 223:0.71929824 224:0.87272727 225:0.78431374 226:0.79661018 227:0.55555558 228:0.50684929 229:0.84523809 230:0.61643833 231:0.74390244 232:0.75 233:0.82608694 234:0.66129035 235:0.82978725 236:0.63999999 237:0.56043959 238:0.6891892 239:0.60000002 240:0.58333331 241:0.84693879 242:0.74193549 243:0.62962961 244:0.64634144 245:0.24096386 246:0.35227272 247:0.62195122 248:0.58536583 249:0.50769234 250:0.48648649 251:0.51807231 252:0.64788735 253:0.71428573 254:0.79012346 255:0.82894737 256:0.70769233 257:0.7758621 258:0.875 259:0.79661018 260:0.85416669 261:0.96226418 262:0.94736844 263:0.61904764 264:0.72000003 265:0.50769234 266:0.15463917 267:0.15789473 268:0.83333331 269:0.43396226 270:0.85057473 271:0.60240966 272:0.46250001 273:0.090909094 274:0.24561404 275:0.369863 276:0.79452056 277:0.53125 278:0.74242425 279:0.53846157 280:0.34 281:0.12676056 282:0.60919541 283:0.43548387 284:0.62121212 285:0.72727275 286:0.67346936 287:0.11111111 288:0.52222222 
1.077260414662124 0.3698111913741953 1:0.82857144 2:0.8108108 3:0.67123288 4:0.72500002 5:0.66129035 6:0.78823531 7:0.70689654 8:0.9285714 9:0.89999998 10:0.85915494 11:0.60000002 12:0.92391306 13:0.49462366 14:0.25263157 15:0.084337346 16:0.71604937 17:0.70666665 18:0.70833331 19:0.54255319 20:0.48148149 21:0.16666667 22:0.5925926 23:0.50724638 24:0.82075471 25:0.51999998 26:0.62 27:0.44444445 28:0.46938777 29:0.39655173 30:0.95505619 31:0.46376812 32:0.47540984 33:0.40000001 34:0.25 35:0.20833333 36:0.81111109 37:0.69230771 38:0.78378379 39:0.79166669 40:0.77419353 41:0.83928573 42:0.50684929 43:0.84057969 44:0.77272725 45:0.76666665 46:0.82894737 47:0.63265306 48:0.38961038 49:0.82894737 50:0.70512819 51:0.68421054 52:0.84615386 53:0.75 54:0.55737704 55:0.86458331 56:0.80555558 57:0.5714286 58:0.62121212 59:0.34 60:0.53968257 61:0.85106385 62:0.78750002 63:0.57407409 64:0.38571429 65:0.094594598 66:0.36764705 67:0.86666667 68:0.76288658 69:0.80263156 70:0.8918919 71:0.70526314 72:0.81818181 73:0.62162161 74:0.62162161 75:0.73972601 76:0.78082192 77:0.77049178 78:0.55405408 79:0.72972971 80:0.77777779 81:0.87272727 82:0.88749999 83:0.625 84:0.4050633 85:0.86516851 86:0.5151515 87:0.48275861 88:0.65333331 89:0.68181819 90:0.50666666 91:0.90109891 92:0.76623374 93:0.50943398 94:0.44999999 95:0.38709676 96:0.3968254 97:0.83529413 98:0.71794873 99:0.59523809 100:0.34328359 101:0.28089887 102:0.37142858 103:0.63809526 104:0.61000001 105:0.66666669 106:0.5479452 107:0.69318181 108:0.71249998 109:0.69117647 110:0.76712328 111:0.70588237 112:0.71604937 113:0.71014494 114:0.61403507 115:0.64912283 116:0.87755102 117:0.83636361 118:0.91666669 119:0.72340423 120:0.46835443 121:0.55932206 122:0.15116279 123:0.1 124:0.5090909 125:0.58666664 126:0.77319586 127:0.5 128:0.30882353 129:0.15492958 130:0.16176471 131:0.71830988 132:0.64835167 133:0.29310346 134:0.42372882 135:0.42222223 136:0.36363637 137:0.52222222 138:0.55681819 139:0.15714286 140:0.3392857 141:0.3548387 142:0.30952382 143:0.33766234 144:0.27941176 145:0.32911393 146:0.74390244 147:0.64556962 148:0.70588237 149:0.81159419 150:0.61818182 151:0.27500001 152:0.78688526 153:0.90909094 154:0.9852941 155:0.86000001 156:0.31707317 157:0.26086956 158:0.28787878 159:0.19047619 160:0.81132078 161:0.7361111 162:0.32222223 163:0.26744187 164:0.46875 165:0.1641791 166:0.29333332 167:0.85365856 168:0.58064514 169:0.31999999 170:0.53191489 171:0.5106383 172:0.48387095 173:0.73846155 174:0.56 175:0.34246576 176:0.48275861 177:0.5 178:0.5272727 179:0.41111112 180:0.2923077 181:0.86486489 182:0.7352941 183:0.83333331 184:0.84057969 185:0.86764705 186:0.72093022 187:0.72580647 188:0.91176468 189:0.85454547 190:0.87692308 191:0.60606062 192:0.41463414 193:0.83908045 194:0.65714288 195:0.70175439 196:0.70731705 197:0.54385966 198:0.34246576 199:0.90909094 200:0.72463769 201:0.47058824 202:0.48235294 203:0.58730161 204:0.40845069 205:0.8901099 206:0.81159419 207:0.65957445 208:0.51351351 209:0.51136363 210:0.49397591 211:0.60714287 212:0.40789473 213:0.5 214:0.42105263 215:0.51351351 216:0.71830988 217:0.81538463 218:0.880597 219:0.84482759 220:0.76666665 221:0.78571427 222:0.69444442 223:0.82456142 224:0.90909094 225:0.84313726 226:0.86440676 227:0.53333336 228:0.46575344 229:0.96428573 230:0.6438356 231:0.73170733 232:0.7631579 233:0.41304347 234:0.5 235:0.86170214 236:0.73333335 237:0.47252747 238:0.6081081 239:0.43636364 240:0.51666665 241:0.87755102 242:0.79569894 243:0.5925926 244:0.58536583 245:0.37349397 246:0.42045453 247:0.64634144 248:0.57317072 249:0.43076923 250:0.32432431 251:0.33734939 252:0.59154928 253:0.71428573 254:0.75308645 255:0.77631581 256:0.70769233 257:0.75862068 258:0.703125 259:0.74576271 260:0.875 261:0.96226418 262:1 263:0.66666669 264:0.45333335 265:0.55384618 266:0.25773194 267:0.13157895 268:0.77777779 269:0.5471698 270:0.74712646 271:0.56626505 272:0.48750001 273:0.16883117 274:0.54385966 275:0.53424656 276:0.82191783 277:0.546875 278:0.65151513 279:0.44230768 280:0.60000002 281:0.64788735 282:0.66666669 283:0.5 284:0.57575756 285:0.5090909 286:0.36734694 287:0.3968254 288:0.55555558 
0.05695340433007394 0.00574464368075737 1:0.87142855 2:0.9054054 3:0.76712328 4:0.83749998 5:0.7096774 6:0.72941178 7:0.58620691 8:0.71428573 9:0.61666667 10:0.67605633 11:0.42222223 12:0.81521738 13:0.40860215 14:0.21052632 15:0.12048193 16:0.69135803 17:0.51999998 18:0.71875 19:0.42553192 20:0.28395063 21:0.07692308 22:0.11111111 23:0.1884058 24:0.66981131 25:0.38666666 26:0.5 27:0.3888889 28:0.14285715 29:0.13793103 30:0.74157304 31:0.39130434 32:0.62295079 33:0.63999999 34:0.33333334 35:0.30555555 36:0.87777776 37:0.6769231 38:0.74324322 39:0.7361111 40:0.75806451 41:0.8214286 42:0.47945204 43:0.81159419 44:0.71212119 45:0.69999999 46:0.77631581 47:0.42857143 48:0.33766234 49:0.81578946 50:0.69230771 51:0.60526317 52:0.70512819 53:0.41176471 54:0.32786885 55:0.875 56:0.6388889 57:0.51428574 58:0.57575756 59:0.28 60:0.41269842 61:0.79787236 62:0.76249999 63:0.5925926 64:0.58571428 65:0.37837839 66:0.45588234 67:0.50476193 68:0.35051546 69:0.23684211 70:0.27027026 71:0.15789473 72:0.29292929 73:0.63513511 74:0.64864862 75:0.67123288 76:0.72602737 77:0.73770493 78:0.48648649 79:0.7027027 80:0.63492066 81:0.63636363 82:0.80000001 83:0.64285713 84:0.4556962 85:0.74157304 86:0.40909091 87:0.44827586 88:0.62666667 89:0.59090906 90:0.46666667 91:0.7912088 92:0.66233766 93:0.4528302 94:0.46250001 95:0.48387095 96:0.52380955 97:0.7764706 98:0.66666669 99:0.66666669 100:0.35820895 101:0.42696628 102:0.62857145 103:0.44761905 104:0.2 105:0.097222224 106:0.1369863 107:0.15909091 108:0.34999999 109:0.82352942 110:0.86301368 111:0.7647059 112:0.81481481 113:0.86956519 114:0.75438595 115:0.54385966 116:0.5714286 117:0.56363636 118:0.75 119:0.5106383 120:0.39240506 121:0.3898305 122:0.069767445 123:0.077777781 124:0.72727275 125:0.56 126:0.43298969 127:0.39583334 128:0.29411766 129:0 130:0.30882353 131:0.53521127 132:0.20879121 133:0.20689656 134:0.40677965 135:0.37777779 136:0.36363637 137:0.40000001 138:0.28409091 139:0.22857143 140:0.42857143 141:0.46774194 142:0.23809524 143:0.38961038 144:0.45588234 145:0.36708862 146:0.80487806 147:0.73417723 148:0.75 149:0.85507244 150:0.5272727 151:0.3125 152:0.67213112 153:0.5090909 154:0.7647059 155:0.47999999 156:0.24390244 157:0.26086956 158:0.16666667 159:0.16666667 160:0.88679248 161:0.65277779 162:0.40000001 163:0.1744186 164:0.3125 165:0 166:0.41333333 167:0.65853661 168:0.37634408 169:0.17333333 170:0.5106383 171:0.61702126 172:0.58064514 173:0.53846157 174:0.26666668 175:0.21917808 176:0.43103448 177:0.66129035 178:0.61818182 179:0.36666667 180:0.50769234 181:0.2972973 182:0.35294119 183:0.46969697 184:0.50724638 185:0.4852941 186:0.3488372 187:0.74193549 188:0.80882353 189:0.67272729 190:0.83076924 191:0.66666669 192:0.57317072 193:0.81609195 194:0.42857143 195:0.54385966 196:0.74390244 197:0.7719298 198:0.53424656 199:0.88636363 200:0.60869563 201:0.54411763 202:0.57647061 203:0.58730161 204:0.59154928 205:0.84615386 206:0.73913044 207:0.74468082 208:0.5945946 209:0.43181819 210:0.46987951 211:0.76190478 212:0.4868421 213:0.60416669 214:0.61403507 215:0.55405408 216:0.6056338 217:0.35384616 218:0.40298507 219:0.36206895 220:0.43333334 221:0.39285713 222:0.19444445 223:0.71929824 224:0.76363635 225:0.60784316 226:0.67796612 227:0.44444445 228:0.41095892 229:0.80952382 230:0.5479452 231:0.57317072 232:0.57894737 233:0.26086956 234:0.40322581 235:0.84042555 236:0.66666669 237:0.43956044 238:0.55405408 239:0.32727271 240:0.43333334 241:0.80612242 242:0.80645162 243:0.5925926 244:0.62195122 245:0.18072289 246:0.28409091 247:0.65853661 248:0.597561 249:0.49230769 250:0.3918919 251:0.39759037 252:0.50704223 253:0.83333331 254:0.82716048 255:0.80263156 256:0.75384617 257:0.84482759 258:0.71875 259:0.779661 260:0.625 261:0.5471698 262:0.66666669 263:0.19047619 264:0.58666664 265:0.35384616 266:0.14432989 267:0.11842106 268:0.74074072 269:0.39622641 270:0.77011496 271:0.51807231 272:0.375 273:0.14285715 274:0.28070176 275:0.38356164 276:0.76712328 277:0.46875 278:0.62121212 279:0.65384614 280:0.36000001 281:0.33802816 282:0.7011494 283:0.48387095 284:0.59090906 285:0.63636363 286:0.55102038 287:0.25396827 288:0.60000002 
1.097533814097139 0.7632875285642355 1:0.78571427 2:0.58108109 3:0.4520548 4:0.4375 5:0.29032257 6:0.17647059 7:0.37931034 8:0.30357143 9:0.38333333 10:0.47887325 11:0.48888889 12:0.15217391 13:0.33333334 14:0.2 15:0.012048192 16:0.55555558 17:0.86666667 18:0.28125 19:0.28723404 20:0.17283951 21:0.1923077 22:0.2962963 23:0.60869563 24:0.31132075 25:0.10666667 26:0.02 27:0.14814815 28:0 29:0.12068965 30:0 31:0.072463766 32:0 33:0 34:0.050000001 35:0 36:0.24444444 37:0.50769234 38:0.36486486 39:0.31944445 40:0.32258064 41:0.4107143 42:0.32876712 43:0.52173913 44:0.21212122 45:0.21666667 46:0.4868421 47:0.44897959 48:0.3116883 49:0.57894737 50:0.53846157 51:0.039473683 52:0.38461539 53:0.64705884 54:0.44262296 55:0.5 56:0.41666666 57:0.31428573 58:0.43939394 59:0.46000001 60:0.53968257 61:0.46808511 62:0.375 63:0.18518518 64:0.24285714 65:0 66:0.33823529 67:0.60952383 68:0.556701 69:0.78947371 70:0.8108108 71:0.75789475 72:0.84848487 73:0.22972973 74:0.44594595 75:0.3561644 76:0.34246576 77:0.27868852 78:0.3108108 79:0.47297296 80:0.55555558 81:0.40000001 82:0.40000001 83:0.2857143 84:0.24050634 85:0.64044946 86:0.530303 87:0.12068965 88:0.093333334 89:0.530303 90:0.34666666 91:0.64835167 92:0.64935064 93:0.32075471 94:0.2 95:0.40322581 96:0.2857143 97:0.60000002 98:0.61538464 99:0.38095239 100:0.074626863 101:0 102:0.028571429 103:0.64761907 104:0.64999998 105:0.58333331 106:0.52054793 107:0.54545456 108:0.57499999 109:0.60294116 110:0.71232879 111:0.44117647 112:0.4074074 113:0.33333334 114:0.63157892 115:0.33333334 116:0.3877551 117:0.29090908 118:0.5 119:0.23404256 120:0.51898736 121:0.37288135 122:0.22093023 123:0.2 124:0.14545454 125:0.65333331 126:0.81443298 127:0.35416666 128:0.05882353 129:0.21126761 130:0.10294118 131:0.49295774 132:0.51648355 133:0.25862068 134:0.13559322 135:0.022222223 136:0.054545455 137:0 138:0.22727273 139:0.5714286 140:0 141:0 142:0 143:0 144:0 145:0.87341774 146:0.62195122 147:0.35443038 148:0.41176471 149:0.43478259 150:0.5090909 151:0.76249999 152:0.49180329 153:0.12727273 154:0.4852941 155:0.079999998 156:0.48780489 157:0.70652175 158:0.28787878 159:0.21428572 160:0.24528302 161:0.4861111 162:0.56666666 163:0.53488374 164:0.171875 165:0.17910448 166:0.06666667 167:0.40243903 168:0.65591395 169:0.50666666 170:0.08510638 171:0 172:0.016129032 173:0.23076923 174:0.62666667 175:0.369863 176:0 177:0 178:0 179:0 180:0.2923077 181:0.094594598 182:0.22058824 183:0.31818181 184:0.1884058 185:0.20588236 186:0.19767442 187:0.41935483 188:0.7647059 189:0.4909091 190:0.41538462 191:0.075757578 192:0.18292683 193:0.60919541 194:0.58571428 195:0.15789473 196:0.17073171 197:0.43859649 198:0.26027396 199:0.71590906 200:0.71014494 201:0.41176471 202:0.21176471 203:0.3968254 204:0.30985916 205:0.60439563 206:0.57971013 207:0.31914893 208:0.2027027 209:0.48863637 210:0.42168674 211:0.53571427 212:0.60526317 213:0.54166669 214:0.3859649 215:0.4054054 216:0.53521127 217:0.27692309 218:0.25373134 219:0.1724138 220:0.25 221:0.16071428 222:0.069444448 223:0.57894737 224:0.21818182 225:0.15686275 226:0.52542371 227:0.40000001 228:0.46575344 229:0.55952382 230:0.2739726 231:0.097560972 232:0.31578946 233:0.60869563 234:0.43548387 235:0.5 236:0.49333334 237:0.34065935 238:0.32432431 239:0.47272727 240:0.46666667 241:0.43877551 242:0.40860215 243:0.14814815 244:0.32926831 245:0.37349397 246:0.40909091 247:0.31707317 248:0.036585364 249:0.10769231 250:0.2972973 251:0.42168674 252:0.52112675 253:0.75 254:0.64197528 255:0.47368422 256:0.49230769 257:0.48275861 258:0.125 259:0.54237288 260:0.3125 261:0.26415095 262:0.50877196 263:0.14285715 264:0.34666666 265:0.32307693 266:0.18556701 267:0.13157895 268:0.33333334 269:0.47169811 270:0.43678162 271:0.28915662 272:0.25 273:0.20779221 274:0.2631579 275:0.39726028 276:0.05479452 277:0.1875 278:0.24242425 279:0.03846154 280:0.23999999 281:0.67605633 282:0.12643678 283:0.32258064 284:0 285:0 286:0 287:0.079365082 288:0.022222223 
1.064059260209452 0.8439300740311495 1:0.88571429 2:0.93243241 3:0.83561641 4:0.86250001 5:0.85483873 6:0.50588238 7:0.58620691 8:0.625 9:0.64999998 10:0.78873241 11:0.60000002 12:0.46739131 13:0.43010753 14:0.42105263 15:0.3493976 16:0.65432101 17:0.81333333 18:0.63541669 19:0.56382978 20:0.71604937 21:0.65384614 22:0.22222222 23:0.37681159 24:0.66037738 25:0.40000001 26:0.51999998 27:0.5 28:0.44897959 29:0.37931034 30:0.65168542 31:0.34782609 32:0.3442623 33:0.51999998 34:0.64999998 35:0.40277779 36:0.64444447 37:0.66153848 38:0.78378379 39:0.84722221 40:0.93548387 41:0.9285714 42:0.56164384 43:0.82608694 44:0.65151513 45:0.66666669 46:0.82894737 47:0.75510204 48:0.50649351 49:0.93421054 50:0.97435898 51:0.82894737 52:0.79487181 53:0.54411763 54:0.49180329 55:0.86458331 56:0.90277779 57:0.82857144 58:0.68181819 59:0.44 60:0.55555558 61:0.78723407 62:0.71249998 63:0.6111111 64:0.51428574 65:0.64864862 66:0.52941179 67:0.82857144 68:0.77319586 69:0.7631579 70:0.71621621 71:0.76842105 72:0.82828283 73:0.56756759 74:0.78378379 75:0.83561641 76:0.91780823 77:0.91803277 78:0.63513511 79:0.75675678 80:0.77777779 81:0.76363635 82:0.78750002 83:0.66071427 84:0.5316456 85:0.89887643 86:0.69696969 87:0.7758621 88:0.69333333 89:0.65151513 90:0.66666669 91:0.84615386 92:0.83116883 93:0.88679248 94:0.6875 95:0.56451613 96:0.5714286 97:0.75294119 98:0.69230771 99:0.5 100:0.37313432 101:0.52808988 102:0.78571427 103:0.78095239 104:0.69 105:0.72222221 106:0.86301368 107:0.875 108:1 109:0.89705884 110:0.98630136 111:0.92647058 112:0.83950615 113:0.9130435 114:0.82456142 115:0.84210527 116:0.59183675 117:0.67272729 118:0.80555558 119:0.68085104 120:0.58227849 121:0.83050847 122:0.25581396 123:0.40000001 124:0.56363636 125:0.74666667 126:0.74226803 127:0.91666669 128:0.52941179 129:0.57746476 130:0.42647058 131:0.67605633 132:0.37362638 133:0.60344827 134:0.49152541 135:0.46666667 136:0.4909091 137:0.44444445 138:0.54545456 139:0.60000002 140:0.35714287 141:0.41935483 142:0.5714286 143:0.44155845 144:0.61764705 145:0.79746836 146:0.91463417 147:0.8607595 148:0.91176468 149:0.942029 150:0.70909089 151:0.63749999 152:0.60655737 153:0.5090909 154:0.91176468 155:0.63999999 156:0.19512194 157:0.60869563 158:0.34848484 159:0.41666666 160:0.73584908 161:0.83333331 162:0.62222224 163:0.59302324 164:0.609375 165:0.70149255 166:0.54666668 167:0.85365856 168:0.76344085 169:0.41333333 170:0.46808511 171:0.42553192 172:0.53225809 173:0.47692308 174:0.41333333 175:0.41095892 176:0.39655173 177:0.41935483 178:0.36363637 179:0.088888891 180:0.36923078 181:0.41891891 182:0.61764705 183:0.72727275 184:0.63768119 185:0.70588237 186:0.45348838 187:0.69354838 188:0.85294116 189:0.65454543 190:0.70769233 191:0.45454547 192:0.4512195 193:0.77011496 194:0.54285717 195:0.61403507 196:0.65853661 197:0.64912283 198:0.50684929 199:0.89772725 200:0.9130435 201:0.82352942 202:0.68235296 203:0.65079367 204:0.67605633 205:0.83516484 206:0.82608694 207:0.76595747 208:0.62162161 209:0.43181819 210:0.48192772 211:0.65476191 212:0.53947371 213:0.60416669 214:0.68421054 215:0.7972973 216:0.88732392 217:0.56923079 218:0.62686568 219:0.67241377 220:0.78333336 221:0.66071427 222:0.3611111 223:0.85964912 224:0.69090909 225:0.66666669 226:0.74576271 227:0.40000001 228:0.57534248 229:0.84523809 230:0.67123288 231:0.65853661 232:0.67105263 233:0.60869563 234:0.58064514 235:0.91489363 236:1 237:0.76923078 238:0.56756759 239:0.5272727 240:0.60000002 241:0.83673471 242:0.78494626 243:0.66666669 244:0.52439022 245:0.33734939 246:0.30681819 247:0.68292683 248:0.57317072 249:0.44615385 250:0.43243244 251:0.61445785 252:0.70422536 253:0.90476191 254:0.97530866 255:0.97368419 256:0.98461539 257:0.94827586 258:0.59375 259:0.76271188 260:0.625 261:0.60377359 262:0.85964912 263:0.23809524 264:0.54666668 265:0.6769231 266:0.3298969 267:0.34210527 268:0.55555558 269:0.58490568 270:0.85057473 271:0.56626505 272:0.73750001 273:0.63636363 274:0.50877196 275:0.73972601 276:0.83561641 277:0.484375 278:0.63636363 279:0.59615386 280:0.34 281:0.40845069 282:0.62068963 283:0.43548387 284:0.46969697 285:0.4909091 286:0.5714286 287:0.047619049 288:0.37777779 
1.621632786336454 0.262657443575569 1:0.45714286 2:0.54054052 3:0.42465752 4:0.51249999 5:0.30645162 6:0.14117648 7:0.22413793 8:0.5714286 9:0.53333336 10:0.57746476 11:0.46666667 12:0.44565219 13:0.25806451 14:0.32631579 15:0.14457831 16:0.66666669 17:0.62666667 18:0.60416669 19:0.30851063 20:0.38271606 21:0.26923078 22:0.24074075 23:0.60869563 24:0.66981131 25:0.33333334 26:0.41999999 27:0.44444445 28:0.51020408 29:0.5 30:0.52808988 31:0.62318838 32:0.47540984 33:0.57999998 34:0.76666665 35:0.5 36:0.30000001 37:0.2 38:0.36486486 39:0.45833334 40:0.43548387 41:0.44642857 42:0.30136988 43:0.42028984 44:0.46969697 45:0.55000001 46:0.7631579 47:0.5714286 48:0.4025974 49:0.4868421 50:0.66666669 51:0.61842108 52:0.79487181 53:0.57352942 54:0.29508197 55:0.58333331 56:0.68055558 57:0.61428571 58:0.77272725 59:0.47999999 60:0.23809524 61:0.5 62:0.625 63:0.66666669 64:0.64285713 65:0.54054052 66:0.2647059 67:0.40952381 68:0.4742268 69:0.55263156 70:0.54054052 71:0.41052631 72:0.37373737 73:0.027027028 74:0.28378379 75:0.34246576 76:0.39726028 77:0.3442623 78:0.22972973 79:0.41891891 80:0.66666669 81:0.60000002 82:0.69999999 83:0.5 84:0.20253165 85:0.67415732 86:0.72727275 87:0.67241377 88:0.60000002 89:0.45454547 90:0.29333332 91:0.6813187 92:0.87012988 93:0.81132078 94:0.55000001 95:0.33870968 96:0.19047619 97:0.68235296 98:0.76923078 99:0.80952382 100:0.50746268 101:0.35955057 102:0.44285715 103:0.61904764 104:0.63999999 105:0.5 106:0.43835616 107:0.30681819 108:0.3125 109:0.44117647 110:0.57534248 111:0.52941179 112:0.50617284 113:0.53623188 114:0.29824561 115:0.33333334 116:0.55102038 117:0.4909091 118:0.56944442 119:0.5106383 120:0.30379745 121:0.44067797 122:0.30232558 123:0.12222222 124:0.61818182 125:0.58666664 126:0.48453608 127:0.58333331 128:0.30882353 129:0.32394367 130:0.25 131:0.53521127 132:0.40659341 133:0.62068963 134:0.44067797 135:0.37777779 136:0.43636364 137:0.33333334 138:0.39772728 139:0.74285716 140:0.51785713 141:0.46774194 142:0.38095239 143:0.42857143 144:0.33823529 145:0.62025315 146:0.51219511 147:0.58227849 148:0.54411763 149:0.44927537 150:0.29090908 151:0.52499998 152:0.63934427 153:0.56363636 154:0.67647058 155:0.57999998 156:0.35365853 157:0.54347825 158:0.43939394 159:0.16666667 160:0.81132078 161:0.55555558 162:0.48888889 163:0.44186047 164:0.390625 165:0.31343284 166:0.28 167:0.58536583 168:0.62365592 169:0.54666668 170:0.38297874 171:0.38297874 172:0.45161289 173:0.2 174:0.36000001 175:0.5479452 176:0.44827586 177:0.43548387 178:0.43636364 179:0.055555556 180:0 181:0.45945945 182:0.27941176 183:0.30303031 184:0.24637681 185:0.23529412 186:0.18604651 187:0.32258064 188:0.72058821 189:0.65454543 190:0.72307694 191:0.54545456 192:0.23170732 193:0.65517241 194:0.91428572 195:0.7719298 196:0.75609756 197:0.71929824 198:0.2739726 199:0.68181819 200:0.81159419 201:0.69117647 202:0.60000002 203:0.44444445 204:0.21126761 205:0.62637365 206:0.79710144 207:0.68085104 208:0.52702701 209:0.19318181 210:0.024096385 211:0.52380955 212:0.52631581 213:0.39583334 214:0.40350878 215:0.45945945 216:0.23943663 217:0.046153847 218:0.2238806 219:0.22413793 220:0.34999999 221:0.51785713 222:0.33333334 223:0.10526316 224:0.56363636 225:0.627451 226:0.81355929 227:0.66666669 228:0.50684929 229:0.55952382 230:0.58904111 231:0.73170733 232:0.78947371 233:0.71739131 234:0.5 235:0.57446808 236:0.69333333 237:0.54945058 238:0.67567569 239:0.38181818 240:0.26666668 241:0.5714286 242:0.72043014 243:0.66666669 244:0.60975611 245:0.16867469 246:0.079545453 247:0.28048781 248:0.39024389 249:0.35384616 250:0.2972973 251:0.31325302 252:0.36619717 253:0.53571427 254:0.64197528 255:0.63157892 256:0.6769231 257:0.62068963 258:0.5625 259:0.47457626 260:0.625 261:0.6226415 262:0.66666669 263:0.5 264:0.75999999 265:0.49230769 266:0.31958762 267:0.17105263 268:0.7962963 269:0.41509435 270:0.74712646 271:0.43373495 272:0.48750001 273:0.19480519 274:0.24561404 275:0.47945204 276:0.57534248 277:0.5 278:0.5151515 279:0.36538461 280:0.46000001 281:0.38028169 282:0.39080459 283:0.38709676 284:0.42424244 285:0.4909091 286:0.65306121 287:0.22222222 288:0.31111112 
1.457571685522386 0.5306149242582031 1:0.9285714 2:0.94594592 3:0.94520545 4:0.9375 5:0.82258064 6:0.75294119 7:0.62068963 8:0.73214287 9:0.71666664 10:0.81690139 11:0.62222224 12:0.9130435 13:0.43010753 14:0.31578946 15:0.21686748 16:0.7037037 17:0.93333334 18:0.77083331 19:0.55319148 20:0.55555558 21:0.56410259 22:0.55555558 23:0.79710144 24:0.82075471 25:0.44 26:0.62 27:0.42592594 28:0.44897959 29:0.29310346 30:0.71910113 31:0.37681159 32:0.57377046 33:0.54000002 34:0.31666666 35:0.3888889 36:0.86666667 37:0.6769231 38:0.7972973 39:0.77777779 40:0.7903226 41:0.85714287 42:0.52054793 43:0.95652175 44:0.78787881 45:0.76666665 46:0.81578946 47:0.51020408 48:0.36363637 49:0.85526317 50:0.69230771 51:0.59210527 52:0.70512819 53:0.70588237 54:0.52459013 55:1 56:0.97222221 57:0.77142859 58:0.59090906 59:0.22 60:0.53968257 61:0.81914896 62:0.71249998 63:0.42592594 64:0.35714287 65:0.094594598 66:0.41176471 67:0.73333335 68:0.62886596 69:0.63157892 70:0.55405408 71:0.60000002 72:0.70707071 73:0.6891892 74:0.72972971 75:0.86301368 76:0.87671232 77:0.80327868 78:0.5 79:0.8918919 80:0.87301588 81:0.90909094 82:0.83749998 83:0.5535714 84:0.35443038 85:0.85393256 86:0.530303 87:0.60344827 88:0.60000002 89:0.71212119 90:0.47999999 91:0.94505495 92:0.89610392 93:1 94:0.67500001 95:0.37096775 96:0.3968254 97:0.83529413 98:0.62820512 99:0.59523809 100:0.34328359 101:0.17977528 102:0.22857143 103:0.74285716 104:0.55000001 105:0.4861111 106:0.65753424 107:0.60227275 108:0.64999998 109:0.85294116 110:0.89041096 111:0.86764705 112:0.82716048 113:0.884058 114:0.71929824 115:0.59649122 116:0.79591835 117:0.74545455 118:0.8611111 119:0.57446808 120:0.55696201 121:0.47457626 122:0.22093023 123:0.25555557 124:0.45454547 125:0.72000003 126:0.92783505 127:0.47916666 128:0.5147059 129:0.49295774 130:0.36764705 131:0.88732392 132:0.84615386 133:0.29310346 134:0.42372882 135:0.40000001 136:0.25454545 137:0.37777779 138:0.36363637 139:0.21428572 140:0.3392857 141:0.45161289 142:0.40476191 143:0.58441556 144:0.32352942 145:0.41772151 146:0.86585367 147:0.91139239 148:0.83823532 149:0.82608694 150:0.58181816 151:0.26249999 152:0.6885246 153:0.60000002 154:0.80882353 155:0.46000001 156:0.28048781 157:0.2173913 158:0.22727273 159:0.2857143 160:0.71698111 161:0.5 162:0.35555556 163:0.29069766 164:0.484375 165:0.50746268 166:0.25333333 167:0.5 168:0.45161289 169:0.31999999 170:0.63829786 171:0.53191489 172:0.32258064 173:0.69230771 174:0.83999997 175:0.30136988 176:0.43103448 177:0.5 178:0.43636364 179:0.45555556 180:0.41538462 181:0.78378379 182:0.79411763 183:0.84848487 184:0.79710144 185:0.7647059 186:0.63953489 187:0.83870965 188:0.85294116 189:0.78181821 190:0.84615386 191:0.56060606 192:0.4512195 193:0.88505745 194:0.51428574 195:0.49122807 196:0.57317072 197:0.50877196 198:0.39726028 199:0.90909094 200:0.89855075 201:0.7352941 202:0.52941179 203:0.55555558 204:0.36619717 205:0.86813188 206:0.79710144 207:0.74468082 208:0.55405408 209:0.46590909 210:0.61445785 211:0.61904764 212:0.46052632 213:0.45833334 214:0.56140351 215:0.5945946 216:0.61971831 217:0.84615386 218:0.86567163 219:0.86206895 220:0.83333331 221:0.76785713 222:0.56944442 223:0.85964912 224:0.85454547 225:0.84313726 226:0.86440676 227:0.53333336 228:0.47945204 229:0.95238096 230:0.5479452 231:0.597561 232:0.65789473 233:0.36956522 234:0.48387095 235:0.97872341 236:0.92000002 237:0.67032969 238:0.5945946 239:0.32727271 240:0.53333336 241:0.8877551 242:0.79569894 243:0.7037037 244:0.60975611 245:0.49397591 246:0.5 247:0.71951222 248:0.58536583 249:0.41538462 250:0.35135135 251:0.54216868 252:0.5633803 253:0.85714287 254:0.87654322 255:0.89473683 256:0.75384617 257:0.86206895 258:0.828125 259:0.88135594 260:0.72916669 261:0.6981132 262:0.7368421 263:0.30952382 264:0.56 265:0.61538464 266:0.2371134 267:0.21052632 268:0.5925926 269:0.18867925 270:0.74712646 271:0.62650603 272:0.58749998 273:0.48051947 274:0.22807017 275:0.42465752 276:0.63013697 277:0.6875 278:0.72727275 279:0.53846157 280:0.56 281:0.78873241 282:0.68965518 283:0.5 284:0.46969697 285:0.5090909 286:0.3877551 287:0.55555558 288:0.48888889 
1.196015330639019 0.5973517666907061 1:0.38571429 2:0.48648649 3:0.49315068 4:0.47499999 5:0.20967741 6:0.16470589 7:0.12068965 8:0.4107143 9:0.58333331 10:0.43661973 11:0.2888889 12:0.39130434 13:0.10752688 14:0.21052632 15:0.45783132 16:0.77777779 17:0.37333333 18:0.54166669 19:0.18085106 20:0.28395063 21:0.26923078 22:0.74074072 23:0.46376812 24:0.70754719 25:0.053333335 26:0.2 27:0.4074074 28:0.83673471 29:0.43103448 30:0.80898875 31:0.14492753 32:0.39344263 33:0.46000001 34:0.66666669 35:0.6111111 36:0.72222221 37:0.27692309 38:0.45945945 39:0.3888889 40:0.33870968 41:0.19642857 42:0.05479452 43:0.37681159 44:0.530303 45:0.60000002 46:0.71052629 47:0.51020408 48:0.2857143 49:0.40789473 50:0.52564102 51:0.60526317 52:0.69230771 53:0.54411763 54:0.39344263 55:0.52083331 56:0.4861111 57:0.60000002 58:0.66666669 59:0.56 60:0.58730161 61:0.52127659 62:0.58749998 63:0.5 64:0.51428574 65:0.36486486 66:0.42647058 67:0.37142858 68:0.40206185 69:0.5 70:0.44594595 71:0.35789475 72:0.43434343 73:0.35135135 74:0.43243244 75:0.43835616 76:0.38356164 77:0.13114753 78:0.054054055 79:0.63513511 80:0.77777779 81:0.74545455 82:0.63749999 83:0.32142857 84:0.16455697 85:0.75280899 86:0.71212119 87:0.68965518 88:0.47999999 89:0.56060606 90:0.28 91:0.80219781 92:0.84415585 93:0.79245281 94:0.42500001 95:0.43548387 96:0.26984128 97:0.81176472 98:0.70512819 99:0.64285713 100:0.23880596 101:0.44943821 102:0.2857143 103:0.65714288 104:0.54000002 105:0.47222221 106:0.34246576 107:0.38636363 108:0.26249999 109:0.61764705 110:0.50684929 111:0.58823532 112:0.44444445 113:0.44927537 114:0.14035088 115:0.40350878 116:0.36734694 117:0.56363636 118:0.5138889 119:0.12765957 120:0.2278481 121:0.44067797 122:0.18604651 123:0.25555557 124:0.83636361 125:0.70666665 126:0.28865978 127:0.375 128:0.23529412 129:0.15492958 130:0.5147059 131:0.74647886 132:0.26373628 133:0.20689656 134:0.32203391 135:0.31111112 136:0.54545456 137:0.63333333 138:0.46590909 139:0.31428573 140:0.32142857 141:0.41935483 142:0.38095239 143:0.70129871 144:0.63235295 145:0.46835443 146:0.597561 147:0.49367088 148:0.58823532 149:0.34782609 150:0.054545455 151:0.42500001 152:0.59016395 153:0.5272727 154:0.67647058 155:0.25999999 156:0.23170732 157:0.35869566 158:0.34848484 159:0.29761904 160:0.96226418 161:0.5138889 162:0.48888889 163:0.23255815 164:0.3125 165:0.17910448 166:0.65333331 167:0.71951222 168:0.63440859 169:0.21333334 170:0.19148937 171:0.23404256 172:0.41935483 173:0.33846155 174:0.57333332 175:0.2739726 176:0.36206895 177:0.30645162 178:0.12727273 179:0.17777778 180:0.60000002 181:0.4054054 182:0.41176471 183:0.42424244 184:0.26086956 185:0.088235296 186:0.034883723 187:0.61290324 188:0.86764705 189:0.76363635 190:0.70769233 191:0.25757575 192:0.085365854 193:0.74712646 194:0.8142857 195:0.82456142 196:0.62195122 197:0.56140351 198:0.28767124 199:0.77272725 200:0.69565219 201:0.67647058 202:0.44705883 203:0.44444445 204:0.28169015 205:0.80219781 206:0.63768119 207:0.57446808 208:0.3108108 209:0.15909091 210:0.10843374 211:0.52380955 212:0.27631578 213:0.083333336 214:0.070175439 215:0.2027027 216:0.098591551 217:0.13846155 218:0.34328359 219:0.22413793 220:0.30000001 221:0.2857143 222:0.16666667 223:0.40350878 224:0.65454543 225:0.66666669 226:0.69491524 227:0.55555558 228:0.39726028 229:0.53571427 230:0.46575344 231:0.70731705 232:0.67105263 233:1 234:0.59677422 235:0.53191489 236:0.50666666 237:0.48351648 238:0.58108109 239:0.61818182 240:0.58333331 241:0.47959185 242:0.61290324 243:0.46296296 244:0.43902439 245:0.26506025 246:0.34090909 247:0.20731707 248:0.28048781 249:0.12307692 250:0.094594598 251:0.13253012 252:0.11267605 253:0.51190478 254:0.67901236 255:0.60526317 256:0.60000002 257:0.67241377 258:0.546875 259:0.30508474 260:0.5625 261:0.67924529 262:0.64912283 263:0.64285713 264:0.77333331 265:0.24615385 266:0.15463917 267:0.5131579 268:0.87037039 269:0.81132078 270:0.79310346 271:0.28915662 272:0.34999999 273:0.23376623 274:0.63157892 275:0.47945204 276:0.75342464 277:0.15625 278:0.40909091 279:0.34615386 280:0.36000001 281:0.36619717 282:0.58620691 283:0.12903225 284:0.31818181 285:0.34545454 286:0.36734694 287:0.11111111 288:0.42222223 
1.314509578286245 0.4481119115872981 1:0.6857143 2:0.41891891 3:0.34246576 4:0.34999999 5:0.29032257 6:0.63529414 7:0.41379312 8:0.5 9:0.53333336 10:0.59154928 11:0.40000001 12:0.84782606 13:0.1827957 14:0.042105265 15:0 16:0.61728394 17:0.78666669 18:0.82291669 19:0.22340426 20:0 21:0 22:0.33333334 23:0.79710144 24:0.86792451 25:0.13333334 26:0 27:0.12962963 28:0.2857143 29:0.46551725 30:0.84269661 31:0.24637681 32:0.27868852 33:0.30000001 34:0 35:0.11111111 36:0.80000001 37:0.40000001 38:0.32432431 39:0.31944445 40:0.41935483 41:0.5535714 42:0.34246576 43:0.44927537 44:0.28787878 45:0.28333333 46:0.56578946 47:0.36734694 48:0.23376623 49:0.47368422 50:0.20512821 51:0 52:0.46153846 53:0.58823532 54:0.44262296 55:0.58333331 56:0.3611111 57:0.042857144 58:0.18181819 59:0.69999999 60:0.5714286 61:0.59574467 62:0.5 63:0.22222222 64:0.25714287 65:0.040540539 66:0.29411766 67:0.44761905 68:0.20618556 69:0.10526316 70:0.040540539 71:0.10526316 72:0.26262626 73:0.25675675 74:0.41891891 75:0.41095892 76:0.38356164 77:0.26229507 78:0.32432431 79:0.41891891 80:0.60317463 81:0.61818182 82:0.5625 83:0.30357143 84:0.16455697 85:0.56179774 86:0.4848485 87:0.39655173 88:0.29333332 89:0.59090906 90:0.29333332 91:0.58241761 92:0.67532468 93:0.35849056 94:0.1875 95:0.59677422 96:0.36507937 97:0.58823532 98:0.62820512 99:0.64285713 100:0.2238806 101:0.20224719 102:0.24285714 103:0.30476192 104:0.30000001 105:0.29166666 106:0.16438356 107:0.090909094 108:0.2375 109:0.42647058 110:0.56164384 111:0.42647058 112:0.38271606 113:0.36231884 114:0.68421054 115:0.22807017 116:0.55102038 117:0.56363636 118:0.6388889 119:0.40425533 120:0.4050633 121:0.15254237 122:0.10465116 123:0.15555556 124:0.34545454 125:0.65333331 126:0.70103091 127:0.125 128:0.029411765 129:0.04225352 130:0 131:0.73239434 132:0.6813187 133:0.017241379 134:0.13559322 135:0.06666667 136:0 137:0.22222222 138:0.42045453 139:0.18571429 140:0.23214285 141:0.30645162 142:0.23809524 143:0.038961038 144:0.22058824 145:0.58227849 146:0.43902439 147:0.37974682 148:0.39705881 149:0.43478259 150:0.4909091 151:0.47499999 152:0.6557377 153:0.4909091 154:0.67647058 155:0.31999999 156:0.62195122 157:0.41304347 158:0.21212122 159:0.20238096 160:0.52830189 161:0.45833334 162:0.54444444 163:0.27906978 164:0.078125 165:0 166:0.013333334 167:0.48780489 168:0.64516127 169:0.2 170:0.063829787 171:0 172:0.064516127 173:0.32307693 174:0.81333333 175:0.39726028 176:0.29310346 177:0.32258064 178:0.21818182 179:0.26666668 180:0.72307694 181:0.51351351 182:0.52941179 183:0.66666669 184:0.43478259 185:0.38235295 186:0.48837209 187:0.38709676 188:0.82352942 189:0.70909089 190:0.50769234 191:0.18181819 192:0.12195122 193:0.62068963 194:0.72857141 195:0.59649122 196:0.41463414 197:0.52631581 198:0.20547946 199:0.64772725 200:0.65217394 201:0.38235295 202:0.23529412 203:0.53968257 204:0.30985916 205:0.61538464 206:0.55072463 207:0.36170211 208:0.28378379 209:0.39772728 210:0.31325302 211:0.45238096 212:0.42105263 213:0.33333334 214:0.19298245 215:0.55405408 216:0.36619717 217:0.49230769 218:0.43283582 219:0.22413793 220:0.51666665 221:0.64285713 222:0.58333331 223:0.33333334 224:0.25454545 225:0.3137255 226:0.69491524 227:0.5777778 228:0.47945204 229:0.65476191 230:0.19178082 231:0.2682927 232:0.5131579 233:0.78260869 234:0.51612902 235:0.5106383 236:0.37333333 237:0.16483517 238:0.16216215 239:0.5272727 240:0.5 241:0.51020408 242:0.44086021 243:0.22222222 244:0.24390244 245:0.25301206 246:0.30681819 247:0.42682928 248:0.25609756 249:0.16923077 250:0.094594598 251:0.27710843 252:0.26760563 253:0.53571427 254:0.43209878 255:0.42105263 256:0.50769234 257:0.53448278 258:0.625 259:0.62711865 260:0.52083331 261:0.56603771 262:0.64912283 263:0.45238096 264:0.54666668 265:0.27692309 266:0.082474224 267:0.14473684 268:0.5 269:0.43396226 270:0.56321841 271:0.22891566 272:0.125 273:0.064935066 274:0.10526316 275:0.369863 276:0.28767124 277:0.140625 278:0.18181819 279:0.057692308 280:0.25999999 281:0.6056338 282:0.21839081 283:0.40322581 284:0.27272728 285:0.27272728 286:0.24489796 287:0.58730161 288:0.42222223 
1.065869133699085 0.6585822558726028 1:0.94285715 2:0.91891891 3:0.83561641 4:0.89999998 5:0.7903226 6:0.45882353 7:0.58620691 8:0.78571427 9:0.76666665 10:0.81690139 11:0.62222224 12:0.33695653 13:0.45161289 14:0.21052632 15:0.16867469 16:0.80246913 17:0.78666669 18:0.35416666 19:0.47872341 20:0.54320985 21:0.32051283 22:0.18518518 23:0.47826087 24:0.3773585 25:0.34666666 26:0.54000002 27:0.44444445 28:0.73469388 29:0.98275864 30:0.60674155 31:0.59420288 32:0.72131145 33:0.63999999 34:1 35:1 36:0.48888889 37:0.76923078 38:0.82432431 39:0.83333331 40:0.87096775 41:0.9464286 42:0.67123288 43:0.9130435 44:0.77272725 45:0.86666667 46:0.94736844 47:0.75510204 48:0.55844158 49:0.88157892 50:0.78205127 51:0.7631579 52:0.96153843 53:0.83823532 54:0.81967211 55:0.82291669 56:0.8888889 57:0.72857141 58:0.80303031 59:0.51999998 60:0.84126985 61:0.80851066 62:0.88749999 63:0.81481481 64:0.74285716 65:0.51351351 66:0.63235295 67:0.60000002 68:0.49484536 69:0.44736841 70:0.41891891 71:0.08421053 72:0.27272728 73:0.58108109 74:0.78378379 75:0.84931505 76:0.84931505 77:1 78:0.72972971 79:0.8108108 80:0.87301588 81:0.90909094 82:0.91250002 83:0.9285714 84:0.54430377 85:0.98876405 86:0.56060606 87:0.58620691 88:0.75999999 89:0.89393938 90:0.68000001 91:0.97802198 92:0.87012988 93:0.6981132 94:0.60000002 95:0.56451613 96:0.66666669 97:0.94117647 98:0.87179488 99:1 100:0.50746268 101:0.39325842 102:0.89999998 103:0.61904764 104:0.49000001 105:0.44444445 106:0.30136988 107:0.10227273 108:0.4375 109:0.77941179 110:0.98630136 111:0.82352942 112:0.91358024 113:0.9710145 114:0.85964912 115:0.57894737 116:0.79591835 117:0.76363635 118:0.875 119:0.87234044 120:0.54430377 121:0.49152541 122:0.1627907 123:0.033333335 124:0.81818181 125:0.82666665 126:0.83505154 127:0.58333331 128:0.5147059 129:0.21126761 130:0.29411766 131:0.92957747 132:0.51648355 133:0.1724138 134:0.54237288 135:0.53333336 136:0.5090909 137:1 138:0.86363637 139:0.34285715 140:0.6785714 141:0.61290324 142:0.54761904 143:0.8831169 144:0.79411763 145:0.48101267 146:0.82926828 147:0.83544302 148:0.7647059 149:0.82608694 150:0.65454543 151:0.26249999 152:0.95081967 153:0.72727275 154:0.75 155:0.75999999 156:0.34146342 157:0.36956522 158:0.37878788 159:0.071428575 160:0.8490566 161:1 162:0.54444444 163:0.30232558 164:0.515625 165:0.20895523 166:0.37333333 167:0.81707317 168:0.52688169 169:0.14666666 170:0.5106383 171:0.59574467 172:0.51612902 173:0.52307695 174:0.42666668 175:0.32876712 176:0.7758621 177:0.64516127 178:0.70909089 179:0.6111111 180:1 181:0.17567568 182:0.38235295 183:0.59090906 184:0.55072463 185:0.55882353 186:0.45348838 187:0.72580647 188:0.94117647 189:0.96363634 190:1 191:0.78787881 192:0.52439022 193:1 194:0.64285713 195:0.63157892 196:0.79268295 197:0.91228068 198:0.60273975 199:0.95454544 200:0.75362319 201:0.69117647 202:0.68235296 203:0.77777779 204:0.71830988 205:0.85714287 206:0.98550725 207:0.95744681 208:0.58108109 209:0.38636363 210:0.42168674 211:0.75 212:0.60526317 213:0.72916669 214:0.71929824 215:0.77027029 216:0.78873241 217:0.16923077 218:0.38805971 219:0.39655173 220:0.44999999 221:0.48214287 222:0.375 223:0.78947371 224:0.90909094 225:0.94117647 226:0.96610171 227:0.75555557 228:0.71232879 229:0.98809522 230:0.69863015 231:0.75609756 232:0.84210527 233:0.78260869 234:0.80645162 235:0.77659577 236:0.75999999 237:0.59340662 238:0.82432431 239:0.76363635 240:0.88333333 241:0.87755102 242:0.86021507 243:0.83333331 244:0.69512194 245:0.27710843 246:0.48863637 247:0.80487806 248:0.73170733 249:0.50769234 250:0.41891891 251:0.38554215 252:0.71830988 253:0.83333331 254:0.92592591 255:0.97368419 256:0.90769231 257:0.86206895 258:0.546875 259:0.93220341 260:0.89583331 261:0.86792451 262:0.94736844 263:0.54761904 264:0.38666666 265:0.49230769 266:0.17525773 267:0.18421052 268:0.87037039 269:1 270:0.79310346 271:0.51807231 272:0.44999999 273:0.19480519 274:0.3508772 275:0.71232879 276:0.61643833 277:0.5625 278:0.65151513 279:0.53846157 280:0.54000002 281:0.35211268 282:0.47126436 283:0.67741936 284:0.81818181 285:0.63636363 286:0.87755102 287:0.38095239 288:0.40000001 
1.572361669124018 0 1:0.95714283 2:0.8108108 3:0.72602737 4:0.80000001 5:0.7096774 6:0.29411766 7:0.60344827 8:0.71428573 9:0.68333334 10:0.78873241 11:0.60000002 12:0.18478261 13:0.54838711 14:0.37894738 15:0.21686748 16:0.74074072 17:0.73333335 18:0.21875 19:0.55319148 20:0.56790125 21:0.3974359 22:0.27777779 23:0.44927537 24:0.23584905 25:0.47999999 26:0.47999999 27:0.44444445 28:0.63265306 29:0.5 30:0.24719101 31:0.46376812 32:0.62295079 33:0.68000001 34:0.76666665 35:0.6111111 36:0.2 37:0.6769231 38:0.71621621 39:0.72222221 40:0.7096774 41:0.875 42:0.63013697 43:0.73913044 44:0.63636363 45:0.76666665 46:0.78947371 47:0.51020408 48:0.38961038 49:0.81578946 50:0.84615386 51:0.67105263 52:0.71794873 53:0.58823532 54:0.44262296 55:0.8125 56:0.83333331 57:0.5714286 58:0.57575756 59:0.60000002 60:0.55555558 61:0.84042555 62:0.72500002 63:0.44444445 64:0.51428574 65:0.5945946 66:0.5 67:0.5714286 68:0.34020618 69:0.21052632 70:0.2027027 71:0.14736842 72:0.19191919 73:0.48648649 74:0.63513511 75:0.67123288 76:0.71232879 77:0.80327868 78:0.67567569 79:0.64864862 80:0.74603176 81:0.74545455 82:0.875 83:0.8035714 84:0.56962025 85:0.88764048 86:0.69696969 87:0.55172414 88:0.60000002 89:0.77272725 90:0.73333335 91:0.8901099 92:0.84415585 93:0.6226415 94:0.5625 95:0.59677422 96:0.61904764 97:0.74117649 98:0.74358976 99:0.78571427 100:0.40298507 101:0.43820226 102:0.91428572 103:0.44761905 104:0.37 105:0.18055555 106:0.23287672 107:0.125 108:0.51249999 109:0.63235295 110:0.86301368 111:0.7352941 112:0.74074072 113:0.85507244 114:0.89473683 115:0.52631581 116:0.73469388 117:0.67272729 118:0.79166669 119:0.76595747 120:0.48101267 121:0.55932206 122:0.37209302 123:0.26666668 124:0.70909089 125:0.60000002 126:0.71134019 127:0.25 128:0.5147059 129:0.43661973 130:0.35294119 131:0.49295774 132:0.49450549 133:0.10344828 134:0.45762712 135:0.42222223 136:0.56363636 137:0.54444444 138:0.70454544 139:0.071428575 140:0.42857143 141:0.5 142:0.54761904 143:0.77922076 144:0.75 145:0.30379745 146:0.75609756 147:0.77215189 148:0.75 149:0.84057969 150:0.72727275 151:0.1375 152:0.78688526 153:0.70909089 154:0.85294116 155:0.89999998 156:0.41463414 157:0.18478261 158:0.42424244 159:0.32142857 160:0.88679248 161:0.6111111 162:0.48888889 163:0.12790698 164:0.578125 165:0.41791046 166:0.34666666 167:0.73170733 168:0.77419353 169:0.17333333 170:0.55319148 171:0.46808511 172:0.38709676 173:0.41538462 174:0.58666664 175:0.1369863 176:0.5 177:0.58064514 178:0.41818181 179:0.32222223 180:0.73846155 181:0.41891891 182:0.52941179 183:0.63636363 184:0.63768119 185:0.72058821 186:0.72093022 187:0.64516127 188:0.91176468 189:0.80000001 190:0.8923077 191:0.77272725 192:0.63414633 193:0.80459768 194:0.71428573 195:0.57894737 196:0.68292683 197:0.70175439 198:0.53424656 199:0.86363637 200:0.81159419 201:0.54411763 202:0.52941179 203:0.46031746 204:0.50704223 205:0.7912088 206:0.78260869 207:0.68085104 208:0.48648649 209:0.27272728 210:0.3493976 211:0.70238096 212:0.56578946 213:0.58333331 214:0.63157892 215:0.74324322 216:0.90140843 217:0.60000002 218:0.65671641 219:0.55172414 220:0.63333333 221:0.71428573 222:0.68055558 223:0.7719298 224:0.85454547 225:0.88235295 226:0.86440676 227:0.66666669 228:0.57534248 229:0.9285714 230:0.72602737 231:0.69512194 232:0.71052629 233:0.52173913 234:0.5 235:0.91489363 236:0.78666669 237:0.50549453 238:0.56756759 239:0.56363636 240:0.51666665 241:0.83673471 242:0.80645162 243:0.64814812 244:0.5487805 245:0.3253012 246:0.32954547 247:0.74390244 248:0.60975611 249:0.43076923 250:0.41891891 251:0.63855422 252:0.8309859 253:0.78571427 254:0.81481481 255:0.85526317 256:0.76923078 257:0.81034482 258:0.265625 259:0.83050847 260:0.77083331 261:0.79245281 262:0.89473683 263:0.54761904 264:0.22666667 265:0.60000002 266:0.2783505 267:0.27631578 268:0.7962963 269:0.3773585 270:0.28735632 271:0.56626505 272:0.58749998 273:0.38961038 274:0.36842105 275:0.61643833 276:0.30136988 277:0.53125 278:0.68181819 279:0.38461539 280:0.57999998 281:0.47887325 282:0.20689656 283:0.48387095 284:0.5 285:0.60000002 286:0.83673471 287:0.53968257 288:0.2 
0.9603819930924419 0.1486920277340909 1:0.95714283 2:0.8108108 3:0.78082192 4:0.78750002 5:0.7096774 6:0.21176471 7:0.65517241 8:0.76785713 9:0.71666664 10:0.73239434 11:0.35555556 12:0.065217391 13:0.50537634 14:0.30526316 15:0.22891566 16:0.69135803 17:0.68000001 18:0.0625 19:0.54255319 20:0.50617284 21:0.37179488 22:0.2037037 23:0.52173913 24:0.066037737 25:0.45333335 26:0.41999999 27:0.2962963 28:0.30612245 29:0.27586207 30:0 31:0.44927537 32:0.54098362 33:0.62 34:0.44999999 35:0.18055555 36:0 37:0.75384617 38:0.78378379 39:0.79166669 40:0.82258064 41:0.96428573 42:0.60273975 43:0.71014494 44:0.59090906 45:0.68333334 46:0.82894737 47:0.71428573 48:0.45454547 49:0.88157892 50:0.71794873 51:0.57894737 52:0.74358976 53:0.86764705 54:0.49180329 55:0.875 56:0.84722221 57:0.60000002 58:0.66666669 59:0.23999999 60:0.14285715 61:0.85106385 62:0.80000001 63:0.62962961 64:0.45714286 65:0.21621622 66:0.11764706 67:0.71428573 68:0.46391752 69:0.39473686 70:0.37837839 71:0.31578946 72:0.24242425 73:0.54054052 74:0.6891892 75:0.78082192 76:0.80821919 77:0.93442625 78:0.77027029 79:0.6891892 80:0.71428573 81:0.81818181 82:0.85000002 83:0.75 84:0.59493673 85:0.8202247 86:0.71212119 87:0.51724136 88:0.62666667 89:0.69696969 90:0.86666667 91:0.83516484 92:0.85714287 93:0.75471699 94:0.53750002 95:0.12903225 96:0.50793654 97:0.78823531 98:0.78205127 99:0.90476191 100:0.49253732 101:0.20224719 102:0.58571428 103:0.56190479 104:0.54000002 105:0.44444445 106:0.49315068 107:0.30681819 108:0.52499998 109:0.61764705 110:0.89041096 111:0.7352941 112:0.79012346 113:0.92753625 114:0.9649123 115:0.45614034 116:0.77551019 117:0.63636363 118:0.80555558 119:0.72340423 120:0.37974682 121:0.42372882 122:0.30232558 123:0.15555556 124:0.60000002 125:0.53333336 126:0.74226803 127:0.35416666 128:0.47058824 129:0.29577464 130:0.14705883 131:0.32394367 132:0.50549453 133:0.12068965 134:0.42372882 135:0.2888889 136:0.40000001 137:0.18888889 138:0.5 139:0 140:0.48214287 141:0.51612902 142:0.45238096 143:0.27272728 144:0.39705881 145:0.2658228 146:0.69512194 147:0.70886075 148:0.61764705 149:0.69565219 150:0.56363636 151:0.1875 152:0.83606559 153:0.69090909 154:0.72058821 155:0.68000001 156:0.35365853 157:0.28260869 158:0.40909091 159:0.17857143 160:0.60377359 161:0.34722221 162:0.43333334 163:0.093023255 164:0.390625 165:0.29850745 166:0.21333334 167:0.65853661 168:0.82795697 169:0.053333335 170:0.46808511 171:0.27659574 172:0.37096775 173:0.36923078 174:0.75999999 175:0.10958904 176:0.53448278 177:0.54838711 178:0.54545456 179:0.27777779 180:0.6769231 181:0.081081077 182:0.23529412 183:0.39393941 184:0.43478259 185:0.52941179 186:0.44186047 187:0.54838711 188:0.83823532 189:0.83636361 190:0.95384616 191:0.75757575 192:0.57317072 193:0.81609195 194:0.75714284 195:0.63157892 196:0.73170733 197:0.42105263 198:0.53424656 199:0.86363637 200:0.82608694 201:0.60294116 202:0.5411765 203:0.33333334 204:0.50704223 205:0.80219781 206:0.89855075 207:0.82978725 208:0.6081081 209:0.31818181 210:0.51807231 211:0.65476191 212:0.57894737 213:0.625 214:0.59649122 215:0.55405408 216:0.78873241 217:0.10769231 218:0.29850745 219:0.27586207 220:0.38333333 221:0.42857143 222:0.29166666 223:0.63157892 224:0.80000001 225:0.80392158 226:0.93220341 227:0.73333335 228:0.5479452 229:0.89285713 230:0.6438356 231:0.67073172 232:0.67105263 233:0.17391305 234:0.20967741 235:0.89361703 236:0.74666667 237:0.56043959 238:0.63513511 239:0.32727271 240:0.1 241:0.90816325 242:0.83870965 243:0.68518519 244:0.56097561 245:0.3253012 246:0.19318181 247:0.74390244 248:0.58536583 249:0.52307695 250:0.35135135 251:0.45783132 252:0.52112675 253:0.78571427 254:0.77777779 255:0.7631579 256:0.72307694 257:0.7241379 258:0.09375 259:0.94915253 260:0.875 261:0.81132078 262:0.80701756 263:0.26190478 264:0.10666667 265:0.70769233 266:0.26804122 267:0.17105263 268:0.64814812 269:0.13207547 270:0.10344828 271:0.48192772 272:0.47499999 273:0.20779221 274:0.31578946 275:0.68493152 276:0 277:0.53125 278:0.60606062 279:0.26923078 280:0.40000001 281:0.73239434 282:0.21839081 283:0.58064514 284:0.57575756 285:0.4909091 286:0.42857143 287:0.44444445 288:0.23333333 
0.7775284220324472 0.1180940063839954 1:0.82857144 2:0.82432431 3:0.82191783 4:0.85000002 5:0.62903225 6:0.23529412 7:0.51724136 8:0.5714286 9:0.63333333 10:0.77464789 11:0.13333334 12:0.021739131 13:0.37634408 14:0.2631579 15:0.18072289 16:0.67901236 17:0.65333331 18:0.13541667 19:0.37234041 20:0.48148149 21:0.44871795 22:0.4074074 23:0.59420288 24:0.5471698 25:0.25333333 26:0.36000001 27:0.55555558 28:0.36734694 29:0.22413793 30:0.60674155 31:0.28985506 32:0.39344263 33:0.5 34:0.51666665 35:0.27777779 36:0.58888888 37:0.58461541 38:0.75675678 39:0.70833331 40:0.67741936 41:0.75 42:0.49315068 43:0.66666669 44:0.68181819 45:0.63333333 46:0.81578946 47:0.40816328 48:0.11688311 49:0.68421054 50:0.66666669 51:0.57894737 52:0.71794873 53:0.77941179 54:0.40983605 55:0.72916669 56:0.69444442 57:0.64285713 58:0.4848485 59:0.44 60:0.55555558 61:0.68085104 62:0.625 63:0.3888889 64:0.37142858 65:0.7972973 66:0.52941179 67:0.48571429 68:0.3298969 69:0.25 70:0.16216215 71:0.25263157 72:0.44444445 73:0.6081081 74:0.64864862 75:0.69863015 76:0.71232879 77:0.77049178 78:0.55405408 79:0.75675678 80:0.71428573 81:0.78181821 82:0.8125 83:0.5714286 84:0.31645569 85:0.8202247 86:0.45454547 87:0.53448278 88:0.63999999 89:0.59090906 90:0.58666664 91:0.83516484 92:0.72727275 93:0.67924529 94:0.64999998 95:0.5 96:0.42857143 97:0.70588237 98:0.58974361 99:0.52380955 100:0.40298507 101:0.58426964 102:1 103:0.44761905 104:0.28 105:0.15277778 106:0.34246576 107:0.34090909 108:0.64999998 109:0.64705884 110:0.83561641 111:0.83823532 112:0.81481481 113:0.85507244 114:0.70175439 115:0.49122807 116:0.51020408 117:0.63636363 118:0.75 119:0.65957445 120:0.32911393 121:0.44067797 122:0.1744186 123:0.23333333 124:0.70909089 125:0.60000002 126:0.73195875 127:0.125 128:0.30882353 129:0.43661973 130:0.44117647 131:0.63380283 132:0.54945058 133:0.068965517 134:0.27118644 135:0.46666667 136:0.56363636 137:0.3888889 138:0.375 139:0.27142859 140:0.30357143 141:0.43548387 142:0.35714287 143:0.24675325 144:0.60294116 145:0.49367088 146:0.82926828 147:0.83544302 148:0.79411763 149:0.84057969 150:0.74545455 151:0.175 152:0.67213112 153:0.61818182 154:0.83823532 155:0.63999999 156:0.2682927 157:0.20652173 158:0.22727273 159:0.20238096 160:0.73584908 161:0.54166669 162:0.33333334 163:0.11627907 164:0.390625 165:0.35820895 166:0.51999998 167:0.9512195 168:0.84946239 169:0.039999999 170:0.25531915 171:0.46808511 172:0.51612902 173:0.56923079 174:0.81333333 175:0.12328767 176:0.24137931 177:0.40322581 178:0.4909091 179:0.22222222 180:0.49230769 181:0.6081081 182:0.44117647 183:0.59090906 184:0.57971013 185:0.63235295 186:0.47674417 187:0.66129035 188:0.75 189:0.67272729 190:0.75384617 191:0.56060606 192:0.31707317 193:0.79310346 194:0.42857143 195:0.45614034 196:0.64634144 197:0.66666669 198:0.2739726 199:0.81818181 200:0.65217394 201:0.60294116 202:0.5529412 203:0.65079367 204:0.49295774 205:0.67032969 206:0.57971013 207:0.57446808 208:0.48648649 209:0.32954547 210:0.37349397 211:0.55952382 212:0.38157895 213:0.33333334 214:0.52631581 215:0.85135138 216:0.78873241 217:0.38461539 218:0.41791046 219:0.31034482 220:0.43333334 221:0.35714287 222:0.20833333 223:0.57894737 224:0.69090909 225:0.60784316 226:0.55932206 227:0.06666667 228:0.12328767 229:0.69047618 230:0.38356164 231:0.4512195 232:0.60526317 233:0.086956523 234:0.11290322 235:0.72340423 236:0.61333334 237:0.47252747 238:0.3918919 239:0.5090909 240:0.55000001 241:0.64285713 242:0.61290324 243:0.4074074 244:0.30487806 245:0.14457831 246:0.17045455 247:0.53658539 248:0.43902439 249:0.30769232 250:0.22972973 251:0.30120483 252:0.5633803 253:0.72619045 254:0.85185188 255:0.90789473 256:0.84615386 257:0.68965518 258:0.453125 259:0.69491524 260:0.5625 261:0.60377359 262:0.78947371 263:0.023809524 264:0 265:0.52307695 266:0.18556701 267:0.15789473 268:0.57407409 269:0 270:0.22988506 271:0.45783132 272:0.47499999 273:0.38961038 274:0.42105263 275:0.56164384 276:0.46575344 277:0.390625 278:0.56060606 279:0.40384614 280:0.41999999 281:0.46478873 282:0.45977011 283:0.40322581 284:0.45454547 285:0.41818181 286:0.53061223 287:0.14285715 288:0.40000001 
0.7799092416100218 0.254499538309703 1:0.84285712 2:1 3:0.94520545 4:0.91250002 5:0.87096775 6:0.81176472 7:0.60344827 8:0.78571427 9:0.73333335 10:0.78873241 11:0.51111114 12:0.6630435 13:0.45161289 14:0.45263159 15:0.12048193 16:0.55555558 17:0.70666665 18:0.51041669 19:0.45744681 20:0.64197528 21:0.43589744 22:0.055555556 23:0.14492753 24:0.59433961 25:0.30666667 26:0.54000002 27:0.6111111 28:0.42857143 29:0.39655173 30:0.60674155 31:0.36231884 32:0.50819671 33:0.46000001 34:0.66666669 35:0.54166669 36:0.63333333 37:0.63076925 38:0.78378379 39:0.80555558 40:0.91935486 41:0.96428573 42:0.57534248 43:0.85507244 44:0.80303031 45:0.73333335 46:0.84210527 47:0.85714287 48:0.62337661 49:0.90789473 50:0.94871795 51:0.64473683 52:0.87179488 53:0.7352941 54:0.60655737 55:0.86458331 56:0.93055558 57:0.74285716 58:0.74242425 59:0.31999999 60:0.50793654 61:0.75531918 62:0.73750001 63:0.5 64:0.51428574 65:0.6891892 66:0.5147059 67:0.74285716 68:0.79381442 69:0.77631581 70:0.74324322 71:0.7473684 72:0.79797977 73:0.43243244 74:0.7027027 75:0.87671232 76:0.80821919 77:0.81967211 78:0.6081081 79:0.82432431 80:0.8888889 81:0.72727275 82:0.69999999 83:0.66071427 84:0.62025315 85:0.93258429 86:0.78787881 87:0.65517241 88:0.66666669 89:0.530303 90:0.68000001 91:0.91208792 92:0.8831169 93:0.81132078 94:0.61250001 95:0.33870968 96:0.46031746 97:0.75294119 98:0.70512819 99:0.69047618 100:0.46268657 101:0.43820226 102:0.88571429 103:0.77142859 104:0.63 105:0.68055558 106:0.78082192 107:0.72727275 108:0.875 109:0.79411763 110:0.93150687 111:0.89705884 112:0.86419755 113:0.92753625 114:0.89473683 115:0.75438595 116:0.83673471 117:0.67272729 118:0.79166669 119:0.68085104 120:0.51898736 121:0.89830506 122:0.40697673 123:0.15555556 124:0.27272728 125:0.53333336 126:0.70103091 127:0.83333331 128:0.5 129:0.45070422 130:0.16176471 131:0.28169015 132:0.27472529 133:0.58620691 134:0.55932206 135:0.60000002 136:0.23636363 137:0.26666668 138:0.47727272 139:0.78571427 140:0.44642857 141:0.56451613 142:0.2857143 143:0.32467532 144:0.54411763 145:1 146:0.91463417 147:0.82278478 148:0.88235295 149:0.9710145 150:0.67272729 151:0.80000001 152:0.78688526 153:0.45454547 154:0.79411763 155:0.5 156:0.23170732 157:0.69565219 158:0.59090906 159:0.20238096 160:0.35849056 161:0.65277779 162:0.64444447 163:0.68604654 164:0.671875 165:0.43283582 166:0.17333333 167:0.74390244 168:0.83870965 169:0.70666665 170:0.72340423 171:0.63829786 172:0.33870968 173:0.24615385 174:0.56 175:0.61643833 176:0.53448278 177:0.5 178:0.43636364 179:0.18888889 180:0.61538464 181:0.3108108 182:0.54411763 183:0.81818181 184:0.69565219 185:0.67647058 186:0.47674417 187:0.82258064 188:0.86764705 189:0.65454543 190:0.73846155 191:0.43939394 192:0.51219511 193:0.86206895 194:0.69999999 195:0.59649122 196:0.63414633 197:0.49122807 198:0.49315068 199:0.90909094 200:0.85507244 201:0.63235295 202:0.62352943 203:0.42857143 204:0.50704223 205:0.80219781 206:0.82608694 207:0.78723407 208:0.66216218 209:0.28409091 210:0.37349397 211:0.60714287 212:0.4868421 213:0.5 214:0.56140351 215:0.6891892 216:0.77464789 217:0.49230769 218:0.61194032 219:0.63793105 220:0.73333335 221:0.66071427 222:0.31944445 223:0.84210527 224:0.80000001 225:0.70588237 226:0.74576271 227:0.46666667 228:0.52054793 229:0.90476191 230:0.73972601 231:0.60975611 232:0.77631581 233:0.47826087 234:0.45161289 235:0.87234044 236:0.92000002 237:0.53846157 238:0.62162161 239:0.41818181 240:0.53333336 241:0.79591835 242:0.80645162 243:0.74074072 244:0.57317072 245:0.24096386 246:0.31818181 247:0.597561 248:0.58536583 249:0.49230769 250:0.37837839 251:0.60240966 252:0.80281693 253:0.80952382 254:0.91358024 255:0.88157892 256:0.96923077 257:0.94827586 258:0.34375 259:0.66101694 260:0.75 261:0.60377359 262:0.87719297 263:0.23809524 264:0.51999998 265:0.64615387 266:0.42268041 267:0.14473684 268:0.48148149 269:0.49056605 270:0.75862068 271:0.60240966 272:0.69999999 273:0.37662336 274:0.45614034 275:0.79452056 276:0.67123288 277:0.578125 278:0.86363637 279:0.63461536 280:0.36000001 281:0.43661973 282:0.60919541 283:0.40322581 284:0.42424244 285:0.54545456 286:0.63265306 287:0.22222222 288:0.46666667 
0 0.0619876761716236 1:0.71428573 2:0.62162161 3:0.53424656 4:0.625 5:0.62903225 6:0.30588236 7:0.37931034 8:0.39285713 9:0.40000001 10:0.53521127 11:0.46666667 12:0.14130434 13:0.33333334 14:0.16842106 15:0.048192769 16:0.74074072 17:0.86666667 18:0.14583333 19:0.36170211 20:0.32098764 21:0.03846154 22:0.27777779 23:0.40579709 24:0.10377359 25:0.26666668 26:0.14 27:0.074074075 28:0.26530612 29:0.068965517 30:0.15730338 31:0.27536231 32:0.36065573 33:0.34 34:0.31666666 35:0.375 36:0.53333336 37:0.36923078 38:0.44594595 39:0.47222221 40:0.43548387 41:0.73214287 42:0.5479452 43:0.69565219 44:0.54545456 45:0.60000002 46:0.67105263 47:0.6122449 48:0.33766234 49:0.71052629 50:0.70512819 51:0.78947371 52:0.80769229 53:0.72058821 54:0.44262296 55:0.69791669 56:0.54166669 57:0.58571428 58:0.59090906 59:0.31999999 60:0.44444445 61:0.73404253 62:0.60000002 63:0.4074074 64:0.40000001 65:0.22972973 66:0.44117647 67:0.64761907 68:0.44329897 69:0.34210527 70:0.21621622 71:0.34736842 72:0.73737371 73:0.27027026 74:0.36486486 75:0.43835616 76:0.56164384 77:0.81967211 78:0.66216218 79:0.56756759 80:0.58730161 81:0.60000002 82:0.83749998 83:0.91071427 84:0.60759491 85:0.70786518 86:0.59090906 87:0.7758621 88:0.97333336 89:0.86363637 90:0.63999999 91:0.69230771 92:0.58441556 93:0.7735849 94:1 95:0.77419353 96:0.53968257 97:0.64705884 98:0.5 99:0.54761904 100:0.74626863 101:0.55056179 102:0.5714286 103:0.55238098 104:0.43000001 105:0.33333334 106:0.69863015 107:0.75 108:0.97500002 109:0.5 110:0.65753424 111:0.52941179 112:0.65432101 113:0.79710144 114:0.87719297 115:0.2631579 116:0.32653061 117:0.29090908 118:0.58333331 119:0.74468082 120:0.62025315 121:0.32203391 122:0.10465116 123:0 124:0.56363636 125:0.86666667 126:0.89690721 127:0.27083334 128:0.13235295 129:0.028169014 130:0.088235296 131:0.76056337 132:0.51648355 133:0.12068965 134:0.16949153 135:0.06666667 136:0.25454545 137:0.48888889 138:0.46590909 139:0.15714286 140:0.32142857 141:0.32258064 142:0.45238096 143:0.51948053 144:0.41176471 145:0.43037975 146:0.5487805 147:0.50632912 148:0.58823532 149:0.884058 150:0.70909089 151:0.125 152:0.54098362 153:0.32727271 154:0.66176468 155:0.83999997 156:0.42682928 157:0.23913044 158:0.1969697 159:0.071428575 160:0.66037738 161:0.90277779 162:0.5 163:0.11627907 164:0.15625 165:0.029850746 166:0.22666667 167:0.87804878 168:0.74193549 169:0.06666667 170:0 171:0.021276595 172:0.38709676 173:0.7846154 174:0.74666667 175:0.16438356 176:0.29310346 177:0.38709676 178:0.60000002 179:0.58888888 180:0.53846157 181:0.040540539 182:0.11764706 183:0.27272728 184:0.37681159 185:0.55882353 186:0.56976742 187:0.45161289 188:0.70588237 189:0.63636363 190:0.8923077 191:0.95454544 192:0.63414633 193:0.67816091 194:0.61428571 195:0.84210527 196:1 197:1 198:0.47945204 199:0.68181819 200:0.53623188 201:0.7352941 202:1 203:0.79365081 204:0.53521127 205:0.64835167 206:0.50724638 207:0.5106383 208:0.78378379 209:0.55681819 210:0.55421686 211:0.51190478 212:0.40789473 213:0.35416666 214:0.71929824 215:0.7027027 216:0.84507042 217:0.18461539 218:0.20895523 219:0.10344828 220:0.13333334 221:0.26785713 222:0.43055555 223:0.50877196 224:0.56363636 225:0.54901963 226:0.59322035 227:0.40000001 228:0.4520548 229:0.76190478 230:0.49315068 231:0.69512194 232:0.65789473 233:0.36956522 234:0.51612902 235:0.71276593 236:0.53333336 237:0.49450549 238:0.56756759 239:0.4909091 240:0.46666667 241:0.68367344 242:0.62365592 243:0.35185185 244:0.46341464 245:0.30120483 246:0.30681819 247:0.57317072 248:0.4512195 249:0.26153848 250:0.16216215 251:0.26506025 252:0.52112675 253:0.6785714 254:0.62962961 255:0.56578946 256:0.55384618 257:0.74137932 258:0.390625 259:0.62711865 260:0.41666666 261:0.33962265 262:0.59649122 263:0.16666667 264:0.18666667 265:0.46153846 266:0.12371134 267:0.078947365 268:0.64814812 269:0.26415095 270:0.37931034 271:0.3253012 272:0.28749999 273:0 274:0.3508772 275:0.57534248 276:0.32876712 277:0.28125 278:0.30303031 279:0 280:0.44 281:0.54929578 282:0.21839081 283:0.30645162 284:0.34848484 285:0.30909091 286:0.2857143 287:0.19047619 288:0.27777779 
0.9661020275087958 0.5318676951734935 1:0.64285713 2:0.58108109 3:0.43835616 4:0.53750002 5:0.74193549 6:0.24705882 7:0.31034482 8:0.32142857 9:0.31666666 10:0.46478873 11:0.46666667 12:0.065217391 13:0.25806451 14:0.12631579 15:0.060240965 16:0.61728394 17:0.75999999 18:0.21875 19:0.22340426 20:0.24691358 21:0.051282052 22:0.27777779 23:0.44927537 24:0.13207547 25:0.17333333 26:0.1 27:0 28:0.24489796 29:0.18965517 30:0 31:0.23188406 32:0.29508197 33:0.23999999 34:0.34999999 35:0.41666666 36:0.24444444 37:0.26153848 38:0.33783785 39:0.34722221 40:0.32258064 41:0.625 42:0.5479452 43:0.53623188 44:0.43939394 45:0.44999999 46:0.57894737 47:0.3877551 48:0.32467532 49:0.64473683 50:0.69230771 51:0.65789473 52:0.67948717 53:0.55882353 54:0.44262296 55:0.67708331 56:0.5 57:0.44285715 58:0.45454547 59:0.30000001 60:0.26984128 61:0.72340423 62:0.53750002 63:0.25925925 64:0.40000001 65:0.36486486 66:0.39705881 67:0.5714286 68:0.42268041 69:0.27631578 70:0.16216215 71:0.15789473 72:0.5959596 73:0.21621622 74:0.28378379 75:0.369863 76:0.52054793 77:0.73770493 78:0.66216218 79:0.47297296 80:0.49206349 81:0.58181816 82:0.80000001 83:0.875 84:0.58227849 85:0.64044946 86:0.5151515 87:0.84482759 88:1 89:0.80303031 90:0.49333334 91:0.62637365 92:0.51948053 93:0.75471699 94:0.94999999 95:0.59677422 96:0.41269842 97:0.60000002 98:0.51282054 99:0.5714286 100:0.67164177 101:0.44943821 102:0.77142859 103:0.50476193 104:0.38999999 105:0.33333334 106:0.61643833 107:0.56818181 108:0.72500002 109:0.5147059 110:0.57534248 111:0.44117647 112:0.61728394 113:0.78260869 114:0.7719298 115:0.43859649 116:0.18367347 117:0.2 118:0.55555558 119:0.70212764 120:0.56962025 121:0.50847459 122:0 123:0.022222223 124:0.58181816 125:0.82666665 126:0.82474226 127:0.3125 128:0.13235295 129:0.070422538 130:0.17647059 131:0.74647886 132:0.54945058 133:0.25862068 134:0.11864407 135:0 136:0.27272728 137:0.47777778 138:0.57954544 139:0.34285715 140:0.23214285 141:0.29032257 142:0.26190478 143:0.51948053 144:0.64705884 145:0.54430377 146:0.52439022 147:0.48101267 148:0.4852941 149:0.73913044 150:0.76363635 151:0.375 152:0.39344263 153:0.16363636 154:0.55882353 155:0.75999999 156:0.52439022 157:0.40217391 158:0 159:0.05952381 160:0.60377359 161:0.68055558 162:0.53333336 163:0.25581396 164:0.078125 165:0.044776119 166:0.16 167:0.76829267 168:0.80645162 169:0.2 170:0.17021276 171:0.04255319 172:0.27419356 173:0.47692308 174:0.60000002 175:0.24657534 176:0.27586207 177:0.33870968 178:0.40000001 179:0.33333334 180:0.53846157 181:0 182:0.014705882 183:0.18181819 184:0.27536231 185:0.4852941 186:0.58139533 187:0.33870968 188:0.55882353 189:0.4909091 190:0.86153847 191:1 192:0.74390244 193:0.56321841 194:0.48571429 195:0.71929824 196:0.97560978 197:0.82456142 198:0.42465752 199:0.61363637 200:0.44927537 201:0.66176468 202:0.88235295 203:0.58730161 204:0.30985916 205:0.52747256 206:0.43478259 207:0.38297874 208:0.62162161 209:0.31818181 210:0.38554215 211:0.44047618 212:0.32894737 213:0.33333334 214:0.71929824 215:0.74324322 216:0.88732392 217:0.2 218:0.1641791 219:0 220:0.050000001 221:0.23214285 222:0.41666666 223:0.42105263 224:0.56363636 225:0.52941179 226:0.50847459 227:0.44444445 228:0.46575344 229:0.72619045 230:0.52054793 231:0.69512194 232:0.60526317 233:0.19565217 234:0.14516129 235:0.71276593 236:0.56 237:0.48351648 238:0.55405408 239:0.30909091 240:0.2 241:0.69387758 242:0.58064514 243:0.2962963 244:0.47560975 245:0.12048193 246:0.125 247:0.597561 248:0.48780489 249:0.27692309 250:0.22972973 251:0.24096386 252:0.40845069 253:0.61904764 254:0.56790125 255:0.53947371 256:0.53846157 257:0.63793105 258:0.234375 259:0.50847459 260:0.33333334 261:0.28301886 262:0.50877196 263:0.19047619 264:0.093333334 265:0.38461539 266:0.10309278 267:0.065789476 268:0.57407409 269:0.13207547 270:0.20689656 271:0.3253012 272:0.30000001 273:0.012987013 274:0.2631579 275:0.39726028 276:0.24657534 277:0.28125 278:0.39393941 279:0.057692308 280:0.31999999 281:0.22535211 282:0 283:0.27419356 284:0.33333334 285:0.29090908 286:0.34693879 287:0.25396827 288:0.033333335 
0.3407999660816236 0 1:0.74285716 2:0.78378379 3:0.71232879 4:0.76249999 5:0.64516127 6:0.69411767 7:0.39655173 8:0.60714287 9:0.60000002 10:0.61971831 11:0.48888889 12:0.61956519 13:0.37634408 14:0.2631579 15:0.16867469 16:0.80246913 17:0.98666668 18:0.60416669 19:0.39361703 20:0.38271606 21:0.24358974 22:0.48148149 23:0.884058 24:0.58490568 25:0.26666668 26:0.36000001 27:0.35185185 28:0.6122449 29:0.43103448 30:0.37078652 31:0.34782609 32:0.54098362 33:0.46000001 34:0.61666667 35:0.375 36:0.43333334 37:0.63076925 38:0.66216218 39:0.7361111 40:0.7096774 41:0.8035714 42:0.69863015 43:0.60869563 44:0.62121212 45:0.80000001 46:0.84210527 47:0.5714286 48:0.5714286 49:0.64473683 50:0.75641024 51:0.90789473 52:1 53:0.70588237 54:0.80327868 55:0.72916669 56:0.68055558 57:0.82857144 58:0.9848485 59:0.36000001 60:0.71428573 61:0.71276593 62:0.71249998 63:0.72222221 64:0.74285716 65:0.17567568 66:0.47058824 67:0.61904764 68:0.64948452 69:0.77631581 70:0.86486489 71:0.62105262 72:0.77777779 73:0.51351351 74:0.56756759 75:0.63013697 76:0.63013697 77:0.63934427 78:0.47297296 79:0.74324322 80:0.76190478 81:0.74545455 82:0.77499998 83:0.625 84:0.37974682 85:0.84269661 86:0.72727275 87:0.7758621 88:0.66666669 89:0.75757575 90:0.50666666 91:0.81318682 92:0.75324672 93:0.79245281 94:0.67500001 95:0.27419356 96:0.34920636 97:0.84705883 98:0.71794873 99:0.64285713 100:0.47761193 101:0.15730338 102:0.30000001 103:0.70476192 104:0.62 105:0.43055555 106:0.53424656 107:0.56818181 108:0.60000002 109:0.94117647 110:0.86301368 111:0.75 112:0.76543212 113:0.81159419 114:0.87719297 115:0.82456142 116:0.55102038 117:0.58181816 118:0.70833331 119:0.5106383 120:0.46835443 121:0.779661 122:0.24418604 123:0.2 124:0.67272729 125:0.75999999 126:0.90721649 127:0.66666669 128:0.29411766 129:0.25352111 130:0.19117647 131:0.63380283 132:0.85714287 133:0.56896549 134:0.27118644 135:0.31111112 136:0.14545454 137:0.18888889 138:0.60227275 139:0.69999999 140:0.39285713 141:0.5 142:0.2857143 143:0.16883117 144:0.4852941 145:0.64556962 146:0.65853661 147:0.69620252 148:0.61764705 149:0.68115944 150:0.69090909 151:0.5 152:0.6557377 153:0.5272727 154:0.70588237 155:0.41999999 156:0.24390244 157:0.57608694 158:0.36363637 159:0.25 160:0.75471699 161:0.54166669 162:0.2888889 163:0.59302324 164:0.515625 165:0.2238806 166:0.25333333 167:0.46341464 168:0.40860215 169:0.56 170:0.4893617 171:0.31914893 172:0.27419356 173:0.13846155 174:0.42666668 175:0.63013697 176:0.48275861 177:0.43548387 178:0.40000001 179:0.022222223 180:0.44615385 181:0.43243244 182:0.5147059 183:0.66666669 184:0.50724638 185:0.35294119 186:0.36046511 187:0.69354838 188:0.9852941 189:0.96363634 190:0.95384616 191:0.71212119 192:0.5 193:0.87356323 194:0.8142857 195:1 196:0.86585367 197:0.57894737 198:0.30136988 199:0.88636363 200:0.76811594 201:0.83823532 202:0.7764706 203:0.47619048 204:0.33802816 205:0.86813188 206:0.81159419 207:0.89361703 208:0.75675678 209:0.23863636 210:0.28915662 211:0.89285713 212:0.72368419 213:0.72916669 214:0.68421054 215:0.74324322 216:0.80281693 217:0.41538462 218:0.52238804 219:0.43103448 220:0.38333333 221:0.26785713 222:0.25 223:0.59649122 224:0.69090909 225:0.74509805 226:0.83050847 227:0.71111113 228:0.78082192 229:0.73809522 230:0.58904111 231:0.73170733 232:0.81578946 233:0.41304347 234:0.80645162 235:0.73404253 236:0.66666669 237:0.59340662 238:0.71621621 239:0.36363637 240:0.64999998 241:0.69387758 242:0.69892472 243:0.62962961 244:0.75609756 245:0.24096386 246:0.45454547 247:0.5 248:0.5487805 249:0.47692308 250:0.55405408 251:0.53012049 252:0.73239434 253:0.64285713 254:0.69135803 255:0.71052629 256:0.66153848 257:0.81034482 258:0.828125 259:0.59322035 260:0.52083331 261:0.56603771 262:0.70175439 263:0.26190478 264:0.74666667 265:0.44615385 266:0.21649484 267:0.18421052 268:0.62962961 269:0.28301886 270:0.71264368 271:0.49397591 272:0.48750001 273:0.23376623 274:0.03508772 275:0.2739726 276:0.53424656 277:0.453125 278:0.59090906 279:0.38461539 280:0.44 281:0.42253521 282:0.48275861 283:0.40322581 284:0.4848485 285:0.56363636 286:0.69387758 287:0.11111111 288:0.30000001 
-0.2226533555346628 0 1:0.55714285 2:0.77027029 3:0.86301368 4:0.77499998 5:0.64516127 6:0.27058825 7:0.31034482 8:0.51785713 9:0.66666669 10:0.73239434 11:0.62222224 12:0.29347825 13:0.30107528 14:0.38947368 15:0.38554215 16:0.69135803 17:0.86666667 18:0.3125 19:0.30851063 20:0.46913579 21:0.57692307 22:0.42592594 23:0.47826087 24:0.29245284 25:0.40000001 26:0.63999999 27:0.5925926 28:0.55102038 29:0.53448278 30:0.26966292 31:0.57971013 32:0.73770493 33:0.57999998 34:0.41666666 35:0.44444445 36:0.34444445 37:0.35384616 38:0.47297296 39:0.55555558 40:0.59677422 41:0.66071427 42:0.43835616 43:0.57971013 44:0.40909091 45:0.46666667 46:0.7631579 47:0.53061223 48:0.41558442 49:0.56578946 50:0.56410259 51:0.13157895 52:0.48717949 53:0.32352942 54:0.3442623 55:0.71875 56:0.84722221 57:0.34285715 58:0.30303031 59:0.059999999 60:0.41269842 61:0.67021275 62:0.69999999 63:0.3888889 64:0.35714287 65:0.2972973 66:0.47058824 67:0.56190479 68:0.52577317 69:0.61842108 70:0.7027027 71:0.62105262 72:0.60606062 73:0.32432431 74:0.58108109 75:0.60273975 76:0.50684929 77:0.44262296 78:0.4054054 79:0.5945946 80:0.71428573 81:0.70909089 82:0.60000002 83:0.42857143 84:0.39240506 85:0.75280899 86:0.59090906 87:0.22413793 88:0.34666666 89:0.4848485 90:0.56 91:0.83516484 92:0.92207789 93:0.47169811 94:0.2375 95:0 96:0.047619049 97:0.71764708 98:0.82051283 99:0.52380955 100:0.25373134 101:0.28089887 102:0.40000001 103:0.60952383 104:0.69999999 105:0.56944442 106:0.38356164 107:0.43181819 108:0.5625 109:0.72058821 110:0.87671232 111:0.7352941 112:0.7037037 113:0.63768119 114:0.40350878 115:0.64912283 116:0.51020408 117:0.5272727 118:0.69444442 119:0.40425533 120:0.35443038 121:0.62711865 122:0.40697673 123:0.33333334 124:0.54545456 125:0.50666666 126:0.63917524 127:0.54166669 128:0.45588234 129:0.49295774 130:0.35294119 131:0.36619717 132:0.29670331 133:0.48275861 134:0.67796612 135:0.73333335 136:0.30909091 137:0.33333334 138:0.27272728 139:0.58571428 140:0.73214287 141:0.7096774 142:0.26190478 143:0.3116883 144:0.20588236 145:0.65822786 146:0.81707317 147:0.84810126 148:0.7352941 149:0.73913044 150:0.40000001 151:0.53750002 152:0.67213112 153:0.4909091 154:0.66176468 155:0.40000001 156:0.048780486 157:0.54347825 158:0.59090906 159:0.33333334 160:0.5471698 161:0.41666666 162:0.37777779 163:0.44186047 164:0.703125 165:0.50746268 166:0.40000001 167:0.47560975 168:0.62365592 169:0.46666667 170:0.89361703 171:0.72340423 172:0.41935483 173:0.35384616 174:0.45333335 175:0.47945204 176:0.70689654 177:0.58064514 178:0.30909091 179:0.24444444 180:0.18461539 181:0.16216215 182:0.44117647 183:0.65151513 184:0.47826087 185:0.35294119 186:0.27906978 187:0.54838711 188:0.83823532 189:0.63636363 190:0.50769234 191:0.12121212 192:0.20731707 193:0.74712646 194:0.6857143 195:0.24561404 196:0.35365853 197:0.2631579 198:0.16438356 199:0.875 200:0.89855075 201:0.30882353 202:0.094117649 203:0.19047619 204:0.12676056 205:0.83516484 206:0.9130435 207:0.53191489 208:0.3108108 209:0.31818181 210:0.27710843 211:0.65476191 212:0.67105263 213:0.375 214:0.28070176 215:0.32432431 216:0.38028169 217:0.26153848 218:0.40298507 219:0.44827586 220:0.58333331 221:0.42857143 222:0.29166666 223:0.50877196 224:0.25454545 225:0.37254903 226:0.71186441 227:0.53333336 228:0.61643833 229:0.60714287 230:0.26027396 231:0.17073171 232:0.52631581 233:0.36956522 234:0.46774194 235:0.59574467 236:0.65333331 237:0.23076923 238:0.14864865 239:0.16363636 240:0.43333334 241:0.5714286 242:0.69892472 243:0.3888889 244:0.35365853 245:0.31325302 246:0.40909091 247:0.40243903 248:0.41463414 249:0.24615385 250:0.22972973 251:0.28915662 252:0.50704223 253:0.6785714 254:0.82716048 255:0.75 256:0.84615386 257:0.81034482 258:0.375 259:0.44067797 260:0.45833334 261:0.49056605 262:0.7368421 263:0.47619048 264:0.37333333 265:0.47692308 266:0.34020618 267:0.19736843 268:0.68518519 269:0.56603771 270:0.41379312 271:0.42168674 272:0.63749999 273:0.42857143 274:0.47368422 275:0.68493152 276:0.28767124 277:0.421875 278:0.78787881 279:0.51923078 280:0.40000001 281:0.5633803 282:0.28735632 283:0.43548387 284:0.59090906 285:0.40000001 286:0.32653061 287:0.34920636 288:0.31111112 
-0.2849888496616021 0 1:0.8142857 2:0.87837839 3:0.83561641 4:0.8125 5:0.62903225 6:0.70588237 7:0.58620691 8:0.8214286 9:0.94999999 10:0.91549295 11:0.64444447 12:0.8369565 13:0.44086021 14:0.17894737 15:0.22891566 16:0.69135803 17:0.68000001 18:0.70833331 19:0.5106383 20:0.49382716 21:0.62820512 22:0.62962961 23:0.50724638 24:0.73584908 25:0.63999999 26:0.89999998 27:0.7962963 28:0.71428573 29:0.27586207 30:0.8202247 31:0.72463769 32:0.78688526 33:0.77999997 34:0.21666667 35:0.083333336 36:0.75555557 37:0.72307694 38:0.77027029 39:0.7361111 40:0.74193549 41:0.8035714 42:0.43835616 43:0.78260869 44:0.69696969 45:0.73333335 46:0.80263156 47:0.55102038 48:0.2857143 49:0.69736844 50:0.56410259 51:0.52631581 52:0.75641024 53:0.60294116 54:0.36065573 55:0.875 56:0.58333331 57:0.31428573 58:0.42424244 59:0.18000001 60:0.42857143 61:0.97872341 62:0.91250002 63:0.53703701 64:0.31428573 65:0.16216215 66:0.36764705 67:0.83809525 68:0.78350514 69:0.59210527 70:0.5945946 71:0.51578945 72:0.75757575 73:0.6081081 74:0.6891892 75:0.76712328 76:0.76712328 77:0.77049178 78:0.51351351 79:0.74324322 80:0.77777779 81:0.80000001 82:0.77499998 83:0.66071427 84:0.4050633 85:0.8202247 86:0.45454547 87:0.41379312 88:0.61333334 89:0.83333331 90:0.50666666 91:0.91208792 92:0.76623374 93:0.28301886 94:0.40000001 95:0.3548387 96:0.38095239 97:0.96470588 98:0.94871795 99:0.66666669 100:0.46268657 101:0.29213482 102:0.37142858 103:0.8952381 104:0.81 105:0.77777779 106:0.76712328 107:0.61363637 108:0.625 109:0.72058821 110:0.72602737 111:0.7647059 112:0.74074072 113:0.78260869 114:0.63157892 115:0.59649122 116:0.77551019 117:0.89090908 118:0.95833331 119:0.85106385 120:0.50632912 121:0.44067797 122:0.069767445 123:0.18888889 124:0.5090909 125:0.58666664 126:0.71134019 127:0.4375 128:0.41176471 129:0.53521127 130:0.42647058 131:0.57746476 132:0.60439563 133:0.44827586 134:0.72881359 135:0.73333335 136:0.4909091 137:0.44444445 138:0.61363637 139:0.42857143 140:0.66071427 141:0.64516127 142:0.38095239 143:0.15584415 144:0.22058824 145:0.43037975 146:0.78048778 147:0.69620252 148:0.7647059 149:0.66666669 150:0.54545456 151:0.22499999 152:0.73770493 153:0.78181821 154:1 155:0.66000003 156:0.40243903 157:0.28260869 158:0.13636364 159:0.19047619 160:0.75471699 161:0.3888889 162:0.44444445 163:0.25581396 164:0.390625 165:0.35820895 166:0.23999999 167:0.5487805 168:0.53763443 169:0.31999999 170:0.78723407 171:0.76595747 172:0.3548387 173:0.56923079 174:0.56 175:0.32876712 176:0.68965518 177:0.67741936 178:0.40000001 179:0.30000001 180:0.46153846 181:0.94594592 182:0.86764705 183:0.92424244 184:0.76811594 185:0.79411763 186:0.61627907 187:0.74193549 188:0.86764705 189:0.78181821 190:0.81538463 191:0.57575756 192:0.39024389 193:0.78160918 194:0.5 195:0.42105263 196:0.65853661 197:0.71929824 198:0.39726028 199:0.94318181 200:0.60869563 201:0.30882353 202:0.45882353 203:0.55555558 204:0.33802816 205:0.84615386 206:0.79710144 207:0.5106383 208:0.47297296 209:0.47727272 210:0.46987951 211:0.85714287 212:0.75 213:0.54166669 214:0.61403507 215:0.5 216:0.49295774 217:0.69230771 218:0.83582091 219:0.81034482 220:0.89999998 221:0.9285714 222:0.875 223:0.70175439 224:0.89090908 225:0.90196079 226:0.88135594 227:0.60000002 228:0.42465752 229:0.77380955 230:0.50684929 231:0.68292683 232:0.72368419 233:0.5869565 234:0.54838711 235:0.95744681 236:0.77333331 237:0.36263737 238:0.5 239:0.38181818 240:0.46666667 241:0.90816325 242:0.88172042 243:0.6111111 244:0.48780489 245:0.30120483 246:0.43181819 247:0.82926828 248:0.81707317 249:0.53846157 250:0.5 251:0.38554215 252:0.50704223 253:0.72619045 254:0.71604937 255:0.72368419 256:0.64615387 257:0.65517241 258:0.625 259:0.86440676 260:0.79166669 261:0.81132078 262:0.87719297 263:0.54761904 264:0.62666667 265:0.63076925 266:0.11340206 267:0.13157895 268:0.68518519 269:0.20754717 270:0.78160918 271:0.60240966 272:0.46250001 273:0.35064936 274:0.2631579 275:0.19178082 276:0.75342464 277:0.703125 278:0.89393938 279:0.59615386 280:0.57999998 281:0.30985916 282:0.71264368 283:0.66129035 284:0.77272725 285:0.63636363 286:0.40816328 287:0.22222222 288:0.54444444 
