svm_type c_svc
kernel_type rbf
gamma 0.09
nr_class 2
total_sv 76
rho -0.195275
label 2 3
nr_sv 47 29
SV
0.1671048193016616 1:0.3773585 2:0.4742268 3:0.27927929 4:0.14166667 5:0.13 6:0.37037036 7:0.50515461 8:0.57317072 9:0.29347825 10:0.29166666 11:0.53012049 12:0.44067797 13:0.50561798 14:0.34722221 15:0.22972973 16:0.30337077 17:0.49382716 18:0.40350878 19:0.43617022 20:0.27380952 21:0.23404256 22:0.20454545 23:0.45454547 24:0.31481481 25:0.16483517 26:0.12790698 27:0.14893617 28:0.17647059 29:0.34146342 30:0.25961539 31:0.43010753 32:0.4074074 33:0.44578314 34:0.39534885 35:0.43010753 36:0.47663552 37:0.26495728 38:0.3888889 39:0.28695652 40:0.12727273 41:0.24242425 42:0.32222223 43:0.53424656 44:0.52941179 45:0.38571429 46:0.29870129 47:0.7352941 48:0.61194032 49:0.53947371 50:0.60975611 51:0.49350649 52:0.31999999 53:0.51282054 54:0.50704223 55:0.44303799 56:0.47368422 57:0.44565219 58:0.24324325 59:0.42696628 60:0.5487805 61:0.16 62:0.05882353 63:0.04225352 64:0.26666668 65:0.34666666 66:0.38157895 67:0.31707317 68:0.25 69:0.18478261 70:0.24175824 71:0.25999999 72:0.34615386 73:0.41860464 74:0.41176471 75:0.28971961 76:0.26956522 77:0.15686275 78:0.19417475 79:0.53246754 80:0.55555558 81:0.43283582 82:0.55421686 83:0.74324322 84:0.58749998 85:0.55696201 86:0.53750002 87:0.5 88:0.52054793 89:0.54285717 90:0.34567901 91:0.40229884 92:0.4054054 93:0.42857143 94:0.46575344 95:0.43835616 96:0.41176471 97:0.27472529 98:0.026666667 99:0.12857144 100:0.23880596 101:0.38028169 102:0.61445785 103:0.39285713 104:0.21428572 105:0.23595506 106:0.29347825 107:0.3488372 108:0.36585367 109:0.46067417 110:0.375 111:0.2970297 112:0.34453782 113:0.13131313 114:0.14772727 115:0.57894737 116:0.60526317 117:0.36781609 118:0.46846846 119:0.59375 120:0.56962025 121:0.53921568 122:0.43333334 123:0.42352942 124:0.43298969 125:0.58823532 126:0.44565219 127:0.38235295 128:0.34042552 129:0.36170211 130:0.2962963 131:0.2857143 132:0.45045045 133:0.26548672 134:0.1827957 135:0.18888889 136:0.22448979 137:0.33707866 138:0.49462366 139:0.49565217 140:0.37755102 141:0.34065935 142:0.38709676 143:0.4642857 144:0.43333334 145:0.40594059 146:0.29885057 147:0.33644861 148:0.35897437 149:0.26086956 150:0.24324325 151:0.31428573 152:0.33720931 153:0.26595744 154:0.20192307 155:0.36363637 156:0.31 157:0.21904762 158:0.2 159:0.21951219 160:0.22222222 161:0.45652175 162:0.64705884 163:0.2920354 164:0.35576922 165:0.40366971 166:0.37894738 167:0.40206185 168:0.66386557 169:0.36521739 170:0.32631579 171:0.2783505 172:0.27722773 173:0.29807693 174:0.30000001 175:0.46153846 176:0.42391303 177:0.40229884 178:0.50515461 179:0.47368422 180:0.48958334 181:0.3883495 182:0.3883495 183:0.4180328 184:0.58715594 185:0.5925926 186:0.6179775 187:0.3125 188:0.36065573 189:0.22666667 190:0.22727273 191:0.46987951 192:0.35064936 193:0.24324325 194:0.23076923 195:0.296875 196:0.16216215 197:0.2238806 198:0.15492958 199:0.2682927 200:0.42857143 201:0.52293581 202:0.36046511 203:0.34615386 204:0.3493976 205:0.44155845 206:0.38297874 207:0.37804878 208:0.35443038 209:0.49473685 210:0.50537634 211:0.51724136 212:0.37634408 213:0.29807693 214:0.26804122 215:0.38461539 216:0.31132075 217:0.41463414 218:0.38999999 219:0.48623854 220:0.48739496 221:0.5043478 222:0.64406782 223:0.33333334 224:0.44776121 225:0.25974026 226:0.27472529 227:0.40579709 228:0.24390244 229:0.33766234 230:0.33333334 231:0.22857143 232:0.20481928 233:0.30303031 234:0.25352111 235:0.41666666 236:0.5 237:0.48039216 238:0.39534885 239:0.4050633 240:0.27272728 241:0.51162791 242:0.34831461 243:0.44303799 244:0.33333334 245:0.50505048 246:0.53488374 247:0.4528302 248:0.41414142 249:0.35416666 250:0.34408602 251:0.38202247 252:0.36904761 253:0.42045453 254:0.34117648 255:0.27192983 256:0.19827586 257:0.18446602 258:0.50442475 259:0.46250001 260:0.48780489 261:0.20408164 262:0.2 263:0.29896906 264:0.31 265:0.32584271 266:0.27710843 267:0.1827957 268:0.24242425 269:0.4868421 270:0.34 271:0.35576922 272:0.33644861 273:0.29090908 274:0.27586207 275:0.45652175 276:0.25510204 277:0.25531915 278:0.26595744 279:0.25252524 280:0.25252524 281:0.24742268 282:0.39130434 283:0.38709676 284:0.32978722 285:0.41 286:0.47777778 287:0.51086956 288:0.57608694 
0.1032449593965861 1:0.12264151 2:0.13402061 3:0 4:0.033333335 5:0 6:0.055555556 7:0.13402061 8:0.14634146 9:0 10:0.15625 11:0.39759037 12:0.033898305 13:0.12359551 14:0 15:0.027027028 16:0.13483146 17:0.33333334 18:0.070175439 19:0.21276596 20:0.20238096 21:0.24468085 22:0.15909091 23:0.35353535 24:0.11111111 25:0 26:0.011627907 27:0.021276595 28:0.070588239 29:0.25609756 30:0.30769232 31:0.15053764 32:0.13580246 33:0.20481928 34:0.3255814 35:0.43010753 36:0.56074768 37:0.11965812 38:0.21296297 39:0.060869563 40:0.054545455 41:0.25252524 42:0.1 43:0.15068494 44:0.17647059 45:0 46:0.15584415 47:0.61764705 48:0.14925373 49:0.21052632 50:0.30487806 51:0.23376623 52:0.18666667 53:0.1923077 54:0.084507041 55:0.21518987 56:0.31578946 57:0.46739131 58:0.3918919 59:0.32584271 60:0.19512194 61:0.14666666 62:0.023529412 63:0.056338027 64:0.28 65:0.49333334 66:0.32894737 67:0.20731707 68:0.095238097 69:0.25 70:0.31868133 71:0.38999999 72:0.53846157 73:0.23255815 74:0.25490198 75:0.15887851 76:0.12173913 77:0.2254902 78:0.18446602 79:0.32467532 80:0.17460318 81:0.13432837 82:0.15662651 83:0.67567569 84:0.47499999 85:0.35443038 86:0.41249999 87:0.375 88:0.34246576 89:0.30000001 90:0.098765433 91:0.37931034 92:0.47297296 93:0.53246754 94:0.42465752 95:0.47945204 96:0.44705883 97:0.37362638 98:0.14666666 99:0.27142859 100:0.40298507 101:0.40845069 102:0.62650603 103:0.36607143 104:0.22619048 105:0.38202247 106:0.48913044 107:0.52325583 108:0.58536583 109:0.39325842 110:0.22499999 111:0.28712872 112:0.2184874 113:0.14141414 114:0.10227273 115:0.37894738 116:0.34210527 117:0.31034482 118:0.21621622 119:0.36458334 120:0.62025315 121:0.44117647 122:0.34444445 123:0.36470589 124:0.29896906 125:0.47058824 126:0.40217391 127:0.41176471 128:0.42553192 129:0.5 130:0.37037036 131:0.39285713 132:0.54954952 133:0.3539823 134:0.27956989 135:0.27777779 136:0.26530612 137:0.33707866 138:0.52688169 139:0.33913043 140:0.33673468 141:0.30769232 142:0.41935483 143:0.55952382 144:0.47777778 145:0.32673267 146:0.19540229 147:0.36448598 148:0.2820513 149:0.22608696 150:0.1981982 151:0.29523811 152:0.20930232 153:0.30851063 154:0.23076923 155:0.29292929 156:0.33000001 157:0.32380953 158:0.21250001 159:0.34146342 160:0.33333334 161:0.63043481 162:0.65882355 163:0.36283186 164:0.38461539 165:0.47706422 166:0.37894738 167:0.42268041 168:0.52100843 169:0.28695652 170:0.24210526 171:0.25773194 172:0.26732674 173:0.36538461 174:0.37 175:0.25 176:0.22826087 177:0.32183909 178:0.4742268 179:0.48421052 180:0.52083331 181:0.28155339 182:0.46601942 183:0.55737704 184:0.72477067 185:0.76851851 186:0.73033708 187:0.22499999 188:0.21311475 189:0.13333334 190:0.19318181 191:0.50602412 192:0.32467532 193:0.33783785 194:0.26153848 195:0.359375 196:0.24324325 197:0.47761193 198:0.33802816 199:0.30487806 200:0.44897959 201:0.55963302 202:0.48837209 203:0.41025642 204:0.30120483 205:0.22077923 206:0.26595744 207:0.29268292 208:0.27848101 209:0.42105263 210:0.47311828 211:0.26436782 212:0.20430107 213:0.23076923 214:0.29896906 215:0.39423078 216:0.33962265 217:0.24390244 218:0.38 219:0.65137613 220:0.68067229 221:0.6695652 222:0.779661 223:0.16666667 224:0.19402985 225:0.064935066 226:0.10989011 227:0.39130434 228:0.20731707 229:0.19480519 230:0.23188406 231:0.18571429 232:0.12048193 233:0.16666667 234:0.18309858 235:0.26190478 236:0.41 237:0.50980395 238:0.46511629 239:0.27848101 240:0.077922076 241:0.12790698 242:0.11235955 243:0.2658228 244:0.21212122 245:0.42424244 246:0.37209302 247:0.16037735 248:0.13131313 249:0.1875 250:0.21505377 251:0.42696628 252:0.40476191 253:0.18181819 254:0.05882353 255:0.02631579 256:0.043103449 257:0.048543688 258:0.61061949 259:0.21250001 260:0.21951219 261:0.030612245 262:0.063636363 263:0.26804122 264:0.30000001 265:0.23595506 266:0.16867469 267:0.16129032 268:0.25252524 269:0.7368421 270:0.46000001 271:0.25 272:0.36448598 273:0.36363637 274:0.27586207 275:0.51086956 276:0.18367347 277:0 278:0.031914894 279:0.05050505 280:0.18181819 281:0.19587629 282:0.23913044 283:0.10752688 284:0.074468084 285:0.27000001 286:0.41111112 287:0.42391303 288:0.42391303 
0.03862168407868377 1:0.38679245 2:0.44329897 3:0.46846846 4:0.34166667 5:0.28999999 6:0.33333334 7:0.49484536 8:0.5487805 9:0.53260869 10:0.4375 11:0.61445785 12:0.39830509 13:0.57303369 14:0.58333331 15:0.52702701 16:0.38202247 17:0.46913579 18:0.60526317 19:0.52127659 20:0.61904764 21:0.63829786 22:0.71590906 23:0.71717173 24:0.58333331 25:0.51648355 26:0.61627907 27:0.5 28:0.5411765 29:0.597561 30:0.49038461 31:0.54838711 32:0.48148149 33:0.55421686 34:0.53488374 35:0.63440859 36:0.71028036 37:0.34188035 38:0.42592594 39:0.57391304 40:0.36363637 41:0.41414142 42:0.37777779 43:0.53424656 44:0.42647058 45:0.61428571 46:0.42857143 47:0.85294116 48:0.47761193 49:0.68421054 50:0.69512194 51:0.66233766 52:0.49333334 53:0.43589744 54:0.36619717 55:0.4556962 56:0.56578946 57:0.71739131 58:0.78378379 59:0.58426964 60:0.43902439 61:0.56 62:0.49411765 63:0.5633803 64:0.45333335 65:0.25333333 66:0.28947368 67:0.40243903 68:0.38095239 69:0.42391303 70:0.43956044 71:0.5 72:0.39423078 73:0.38372093 74:0.35294119 75:0.54205608 76:0.40000001 77:0.27450982 78:0.33980581 79:0.51948053 80:0.38095239 81:0.49253732 82:0.36144578 83:0.66216218 84:0.63749999 85:0.58227849 86:0.58749998 87:0.47222221 88:0.4520548 89:0.34285715 90:0.27160493 91:0.49425286 92:0.64864862 93:0.62337661 94:0.56164384 95:0.56164384 96:0.80000001 97:0.54945058 98:0.47999999 99:0.47142857 100:0.44776121 101:0.28169015 102:0.44578314 103:0.4375 104:0.29761904 105:0.35955057 106:0.46739131 107:0.5 108:0.43902439 109:0.47191012 110:0.1875 111:0.41584158 112:0.36134455 113:0.2020202 114:0.30681819 115:0.48421052 116:0.38157895 117:0.45977011 118:0.37837839 119:0.41666666 120:0.68354428 121:0.55882353 122:0.5 123:0.41176471 124:0.39175257 125:0.44705883 126:0.32608697 127:0.47058824 128:0.5106383 129:0.43617022 130:0.41975307 131:0.52380955 132:0.55855858 133:0.4159292 134:0.53763443 135:0.43333334 136:0.39795917 137:0.57303369 138:0.44086021 139:0.53043479 140:0.53061223 141:0.51648355 142:0.53763443 143:0.72619045 144:0.48888889 145:0.41584158 146:0.12643678 147:0.38317758 148:0.35042736 149:0.27826086 150:0.25225225 151:0.50476193 152:0.38372093 153:0.52127659 154:0.49038461 155:0.53535354 156:0.47999999 157:0.47619048 158:0.47499999 159:0.46341464 160:0.44444445 161:0.60869563 162:0.71764708 163:0.460177 164:0.61538464 165:0.63302749 166:0.57894737 167:0.3298969 168:0.51260507 169:0.40869564 170:0.62105262 171:0.53608245 172:0.56435645 173:0.36538461 174:0.46000001 175:0.39423078 176:0.5 177:0.57471263 178:0.65979379 179:0.57894737 180:0.5 181:0.47572815 182:0.43689319 183:0.53278691 184:0.49541286 185:0.39814815 186:0.30337077 187:0.53750002 188:0.57377046 189:0.70666665 190:0.47727272 191:0.54216868 192:0.41558442 193:0.56756759 194:0.56923079 195:0.609375 196:0.51351351 197:0.46268657 198:0.36619717 199:0.57317072 200:0.68367344 201:0.75229359 202:0.69767439 203:0.47435898 204:0.28915662 205:0.50649351 206:0.54255319 207:0.63414633 208:0.60759491 209:0.61052632 210:0.51612902 211:0.50574714 212:0.40860215 213:0.42307693 214:0.38144329 215:0.51923078 216:0.35849056 217:0.34146342 218:0.34999999 219:0.5321101 220:0.44537815 221:0.33043477 222:0.36440679 223:0.38461539 224:0.43283582 225:0.70129871 226:0.46153846 227:0.56521738 228:0.39024389 229:0.54545456 230:0.50724638 231:0.5 232:0.38554215 233:0.31818181 234:0.38028169 235:0.63095236 236:0.70999998 237:0.71568626 238:0.55813956 239:0.50632912 240:0.38961038 241:0.52325583 242:0.58426964 243:0.72151899 244:0.75757575 245:0.79797977 246:0.86046511 247:0.49056605 248:0.41414142 249:0.36458334 250:0.41935483 251:0.60674155 252:0.60714287 253:0.32954547 254:0.11764706 255:0.33333334 256:0.31896552 257:0.26213592 258:0.460177 259:0.48750001 260:0.4512195 261:0.46938777 262:0.37272727 263:0.46391752 264:0.55000001 265:0.49438202 266:0.44578314 267:0.3548387 268:0.30303031 269:0.77631581 270:0.44 271:0.50961536 272:0.53271025 273:0.5090909 274:0.43678162 275:0.31521741 276:0.37755102 277:0.40425533 278:0.53191489 279:0.47474748 280:0.57575756 281:0.31958762 282:0.52173913 283:0.52688169 284:0.43617022 285:0.56 286:0.73333335 287:0.60869563 288:0.71739131 
0.5535928000925746 1:0.23584905 2:0.28865978 3:0.14414415 4:0 5:0.12 6:0.2962963 7:0.2783505 8:0.31707317 9:0.086956523 10:0 11:0.3253012 12:0.36440679 13:0.25842696 14:0.097222224 15:0 16:0.11235955 17:0.33333334 18:0.22807017 19:0.32978722 20:0.2857143 21:0.20212767 22:0.34090909 23:0.42424244 24:0.43518519 25:0.27472529 26:0.23255815 27:0.063829787 28:0.17647059 29:0.20731707 30:0.28846154 31:0.47311828 32:0.2962963 33:0.12048193 34:0.11627907 35:0.19354838 36:0.28971961 37:0.18803419 38:0.26851851 39:0.2 40:0 41:0.080808081 42:0.26666668 43:0.28767124 44:0.29411766 45:0.22857143 46:0.19480519 47:0.5 48:0.41791046 49:0.32894737 50:0.47560975 51:0.4025974 52:0.45333335 53:0.52564102 54:0.38028169 55:0.43037975 56:0.40789473 57:0.40217391 58:0.55405408 59:0.52808988 60:0.35365853 61:0.36000001 62:0.24705882 63:0.18309858 64:0.18666667 65:0.039999999 66:0.21052632 67:0.40243903 68:0.23809524 69:0.17391305 70:0.18681319 71:0.22 72:0.31730768 73:0.26744187 74:0.21568628 75:0.19626169 76:0.11304348 77:0.078431375 78:0.2038835 79:0.37662336 80:0.26984128 81:0.25373134 82:0.37349397 83:0.6081081 84:0.41249999 85:0.39240506 86:0.375 87:0.3611111 88:0.43835616 89:0.48571429 90:0.41975307 91:0.31034482 92:0.28378379 93:0.3116883 94:0.30136988 95:0.43835616 96:0.64705884 97:0.2857143 98:0.053333335 99:0.17142858 100:0.10447761 101:0.056338027 102:0.21686748 103:0.29464287 104:0.071428575 105:0.15730338 106:0.23913044 107:0.29069766 108:0.36585367 109:0.44943821 110:0.1875 111:0.16831683 112:0.21008404 113:0 114:0.10227273 115:0.46315789 116:0.27631578 117:0.11494253 118:0.27027026 119:0.36458334 120:0.55696201 121:0.42156863 122:0.24444444 123:0.10588235 124:0.19587629 125:0.28235295 126:0.32608697 127:0.37254903 128:0.30851063 129:0.22340426 130:0.19753087 131:0.40476191 132:0.5045045 133:0.21238938 134:0.021505376 135:0.033333335 136:0.081632651 137:0.29213482 138:0.27956989 139:0.35652173 140:0.13265306 141:0.07692308 142:0.19354838 143:0.19047619 144:0.13333334 145:0.71287131 146:0.11494253 147:0.22429906 148:0.18803419 149:0.017391304 150:0.0990991 151:0.4952381 152:0.12790698 153:0.13829787 154:0.057692308 155:0.01010101 156:0.19 157:0.43809524 158:0.0625 159:0.085365854 160:0 161:0.19565217 162:0.3764706 163:0.34513274 164:0.22115384 165:0.21100917 166:0.052631579 167:0.25773194 168:0.36134455 169:0.22608696 170:0 171:0 172:0.099009901 173:0.1826923 174:0.30000001 175:0.1826923 176:0.13043478 177:0.18390805 178:0.30927834 179:0.2 180:0.26041666 181:0.33009708 182:0.28155339 183:0.43442622 184:0.70642203 185:0.39814815 186:0.28089887 187:0.22499999 188:0.14754099 189:0 190:0 191:0 192:0.11688311 193:0.1891892 194:0.092307694 195:0.125 196:0 197:0.059701491 198:0.12676056 199:0.23170732 200:0.30612245 201:0.35779816 202:0.24418604 203:0.15384616 204:0.10843374 205:0.12987013 206:0 207:0.024390243 208:0.11392405 209:0.29473683 210:0.31182796 211:0.20689656 212:0.096774191 213:0.1826923 214:0.14432989 215:0.25 216:0.23584905 217:0.39024389 218:0.70999998 219:0.88990825 220:0.73949581 221:0.85217392 222:0.90677965 223:0.15384616 224:0.14925373 225:0.025974026 226:0 227:0.26086956 228:0.14634146 229:0.16883117 230:0.1594203 231:0.071428575 232:0 233:0 234:0.070422538 235:0.2857143 236:0.37 237:0.34313726 238:0.26744187 239:0.18987341 240:0.11688311 241:0.24418604 242:0.033707865 243:0 244:0.060606062 245:0.35353535 246:0.38372093 247:0.32075471 248:0.21212122 249:0.083333336 250:0.12903225 251:0.29213482 252:0.34523809 253:0.17045455 254:0.094117649 255:0.13157895 256:0.017241379 257:0.24271844 258:0.460177 259:0.175 260:0.15853658 261:0.010204081 262:0 263:0.4742268 264:0.46000001 265:0.23595506 266:0.19277108 267:0.010752688 268:0.030303031 269:0.36842105 270:0.23999999 271:0.31730768 272:0.29906541 273:0.14545454 274:0 275:0.20652173 276:0.23469388 277:0.23404256 278:0.08510638 279:0.01010101 280:0.16161616 281:0.10309278 282:0.16304348 283:0.3548387 284:0.20212767 285:0.23 286:0.30000001 287:0.30434781 288:0.33695653 
0.1007531608501269 1:0.41509435 2:0.4742268 3:0.2972973 4:0.29166666 5:0.25999999 6:0.28703704 7:0.28865978 8:0.43902439 9:0.18478261 10:0.60416669 11:0.56626505 12:0.33050847 13:0.29213482 14:0.2638889 15:0.22972973 16:0.84269661 17:0.55555558 18:0.64035088 19:0.36170211 20:0.52380955 21:0.46808511 22:0.79545456 23:0.74747473 24:0.75 25:0.21978022 26:0.30232558 27:0.38297874 28:0.47058824 29:0.57317072 30:0.50961536 31:0.29032257 32:0.2962963 33:0.54216868 34:0.56976742 35:0.63440859 36:0.52336448 37:0.2905983 38:0.4537037 39:0.44347826 40:0.44545454 41:0.55555558 42:0.45555556 43:0.31506848 44:0.42647058 45:0.32857144 46:0.35064936 47:0.63235295 48:0.25373134 49:0.38157895 50:0.58536583 51:0.50649351 52:0.34666666 53:0.41025642 54:0.21126761 55:0.43037975 56:0.68421054 57:0.72826087 58:0.45945945 59:0.21348314 60:0.20731707 61:0.38666666 62:0.31764707 63:0.53521127 64:0.56 65:0.53333336 66:0.39473686 67:0.70731705 68:0.5714286 69:0.5 70:0.51648355 71:0.56 72:0.53846157 73:0.31395349 74:0.47058824 75:0.56074768 76:0.5826087 77:0.65686274 78:0.74757284 79:0.33766234 80:0.3968254 81:0.28358209 82:0.30120483 83:0.6891892 84:0.375 85:0.34177214 86:0.48750001 87:0.45833334 88:0.34246576 89:0.40000001 90:0.19753087 91:0.36781609 92:0.67567569 93:0.75324672 94:0.4520548 95:0.38356164 96:0.27058825 97:0.38461539 98:0.28 99:0.55714285 100:0.65671641 101:0.6056338 102:0.33734939 103:0.53571427 104:0.4642857 105:0.60674155 106:0.65217394 107:0.73255813 108:0.68292683 109:0.37078652 110:0.33750001 111:0.24752475 112:0.26890758 113:0.27272728 114:0.30681819 115:0.32631579 116:0.34210527 117:0.19540229 118:0.23423423 119:0.53125 120:0.79746836 121:0.34313726 122:0.2888889 123:0.25882354 124:0.30927834 125:0.82352942 126:0.94565219 127:0.28431374 128:0.47872341 129:0.60638297 130:0.53086418 131:0.9285714 132:0.8018018 133:0.27433628 134:0.29032257 135:0.37777779 136:0.35714287 137:0.60674155 138:0.52688169 139:0.33913043 140:0.2857143 141:0.43956044 142:0.51612902 143:0.65476191 144:0.54444444 145:0.26732674 146:0.24137931 147:0.29906541 148:0.31623933 149:0.27826086 150:0.24324325 151:0.2857143 152:0.3488372 153:0.23404256 154:0.34615386 155:0.60606062 156:0.23999999 157:0.24761905 158:0.27500001 159:0.35365853 160:0.43333334 161:0.70652175 162:0.15294118 163:0.32743362 164:0.55769229 165:0.61467892 166:0.40000001 167:0.3298969 168:0.71428573 169:0.26086956 170:0.30526316 171:0.36082473 172:0.36633664 173:0.52884614 174:0.70999998 175:0.28846154 176:0.30434781 177:0.57471263 178:0.70103091 179:0.62105262 180:0.5 181:0.52427185 182:0.47572815 183:0.62295079 184:0.65137613 185:0.69444442 186:0.78651685 187:0.30000001 188:0.55737704 189:0.36000001 190:0.28409091 191:0.6506024 192:0.46753246 193:0.33783785 194:0.47692308 195:0.5 196:0.3108108 197:0.52238804 198:0.32394367 199:0.41463414 200:0.76530612 201:0.81651378 202:0.59302324 203:0.48717949 204:0.48192772 205:0.27272728 206:0.27659574 207:0.40243903 208:0.5316456 209:0.68421054 210:0.72043014 211:0.36781609 212:0.26881722 213:0.44230768 214:0.49484536 215:0.50961536 216:0.41509435 217:0.70731705 218:0.75999999 219:0.73394495 220:0.70588237 221:0.6695652 222:0.66949153 223:0.33333334 224:0.49253732 225:0.33766234 226:0.36263737 227:0.31884059 228:0.21951219 229:0.36363637 230:0.42028984 231:0.45714286 232:0.37349397 233:0.33333334 234:0.18309858 235:0.48809522 236:0.69 237:0.82352942 238:0.69767439 239:0.49367088 240:0.42857143 241:0.3488372 242:0.26966292 243:0.50632912 244:0.68181819 245:0.74747473 246:0.68604654 247:0.3490566 248:0.36363637 249:0.46875 250:0.44086021 251:0.5955056 252:0.42857143 253:0.35227272 254:0.30588236 255:0.25438598 256:0.27586207 257:0.21359223 258:0.4159292 259:0.33750001 260:0.47560975 261:0.27551019 262:0.26363635 263:0.50515461 264:0.55000001 265:0.29213482 266:0.36144578 267:0.31182796 268:0.32323232 269:0.34210527 270:0.56 271:0.40384614 272:0.62616825 273:0.60909092 274:0.56321841 275:0.40217391 276:0.45918366 277:0.24468085 278:0.27659574 279:0.3131313 280:0.5151515 281:0.50515461 282:0.56521738 283:0.37634408 284:0.26595744 285:0.55000001 286:0.69999999 287:0.6630435 288:0.54347825 
0.2399527853227886 1:0.3773585 2:0.50515461 3:0.27927929 4:0.30000001 5:0.28999999 6:0.3888889 7:0.29896906 8:0.4512195 9:0.20652173 10:0.40625 11:0.71084338 12:0.34745762 13:0.34831461 14:0.375 15:0.2027027 16:0.33707866 17:0.69135803 18:0.66666669 19:0.39361703 20:0.63095236 21:0.57446808 22:0.5 23:0.76767677 24:0.89814812 25:0.25274727 26:0.48837209 27:0.61702126 28:0.50588238 29:0.68292683 30:0.74038464 31:0.32258064 32:0.35802469 33:0.54216868 34:0.5 35:0.51612902 36:0.55140185 37:0.34188035 38:0.51851851 39:0.40000001 40:0.34545454 41:0.57575756 42:0.45555556 43:0.2739726 44:0.41176471 45:0.34285715 46:0.33766234 47:0.60294116 48:0.20895523 49:0.32894737 50:0.597561 51:0.53246754 52:0.34666666 53:0.38461539 54:0.22535211 55:0.44303799 56:0.7368421 57:0.86956519 58:0.67567569 59:0.22471911 60:0.34146342 61:0.40000001 62:0.58823532 63:0.90140843 64:0.75999999 65:0.62666667 66:0.57894737 67:0.53658539 68:0.29761904 69:0.29347825 70:0.30769232 71:0.47 72:0.50961536 73:0.41860464 74:0.46078432 75:0.38317758 76:0.35652173 77:0.5 78:0.45631069 79:0.37662336 80:0.36507937 81:0.31343284 82:0.3493976 83:0.48648649 84:0.4375 85:0.36708862 86:0.47499999 87:0.45833334 88:0.369863 89:0.32857144 90:0.17283951 91:0.36781609 92:0.6891892 93:0.83116883 94:0.6438356 95:0.21917808 96:0.17647059 97:0.43956044 98:0.50666666 99:0.80000001 100:0.83582091 101:0.66197181 102:0.48192772 103:0.5089286 104:0.26190478 105:0.26966292 106:0.32608697 107:0.48837209 108:0.65853661 109:0.34831461 110:0.34999999 111:0.31683168 112:0.26890758 113:0.22222222 114:0.35227272 115:0.36842105 116:0.38157895 117:0.21839081 118:0.27027026 119:0.45833334 120:0.83544302 121:0.36274511 122:0.37777779 123:0.27058825 124:0.31958762 125:0.69411767 126:0.36956522 127:0.32352942 128:0.57446808 129:0.56382978 130:0.60493827 131:0.69047618 132:0.41441441 133:0.32743362 134:0.44086021 135:0.54444444 136:0.68367344 137:0.62921351 138:0.53763443 139:0.33913043 140:0.29591838 141:0.49450549 142:0.44086021 143:0.55952382 144:0.44444445 145:0.2970297 146:0.28735632 147:0.37383178 148:0.32478634 149:0.26086956 150:0.21621622 151:0.24761905 152:0.33720931 153:0.35106382 154:0.39423078 155:0.62626261 156:0.36000001 157:0.27619049 158:0.34999999 159:0.39024389 160:0.45555556 161:0.82608694 162:0.85882354 163:0.33628318 164:0.52884614 165:0.66972476 166:0.70526314 167:0.85567009 168:0.9579832 169:0.32173914 170:0.48421052 171:0.61855668 172:0.65346533 173:0.75 174:0.79000002 175:0.32692307 176:0.33695653 177:0.55172414 178:0.76288658 179:0.63157892 180:0.59375 181:0.44660193 182:0.41747573 183:0.43442622 184:0.52293581 185:0.47222221 186:0.48314607 187:0.27500001 188:0.50819671 189:0.42666668 190:0.35227272 191:0.33734939 192:0.25974026 193:0.32432431 194:0.52307695 195:0.46875 196:0.32432431 197:0.26865673 198:0.28169015 199:0.37804878 200:0.79591835 201:0.89908254 202:0.79069769 203:0.42307693 204:0.39759037 205:0.33766234 206:0.5 207:0.76829267 208:0.70886075 209:0.54736841 210:0.60215056 211:0.47126436 212:0.39784947 213:0.46153846 214:0.49484536 215:0.60576922 216:0.46226415 217:0.4512195 218:0.46000001 219:0.50458717 220:0.46218488 221:0.40869564 222:0.5 223:0.34615386 224:0.55223882 225:0.4025974 226:0.38461539 227:0.73913044 228:0.34146342 229:0.33766234 230:0.42028984 231:0.42857143 232:0.3493976 233:0.4848485 234:0.30985916 235:0.51190478 236:0.79000002 237:0.86274511 238:0.72093022 239:0.4556962 240:0.36363637 241:0.41860464 242:0.56179774 243:0.87341774 244:0.71212119 245:0.52525252 246:0.58139533 247:0.36792454 248:0.38383839 249:0.52083331 250:0.45161289 251:0.60674155 252:0.52380955 253:0.375 254:0.3764706 255:0.30701753 256:0.25 257:0.18446602 258:0.53097343 259:0.32499999 260:0.52439022 261:0.27551019 262:0.27272728 263:0.58762884 264:0.56999999 265:0.33707866 266:0.39759037 267:0.31182796 268:0.30303031 269:0.78947371 270:0.66000003 271:0.40384614 272:0.62616825 273:0.62727273 274:0.49425286 275:0.77173913 276:0.6122449 277:0.29787233 278:0.4893617 279:0.54545456 280:0.57575756 281:0.69072163 282:0.67391306 283:0.31182796 284:0.27659574 285:0.56 286:0.74444443 287:0.65217394 288:0.6630435 
0.9057663625996509 1:0.49056605 2:0.56701028 3:0.45045045 4:0.52499998 5:0.89999998 6:0.16666667 7:0.36082473 8:0.42682928 9:0.42391303 10:0.27083334 11:0.3493976 12:0.25423729 13:0.42696628 14:0.55555558 15:0.37837839 16:0.77528089 17:0.72839504 18:0.50877196 19:0.31914893 20:0.52380955 21:0.41489363 22:0.75 23:0.5959596 24:0.50925928 25:0.45054945 26:0.40697673 27:0.5106383 28:0.5529412 29:0.597561 30:0.43269232 31:0.39784947 32:0.30864197 33:0.28915662 34:0.3255814 35:0.3548387 36:0.36448598 37:0.30769232 38:0.37037036 39:0.39130434 40:0.13636364 41:0 42:0.088888891 43:0.46575344 44:0.55882353 45:0.44285715 46:0.25974026 47:0.05882353 48:0.029850746 49:0.43421054 50:0.62195122 51:0.58441556 52:0.45333335 53:0.26923078 54:0.098591551 55:0.32911393 56:0.22368421 57:0.19565217 58:0 59:0.11235955 60:0.15853658 61:0.44 62:0.30588236 63:0.43661973 64:0.40000001 65:0.47999999 66:0.43421054 67:0.30487806 68:0.15476191 69:0.22826087 70:0.2857143 71:0.44999999 72:0.54807693 73:0.37209302 74:0.29411766 75:0.42056075 76:0.30434781 77:0 78:0 79:0.32467532 80:0.41269842 81:0.41791046 82:0.39759037 83:0.21621622 84:0.037500001 85:0.48101267 86:0.55000001 87:0.6388889 88:0.46575344 89:0.22857143 90:0.24691358 91:0.40229884 92:0.2972973 93:0.20779221 94:0 95:0 96:0.12941177 97:0.46153846 98:0.29333332 99:0.37142858 100:0.52238804 101:0.54929578 102:0.42168674 103:0.33035713 104:0.05952381 105:0.20224719 106:0.34782609 107:0.46511629 108:0.597561 109:0.58426964 110:0.42500001 111:0.42574257 112:0.40336135 113:0.52525252 114:1 115:0.43157893 116:0.2631579 117:0.33333334 118:0.36036035 119:0.38541666 120:0.21518987 121:0.52941179 122:0.46666667 123:0.36470589 124:0.43298969 125:0.70588237 126:0.84782606 127:0.43137255 128:0.42553192 129:0.43617022 130:0.18518518 131:0.44047618 132:0.72072071 133:0.49557522 134:0.44086021 135:0.43333334 136:0.48979592 137:0.5955056 138:0.45161289 139:0.52173913 140:0.26530612 141:0.32967034 142:0.32258064 143:0.39285713 144:0.43333334 145:0.44554454 146:0.33333334 147:0.49532712 148:0.37606838 149:0.63478261 150:0.54954952 151:0.37142858 152:0.31395349 153:0.41489363 154:0.38461539 155:0.67676765 156:0.89999998 157:0.40952381 158:0.41249999 159:0.52439022 160:0.45555556 161:0.35869566 162:0.34117648 163:0.42477876 164:0.54807693 165:0.60550457 166:0.30526316 167:0.43298969 168:0.72268909 169:0.46086955 170:0.35789475 171:0.57731956 172:0.6732673 173:0.63461536 174:0.68000001 175:0.48076922 176:0.40217391 177:0.48275861 178:0.57731956 179:0.48421052 180:0.53125 181:0.29126215 182:0.32038835 183:0.35245901 184:0.28440368 185:0.33333334 186:0.22471911 187:0.27500001 188:0.32786885 189:0.33333334 190:0.36363637 191:0.51807231 192:0.36363637 193:0.36486486 194:0.49230769 195:0.6875 196:0.51351351 197:0.17910448 198:0.15492958 199:0.34146342 200:0.51020408 201:0.49541286 202:0.41860464 203:0.74358976 204:0.74698794 205:0.24675325 206:0.18085106 207:0.23170732 208:0.36708862 209:0.53684211 210:0.64516127 211:0.41379312 212:0.34408602 213:0.39423078 214:0.3298969 215:0.44230768 216:0.33962265 217:0.39024389 218:0.31999999 219:0.40366971 220:0.27731094 221:0.20869565 222:0.18644068 223:0.35897437 224:0.34328359 225:0.32467532 226:0.2857143 227:0.28985506 228:0.14634146 229:0.42857143 230:0.52173913 231:0.47142857 232:0.38554215 233:0.015151516 234:0 235:0.51190478 236:0.57999998 237:0.50980395 238:0.53488374 239:0.64556962 240:0.54545456 241:0.44186047 242:0.23595506 243:0.30379745 244:0.31818181 245:0.5151515 246:0.56976742 247:0.43396226 248:0.37373737 249:0.33333334 250:0.31182796 251:0.50561798 252:0.42857143 253:0.47727272 254:0.42352942 255:0.42105263 256:0.33620688 257:0.56310678 258:0.48672566 259:0.375 260:0.39024389 261:0.37755102 262:0.39090911 263:0.81443298 264:0.51999998 265:0.48314607 266:0.55421686 267:0.37634408 268:0.25252524 269:0.22368421 270:0.12 271:0.39423078 272:0.51401871 273:0.5 274:0.35632184 275:0.2173913 276:0.2857143 277:0.32978722 278:0.29787233 279:0.49494949 280:0.63636363 281:0.44329897 282:0.39130434 283:0.39784947 284:0.32978722 285:0.46000001 286:0.56666666 287:0.55434781 288:0.42391303 
0.1743492520551486 1:0.5 2:0.51546389 3:0.26126125 4:0.18333334 5:0.28 6:0.2962963 7:0.45360824 8:0.41463414 9:0.15217391 10:0.28125 11:0.62650603 12:0.27966103 13:0.48314607 14:0.2361111 15:0.12162162 16:0.14606741 17:0.34567901 18:0.33333334 19:0.56382978 20:0.44047618 21:0.4893617 22:0.43181819 23:0.58585858 24:0.47222221 25:0.52747256 26:0.27906978 27:0.18085106 28:0.23529412 29:0.52439022 30:0.34615386 31:0.54838711 32:0.30864197 33:0.20481928 34:0.38372093 35:0.61290324 36:0.57943922 37:0.42735043 38:0.53703701 39:0.46086955 40:0.29090908 41:0.42424244 42:0.3888889 43:0.39726028 44:0.38235295 45:0.27142859 46:0.16883117 47:0.72058821 48:0.47761193 49:0.38157895 50:0.48780489 51:0.38961038 52:0.18666667 53:0.20512821 54:0.3943662 55:0.41772151 56:0.40789473 57:0.52173913 58:0.36486486 59:0.52808988 60:0.65853661 61:0.34666666 62:0.12941177 63:0.098591551 64:0.31999999 65:0.69333333 66:0.4868421 67:0.31707317 68:0.22619048 69:0.22826087 70:0.31868133 71:0.46000001 72:0.45192307 73:0.59302324 74:0.50980395 75:0.52336448 76:0.46086955 77:0.33333334 78:0.43689319 79:0.42857143 80:0.33333334 81:0.43283582 82:0.39759037 83:0.48648649 84:0.83749998 85:0.35443038 86:0.34999999 87:0.43055555 88:0.369863 89:0.25714287 90:0.22222222 91:0.27586207 92:0.36486486 93:0.49350649 94:0.63013697 95:0.63013697 96:0.48235294 97:0.32967034 98:0.10666667 99:0.18571429 100:0.3283582 101:0.50704223 102:0.75903612 103:0.3125 104:0.19047619 105:0.30337077 106:0.40217391 107:0.56976742 108:0.65853661 109:0.50561798 110:0.38749999 111:0.40594059 112:0.45378152 113:0.3131313 114:0.27272728 115:0.35789475 116:0.34210527 117:0.27586207 118:0.4054054 119:0.375 120:0.70886075 121:0.32352942 122:0.34444445 123:0.23529412 124:0.34020618 125:0.36470589 126:0.39130434 127:0.2647059 128:0.44680852 129:0.43617022 130:0.51851851 131:0.61904764 132:0.6036036 133:0.23893805 134:0.31182796 135:0.26666668 136:0.3877551 137:0.6179775 138:0.82795697 139:0.32173914 140:0.36734694 141:0.34065935 142:0.47311828 143:0.70238096 144:0.73333335 145:0.22772278 146:0.24137931 147:0.39252338 148:0.37606838 149:0.40000001 150:0.34234235 151:0.2 152:0.30232558 153:0.37234041 154:0.26923078 155:0.34343433 156:0.34999999 157:0.19047619 158:0.27500001 159:0.37804878 160:0.45555556 161:0.78260869 162:0.92941177 163:0.30088496 164:0.53846157 165:0.56880736 166:0.62105262 167:0.59793812 168:0.74789917 169:0.2 170:0.45263159 171:0.46391752 172:0.50495052 173:0.45192307 174:0.43000001 175:0.24038461 176:0.29347825 177:0.35632184 178:0.57731956 179:0.61052632 180:0.59375 181:0.15533981 182:0.21359223 183:0.23770492 184:0.33944955 185:0.52777779 186:0.66292137 187:0.21250001 188:0.27868852 189:0.25333333 190:0.22727273 191:0.56626505 192:0.48051947 193:0.28378379 194:0.33846155 195:0.40625 196:0.22972973 197:0.55223882 198:0.61971831 199:0.28048781 200:0.40816328 201:0.47706422 202:0.53488374 203:0.41025642 204:0.39759037 205:0.29870129 206:0.34042552 207:0.43902439 208:0.60759491 209:0.7157895 210:0.73118281 211:0.34482759 212:0.25806451 213:0.30769232 214:0.36082473 215:0.54807693 216:0.53773582 217:0.2682927 218:0.23999999 219:0.23853211 220:0.30252102 221:0.43478259 222:0.53389829 223:0.26923078 224:0.26865673 225:0.18181819 226:0.25274727 227:0.26086956 228:0.46341464 229:0.33766234 230:0.27536231 231:0.25714287 232:0.12048193 233:0.25757575 234:0.45070422 235:0.35714287 236:0.38999999 237:0.55882353 238:0.54651165 239:0.30379745 240:0.22077923 241:0.39534885 242:0.28089887 243:0.50632912 244:0.5151515 245:0.67676765 246:0.82558137 247:0.39622641 248:0.33333334 249:0.28125 250:0.34408602 251:0.58426964 252:0.71428573 253:0.47727272 254:0.23529412 255:0.21052632 256:0.1637931 257:0.29126215 258:0.36283186 259:0.44999999 260:0.32926831 261:0.14285715 262:0.16363636 263:0.22680412 264:0.30000001 265:0.48314607 266:0.27710843 267:0.21505377 268:0.26262626 269:0.80263156 270:0.67000002 271:0.59615386 272:0.42990655 273:0.46363637 274:0.28735632 275:0.47826087 276:0.37755102 277:0.47872341 278:0.35106382 279:0.3131313 280:0.35353535 281:0.29896906 282:0.25 283:0.55913979 284:0.24468085 285:0.31 286:0.48888889 287:0.63043481 288:0.47826087 
0.04982161009430063 1:0.3018868 2:0.22680412 3:0 4:0.125 5:0.23999999 6:0.19444445 7:0.20618556 8:0.073170729 9:0.086956523 10:0.35416666 11:0.77108431 12:0.24576271 13:0.21348314 14:0.055555556 15:0.14864865 16:0.24719101 17:0.51851851 18:0.31578946 19:0.26595744 20:0.40476191 21:0.41489363 22:0.27272728 23:0.32323232 24:0.49074075 25:0.0989011 26:0.11627907 27:0.22340426 28:0.1882353 29:0.35365853 30:0.33653846 31:0.3548387 32:0.35802469 33:0.63855422 34:0.6511628 35:0.66666669 36:0.56074768 37:0.22222222 38:0.25925925 39:0.09565217 40:0.027272727 41:0.37373737 42:0.30000001 43:0.1780822 44:0.05882353 45:0.057142857 46:0.1038961 47:0.42647058 48:0.17910448 49:0.17105263 50:0.25609756 51:0.32467532 52:0.22666667 53:0.38461539 54:0.33802816 55:0.21518987 56:0.32894737 57:0.35869566 58:0.33783785 59:0.50561798 60:0.47560975 61:0.10666667 62:0.10588235 63:0.26760563 64:0.44 65:0.51999998 66:0.43421054 67:0.20731707 68:0.22619048 69:0.39130434 70:0.3956044 71:0.47 72:0.43269232 73:0.23255815 74:0.21568628 75:0.10280374 76:0.069565214 77:0.38235295 78:0.30097088 79:0.2857143 80:0.17460318 81:0.13432837 82:0.14457831 83:0.5 84:0.41249999 85:0.31645569 86:0.38749999 87:0.44444445 88:0.30136988 89:0.22857143 90:0.22222222 91:0.26436782 92:0.44594595 93:0.53246754 94:0.4520548 95:0.2739726 96:0.25882354 97:0.30769232 98:0.23999999 99:0.30000001 100:0.28358209 101:0.28169015 102:0.46987951 103:0.36607143 104:0.30952382 105:0.34831461 106:0.30434781 107:0.3488372 108:0.5 109:0.26966292 110:0.050000001 111:0.14851485 112:0.21008404 113:0.21212122 114:0.31818181 115:0.18947369 116:0.13157895 117:0.29885057 118:0.31531531 119:0.45833334 120:0.87341774 121:0.3137255 122:0.34444445 123:0.40000001 124:0.30927834 125:0.25882354 126:0.40217391 127:0.34313726 128:0.52127659 129:0.59574467 130:0.32098764 131:0.29761904 132:0.72072071 133:0.32743362 134:0.36559141 135:0.35555556 136:0.29591838 137:0.35955057 138:0.48387095 139:0.51304346 140:0.5 141:0.61538464 142:0.66666669 143:0.64285713 144:0.55555558 145:0.14851485 146:0.18390805 147:0.61682242 148:0.51282054 149:0.33913043 150:0.22522523 151:0.17142858 152:0.27906978 153:0.55319148 154:0.375 155:0.47474748 156:0.36000001 157:0.25714287 158:0.46250001 159:0.58536583 160:0.45555556 161:0.64130437 162:0.58823532 163:0.49557522 164:0.70192307 165:0.65137613 166:0.43157893 167:0.24742268 168:0.43697479 169:0.57391304 170:0.57894737 171:0.41237113 172:0.40594059 173:0.43269232 174:0.41 175:0.68269229 176:0.5869565 177:0.58620691 178:0.76288658 179:0.69473684 180:0.59375 181:0.25242719 182:0.28155339 183:0.53278691 184:0.67889911 185:0.52777779 186:0.44943821 187:0.2 188:0.3442623 189:0.47999999 190:0.40909091 191:0.6506024 192:0.55844158 193:0.25675675 194:0.50769234 195:0.609375 196:0.41891891 197:0.76119405 198:0.57746476 199:0.51219511 200:0.67346936 201:0.70642203 202:0.56976742 203:0.34615386 204:0.33734939 205:0.63636363 206:0.39361703 207:0.32926831 208:0.30379745 209:0.30526316 210:0.44086021 211:0.68965518 212:0.53763443 213:0.50961536 214:0.39175257 215:0.34615386 216:0.35849056 217:0.30487806 218:0.28 219:0.3119266 220:0.33613446 221:0.28695652 222:0.42372882 223:0.20512821 224:0.19402985 225:0.25974026 226:0.32967034 227:0.26086956 228:0.25609756 229:0.24675325 230:0.24637681 231:0.32857144 232:0.36144578 233:0.4848485 234:0.32394367 235:0.34523809 236:0.58999997 237:0.61764705 238:0.58139533 239:0.4556962 240:0.49350649 241:0.25581396 242:0.25842696 243:0.39240506 244:0.31818181 245:0.46464646 246:0.52325583 247:0.38679245 248:0.47474748 249:0.54166669 250:0.45161289 251:0.43820226 252:0.45238096 253:0.26136363 254:0.082352944 255:0.052631579 256:0.14655173 257:0.15533981 258:0.32743362 259:0.22499999 260:0.15853658 261:0.1632653 262:0.14545454 263:0.26804122 264:0.54000002 265:0.21348314 266:0.21686748 267:0.3548387 268:0.2020202 269:0.5 270:0.54000002 271:0.28846154 272:0.54205608 273:0.44545454 274:0.28735632 275:0.42391303 276:0.5714286 277:0.13829787 278:0.21276596 279:0.25252524 280:0.37373737 281:0.51546389 282:0.52173913 283:0.32258064 284:0.32978722 285:0.58999997 286:0.75555557 287:0.86956519 288:0.63043481 
0.0796316475816824 1:0.55660379 2:0.4742268 3:0.26126125 4:0.28333333 5:0.28 6:0.24074075 7:0.4742268 8:0.4512195 9:0.29347825 10:0.35416666 11:0.55421686 12:0.14406779 13:0.53932583 14:0.4861111 15:0.36486486 16:0.29213482 17:0.32098764 18:0.25438598 19:0.57446808 20:0.65476191 21:0.54255319 22:0.29545453 23:0.38383839 24:0.37962964 25:0.42857143 26:0.48837209 27:0.46808511 28:0.5411765 29:0.60975611 30:0.48076922 31:0.55913979 32:0.55555558 33:0.3493976 34:0.36046511 35:0.37634408 36:0.36448598 37:0.45299146 38:0.6111111 39:0.46956521 40:0.34545454 41:0.45454547 42:0.3888889 43:0.50684929 44:0.47058824 45:0.35714287 46:0.20779221 47:0.10294118 48:0.11940298 49:0.5131579 50:0.67073172 51:0.62337661 52:0.50666666 53:0.42307693 54:0.36619717 55:0.62025315 56:0.55263156 57:0.44565219 58:0.3108108 59:0.44943821 60:0.37804878 61:0.60000002 62:0.48235294 63:0.52112675 64:0.58666664 65:0.65333331 66:0.60526317 67:0.43902439 68:0.61904764 69:0.81521738 70:0.76923078 71:0.76999998 72:0.79807693 73:0.58139533 74:0.53921568 75:0.50467288 76:0.35652173 77:0.40196079 78:0.3883495 79:0.49350649 80:0.46031746 81:0.38805971 82:0.27710843 83:0.1891892 84:0.2375 85:0.49367088 86:0.5625 87:0.58333331 88:0.52054793 89:0.31428573 90:0.24691358 91:0.47126436 92:0.58108109 93:0.4025974 94:0.31506848 95:0.19178082 96:0.31764707 97:0.61538464 98:0.51999998 99:0.45714286 100:0.5970149 101:0.54929578 102:0.53012049 103:0.66964287 104:0.42857143 105:0.50561798 106:0.5 107:0.5 108:0.69512194 109:0.46067417 110:0.33750001 111:0.32673267 112:0.25210086 113:0.2020202 114:0.375 115:0.37894738 116:0.40789473 117:0.35632184 118:0.2972973 119:0.3125 120:0.58227849 121:0.41176471 122:0.41111112 123:0.43529412 124:0.30927834 125:0.27058825 126:0.40217391 127:0.42156863 128:0.56382978 129:0.55319148 130:0.32098764 131:0.32142857 132:0.77477479 133:0.3539823 134:0.4623656 135:0.51111114 136:0.56122446 137:0.69662923 138:0.66666669 139:0.64347827 140:0.51020408 141:0.45054945 142:0.38709676 143:0.38095239 144:0.35555556 145:0.26732674 146:0.32183909 147:0.42056075 148:0.26495728 149:0.22608696 150:0.27927929 151:0.32380953 152:0.40697673 153:0.46808511 154:0.29807693 155:0.37373737 156:0.50999999 157:0.34285715 158:0.44999999 159:0.56097561 160:0.47777778 161:0.5 162:0.58823532 163:0.42477876 164:0.68269229 165:0.57798165 166:0.51578945 167:0.29896906 168:0.48739496 169:0.36521739 170:0.49473685 171:0.49484536 172:0.56435645 173:0.73076922 174:0.69999999 175:0.47115386 176:0.56521738 177:0.51724136 178:0.62886596 179:0.58947366 180:0.51041669 181:0.22330096 182:0.28155339 183:0.31967214 184:0.36697248 185:0.3611111 186:0.39325842 187:0.40000001 188:0.55737704 189:0.56 190:0.36363637 191:0.56626505 192:0.5714286 193:0.5 194:0.61538464 195:0.640625 196:0.5 197:0.56716418 198:0.63380283 199:0.64634144 200:0.75510204 201:0.72477067 202:0.68604654 203:0.55128205 204:0.56626505 205:0.50649351 206:0.44680852 207:0.40243903 208:0.44303799 209:0.52631581 210:0.61290324 211:0.58620691 212:0.61290324 213:0.74038464 214:1 215:1 216:1 217:0.41463414 218:0.34 219:0.33944955 220:0.35294119 221:0.28695652 222:0.34745762 223:0.64102566 224:0.68656719 225:0.45454547 226:0.46153846 227:0.33333334 228:0.40243903 229:0.61038959 230:0.60869563 231:0.51428574 232:0.44578314 233:0.4848485 234:0.45070422 235:0.73809522 236:0.73000002 237:0.7352941 238:0.66279072 239:0.56962025 240:0.63636363 241:0.56976742 242:0.41573033 243:0.49367088 244:0.46969697 245:0.55555558 246:0.60465115 247:0.51886791 248:0.56565654 249:0.45833334 250:0.51612902 251:0.49438202 252:0.47619048 253:0.55681819 254:0.3882353 255:0.28070176 256:0.31034482 257:0.25242719 258:0.37168142 259:0.69999999 260:0.53658539 261:0.35714287 262:0.34545454 263:0.31958762 264:0.44999999 265:0.6179775 266:0.49397591 267:0.44086021 268:0.32323232 269:0.52631581 270:0.41 271:0.58653843 272:0.69158876 273:0.5090909 274:0.32183909 275:0.46739131 276:0.51020408 277:0.43617022 278:0.47872341 279:0.45454547 280:0.57575756 281:0.71134019 282:0.72826087 283:0.45161289 284:0.5106383 285:0.56999999 286:0.62222224 287:0.63043481 288:0.53260869 
0.09108276757359866 1:0.56603771 2:0.53608245 3:0.33333334 4:0.32499999 5:0.30000001 6:0.28703704 7:0.71134019 8:0.68292683 9:0.38043478 10:0.48958334 11:0.38554215 12:0.23728813 13:0.64044946 14:0.55555558 15:0.37837839 16:0.28089887 17:0.30864197 18:0.31578946 19:0.57446808 20:0.48809522 21:0.32978722 22:0.27272728 23:0.45454547 24:0.22222222 25:0.45054945 26:0.44186047 27:0.41489363 28:0.48235294 29:0.597561 30:0.39423078 31:0.41935483 32:0.27160493 33:0.20481928 34:0.25581396 35:0.27956989 36:0.34579438 37:0.46153846 38:0.52777779 39:0.46956521 40:0.45454547 41:0.53535354 42:0.44444445 43:0.68493152 44:0.54411763 45:0.47142857 46:0.44155845 47:0.60294116 48:0.19402985 49:0.68421054 50:0.74390244 51:0.74025977 52:0.46666667 53:0.33333334 54:0.21126761 55:0.6708861 56:0.52631581 57:0.38043478 58:0.41891891 59:0.48314607 60:0.31707317 61:0.62666667 62:0.42352942 63:0.46478873 64:0.56 65:0.63999999 66:0.55263156 67:0.5 68:0.34523809 69:0.28260869 70:0.24175824 71:0.28 72:0.39423078 73:0.51162791 74:0.49019608 75:0.41121495 76:0.40000001 77:0.51960784 78:0.47572815 79:0.67532468 80:0.60317463 81:0.44776121 82:0.43373495 83:0.7972973 84:0.44999999 85:0.63291138 86:0.63749999 87:0.65277779 88:0.53424656 89:0.41428572 90:0.25925925 91:0.66666669 92:0.58108109 93:0.4025974 94:0.32876712 95:0.47945204 96:0.65882355 97:0.65934068 98:0.47999999 99:0.5 100:0.61194032 101:0.74647886 102:0.57831323 103:0.48214287 104:0.25 105:0.31460676 106:0.30434781 107:0.38372093 108:0.51219511 109:0.42696628 110:0.38749999 111:0.27722773 112:0.3277311 113:0.33333334 114:0.5 115:0.57894737 116:0.65789473 117:0.36781609 118:0.33333334 119:0.38541666 120:0.64556962 121:0.57843137 122:0.53333336 123:0.3764706 124:0.37113401 125:0.47058824 126:0.44565219 127:0.48039216 128:0.54255319 129:0.38297874 130:0.24691358 131:0.2857143 132:0.65765768 133:0.39823008 134:0.47311828 135:0.41111112 136:0.5714286 137:0.69662923 138:0.61290324 139:0.40000001 140:0.30612245 141:0.1978022 142:0.31182796 143:0.44047618 144:0.36666667 145:0.36633664 146:0.31034482 147:0.31775701 148:0.32478634 149:0.34782609 150:0.43243244 151:0.35238096 152:0.46511629 153:0.29787233 154:0.28846154 155:0.30303031 156:0.63 157:0.35238096 158:0.375 159:0.36585367 160:0.35555556 161:0.5 162:0.84705883 163:0.39823008 164:0.53846157 165:0.44954127 166:0.38947368 167:0.36082473 168:0.65546221 169:0.34782609 170:0.43157893 171:0.45360824 172:0.55445546 173:0.71153843 174:0.64999998 175:0.38461539 176:0.46739131 177:0.43678162 178:0.51546389 179:0.43157893 180:0.42708334 181:0.33980581 182:0.33980581 183:0.28688523 184:0.38532111 185:0.4074074 186:0.44943821 187:0.53750002 188:0.67213112 189:0.41333333 190:0.38636363 191:0.48192772 192:0.41558442 193:0.63513511 194:0.66153848 195:0.671875 196:0.44594595 197:0.58208954 198:0.38028169 199:0.62195122 200:0.75510204 201:0.70642203 202:0.59302324 203:0.69230771 204:0.62650603 205:0.50649351 206:0.37234041 207:0.35365853 208:0.58227849 209:0.83157897 210:0.79569894 211:0.78160918 212:0.73118281 213:0.69230771 214:0.69072163 215:0.65384614 216:0.51886791 217:0.37804878 218:0.28 219:0.36697248 220:0.35294119 221:0.33913043 222:0.40677965 223:0.57692307 224:0.49253732 225:0.45454547 226:0.38461539 227:0.44927537 228:0.34146342 229:0.55844158 230:0.53623188 231:0.45714286 232:0.37349397 233:0.45454547 234:0.30985916 235:0.70238096 236:0.63 237:0.60784316 238:0.59302324 239:0.50632912 240:0.41558442 241:0.5 242:0.26966292 243:0.39240506 244:0.45454547 245:0.62626261 246:0.63953489 247:0.5471698 248:0.4848485 249:0.42708334 250:0.50537634 251:0.65168542 252:0.54761904 253:0.56818181 254:0.32941177 255:0.30701753 256:0.29310346 257:0.32038835 258:0.38053098 259:0.66250002 260:0.56097561 261:0.2857143 262:0.40000001 263:0.25773194 264:0.28999999 265:0.62921351 266:0.40963855 267:0.27956989 268:0.45454547 269:0.63157892 270:0.25 271:0.57692307 272:0.55140185 273:0.37272727 274:0.26436782 275:0.47826087 276:0.24489796 277:0.40425533 278:0.32978722 279:0.36363637 280:0.5151515 281:0.54639173 282:0.61956519 283:0.50537634 284:0.35106382 285:0.36000001 286:0.3888889 287:0.42391303 288:0.43478259 
0.1689009851567235 1:0.48113209 2:0.52577317 3:0.27927929 4:0.27500001 5:0.31 6:0.2962963 7:0.35051546 8:0.43902439 9:0.26086956 10:0.36458334 11:0.60240966 12:0.13559322 13:0.37078652 14:0.33333334 15:0.14864865 16:0.15730338 17:0.28395063 18:0.087719299 19:0.34042552 20:0.36904761 21:0.21276596 22:0.28409091 23:0.49494949 24:0.31481481 25:0.27472529 26:0.3255814 27:0.25531915 28:0.28235295 29:0.62195122 30:0.45192307 31:0.24731183 32:0.22222222 33:0.096385539 34:0.18604651 35:0.33333334 36:0.42056075 37:0.35042736 38:0.50925928 39:0.40869564 40:0.30000001 41:0.55555558 42:0.45555556 43:0.39726028 44:0.47058824 45:0.38571429 46:0.32467532 47:0.63235295 48:0.28358209 49:0.40789473 50:0.597561 51:0.54545456 52:0.40000001 53:0.30769232 54:0.26760563 55:0.41772151 56:0.42105263 57:0.43478259 58:0.28378379 59:0.43820226 60:0.47560975 61:0.42666668 62:0.32941177 63:0.32394367 64:0.45333335 65:0.61333334 66:0.53947371 67:0.35365853 68:0.29761904 69:0.25 70:0.25274727 71:0.34 72:0.38461539 73:0.47674417 74:0.44117647 75:0.42056075 76:0.35652173 77:0.47058824 78:0.46601942 79:0.50649351 80:0.46031746 81:0.52238804 82:0.45783132 83:0.5 84:0.57499999 85:0.48101267 86:0.47499999 87:0.625 88:0.6438356 89:0.72857141 90:0.56790125 91:0.44827586 92:0.36486486 93:0.4025974 94:0.43835616 95:0.57534248 96:0.65882355 97:0.53846157 98:0.33333334 99:0.34285715 100:0.49253732 101:0.54929578 102:0.73493975 103:0.49107143 104:0.23809524 105:0.31460676 106:0.31521741 107:0.3255814 108:0.52439022 109:0.55056179 110:0.51249999 111:0.47524753 112:0.36974791 113:0.3131313 114:0.39772728 115:0.46315789 116:0.44736841 117:0.41379312 118:0.4054054 119:0.45833334 120:0.78481013 121:0.47058824 122:0.43333334 123:0.32941177 124:0.42268041 125:0.50588238 126:0.35869566 127:0.42156863 128:0.43617022 129:0.34042552 130:0.33333334 131:0.39285713 132:0.7027027 133:0.42477876 134:0.41935483 135:0.3888889 136:0.41836736 137:0.57303369 138:0.72043014 139:0.38260868 140:0.26530612 141:0.20879121 142:0.29032257 143:0.33333334 144:0.48888889 145:0.36633664 146:0.42528737 147:0.54205608 148:0.3931624 149:0.32173914 150:0.27927929 151:0.27619049 152:0.37209302 153:0.44680852 154:0.39423078 155:0.54545456 156:0.38999999 157:0.30476192 158:0.32499999 159:0.39024389 160:0.41111112 161:0.54347825 162:0.48235294 163:0.36283186 164:0.47115386 165:0.48623854 166:0.38947368 167:0.39175257 168:0.53781515 169:0.33043477 170:0.31578946 171:0.2783505 172:0.31683168 173:0.41346154 174:0.47 175:0.32692307 176:0.28260869 177:0.28735632 178:0.38144329 179:0.40000001 180:0.52083331 181:0.27184466 182:0.32038835 183:0.30327868 184:0.35779816 185:0.3888889 186:0.38202247 187:0.36250001 188:0.49180329 189:0.45333335 190:0.31818181 191:0.6506024 192:0.46753246 193:0.33783785 194:0.38461539 195:0.4375 196:0.3108108 197:0.44776121 198:0.40845069 199:0.40243903 200:0.55102038 201:0.54128438 202:0.52325583 203:0.48717949 204:0.46987951 205:0.3116883 206:0.22340426 207:0.14634146 208:0.30379745 209:0.54736841 210:0.61290324 211:0.44827586 212:0.3548387 213:0.32692307 214:0.40206185 215:0.5 216:0.52830189 217:0.34146342 218:0.30000001 219:0.29357797 220:0.27731094 221:0.28695652 222:0.34745762 223:0.3974359 224:0.37313432 225:0.29870129 226:0.30769232 227:0.55072463 228:0.5 229:0.38961038 230:0.27536231 231:0.2857143 232:0.27710843 233:0.30303031 234:0.43661973 235:0.5 236:0.54000002 237:0.55882353 238:0.54651165 239:0.49367088 240:0.4025974 241:0.3255814 242:0.20224719 243:0.27848101 244:0.21212122 245:0.47474748 246:0.60465115 247:0.40566039 248:0.36363637 249:0.23958333 250:0.31182796 251:0.41573033 252:0.47619048 253:0.48863637 254:0.43529412 255:0.28947368 256:0.25862068 257:0.24271844 258:0.34513274 259:0.42500001 260:0.41463414 261:0.26530612 262:0.29090908 263:0.43298969 264:0.58999997 265:0.38202247 266:0.30120483 267:0.24731183 268:0.23232323 269:0.61842108 270:0.44 271:0.40384614 272:0.45794392 273:0.40000001 274:0.20689656 275:0.40217391 276:0.22448979 277:0.26595744 278:0.27659574 279:0.21212122 280:0.24242425 281:0.2783505 282:0.42391303 283:0.33333334 284:0.23404256 285:0.28999999 286:0.32222223 287:0.43478259 288:0.45652175 
0.245355740282937 1:0.60377359 2:0.62886596 3:0.5045045 4:0.51666665 5:0.82999998 6:0.30555555 7:0.53608245 8:0.5487805 9:0.45652175 10:0.30208334 11:0.28915662 12:0.3898305 13:0.51685393 14:0.70833331 15:0.56756759 16:0.42696628 17:0.34567901 18:0.28947368 19:0.41489363 20:0.59523809 21:0.46808511 22:0.625 23:0.42424244 24:0.3611111 25:0.62637365 26:0.63953489 27:0.69148934 28:0.67058825 29:0.68292683 30:0.52884614 31:0.45161289 32:0.41975307 33:0.51807231 34:0.5 35:0.69892472 36:0.60747665 37:0.34188035 38:0.39814815 39:0.49565217 40:0.43636364 41:0.54545456 42:0.3888889 43:0.49315068 44:0.60294116 45:0.48571429 46:0.35064936 47:0.23529412 48:0.25373134 49:0.52631581 50:0.76829267 51:0.74025977 52:0.73333335 53:0.64102566 54:0.30985916 55:0.44303799 56:0.42105263 57:0.53260869 58:0.43243244 59:0.64044946 60:0.42682928 61:0.50666666 62:0.42352942 63:0.53521127 64:0.47999999 65:0.60000002 66:0.53947371 67:0.43902439 68:0.36904761 69:0.34782609 70:0.43956044 71:0.44999999 72:0.50961536 73:0.53488374 74:0.39215687 75:0.50467288 76:0.49565217 77:0.48039216 78:0.47572815 79:0.44155845 80:0.50793654 81:0.53731346 82:0.43373495 83:0.37837839 84:0.22499999 85:0.51898736 86:0.67500001 87:0.80555558 88:0.65753424 89:0.54285717 90:0.49382716 91:0.43678162 92:0.48648649 93:0.49350649 94:0.26027396 95:0.43835616 96:0.68235296 97:0.61538464 98:0.51999998 99:0.41428572 100:0.61194032 101:0.63380283 102:0.53012049 103:0.44642857 104:0.30952382 105:0.39325842 106:0.45652175 107:0.58139533 108:0.70731705 109:0.6179775 110:0.51249999 111:0.48514852 112:0.41176471 113:0.54545456 114:0.95454544 115:0.47368422 116:0.46052632 117:0.39080459 118:0.37837839 119:0.44791666 120:0.2278481 121:0.52941179 122:0.64444447 123:0.58823532 124:0.43298969 125:0.47058824 126:0.43478259 127:0.32352942 128:0.59574467 129:0.59574467 130:0.25925925 131:0.36904761 132:0.7027027 133:0.50442475 134:0.58064514 135:0.53333336 136:0.65306121 137:0.66292137 138:0.64516127 139:0.37391305 140:0.37755102 141:0.42857143 142:0.48387095 143:0.59523809 144:0.65555555 145:0.44554454 146:0.50574714 147:0.64485979 148:0.52991456 149:0.46956521 150:0.44144145 151:0.34285715 152:0.40697673 153:0.59574467 154:0.49038461 155:0.69696969 156:0.99000001 157:0.32380953 158:0.53750002 159:0.58536583 160:0.62222224 161:0.46739131 162:0.62352943 163:0.32743362 164:0.66346157 165:0.60550457 166:0.34736842 167:0.38144329 168:0.63025212 169:0.40869564 170:0.57894737 171:0.68041235 172:0.70297033 173:0.63461536 174:0.63 175:0.375 176:0.51086956 177:0.63218391 178:0.79381442 179:0.7263158 180:0.67708331 181:0.33980581 182:0.37864077 183:0.54098362 184:0.77981651 185:0.49074075 186:0.30337077 187:0.36250001 188:0.50819671 189:0.45333335 190:0.39772728 191:0.55421686 192:0.48051947 193:0.3918919 194:0.64615387 195:0.78125 196:0.63513511 197:0.40298507 198:0.36619717 199:0.47560975 200:0.65306121 201:0.65137613 202:0.39534885 203:0.5 204:0.51807231 205:0.45454547 206:0.32978722 207:0.29268292 208:0.39240506 209:0.58947366 210:0.74193549 211:0.68965518 212:0.58064514 213:0.49038461 214:0.51546389 215:0.56730771 216:0.44339624 217:0.57317072 218:0.47 219:0.67889911 220:0.63025212 221:0.46086955 222:0.38135594 223:0.51282054 224:0.49253732 225:0.50649351 226:0.43956044 227:0.47826087 228:0.29268292 229:0.61038959 230:0.76811594 231:0.82857144 232:0.62650603 233:0.22727273 234:0.16901408 235:0.58333331 236:0.69 237:0.7352941 238:0.59302324 239:0.63291138 240:0.50649351 241:0.53488374 242:0.35955057 243:0.50632912 244:0.59090906 245:0.86868685 246:0.77906978 247:0.5754717 248:0.60606062 249:0.58333331 250:0.59139782 251:0.62921351 252:0.59523809 253:0.68181819 254:0.58823532 255:0.58771932 256:0.49137932 257:0.45631069 258:0.4778761 259:0.5625 260:0.5 261:0.47959185 262:0.58181816 263:0.94845361 264:0.63 265:0.5955056 266:0.67469877 267:0.51612902 268:0.52525252 269:0.71052629 270:0.25 271:0.50961536 272:0.65420562 273:0.59090906 274:0.55172414 275:0.40217391 276:0.33673468 277:0.53191489 278:0.47872341 279:0.54545456 280:0.67676765 281:0.6082474 282:0.52173913 283:0.50537634 284:0.47872341 285:0.57999998 286:0.76666665 287:0.79347825 288:0.65217394 
0.06697039017130101 1:0.41509435 2:0.49484536 3:0.1981982 4:0.2 5:0.25999999 6:0.12037037 7:0.3298969 8:0.41463414 9:0.23913044 10:0.34375 11:0.63855422 12:0.33050847 13:0.39325842 14:0.3611111 15:0.28378379 16:0.21348314 17:0.32098764 18:0.36842105 19:0.34042552 20:0.39285713 21:0.36170211 22:0.35227272 23:0.4040404 24:0.37037036 25:0.032967035 26:0 27:0.095744684 28:0.11764706 29:0.37804878 30:0.25 31:0.064516127 32:0 33:0.20481928 34:0.27906978 35:0.40860215 36:0.36448598 37:0.31623933 38:0.4074074 39:0.26956522 40:0.18181819 41:0.52525252 42:0.34444445 43:0.43835616 44:0.45588234 45:0.47142857 46:0.33766234 47:0.5147059 48:0.38805971 49:0.47368422 50:0.58536583 51:0.44155845 52:0.31999999 53:0.33333334 54:0.52112675 55:0.39240506 56:0.4868421 57:0.56521738 58:0.43243244 59:0.42696628 60:0.46341464 61:0.26666668 62:0.10588235 63:0.098591551 64:0.25333333 65:0.44 66:0.31578946 67:0.060975611 68:0.011904762 69:0.15217391 70:0.23076923 71:0.34 72:0.35576922 73:0.51162791 74:0.48039216 75:0.33644861 76:0.20869565 77:0.41176471 78:0.3883495 79:0.62337661 80:0.66666669 81:0.52238804 82:0.43373495 83:0.45945945 84:0.60000002 85:0.63291138 86:0.61250001 87:0.52777779 88:0.4520548 89:0.38571429 90:0.2962963 91:0.51724136 92:0.5 93:0.62337661 94:0.63013697 95:0.3561644 96:0.29411766 97:0.46153846 98:0.21333334 99:0.17142858 100:0.28358209 101:0.1971831 102:0.46987951 103:0.22321428 104:0.05952381 105:0.23595506 106:0.33695653 107:0.3255814 108:0.37804878 109:0.51685393 110:0.46250001 111:0.32673267 112:0.23529412 113:0.18181819 114:0.23863636 115:0.47368422 116:0.38157895 117:0.34482759 118:0.31531531 119:0.44791666 120:0.74683547 121:0.56862748 122:0.48888889 123:0.40000001 124:0.34020618 125:0.34117648 126:0.29347825 127:0.43137255 128:0.40425533 129:0.43617022 130:0.45679012 131:0.32142857 132:0.5045045 133:0.28318584 134:0.24731183 135:0.21111111 136:0.23469388 137:0.37078652 138:0.52688169 139:0.20869565 140:0.25510204 141:0.2857143 142:0.33333334 143:0.47619048 144:0.41111112 145:0.42574257 146:0.43678162 147:0.41121495 148:0.1965812 149:0.13913043 150:0.045045044 151:0.29523811 152:0.38372093 153:0.26595744 154:0.13461539 155:0.56565654 156:0.47 157:0.22857143 158:0.25 159:0.32926831 160:0.25555557 161:0.54347825 162:0.63529414 163:0.26548672 164:0.38461539 165:0.47706422 166:0.46315789 167:0.3298969 168:0.54621851 169:0.14782609 170:0.16842106 171:0.21649484 172:0.33663365 173:0.31730768 174:0.33000001 175:0.16346154 176:0.18478261 177:0.21839081 178:0.43298969 179:0.37894738 180:0.40625 181:0.33009708 182:0.33980581 183:0.22950819 184:0.14678898 185:0.25925925 186:0.15730338 187:0.44999999 188:0.45901638 189:0.28 190:0.13636364 191:0.48192772 192:0.44155845 193:0.37837839 194:0.26153848 195:0.328125 196:0.25675675 197:0.19402985 198:0.28169015 199:0.29268292 200:0.42857143 201:0.52293581 202:0.47674417 203:0.26923078 204:0.18072289 205:0.1038961 206:0.22340426 207:0.34146342 208:0.32911393 209:0.43157893 210:0.45161289 211:0.22988506 212:0.17204301 213:0.17307693 214:0.16494845 215:0.31730768 216:0.2735849 217:0.35365853 218:0.31 219:0.22018349 220:0.12605043 221:0.16521738 222:0.12711865 223:0.37179488 224:0.46268657 225:0.32467532 226:0.17582418 227:0.30434781 228:0.20731707 229:0.32467532 230:0.33333334 231:0.2857143 232:0.21686748 233:0.030303031 234:0.15492958 235:0.29761904 236:0.38999999 237:0.48039216 238:0.45348838 239:0.16455697 240:0.12987013 241:0.093023255 242:0.10112359 243:0.34177214 244:0.24242425 245:0.44444445 246:0.41860464 247:0.1509434 248:0.1010101 249:0.15625 250:0.17204301 251:0.34831461 252:0.30952382 253:0.375 254:0.3882353 255:0.21052632 256:0.12068965 257:0.097087376 258:0.16814159 259:0.32499999 260:0.42682928 261:0.18367347 262:0.2090909 263:0.52577317 264:0.54000002 265:0.24719101 266:0.26506025 267:0.21505377 268:0.21212122 269:0.61842108 270:0.28999999 271:0.25 272:0.32710281 273:0.40000001 274:0.28735632 275:0.43478259 276:0.18367347 277:0 278:0 279:0.080808081 280:0.19191919 281:0.21649484 282:0.33695653 283:0.064516127 284:0 285:0.18000001 286:0.33333334 287:0.41304347 288:0.42391303 
0.2020245308167119 1:0.55660379 2:0.54639173 3:0.21621622 4:0.24166666 5:0.28999999 6:0.23148148 7:0.46391752 8:0.4512195 9:0.29347825 10:0.375 11:0.71084338 12:0.29661018 13:0.56179774 14:0.47222221 15:0.41891891 16:0.29213482 17:0.49382716 18:0.45614034 19:0.32978722 20:0.21428572 21:0.29787233 22:0.35227272 23:0.63636363 24:0.39814815 25:0.49450549 26:0.43023255 27:0.5106383 28:0.57647061 29:0.63414633 30:0.48076922 31:0.30107528 32:0.2345679 33:0.16867469 34:0.23255815 35:0.27956989 36:0.34579438 37:0.34188035 38:0.48148149 39:0.28695652 40:0.23636363 41:0.54545456 42:0.42222223 43:0.46575344 44:0.5 45:0.35714287 46:0.2857143 47:0.54411763 48:0.26865673 49:0.57894737 50:0.86585367 51:0.84415585 52:0.60000002 53:0.48717949 54:0.29577464 55:0.30379745 56:0.17105263 57:0.27173913 58:0.41891891 59:0.60674155 60:0.30487806 61:0.56 62:0.48235294 63:0.5633803 64:0.51999998 65:0.62666667 66:0.5 67:0.80487806 68:0.71428573 69:0.5869565 70:0.5714286 71:0.62 72:0.68269229 73:0.38372093 74:0.43137255 75:0.24299066 76:0.20869565 77:0.52941179 78:0.41747573 79:0.41558442 80:0.44444445 81:0.38805971 82:0.28915662 83:0.56756759 84:0.4375 85:0.54430377 86:0.82499999 87:0.875 88:0.63013697 89:0.60000002 90:0.27160493 91:0.35632184 92:0.22972973 93:0.23376623 94:0.19178082 95:0.41095892 96:0.60000002 97:0.52747256 98:0.42666668 99:0.48571429 100:0.55223882 101:0.69014084 102:0.51807231 103:0.6160714 104:0.4642857 105:0.55056179 106:0.54347825 107:0.59302324 108:0.67073172 109:0.39325842 110:0.5 111:0.24752475 112:0.21008404 113:0.19191919 114:0.38636363 115:0.31578946 116:0.38157895 117:0.33333334 118:0.27927929 119:0.47916666 120:0.72151899 121:0.44117647 122:0.5 123:0.42352942 124:0.45360824 125:0.62352943 126:0.30434781 127:0.2647059 128:0.26595744 129:0.25531915 130:0.19753087 131:0.48809522 132:0.72072071 133:0.4159292 134:0.48387095 135:0.42222223 136:0.59183675 137:0.69662923 138:0.68817204 139:0.32173914 140:0.23469388 141:0.13186814 142:0.23655914 143:0.26190478 144:0.33333334 145:0.25742576 146:0.45977011 147:0.28971961 148:0.17948718 149:0.10434783 150:0.24324325 151:0.27619049 152:0.40697673 153:0.35106382 154:0.21153846 155:0.36363637 156:0.58999997 157:0.29523811 158:0.41249999 159:0.48780489 160:0.27777779 161:0.5 162:0.89411765 163:0.34513274 164:0.45192307 165:0.44036698 166:0.35789475 167:0.40206185 168:0.68067229 169:0.32173914 170:0.46315789 171:0.556701 172:0.62376237 173:0.68269229 174:0.55000001 175:0.25 176:0.32608697 177:0.35632184 178:0.38144329 179:0.36842105 180:0.36458334 181:0.16504854 182:0.28155339 183:0.18032786 184:0.18348624 185:0.25 186:0.21348314 187:0.40000001 188:0.59016395 189:0.40000001 190:0.29545453 191:0.60240966 192:0.38961038 193:0.4054054 194:0.47692308 195:0.578125 196:0.36486486 197:0.53731346 198:0.35211268 199:0.35365853 200:0.52040815 201:0.61467892 202:0.55813956 203:0.75641024 204:0.56626505 205:0.4025974 206:0.29787233 207:0.28048781 208:0.41772151 209:0.7263158 210:0.76344085 211:0.74712646 212:0.63440859 213:0.63461536 214:0.69072163 215:0.70192307 216:0.66037738 217:0.24390244 218:0.22 219:0.13761468 220:0.17647059 221:0.16521738 222:0.22881356 223:0.46153846 224:0.50746268 225:0.45454547 226:0.31868133 227:0.39130434 228:0.24390244 229:0.48051947 230:0.65217394 231:0.58571428 232:0.38554215 233:0.30303031 234:0.26760563 235:0.58333331 236:0.64999998 237:0.68627453 238:0.62790698 239:0.43037975 240:0.35064936 241:0.43023255 242:0.33707866 243:0.35443038 244:0.54545456 245:0.73737371 246:0.74418604 247:0.5471698 248:0.57575756 249:0.5625 250:0.60215056 251:0.78651685 252:0.72619045 253:0.44318181 254:0.47058824 255:0.20175439 256:0.18103448 257:0.14563107 258:0.25663716 259:0.48750001 260:0.52439022 261:0.30612245 262:0.23636363 263:0.43298969 264:0.37 265:0.51685393 266:0.50602412 267:0.3548387 268:0.35353535 269:0.85526317 270:0.31 271:0.48076922 272:0.45794392 273:0.44545454 274:0.33333334 275:0.5869565 276:0.30612245 277:0.38297874 278:0.39361703 279:0.5959596 280:0.68686867 281:0.63917524 282:0.44565219 283:0.38709676 284:0.24468085 285:0.41999999 286:0.42222223 287:0.41304347 288:0.34782609 
0.02085783570237542 1:0.5471698 2:0.50515461 3:0.2972973 4:0.28333333 5:0.27000001 6:0.23148148 7:0.51546389 8:0.57317072 9:0.48913044 10:0.39583334 11:0.56626505 12:0.18644068 13:0.65168542 14:0.59722221 15:0.4054054 16:0.24719101 17:0.30864197 18:0.096491225 19:0.45744681 20:0.58333331 21:0.18085106 22:0.36363637 23:0.36363637 24:0.4074074 25:0.38461539 26:0.39534885 27:0.21276596 28:0.23529412 29:0.28048781 30:0.42307693 31:0.4623656 32:0.50617284 33:0.3493976 34:0.30232558 35:0.37634408 36:0.42990655 37:0.35897437 38:0.4537037 39:0.27826086 40:0.24545455 41:0.4040404 42:0.2888889 43:0.46575344 44:0.45588234 45:0.48571429 46:0.36363637 47:0.4852941 48:0.074626863 49:0.46052632 50:0.70731705 51:0.66233766 52:0.45333335 53:0.16666667 54:0.056338027 55:0.36708862 56:0.39473686 57:0.44565219 58:0.45945945 59:0.38202247 60:0.2682927 61:0.54666668 62:0.44705883 63:0.30985916 64:0.31999999 65:0.25333333 66:0.36842105 67:0.4512195 68:0.45238096 69:0.23913044 70:0.23076923 71:0.30000001 72:0.40384614 73:0.47674417 74:0.43137255 75:0.33644861 76:0.27826086 77:0.38235295 78:0.30097088 79:0.45454547 80:0.49206349 81:0.58208954 82:0.53012049 83:0.54054052 84:0.30000001 85:0.4556962 86:0.69999999 87:0.7361111 88:0.63013697 89:0.54285717 90:0.33333334 91:0.37931034 92:0.51351351 93:0.53246754 94:0.46575344 95:0.60273975 96:0.52941179 97:0.5714286 98:0.30666667 99:0.32857144 100:0.43283582 101:0.47887325 102:0.42168674 103:0.53571427 104:0.23809524 105:0.26966292 106:0.29347825 107:0.43023255 108:0.48780489 109:0.65168542 110:0.53750002 111:0.38613862 112:0.36134455 113:0.3131313 114:0.32954547 115:0.65263158 116:0.56578946 117:0.50574714 118:0.45045045 119:0.45833334 120:0.54430377 121:0.77450979 122:0.52222222 123:0.45882353 124:0.52577317 125:0.58823532 126:0.26086956 127:0.55882353 128:0.42553192 129:0.35106382 130:0.28395063 131:0.59523809 132:0.56756759 133:0.48672566 134:0.3548387 135:0.25555557 136:0.26530612 137:0.52808988 138:0.58064514 139:0.69565219 140:0.37755102 141:0.34065935 142:0.43010753 143:0.70238096 144:0.5 145:0.64356434 146:0.54022986 147:0.42056075 148:0.40170941 149:0.40869564 150:0.34234235 151:0.63809526 152:0.54651165 153:0.42553192 154:0.43269232 155:0.61616164 156:0.33000001 157:0.5714286 158:0.33750001 159:0.41463414 160:0.5 161:0.55434781 162:0.31764707 163:0.52212387 164:0.43269232 165:0.41284403 166:0.33684212 167:0.6082474 168:0.50420171 169:0.49565217 170:0.40000001 171:0.30927834 172:0.33663365 173:0.69230771 174:0.60000002 175:0.40384614 176:0.33695653 177:0.31034482 178:0.52577317 179:0.64210528 180:0.58333331 181:0.33009708 182:0.37864077 183:0.37704918 184:0.39449543 185:0.53703701 186:0.48314607 187:0.38749999 188:0.45901638 189:0.37333333 190:0.30681819 191:0.6987952 192:0.49350649 193:0.51351351 194:0.32307693 195:0.34375 196:0.3108108 197:0.29850745 198:0.30985916 199:0.51219511 200:0.55102038 201:0.67889911 202:0.59302324 203:0.48717949 204:0.38554215 205:0.54545456 206:0.45744681 207:0.36585367 208:0.46835443 209:0.66315788 210:0.58064514 211:0.51724136 212:0.3548387 213:0.31730768 214:0.3298969 215:0.46153846 216:0.32075471 217:0.42682928 218:0.38999999 219:0.38532111 220:0.37815127 221:0.31304348 222:0.41525424 223:0.41025642 224:0.49253732 225:0.37662336 226:0.35164836 227:0.23188406 228:0.29268292 229:0.4025974 230:0.39130434 231:0.32857144 232:0.27710843 233:0.21212122 234:0.056338027 235:0.54761904 236:0.66000003 237:0.69607842 238:0.61627907 239:0.21518987 240:0.27272728 241:0.54651165 242:0.52808988 243:0.46835443 244:0.39393941 245:0.39393941 246:0.58139533 247:0.39622641 248:0.35353535 249:0.28125 250:0.33333334 251:0.41573033 252:0.4642857 253:0.625 254:0.50588238 255:0.33333334 256:0.30172414 257:0.24271844 258:0.39823008 259:0.625 260:0.64634144 261:0.47959185 262:0.21818182 263:0.21649484 264:0.49000001 265:0.55056179 266:0.55421686 267:0.48387095 268:0.2020202 269:0.42105263 270:0.19 271:0.44230768 272:0.57943922 273:0.32727271 274:0.13793103 275:0.30434781 276:0.20408164 277:0.32978722 278:0.43617022 279:0.22222222 280:0.32323232 281:0.24742268 282:0.48913044 283:0.38709676 284:0.40425533 285:0.31 286:0.44444445 287:0.53260869 288:0.56521738 
0.01133323620018558 1:0.58490568 2:0.58762884 3:0.3063063 4:0.34999999 5:0.44999999 6:0.32407406 7:0.62886596 8:0.60975611 9:0.42391303 10:0.40625 11:0.56626505 12:0.21186441 13:0.73033708 14:0.6388889 15:0.5 16:0.39325842 17:0.48148149 18:0.27192983 19:0.5106383 20:0.39285713 21:0.36170211 22:0.42045453 23:0.5959596 24:0.24074075 25:0.38461539 26:0.24418604 27:0.32978722 28:0.42352942 29:0.56097561 30:0.21153846 31:0.62365592 32:0.69135803 33:0.6506024 34:0.62790698 35:0.58064514 36:0.40186915 37:0.38461539 38:0.51851851 39:0.32173914 40:0.27272728 41:0.50505048 42:0.54444444 43:0.65753424 44:0.63235295 45:0.45714286 46:0.32467532 47:0.45588234 48:0.26865673 49:0.53947371 50:0.62195122 51:0.54545456 52:0.31999999 53:0.26923078 54:0.22535211 55:0.43037975 56:0.44736841 57:0.51086956 58:0.35135135 59:0.31460676 60:0.32926831 61:0.57333332 62:0.41176471 63:0.3943662 64:0.46666667 65:0.49333334 66:0.36842105 67:0.58536583 68:0.5714286 69:0.43478259 70:0.47252747 71:0.37 72:0.30769232 73:0.45348838 74:0.46078432 75:0.32710281 76:0.2 77:0.32352942 78:0.43689319 79:0.46753246 80:0.53968257 81:0.46268657 82:0.3493976 83:0.25675675 84:0.22499999 85:0.56962025 86:0.53750002 87:0.52777779 88:0.3561644 89:0.1 90:0.14814815 91:0.50574714 92:0.5 93:0.44155845 94:0.30136988 95:0.1780822 96:0.32941177 97:0.59340662 98:0.42666668 99:0.27142859 100:0.28358209 101:0.30985916 102:0.53012049 103:0.4375 104:0.51190478 105:0.71910113 106:0.53260869 107:0.30232558 108:0.35365853 109:0.55056179 110:0.4375 111:0.32673267 112:0.21008404 113:0.19191919 114:0.28409091 115:0.56842107 116:0.52631581 117:0.47126436 118:0.27927929 119:0.30208334 120:0.50632912 121:0.70588237 122:0.56666666 123:0.47058824 124:0.36082473 125:0.23529412 126:0.32608697 127:0.50980395 128:0.43617022 129:0.28723404 130:0.22222222 131:0.071428575 132:0.4054054 133:0.54867256 134:0.38709676 135:0.18888889 136:0.2857143 137:0.23595506 138:0.39784947 139:0.7478261 140:0.53061223 141:0.54945058 142:0.60215056 143:0.4642857 144:0.37777779 145:1 146:0.43678162 147:0.42990655 148:0.26495728 149:0.17391305 150:0.2072072 151:1 152:0.60465115 153:0.5106383 154:0.25 155:0.19191919 156:0.23999999 157:1 158:0.51249999 159:0.597561 160:0.42222223 161:0.32608697 162:0.44705883 163:0.98230088 164:0.52884614 165:0.52293581 166:0.31578946 167:0.24742268 168:0.55462188 169:0.90434784 170:0.29473683 171:0.24742268 172:0.27722773 173:0.22115384 174:0.34 175:0.82692307 176:0.34782609 177:0.49425286 178:0.58762884 179:0.37894738 180:0.45833334 181:0.39805827 182:0.34951457 183:0.37704918 184:0.5321101 185:0.55555558 186:0.6179775 187:0.5 188:0.63934427 189:0.38666666 190:0.25 191:0.26506025 192:0.29870129 193:0.6081081 194:0.60000002 195:0.546875 196:0.35135135 197:0.1641791 198:0.22535211 199:0.56097561 200:0.64285713 201:0.59633029 202:0.44186047 203:0.20512821 204:0.30120483 205:0.49350649 206:0.36170211 207:0.23170732 208:0.34177214 209:0.36842105 210:0.47311828 211:0.49425286 212:0.29032257 213:0.34615386 214:0.36082473 215:0.29807693 216:0.33018869 217:0.32926831 218:0.33000001 219:0.47706422 220:0.56302524 221:0.52173913 222:0.56779659 223:0.52564102 224:0.67164177 225:0.48051947 226:0.35164836 227:0.33333334 228:0.19512194 229:0.53246754 230:0.56521738 231:0.61428571 232:0.44578314 233:0.34848484 234:0.21126761 235:0.60714287 236:0.61000001 237:0.66666669 238:0.63953489 239:0.4556962 240:0.3116883 241:0.53488374 242:0.26966292 243:0.31645569 244:0.43939394 245:0.60606062 246:0.51162791 247:0.4528302 248:0.30303031 249:0.36458334 250:0.36559141 251:0.50561798 252:0.44047618 253:0.59090906 254:0.50588238 255:0.32456142 256:0.27586207 257:0.24271844 258:0.40707964 259:0.76249999 260:0.78048778 261:0.44897959 262:0.31818181 263:0.30927834 264:0.15000001 265:0.68539327 266:0.61445785 267:0.55913979 268:0.38383839 269:0.55263156 270:0.11 271:0.51923078 272:0.53271025 273:0.4909091 274:0.40229884 275:0.51086956 276:0.22448979 277:0.38297874 278:0.22340426 279:0.22222222 280:0.5151515 281:0.40206185 282:0.25 283:0.49462366 284:0.37234041 285:0.37 286:0.72222221 287:0.57608694 288:0.38043478 
0.2266895077284259 1:0.63207549 2:0.74226803 3:0.72972971 4:0.38333333 5:0.31999999 6:0.3425926 7:0.62886596 8:0.87804878 9:0.80434781 10:0.42708334 11:0.62650603 12:0.38135594 13:0.73033708 14:0.875 15:0.74324322 16:0.49438202 17:0.56790125 18:0.37719297 19:0.63829786 20:0.8214286 21:0.74468082 22:0.625 23:0.68686867 24:0.4537037 25:0.62637365 26:0.70930231 27:0.4893617 28:0.45882353 29:0.52439022 30:0.40384614 31:0.65591395 32:0.5925926 33:0.66265059 34:0.62790698 35:0.64516127 36:0.58878505 37:0.44444445 38:0.73148149 39:0.78260869 40:0.42727274 41:0.38383839 42:0.36666667 43:0.80821919 44:0.83823532 45:0.88571429 46:0.48051947 47:0.61764705 48:0.40298507 49:0.90789473 50:0.85365856 51:0.96103895 52:0.70666665 53:0.46153846 54:0.36619717 55:0.60759491 56:0.77631581 57:0.92391306 58:0.78378379 59:0.51685393 60:0.43902439 61:0.75999999 62:0.62352943 63:0.61971831 64:0.45333335 65:0.38666666 66:0.46052632 67:0.57317072 68:0.5 69:0.5 70:0.54945058 71:0.55000001 72:0.54807693 73:0.46511629 74:0.56862748 75:0.77570093 76:0.54782611 77:0.34313726 78:0.31067961 79:0.63636363 80:0.61904764 81:0.79104477 82:0.48192772 83:0.7027027 84:0.52499998 85:0.82278478 86:0.83749998 87:0.83333331 88:0.65753424 89:0.37142858 90:0.2345679 91:0.51724136 92:0.7972973 93:0.83116883 94:0.63013697 95:0.49315068 96:0.52941179 97:0.72527474 98:0.65333331 99:0.52857143 100:0.38805971 101:0.32394367 102:0.42168674 103:0.60714287 104:0.51190478 105:0.51685393 106:0.45652175 107:0.48837209 108:0.56097561 109:0.74157304 110:0.5625 111:0.65346533 112:0.4789916 113:0.24242425 114:0.21590909 115:0.64210528 116:0.69736844 117:0.65517241 118:0.44144145 119:0.4375 120:0.60759491 121:0.66666669 122:0.67777777 123:0.65882355 124:0.51546389 125:0.47058824 126:0.48913044 127:0.55882353 128:0.67021275 129:0.73404253 130:0.65432101 131:0.41666666 132:0.7027027 133:0.56637168 134:0.69892472 135:0.54444444 136:0.42857143 137:0.41573033 138:0.56989247 139:0.72173911 140:0.64285713 141:0.60439563 142:0.65591395 143:0.70238096 144:0.5777778 145:0.70297033 146:0.36781609 147:0.56074768 148:0.41880342 149:0.27826086 150:0.1891892 151:0.63809526 152:0.6511628 153:0.78723407 154:0.55769229 155:0.3131313 156:0.43000001 157:0.62857145 158:0.72500002 159:0.82926828 160:0.58888888 161:0.42391303 162:0.62352943 163:0.60176992 164:0.69230771 165:0.72477067 166:0.58947366 167:0.39175257 168:0.6134454 169:0.5043478 170:0.65263158 171:0.67010307 172:0.47524753 173:0.45192307 174:0.57999998 175:0.52884614 176:0.53260869 177:0.58620691 178:0.57731956 179:0.60000002 180:0.47916666 181:0.66019416 182:0.51456308 183:0.59016395 184:0.45871559 185:0.42592594 186:0.53932583 187:0.77499998 188:0.98360658 189:1 190:0.63636363 191:0.54216868 192:0.38961038 193:0.82432431 194:0.81538463 195:1 196:0.6891892 197:0.44776121 198:0.36619717 199:0.70731705 200:0.76530612 201:0.90825689 202:0.72093022 203:0.52564102 204:0.42168674 205:0.5714286 206:0.77659577 207:0.82926828 208:0.72151899 209:0.61052632 210:0.63440859 211:0.60919541 212:0.52688169 213:0.47115386 214:0.45360824 215:0.44230768 216:0.35849056 217:0.4512195 218:0.47 219:0.62385321 220:0.38655463 221:0.39130434 222:0.68644071 223:0.52564102 224:0.80597013 225:0.97402596 226:0.62637365 227:0.49275362 228:0.2682927 229:0.61038959 230:0.72463769 231:0.80000001 232:0.60240966 233:0.36363637 234:0.29577464 235:0.63095236 236:0.73000002 237:0.75490195 238:0.62790698 239:0.43037975 240:0.36363637 241:0.62790698 242:0.74157304 243:0.84810126 244:0.63636363 245:0.65656567 246:0.60465115 247:0.58490568 248:0.50505048 249:0.44791666 250:0.47311828 251:0.51685393 252:0.42857143 253:0.43181819 254:0.41176471 255:0.39473686 256:0.27586207 257:0.30097088 258:0.56637168 259:0.64999998 260:0.71951222 261:0.65306121 262:0.37272727 263:0.41237113 264:0.46000001 265:0.66292137 266:0.6987952 267:0.7096774 268:0.35353535 269:0.60526317 270:0.31999999 271:0.61538464 272:0.67289722 273:0.64545453 274:0.44827586 275:0.51086956 276:0.35714287 277:0.47872341 278:0.59574467 279:0.5151515 280:0.52525252 281:0.48453608 282:0.47826087 283:0.48387095 284:0.41489363 285:0.52999997 286:0.67777777 287:0.6630435 288:0.63043481 
0.2996731310355739 1:0.33962265 2:0.35051546 3:0.15315315 4:0.25833333 5:0.40000001 6:0.19444445 7:0.19587629 8:0.17073171 9:0.17391305 10:0.38541666 11:0.66265059 12:0.15254237 13:0.21348314 14:0.027777778 15:0.067567565 16:0.14606741 17:0.2962963 18:0.3508772 19:0.23404256 20:0.11904762 21:0.04255319 22:0.53409094 23:0.58585858 24:0.62962961 25:0.12087912 26:0.069767445 27:0.08510638 28:0.3882353 29:0.58536583 30:0.5 31:0.29032257 32:0.18518518 33:0.21686748 34:0.45348838 35:0.61290324 36:0.49532712 37:0.25641027 38:0.24074075 39:0.2 40:0.2 41:0.50505048 42:0.30000001 43:0.24657534 44:0.13235295 45:0.14285715 46:0.12987013 47:0.20588236 48:0.074626863 49:0.23684211 50:0.34146342 51:0.32467532 52:0.29333332 53:0.38461539 54:0.21126761 55:0.25316456 56:0.17105263 57:0.27173913 58:0.44594595 59:0.66292137 60:0.43902439 61:0.25333333 62:0.070588239 63:0.15492958 64:0.36000001 65:0.54666668 66:0.4868421 67:0.24390244 68:0.071428575 69:0.054347824 70:0.07692308 71:0.20999999 72:0.26923078 73:0.33720931 74:0.35294119 75:0.29906541 76:0.26956522 77:0.55882353 78:0.54368931 79:0.2857143 80:0.2857143 81:0.34328359 82:0.31325302 83:0.4054054 84:0.5 85:0.31645569 86:0.38749999 87:0.58333331 88:0.47945204 89:0.2 90:0.16049382 91:0.31034482 92:0.3108108 93:0.38961038 94:0.369863 95:0.38356164 96:0.44705883 97:0.34065935 98:0.14666666 99:0.37142858 100:0.58208954 101:0.63380283 102:0.49397591 103:0.32142857 104:0.05952381 105:0.14606741 106:0.25 107:0.3488372 108:0.41463414 109:0.41573033 110:0.52499998 111:0.38613862 112:0.36974791 113:0.27272728 114:0.32954547 115:0.2631579 116:0.34210527 117:0.37931034 118:0.37837839 119:0.375 120:0.62025315 121:0.28431374 122:0.25555557 123:0.3764706 124:0.40206185 125:0.35294119 126:0.2173913 127:0.25490198 128:0.20212767 129:0.41489363 130:0.56790125 131:0.78571427 132:0.82882881 133:0.25663716 134:0.19354838 135:0.36666667 136:0.53061223 137:0.77528089 138:0.65591395 139:0.32173914 140:0.29591838 141:0.31868133 142:0.61290324 143:0.66666669 144:0.56666666 145:0.23762377 146:0.36781609 147:0.41121495 148:0.3931624 149:0.28695652 150:0.25225225 151:0.14285715 152:0.1627907 153:0.35106382 154:0.34615386 155:0.46464646 156:0.58999997 157:0.15238096 158:0.125 159:0.37804878 160:0.45555556 161:0.71739131 162:0.81176472 163:0.28318584 164:0.25961539 165:0.45871559 166:0.43157893 167:0.35051546 168:0.54621851 169:0.22608696 170:0.25263157 171:0.3298969 172:0.38613862 173:0.42307693 174:0.63 175:0.25961539 176:0.34782609 177:0.45977011 178:0.69072163 179:0.7263158 180:0.61458331 181:0.17475729 182:0.22330096 183:0.25409836 184:0.33027524 185:0.2962963 186:0.25842696 187:0.1875 188:0.16393442 189:0.25333333 190:0.30681819 191:0.57831323 192:0.42857143 193:0.25675675 194:0.23076923 195:0.390625 196:0.36486486 197:0.5970149 198:0.38028169 199:0.36585367 200:0.45918366 201:0.58715594 202:0.63953489 203:0.62820512 204:0.53012049 205:0.3116883 206:0.18085106 207:0.18292683 208:0.50632912 209:0.82105261 210:0.79569894 211:0.42528737 212:0.27956989 213:0.31730768 214:0.42268041 215:0.51923078 216:0.46226415 217:0.23170732 218:0.18000001 219:0.17431192 220:0.23529412 221:0.19130434 222:0.22881356 223:0.17948718 224:0.089552239 225:0.16883117 226:0.25274727 227:0.27536231 228:0.24390244 229:0.20779221 230:0.1594203 231:0.18571429 232:0.22891566 233:0.34848484 234:0.30985916 235:0.36904761 236:0.41999999 237:0.42156863 238:0.41860464 239:0.50632912 240:0.44155845 241:0.31395349 242:0.11235955 243:0.11392405 244:0.27272728 245:0.62626261 246:0.69767439 247:0.33018869 248:0.23232323 249:0.1875 250:0.31182796 251:0.60674155 252:0.58333331 253:0.34090909 254:0.15294118 255:0.16666667 256:0.1637931 257:0.16504854 258:0.28318584 259:0.16249999 260:0 261:0.081632651 262:0.22727273 263:0.43298969 264:0.38999999 265:0.19101124 266:0 267:0.086021505 268:0.25252524 269:0.7368421 270:0.41999999 271:0.26923078 272:0.23364486 273:0.19090909 274:0.22988506 275:0.32608697 276:0.22448979 277:0.18085106 278:0.08510638 279:0.070707068 280:0.36363637 281:0.36082473 282:0.36956522 283:0.30107528 284:0.19148937 285:0.36000001 286:0.51111114 287:0.67391306 288:0.61956519 
0.8040737972387235 1:0.38679245 2:0.42268041 3:0.31531531 4:0.33333334 5:0.33000001 6:0.27777779 7:0.52577317 8:0.62195122 9:0.30434781 10:0.4375 11:0.54216868 12:0.19491525 13:0.44943821 14:0.6111111 15:0.35135135 16:0.35955057 17:0.20987654 18:0.24561404 19:0.56382978 20:0.70238096 21:0.26595744 22:0.19318181 23:0.29292929 24:0.30555555 25:0.3956044 26:0.55813956 27:0.23404256 28:0.094117649 29:0.28048781 30:0.25961539 31:0.65591395 32:0.69135803 33:0.39759037 34:0.26744187 35:0.32258064 36:0.32710281 37:0.37606838 38:0.5925926 39:0.45217392 40:0.38181818 41:0.35353535 42:0.36666667 43:0.60273975 44:0.64705884 45:0.37142858 46:0.24675325 47:0.32352942 48:0.25373134 49:0.56578946 50:0.70731705 51:0.5714286 52:0.28 53:0.41025642 54:0.40845069 55:0.62025315 56:0.80263156 57:0.5869565 58:0.4054054 59:0.40449437 60:0.40243903 61:0.45333335 62:0.29411766 63:0.21126761 64:0.25333333 65:0.31999999 66:0.39473686 67:0.58536583 68:0.44047618 69:0.19565217 70:0.1978022 71:0.25999999 72:0.32692307 73:0.43023255 74:0.44117647 75:0.42056075 76:0.46086955 77:0.42156863 78:0.37864077 79:0.5714286 80:0.5714286 81:0.43283582 82:0.33734939 83:0.62162161 84:0.51249999 85:0.5316456 86:0.57499999 87:0.54166669 88:0.43835616 89:0.5714286 90:0.38271606 91:0.39080459 92:0.64864862 93:0.44155845 94:0.47945204 95:0.49315068 96:0.52941179 97:0.40659341 98:0.13333334 99:0.18571429 100:0.25373134 101:0.26760563 102:0.46987951 103:0.52678573 104:0.22619048 105:0.19101124 106:0.22826087 107:0.26744187 108:0.43902439 109:0.44943821 110:0.22499999 111:0.24752475 112:0.34453782 113:0.36363637 114:0.32954547 115:0.51578945 116:0.43421054 117:0.22988506 118:0.31531531 119:0.51041669 120:0.60759491 121:0.40196079 122:0.36666667 123:0.23529412 124:0.31958762 125:0.44705883 126:0.47826087 127:0.41176471 128:0.45744681 129:0.23404256 130:0.22222222 131:0.2857143 132:0.54054052 133:0.2300885 134:0.1827957 135:0.13333334 136:0.17346939 137:0.32584271 138:0.48387095 139:0.39130434 140:0.37755102 141:0.26373628 142:0.33333334 143:0.39285713 144:0.42222223 145:0.38613862 146:0.16091955 147:0.28971961 148:0.35042736 149:0.34782609 150:0.35135135 151:0.48571429 152:0.43023255 153:0.23404256 154:0.25961539 155:0.33333334 156:0.47 157:0.41904762 158:0.38749999 159:0.31707317 160:0.25555557 161:0.40217391 162:0.68235296 163:0.46902654 164:0.50961536 165:0.32110092 166:0.23157895 167:0.42268041 168:0.63865548 169:0.23478261 170:0.18947369 171:0.072164945 172:0.14851485 173:0.29807693 174:0.44 175:0.43269232 176:0.36956522 177:0.16091955 178:0.25773194 179:0.18947369 180:0.29166666 181:0.32038835 182:0.33980581 183:0.29508197 184:0.39449543 185:0.4074074 186:0.38202247 187:0.51249999 188:0.57377046 189:0.36000001 190:0.36363637 191:0.38554215 192:0.38961038 193:0.5 194:0.53846157 195:0.515625 196:0.28378379 197:0.55223882 198:0.47887325 199:0.48780489 200:0.69387758 201:0.54128438 202:0.40697673 203:0.48717949 204:0.3493976 205:0.2857143 206:0.28723404 207:0.18292683 208:0.21518987 209:0.29473683 210:0.31182796 211:0.48275861 212:0.23655914 213:0.13461539 214:0.13402061 215:0.20192307 216:0.21698113 217:0.43902439 218:0.40000001 219:0.33027524 220:0.35294119 221:0.31304348 222:0.33050847 223:0.55128205 224:0.62686568 225:0.35064936 226:0.36263737 227:0.55072463 228:0.34146342 229:0.5714286 230:0.69565219 231:0.54285717 232:0.26506025 233:0.31818181 234:0.33802816 235:0.58333331 236:0.70999998 237:0.57843137 238:0.44186047 239:0.25316456 240:0.20779221 241:0.48837209 242:0.42696628 243:0.31645569 244:0.21212122 245:0.35353535 246:0.25581396 247:0.58490568 248:0.43434343 249:0.1875 250:0.11827957 251:0.23595506 252:0.25 253:0.5 254:0.44705883 255:0.32456142 256:0.31034482 257:0.24271844 258:0.30973452 259:0.60000002 260:0.62195122 261:0.30612245 262:0.29090908 263:0.15463917 264:0.31 265:0.51685393 266:0.59036142 267:0.30107528 268:0.4040404 269:0.42105263 270:0.27000001 271:0.54807693 272:0.64485979 273:0.35454544 274:0.22988506 275:0.52173913 276:0.25510204 277:0.41489363 278:0.4893617 279:0.18181819 280:0.2020202 281:0.30927834 282:0.23913044 283:0.55913979 284:0.59574467 285:0.31 286:0.26666668 287:0.31521741 288:0.35869566 
0.1735882950992147 1:0.26415095 2:0.42268041 3:0.27027026 4:0.28333333 5:0.20999999 6:0.22222222 7:0.30927834 8:0.41463414 9:0.20652173 10:0.38541666 11:0.26506025 12:0.19491525 13:0.43820226 14:0.3888889 15:0.2972973 16:0.34831461 17:0.27160493 18:0.28947368 19:0.5106383 20:0.51190478 21:0.5 22:0.39772728 23:0.2020202 24:0.14814815 25:0.38461539 26:0.36046511 27:0.36170211 28:0.3764706 29:0.036585364 30:0.048076924 31:0.51612902 32:0.4074074 33:0.51807231 34:0.45348838 35:0.16129032 36:0.1682243 37:0.1965812 38:0.33333334 39:0.35652173 40:0.36363637 41:0.46464646 42:0.41111112 43:0.38356164 44:0.35294119 45:0.32857144 46:0.38961038 47:0.72058821 48:0.43283582 49:0.5131579 50:0.58536583 51:0.49350649 52:0.46666667 53:0.44871795 54:0.43661973 55:0.51898736 56:0.60526317 57:0.59782606 58:0.45945945 59:0.41573033 60:0.46341464 61:0.56 62:0.3764706 63:0.43661973 64:0.16 65:0.013333334 66:0.15789473 67:0.39024389 68:0.27380952 69:0.18478261 70:0.043956045 71:0.059999999 72:0.1826923 73:0.24418604 74:0.27450982 75:0.29906541 76:0.30434781 77:0.36274511 78:0.39805827 79:0.36363637 80:0.30158731 81:0.19402985 82:0.3493976 83:0.6891892 84:0.52499998 85:0.49367088 86:0.51249999 87:0.33333334 88:0.30136988 89:0.38571429 90:0.38271606 91:0.50574714 92:0.6081081 93:0.50649351 94:0.23287672 95:0.32876712 96:0.48235294 97:0.50549453 98:0.30666667 99:0.32857144 100:0 101:0 102:0.24096386 103:0.38392857 104:0.14285715 105:0.11235955 106:0.021739131 107:0.046511628 108:0.19512194 109:0.20224719 110:0.2375 111:0.17821783 112:0.24369748 113:0.22222222 114:0.31818181 115:0.34736842 116:0.28947368 117:0.10344828 118:0.15315315 119:0.33333334 120:0.59493673 121:0.38235295 122:0.34444445 123:0.14117648 124:0.10309278 125:0.29411766 126:0.25 127:0.27450982 128:0.4893617 129:0.42553192 130:0 131:0 132:0.31531531 133:0.27433628 134:0.31182796 135:0.18888889 136:0 137:0 138:0.20430107 139:0.34782609 140:0.34693879 141:0.34065935 142:0.16129032 143:0.095238097 144:0.21111111 145:0.10891089 146:0.080459774 147:0.1682243 148:0.22222222 149:0.24347825 150:0.27927929 151:0.18095239 152:0.1627907 153:0.074468084 154:0.15384616 155:0.3131313 156:0.28 157:0.25714287 158:0.2375 159:0.14634146 160:0.12222222 161:0.38043478 162:0.49411765 163:0.34513274 164:0.51923078 165:0.44036698 166:0.18947369 167:0.082474224 168:0.35294119 169:0.2 170:0.31578946 171:0.26804122 172:0.12871288 173:0 174:0.17 175:0.30769232 176:0.40217391 177:0.47126436 178:0.34020618 179:0.042105265 180:0.22916667 181:0.15533981 182:0.10679612 183:0.1557377 184:0.21100917 185:0.27777779 186:0.24719101 187:0.27500001 188:0.21311475 189:0.14666666 190:0.19318181 191:0.40963855 192:0.20779221 193:0.33783785 194:0.36923078 195:0.296875 196:0.094594598 197:0.19402985 198:0.056338027 199:0.43902439 200:0.64285713 201:0.62385321 202:0.24418604 203:0.07692308 204:0.10843374 205:0.32467532 206:0.25531915 207:0.24390244 208:0 209:0.14736842 210:0.23655914 211:0.44827586 212:0.34408602 213:0.31730768 214:0.082474224 215:0.14423077 216:0.20754717 217:0.18292683 218:0.22 219:0.22018349 220:0.23529412 221:0.20869565 222:0.25423729 223:0.25641027 224:0.37313432 225:0.23376623 226:0.16483517 227:0.47826087 228:0.21951219 229:0.36363637 230:0.33333334 231:0.2857143 232:0.15662651 233:0.27272728 234:0.12676056 235:0.55952382 236:0.63 237:0.67647058 238:0.41860464 239:0.12658228 240:0.077922076 241:0.46511629 242:0.25842696 243:0.35443038 244:0.030303031 245:0.19191919 246:0.24418604 247:0.49056605 248:0.38383839 249:0.36458334 250:0.1827957 251:0.16853933 252:0.25 253:0.19318181 254:0.2 255:0.22807017 256:0.22413793 257:0.22330096 258:0.27433628 259:0.30000001 260:0.30487806 261:0.21428572 262:0.27272728 263:0.37113401 264:0.27000001 265:0.43820226 266:0.31325302 267:0.19354838 268:0.15151516 269:0.34210527 270:0.2 271:0.50961536 272:0.58878505 273:0.48181817 274:0.24137931 275:0.076086953 276:0.06122449 277:0.40425533 278:0.35106382 279:0.34343433 280:0.43434343 281:0.041237112 282:0.14130434 283:0.54838711 284:0.40425533 285:0.5 286:0.54444444 287:0.20652173 288:0.25 
0.2699233043154912 1:0.47169811 2:0.40206185 3:0.25225225 4:0.27500001 5:0.27000001 6:0.39814815 7:0.35051546 8:0.28048781 9:0.16304348 10:0.29166666 11:0.43373495 12:0.34745762 13:0.33707866 14:0.25 15:0.14864865 16:0.20224719 17:0.2962963 18:0.28070176 19:0.36170211 20:0.36904761 21:0.28723404 22:0.27272728 23:0.42424244 24:0.28703704 25:0.17582418 26:0.08139535 27:0.074468084 28:0.05882353 29:0.12195122 30:0.067307696 31:0.25806451 32:0.19753087 33:0.26506025 34:0.27906978 35:0.26881722 36:0.18691589 37:0.33333334 38:0.35185185 39:0.2521739 40:0.21818182 41:0.33333334 42:0.32222223 43:0.32876712 44:0.25 45:0.15714286 46:0.19480519 47:0.27941176 48:0.23880596 49:0.32894737 50:0.46341464 51:0.36363637 52:0.29333332 53:0.14102565 54:0.1971831 55:0.4556962 56:0.44736841 57:0.45652175 58:0.43243244 59:0.43820226 60:0.25609756 61:0.28 62:0.070588239 63:0 64:0 65:0.12 66:0.11842106 67:0.18292683 68:0.16666667 69:0.18478261 70:0.17582418 71:0.20999999 72:0.27884614 73:0.37209302 74:0.30392158 75:0.28037384 76:0.2521739 77:0.25490198 78:0.29126215 79:0.42857143 80:0.2857143 81:0.28358209 82:0.30120483 83:0.3108108 84:0.38749999 85:0.41772151 86:0.40000001 87:0.33333334 88:0.26027396 89:0.17142858 90:0.16049382 91:0.43678162 92:0.45945945 93:0.36363637 94:0.23287672 95:0.15068494 96:0.3764706 97:0.35164836 98:0.013333334 99:0 100:0 101:0.028169014 102:0.18072289 103:0.3392857 104:0.11904762 105:0.21348314 106:0.29347825 107:0.24418604 108:0.25609756 109:0.43820226 110:0.28749999 111:0.2970297 112:0.24369748 113:0.23232323 114:0.22727273 115:0.45263159 116:0.25 117:0.18390805 118:0.22522523 119:0.33333334 120:0.44303799 121:0.46078432 122:0.32222223 123:0.22352941 124:0.20618556 125:0.32941177 126:0.28260869 127:0.39215687 128:0.35106382 129:0.30851063 130:0.2345679 131:0.29761904 132:0.57657659 133:0.28318584 134:0.12903225 135:0.022222223 136:0.12244898 137:0.20224719 138:0.25806451 139:0.40000001 140:0.27551019 141:0.20879121 142:0.33333334 143:0.27380952 144:0.16666667 145:0.40594059 146:0.22988506 147:0.29906541 148:0.23931624 149:0.22608696 150:0.24324325 151:0.32380953 152:0.22093023 153:0.24468085 154:0.13461539 155:0.16161616 156:0.25999999 157:0.35238096 158:0.1875 159:0.25609756 160:0.21111111 161:0.34782609 162:0.49411765 163:0.38053098 164:0.49038461 165:0.48623854 166:0.31578946 167:0.29896906 168:0.51260507 169:0.40869564 170:0.46315789 171:0.39175257 172:0.37623763 173:0.375 174:0.50999999 175:0.64423078 176:0.5 177:0.50574714 178:0.6082474 179:0.40000001 180:0.41666666 181:0.16504854 182:0.17475729 183:0.22131148 184:0.34862384 185:0.39814815 186:0.42696628 187:0.25 188:0.27868852 189:0.18666667 190:0.20454545 191:0.33734939 192:0.2857143 193:0.2972973 194:0.2923077 195:0.3125 196:0.24324325 197:0.17910448 198:0.28169015 199:0.39024389 200:0.52040815 201:0.51376146 202:0.45348838 203:0.48717949 204:0.50602412 205:0.53246754 206:0.47872341 207:0.57317072 208:0.6708861 209:0.80000001 210:0.8172043 211:0.71264368 212:0.50537634 213:0.42307693 214:0.37113401 215:0.39423078 216:0.32075471 217:0.18292683 218:0.16 219:0.24770643 220:0.38655463 221:0.40000001 222:0.45762712 223:0.32051283 224:0.25373134 225:0.20779221 226:0.2857143 227:0.26086956 228:0.21951219 229:0.37662336 230:0.28985506 231:0.2857143 232:0.30120483 233:0.24242425 234:0.26760563 235:0.48809522 236:0.54000002 237:0.54901963 238:0.53488374 239:0.4050633 240:0.4025974 241:0.46511629 242:0.41573033 243:0.59493673 244:0.60606062 245:0.64646465 246:0.77906978 247:0.4245283 248:0.45454547 249:0.40625 250:0.32258064 251:0.35955057 252:0.35714287 253:0.39772728 254:0.29411766 255:0.24561404 256:0.27586207 257:0.29126215 258:0.52212387 259:0.36250001 260:0.32926831 261:0.20408164 262:0.21818182 263:0.18556701 264:0.37 265:0.33707866 266:0.25301206 267:0.15053764 268:0.21212122 269:0.46052632 270:0.27000001 271:0.41346154 272:0.46728972 273:0.39090911 274:0.25287357 275:0.33695653 276:0.37755102 277:0.26595744 278:0.26595744 279:0.23232323 280:0.42424244 281:0.28865978 282:0.48913044 283:0.26881722 284:0.31914893 285:0.44999999 286:0.56666666 287:0.46739131 288:0.45652175 
0.4317916920990726 1:0.5 2:0.58762884 3:0.33333334 4:0.34999999 5:0.34999999 6:0.26851851 7:0.36082473 8:0.41463414 9:0.27173913 10:0.57291669 11:0.53012049 12:0.26271185 13:0.48314607 14:0.44444445 15:0.36486486 16:0.53932583 17:0.38271606 18:0.32456142 19:0.31914893 20:0.41666666 21:0.56382978 22:0.625 23:0.37373737 24:0.26851851 25:0.43956044 26:0.3255814 27:0.60638297 28:0.28235295 29:0.24390244 30:0.29807693 31:0.44086021 32:0.27160493 33:0.30120483 34:0.08139535 35:0.15053764 36:0.26168224 37:0.32478634 38:0.51851851 39:0.34782609 40:0.36363637 41:0.62626261 42:0.34444445 43:0.4520548 44:0.45588234 45:0.30000001 46:0.22077923 47:0.32352942 48:0.28358209 49:0.63157892 50:0.80487806 51:0.79220778 52:0.68000001 53:0.52564102 54:0.70422536 55:0.43037975 56:0.39473686 57:0.55434781 58:0.5 59:0.38202247 60:0.43902439 61:0.62666667 62:0.65882355 63:0.67605633 64:0.2 65:0.37333333 66:0.44736841 67:0.56097561 68:0.30952382 69:0.18478261 70:0.065934069 71:0.19 72:0.27884614 73:0.40697673 74:0.46078432 75:0.32710281 76:0.26956522 77:0.56862748 78:0.3883495 79:0.49350649 80:0.38095239 81:0.26865673 82:0.25301206 83:0.47297296 84:0.3125 85:0.62025315 86:0.78750002 87:0.6111111 88:0.5479452 89:0.54285717 90:0.48148149 91:0.43678162 92:0.41891891 93:0.35064936 94:0.42465752 95:0.34246576 96:0.25882354 97:0.59340662 98:0.37333333 99:0.25714287 100:0.29850745 101:0.3943662 102:0.3493976 103:0.48214287 104:0.083333336 105:0.078651689 106:0.14130434 107:0.1744186 108:0.36585367 109:0.44943821 110:0.53750002 111:0.37623763 112:0.33613446 113:0.3131313 114:0.45454547 115:0.38947368 116:0.35526314 117:0.19540229 118:0.26126125 119:0.47916666 120:0.8101266 121:0.5 122:0.5 123:0.3882353 124:0.36082473 125:0.41176471 126:0.48913044 127:0.32352942 128:0.5 129:0.31914893 130:0.18518518 131:0.32142857 132:0.63963962 133:0.3539823 134:0.31182796 135:0.23333333 136:0.31632653 137:0.35955057 138:0.40860215 139:0.32173914 140:0.23469388 141:0.10989011 142:0.15053764 143:0.19047619 144:0.27777779 145:0.35643566 146:0.47126436 147:0.37383178 148:0.33333334 149:0.28695652 150:0.3063063 151:0.26666668 152:0.29069766 153:0.27659574 154:0.32692307 155:0.47474748 156:0.47 157:0.29523811 158:0.38749999 159:0.37804878 160:0.32222223 161:0.42391303 162:0.49411765 163:0.26548672 164:0.54807693 165:0.45871559 166:0.25263157 167:0.10309278 168:0.35294119 169:0.26086956 170:0.32631579 171:0.2783505 172:0.37623763 173:0.47115386 174:0.49000001 175:0.23076923 176:0.42391303 177:0.28735632 178:0.25773194 179:0.22105263 180:0.30208334 181:0.34951457 182:0.48543689 183:0.31967214 184:0.32110092 185:0.3611111 186:0.31460676 187:0.34999999 188:0.47540984 189:0.34666666 190:0.35227272 191:0.3493976 192:0.18181819 193:0.43243244 194:0.53846157 195:0.421875 196:0.2027027 197:0.23880596 198:0.15492958 199:0.51219511 200:0.70408165 201:0.59633029 202:0.37209302 203:0.37179488 204:0.36144578 205:0.27272728 206:0.21276596 207:0.15853658 208:0.29113925 209:0.50526315 210:0.54838711 211:0.26436782 212:0.29032257 213:0.38461539 214:0.39175257 215:0.45192307 216:0.48113209 217:0.41463414 218:0.50999999 219:0.37614679 220:0.2857143 221:0.2521739 222:0.30508474 223:0.37179488 224:0.37313432 225:0.37662336 226:0.35164836 227:0.57971013 228:0.31707317 229:0.36363637 230:0.40579709 231:0.38571429 232:0.30120483 233:0.36363637 234:0.32394367 235:0.53571427 236:0.57999998 237:0.64705884 238:0.51162791 239:0.32911393 240:0.29870129 241:0.3488372 242:0.11235955 243:0.27848101 244:0.10606061 245:0.4040404 246:0.52325583 247:0.29245284 248:0.21212122 249:0.30208334 250:0.20430107 251:0.32584271 252:0.38095239 253:0.56818181 254:0.5529412 255:0.32456142 256:0.30172414 257:0.24271844 258:0.34513274 259:0.38749999 260:0.42682928 261:0.26530612 262:0.40000001 263:0.50515461 264:0.28999999 265:0.33707866 266:0.43373495 267:0.33333334 268:0.37373737 269:0.44736841 270:0.2 271:0.38461539 272:0.49532712 273:0.47272727 274:0.28735632 275:0.2173913 276:0.18367347 277:0.29787233 278:0.17021276 279:0.26262626 280:0.45454547 281:0.38144329 282:0.39130434 283:0.29032257 284:0.17021276 285:0.31 286:0.25555557 287:0.26086956 288:0.32608697 
0.04316001420936955 1:0.49056605 2:0.50515461 3:0.22522523 4:0.21666667 5:0.22 6:0.24074075 7:0.40206185 8:0.32926831 9:0.15217391 10:0.40625 11:0.46987951 12:0.25423729 13:0.37078652 14:0.34722221 15:0.12162162 16:0.21348314 17:0.2962963 18:0.34210527 19:0.46808511 20:0.53571427 21:0.30851063 22:0.15909091 23:0.36363637 24:0.23148148 25:0.51648355 26:0.43023255 27:0.21276596 28:0.11764706 29:0.25609756 30:0.25 31:0.61290324 32:0.46913579 33:0.31325302 34:0.30232558 35:0.39784947 36:0.42990655 37:0.37606838 38:0.3888889 39:0.33913043 40:0.39090911 41:0.65656567 42:0.5 43:0.52054793 44:0.45588234 45:0.40000001 46:0.46753246 47:0.5147059 48:0.44776121 49:0.30263159 50:0.42682928 51:0.36363637 52:0.22666667 53:0.35897437 54:0.29577464 55:0.36708862 56:0.35526314 57:0.32608697 58:0.25675675 59:0.31460676 60:0.32926831 61:0.50666666 62:0.27058825 63:0.21126761 64:0.33333334 65:0.37333333 66:0.39473686 67:0.46341464 68:0.2857143 69:0.13043478 70:0.0989011 71:0.23 72:0.36538461 73:0.37209302 74:0.38235295 75:0.39252338 76:0.33913043 77:0.55882353 78:0.47572815 79:0.42857143 80:0.38095239 81:0.50746268 82:0.50602412 83:0.43243244 84:0.4375 85:0.37974682 86:0.36250001 87:0.34722221 88:0.2739726 89:0.2 90:0.16049382 91:0.25287357 92:0.33783785 93:0.3116883 94:0.24657534 95:0.23287672 96:0.42352942 97:0.35164836 98:0.093333334 99:0.22857143 100:0.34328359 101:0.36619717 102:0.40963855 103:0.38392857 104:0.083333336 105:0.13483146 106:0.15217391 107:0.18604651 108:0.41463414 109:0.35955057 110:0.5 111:0.23762377 112:0.2184874 113:0.18181819 114:0.30681819 115:0.29473683 116:0.32894737 117:0.16091955 118:0.17117117 119:0.33333334 120:0.63291138 121:0.33333334 122:0.26666668 123:0.14117648 124:0.17525773 125:0.30588236 126:0.22826087 127:0.32352942 128:0.32978722 129:0.27659574 130:0.14814815 131:0.21428572 132:0.45045045 133:0.33628318 134:0.15053764 135:0.16666667 136:0.19387755 137:0.30337077 138:0.36559141 139:0.60000002 140:0.29591838 141:0.30769232 142:0.34408602 143:0.39285713 144:0.30000001 145:0.15841584 146:0.26436782 147:0.074766353 148:0.051282052 149:0.052173913 150:0.045045044 151:0.18095239 152:0.12790698 153:0 154:0.03846154 155:0.25252524 156:0.23 157:0.31428573 158:0.15000001 159:0.097560972 160:0.13333334 161:0.39130434 162:0.51764709 163:0.44247788 164:0.45192307 165:0.36697248 166:0.25263157 167:0.2783505 168:0.52941179 169:0.31304348 170:0.18947369 171:0.19587629 172:0.25742576 173:0.27884614 174:0.38 175:0.32692307 176:0.25 177:0.32183909 178:0.4742268 179:0.38947368 180:0.45833334 181:0.058252428 182:0.058252428 183:0.016393442 184:0.018348623 185:0.09259259 186:0.067415729 187:0.2 188:0.16393442 189:0.013333334 190:0.045454547 191:0.46987951 192:0.24675325 193:0.4054054 194:0.21538462 195:0.234375 196:0.13513513 197:0.25373134 198:0.1971831 199:0.4512195 200:0.48979592 201:0.4678899 202:0.36046511 203:0.1923077 204:0.27710843 205:0.14285715 206:0.095744684 207:0.1097561 208:0.21518987 209:0.33684212 210:0.44086021 211:0.27586207 212:0.1827957 213:0.26923078 214:0.25773194 215:0.31730768 216:0.25471699 217:0.1097561 218:0.1 219:0.082568809 220:0 221:0.043478262 222:0.059322033 223:0.26923078 224:0.14925373 225:0.090909094 226:0.010989011 227:0.10144927 228:0 229:0.4025974 230:0.33333334 231:0.2 232:0.13253012 233:0.21212122 234:0.11267605 235:0.53571427 236:0.51999998 237:0.46078432 238:0.33720931 239:0.35443038 240:0.33766234 241:0.3488372 242:0.16853933 243:0.25316456 244:0.16666667 245:0.44444445 246:0.53488374 247:0.4528302 248:0.32323232 249:0.26041666 250:0.23655914 251:0.43820226 252:0.42857143 253:0.34090909 254:0.24705882 255:0.096491225 256:0.0086206896 257:0 258:0.11504425 259:0.30000001 260:0.28048781 261:0.1122449 262:0.027272727 263:0.15463917 264:0.15000001 265:0.42696628 266:0.3253012 267:0.15053764 268:0.17171717 269:0.35526314 270:0.1 271:0.56730771 272:0.59813082 273:0.40000001 274:0.1724138 275:0.5 276:0.25510204 277:0.47872341 278:0.37234041 279:0.18181819 280:0.27272728 281:0.34020618 282:0.35869566 283:0.51612902 284:0.39361703 285:0.41 286:0.45555556 287:0.43478259 288:0.46739131 
