svm_type c_svc
kernel_type rbf
gamma 0.09
nr_class 2
total_sv 134
rho 0.367975
label 28 5
nr_sv 69 65
SV
2.508675963053189 1:0.55238098 2:0.61956519 3:0.5714286 4:0.62626261 5:0.58095241 6:0.47368422 7:0.421875 8:0.59722221 9:0.51249999 10:0.5714286 11:0.58762884 12:0.38461539 13:0.4566929 14:0.61363637 15:0.66666669 16:0.58999997 17:0.6630435 18:0.50980395 19:0.63432837 20:0.60550457 21:0.70689654 22:0.75438595 23:0.75833333 24:0.5905512 25:0.6226415 26:0.63793105 27:0.76800001 28:0.79166669 29:0.6769231 30:0.5724138 31:0.57843137 32:0.58558559 33:0.99038464 34:0.90265489 35:0.86065573 36:0.61904764 37:0.30000001 38:0.41111112 39:0.5869565 40:0.63953489 41:0.63157892 42:0.45454547 43:0.39130434 44:0.51190478 45:0.64179105 46:0.5945946 47:0.62962961 48:0.67901236 49:0.47674417 50:0.63953489 51:0.71428573 52:0.67123288 53:0.73972601 54:0.58585858 55:0.5350877 56:0.64634144 57:0.64444447 58:0.73750001 59:0.69662923 60:0.64077669 61:0.47619048 62:0.62244898 63:0.73863637 64:0.76923078 65:0.7473684 66:0.73043478 67:0.35238096 68:0.39252338 69:0.56842107 70:0.65178573 71:0.63963962 72:0.55769229 73:0.3137255 74:0.44999999 75:0.52873564 76:0.46534654 77:0.5840708 78:0.47008547 79:0.41379312 80:0.57534248 81:0.63157892 82:0.66176468 83:0.71014494 84:0.62068963 85:0.41836736 86:0.68674701 87:0.66666669 88:0.73239434 89:0.7647059 90:0.63725489 91:0.46902654 92:0.57954544 93:0.66666669 94:0.6708861 95:0.75903612 96:0.76237625 97:0.40000001 98:0.65263158 99:0.74418604 100:0.7241379 101:0.80000001 102:0.71653545 103:0.27522936 104:0.39814815 105:0.49565217 106:0.69444442 107:0.73000002 108:0.69148934 109:0.5321101 110:0.49425286 111:0.6111111 112:0.71276593 113:0.65306121 114:0.53684211 115:0.66666669 116:0.40243903 117:0.55952382 118:0.73076922 119:0.69047618 120:0.47959185 121:0.60000002 122:0.61842108 123:0.64473683 124:0.66265059 125:0.75999999 126:0.60952383 127:0.49473685 128:0.76595747 129:0.72115386 130:0.66666669 131:0.84375 132:0.60000002 133:0.44660193 134:0.73737371 135:0.7241379 136:0.68333334 137:0.75490195 138:0.56097561 139:0.55000001 140:0.56701028 141:0.68141592 142:0.84615386 143:0.90566039 144:0.8108108 145:0.77777779 146:0.5869565 147:0.61904764 148:0.6857143 149:0.76530612 150:0.56730771 151:0.65957445 152:0.53260869 153:0.5151515 154:0.61538464 155:0.66346157 156:0.46226415 157:0.625 158:0.45744681 159:0.67010307 160:0.57943922 161:0.64210528 162:0.58771932 163:0.73043478 164:0.54054052 165:0.70689654 166:0.75221241 167:0.73636365 168:0.62992126 169:0.7904762 170:0.61666667 171:0.68907565 172:0.815534 173:0.81632656 174:0.62121212 175:0.77391303 176:0.58715594 177:0.82407409 178:0.824 179:0.80645162 180:0.79069769 181:0.6226415 182:0.69523811 183:0.76237625 184:0.76842105 185:0.76767677 186:0.83333331 187:0.38947368 188:0.50588238 189:0.60240966 190:0.46052632 191:0.58888888 192:0.60674155 193:0.55434781 194:0.61627907 195:0.67605633 196:0.80000001 197:0.80555558 198:0.75 199:0.48598132 200:0.71428573 201:0.83146065 202:0.83333331 203:0.83749998 204:0.77659577 205:0.43689319 206:0.67045456 207:0.65306121 208:0.60194176 209:0.65555555 210:0.69999999 211:0.32142857 212:0.5 213:0.50485438 214:0.53191489 215:0.54310346 216:0.556391 217:0.60576922 218:0.72826087 219:0.6813187 220:0.72826087 221:0.82291669 222:0.83928573 223:0.37837839 224:0.56962025 225:0.67073172 226:0.5714286 227:0.57303369 228:0.54651165 229:0.45833334 230:0.62352943 231:0.59722221 232:0.76623374 233:0.73809522 234:0.68085104 235:0.52427185 236:0.71590906 237:0.8051948 238:0.72500002 239:0.70999998 240:0.64035088 241:0.51428574 242:0.76595747 243:0.72727275 244:0.56666666 245:0.67647058 246:0.64227641 247:0.35555556 248:0.48387095 249:0.55263156 250:0.52808988 251:0.48672566 252:0.42957747 253:0.48760331 254:0.48113209 255:0.70329672 256:0.79797977 257:0.71739131 258:0.49107143 259:0.45631069 260:0.42708334 261:0.64197528 262:0.75949365 263:0.69565219 264:0.44339624 265:0.63529414 266:0.56410259 267:0.58974361 268:0.65432101 269:0.71794873 270:0.44954127 271:0.76999998 272:0.61956519 273:0.71568626 274:0.72727275 275:0.7647059 276:0.47517732 277:0.68085104 278:0.6857143 279:0.71774191 280:0.72500002 281:0.69354838 282:0.57352942 283:0.62376237 284:0.66666669 285:0.80991733 286:0.88524592 287:0.80000001 288:0.72649574 
0.5548274214493153 1:0.52380955 2:0.76086956 3:0.71428573 4:0.65656567 5:0.73333335 6:0.49473685 7:0.25 8:0.69444442 9:0.52499998 10:0.50549453 11:0.49484536 12:0.30769232 13:0.2519685 14:0.72727275 15:0.73737371 16:0.63 17:0.71739131 18:0.54901963 19:0.38059703 20:0.6880734 21:0.73275864 22:0.78070176 23:0.75 24:0.61417323 25:0.32075471 26:0.68965518 27:0.75199997 28:0.86666667 29:0.7153846 30:0.62068963 31:0.41176471 32:0.78378379 33:0.74038464 34:0.8318584 35:0.73770493 36:0.60317463 37:0.17 38:0.30000001 39:0.63043481 40:0.68604654 41:0.64210528 42:0.41414142 43:0.14130434 44:0.29761904 45:0.52238804 46:0.5 47:0.72839504 48:0.65432101 49:0.10465116 50:0.41860464 51:0.62857145 52:0.60273975 53:0.76712328 54:0.64646465 55:0.20175439 56:0.37804878 57:0.60000002 58:0.73750001 59:0.74157304 60:0.68932039 61:0.19047619 62:0.36734694 63:0.63636363 64:0.74725276 65:0.84210527 66:0.79130435 67:0.2 68:0.26168224 69:0.32631579 70:0.32142857 71:0.36036035 72:0.31730768 73:0.18627451 74:0.28749999 75:0.62068963 76:0.5247525 77:0.52212387 78:0.35897437 79:0.21839081 80:0.34246576 81:0.59210527 82:0.52941179 83:0.76811594 84:0.66666669 85:0.1632653 86:0.36144578 87:0.69333333 88:0.71830988 89:0.78823531 90:0.63725489 91:0.24778761 92:0.40909091 93:0.73076922 94:0.79746836 95:0.87951809 96:0.81188118 97:0.20999999 98:0.49473685 99:0.77906978 100:0.87356323 101:0.8888889 102:0.78740156 103:0.18348624 104:0.39814815 105:0.43478259 106:0.4074074 107:0.41999999 108:0.39361703 109:0.38532111 110:0.66666669 111:0.75555557 112:0.70212764 113:0.74489796 114:0.56842107 115:0.34920636 116:0.597561 117:0.58333331 118:0.66666669 119:0.65476191 120:0.41836736 121:0.23809524 122:0.71052629 123:0.81578946 124:0.68674701 125:0.94666666 126:0.72380954 127:0.2 128:0.70212764 129:0.72115386 130:0.6936937 131:0.86458331 132:0.65600002 133:0.22330096 134:0.69696969 135:0.67241377 136:0.73333335 137:0.93137252 138:0.71544713 139:0.23999999 140:0.71134019 141:0.69911504 142:0.70940173 143:0.85849059 144:0.77477479 145:0.36752138 146:0.8369565 147:0.71428573 148:0.6761905 149:0.76530612 150:0.625 151:0.37588653 152:0.69565219 153:0.4848485 154:0.40384614 155:0.58653843 156:0.44339624 157:0.2647059 158:0.64893615 159:0.8041237 160:0.68224299 161:0.76842105 162:0.66666669 163:0.24347825 164:0.64864862 165:0.84482759 166:0.8318584 167:0.89090908 168:0.74015749 169:0.17142858 170:0.60000002 171:0.78151262 172:0.87378639 173:0.95918369 174:0.75757575 175:0.26956522 176:0.67889911 177:0.8425926 178:0.68800002 179:0.78225809 180:0.84496123 181:0.17924528 182:0.31428573 183:0.55445546 184:0.43157893 185:0.43434343 186:0.49019608 187:0.18947369 188:0.25882354 189:0.60240966 190:0.53947371 191:0.58888888 192:0.55056179 193:0.086956523 194:0.39534885 195:0.77464789 196:0.69999999 197:0.91666669 198:0.75 199:0.13084112 200:0.40476191 201:0.69662923 202:0.73076922 203:0.76249999 204:0.79787236 205:0.1262136 206:0.40909091 207:0.60204083 208:0.592233 209:0.66666669 210:0.67272729 211:0.10714286 212:0.37037036 213:0.52427185 214:0.74468082 215:0.73275864 216:0.60902256 217:0.125 218:0.28260869 219:0.36263737 220:0.40217391 221:0.48958334 222:0.4107143 223:0.094594598 224:0.16455697 225:0.4512195 226:0.55952382 227:0.58426964 228:0.47674417 229:0.11458334 230:0.29411766 231:0.59722221 232:0.59740257 233:0.78571427 234:0.65957445 235:0.10679612 236:0.31818181 237:0.63636363 238:0.66250002 239:0.69999999 240:0.62280703 241:0.13333334 242:0.45744681 243:0.65909094 244:0.5777778 245:0.63725489 246:0.61788619 247:0.16296296 248:0.44354838 249:0.60526317 250:0.68539327 251:0.65486723 252:0.53521127 253:0.38016528 254:0.50943398 255:0.78021979 256:0.71717173 257:0.70652175 258:0.4017857 259:0.45631069 260:0.54166669 261:0.38271606 262:0.54430377 263:0.57608694 264:0.39622641 265:0.40000001 266:0.74358976 267:0.76923078 268:0.79012346 269:0.88461536 270:0.59633029 271:0.41999999 272:0.77173913 273:0.7647059 274:0.81818181 275:0.872549 276:0.57446808 277:0.22340426 278:0.70476192 279:0.70161289 280:0.76666665 281:0.81451613 282:0.71323532 283:0.33663365 284:0.79569894 285:0.65289259 286:0.8114754 287:0.83200002 288:0.81196582 
0.1831972615206743 1:0.45714286 2:0.68478262 3:0.58163267 4:0.55555558 5:0.66666669 6:0.75789475 7:0.421875 8:0.77777779 9:0.61250001 10:0.5714286 11:0.64948452 12:0.82417583 13:0.4566929 14:0.70454544 15:0.69696969 16:0.60000002 17:0.67391306 18:0.7352941 19:0.64925373 20:0.55963302 21:0.40517241 22:0.39473686 23:0.38333333 24:0.4566929 25:0.5 26:0.28448275 27:0.63200003 28:0.625 29:0.54615384 30:0.48275861 31:0.71568626 32:0.54054052 33:0.79807693 34:0.63716817 35:0.64754099 36:0.47619048 37:0.44 38:0.63333333 39:0.72826087 40:0.69767439 41:0.7157895 42:0.43434343 43:0.54347825 44:0.5714286 45:0.68656719 46:0.64864862 47:0.71604937 48:0.66666669 49:0.63953489 50:0.89534885 51:0.77142859 52:0.63013697 53:0.58904111 54:0.55555558 55:0.5350877 56:0.46341464 57:0.41111112 58:0.38749999 59:0.42696628 60:0.52427185 61:0.45714286 62:0.30612245 63:0.59090906 64:0.74725276 65:0.82105261 66:0.75652176 67:0.38095239 68:0.37383178 69:0.36842105 70:0.4107143 71:0.43243244 72:0.35576922 73:0.44117647 74:0.6875 75:0.62068963 76:0.56435645 77:0.57522124 78:0.37606838 79:0.56321841 80:0.60273975 81:0.65789473 82:0.64705884 83:0.79710144 84:0.67816091 85:0.62244898 86:0.75903612 87:0.72000003 88:0.61971831 89:0.5529412 90:0.44117647 91:0.51327431 92:0.43181819 93:0.33333334 94:0.2278481 95:0.3253012 96:0.48514852 97:0.44 98:0.38947368 99:0.5 100:0.62068963 101:0.63333333 102:0.63779527 103:0.40366971 104:0.44444445 105:0.35652173 106:0.42592594 107:0.34999999 108:0.37234041 109:0.60550457 110:0.64367819 111:0.72222221 112:0.68085104 113:0.59183675 114:0.49473685 115:0.52380955 116:0.52439022 117:0.69047618 118:0.87179488 119:0.6785714 120:0.5 121:0.45714286 122:0.71052629 123:0.65789473 124:0.68674701 125:0.70666665 126:0.54285717 127:0.43157893 128:0.63829786 129:0.51923078 130:0.33333334 131:0.33333334 132:0.30399999 133:0.29126215 134:0.3131313 135:0.51724136 136:0.56666666 137:0.66666669 138:0.60162604 139:0.41999999 140:0.50515461 141:0.56637168 142:0.64102566 143:0.68867922 144:0.61261261 145:0.76068377 146:0.71739131 147:0.63809526 148:0.60000002 149:0.62244898 150:0.46153846 151:0.51773047 152:0.61956519 153:0.67676765 154:0.63461536 155:0.64423078 156:0.50943398 157:0.38235295 158:0.61702126 159:0.77319586 160:0.62616825 161:0.61052632 162:0.5 163:0.39130434 164:0.5945946 165:0.5 166:0.36283186 167:0.32727271 168:0.2992126 169:0.24761905 170:0.20833333 171:0.40336135 172:0.54368931 173:0.54081631 174:0.46969697 175:0.27826086 176:0.35779816 177:0.68518519 178:0.66399997 179:0.65322578 180:0.67441863 181:0.55660379 182:0.60952383 183:0.60396039 184:0.56842107 185:0.58585858 186:0.52941179 187:0.60000002 188:0.67058825 189:0.6987952 190:0.65789473 191:0.75555557 192:0.70786518 193:0.5869565 194:0.62790698 195:0.63380283 196:0.65714288 197:0.65277779 198:0.57499999 199:0.60747665 200:0.72619045 201:0.64044946 202:0.3974359 203:0.41249999 204:0.60638297 205:0.45631069 206:0.40909091 207:0.24489796 208:0.25242719 209:0.34444445 210:0.62727273 211:0.24107143 212:0.41666666 213:0.5825243 214:0.76595747 215:0.74137932 216:0.69172931 217:0.51923078 218:0.61956519 219:0.48351648 220:0.52173913 221:0.58333331 222:0.54464287 223:0.66216218 224:0.75949365 225:0.78048778 226:0.66666669 227:0.7977528 228:0.62790698 229:0.54166669 230:0.63529414 231:0.54166669 232:0.49350649 233:0.4642857 234:0.52127659 235:0.60194176 236:0.63636363 237:0.49350649 238:0.3125 239:0.37 240:0.50877196 241:0.37142858 242:0.34042552 243:0.35227272 244:0.23333333 245:0.42156863 246:0.49593496 247:0.18518518 248:0.37096775 249:0.64035088 250:0.77528089 251:0.71681416 252:0.57042253 253:0.48760331 254:0.56603771 255:0.80219781 256:0.73737371 257:0.71739131 258:0.8125 259:0.47572815 260:0.52083331 261:0.81481481 262:0.87341774 263:0.76086956 264:0.82075471 265:0.63529414 266:0.74358976 267:0.70512819 268:0.65432101 269:0.75641024 270:0.73394495 271:0.75999999 272:0.71739131 273:0.42156863 274:0.38181818 275:0.44117647 276:0.4893617 277:0.46808511 278:0.32380953 279:0.53225809 280:0.54166669 281:0.48387095 282:0.42647058 283:0.44554454 284:0.50537634 285:0.74380165 286:0.76229507 287:0.68000001 288:0.56410259 
1.978181652846893 1:0.58095241 2:0.44565219 3:0.40816328 4:0.4040404 5:0.43809524 6:0.36842105 7:0.5078125 8:0.29166666 9:0.22499999 10:0.24175824 11:0.34020618 12:0.23076923 13:0.62204725 14:0.43181819 15:0.5151515 16:0.36000001 17:0.43478259 18:0.39215687 19:0.61194032 20:0.54128438 21:0.59482759 22:0.57894737 23:0.58333331 24:0.49606299 25:0.55660379 26:0.5 27:0.54400003 28:0.47499999 29:0.45384616 30:0.46896553 31:0.46078432 32:0.53153151 33:0.59615386 34:0.54867256 35:0.57377046 36:0.55555558 37:0.23 38:0.2888889 39:0.35869566 40:0.38372093 41:0.42105263 42:0.22222222 43:0.41304347 44:0.39285713 45:0.2238806 46:0.45945945 47:0.56790125 48:0.46913579 49:0.46511629 50:0.44186047 51:0.34285715 52:0.38356164 53:0.46575344 54:0.44444445 55:0.45614034 56:0.53658539 57:0.55555558 58:0.58749998 59:0.53932583 60:0.63106793 61:0.29523811 62:0.40816328 63:0.59090906 64:0.58241761 65:0.63157892 66:0.64347827 67:0.22857143 68:0.23364486 69:0.29473683 70:0.29464287 71:0.31531531 72:0.25961539 73:0.3137255 74:0.25 75:0.35632184 76:0.34653464 77:0.39823008 78:0.29914531 79:0.39080459 80:0.47945204 81:0.34210527 82:0.5 83:0.60869563 84:0.52873564 85:0.36734694 86:0.45783132 87:0.40000001 88:0.46478873 89:0.50588238 90:0.48039216 91:0.44247788 92:0.47727272 93:0.52564102 94:0.54430377 95:0.63855422 96:0.69306928 97:0.27000001 98:0.50526315 99:0.58139533 100:0.63218391 101:0.6111111 102:0.62992126 103:0.19266056 104:0.25 105:0.28695652 106:0.30555555 107:0.30000001 108:0.30851063 109:0.66055048 110:0.44827586 111:0.42222223 112:0.47872341 113:0.43877551 114:0.31578946 115:0.6825397 116:0.29268292 117:0.29761904 118:0.3974359 119:0.4642857 120:0.41836736 121:0.59047621 122:0.5 123:0.4868421 124:0.51807231 125:0.62666667 126:0.58095241 127:0.61052632 128:0.62765956 129:0.66346157 130:0.58558559 131:0.70833331 132:0.57599998 133:0.56310678 134:0.57575756 135:0.56034482 136:0.49166667 137:0.64705884 138:0.60975611 139:0.52999997 140:0.56701028 141:0.43362832 142:0.52991456 143:0.76415092 144:0.7927928 145:0.76068377 146:0.55434781 147:0.42857143 148:0.40952381 149:0.48979592 150:0.31730768 151:0.63829786 152:0.35869566 153:0.21212122 154:0.29807693 155:0.36538461 156:0.32075471 157:0.57352942 158:0.35106382 159:0.46391752 160:0.38317758 161:0.32631579 162:0.3859649 163:0.52173913 164:0.36036035 165:0.54310346 166:0.5840708 167:0.5 168:0.48031497 169:0.5714286 170:0.40833333 171:0.5714286 172:0.51456308 173:0.48979592 174:0.45454547 175:0.51304346 176:0.36697248 177:0.5 178:0.59200001 179:0.60483873 180:0.59689921 181:0.50943398 182:0.37142858 183:0.35643566 184:0.30526316 185:0.39393941 186:0.50980395 187:0.32631579 188:0.43529412 189:0.31325302 190:0.36842105 191:0.54444444 192:0.50561798 193:0.31521741 194:0.3255814 195:0.14084508 196:0.24285714 197:0.3888889 198:0.46250001 199:0.26168224 200:0.44047618 201:0.46067417 202:0.41025642 203:0.5 204:0.65957445 205:0.22330096 206:0.45454547 207:0.44897959 208:0.36893204 209:0.42222223 210:0.58181816 211:0.16071428 212:0.30555555 213:0.32038835 214:0.44680852 215:0.47413793 216:0.43609023 217:0.34615386 218:0.33695653 219:0.2857143 220:0.30434781 221:0.40625 222:0.48214287 223:0.35135135 224:0.32911393 225:0.40243903 226:0.53571427 227:0.60674155 228:0.45348838 229:0.27083334 230:0.22352941 231:0.15277778 232:0.3116883 233:0.38095239 234:0.42553192 235:0.22330096 236:0.375 237:0.45454547 238:0.375 239:0.44999999 240:0.50877196 241:0.25714287 242:0.54255319 243:0.45454547 244:0.23333333 245:0.38235295 246:0.50406504 247:0.13333334 248:0.29032257 249:0.34210527 250:0.34831461 251:0.34513274 252:0.3943662 253:0.6859504 254:0.38679245 255:0.49450549 256:0.49494949 257:0.46739131 258:0.70535713 259:0.815534 260:0.25 261:0.33333334 262:0.4050633 263:0.38043478 264:0.33962265 265:0.7764706 266:0.38461539 267:0.48717949 268:0.45679012 269:0.43589744 270:0.32110092 271:0.56 272:0.47826087 273:0.58823532 274:0.5181818 275:0.57843137 276:0.40425533 277:0.43617022 278:0.60000002 279:0.58064514 280:0.47499999 281:0.52419353 282:0.4852941 283:0.26732674 284:0.38709676 285:0.52066118 286:0.63934427 287:0.68800002 288:0.67521369 
0.4067750147003982 1:0.33333334 2:0.68478262 3:0.73469388 4:0.82828283 5:0.84761906 6:0.57894737 7:0.2578125 8:0.7361111 9:0.67500001 10:0.56043959 11:0.62886596 12:0.53846157 13:0.26771653 14:0.60227275 15:0.46464646 16:0.41 17:0.52173913 18:0.54901963 19:0.41791046 20:0.56880736 21:0.33620688 22:0.30701753 23:0.42500001 24:0.43307087 25:0.31132075 26:0.54310346 27:0.472 28:0.33333334 29:0.30769232 30:0.41379312 31:0.17647059 32:0.41441441 33:0.34615386 34:0.24778761 35:0.16393442 36:0.31746033 37:0.23999999 38:0.55555558 39:0.64130437 40:0.56976742 41:0.67368424 42:0.58585858 43:0.2173913 44:0.73809522 45:0.91044778 46:0.74324322 47:0.82716048 48:0.98765433 49:0.20930232 50:0.53488374 51:0.55714285 52:0.46575344 53:0.53424656 54:0.55555558 55:0.19298245 56:0.39024389 57:0.54444444 58:0.625 59:0.62921351 60:0.67961162 61:0.085714288 62:0.29591838 63:0.56818181 64:0.62637365 65:0.70526314 66:0.72173911 67:0.057142857 68:0.14018692 69:0.14736842 70:0.32142857 71:0.3963964 72:0.40384614 73:0.19607843 74:0.32499999 75:0.60919541 76:0.61386138 77:0.61946905 78:0.53846157 79:0.21839081 80:0.5479452 81:0.89473683 82:0.94117647 83:0.95652175 84:1 85:0.15306123 86:0.40963855 87:0.65333331 88:0.63380283 89:0.44705883 90:0.47058824 91:0.18584071 92:0.28409091 93:0.47435898 94:0.60759491 95:0.50602412 96:0.60396039 97:0.1 98:0.32631579 99:0.45348838 100:0.51724136 101:0.55555558 102:0.57480317 103:0.036697246 104:0.18518518 105:0.2 106:0.22222222 107:0.23999999 108:0.34042552 109:0.66972476 110:0.41379312 111:0.75555557 112:0.82978725 113:0.82653064 114:0.7368421 115:0.55555558 116:0.32926831 117:0.69047618 118:0.75641024 119:0.66666669 120:0.66326529 121:0.61904764 122:0.34210527 123:0.30263159 124:0.36144578 125:0.47999999 126:0.5714286 127:0.64210528 128:0.26595744 129:0.27884614 130:0.3063063 131:0.33333334 132:0.40000001 133:0.54368931 134:0.37373737 135:0.39655173 136:0.22499999 137:0.24509804 138:0.39024389 139:0.33000001 140:0.2783505 141:0.31858408 142:0.22222222 143:0.14150943 144:0.24324325 145:0.4957265 146:0.53260869 147:0.73333335 148:0.86666667 149:0.93877554 150:0.73076922 151:0.54609931 152:0.5 153:0.66666669 154:0.54807693 155:0.51923078 156:0.55660379 157:0.45588234 158:0.37234041 159:0.53608245 160:0.51401871 161:0.52631581 162:0.49122807 163:0.60000002 164:0.4054054 165:0.37068966 166:0.30973452 167:0.46363637 168:0.43307087 169:0.64761907 170:0.40000001 171:0.46218488 172:0.27184466 173:0.44897959 174:0.46212122 175:0.72173911 176:0.26605505 177:0.3611111 178:0.23199999 179:0.13709678 180:0.3255814 181:0.24528302 182:0.55238098 183:0.78217822 184:0.65263158 185:0.5959596 186:0.68627453 187:0.28421053 188:0.65882355 189:0.74698794 190:0.63157892 191:0.76666665 192:1 193:0.26086956 194:0.60465115 195:0.67605633 196:0.65714288 197:0.72222221 198:0.78750002 199:0.15887851 200:0.48809522 201:0.65168542 202:0.62820512 203:0.64999998 204:0.80851066 205:0.15533981 206:0.44318181 207:0.54081631 208:0.55339807 209:0.69999999 210:0.74545455 211:0.29464287 212:0.3611111 213:0.43689319 214:0.5 215:0.55172414 216:0.5413534 217:0.21153846 218:0.54347825 219:0.60439563 220:0.56521738 221:0.71875 222:0.5714286 223:0.24324325 224:0.56962025 225:0.75609756 226:0.8214286 227:0.89887643 228:0.90697676 229:0.17708333 230:0.42352942 231:0.72222221 232:0.75324672 233:0.64285713 234:0.73404253 235:0.1262136 236:0.34090909 237:0.66233766 238:0.67500001 239:0.56 240:0.64035088 241:0.15238096 242:0.45744681 243:0.52272725 244:0.63333333 245:0.60784316 246:0.65040648 247:0.17777778 248:0.40322581 249:0.42982456 250:0.40449437 251:0.46902654 252:0.45070422 253:0.34710744 254:0.5754717 255:0.82417583 256:0.95959598 257:0.96739131 258:0.6160714 259:0.33009708 260:0.55208331 261:0.71604937 262:0.72151899 263:0.65217394 264:0.53773582 265:0.32941177 266:0.48717949 267:0.5 268:0.56790125 269:0.56410259 270:0.47706422 271:0.41999999 272:0.36956522 273:0.30392158 274:0.36363637 275:0.42156863 276:0.35460994 277:0.28723404 278:0.54285717 279:0.31451613 280:0.26666668 281:0.31451613 282:0.4852941 283:0.1980198 284:0.52688169 285:0.2644628 286:0.18032786 287:0.2 288:0.27350429 
3.231384397480003 1:0.10476191 2:0.44565219 3:0.41836736 4:0.36363637 5:0.47619048 6:0.28421053 7:0.1015625 8:0.375 9:0.36250001 10:0.35164836 11:0.50515461 12:0.29670331 13:0.16535433 14:0.45454547 15:0.5959596 16:0.49000001 17:0.5869565 18:0.46078432 19:0.38805971 20:0.58715594 21:0.67241377 22:0.69298244 23:0.64166665 24:0.66141731 25:0.36792454 26:0.43965518 27:0.46399999 28:0.48333332 29:0.38461539 30:0.56551725 31:0.32352942 32:0.43243244 33:0.29807693 34:0.18584071 35:0.22950819 36:0.41269842 37:0.2 38:0.21111111 39:0.38043478 40:0.46511629 41:0.45263159 42:0.30303031 43:0.29347825 44:0.33333334 45:0.34328359 46:0.3108108 47:0.45679012 48:0.54320985 49:0.25581396 50:0.38372093 51:0.40000001 52:0.41095892 53:0.47945204 54:0.49494949 55:0.3508772 56:0.41463414 57:0.56666666 58:0.67500001 59:0.69662923 60:0.78640777 61:0.31428573 62:0.40816328 63:0.35227272 64:0.34065935 65:0.42105263 66:0.60000002 67:0.21904762 68:0.29906541 69:0.29473683 70:0.375 71:0.37837839 72:0.40384614 73:0.23529412 74:0.27500001 75:0.34482759 76:0.39603961 77:0.39823008 78:0.30769232 79:0.28735632 80:0.38356164 81:0.39473686 82:0.36764705 83:0.47826087 84:0.54022986 85:0.27551019 86:0.42168674 87:0.40000001 88:0.49295774 89:0.56470591 90:0.5 91:0.37168142 92:0.55681819 93:0.55128205 94:0.5316456 95:0.57831323 96:0.78217822 97:0.30000001 98:0.50526315 99:0.3488372 100:0.26436782 101:0.30000001 102:0.55905509 103:0.17431192 104:0.35185185 105:0.28695652 106:0.31481481 107:0.34999999 108:0.37234041 109:0.43119267 110:0.42528737 111:0.51111114 112:0.5106383 113:0.43877551 114:0.35789475 115:0.42063493 116:0.31707317 117:0.4642857 118:0.53846157 119:0.55952382 120:0.3877551 121:0.2857143 122:0.47368422 123:0.57894737 124:0.55421686 125:0.62666667 126:0.52380955 127:0.2631579 128:0.62765956 129:0.68269229 130:0.63963962 131:0.70833331 132:0.66399997 133:0.33980581 134:0.64646465 135:0.45689654 136:0.42500001 137:0.37254903 138:0.49593496 139:0.47 140:0.48453608 141:0.28318584 142:0.24786325 143:0.23584905 144:0.3963964 145:0.77777779 146:0.56521738 147:0.4952381 148:0.46666667 149:0.43877551 150:0.375 151:0.71631205 152:0.34782609 153:0.37373737 154:0.33653846 155:0.40384614 156:0.35849056 157:0.66176468 158:0.40425533 159:0.62886596 160:0.49532712 161:0.49473685 162:0.47368422 163:0.72173911 164:0.48648649 165:0.67241377 166:0.63716817 167:0.62727273 168:0.61417323 169:0.66666669 170:0.49166667 171:0.51260507 172:0.5825243 173:0.52040815 174:0.56818181 175:0.60869563 176:0.39449543 177:0.3425926 178:0.208 179:0.19354838 180:0.29457363 181:0.26415095 182:0.30476192 183:0.30693069 184:0.2736842 185:0.24242425 186:0.30392158 187:0.32631579 188:0.3882353 189:0.44578314 190:0.36842105 191:0.51111114 192:0.57303369 193:0.28260869 194:0.30232558 195:0.29577464 196:0.31428573 197:0.41666666 198:0.5 199:0.29906541 200:0.45238096 201:0.53932583 202:0.51282054 203:0.60000002 204:0.78723407 205:0.29126215 206:0.56818181 207:0.43877551 208:0.36893204 209:0.46666667 210:0.76363635 211:0.24107143 212:0.44444445 213:0.28155339 214:0.25531915 215:0.25 216:0.30827066 217:0.20192307 218:0.17391305 219:0.16483517 220:0.20652173 221:0.30208334 222:0.25 223:0.1891892 224:0.30379745 225:0.41463414 226:0.45238096 227:0.57303369 228:0.46511629 229:0.19791667 230:0.29411766 231:0.2638889 232:0.37662336 233:0.4642857 234:0.5106383 235:0.22330096 236:0.39772728 237:0.48051947 238:0.51249999 239:0.51999998 240:0.62280703 241:0.25714287 242:0.53191489 243:0.45454547 244:0.31111112 245:0.5 246:0.60162604 247:0.18518518 248:0.33064517 249:0.25438598 250:0.19101124 251:0.17699115 252:0.30985916 253:0.20661157 254:0.32075471 255:0.54945058 256:0.52525252 257:0.45652175 258:0.29464287 259:0.1262136 260:0.19791667 261:0.37037036 262:0.43037975 263:0.48913044 264:0.32075471 265:0.14117648 266:0.46153846 267:0.47435898 268:0.49382716 269:0.52564102 270:0.40366971 271:0.34 272:0.54347825 273:0.55882353 274:0.60909092 275:0.627451 276:0.55319148 277:0.34042552 278:0.5714286 279:0.46774194 280:0.46666667 281:0.3951613 282:0.58088237 283:0.20792079 284:0.3548387 285:0.19008264 286:0.21311475 287:0.176 288:0.44444445 
1.156951016253633 1:0.3904762 2:0.72826087 3:0.5714286 4:0.61616164 5:0.66666669 6:0.40000001 7:0.2890625 8:0.68055558 9:0.58749998 10:0.6813187 11:0.72164947 12:0.46153846 13:0.39370078 14:0.69318181 15:0.85858583 16:0.72000003 17:0.76086956 18:0.54901963 19:0.56716418 20:0.6880734 21:0.87068963 22:0.86842108 23:0.80833334 24:0.73228347 25:0.52830189 26:0.53448278 27:0.63200003 28:0.69166666 29:0.52307695 30:0.71034485 31:0.50980395 32:0.52252251 33:0.39423078 34:0.26548672 35:0.31967214 36:0.52380955 37:0.49000001 38:0.3888889 39:0.60869563 40:0.55813956 41:0.56842107 42:0.42424244 43:0.6630435 44:0.63095236 45:0.77611941 46:0.74324322 47:0.80246913 48:0.72839504 49:0.61627907 50:0.68604654 51:0.77142859 52:0.71232879 53:0.83561641 54:0.69696969 55:0.63157892 56:0.67073172 57:0.76666665 58:0.92500001 59:0.92134833 60:0.95145631 61:0.54285717 62:0.53061223 63:0.56818181 64:0.53846157 65:0.64210528 66:0.78260869 67:0.41904762 68:0.45794392 69:0.50526315 70:0.53571427 71:0.57657659 72:0.60576922 73:0.46078432 74:0.5625 75:0.51724136 76:0.50495052 77:0.460177 78:0.3931624 79:0.62068963 80:0.73972601 81:0.71052629 82:0.85294116 83:0.84057969 84:0.67816091 85:0.54081631 86:0.75903612 87:0.65333331 88:0.81690139 89:0.80000001 90:0.65686274 91:0.66371679 92:0.75 93:0.80769229 94:0.82278478 95:0.84337348 96:0.99009901 97:0.57999998 98:0.66315788 99:0.55813956 100:0.48275861 101:0.45555556 102:0.74015749 103:0.38532111 104:0.51851851 105:0.40869564 106:0.47222221 107:0.5 108:0.55319148 109:0.62385321 110:0.68965518 111:0.69999999 112:0.72340423 113:0.70408165 114:0.52631581 115:0.57936507 116:0.65853661 117:0.70238096 118:0.88461536 119:0.88095236 120:0.58163267 121:0.53333336 122:0.82894737 123:0.80263156 124:0.78313255 125:0.82666665 126:0.6857143 127:0.48421052 128:0.75531918 129:0.80769229 130:0.81981981 131:0.84375 132:0.792 133:0.51456308 134:0.72727275 135:0.61206895 136:0.64166665 137:0.57843137 138:0.69105691 139:0.5 140:0.62886596 141:0.37168142 142:0.34188035 143:0.33962265 144:0.54954952 145:0.64102566 146:0.85869563 147:0.66666669 148:0.64761907 149:0.69387758 150:0.46153846 151:0.56028366 152:0.63043481 153:0.58585858 154:0.57692307 155:0.59615386 156:0.50943398 157:0.5147059 158:0.65957445 159:0.8041237 160:0.64485979 161:0.70526314 162:0.64035088 163:0.48695651 164:0.67567569 165:0.83620691 166:0.78761059 167:0.80909091 168:0.77952754 169:0.40000001 170:0.53333336 171:0.59663868 172:0.74757284 173:0.68367344 174:0.7651515 175:0.42608696 176:0.47706422 177:0.3888889 178:0.296 179:0.25806451 180:0.42635658 181:0.63207549 182:0.5714286 183:0.56435645 184:0.49473685 185:0.44444445 186:0.49019608 187:0.63157892 188:0.64705884 189:0.73493975 190:0.69736844 191:0.77777779 192:0.71910113 193:0.63043481 194:0.61627907 195:0.57746476 196:0.60000002 197:0.7361111 198:0.69999999 199:0.58878505 200:0.69047618 201:0.76404494 202:0.84615386 203:0.82499999 204:0.97872341 205:0.60194176 206:0.76136363 207:0.6122449 208:0.63106793 209:0.69999999 210:1 211:0.42857143 212:0.55555558 213:0.43689319 214:0.43617022 215:0.40517241 216:0.44360903 217:0.50961536 218:0.5 219:0.46153846 220:0.44565219 221:0.46875 222:0.45535713 223:0.56756759 224:0.60759491 225:0.63414633 226:0.78571427 227:0.78651685 228:0.59302324 229:0.46875 230:0.58823532 231:0.52777779 232:0.61038959 233:0.61904764 234:0.62765956 235:0.48543689 236:0.61363637 237:0.6883117 238:0.69999999 239:0.69 240:0.7368421 241:0.50476193 242:0.65957445 243:0.70454544 244:0.5777778 245:0.72549021 246:0.7723577 247:0.3037037 248:0.41129032 249:0.36842105 250:0.33707866 251:0.30973452 252:0.42253521 253:0.47107437 254:0.5471698 255:0.74725276 256:0.72727275 257:0.69565219 258:0.4732143 259:0.37864077 260:0.48958334 261:0.65432101 262:0.79746836 263:0.72826087 264:0.4245283 265:0.45882353 266:0.70512819 267:0.74358976 268:0.76543212 269:0.80769229 270:0.48623854 271:0.57999998 272:0.71739131 273:0.77450979 274:0.74545455 275:0.83333331 276:0.65248227 277:0.37234041 278:0.52380955 279:0.62096775 280:0.58333331 281:0.55645162 282:0.75735295 283:0.26732674 284:0.39784947 285:0.2644628 286:0.25409836 287:0.23199999 288:0.56410259 
0.3626844290408885 1:0.35238096 2:0.43478259 3:0.47959185 4:0.46464646 5:0.47619048 6:0.70526314 7:0.21875 8:0.16666667 9:0.15000001 10:0.10989011 11:0.16494845 12:0.73626375 13:0.24409449 14:0.23863636 15:0.28282827 16:0.18000001 17:0.043478262 18:0.7352941 19:0.38059703 20:0.22935779 21:0.1637931 22:0.18421052 23:0.2 24:0.65354329 25:0.25471699 26:0.22413793 27:0.21600001 28:0.18333334 29:0.2 30:0.66896552 31:0.34313726 32:0.43243244 33:0.34615386 34:0.17699115 35:0.23770492 36:0.77777779 37:0.44999999 38:0.25555557 39:0.39130434 40:0.38372093 41:0.48421052 42:0.34343433 43:0.48913044 44:0.2857143 45:0.17910448 46:0.1891892 47:0.22222222 48:0.2962963 49:0.51162791 50:0.36046511 51:0.24285714 52:0.16438356 53:0.1369863 54:0.25252524 55:0.50877196 56:0.25609756 57:0.23333333 58:0.2375 59:0.29213482 60:0.35922331 61:0.3904762 62:0.18367347 63:0.21590909 64:0.21978022 65:0.29473683 66:0.38260868 67:0.38095239 68:0.23364486 69:0.2 70:0.3125 71:0.36036035 72:0.24038461 73:0.37254903 74:0.175 75:0.40229884 76:0.34653464 77:0.40707964 78:0.32478634 79:0.39080459 80:0.09589041 81:0.19736843 82:0.22058824 83:0.20289855 84:0.32183909 85:0.31632653 86:0.22891566 87:0.23999999 88:0.26760563 89:0.12941177 90:0.19607843 91:0.37168142 92:0.13636364 93:0.15384616 94:0.21518987 95:0.16867469 96:0.31683168 97:0.38 98:0.14736842 99:0.15116279 100:0.24137931 101:0.21111111 102:0.37795275 103:0.3119266 104:0.24074075 105:0.2173913 106:0.23148148 107:0.25 108:0.22340426 109:0.64220184 110:0.41379312 111:0.54444444 112:0.56382978 113:0.48979592 114:0.40000001 115:0.63492066 116:0.30487806 117:0.20238096 118:0.30769232 119:0.20238096 120:0.19387755 121:0.54285717 122:0.38157895 123:0.19736843 124:0.20481928 125:0.053333335 126:0.16190477 127:0.56842107 128:0.31914893 129:0.17307693 130:0.16216215 131:0.10416666 132:0.13600001 133:0.592233 134:0.34343433 135:0.12068965 136:0.125 137:0.12745099 138:0.17073171 139:0.67000002 140:0.46391752 141:0.22123894 142:0.11111111 143:0.1981132 144:0.27027026 145:0.73504275 146:0.65217394 147:0.53333336 148:0.46666667 149:0.47959185 150:0.34615386 151:0.67375886 152:0.40217391 153:0.25252524 154:0.24038461 155:0.21153846 156:0.20754717 157:0.6102941 158:0.37234041 159:0.25773194 160:0.26168224 161:0.10526316 162:0.12280702 163:0.68695652 164:0.3963964 165:0.15517241 166:0.18584071 167:0.19090909 168:0.1496063 169:0.66666669 170:0.39166668 171:0.15966387 172:0.16504854 173:0.2857143 174:0.18939394 175:0.6695652 176:0.48623854 177:0.3425926 178:0.16 179:0.25 180:0.27131784 181:0.55660379 182:0.29523811 183:0.41584158 184:0.33684212 185:0.3131313 186:0.38235295 187:0.60000002 188:0.34117648 189:0.37349397 190:0.25 191:0.35555556 192:0.41573033 193:0.59782606 194:0.3255814 195:0.16901408 196:0.17142858 197:0.097222224 198:0.21250001 199:0.53271025 200:0.32142857 201:0.28089887 202:0.23076923 203:0.175 204:0.32978722 205:0.55339807 206:0.29545453 207:0.22448979 208:0.2038835 209:0.24444444 210:0.43636364 211:0.4732143 212:0.27777779 213:0.25242719 214:0.27659574 215:0.33620688 216:0.32330826 217:0.25 218:0.20652173 219:0.23076923 220:0.26086956 221:0.38541666 222:0.3392857 223:0.27027026 224:0.16455697 225:0.37804878 226:0.39285713 227:0.40449437 228:0.39534885 229:0.23958333 230:0.1882353 231:0.18055555 232:0.20779221 233:0.095238097 234:0.23404256 235:0.24271844 236:0.17045455 237:0.2857143 238:0.21250001 239:0.19 240:0.30701753 241:0.20952381 242:0.18085106 243:0.25 244:0.24444444 245:0.30392158 246:0.37398374 247:0.17037037 248:0.19354838 249:0.21052632 250:0.25842696 251:0.28318584 252:0.28169015 253:0.34710744 254:0.3773585 255:0.5714286 256:0.58585858 257:0.53260869 258:0.72321427 259:0.30097088 260:0.11458334 261:0.27160493 262:0.32911393 263:0.30434781 264:0.5754717 265:0.35294119 266:0.20512821 267:0.20512821 268:0.25925925 269:0.12820514 270:0.50458717 271:0.46000001 272:0.11956522 273:0.15686275 274:0.19090909 275:0.19607843 276:0.51773047 277:0.29787233 278:0.19047619 279:0.16129032 280:0.175 281:0.25806451 282:0.6397059 283:0.34653464 284:0.34408602 285:0.19008264 286:0.17213115 287:0.22400001 288:0.70940173 
0.6458366593309492 1:0.51428574 2:0.79347825 3:0.75510204 4:0.74747473 5:0.7904762 6:0.49473685 7:0.4375 8:0.81944442 9:0.69999999 10:0.53846157 11:0.51546389 12:0.48351648 13:0.55118108 14:0.82954544 15:0.77777779 16:0.61000001 17:0.5869565 18:0.67647058 19:0.5970149 20:0.50458717 21:0.37931034 22:0.32456142 23:0.42500001 24:0.42519686 25:0.55660379 26:0.41379312 27:0.352 28:0.32499999 29:0.38461539 30:0.41379312 31:0.48039216 32:0.45945945 33:0.41346154 34:0.25663716 35:0.27049181 36:0.3968254 37:0.51999998 38:0.62222224 39:0.8369565 40:0.89534885 41:0.86315787 42:0.55555558 43:0.61956519 44:0.72619045 45:0.67164177 46:0.64864862 47:0.75308645 48:0.72839504 49:0.61627907 50:0.94186044 51:0.91428572 52:0.67123288 53:0.73972601 54:0.66666669 55:0.44736841 56:0.52439022 57:0.51111114 58:0.52499998 59:0.52808988 60:0.5825243 61:0.34285715 62:0.48979592 63:0.64772725 64:0.63736266 65:0.66315788 66:0.60869563 67:0.22857143 68:0.27102804 69:0.35789475 70:0.51785713 71:0.54954952 72:0.51923078 73:0.42156863 74:0.60000002 75:0.79310346 76:0.79207921 77:0.76106197 78:0.53846157 79:0.45977011 80:0.72602737 81:0.71052629 82:0.69117647 83:0.79710144 84:0.78160918 85:0.46938777 86:0.92771083 87:0.88 88:0.8309859 89:0.64705884 90:0.67647058 91:0.30973452 92:0.42045453 93:0.48717949 94:0.48101267 95:0.39759037 96:0.53465348 97:0.30000001 98:0.47368422 99:0.53488374 100:0.58620691 101:0.55555558 102:0.59842521 103:0.17431192 104:0.2962963 105:0.34782609 106:0.3888889 107:0.36000001 108:0.35106382 109:0.33944955 110:0.66666669 111:0.74444443 112:0.82978725 113:0.80612242 114:0.66315788 115:0.34126985 116:0.597561 117:0.65476191 118:0.65384614 119:0.5714286 120:0.51020408 121:0.21904762 122:0.77631581 123:0.80263156 124:0.6506024 125:0.63999999 126:0.61904764 127:0.052631579 128:0.36170211 129:0.44230768 130:0.27027026 131:0.30208334 132:0.336 133:0.13592233 134:0.34343433 135:0.25862068 136:0.24166666 137:0.27450982 138:0.37398374 139:0.079999998 140:0.45360824 141:0.2920354 142:0.15384616 143:0.18867925 144:0.37837839 145:0.32478634 146:0.70652175 147:0.65714288 148:0.65714288 149:0.76530612 150:0.49038461 151:0.36879432 152:0.60869563 153:0.58585858 154:0.56730771 155:0.67307693 156:0.53773582 157:0.39705881 158:0.74468082 159:0.7525773 160:0.61682242 161:0.63157892 162:0.54385966 163:0.40000001 164:0.55855858 165:0.43965518 166:0.30088496 167:0.39090911 168:0.38582677 169:0.31428573 170:0.40000001 171:0.31092438 172:0.30097088 173:0.48979592 174:0.40151516 175:0.32173914 176:0.42201835 177:0.4074074 178:0.208 179:0.28225806 180:0.4108527 181:0.41509435 182:0.5714286 183:0.6732673 184:0.56842107 185:0.53535354 186:0.51960784 187:0.60000002 188:0.83529413 189:0.85542166 190:0.86842108 191:0.83333331 192:0.78651685 193:0.55434781 194:0.81395346 195:0.80281693 196:0.84285712 197:0.75 198:0.76249999 199:0.43925235 200:0.77380955 201:0.70786518 202:0.58974361 203:0.57499999 204:0.71276593 205:0.37864077 206:0.60227275 207:0.5714286 208:0.53398061 209:0.63333333 210:0.69999999 211:0.3392857 212:0.42592594 213:0.52427185 214:0.60638297 215:0.57758623 216:0.57894737 217:0.43269232 218:0.54347825 219:0.5714286 220:0.48913044 221:0.60416669 222:0.5089286 223:0.58108109 224:0.72151899 225:0.87804878 226:0.91666669 227:0.94382024 228:0.81395346 229:0.5 230:0.82352942 231:0.79166669 232:0.75324672 233:0.66666669 234:0.81914896 235:0.39805827 236:0.61363637 237:0.75324672 238:0.53750002 239:0.49000001 240:0.60526317 241:0.33333334 242:0.53191489 243:0.65909094 244:0.63333333 245:0.58823532 246:0.60975611 247:0.35555556 248:0.47580644 249:0.48245615 250:0.60674155 251:0.55752212 252:0.51408452 253:0.50413221 254:0.52830189 255:0.80219781 256:0.80808079 257:0.73913044 258:0.45535713 259:0.49514562 260:0.375 261:0.74074072 262:0.77215189 263:0.69565219 264:0.44339624 265:0.70588237 266:0.80769229 267:0.71794873 268:0.61728394 269:0.69230771 270:0.42201835 271:0.69 272:0.55434781 273:0.41176471 274:0.25454545 275:0.38235295 276:0.33333334 277:0.4893617 278:0.33333334 279:0.26612905 280:0.24166666 281:0.37096775 282:0.47794119 283:0.45544556 284:0.50537634 285:0.23966943 286:0.21311475 287:0.23999999 288:0.3931624 
0.2967991297988578 1:0.26666668 2:0.46739131 3:0.32653061 4:0.37373737 5:0.41904762 6:0.55789477 7:0.2109375 8:0.45833334 9:0.16249999 10:0.29670331 11:0.31958762 12:0.60439563 13:0.21259843 14:0.13636364 15:0 16:0.029999999 17:0.097826086 18:0.65686274 19:0.35074627 20:0.12844037 21:0.094827585 22:0.16666667 23:0.2 24:0.62992126 25:0.33962265 26:0.18965517 27:0.192 28:0.18333334 29:0.16923077 30:0.59310347 31:0.39215687 32:0.35135135 33:0.25961539 34:0.14159292 35:0.19672132 36:0.57936507 37:0.25999999 38:0.25555557 39:0.36956522 40:0.37209302 41:0.46315789 42:0.38383839 43:0.33695653 44:0.35714287 45:0.31343284 46:0.43243244 47:0.46913579 48:0.35802469 49:0.26744187 50:0.29069766 51:0.071428575 52:0.09589041 53:0.1780822 54:0.27272728 55:0.29824561 56:0.19512194 57:0.17777778 58:0.22499999 59:0.23595506 60:0.34951457 61:0.18095239 62:0.15306123 63:0.26136363 64:0.31868133 65:0.55789477 66:0.64347827 67:0.6761905 68:0.9813084 69:0.9894737 70:0.96428573 71:0.98198199 72:0.93269229 73:0.24509804 74:0.2 75:0.31034482 76:0.33663365 77:0.39823008 78:0.43589744 79:0.32183909 80:0.31506848 81:0.39473686 82:0.4852941 83:0.47826087 84:0.33333334 85:0.21428572 86:0.18072289 87:0.13333334 88:0.14084508 89:0.2 90:0.20588236 91:0.20353982 92:0.03409091 93:0.064102568 94:0.12658228 95:0.15662651 96:0.35643566 97:0.14 98:0.052631579 99:0.10465116 100:0.16091955 101:0.2 102:0.37007874 103:0.52293581 104:0.37962964 105:0.34782609 106:0.32407406 107:0.36000001 108:0.44680852 109:0.6880734 110:0.35632184 111:0.3888889 112:0.4893617 113:0.40816328 114:0.45263159 115:0.83333331 116:0.23170732 117:0.34523809 118:0.44871795 119:0.47619048 120:0.39795917 121:0.78095239 122:0.078947365 123:0 124:0.012048192 125:0.093333334 126:0.2 127:0.87368423 128:0 129:0.07692308 130:0.0990991 131:0.10416666 132:0.12800001 133:0.83495146 134:0.2020202 135:0.077586204 136:0.083333336 137:0.088235296 138:0.15447155 139:0.81 140:0.45360824 141:0.19469027 142:0.11111111 143:0.18867925 144:0.25225225 145:0.6837607 146:0.40217391 147:0.3904762 148:0.35238096 149:0.46938777 150:0.68269229 151:0.49645391 152:0.27173913 153:0.3131313 154:0.29807693 155:0.44230768 156:0.41509435 157:0.4852941 158:0.04255319 159:0 160:0.037383176 161:0.08421053 162:0.12280702 163:0.43478259 164:0.081081077 165:0.077586204 166:0.14159292 167:0.15454546 168:0.14173229 169:0.38095239 170:0.16666667 171:0.14285715 172:0.14563107 173:0.23469388 174:0.16666667 175:0.43478259 176:0.25688073 177:0.23148148 178:0.079999998 179:0.10483871 180:0.28682169 181:0.8018868 182:0.75238097 183:0.78217822 184:0.78947371 185:0.71717173 186:0.61764705 187:0.37894738 188:0.45882353 189:0.50602412 190:0.5 191:0.53333336 192:0.41573033 193:0.33695653 194:0.24418604 195:0.014084507 196:0.12857144 197:0.16666667 198:0.25 199:0.22429906 200:0.20238096 201:0.24719101 202:0.24358974 203:0.21250001 204:0.37234041 205:0.18446602 206:0.20454545 207:0.19387755 208:0.21359223 209:0.23333333 210:0.41818181 211:0.16071428 212:0.14814815 213:0.17475729 214:0.14893617 215:0.1724138 216:0.31578946 217:0.69230771 218:0.81521738 219:0.71428573 220:0.75 221:0.80208331 222:0.66071427 223:0.32432431 224:0.34177214 225:0.40243903 226:0.55952382 227:0.55056179 228:0.38372093 229:0.25 230:0.17647059 231:0.055555556 232:0.1038961 233:0.14285715 234:0.26595744 235:0.2038835 236:0.14772727 237:0.22077923 238:0.1125 239:0.18000001 240:0.30701753 241:0.2 242:0.19148937 243:0.17045455 244:0.18888889 245:0.2647059 246:0.35772356 247:0.26666668 248:0.16935484 249:0.12280702 250:0.044943821 251:0.13274336 252:0.26056337 253:0.33057851 254:0.35849056 255:0.40659341 256:0.53535354 257:0.42391303 258:0.8214286 259:0.26213592 260:0.30208334 261:0.37037036 262:0.51898736 263:0.52173913 264:0.86792451 265:0.29411766 266:0 267:0 268:0.012345679 269:0.14102565 270:0.74311924 271:0.43000001 272:0 273:0.088235296 274:0.1 275:0.17647059 276:0.65248227 277:0.31914893 278:0.11428571 279:0.080645159 280:0.083333336 281:0.19354838 282:0.7647059 283:0.35643566 284:0.25806451 285:0.10743801 286:0.081967212 287:0.184 288:0.50427353 
0.2016585487642487 1:0.36190477 2:0.68478262 3:0.65306121 4:0.64646465 5:0.63809526 6:0.23157895 7:0.34375 8:0.59722221 9:0.64999998 10:0.58241761 11:0.51546389 12:0.24175824 13:0.44094488 14:0.69318181 15:0.64646465 16:0.54000002 17:0.68478262 18:0.46078432 19:0.52238804 20:0.35779816 21:0.3275862 22:0.36842105 23:0.38333333 24:0.30708662 25:0.46226415 26:0.31896552 27:0.63999999 28:0.60833335 29:0.3923077 30:0.33793104 31:0.29411766 32:0.42342341 33:0.75 34:0.74336284 35:0.69672132 36:0.42857143 37:0.40000001 38:0.54444444 39:0.60869563 40:0.61627907 41:0.67368424 42:0.32323232 43:0.5 44:0.48809522 45:0.44776121 46:0.64864862 47:0.66666669 48:0.48148149 49:0.48837209 50:0.66279072 51:0.5714286 52:0.52054793 53:0.67123288 54:0.43434343 55:0.44736841 56:0.39024389 57:0.26666668 58:0.36250001 59:0.46067417 60:0.45631069 61:0.22857143 62:0.20408164 63:0.38636363 64:0.52747256 65:0.55789477 66:0.46956521 67:0.18095239 68:0.11214953 69:0.15789473 70:0.26785713 71:0.35135135 72:0.23076923 73:0.34313726 74:0.625 75:0.93103451 76:0.85148513 77:0.84070796 78:0.73504275 79:0.44827586 80:0.57534248 81:0.77631581 82:0.92647058 83:0.89855075 84:0.68965518 85:0.43877551 86:0.87951809 87:0.82666665 88:0.70422536 89:0.65882355 90:0.50980395 91:0.45132744 92:0.51136363 93:0.48717949 94:0.36708862 95:0.49397591 96:0.5247525 97:0.15000001 98:0.24210526 99:0.80232561 100:0.954023 101:0.94444442 102:0.55905509 103:0.1559633 104:0.064814813 105:0.36521739 106:0.49074075 107:0.54000002 108:0.44680852 109:0.29357797 110:0.58620691 111:0.73333335 112:0.75531918 113:0.74489796 114:0.67368424 115:0.32539684 116:0.36585367 117:0.70238096 118:0.75641024 119:0.66666669 120:0.53061223 121:0.29523811 122:0.68421054 123:0.67105263 124:0.63855422 125:0.80000001 126:0.6857143 127:0.08421053 128:0.42553192 129:0.5 130:0.34234235 131:0.38541666 132:0.42399999 133:0.10679612 134:0.23232323 135:0.38793105 136:0.49166667 137:0.5 138:0.38211381 139:0.1 140:0.25773194 141:0.39823008 142:0.51282054 143:0.7735849 144:0.61261261 145:0.18803419 146:0.59782606 147:0.58095241 148:0.59047621 149:0.58163267 150:0.41346154 151:0.30496454 152:0.5 153:0.62626261 154:0.51923078 155:0.53846157 156:0.48113209 157:0.25 158:0.55319148 159:0.67010307 160:0.63551402 161:0.7263158 162:0.64912283 163:0.27826086 164:0.4054054 165:0.51724136 166:0.37168142 167:0.39090911 168:0.53543305 169:0.2857143 170:0.23333333 171:0.42857143 172:0.55339807 173:0.42857143 174:0.4848485 175:0.26086956 176:0.3119266 177:0.64814812 178:0.78399998 179:0.77419353 180:0.74418604 181:0.33018869 182:0.52380955 183:0.62376237 184:0.54736841 185:0.46464646 186:0.46078432 187:0.50526315 188:0.51764709 189:0.59036142 190:0.57894737 191:0.64444447 192:0.57303369 193:0.51086956 194:0.46511629 195:0.49295774 196:0.65714288 197:0.68055558 198:0.52499998 199:0.41121495 200:0.54761904 201:0.50561798 202:0.38461539 203:0.41249999 204:0.53191489 205:0.26213592 206:0.25 207:0.26530612 208:0.31067961 209:0.26666668 210:0.43636364 211:0.1875 212:0.23148148 213:0.47572815 214:0.67021275 215:0.61206895 216:0.44360903 217:0.29807693 218:0.52173913 219:0.73626375 220:0.68478262 221:0.6875 222:0.59821427 223:0.5945946 224:0.73417723 225:0.91463417 226:0.79761904 227:0.93258429 228:0.73255813 229:0.5 230:0.70588237 231:0.66666669 232:0.75324672 233:0.78571427 234:0.56382978 235:0.50485438 236:0.77272725 237:0.74025977 238:0.52499998 239:0.57999998 240:0.50877196 241:0.29523811 242:0.40425533 243:0.55681819 244:0.44444445 245:0.51960784 246:0.44715446 247:0.31111112 248:0.31451613 249:0.65789473 250:0.83146065 251:0.71681416 252:0.40845069 253:0.38842976 254:0.56603771 255:0.78021979 256:0.76767677 257:0.68478262 258:0.41964287 259:0.35922331 260:0.45833334 261:0.62962961 262:0.73417723 263:0.60869563 264:0.3490566 265:0.5411765 266:0.75641024 267:0.62820512 268:0.64197528 269:0.87179488 270:0.41284403 271:0.49000001 272:0.5869565 273:0.4509804 274:0.35454544 275:0.44117647 276:0.31914893 277:0.28723404 278:0.30476192 279:0.55645162 280:0.40833333 281:0.37096775 282:0.34558824 283:0.33663365 284:0.39784947 285:0.64462811 286:0.75409836 287:0.76800001 288:0.51282054 
0.139447791443315 1:0.5714286 2:0.73913044 3:0.59183675 4:0.56565654 5:0.6857143 6:0.42105263 7:0.421875 8:0.66666669 9:0.53750002 10:0.42857143 11:0.54639173 12:0.38461539 13:0.49606299 14:0.5 15:0.32323232 16:0.2 17:0.31521741 18:0.38235295 19:0.65671641 20:0.56880736 21:0.37931034 22:0.39473686 23:0.49166667 24:0.43307087 25:0.64150941 26:0.61206895 27:0.44800001 28:0.36666667 29:0.46923077 30:0.47586206 31:0.4509804 32:0.58558559 33:0.50961536 34:0.30973452 35:0.32786885 36:0.41269842 37:0.54000002 38:0.81111109 39:0.9130435 40:0.89534885 41:0.91578948 42:0.83838385 43:0.46739131 44:0.78571427 45:0.65671641 46:0.58108109 47:0.67901236 48:0.76543212 49:0.37209302 50:0.76744187 51:0.65714288 52:0.56164384 53:0.6438356 54:0.63636363 55:0.35964912 56:0.64634144 57:0.66666669 58:0.72500002 59:0.67415732 60:0.69902915 61:0.26666668 62:0.54081631 63:0.78409094 64:0.72527474 65:0.77894735 66:0.72173911 67:0.14285715 68:0.21495327 69:0.36842105 70:0.48214287 71:0.54054052 72:0.42307693 73:0.43137255 74:0.85000002 75:1 76:0.89108908 77:0.84070796 78:0.87179488 79:0.34482759 80:0.61643833 81:0.81578946 82:0.79411763 83:0.76811594 84:0.77011496 85:0.17346939 86:0.57831323 87:0.77333331 88:0.80281693 89:0.57647061 90:0.55882353 91:0.21238938 92:0.5 93:0.66666669 94:0.78481013 95:0.59036142 96:0.60396039 97:0.17 98:0.50526315 99:0.63953489 100:0.68965518 101:0.64444447 102:0.64566928 103:0.055045873 104:0.22222222 105:0.2521739 106:0.30555555 107:0.41 108:0.31914893 109:0.66972476 110:0.58620691 111:0.63333333 112:0.71276593 113:0.66326529 114:0.66315788 115:0.6111111 116:0.36585367 117:0.58333331 118:0.82051283 119:0.73809522 120:0.55102038 121:0.60952383 122:0.39473686 123:0.40789473 124:0.43373495 125:0.29333332 126:0.41904762 127:0.61052632 128:0.36170211 129:0.38461539 130:0.4054054 131:0.38541666 132:0.336 133:0.63106793 134:0.4848485 135:0.37068966 136:0.32499999 137:0.40196079 138:0.51219511 139:0.25999999 140:0.46391752 141:0.40707964 142:0.17948718 143:0.26415095 144:0.44144145 145:0.52991456 146:0.72826087 147:0.60000002 148:0.56190479 149:0.66326529 150:0.60576922 151:0.57446808 152:0.42391303 153:0.44444445 154:0.50961536 155:0.50961536 156:0.50943398 157:0.55147058 158:0.38297874 159:0.22680412 160:0.22429906 161:0.25263157 162:0.3508772 163:0.62608695 164:0.5045045 165:0.3275862 166:0.38938054 167:0.47272727 168:0.36220473 169:0.6761905 170:0.57499999 171:0.47058824 172:0.407767 173:0.63265306 174:0.47727272 175:0.66086954 176:0.55963302 177:0.57407409 178:0.23999999 179:0.3548387 180:0.51937985 181:0.33018869 182:0.60000002 183:0.75247526 184:0.65263158 185:0.60606062 186:0.74509805 187:0.47368422 188:0.87058824 189:0.86746991 190:0.63157892 191:0.66666669 192:0.77528089 193:0.44565219 194:0.73255813 195:0.5633803 196:0.64285713 197:0.66666669 198:0.6875 199:0.36448598 200:0.72619045 201:0.67415732 202:0.70512819 203:0.6875 204:0.73404253 205:0.26213592 206:0.63636363 207:0.66326529 208:0.56310678 209:0.67777777 210:0.69999999 211:0.29464287 212:0.48148149 213:0.54368931 214:0.67021275 215:0.69827586 216:0.68421054 217:0.44230768 218:0.69565219 219:0.73626375 220:0.6630435 221:0.72916669 222:0.73214287 223:0.3918919 224:0.69620252 225:0.97560978 226:0.8214286 227:0.77528089 228:0.75581396 229:0.26041666 230:0.56470591 231:0.7638889 232:0.76623374 233:0.66666669 234:0.72340423 235:0.21359223 236:0.48863637 237:0.83116883 238:0.73750001 239:0.55000001 240:0.65789473 241:0.30476192 242:0.57446808 243:0.72727275 244:0.75555557 245:0.58823532 246:0.64227641 247:0.35555556 248:0.53225809 249:0.55263156 250:0.69662923 251:0.72566372 252:0.59154928 253:0.47933885 254:0.66981131 255:0.62637365 256:0.77777779 257:0.75 258:0.48214287 259:0.48543689 260:0.42708334 261:0.56790125 262:0.8101266 263:0.77173913 264:0.43396226 265:0.49411765 266:0.37179488 267:0.41025642 268:0.43209878 269:0.41025642 270:0.34862384 271:0.58999997 272:0.40217391 273:0.41176471 274:0.44545454 275:0.5 276:0.39716312 277:0.53191489 278:0.60000002 279:0.41129032 280:0.38333333 281:0.49193549 282:0.56617647 283:0.48514852 284:0.7096774 285:0.37190083 286:0.27049181 287:0.352 288:0.54700857 
0.1166368091892009 1:0.40952381 2:0.5 3:0.41836736 4:0.44444445 5:0.50476193 6:0.80000001 7:0.359375 8:0.375 9:0.33750001 10:0.32967034 11:0.28865978 12:0.83516484 13:0.40157479 14:0.18181819 15:0.080808081 16:0 17:0.054347824 18:0.97058821 19:0.55223882 20:0.17431192 21:0.10344828 22:0.1754386 23:0.18333334 24:0.85039371 25:0.52830189 26:0.19827586 27:0.16 28:0.18333334 29:0.17692308 30:0.69655174 31:0.53921568 32:0.4054054 33:0.24038461 34:0.15044248 35:0.22950819 36:0.85714287 37:0.17 38:0.22222222 39:0.43478259 40:0.40697673 41:0.41052631 42:0.21212122 43:0.19565217 44:0.2857143 45:0.38805971 46:0.36486486 47:0.46913579 48:0.32098764 49:0.11627907 50:0.20930232 51:0.071428575 52:0.01369863 53:0.21917808 54:0.24242425 55:0.20175439 56:0.085365854 57:0.088888891 58:0.15000001 59:0.23595506 60:0.31067961 61:0.095238097 62:0.1122449 63:0.13636364 64:0.16483517 65:0.25263157 66:0.33913043 67:0.095238097 68:0.20560747 69:0.16842106 70:0.2767857 71:0.33333334 72:0.16346154 73:0.16666667 74:0.21250001 75:0.33333334 76:0.34653464 77:0.33628318 78:0.1965812 79:0.13793103 80:0.24657534 81:0.35526314 82:0.35294119 83:0.44927537 84:0.35632184 85:0.10204082 86:0.15662651 87:0.13333334 88:0.04225352 89:0.16470589 90:0.15686275 91:0.17699115 92:0.125 93:0.051282052 94:0.06329114 95:0.12048193 96:0.25742576 97:0.07 98:0.15789473 99:0.1744186 100:0.11494253 101:0.18888889 102:0.32283464 103:0.073394492 104:0.22222222 105:0.24347825 106:0.25 107:0.27000001 108:0.18085106 109:0.66972476 110:0.47126436 111:0.44444445 112:0.5106383 113:0.51020408 114:0.61052632 115:0.63492066 116:0.25609756 117:0.41666666 118:0.52564102 119:0.40476191 120:0.55102038 121:0.6761905 122:0.28947368 123:0.065789476 124:0.012048192 125:0.026666667 126:0.50476193 127:0.7473684 128:0.30851063 129:0.125 130:0.12612613 131:0.083333336 132:0.40799999 133:0.70873785 134:0.3131313 135:0.094827585 136:0.13333334 137:0.12745099 138:0.31707317 139:0.83999997 140:0.4742268 141:0.15929204 142:0.11965812 143:0.20754717 144:0.38738739 145:0.84615386 146:0.6630435 147:0.48571429 148:0.50476193 149:0.53061223 150:0.64423078 151:0.78014183 152:0.51086956 153:0.45454547 154:0.375 155:0.41346154 156:0.60377359 157:0.71323532 158:0.27659574 159:0.13402061 160:0.018691588 161:0.052631579 162:0.57017541 163:0.80869567 164:0.2972973 165:0.10344828 166:0.097345136 167:0.1 168:0.49606299 169:0.86666667 170:0.31666666 171:0.092436977 172:0.1262136 173:0.17346939 174:0.43181819 175:0.84347826 176:0.44954127 177:0.22222222 178:0.096000001 179:0.17741935 180:0.44961241 181:0.26415095 182:0.2857143 183:0.41584158 184:0.49473685 185:0.49494949 186:0.47058824 187:0.2 188:0.23529412 189:0.42168674 190:0.36842105 191:0.45555556 192:0.32584271 193:0.13043478 194:0.18604651 195:0.15492958 196:0.1 197:0.22222222 198:0.25 199:0.13084112 200:0.15476191 201:0.17977528 202:0.15384616 203:0.16249999 204:0.27659574 205:0.10679612 206:0.19318181 207:0.17346939 208:0.14563107 209:0.2 210:0.36363637 211:0.11607143 212:0.21296297 213:0.21359223 214:0.22340426 215:0.31034482 216:0.24060151 217:0.17307693 218:0.25 219:0.32967034 220:0.47826087 221:0.625 222:0.54464287 223:0.12162162 224:0.2658228 225:0.40243903 226:0.39285713 227:0.47191012 228:0.31395349 229:0.16666667 230:0.24705882 231:0.16666667 232:0.14285715 233:0.21428572 234:0.28723404 235:0.16504854 236:0.15909091 237:0.12987013 238:0.125 239:0.22 240:0.29824561 241:0.12380952 242:0.23404256 243:0.23863636 244:0.13333334 245:0.30392158 246:0.35772356 247:0.13333334 248:0.20967741 249:0.24561404 250:0.22471911 251:0.27433628 252:0.26760563 253:0.37190083 254:0.3773585 255:0.53846157 256:0.58585858 257:0.55434781 258:0.77678573 259:0.45631069 260:0.36458334 261:0.46913579 262:0.51898736 263:0.51086956 264:0.7735849 265:0.50588238 266:0.16666667 267:0.03846154 268:0.012345679 269:0.14102565 270:0.5321101 271:0.62 272:0.17391305 273:0.12745099 274:0.1 275:0.16666667 276:0.52482271 277:0.56382978 278:0.26666668 279:0.15322581 280:0.14166667 281:0.22580644 282:0.7647059 283:0.65346533 284:0.39784947 285:0.12396694 286:0.13934426 287:0.248 288:0.72649574 
0.8187315157173635 1:0.15238096 2:0.36956522 3:0.52040815 4:0.62626261 5:0.61904764 6:0.58947366 7:0.15625 8:0.3611111 9:0.44999999 10:0.58241761 11:0.54639173 12:0.62637365 13:0.21259843 14:0.39772728 15:0.60606062 16:0.55000001 17:0.67391306 18:0.88235295 19:0.36567163 20:0.41284403 21:0.68103451 22:0.7368421 23:0.64999998 24:0.69291341 25:0.2264151 26:0.21551724 27:0.28799999 28:0.30000001 29:0.2846154 30:0.46206897 31:0.30392158 32:0.36036035 33:0.50961536 34:0.57522124 35:0.72131145 36:0.52380955 37:0.31999999 38:0.2888889 39:0.5869565 40:0.6511628 41:0.62105262 42:0.49494949 43:0.32608697 44:0.34523809 45:0.55223882 46:0.6081081 47:0.56790125 48:0.38271606 49:0.31395349 50:0.36046511 51:0.47142857 52:0.53424656 53:0.61643833 54:0.55555558 55:0.37719297 56:0.28048781 57:0.40000001 58:0.57499999 59:0.58426964 60:0.63106793 61:0.25714287 62:0.15306123 63:0.13636364 64:0.2857143 65:0.36842105 66:0.46086955 67:0.22857143 68:0.19626169 69:0.24210526 70:0.42857143 71:0.5045045 72:0.40384614 73:0.35294119 74:0.60000002 75:0.60919541 76:0.54455447 77:0.539823 78:0.41025642 79:0.35632184 80:0.60273975 81:0.65789473 82:0.67647058 83:0.59420288 84:0.44827586 85:0.29591838 86:0.50602412 87:0.57333332 88:0.61971831 89:0.58823532 90:0.60784316 91:0.38053098 92:0.54545456 93:0.70512819 94:0.59493673 95:0.61445785 96:0.61386138 97:0.30000001 98:0.46315789 99:0.73255813 100:0.66666669 101:0.52222222 102:0.47244096 103:0.1559633 104:0.24074075 105:0.48695651 106:0.71296299 107:0.70999998 108:0.52127659 109:0.32110092 110:0.51724136 111:0.67777777 112:0.68085104 113:0.65306121 114:0.38947368 115:0.3968254 116:0.51219511 117:0.72619045 118:0.75641024 119:0.69047618 120:0.25510204 121:0.32380953 122:0.65789473 123:0.7368421 124:0.61445785 125:0.82666665 126:0.64761907 127:0.28421053 128:0.64893615 129:0.79807693 130:0.7117117 131:0.80208331 132:0.49599999 133:0.24271844 134:0.39393941 135:0.55172414 136:0.51666665 137:0.40196079 138:0.27642277 139:0.27000001 140:0.26804122 141:0.40707964 142:0.74358976 143:0.8773585 144:0.73873872 145:0.41880342 146:0.6630435 147:0.59047621 148:0.59047621 149:0.59183675 150:0.32692307 151:0.41843972 152:0.51086956 153:0.5151515 154:0.49038461 155:0.51923078 156:0.35849056 157:0.33823529 158:0.5 159:0.70103091 160:0.60747665 161:0.54736841 162:0.57894737 163:0.32173914 164:0.47747749 165:0.75862068 166:0.72566372 167:0.69090909 168:0.56692916 169:0.26666668 170:0.28333333 171:0.38655463 172:0.407767 173:0.42857143 174:0.31060606 175:0.35652173 176:0.26605505 177:0.4074074 178:0.54400003 179:0.66129035 180:0.62790698 181:0.46226415 182:0.6761905 183:0.84158415 184:0.78947371 185:0.81818181 186:0.70588237 187:0.32631579 188:0.48235294 189:0.63855422 190:0.52631581 191:0.55555558 192:0.41573033 193:0.43478259 194:0.59302324 195:0.70422536 196:0.74285716 197:0.7361111 198:0.6875 199:0.34579438 200:0.44047618 201:0.66292137 202:0.67948717 203:0.67500001 204:0.69148934 205:0.34951457 206:0.42045453 207:0.36734694 208:0.32038835 209:0.35555556 210:0.48181817 211:0.20535715 212:0.16666667 213:0.28155339 214:0.52127659 215:0.56896549 216:0.48872182 217:0.375 218:0.43478259 219:0.5714286 220:0.71739131 221:0.73958331 222:0.66964287 223:0.25675675 224:0.18987341 225:0.46341464 226:0.54761904 227:0.48314607 228:0.3488372 229:0.30208334 230:0.31764707 231:0.44444445 232:0.63636363 233:0.64285713 234:0.64893615 235:0.32038835 236:0.30681819 237:0.4025974 238:0.51249999 239:0.58999997 240:0.62280703 241:0.34285715 242:0.38297874 243:0.17045455 244:0.15555556 245:0.37254903 246:0.44715446 247:0.15555556 248:0.13709678 249:0.29824561 250:0.37078652 251:0.53097343 252:0.43661973 253:0.28099173 254:0.33018869 255:0.61538464 256:0.67676765 257:0.55434781 258:0.6964286 259:0.15533981 260:0.28125 261:0.49382716 262:0.65822786 263:0.5869565 264:0.74528301 265:0.28235295 266:0.42307693 267:0.53846157 268:0.61728394 269:0.62820512 270:0.79816514 271:0.40000001 272:0.47826087 273:0.58823532 274:0.66363639 275:0.72549021 276:0.68794328 277:0.25531915 278:0.33333334 279:0.25 280:0.28333333 281:0.36290324 282:0.53676468 283:0.24752475 284:0.26881722 285:0.36363637 286:0.56557375 287:0.648 288:0.60683763 
0.1355361038091706 1:0.32380953 2:0.52173913 3:0.47959185 4:0.49494949 5:0.46666667 6:0.7473684 7:0.2578125 8:0.27777779 9:0.28749999 10:0.32967034 11:0.24742268 12:0.74725276 13:0.2992126 14:0.34090909 15:0.43434343 16:0.34999999 17:0.30434781 18:0.85294116 19:0.4402985 20:0.36697248 21:0.24137931 22:0.1491228 23:0.125 24:0.66929132 25:0.26415095 26:0.21551724 27:0.47999999 28:0.51666665 29:0.44615385 30:0.75172412 31:0.30392158 32:0.46846846 33:0.76923078 34:0.75221241 35:0.77049178 36:0.89682537 37:0.38999999 38:0.32222223 39:0.46739131 40:0.5 41:0.47368422 42:0.17171717 43:0.42391303 44:0.25 45:0.2238806 46:0.2972973 47:0.35802469 48:0.30864197 49:0.5 50:0.54651165 51:0.38571429 52:0.23287672 53:0.30136988 54:0.28282827 55:0.42105263 56:0.42682928 57:0.25555557 58:0.21250001 59:0.31460676 60:0.33980581 61:0.25714287 62:0.26530612 63:0.48863637 64:0.54945058 65:0.64210528 66:0.53043479 67:0.15238096 68:0.18691589 69:0.18947369 70:0.29464287 71:0.41441441 72:0.42307693 73:0.40196079 74:0.48750001 75:0.49425286 76:0.55445546 77:0.48672566 78:0.22222222 79:0.37931034 80:0.42465752 81:0.40789473 82:0.54411763 83:0.56521738 84:0.42528737 85:0.3877551 86:0.56626505 87:0.47999999 88:0.47887325 89:0.47058824 90:0.29411766 91:0.33628318 92:0.36363637 93:0.34615386 94:0.27848101 95:0.43373495 96:0.41584158 97:0.16 98:0.22105263 99:0.54651165 100:0.7241379 101:0.78888887 102:0.59842521 103:0.04587156 104:0.10185185 105:0.29565218 106:0.42592594 107:0.44999999 108:0.55319148 109:0.39449543 110:0.49425286 111:0.64444447 112:0.65957445 113:0.63265306 114:0.31578946 115:0.45238096 116:0.23170732 117:0.47619048 118:0.62820512 119:0.44047618 120:0.26530612 121:0.53333336 122:0.36842105 123:0.47368422 124:0.56626505 125:0.53333336 126:0.38095239 127:0.44210526 128:0.38297874 129:0.42307693 130:0.3063063 131:0.33333334 132:0.208 133:0.56310678 134:0.1010101 135:0.36206895 136:0.58333331 137:0.60784316 138:0.43089432 139:0.75 140:0.20618556 141:0.52212387 142:0.7863248 143:0.91509432 144:0.7117117 145:0.41025642 146:0.57608694 147:0.52380955 148:0.5714286 149:0.60204083 150:0.32692307 151:0.4893617 152:0.38043478 153:0.47474748 154:0.44230768 155:0.41346154 156:0.2735849 157:0.47794119 158:0.38297874 159:0.58762884 160:0.46728972 161:0.40000001 162:0.30701753 163:0.68695652 164:0.41441441 165:0.43103448 166:0.38053098 167:0.31818181 168:0.21259843 169:0.63809526 170:0.083333336 171:0.2857143 172:0.52427185 173:0.63265306 174:0.40151516 175:0.6695652 176:0.27522936 177:0.6388889 178:0.72000003 179:0.84677422 180:0.65891474 181:0.40566039 182:0.38095239 183:0.46534654 184:0.50526315 185:0.60606062 186:0.57843137 187:0.52631581 188:0.45882353 189:0.50602412 190:0.60526317 191:0.58888888 192:0.47191012 193:0.57608694 194:0.46511629 195:0.40845069 196:0.48571429 197:0.4861111 198:0.36250001 199:0.52336448 200:0.58333331 201:0.49438202 202:0.41025642 203:0.48750001 204:0.4893617 205:0.35922331 206:0.40909091 207:0.32653061 208:0.33980581 209:0.42222223 210:0.5 211:0.22321428 212:0.21296297 213:0.44660193 214:0.62765956 215:0.50862068 216:0.47368422 217:0.38461539 218:0.35869566 219:0.2857143 220:0.39130434 221:0.54166669 222:0.6785714 223:0.5 224:0.44303799 225:0.5 226:0.5 227:0.44943821 228:0.3488372 229:0.53125 230:0.49411765 231:0.3611111 232:0.29870129 233:0.27380952 234:0.32978722 235:0.51456308 236:0.61363637 237:0.48051947 238:0.1875 239:0.31999999 240:0.35964912 241:0.33333334 242:0.46808511 243:0.42045453 244:0.23333333 245:0.36274511 246:0.37398374 247:0.21481481 248:0.22580644 249:0.44736841 250:0.55056179 251:0.50442475 252:0.35915494 253:0.36363637 254:0.41509435 255:0.61538464 256:0.61616164 257:0.51086956 258:0.71428573 259:0.32038835 260:0.29166666 261:0.48148149 262:0.48101267 263:0.42391303 264:0.71698111 265:0.43529412 266:0.55128205 267:0.43589744 268:0.41975307 269:0.44871795 270:0.59633029 271:0.57999998 272:0.64130437 273:0.32352942 274:0.15454546 275:0.19607843 276:0.61702126 277:0.35106382 278:0.33333334 279:0.44354838 280:0.375 281:0.47580644 282:0.69852942 283:0.42574257 284:0.55913979 285:0.71900827 286:0.73770493 287:0.80800003 288:0.86324787 
0.1341374229918656 1:0.42857143 2:0.5869565 3:0.39795917 4:0.49494949 5:0.50476193 6:0.61052632 7:0.3203125 8:0.44444445 9:0.38749999 10:0.38461539 11:0.4742268 12:0.62637365 13:0.40944883 14:0.39772728 15:0.42424244 16:0.43000001 17:0.53260869 18:0.72549021 19:0.55223882 20:0.42201835 21:0.30172414 22:0.28070176 23:0.30833334 24:0.63779527 25:0.4528302 26:0.18965517 27:0.60000002 28:0.625 29:0.50769234 30:0.66896552 31:0.68627453 32:0.47747749 33:0.86538464 34:0.8761062 35:0.81967211 36:0.89682537 37:0.41999999 38:0.44444445 39:0.52173913 40:0.54651165 41:0.54736841 42:0.35353535 43:0.36956522 44:0.4642857 45:0.47761193 46:0.48648649 47:0.4074074 48:0.27160493 49:0.36046511 50:0.47674417 51:0.38571429 52:0.28767124 53:0.38356164 54:0.22222222 55:0.42105263 56:0.43902439 57:0.31111112 58:0.2375 59:0.23595506 60:0.27184466 61:0.26666668 62:0.23469388 63:0.5 64:0.54945058 65:0.56842107 66:0.45217392 67:0.60000002 68:0.61682242 69:0.42105263 70:0.33035713 71:0.2972973 72:0.16346154 73:0.5 74:0.47499999 75:0.41379312 76:0.45544556 77:0.40707964 78:0.26495728 79:0.43678162 80:0.4520548 81:0.5 82:0.57352942 83:0.52173913 84:0.37931034 85:0.36734694 86:0.44578314 87:0.42666668 88:0.35211268 89:0.40000001 90:0.25490198 91:0.4778761 92:0.47727272 93:0.2820513 94:0.15189873 95:0.20481928 96:0.27722773 97:0.28999999 98:0.30526316 99:0.54651165 100:0.65517241 101:0.66666669 102:0.43307087 103:0.52293581 104:0.74074072 105:0.67826086 106:0.4537037 107:0.33000001 108:0.17021276 109:0.48623854 110:0.48275861 111:0.51111114 112:0.54255319 113:0.47959185 114:0.30526316 115:0.51587301 116:0.39024389 117:0.51190478 118:0.55128205 119:0.51190478 120:0.24489796 121:0.38095239 122:0.43421054 123:0.44736841 124:0.46987951 125:0.58666664 126:0.33333334 127:0.31578946 128:0.47872341 129:0.46153846 130:0.24324325 131:0.23958333 132:0.192 133:0.23300971 134:0.27272728 135:0.44827586 136:0.51666665 137:0.56862748 138:0.34146342 139:0.44 140:0.43298969 141:0.57522124 142:0.73504275 143:0.8490566 144:0.54954952 145:0.64102566 146:0.57608694 147:0.44761905 148:0.51428574 149:0.47959185 150:0.25961539 151:0.46808511 152:0.42391303 153:0.49494949 154:0.45192307 155:0.5 156:0.2264151 157:0.36764705 158:0.40425533 159:0.49484536 160:0.49532712 161:0.51578945 162:0.23684211 163:0.33043477 164:0.45045045 165:0.40517241 166:0.3539823 167:0.31818181 168:0.16535433 169:0.25714287 170:0.25833333 171:0.42016807 172:0.592233 173:0.52040815 174:0.32575756 175:0.35652173 176:0.44036698 177:0.8611111 178:0.88 179:0.87903225 180:0.65891474 181:0.78301889 182:0.71428573 183:0.75247526 184:0.68421054 185:0.67676765 186:0.51960784 187:0.38947368 188:0.3882353 189:0.39759037 190:0.38157895 191:0.40000001 192:0.32584271 193:0.51086956 194:0.41860464 195:0.36619717 196:0.44285715 197:0.45833334 198:0.30000001 199:0.43925235 200:0.51190478 201:0.48314607 202:0.30769232 203:0.26249999 204:0.34042552 205:0.28155339 206:0.31818181 207:0.2857143 208:0.21359223 209:0.15555556 210:0.31818181 211:0.11607143 212:0.16666667 213:0.42718446 214:0.63829786 215:0.56034482 216:0.37593985 217:0.64423078 218:0.71739131 219:0.63736266 220:0.72826087 221:0.73958331 222:0.5625 223:0.4054054 224:0.4556962 225:0.5 226:0.53571427 227:0.44943821 228:0.29069766 229:0.38541666 230:0.45882353 231:0.44444445 232:0.41558442 233:0.44047618 234:0.27659574 235:0.407767 236:0.53409094 237:0.44155845 238:0.2375 239:0.30000001 240:0.27192983 241:0.20952381 242:0.29787233 243:0.34090909 244:0.16666667 245:0.28431374 246:0.29268292 247:0.11111111 248:0.14516129 249:0.51754385 250:0.6179775 251:0.51327431 252:0.30985916 253:0.40495867 254:0.43396226 255:0.54945058 256:0.58585858 257:0.57608694 258:0.7589286 259:0.3883495 260:0.42708334 261:0.53086418 262:0.54430377 263:0.63043481 264:0.79245281 265:0.45882353 266:0.52564102 267:0.46153846 268:0.45679012 269:0.62820512 270:0.69724768 271:0.63 272:0.52173913 273:0.36274511 274:0.29090908 275:0.36274511 276:0.6241135 277:0.43617022 278:0.23809524 279:0.44354838 280:0.36666667 281:0.41935483 282:0.74264705 283:0.42574257 284:0.44086021 285:0.78512394 286:0.77049178 287:0.88 288:0.7863248 
0.04116484758151989 1:0.51428574 2:0.67391306 3:0.46938777 4:0.5151515 5:0.60000002 6:0.40000001 7:0.3046875 8:0.625 9:0.69999999 10:0.69230771 11:0.68041235 12:0.41758242 13:0.48031497 14:0.64772725 15:0.72727275 16:0.69 17:0.63043481 18:0.43137255 19:0.58208954 20:0.48623854 21:0.62068963 22:0.65789473 23:0.32499999 24:0.26771653 25:0.40566039 26:0.15517241 27:0.21600001 28:0.33333334 29:0.31538463 30:0.35172415 31:0.54901963 32:0.44144145 33:0.25961539 34:0.25663716 35:0.42622951 36:0.34126985 37:0.63999999 38:0.69999999 39:0.85869563 40:0.86046511 41:0.83157897 42:0.70707071 43:0.59782606 44:0.63095236 45:0.73134327 46:0.64864862 47:0.64197528 48:0.60493827 49:0.75581396 50:0.96511626 51:0.85714287 52:0.76712328 53:0.75342464 54:0.63636363 55:0.60526317 56:0.597561 57:0.5 58:0.61250001 59:0.55056179 60:0.66019416 61:0.45714286 62:0.37755102 63:0.5 64:0.51648355 65:0.47368422 66:0.56521738 67:0.41904762 68:0.52336448 69:0.51578945 70:0.51785713 71:0.4954955 72:0.34615386 73:0.65686274 74:0.73750001 75:0.7241379 76:0.7227723 77:0.68141592 78:0.70085472 79:0.45977011 80:0.60273975 81:0.69736844 82:0.69117647 83:0.73913044 84:0.64367819 85:0.54081631 86:0.87951809 87:0.81333333 88:0.81690139 89:0.68235296 90:0.55882353 91:0.49557522 92:0.52272725 93:0.56410259 94:0.49367088 95:0.48192772 96:0.50495052 97:0.40000001 98:0.33684212 99:0.54651165 100:0.45977011 101:0.33333334 102:0.42519686 103:0.24770643 104:0.43518519 105:0.46086955 106:0.52777779 107:0.44 108:0.42553192 109:0.44036698 110:0.52873564 111:0.44444445 112:0.5106383 113:0.47959185 114:0.45263159 115:0.34126985 116:0.4512195 117:0.66666669 118:0.82051283 119:0.78571427 120:0.5 121:0.33333334 122:0.67105263 123:0.69736844 124:0.71084338 125:0.74666667 126:0.58095241 127:0.25263157 128:0.52127659 129:0.60576922 130:0.47747749 131:0.29166666 132:0.176 133:0.038834952 134:0.11111111 135:0.19827586 136:0.18333334 137:0.16666667 138:0.1300813 139:0.18000001 140:0.21649484 141:0.1238938 142:0.17094018 143:0.3018868 144:0.36036035 145:0.35897437 146:0.54347825 147:0.41904762 148:0.34285715 149:0.51020408 150:0.42307693 151:0.31205675 152:0.56521738 153:0.69696969 154:0.67307693 155:0.70192307 156:0.43396226 157:0.29411766 158:0.56382978 159:0.7525773 160:0.63551402 161:0.60000002 162:0.48245615 163:0.36521739 164:0.43243244 165:0.67241377 166:0.71681416 167:0.32727271 168:0.15748031 169:0.27619049 170:0.075000003 171:0.10084034 172:0.29126215 173:0.32653061 174:0.1969697 175:0.43478259 176:0.36697248 177:0.18518518 178:0.22400001 179:0.3548387 180:0.28682169 181:0.6509434 182:0.74285716 183:0.78217822 184:0.76842105 185:0.68686867 186:0.82352942 187:0.58947366 188:0.7764706 189:0.79518074 190:0.82894737 191:0.82222223 192:0.7977528 193:0.73913044 194:0.70930231 195:0.5633803 196:0.67142856 197:0.70833331 198:0.66250002 199:0.68224299 200:0.8214286 201:0.75280899 202:0.74358976 203:0.61250001 204:0.61702126 205:0.53398061 206:0.44318181 207:0.37755102 208:0.45631069 209:0.42222223 210:0.56363636 211:0.3482143 212:0.49074075 213:0.44660193 214:0.47872341 215:0.48275861 216:0.36090225 217:0.73076922 218:0.67391306 219:0.69230771 220:0.6630435 221:0.69791669 222:0.7589286 223:0.72972971 224:0.70886075 225:0.86585367 226:0.83333331 227:0.86516851 228:0.82558137 229:0.57291669 230:0.69411767 231:0.59722221 232:0.62337661 233:0.60714287 234:0.68085104 235:0.54368931 236:0.81818181 237:0.87012988 238:0.67500001 239:0.55000001 240:0.60526317 241:0.31428573 242:0.47872341 243:0.67045456 244:0.45555556 245:0.4509804 246:0.56097561 247:0.26666668 248:0.3951613 249:0.57017541 250:0.55056179 251:0.4159292 252:0.36619717 253:0.55371898 254:0.44339624 255:0.50549453 256:0.4848485 257:0.46739131 258:0.35714287 259:0.41747573 260:0.52083331 261:0.81481481 262:0.91139239 263:0.84782606 264:0.4528302 265:0.51764709 266:0.66666669 267:0.78205127 268:0.79012346 269:0.74358976 270:0.43119267 271:0.58999997 272:0.68478262 273:0.67647058 274:0.64545453 275:0.35294119 276:0.24822696 277:0.19148937 278:0.22857143 279:0.31451613 280:0.24166666 281:0.31451613 282:0.32352942 283:0.2970297 284:0.26881722 285:0.24793388 286:0.19672132 287:0.37599999 288:0.45299146 
0.1016262300886307 1:0.50476193 2:0.76086956 3:0.60204083 4:0.68686867 5:0.75238097 6:0.45263159 7:0.2890625 8:0.625 9:0.46250001 10:0.59340662 11:0.77319586 12:0.48351648 13:0.37007874 14:0.72727275 15:0.80808079 16:0.69 17:0.75 18:0.57843137 19:0.61194032 20:0.72477067 21:0.83620691 22:0.85087717 23:0.70833331 24:0.47244096 25:0.6226415 26:0.7241379 27:0.85600001 28:0.79166669 29:0.56923079 30:0.50344825 31:0.61764705 32:0.6936937 33:0.58653843 34:0.4778761 35:0.39344263 36:0.46031746 37:0.47999999 38:0.48888889 39:0.60869563 40:0.56976742 41:0.57894737 42:0.43434343 43:0.57608694 44:0.53571427 45:0.52238804 46:0.6081081 47:0.74074072 48:0.76543212 49:0.59302324 50:0.62790698 51:0.67142856 52:0.6438356 53:0.76712328 54:0.65656567 55:0.61403507 56:0.67073172 57:0.66666669 58:0.71249998 59:0.68539327 60:0.64077669 61:0.58095241 62:0.69387758 63:0.80681819 64:0.71428573 65:0.68421054 66:0.63478261 67:0.42857143 68:0.50467288 69:0.57894737 70:0.5535714 71:0.63963962 72:0.45192307 73:0.4509804 74:0.55000001 75:0.58620691 76:0.49504951 77:0.54867256 78:0.50427353 79:0.44827586 80:0.50684929 81:0.53947371 82:0.7352941 83:0.81159419 84:0.77011496 85:0.39795917 86:0.56626505 87:0.62666667 88:0.71830988 89:0.67058825 90:0.64705884 91:0.49557522 92:0.68181819 93:0.69230771 94:0.6708861 95:0.66265059 96:0.64356434 97:0.50999999 98:0.83157897 99:0.75581396 100:0.7241379 101:0.62222224 102:0.65354329 103:0.33027524 104:0.46296296 105:0.40869564 106:0.44444445 107:0.43000001 108:0.38297874 109:0.63302749 110:0.64367819 111:0.74444443 112:0.75531918 113:0.73469388 114:0.56842107 115:0.53174603 116:0.30487806 117:0.61904764 118:0.71794873 119:0.71428573 120:0.62244898 121:0.4952381 122:0.61842108 123:0.7631579 124:0.6987952 125:0.80000001 126:0.61904764 127:0.47368422 128:0.74468082 129:0.72115386 130:0.6936937 131:0.73958331 132:0.40799999 133:0.44660193 134:0.75757575 135:0.75 136:0.69166666 137:0.59803921 138:0.50406504 139:0.56 140:0.59793812 141:0.38053098 142:0.35897437 143:0.43396226 144:0.45945945 145:0.69230771 146:0.67391306 147:0.64761907 148:0.6761905 149:0.75510204 150:0.49038461 151:0.60992908 152:0.5 153:0.54545456 154:0.58653843 155:0.66346157 156:0.52830189 157:0.54411763 158:0.54255319 159:0.72164947 160:0.62616825 161:0.54736841 162:0.58771932 163:0.54782611 164:0.66666669 165:0.7758621 166:0.76991153 167:0.73636365 168:0.43307087 169:0.45714286 170:0.625 171:0.67226893 172:0.80582523 173:0.71428573 174:0.45454547 175:0.47826087 176:0.58715594 177:0.62962961 178:0.48800001 179:0.42741936 180:0.34108528 181:0.49056605 182:0.54285717 183:0.49504951 184:0.50526315 185:0.60606062 186:0.67647058 187:0.63157892 188:0.5411765 189:0.44578314 190:0.5131579 191:0.56666666 192:0.64044946 193:0.59782606 194:0.47674417 195:0.45070422 196:0.5714286 197:0.80555558 198:0.875 199:0.46728972 200:0.61904764 201:0.73033708 202:0.64102566 203:0.5625 204:0.59574467 205:0.45631069 206:0.71590906 207:0.6122449 208:0.53398061 209:0.55555558 210:0.64545453 211:0.39285713 212:0.5462963 213:0.56310678 214:0.55319148 215:0.5 216:0.33834586 217:0.51923078 218:0.5 219:0.51648355 220:0.59782606 221:0.92708331 222:0.91964287 223:0.43243244 224:0.60759491 225:0.70731705 226:0.65476191 227:0.70786518 228:0.66279072 229:0.36458334 230:0.56470591 231:0.58333331 232:0.70129871 233:0.86904764 234:0.80851066 235:0.47572815 236:0.71590906 237:0.74025977 238:0.63749999 239:0.58999997 240:0.57017541 241:0.46666667 242:0.82978725 243:0.79545456 244:0.60000002 245:0.64705884 246:0.64227641 247:0.28148147 248:0.49193549 249:0.59649122 250:0.57303369 251:0.38053098 252:0.32394367 253:0.4214876 254:0.55660379 255:0.74725276 256:0.85858583 257:0.71739131 258:0.48214287 259:0.27184466 260:0.45833334 261:0.62962961 262:0.83544302 263:0.73913044 264:0.4528302 265:0.30588236 266:0.6025641 267:0.76923078 268:0.69135803 269:0.61538464 270:0.40366971 271:0.57999998 272:0.69565219 273:0.82352942 274:0.72727275 275:0.66666669 276:0.36170211 277:0.57446808 278:0.72380954 279:0.58870965 280:0.59166664 281:0.58064514 282:0.52205884 283:0.45544556 284:0.67741936 285:0.41322315 286:0.45901638 287:0.39199999 288:0.48717949 
0.937140862744422 1:0.4952381 2:0.8369565 3:0.63265306 4:0.58585858 5:0.70476192 6:0.38947368 7:0.3984375 8:0.6111111 9:0.48750001 10:0.5714286 11:0.65979379 12:0.43956044 13:0.44881889 14:0.75 15:0.78787881 16:0.70999998 17:0.73913044 18:0.5 19:0.63432837 20:0.76146787 21:0.83620691 22:0.85964912 23:0.79166669 24:0.55905509 25:0.6226415 26:0.60344827 27:0.67199999 28:0.68333334 29:0.58461541 30:0.52413791 31:0.49019608 32:0.51351351 33:0.33653846 34:0.2300885 35:0.31967214 36:0.33333334 37:0.5 38:0.58888888 39:0.69565219 40:0.67441863 41:0.65263158 42:0.46464646 43:0.64130437 44:0.66666669 45:0.68656719 46:0.75675678 47:0.75308645 48:0.64197528 49:0.63953489 50:0.75581396 51:0.77142859 52:0.65753424 53:0.79452056 54:0.62626261 55:0.66666669 56:0.78048778 57:0.80000001 58:0.77499998 59:0.8202247 60:0.74757284 61:0.64761907 62:0.64285713 63:0.67045456 64:0.61538464 65:0.7263158 66:0.65217394 67:0.41904762 68:0.42056075 69:0.46315789 70:0.4642857 71:0.4954955 72:0.41346154 73:0.54901963 74:0.69999999 75:0.74712646 76:0.63366336 77:0.61946905 78:0.47008547 79:0.65517241 80:0.79452056 81:0.71052629 82:0.94117647 83:0.89855075 84:0.68965518 85:0.54081631 86:0.74698794 87:0.70666665 88:0.87323946 89:0.80000001 90:0.68627453 91:0.63716817 92:0.73863637 93:0.71794873 94:0.75949365 95:0.80722892 96:0.82178217 97:0.69 98:0.76842105 99:0.6511628 100:0.65517241 101:0.65555555 102:0.68503934 103:0.37614679 104:0.49074075 105:0.45217392 106:0.50925928 107:0.44999999 108:0.43617022 109:0.72477067 110:0.73563218 111:0.77777779 112:0.73404253 113:0.75510204 114:0.61052632 115:0.6111111 116:0.53658539 117:0.6785714 118:0.82051283 119:0.8214286 120:0.62244898 121:0.58095241 122:0.81578946 123:0.85526317 124:0.83132529 125:0.89333332 126:0.72380954 127:0.60000002 128:0.78723407 129:0.83653843 130:0.81981981 131:0.84375 132:0.67199999 133:0.52427185 134:0.82828283 135:0.62068963 136:0.625 137:0.65686274 138:0.55284554 139:0.66000003 140:0.57731956 141:0.34513274 142:0.23076923 143:0.3018868 144:0.38738739 145:0.71794873 146:0.81521738 147:0.69523811 148:0.59047621 149:0.70408165 150:0.46153846 151:0.6241135 152:0.61956519 153:0.58585858 154:0.52884614 155:0.64423078 156:0.46226415 157:0.60294116 158:0.58510637 159:0.67010307 160:0.66355139 161:0.69473684 162:0.61403507 163:0.64347827 164:0.74774772 165:0.83620691 166:0.84070796 167:0.85454547 168:0.70078743 169:0.59047621 170:0.72500002 171:0.68067229 172:0.85436893 173:0.85714287 174:0.66666669 175:0.51304346 176:0.55045873 177:0.39814815 178:0.248 179:0.33064517 180:0.40310079 181:0.56603771 182:0.60000002 183:0.60396039 184:0.63157892 185:0.74747473 186:0.79411763 187:0.7263158 188:0.7647059 189:0.73493975 190:0.77631581 191:0.66666669 192:0.66292137 193:0.69565219 194:0.72093022 195:0.70422536 196:0.77142859 197:0.93055558 198:0.875 199:0.61682242 200:0.72619045 201:0.8202247 202:0.82051283 203:0.80000001 204:0.79787236 205:0.67961162 206:0.86363637 207:0.68367344 208:0.64077669 209:0.74444443 210:0.80000001 211:0.5 212:0.58333331 213:0.48543689 214:0.53191489 215:0.46551725 216:0.45112783 217:0.55769229 218:0.60869563 219:0.56043959 220:0.6630435 221:0.80208331 222:0.90178573 223:0.74324322 224:0.77215189 225:0.76829267 226:0.79761904 227:0.73033708 228:0.52325583 229:0.5625 230:0.72941178 231:0.68055558 232:0.79220778 233:0.88095236 234:0.74468082 235:0.5825243 236:0.75 237:0.84415585 238:0.77499998 239:0.75 240:0.7280702 241:0.70476192 242:0.82978725 243:0.85227275 244:0.71111113 245:0.79411763 246:0.69105691 247:0.39259258 248:0.49193549 249:0.50877196 250:0.50561798 251:0.4159292 252:0.40845069 253:0.47107437 254:0.61320752 255:0.78021979 256:0.75757575 257:0.78260869 258:0.49107143 259:0.407767 260:0.45833334 261:0.7037037 262:0.84810126 263:0.75 264:0.41509435 265:0.56470591 266:0.67948717 267:0.73076922 268:0.77777779 269:0.87179488 270:0.50458717 271:0.67000002 272:0.80434781 273:0.85294116 274:0.78181821 275:0.89215684 276:0.53191489 277:0.71276593 278:0.85714287 279:0.7096774 280:0.67500001 281:0.71774191 282:0.61764705 283:0.50495052 284:0.60215056 285:0.25619835 286:0.24590164 287:0.31200001 288:0.41880342 
0.9041077629435983 1:0.84761906 2:0.41304347 3:0.3877551 4:0.4040404 5:0.42857143 6:0.38947368 7:0.6015625 8:0.20833333 9:0.2 10:0.18681319 11:0.3298969 12:0.21978022 13:0.52755904 14:0.32954547 15:0.61616164 16:0.49000001 17:0.56521738 18:0.4509804 19:0.64179105 20:0.4678899 21:0.65517241 22:0.70175439 23:0.59166664 24:0.46456692 25:0.60377359 26:0.53448278 27:0.69599998 28:0.70833331 29:0.48461539 30:0.37241378 31:0.69607842 32:0.63963962 33:0.56730771 34:0.50442475 35:0.51639342 36:0.45238096 37:0.41999999 38:0.46666667 39:0.70652175 40:0.88372093 41:0.89473683 42:0.68686867 43:0.065217391 44:0.13095239 45:0.23880596 46:0.3108108 47:0.44444445 48:0.51851851 49:0.023255814 50:0.27906978 51:0.45714286 52:0.52054793 53:0.71232879 54:0.5959596 55:0.096491225 56:0.24390244 57:0.52222222 58:0.55000001 59:0.57303369 60:0.63106793 61:0.03809524 62:0.30612245 63:0.67045456 64:0.71428573 65:0.66315788 66:0.61739129 67:0.20952381 68:0.19626169 69:0.29473683 70:0.4107143 71:0.45945945 72:0.40384614 73:0.47058824 74:0.61250001 75:0.7011494 76:0.65346533 77:0.539823 78:0.48717949 79:0.080459774 80:0.04109589 81:0.38157895 82:0.42647058 83:0.52173913 84:0.45977011 85:0.020408163 86:0.21686748 87:0.53333336 88:0.67605633 89:0.71764708 90:0.56862748 91:0.053097345 92:0.29545453 93:0.52564102 94:0.5316456 95:0.60240966 96:0.66336632 97:0 98:0.38947368 99:0.70930231 100:0.71264368 101:0.65555555 102:0.55905509 103:0.43119267 104:0.30555555 105:0.33043477 106:0.33333334 107:0.41 108:0.42553192 109:0.63302749 110:0.47126436 111:0.43333334 112:0.37234041 113:0.40816328 114:0.35789475 115:0.77777779 116:0.29268292 117:0.22619048 118:0.30769232 119:0.42857143 120:0.35714287 121:0.69523811 122:0.38157895 123:0.59210527 124:0.55421686 125:0.66666669 126:0.60000002 127:0.16842106 128:0.27659574 129:0.625 130:0.66666669 131:0.66666669 132:0.54400003 133:0.029126214 134:0.37373737 135:0.66379309 136:0.60833335 137:0.627451 138:0.41463414 139:0.56 140:0.49484536 141:0.46902654 142:0.45299146 143:0.5754717 144:0.57657659 145:0.71794873 146:0.6630435 147:0.32380953 148:0.21904762 149:0.31632653 150:0.29807693 151:0.58865249 152:0.26086956 153:0.19191919 154:0.21153846 155:0.32692307 156:0.3490566 157:0.56617647 158:0.30851063 159:0.49484536 160:0.39252338 161:0.36842105 162:0.43859649 163:0.86086959 164:0.51351351 165:0.61206895 166:0.63716817 167:0.61818182 168:0.46456692 169:0.8952381 170:0.55000001 171:0.62184876 172:0.67961162 173:0.65306121 174:0.32575756 175:0.7478261 176:0.63302749 177:0.69444442 178:0.48800001 179:0.47580644 180:0.46511629 181:0.5 182:0.45714286 183:0.57425743 184:0.58947366 185:0.83838385 186:0.89215684 187:0.23157895 188:0.17647059 189:0.3493976 190:0.34210527 191:0.5 192:0.53932583 193:0 194:0.12790698 195:0.30985916 196:0.25714287 197:0.43055555 198:0.60000002 199:0.046728972 200:0.29761904 201:0.62921351 202:0.65384614 203:0.67500001 204:0.71276593 205:0 206:0.32954547 207:0.51020408 208:0.47572815 209:0.51111114 210:0.5181818 211:0 212:0.24074075 213:0.44660193 214:0.5 215:0.5258621 216:0.49624062 217:0.42307693 218:0.67391306 219:0.64835167 220:0.63043481 221:0.36458334 222:0.54464287 223:0.013513514 224:0.025316456 225:0.39024389 226:0.47619048 227:0.65168542 228:0.61627907 229:0.09375 230:0.25882354 231:0.43055555 232:0.41558442 233:0.48809522 234:0.52127659 235:0.048543688 236:0.39772728 237:0.8051948 238:0.75 239:0.68000001 240:0.67543858 241:0.06666667 242:0.46808511 243:0.72727275 244:0.62222224 245:0.54901963 246:0.47967479 247:0.06666667 248:0.32258064 249:0.56140351 250:0.73033708 251:0.54867256 252:0.42957747 253:0.30578512 254:0.31132075 255:0.38461539 256:0.3131313 257:0.32608697 258:0.6339286 259:0.33009708 260:0.11458334 261:0.20987654 262:0.39240506 263:0.43478259 264:0.31132075 265:0.5529412 266:0.26923078 267:0.3974359 268:0.48148149 269:0.48717949 270:0.24770643 271:0.68000001 272:0.43478259 273:0.55882353 274:0.60000002 275:0.66666669 276:0.40425533 277:0.45744681 278:0.53333336 279:0.59677422 280:0.61666667 281:0.53225809 282:0.42647058 283:0.27722773 284:0.56989247 285:0.56198347 286:0.54098362 287:0.56800002 288:0.61538464 
1.090599326388547 1:0.31428573 2:0.60869563 3:0.35714287 4:0.43434343 5:0.45714286 6:0.37894738 7:0.2265625 8:0.3611111 9:0.22499999 10:0.35164836 11:0.52577317 12:0.23076923 13:0.33070865 14:0.60227275 15:0.62626261 16:0.55000001 17:0.75 18:0.5 19:0.44776121 20:0.56880736 21:0.76724136 22:0.78070176 23:0.66666669 24:0.55118108 25:0.4528302 26:0.66379309 27:0.736 28:0.71666664 29:0.47692308 30:0.39310345 31:0.5 32:0.67567569 33:0.63461536 34:0.4778761 35:0.59836066 36:0.46031746 37:0.62 38:0.74444443 39:0.85869563 40:0.90697676 41:0.85263157 42:0.62626261 43:0.35869566 44:0.34523809 45:0.28358209 46:0.43243244 47:0.5925926 48:0.51851851 49:0.36046511 50:0.58139533 51:0.60000002 52:0.6438356 53:0.83561641 54:0.56565654 55:0.36842105 56:0.5487805 57:0.58888888 58:0.71249998 59:0.65168542 60:0.68932039 61:0.32380953 62:0.59183675 63:0.82954544 64:0.76923078 65:0.67368424 66:0.5826087 67:0.2857143 68:0.31775701 69:0.38947368 70:0.5089286 71:0.5945946 72:0.51923078 73:0.67647058 74:0.88749999 75:0.83908045 76:0.70297033 77:0.53097343 78:0.50427353 79:0.37931034 80:0.39726028 81:0.55263156 82:0.61764705 83:0.59420288 84:0.48275861 85:0.30612245 86:0.61445785 87:0.77333331 88:0.85915494 89:0.80000001 90:0.54901963 91:0.34513274 92:0.63636363 93:0.61538464 94:0.65822786 95:0.71084338 96:0.75247526 97:0.34 98:0.77894735 99:0.83720928 100:0.89655173 101:0.68888891 102:0.56692916 103:0.51376146 104:0.37962964 105:0.4173913 106:0.4537037 107:0.55000001 108:0.57446808 109:0.66972476 110:0.56321841 111:0.48888889 112:0.5 113:0.44897959 114:0.35789475 115:0.5 116:0.19512194 117:0.40476191 118:0.57692307 119:0.61904764 120:0.37755102 121:0.63809526 122:0.52631581 123:0.75 124:0.6506024 125:0.82666665 126:0.6857143 127:0.45263159 128:0.61702126 129:0.82692307 130:0.76576579 131:0.76041669 132:0.58399999 133:0.36893204 134:0.64646465 135:0.76724136 136:0.66666669 137:0.63725489 138:0.39024389 139:0.81 140:0.56701028 141:0.51327431 142:0.50427353 143:0.66981131 144:0.62162161 145:0.70085472 146:0.47826087 147:0.30476192 148:0.23809524 149:0.35714287 150:0.26923078 151:0.42553192 152:0.17391305 153:0.28282827 154:0.375 155:0.51923078 156:0.3490566 157:0.47058824 158:0.25531915 159:0.48453608 160:0.35514018 161:0.43157893 162:0.47368422 163:0.80000001 164:0.47747749 165:0.71551722 166:0.72566372 167:0.68181819 168:0.53543305 169:0.84761906 170:0.5 171:0.63865548 172:0.74757284 173:0.66326529 174:0.33333334 175:0.60869563 176:0.63302749 177:0.69444442 178:0.51999998 179:0.5403226 180:0.4728682 181:0.6509434 182:0.60952383 183:0.58415842 184:0.7263158 185:0.89898992 186:0.91176468 187:0.36842105 188:0.45882353 189:0.48192772 190:0.52631581 191:0.54444444 192:0.55056179 193:0.30434781 194:0.38372093 195:0.32394367 196:0.42857143 197:0.66666669 198:0.66250002 199:0.33644861 200:0.60714287 201:0.75280899 202:0.80769229 203:0.80000001 204:0.76595747 205:0.29126215 206:0.63636363 207:0.60204083 208:0.60194176 209:0.56666666 210:0.55454546 211:0.1875 212:0.46296296 213:0.592233 214:0.61702126 215:0.61206895 216:0.5413534 217:0.875 218:0.90217394 219:0.78021979 220:0.55434781 221:0.34375 222:0.6339286 223:0.32432431 224:0.39240506 225:0.63414633 226:0.64285713 227:0.74157304 228:0.61627907 229:0.41666666 230:0.52941179 231:0.47222221 232:0.54545456 233:0.6785714 234:0.56382978 235:0.3883495 236:0.86363637 237:0.96103895 238:0.85000002 239:0.75 240:0.7368421 241:0.34285715 242:0.82978725 243:0.86363637 244:0.67777777 245:0.58823532 246:0.56910568 247:0.24444444 248:0.54838711 249:0.7368421 250:0.83146065 251:0.57522124 252:0.46478873 253:0.37190083 254:0.4245283 255:0.36263737 256:0.39393941 257:0.34782609 258:0.70535713 259:0.33009708 260:0.26041666 261:0.41975307 262:0.55696201 263:0.61956519 264:0.40566039 265:0.43529412 266:0.53846157 267:0.47435898 268:0.50617284 269:0.55128205 270:0.30275229 271:0.47999999 272:0.77173913 273:0.71568626 274:0.72727275 275:0.78431374 276:0.43971631 277:0.41489363 278:0.78095239 279:0.67741936 280:0.69166666 281:0.55645162 282:0.43382353 283:0.42574257 284:0.78494626 285:0.61157024 286:0.56557375 287:0.62400001 288:0.59829062 
0.2422469398630479 1:0.42857143 2:0.28260869 3:0.24489796 4:0.27272728 5:0.41904762 6:0.37894738 7:0.546875 8:0.34722221 9:0.46250001 10:0.3956044 11:0.46391752 12:0.74725276 13:0.59842521 14:0.38636363 15:0.53535354 16:0.46000001 17:0.30434781 18:0.75490195 19:0.85820895 20:0.33027524 21:0.27586207 22:0.32456142 23:0.25 24:0.73228347 25:0.8490566 26:0.30172414 27:0.264 28:0.20833333 29:0.22307692 30:0.75172412 31:0.7352941 32:0.48648649 33:0.35576922 34:0.18584071 35:0.20491803 36:0.73015875 37:0.54000002 38:0.53333336 39:0.5 40:0.44186047 41:0.46315789 42:0.3131313 43:0.16304348 44:0.36904761 45:0.56716418 46:0.44594595 47:0.64197528 48:0.5925926 49:0.15116279 50:0.48837209 51:0.67142856 52:0.56164384 53:0.43835616 54:0.37373737 55:0.22807017 56:0.17073171 57:0.25555557 58:0.30000001 59:0.30337077 60:0.39805827 61:0.25714287 62:0.15306123 63:0.25 64:0.2857143 65:0.34736842 66:0.39130434 67:0.50476193 68:0.8224299 69:0.94736844 70:0.90178573 71:0.81981981 72:0.75 73:0.54901963 74:0.22499999 75:0.27586207 76:0.34653464 77:0.38053098 78:0.2820513 79:0.18390805 80:0.16438356 81:0.53947371 82:0.54411763 83:0.65217394 84:0.54022986 85:0.15306123 86:0.33734939 87:0.57333332 88:0.6056338 89:0.3764706 90:0.25490198 91:0.22123894 92:0.06818182 93:0.14102565 94:0.24050634 95:0.16867469 96:0.27722773 97:0.25 98:0.08421053 99:0.13953489 100:0.21839081 101:0.16666667 102:0.35433072 103:0.40366971 104:0.43518519 105:0.43478259 106:0.52777779 107:0.72000003 108:0.71276593 109:0.45871559 110:0.20689656 111:0.24444444 112:0.26595744 113:0.30612245 114:0.30526316 115:0.6825397 116:0.31707317 117:0.54761904 118:0.56410259 119:0.54761904 120:0.35714287 121:0.7904762 122:0.52631581 123:0.53947371 124:0.54216868 125:0.41333333 126:0.32380953 127:0.89473683 128:0.4893617 129:0.24038461 130:0.25225225 131:0.15625 132:0.096000001 133:0.83495146 134:0.56565654 135:0.13793103 136:0.091666669 137:0.10784314 138:0.17073171 139:0.69999999 140:0.8041237 141:0.27433628 142:0.094017096 143:0.1509434 144:0.21621622 145:0.52991456 146:0.61956519 147:0.19047619 148:0.20952381 149:0.33673468 150:0.28846154 151:0.71631205 152:0.55434781 153:0.42424244 154:0.40384614 155:0.45192307 156:0.33962265 157:0.60294116 158:0.36170211 159:0.59793812 160:0.49532712 161:0.38947368 162:0.31578946 163:0.67826086 164:0.38738739 165:0.29310346 166:0.25663716 167:0.19090909 168:0.094488189 169:0.61904764 170:0.375 171:0.19327731 172:0.1262136 173:0.23469388 174:0.17424242 175:0.61739129 176:0.50458717 177:0.25925925 178:0.14399999 179:0.18548387 180:0.2635659 181:0.46226415 182:0.6761905 183:0.73267329 184:0.7368421 185:0.65656567 186:0.77450979 187:0.29473683 188:0.45882353 189:0.73493975 190:0.71052629 191:0.75555557 192:0.68539327 193:0.23913044 194:0.36046511 195:0.73239434 196:0.62857145 197:0.56944442 198:0.44999999 199:0.20560747 200:0.32142857 201:0.46067417 202:0.35897437 203:0.27500001 204:0.37234041 205:0.17475729 206:0.17045455 207:0.20408164 208:0.2038835 209:0.22222222 210:0.40000001 211:0.23214285 212:0.2037037 213:0.2038835 214:0.21276596 215:0.29310346 216:0.2706767 217:0.49038461 218:0.65217394 219:0.5714286 220:0.53260869 221:0.6875 222:0.66071427 223:0.2972973 224:0.4050633 225:0.58536583 226:0.65476191 227:0.8202247 228:0.67441863 229:0.1875 230:0.36470589 231:0.65277779 232:0.62337661 233:0.54761904 234:0.47872341 235:0.25242719 236:0.27272728 237:0.44155845 238:0.38749999 239:0.28999999 240:0.3859649 241:0.27619049 242:0.21276596 243:0.23863636 244:0.26666668 245:0.28431374 246:0.39837399 247:0.21481481 248:0.21774194 249:0.22807017 250:0.25842696 251:0.27433628 252:0.28169015 253:0.56198347 254:0.21698113 255:0.18681319 256:0.28282827 257:0.34782609 258:0.6875 259:0.63106793 260:0.3125 261:0.53086418 262:0.58227849 263:0.5869565 264:0.71698111 265:0.78823531 266:0.48717949 267:0.62820512 268:0.53086418 269:0.5 270:0.63302749 271:0.85000002 272:0.35869566 273:0.28431374 274:0.26363635 275:0.2254902 276:0.45390069 277:0.76595747 278:0.30476192 279:0.15322581 280:0.175 281:0.22580644 282:0.5 283:0.63366336 284:0.38709676 285:0.1570248 286:0.14754099 287:0.208 288:0.44444445 
0.1023831262076614 1:0.43809524 2:0.69565219 3:0.52040815 4:0.5959596 5:0.65714288 6:0.69473684 7:0.328125 8:0.54166669 9:0.47499999 10:0.43956044 11:0.36082473 12:0.59340662 13:0.48031497 14:0.43181819 15:0.18181819 16:0.16 17:0.15217391 18:0.58823532 19:0.67910451 20:0.48623854 21:0.23275863 22:0.31578946 23:0.30833334 24:0.48818898 25:0.66037738 26:0.48275861 27:0.264 28:0.30000001 29:0.37692308 30:0.51724136 31:0.75490195 32:0.72972971 33:0.45192307 34:0.25663716 35:0.35245901 36:0.54761904 37:0.38 38:0.56666666 39:0.60869563 40:0.59302324 41:0.60000002 42:0.45454547 43:0.32608697 44:0.52380955 45:0.49253732 46:0.43243244 47:0.49382716 48:0.41975307 49:0.22093023 50:0.41860464 51:0.38571429 52:0.2739726 53:0.3561644 54:0.3131313 55:0.28070176 56:0.35365853 57:0.40000001 58:0.42500001 59:0.38202247 60:0.3883495 61:0.27619049 62:0.37755102 63:0.5 64:0.38461539 65:0.35789475 66:0.40000001 67:0.2857143 68:0.36448598 69:0.47368422 70:0.48214287 71:0.5045045 72:0.28846154 73:0.47058824 74:0.625 75:0.75862068 76:0.58415842 77:0.61946905 78:0.60683763 79:0.35632184 80:0.61643833 81:0.71052629 82:0.61764705 83:0.68115944 84:0.55172414 85:0.1632653 86:0.48192772 87:0.57333332 88:0.47887325 89:0.3764706 90:0.39215687 91:0.27433628 92:0.38636363 93:0.48717949 94:0.39240506 95:0.27710843 96:0.38613862 97:0.43000001 98:0.34736842 99:0.47674417 100:0.47126436 101:0.26666668 102:0.39370078 103:0.32110092 104:0.2962963 105:0.33913043 106:0.42592594 107:0.33000001 108:0.27659574 109:0.80733943 110:0.64367819 111:0.51111114 112:0.61702126 113:0.60204083 114:0.51578945 115:0.73015875 116:0.29268292 117:0.52380955 118:0.66666669 119:0.4642857 120:0.42857143 121:0.38095239 122:0.25 123:0.32894737 124:0.30120483 125:0.10666667 126:0.45714286 127:0.37894738 128:0.29787233 129:0.32692307 130:0.27027026 131:0.16666667 132:0.28799999 133:0.44660193 134:0.24242425 135:0.19827586 136:0.24166666 137:0.2647059 138:0.28455284 139:0.54000002 140:0.49484536 141:0.30973452 142:0.18803419 143:0.2735849 144:0.41441441 145:0.34188035 146:0.53260869 147:0.46666667 148:0.44761905 149:0.55102038 150:0.34615386 151:0.4326241 152:0.39130434 153:0.50505048 154:0.41346154 155:0.44230768 156:0.3490566 157:0.5147059 158:0.25531915 159:0.18556701 160:0.20560747 161:0.16842106 162:0.25438598 163:0.5043478 164:0.3063063 165:0.1724138 166:0.22123894 167:0.2 168:0.18897638 169:0.58095241 170:0.32499999 171:0.20168068 172:0.29126215 173:0.37755102 174:0.2651515 175:0.72173911 176:0.4678899 177:0.47222221 178:0.2 179:0.34677419 180:0.33333334 181:0.29245284 182:0.44761905 183:0.47524753 184:0.31578946 185:0.26262626 186:0.30392158 187:0.28421053 188:0.49411765 189:0.46987951 190:0.35526314 191:0.34444445 192:0.37078652 193:0.32608697 194:0.44186047 195:0.33802816 196:0.41428572 197:0.41666666 198:0.40000001 199:0.23364486 200:0.39285713 201:0.39325842 202:0.42307693 203:0.32499999 204:0.35106382 205:0.28155339 206:0.46590909 207:0.37755102 208:0.34951457 209:0.2888889 210:0.43636364 211:0.29464287 212:0.30555555 213:0.39805827 214:0.47872341 215:0.37931034 216:0.30827066 217:0.27884614 218:0.39130434 219:0.37362638 220:0.28260869 221:0.35416666 222:0.4375 223:0.45945945 224:0.5316456 225:0.67073172 226:0.51190478 227:0.51685393 228:0.43023255 229:0.34375 230:0.48235294 231:0.56944442 232:0.5714286 233:0.44047618 234:0.38297874 235:0.25242719 236:0.34090909 237:0.54545456 238:0.40000001 239:0.31999999 240:0.3859649 241:0.24761905 242:0.41489363 243:0.54545456 244:0.37777779 245:0.33333334 246:0.39837399 247:0.3037037 248:0.31451613 249:0.37719297 250:0.43820226 251:0.32743362 252:0.29577464 253:0.76859504 254:0.5471698 255:0.61538464 256:0.60606062 257:0.51086956 258:0.625 259:0.8252427 260:0.47916666 261:0.62962961 262:0.60759491 263:0.54347825 264:0.53773582 265:0.69411767 266:0.37179488 267:0.41025642 268:0.30864197 269:0.29487181 270:0.41284403 271:0.63 272:0.36956522 273:0.37254903 274:0.26363635 275:0.2647059 276:0.38297874 277:0.5106383 278:0.40952381 279:0.27419356 280:0.24166666 281:0.34677419 282:0.4852941 283:0.59405941 284:0.61290324 285:0.2644628 286:0.20491803 287:0.32800001 288:0.5726496 
1.970487491981937 1:0.60952383 2:0.82608694 3:0.67346936 4:0.70707071 5:0.82857144 6:0.46315789 7:0.4609375 8:0.84722221 9:0.6875 10:0.71428573 11:0.7525773 12:0.50549453 13:0.51181102 14:0.70454544 15:0.75757575 16:0.64999998 17:0.77173913 18:0.71568626 19:0.73134327 20:0.79816514 21:0.81034482 22:0.78070176 23:0.55000001 24:0.52755904 25:0.66981131 26:0.70689654 27:0.824 28:0.76666665 29:0.62307692 30:0.54482758 31:0.63725489 32:0.6936937 33:0.55769229 34:0.4159292 35:0.57377046 36:0.51587301 37:0.60000002 38:0.62222224 39:0.79347825 40:0.75581396 41:0.69473684 42:0.45454547 43:0.68478262 44:0.61904764 45:0.64179105 46:0.63513511 47:0.77777779 48:0.77777779 49:0.75581396 50:0.76744187 51:0.77142859 52:0.71232879 53:0.89041096 54:0.70707071 55:0.7280702 56:0.85365856 57:0.84444445 58:0.98750001 59:0.66292137 60:0.65048546 61:0.61904764 62:0.60204083 63:0.69318181 64:0.7912088 65:0.82105261 66:0.72173911 67:0.48571429 68:0.57009345 69:0.61052632 70:0.65178573 71:0.73873872 72:0.54807693 73:0.61764705 74:0.83749998 75:0.74712646 76:0.7227723 77:0.61946905 78:0.52991456 79:0.73563218 80:0.89041096 81:0.7368421 82:0.70588237 83:0.71014494 84:0.7011494 85:0.66326529 86:0.93975902 87:0.88 88:0.78873241 89:0.74117649 90:0.63725489 91:0.71681416 92:0.98863637 93:1 94:1 95:0.6987952 96:0.56435645 97:0.66000003 98:0.82105261 99:0.86046511 100:0.86206895 101:0.65555555 102:0.62204725 103:0.45871559 104:0.56481481 105:0.60869563 106:0.75925928 107:0.63999999 108:0.54255319 109:0.60550457 110:0.74712646 111:0.78888887 112:0.80851066 113:0.74489796 114:0.57894737 115:0.51587301 116:0.58536583 117:0.73809522 118:0.91025639 119:0.79761904 120:0.5714286 121:0.55238098 122:0.80263156 123:0.81578946 124:0.66265059 125:0.78666669 126:0.75238097 127:0.61052632 128:0.89361703 129:0.86538464 130:0.77477479 131:0.52083331 132:0.28 133:0.53398061 134:0.78787881 135:0.81034482 136:0.74166667 137:0.68627453 138:0.43089432 139:0.61000001 140:0.70103091 141:0.460177 142:0.44444445 143:0.58490568 144:0.52252251 145:0.5726496 146:0.90217394 147:0.69523811 148:0.70476192 149:0.74489796 150:0.49038461 151:0.63829786 152:0.80434781 153:0.70707071 154:0.69230771 155:0.74038464 156:0.47169811 157:0.55882353 158:0.70212764 159:0.84536082 160:0.73831773 161:0.67368424 162:0.56140351 163:0.6695652 164:0.72972971 165:0.79310346 166:0.73451328 167:0.57272726 168:0.33070865 169:0.64761907 170:0.65833336 171:0.84033614 172:0.96116507 173:0.68367344 174:0.37878788 175:0.62608695 176:0.60550457 177:0.56481481 178:0.44 179:0.56451613 180:0.51162791 181:0.56603771 182:0.6761905 183:0.66336632 184:0.61052632 185:0.55555558 186:0.70588237 187:0.7263158 188:0.85882354 189:0.77108431 190:0.69736844 191:0.64444447 192:0.68539327 193:0.69565219 194:0.80232561 195:0.73239434 196:0.6857143 197:0.77777779 198:0.8125 199:0.65420562 200:0.83333331 201:0.86516851 202:0.83333331 203:0.66250002 204:0.61702126 205:0.68932039 206:0.95454544 207:0.72448981 208:0.68932039 209:0.53333336 210:0.58181816 211:0.42857143 212:0.56481481 213:0.66990292 214:0.74468082 215:0.67241377 216:0.49624062 217:0.63461536 218:0.6630435 219:0.64835167 220:0.5869565 221:0.72916669 222:0.70535713 223:0.75675678 224:0.8101266 225:0.84146339 226:0.80952382 227:0.7977528 228:0.70930231 229:0.625 230:0.81176472 231:0.80555558 232:0.72727275 233:0.86904764 234:0.86170214 235:0.61165047 236:0.84090906 237:0.97402596 238:0.92500001 239:0.69999999 240:0.66666669 241:0.6857143 242:0.96808511 243:0.89772725 244:0.80000001 245:0.67647058 246:0.59349591 247:0.40000001 248:0.49193549 249:0.71929824 250:0.87640452 251:0.73451328 252:0.54929578 253:0.50413221 254:0.59433961 255:0.81318682 256:0.84848487 257:0.8369565 258:0.60714287 259:0.55339807 260:0.58333331 261:0.75308645 262:0.91139239 263:0.84782606 264:0.53773582 265:0.70588237 266:0.75641024 267:0.74358976 268:0.72839504 269:0.88461536 270:0.58715594 271:0.79000002 272:0.76086956 273:0.72549021 274:0.61818182 275:0.67647058 276:0.45390069 277:0.61702126 278:0.82857144 279:0.78225809 280:0.71666664 281:0.62903225 282:0.52941179 283:0.50495052 284:0.58064514 285:0.40495867 286:0.43442622 287:0.648 288:0.72649574 
