svm_type c_svc
kernel_type rbf
gamma 0.5
nr_class 2
total_sv 679
rho -0.233277
label 0 1
nr_sv 354 325
SV
2.6952294263852 1:0.145455 2:0.033766199 3:0.247403 4:0.55714297 5:0.162338 6:0.56623399 7:0.103896 8:0.0415584 9:0.36233801 10:0.151299 11:0.096103899 12:0 13:0.0149351 14:0.0077922102 15:0.016883099 16:0.0038961 17:0.0266234 18:0.590909 19:0.075324699 20:0.38571399 21:0.027922099 22:0.071428597 23:0.151299 24:0.285714 25:0.180519 26:0.38246799 27:0.27272701 28:0.00064935099 29:0.20259701 30:0.044805199 31:0.094805203 32:0.012987 33:0.0116883 34:0.54935098 35:0.087662302 36:0.0012987 37:0.35389599 38:0.0253247 39:0.049350601 40:0.433117 41:0.097402602 42:0.22142901 43:0.415584 44:0.0246753 45:0.107143 46:0.65064901 47:0.0207792 48:0.0045454502 49:0.037013002 50:0.00714286 51:0.00844156 52:0.00064935099 53:0.15844201 54:0.118831 55:0.29610401 56:0.556494 57:0.116234 58:0 59:0.00584416 60:0.00064935099 61:0.0214286 62:0.36558399 63:0.0116883 64:0 65:0.111688 66:0.633766 67:0.0142857 68:0.023376601 69:0.096753202 70:0.079220802 71:0.133766 72:0.00194805 73:0.72727299 74:0.34189999 75:0.1399 76:0.2823 77:0.1549 78:0.26609999 79:0.155 80:0.21160001 81:0.16859999 82:0.106232 83:0.100567 84:0.090254001 85:0.0782203 86:0.069118202 87:0.064098001 88:0.063978702 89:0.069046497 90:0.076474398 91:0.083557099 92:0.091274202 93:0.098759301 94:0.103413 95:0.106737 96:0.1112 97:0.117682 
2.241463948690529 1:0.691558 2:0.0149351 3:1.23312 4:2.1071401 5:0.048701301 6:1.76039 7:0.42727301 8:0.0097402604 9:1.03766 10:0.73116899 11:0.246104 12:0 13:0.0727273 14:0.0077922102 15:0.085064903 16:0 17:0.166234 18:1.5513 19:0.116883 20:1.43896 21:0.0266234 22:0.206494 23:0.15974 24:0.934416 25:0.48311701 26:1.08961 27:0.35909101 28:0.0025974 29:0.47792199 30:0.38636401 31:0.054545499 32:0.0402597 33:0.0409091 34:1.32662 35:0.087662302 36:0 37:0.79220802 38:0.13571399 39:0.56688303 40:0.76103902 41:0.25519499 42:0.82337701 43:0.72337699 44:0.068831198 45:0.36883101 46:1.42987 47:0.044155799 48:0.00194805 49:0.043506499 50:0.079870097 51:0.066233799 52:0.00064935099 53:0.48636401 54:0.405195 55:0.35389599 56:0.51298702 57:0.23636401 58:0 59:0.028571401 60:0 61:0.094155803 62:1.4272701 63:0.047402602 64:0 65:0.064285703 66:1.32078 67:0.14610399 68:0.018181801 69:0.048051901 70:0.62727302 71:0.16883101 72:0.0012987 73:0.69767398 74:1.1289001 75:0.44049999 76:0.74150002 77:0.37220001 78:0.69230002 79:0.39390001 80:0.41589999 81:0.36880001 82:0.185683 83:0.168836 84:0.142984 85:0.119127 86:0.100445 87:0.0929804 88:0.099702097 89:0.118733 90:0.146577 91:0.175286 92:0.196161 93:0.210463 94:0.217391 95:0.224474 96:0.2317 97:0.241409 
0.8498988615671971 1:0.32402599 2:0.046753202 3:0.68701297 4:1.63701 5:0.14026 6:1.58442 7:0.37272701 8:0.039610401 9:0.97013003 10:0.30194801 11:0.36883101 12:0.14350601 13:0.0305195 14:0.0175325 15:0.144805 16:0 17:0.149351 18:1.12403 19:0.0928571 20:0.602597 21:0.176623 22:0.33181801 23:0.14350601 24:0.303247 25:0.340909 26:0.936364 27:0.24675301 28:0.079220802 29:0.44545501 30:0.179221 31:0.029220801 32:0.057792202 33:0.101299 34:1.1935101 35:0.048051901 36:0 37:0.55779201 38:0.147403 39:0.23246799 40:0.90259701 41:0.313636 42:1.06299 43:0.813636 44:0.108442 45:0.29740301 46:0.81493503 47:0.140909 48:0.057142898 49:0.127922 50:0.081818201 51:0.123377 52:0.0123377 53:0.54610401 54:0.30389601 55:0.434416 56:0.59415603 57:0.52467501 58:0 59:0.028571401 60:0 61:0.060389601 62:1.15649 63:0.0207792 64:0.060389601 65:0.16039 66:1.32013 67:0.079220802 68:0.080519497 69:0.165584 70:0.60909098 71:0.29415599 72:0.0103896 73:0.71111101 74:0.89349997 75:0.35120001 76:0.48890001 77:0.32859999 78:0.6832 79:0.34009999 80:0.43419999 81:0.42809999 82:0.200296 83:0.193433 84:0.177452 85:0.15667801 86:0.13678201 87:0.123333 88:0.120426 89:0.129895 90:0.150949 91:0.174943 92:0.19651601 93:0.2115 94:0.219652 95:0.22634199 96:0.23416699 97:0.244545 
0.6007947289486125 1:0.30259699 2:0.0090909097 3:1.00065 4:1.71364 5:0.069480501 6:1.4305201 7:0.372078 8:0.0025974 9:0.98181802 10:0.58181798 11:0.17013 12:0.00064935099 13:0.080519497 14:0.0207792 15:0.033116899 16:0 17:0.071428597 18:1.2655801 19:0.061039001 20:1.25974 21:0.042857099 22:0.334416 23:0.038311701 24:0.086363599 25:0.179221 26:0.48896101 27:0.112338 28:0 29:0.34935099 30:0.35519499 31:0.0305195 32:0.0409091 33:0.16298699 34:1.18247 35:0.0246753 36:0.00064935099 37:0.76103902 38:0.038961001 39:0.35324699 40:0.71233797 41:0.151948 42:1.45649 43:0.815584 44:0.044805199 45:0.34026 46:1.25519 47:0.044155799 48:0 49:0.039610401 50:0.0532468 51:0.18831199 52:0.0012987 53:0.443506 54:0.34935099 55:0.29025999 56:0.67337698 57:0.285714 58:0 59:0.018181801 60:0 61:0.114286 62:1.1772701 63:0.00844156 64:0 65:0.102597 66:1.1539 67:0.098052002 68:0.0103896 69:0.116234 70:0.556494 71:0.281818 72:0 73:0.68181801 74:0.9059 75:0.3425 76:0.40090001 77:0.33059999 78:0.71990001 79:0.36570001 80:0.39539999 81:0.3572 82:0.164648 83:0.15083601 84:0.12953199 85:0.108585 86:0.091745503 87:0.083676502 88:0.087233998 89:0.102291 90:0.12573101 91:0.15074299 92:0.17261299 93:0.186148 94:0.192935 95:0.198579 96:0.20486701 97:0.214727 
0.4167538258372602 1:0.74675298 2:0.188961 3:1.26039 4:1.88766 5:0.0038961 6:2.00649 7:0.090909101 8:0.21558399 9:0.59415603 10:0.75519502 11:0.023376601 12:0.0155844 13:0.077272698 14:0.012987 15:0.26493499 16:0.0012987 17:0.33571401 18:0.60389602 19:0.317532 20:0.86428601 21:0.0253247 22:0.281818 23:0.0727273 24:0.0155844 25:0.592857 26:0.91818202 27:0.175974 28:0 29:0.71103901 30:0.029220801 31:0.18376601 32:0.18376601 33:0.0123377 34:1.16364 35:0.16883101 36:0 37:1.0285701 38:0.655195 39:0.050649401 40:0.92792201 41:1.71494 42:0.0051948102 43:0.47986999 44:0.177922 45:0.0051948102 46:0.91818202 47:0.036363602 48:0.0201299 49:0.0123377 50:0.38960999 51:0.00584416 52:0.0090909097 53:0.66103899 54:0.024026001 55:0.26363599 56:0.35129899 57:0.00714286 58:0.0097402604 59:0.050000001 60:0.0025974 61:0.28701299 62:0.730519 63:0.43571401 64:0.0123377 65:0.47402599 66:0.59935099 67:0.285714 68:0.00584416 69:0.089610398 70:0.39415601 71:0.0194805 72:0.44415599 73:0.79591799 74:1.0772001 75:0.32190001 76:0.50269997 77:0.3777 78:0.77700001 79:0.31979999 80:0.3292 81:0.35800001 82:0.184282 83:0.175284 84:0.162698 85:0.15252499 86:0.146973 87:0.147039 88:0.152436 89:0.15700001 90:0.156064 91:0.150686 92:0.14756501 93:0.15087 94:0.163109 95:0.181053 96:0.20119999 97:0.220955 
3.949869926441475 1:0.20454501 2:0.0928571 3:0.74026 4:1.1577899 5:0.40064901 6:1.20909 7:0.28246799 8:0.105195 9:0.73961002 10:0.196104 11:0.378571 12:0 13:0.0727273 14:0.035714298 15:0.0402597 16:0.00194805 17:0.094805203 18:1.26948 19:0.0038961 20:0.62857097 21:0.0123377 22:0.57532501 23:0.13961001 24:0.433117 25:0.373377 26:0.79935098 27:0.315584 28:0 29:0.38960999 30:0.13766199 31:0.0090909097 32:0.066883102 33:0.044155799 34:1.17468 35:0.077272698 36:0.0012987 37:0.55909097 38:0.118182 39:0.16948099 40:0.505844 41:0.40974 42:0.61558402 43:0.56103897 44:0.126623 45:0.216883 46:1.28052 47:0.042857099 48:0.00194805 49:0.036363602 50:0.042857099 51:0.0311688 52:0 53:0.45714301 54:0.188961 55:0.377922 56:0.97922099 57:0.36168799 58:0 59:0.0136364 60:0.0012987 61:0.0025974 62:0.57272702 63:0.0038961 64:0 65:0.088311702 66:1.15065 67:0.039610401 68:0.038311701 69:0.130519 70:0.207792 71:0.34350601 72:0.00064935099 73:0.6875 74:0.75959998 75:0.32179999 76:0.50529999 77:0.29269999 78:0.50550002 79:0.3206 80:0.35620001 81:0.30790001 82:0.133352 83:0.122619 84:0.105325 85:0.085864402 86:0.067318201 87:0.053735301 88:0.0485426 89:0.052627899 90:0.064859003 91:0.081500001 92:0.100758 93:0.118056 94:0.130935 95:0.138895 96:0.14669999 97:0.156409 
7.732946499985933 1:0.117532 2:0.043506499 3:0.39675301 4:0.65259701 5:0.15454499 6:0.80194801 7:0.080519497 8:0.036363602 9:0.48571399 10:0.089610398 11:0.092207797 12:0 13:0.037662301 14:0.048051901 15:0.146753 16:0.00064935099 17:0.134416 18:0.80129898 19:0.0155844 20:0.32662299 21:0 22:0.19415601 23:0.14805201 24:0.062987 25:0.27077901 26:0.66428602 27:0.18831199 28:0.00064935099 29:0.229221 30:0.022727299 31:0.075974002 32:0.15974 33:0.046753202 34:0.81883103 35:0.099350601 36:0.00324675 37:0.30389601 38:0.149351 39:0.042857099 40:0.45324701 41:0.35129899 42:0.29610401 43:0.39026001 44:0.153247 45:0.066233799 46:0.66558403 47:0.064935103 48:0.0103896 49:0.029220801 50:0.022727299 51:0.024026001 52:0 53:0.23181801 54:0.0253247 55:0.37077901 56:0.70779198 57:0.224675 58:0.0012987 59:0 60:0.0025974 61:0.00584416 62:0.39350599 63:0 64:0.00194805 65:0.114935 66:0.83571398 67:0.044155799 68:0.0038961 69:0.0512987 70:0.16688301 71:0.27467501 72:0 73:0.71428603 74:0.42649999 75:0.208 76:0.2881 77:0.2243 78:0.3398 79:0.1654 80:0.26280001 81:0.23 82:0.111289 83:0.107052 84:0.0978413 85:0.086050898 86:0.073290899 87:0.062098 88:0.055255301 89:0.054511599 90:0.059051301 91:0.067585699 92:0.078387097 93:0.089166701 94:0.097282603 95:0.103526 96:0.1089 97:0.114773 
0.1928785720342551 1:0.85000002 2:0.0318182 3:1.38896 4:3.08636 5:0.018181801 6:2.42208 7:0.998052 8:0.0162338 9:1.5039001 10:0.83636397 11:0.403247 12:0.00064935099 13:0.283766 14:0.027922099 15:0.153247 16:0.00714286 17:0.15000001 18:2.0207801 19:0.122078 20:2.1389599 21:0.12922101 22:0.472078 23:0.062987 24:1.06234 25:0.51298702 26:1.09091 27:0.565584 28:0 29:0.344805 30:0.808442 31:0.122078 32:0.036363602 33:0.113636 34:2.1461 35:0.105195 36:0.0090909097 37:1.03052 38:0.0077922102 39:0.87922102 40:1.3389601 41:0.0928571 42:1.94221 43:1.26364 44:0.067532502 45:0.99935102 46:2.33571 47:0.14026 48:0.0045454502 49:0.126623 50:0.0201299 51:0.066883102 52:0 53:0.38116899 54:0.79870099 55:0.69090903 56:1.89416 57:0.722727 58:0.00064935099 59:0.00584416 60:0 61:0.112338 62:1.97727 63:0.038961001 64:0.0045454502 65:0.13116901 66:2.18701 67:0.033766199 68:0.0012987 69:0.109091 70:0.87077898 71:0.314935 72:0.00194805 73:0.6875 74:1.5886 75:0.59799999 76:0.94819999 77:0.56760001 78:1.1738 79:0.5966 80:0.83819997 81:0.56279999 82:0.24053501 83:0.21441799 84:0.173151 85:0.138127 86:0.109209 87:0.093147099 88:0.100468 89:0.13267399 90:0.182064 91:0.235229 92:0.25633901 93:0.26763001 94:0.27415201 95:0.279605 96:0.28756699 97:0.300318 
0.4427526940101835 1:0.78961003 2:0.0253247 3:1.44935 4:3.0831201 5:0.039610401 6:2.84286 7:0.92922097 8:0.0097402604 9:1.41688 10:1.01818 11:0.31168801 12:0.0012987 13:0.24870101 14:0.024026001 15:0.118831 16:0.0097402604 17:0.205844 18:2.1558399 19:0.127922 20:1.96753 21:0.022077899 22:0.369481 23:0.14155801 24:1.25195 25:0.492208 26:1.2961 27:0.35714301 28:0.00064935099 29:0.60194802 30:0.52272701 31:0.11039 32:0.050000001 33:0.034415599 34:2.16623 35:0.018831201 36:0.00324675 37:1.05584 38:0.102597 39:0.83311701 40:1.05 41:0.26493499 42:1.4487 43:0.99480498 44:0.164286 45:0.78701299 46:2.26948 47:0.046103898 48:0.0064935102 49:0.098052002 50:0.0103896 51:0.022077899 52:0.00844156 53:0.65194798 54:0.478571 55:0.71168798 56:1.65325 57:0.51103902 58:0 59:0.0077922102 60:0.00194805 61:0.195455 62:1.90065 63:0.0097402604 64:0.0038961 65:0.306494 66:2.1967499 67:0.046103898 68:0.0038961 69:0.22402599 70:0.98116899 71:0.21948101 72:0.0136364 73:0.70833302 74:1.6302 75:0.63050002 76:0.92799997 77:0.54030001 78:1.0319999 79:0.55309999 80:0.7687 81:0.6153 82:0.240549 83:0.216022 84:0.18034901 85:0.145008 86:0.116745 87:0.101765 88:0.106351 89:0.13438401 90:0.17429499 91:0.215343 92:0.247694 93:0.26174101 94:0.27019599 95:0.27855301 96:0.28703299 97:0.299364 
0.2433339738725257 1:0.618182 2:0.067532502 3:1.17922 4:2.5655799 5:0.27987 6:2.21558 7:0.69220799 8:0.00584416 9:1.20455 10:0.72532499 11:0.52792197 12:0 13:0.098052002 14:0.0162338 15:0.044805199 16:0.00584416 17:0.0727273 18:2.02987 19:0.044805199 20:1.88182 21:0.023376601 22:0.0266234 23:0.073376603 24:0.334416 25:0.399351 26:1.0759701 27:0.38116899 28:0.00064935099 29:0.39805201 30:0.63571399 31:0.186364 32:0.0116883 33:0.058441602 34:1.81558 35:0.087662302 36:0.0064935102 37:1.27338 38:0.074675299 39:0.68701297 40:1.97597 41:0.186364 42:2.3025999 43:1.1331199 44:0.0519481 45:0.71168798 46:2.24805 47:0.14805201 48:0.0077922102 49:0.33571401 50:0.124026 51:0.130519 52:0 53:0.50519502 54:0.64415598 55:0.51818198 56:1.84091 57:0.51038998 58:0.00324675 59:0.0727273 60:0.0012987 61:0.025974 62:1.5318201 63:0.00584416 64:0.0012987 65:0.135065 66:2.1961 67:0.074026003 68:0.144805 69:0.214286 70:0.62532502 71:0.33961001 72:0.00064935099 73:0.71428603 74:1.3595999 75:0.54220003 76:0.65310001 77:0.49290001 78:1.2931 79:0.63810003 80:0.69459999 81:0.57459998 82:0.238775 83:0.22002999 84:0.190294 85:0.157602 86:0.12552699 87:0.103147 88:0.100734 89:0.121116 90:0.16033299 91:0.201914 92:0.23385499 93:0.251926 94:0.26206499 95:0.270289 96:0.27856699 97:0.29104501 
4.599987127299852 1:0.352597 2:0.066883102 3:0.61233801 4:2.01494 5:0.059740301 6:1.7474 7:0.567532 8:0.0266234 9:0.70973998 10:0.556494 11:0.368182 12:0.00324675 13:0.34935099 14:0.058441602 15:0.340909 16:0.0162338 17:0.16883101 18:1.5155801 19:0.012987 20:0.86298698 21:0.0012987 22:0.269481 23:0.0928571 24:0.39415601 25:0.413636 26:0.716883 27:0.285065 28:0 29:0.472078 30:0.31428599 31:0.0409091 32:0.1 33:0.13961001 34:1.56494 35:0.044805199 36:0.0116883 37:0.63831198 38:0.0636364 39:0.34350601 40:0.90454501 41:0.155195 42:1.5220799 43:0.624026 44:0.191558 45:0.312987 46:1.70195 47:0.0155844 48:0.018181801 49:0.073376603 50:0.043506499 51:0.066233799 52:0.00714286 53:0.66168803 54:0.29350701 55:0.24285699 56:0.95779198 57:0.32207799 58:0 59:0.00194805 60:0 61:0.059740301 62:0.70844197 63:0.0012987 64:0.0123377 65:0.155195 66:1.46104 67:0.025974 68:0.00584416 69:0.0090909097 70:0.67792201 71:0.40259701 72:0.0045454502 73:0.70212799 74:0.9483 75:0.5201 76:0.46959999 77:0.414 78:0.7324 79:0.44369999 80:0.35330001 81:0.4242 82:0.24355599 83:0.227851 84:0.207167 85:0.186737 86:0.16786399 87:0.15436301 88:0.15261699 89:0.165116 90:0.189449 91:0.216814 92:0.24262901 93:0.257963 94:0.267196 95:0.27502599 96:0.28336701 97:0.296909 
0.1132831263868629 1:0.48116899 2:0.042857099 3:0.748052 4:2.1168799 5:0 6:2.0006499 7:0.64870101 8:0.0201299 9:0.86948001 10:0.61039001 11:0.5 12:0 13:0.279221 14:0.0012987 15:0.252597 16:0.0025974 17:0.19870099 18:1.61104 19:0.0116883 20:1.14091 21:0.00324675 22:0.14350601 23:0.087662302 24:0.30584401 25:0.32532501 26:0.83181798 27:0.23441599 28:0.0162338 29:0.523377 30:0.417532 31:0.099350601 32:0.0207792 33:0.11039 34:1.67273 35:0.0298701 36:0.012987 37:0.61558402 38:0.18571401 39:0.41233799 40:1.45455 41:0.114935 42:1.74221 43:0.82922101 44:0.346753 45:0.306494 46:1.89481 47:0.037662301 48:0.011039 49:0.0837662 50:0.023376601 51:0.21558399 52:0.0038961 53:0.74350601 54:0.29220799 55:0.320779 56:1.46688 57:0.32207799 58:0.0038961 59:0 60:0 61:0.024026001 62:0.93571401 63:0.0051948102 64:0.00194805 65:0.244156 66:1.75844 67:0.0727273 68:0 69:0.0298701 70:0.72597402 71:0.436364 72:0 73:0.72340399 74:1.0669 75:0.53219998 76:0.47499999 77:0.44710001 78:0.92519999 79:0.50910002 80:0.47409999 81:0.50349998 82:0.25450701 83:0.24074601 84:0.21727 85:0.193432 86:0.171791 87:0.154902 88:0.150819 89:0.16211601 90:0.186487 91:0.219886 92:0.25048399 93:0.26807401 94:0.27582601 95:0.28073701 96:0.28786701 97:0.30018201 
2.742946205544962 1:0.30389601 2:0.055844199 3:0.54480499 4:1.61753 5:0.124026 6:1.50844 7:0.417532 8:0.0207792 9:0.70194799 10:0.36493501 11:0.33896101 12:0 13:0.191558 14:0.0214286 15:0.13116901 16:0 17:0.187013 18:1.12857 19:0.0038961 20:0.691558 21:0.0077922102 22:0.45584401 23:0.114935 24:0.133766 25:0.32142901 26:0.51038998 27:0.201948 28:0.0012987 29:0.52077901 30:0.17532501 31:0.0097402604 32:0.022727299 33:0.0636364 34:1.3292201 35:0.0142857 36:0.0175325 37:0.43376601 38:0.16039 39:0.22792201 40:0.39870101 41:0.53961003 42:0.96233797 43:0.60714298 44:0.228571 45:0.16883101 46:1.28766 47:0.00194805 48:0.0097402604 49:0.035714298 50:0.105195 51:0.074026003 52:0.0025974 53:0.54870099 54:0.098701298 55:0.27402601 56:0.99350601 57:0.199351 58:0 59:0.011039 60:0 61:0.0149351 62:0.66103899 63:0.0090909097 64:0.0123377 65:0.186364 66:1.4584399 67:0.0136364 68:0.024026001 69:0.00714286 70:0.61688298 71:0.311039 72:0.00194805 73:0.73333299 74:0.8154 75:0.36399999 76:0.37599999 77:0.33180001 78:0.574 79:0.33329999 80:0.33309999 81:0.40529999 82:0.198662 83:0.188164 84:0.171913 85:0.153822 86:0.137236 87:0.1265 88:0.123957 89:0.130779 90:0.14507701 91:0.1644 92:0.184645 93:0.201519 94:0.213891 95:0.223158 96:0.232333 97:0.24345499 
0.06034516746854256 1:0.443506 2:0.00324675 3:0.91363603 4:1.8603899 5:0.0090909097 6:1.7013 7:0.60324699 8:0.0123377 9:0.59545499 10:0.59415603 11:0.111688 12:0.0097402604 13:0.127922 14:0 15:0.119481 16:0.00064935099 17:0.33311701 18:1.25455 19:0.140909 20:1.42922 21:0.10974 22:0.2 23:0.0090909097 24:0.434416 25:0.61363602 26:1.11429 27:0.214935 28:0.0038961 29:0.240909 30:0.775325 31:0.0298701 32:0 33:0.011039 34:1.31299 35:0.0090909097 36:0.0038961 37:0.594805 38:0.0045454502 39:0.53636402 40:1.0792201 41:0 42:1.37857 43:0.85974002 44:0.00844156 45:0.56623399 46:1.21494 47:0.211688 48:0.00064935099 49:0.161688 50:0 51:0.122727 52:0.0038961 53:0.21298701 54:0.50129902 55:0.34155801 56:1.31753 57:0.44935101 58:0 59:0 60:0 61:0.26233801 62:1.37468 63:0.022727299 64:0.0136364 65:0.085714303 66:1.33831 67:0.059090901 68:0 69:0.042857099 70:0.91428602 71:0.130519 72:0 73:0.690476 74:0.94590002 75:0.39289999 76:0.65700001 77:0.36759999 78:0.77429998 79:0.37419999 80:0.58029997 81:0.398 82:0.258169 83:0.247343 84:0.22096799 85:0.194076 86:0.176145 87:0.176863 88:0.201309 89:0.23326699 90:0.257846 91:0.26679999 92:0.27028999 93:0.272852 94:0.27612999 95:0.28078899 96:0.28793299 97:0.300273 
0.2403244095623232 1:0.466234 2:0.0532468 3:1.2948101 4:2.5662301 5:0.0935065 6:2.1753199 7:0.68311697 8:0.055194799 9:1.3389601 10:0.61298698 11:0.52272701 12:0 13:0.253896 14:0.038311701 15:0.092207797 16:0.0025974 17:0.062987 18:1.6740299 19:0.044805199 20:1.7460999 21:0.0201299 22:0.131818 23:0.098052002 24:0.29025999 25:0.45779201 26:0.806494 27:0.42857099 28:0.00064935099 29:0.54026002 30:0.60194802 31:0.218182 32:0.035714298 33:0.311039 34:1.69675 35:0.088960998 36:0.0025974 37:1.1577899 38:0.045454498 39:0.53181797 40:1.86104 41:0.068831198 42:2.2876599 43:1.2987 44:0.0305195 45:0.84740299 46:1.97727 47:0.176623 48:0.00064935099 49:0.159091 50:0.027922099 51:0.0090909097 52:0.00064935099 53:0.29610401 54:0.58766198 55:0.56688303 56:1.8526 57:0.651299 58:0.0025974 59:0.032467499 60:0 61:0.037662301 62:1.51688 63:0.057792202 64:0.00194805 65:0.111039 66:1.9461 67:0.14415599 68:0.034415599 69:0.138312 70:0.62857097 71:0.75 72:0.00324675 73:0.673913 74:1.3439 75:0.50199997 76:0.61970001 77:0.53839999 78:1.2519 79:0.4982 80:0.72659999 81:0.57870001 82:0.24901401 83:0.23203699 84:0.199286 85:0.164381 86:0.134882 87:0.118716 88:0.120564 89:0.14086001 90:0.175218 91:0.217943 92:0.25332299 93:0.2705 94:0.27589101 95:0.27971101 96:0.28506699 97:0.29622701 
0.770846674063739 1:0.33311701 2:0.027922099 3:0.86883098 4:1.78052 5:0.207792 6:1.77273 7:0.235714 8:0.016883099 9:0.91233802 10:0.437013 11:0.653247 12:0.15000001 13:0.182468 14:0.12727299 15:0.28246799 16:0.044805199 17:0.32727301 18:1.33312 19:0.0207792 20:1.10909 21:0.0162338 22:0.285065 23:0.257792 24:0.159091 25:0.67987001 26:1.70584 27:0.84935099 28:0.048051901 29:0.53961003 30:0.198052 31:0.186364 32:0.39415601 33:0.0844156 34:1.2279201 35:0.25974 36:0 37:0.82727301 38:0.17142899 39:0.32337701 40:1.34416 41:0.58896101 42:0.97597402 43:0.70973998 44:0.150649 45:0.138312 46:1.6707799 47:0.348701 48:0.0318182 49:0.076623403 50:0.42272699 51:0.172078 52:0.057792202 53:0.82272702 54:0.121429 55:0.70324701 56:1.10519 57:0.58376598 58:0 59:0.251948 60:0.033766199 61:0.0142857 62:0.85324699 63:0.145455 64:0.0097402604 65:0.309091 66:1.52013 67:0.16493499 68:0.153896 69:0.231169 70:0.42532501 71:0.466883 72:0.104545 73:0.765957 74:0.94800001 75:0.54479998 76:0.78280002 77:0.45249999 78:0.80540001 79:0.57359999 80:0.56840003 81:0.52139997 82:0.21119 83:0.204716 84:0.186492 85:0.15877099 86:0.12890001 87:0.105755 88:0.094340399 89:0.095534898 90:0.10959 91:0.13519999 92:0.168081 93:0.191926 94:0.206478 95:0.214711 96:0.22103301 97:0.228136 
1.728197874365091 1:0.243506 2:0.26623401 3:0.65779197 4:0.68311697 5:0.48441601 6:1.09351 7:0.12922101 8:0.114935 9:0.87142903 10:0.122727 11:0.378571 12:0.096103899 13:0.127922 14:0.31623399 15:0.47986999 16:0.097402602 17:0.33311701 18:0.83506501 19:0.044155799 20:0.58376598 21:0.060389601 22:0.237662 23:0.354545 24:0.253896 25:0.28636399 26:1.01364 27:0.30259699 28:0.058441602 29:0.338312 30:0.075324699 31:0.35389599 32:0.26623401 33:0.155844 34:0.94480503 35:0.405195 36:0.213636 37:0.932468 38:0.179221 39:0.153896 40:1.00649 41:0.50844198 42:0.54090899 43:0.71623403 44:0.199351 45:0.182468 46:0.964935 47:0.30454499 48:0.016883099 49:0.201299 50:0.28051901 51:0.074675299 52:0.071428597 53:0.29805201 54:0.099350601 55:0.27013001 56:0.86753201 57:0.17142899 58:0.064285703 59:0.203896 60:0.116883 61:0.118831 62:0.714935 63:0.057792202 64:0.066233799 65:0.37272701 66:1.01364 67:0.114286 68:0.24026 69:0.245455 70:0.094155803 71:0.37922099 72:0.059740301 73:0.89583302 74:0.69980001 75:0.42919999 76:0.4831 77:0.433 78:0.68059999 79:0.35600001 80:0.39820001 81:0.39820001 82:0.198662 83:0.194619 84:0.187079 85:0.17954201 86:0.169982 87:0.154873 88:0.13679799 89:0.123512 90:0.12259 91:0.134186 92:0.15503199 93:0.176833 94:0.19050001 95:0.19789501 96:0.2053 97:0.217636 
0.6031953980258302 1:0.12922101 2:0.275325 3:0.75909102 4:0.44870099 5:0.932468 6:1.26039 7:0.0837662 8:0.12532499 9:0.75974 10:0.111039 11:0.45714301 12:0.15649299 13:0.087012999 14:0.29870099 15:0.29740301 16:0.14610399 17:0.228571 18:1.05909 19:0.094155803 20:0.86363602 21:0.138312 22:0.136364 23:0.240909 24:0.155844 25:0.39870101 26:1.16883 27:0.49350601 28:0.196104 29:0.30064899 30:0.25714299 31:0.42337701 32:0.138312 33:0.25714299 34:0.67467499 35:0.32467499 36:0.085064903 37:0.70194799 38:0.0194805 39:0.23246799 40:1.26688 41:0.191558 42:0.91363603 43:0.62922102 44:0.046753202 45:0.117532 46:0.99155802 47:0.33051899 48:0.0422078 49:0.283766 50:0.176623 51:0.255844 52:0.193506 53:0.334416 54:0.23831201 55:0.212338 56:0.691558 57:0.277922 58:0.14155801 59:0.37272701 60:0.029220801 61:0.13961001 62:0.67532498 63:0.123377 64:0.0194805 65:0.201948 66:1.06883 67:0.0525974 68:0.21039 69:0.22987001 70:0.066883102 71:0.42597401 72:0.068181798 73:0.81632698 74:0.73519999 75:0.43759999 76:0.56830001 77:0.40920001 78:0.63440001 79:0.4384 80:0.4102 81:0.361 82:0.196373 83:0.194828 84:0.188127 85:0.176525 86:0.16145501 87:0.14442199 88:0.130128 89:0.122407 90:0.124538 91:0.135129 92:0.15238699 93:0.172259 94:0.192174 95:0.20531601 96:0.214267 97:0.223409 
1.307936129700935 1:0.28961 2:0.098701298 3:1.07403 4:1.21299 5:0.131818 6:1.4077899 7:0.28896099 8:0.060389601 9:0.86298698 10:0.30194801 11:0.251948 12:0.0532468 13:0.291558 14:0.216883 15:0.42792201 16:0.045454498 17:0.67077899 18:0.81623399 19:0.088960998 20:0.60844201 21:0.080519497 22:0.087662302 23:0.18571401 24:0.182468 25:0.46558401 26:0.94025999 27:0.17142899 28:0.046103898 29:0.45389599 30:0.142208 31:0.51363599 32:0.36168799 33:0.157792 34:1.0474 35:0.32142901 36:0.044155799 37:0.82272702 38:0.336364 39:0.190909 40:1.1805201 41:1.20195 42:0.13961001 43:0.84545499 44:0.254545 45:0.0116883 46:1.20584 47:0.213636 48:0.121429 49:0.2 50:0.397403 51:0.075324699 52:0.11039 53:0.47013 54:0.016883099 55:0.395455 56:0.65844202 57:0.25064901 58:0.027272699 59:0.19415601 60:0.038311701 61:0.135065 62:0.651299 63:0.211688 64:0.038311701 65:0.59026003 66:0.874026 67:0.190909 68:0.206494 69:0.21103901 70:0.241558 71:0.235065 72:0.15649299 73:0.91666698 74:0.83579999 75:0.47369999 76:0.43290001 77:0.4756 78:0.76749998 79:0.43290001 80:0.3946 81:0.4226 82:0.206148 83:0.20659 84:0.19925401 85:0.189551 86:0.176218 87:0.160216 88:0.14703199 89:0.14002299 90:0.13852599 91:0.14572901 92:0.159081 93:0.170185 94:0.184174 95:0.19949999 96:0.2101 97:0.229 
2.057431009244619 1:0.51493502 2:0.0149351 3:0.95779198 4:1.6266201 5:0.213636 6:1.48896 7:0.203247 8:0.027922099 9:0.71298701 10:0.52597398 11:0.35389599 12:0.0012987 13:0.229221 14:0.201948 15:0.14155801 16:0.00324675 17:0.381818 18:1.32338 19:0.144805 20:1.14091 21:0.081818201 22:0.24675301 23:0.25 24:0.371429 25:0.850649 26:1.08182 27:0.70973998 28:0.00064935099 29:0.63636398 30:0.283117 31:0.0298701 32:0.208442 33:0.074026003 34:1.38442 35:0.19220801 36:0 37:0.53636402 38:0.126623 39:0.344156 40:0.47727299 41:0.498052 42:0.96168798 43:0.49090901 44:0.098701298 45:0.19870099 46:1.24481 47:0.175974 48:0.0123377 49:0.022077899 50:0.27013001 51:0.100649 52:0.0064935102 53:0.60000002 54:0.21753199 55:0.657143 56:0.714935 57:0.50844198 58:0.00064935099 59:0.12532499 60:0 61:0.0837662 62:1.05519 63:0.0116883 64:0.0051948102 65:0.21298701 66:1.55844 67:0.39220801 68:0.105844 69:0.055194799 70:0.46103901 71:0.55259699 72:0.00584416 73:0.68085098 74:0.8872 75:0.48699999 76:0.75120002 77:0.43259999 78:0.57480001 79:0.40810001 80:0.4862 81:0.5158 82:0.18543699 83:0.16782799 84:0.144857 85:0.121102 86:0.102009 87:0.0911569 88:0.090553202 89:0.100326 90:0.120282 91:0.14708599 92:0.171694 93:0.192019 94:0.20637 95:0.21331599 96:0.2203 97:0.233045 
0.05702207292633482 1:0.413636 2:0.0525974 3:0.84026003 4:1.75065 5:0.0727273 6:1.62078 7:0.381818 8:0.0038961 9:0.95844197 10:0.43831199 11:0.37272701 12:0.012987 13:0.197403 14:0.027922099 15:0.125974 16:0 17:0.161688 18:1.33961 19:0.079220802 20:1.22987 21:0.045454498 22:0.108442 23:0.145455 24:0.16298699 25:0.352597 26:0.92077899 27:0.167532 28:0.027272699 29:0.25844201 30:0.28831199 31:0.123377 32:0.022727299 33:0.114286 34:1.28052 35:0.13766199 36:0.00064935099 37:0.875974 38:0.0837662 39:0.431169 40:1.35065 41:0.174026 42:1.52468 43:0.77597398 44:0.029220801 45:0.26493499 46:1.52792 47:0.179221 48:0.0103896 49:0.352597 50:0.116883 51:0.211688 52:0.0025974 53:0.55324697 54:0.42857099 55:0.30454499 56:0.98636401 57:0.318831 58:0.0038961 59:0.085714303 60:0.00064935099 61:0.0532468 62:1.28896 63:0.023376601 64:0 65:0.125974 66:1.29935 67:0.29025999 68:0.069480501 69:0.043506499 70:0.58441597 71:0.29220799 72:0.0045454502 73:0.68888903 74:0.9386 75:0.4122 76:0.49470001 77:0.347 78:0.84859997 79:0.52100003 80:0.47209999 81:0.41729999 82:0.197331 83:0.18697 84:0.167119 85:0.142712 86:0.120582 87:0.10548 88:0.10334 89:0.116837 90:0.14212801 91:0.171771 92:0.197468 93:0.211574 94:0.22113 95:0.229316 96:0.23586699 97:0.247136 
1.051999312589057 1:0.22597399 2:0.105844 3:0.720779 4:1.06818 5:0.40649399 6:1.15714 7:0.220779 8:0.088960998 9:0.62922102 10:0.151948 11:0.277273 12:0 13:0.12727299 14:0.081818201 15:0.0409091 16:0 17:0.147403 18:1.22597 19:0.0064935102 20:0.67727298 21:0.00714286 22:0.40974 23:0.30259699 24:0.291558 25:0.38831201 26:0.83116901 27:0.401948 28:0.0012987 29:0.38571399 30:0.176623 31:0.0298701 32:0.058441602 33:0.069480501 34:1.37208 35:0.087662302 36:0.00064935099 37:0.62467498 38:0.109091 39:0.183117 40:0.66298699 41:0.253896 42:0.66623402 43:0.61688298 44:0.096103899 45:0.17986999 46:1.22532 47:0.067532502 48:0 49:0.085714303 50:0.0519481 51:0.022727299 52:0 53:0.43051901 54:0.17532501 55:0.32857099 56:0.98571402 57:0.32857099 58:0 59:0.0136364 60:0 61:0.00324675 62:0.48960999 63:0 64:0 65:0.059740301 66:1.20584 67:0.080519497 68:0.024026001 69:0.105195 70:0.231169 71:0.45779201 72:0 73:0.6875 74:0.71200001 75:0.3161 76:0.51069999 77:0.336 78:0.52249998 79:0.31709999 80:0.331 81:0.33329999 82:0.15615501 83:0.145597 84:0.128048 85:0.108169 86:0.089299999 87:0.075578399 88:0.069893599 89:0.073616304 90:0.085320503 91:0.102071 92:0.120629 93:0.137648 94:0.150543 95:0.16 96:0.1692 97:0.17900001 
2.41624591903328 1:0.082467496 2:0.101948 3:0.61363602 4:0.42272699 5:0.43571401 6:0.877922 7:0.101299 8:0.196104 9:0.58960998 10:0.022727299 11:0.157792 12:0.00714286 13:0.0402597 14:0.071428597 15:0.053896099 16:0.00064935099 17:0.080519497 18:0.89805198 19:0.037662301 20:0.37922099 21:0.011039 22:0.464286 23:0.107792 24:0.048701301 25:0.153896 26:0.49350601 27:0.17337701 28:0.00194805 29:0.27207801 30:0.064285703 31:0.055194799 32:0.132468 33:0.111688 34:1.10974 35:0.13116901 36:0.038961001 37:0.29415599 38:0.114935 39:0.044805199 40:0.366234 41:0.246104 42:0.372078 43:0.57532501 44:0.117532 45:0.109091 46:1.0467499 47:0.105844 48:0 49:0.0253247 50:0.0305195 51:0.079870097 52:0.0025974 53:0.186364 54:0.0409091 55:0.201948 56:0.82337701 57:0.25909099 58:0 59:0.0038961 60:0.0012987 61:0.00584416 62:0.41623399 63:0.0149351 64:0.0012987 65:0.077922098 66:1.01623 67:0.055844199 68:0.076623403 69:0.133766 70:0.065584399 71:0.320779 72:0.0012987 73:0.76086998 74:0.52689999 75:0.2052 76:0.2879 77:0.29530001 78:0.345 79:0.23379999 80:0.26589999 81:0.2694 82:0.14481699 83:0.135336 84:0.121944 85:0.107619 86:0.094400004 87:0.084245101 88:0.078883 89:0.0794186 90:0.085217901 91:0.0938714 92:0.103726 93:0.113963 94:0.123891 95:0.13192099 96:0.1391 97:0.14740901 
18.4359804338386 1:0.164286 2:0.0623377 3:0.53701299 4:1.21558 5:0.36688301 6:1.28701 7:0.16948099 8:0.098701298 9:0.600649 10:0.190909 11:0.45974001 12:0 13:0.17727301 14:0.077922098 15:0.135065 16:0.0012987 17:0.241558 18:1.6772701 19:0.0097402604 20:0.57532501 21:0 22:0.203896 23:0.034415599 24:0.096753202 25:0.248052 26:0.89025998 27:0.195455 28:0 29:0.55259699 30:0.096753202 31:0.132468 32:0.148701 33:0.12922101 34:1.63896 35:0.25519499 36:0 37:0.58896101 38:0.117532 39:0.0935065 40:0.87077898 41:0.62142903 42:0.83441597 43:0.51168799 44:0.2 45:0.14805201 46:1.61494 47:0.17013 48:0 49:0.167532 50:0.104545 51:0.106494 52:0 53:0.51103902 54:0.111688 55:0.30389601 56:1.1298701 57:0.16493499 58:0 59:0.0045454502 60:0 61:0.0012987 62:0.53376597 63:0.00064935099 64:0 65:0.29415599 66:1.52987 67:0.140909 68:0.0720779 69:0.27077901 70:0.18831199 71:0.52402598 72:0 73:0.72727299 74:0.69330001 75:0.456 76:0.34709999 77:0.4549 78:0.61390001 79:0.42910001 80:0.3294 81:0.46509999 82:0.17262 83:0.162149 84:0.145714 85:0.12635601 86:0.106909 87:0.089921601 88:0.079563797 89:0.078406997 90:0.086487196 91:0.102614 92:0.123468 93:0.14409301 94:0.15987 95:0.171316 96:0.180933 97:0.191136 
24.91712615655452 1:0.18571401 2:0.079870097 3:0.62467498 4:1.17857 5:0.48311701 6:1.43117 7:0.16039 8:0.142208 9:0.69415599 10:0.166234 11:0.48960999 12:0 13:0.15454499 14:0.079870097 15:0.134416 16:0.00324675 17:0.24675301 18:1.6461 19:0.00844156 20:0.497403 21:0.0136364 22:0.104545 23:0.13961001 24:0.098052002 25:0.21558399 26:0.844805 27:0.196104 28:0.0012987 29:0.60194802 30:0.086363599 31:0.17986999 32:0.14026 33:0.14026 34:1.62143 35:0.32792199 36:0.0012987 37:0.63246799 38:0.115584 39:0.0837662 40:1.20195 41:0.53376597 42:0.86948001 43:0.56948102 44:0.199351 45:0.178571 46:1.60195 47:0.185065 48:0.00064935099 49:0.16298699 50:0.079870097 51:0.086363599 52:0 53:0.50259697 54:0.124675 55:0.27272701 56:1.09351 57:0.15649299 58:0.0025974 59:0.00324675 60:0.00064935099 61:0 62:0.50519502 63:0 64:0.0012987 65:0.30779201 66:1.49675 67:0.130519 68:0.065584399 69:0.306494 70:0.14155801 71:0.56948102 72:0 73:0.75 74:0.7669 75:0.44980001 76:0.32620001 77:0.47749999 78:0.67519999 79:0.4226 80:0.31330001 81:0.465 82:0.17577501 83:0.166545 84:0.15076999 85:0.13161901 86:0.111827 87:0.093872599 88:0.081266001 89:0.078081399 90:0.085012801 91:0.100957 92:0.122839 93:0.14524101 94:0.161543 95:0.172158 96:0.182633 97:0.193818 
12.5016217297208 1:0.21103901 2:0.0415584 3:0.649351 4:1.33442 5:0.30389601 6:1.50195 7:0.15844201 8:0.067532502 9:0.61753201 10:0.25519499 11:0.44545501 12:0 13:0.174675 14:0.034415599 15:0.18831199 16:0.0025974 17:0.33961001 18:1.63442 19:0.00064935099 20:0.48896101 21:0.00844156 22:0.115584 23:0.17142899 24:0.018831201 25:0.27207801 26:1.0188299 27:0.140909 28:0 29:0.645455 30:0.046753202 31:0.140909 32:0.127922 33:0.121429 34:1.67013 35:0.26233801 36:0.00194805 37:0.57922101 38:0.164286 39:0.074675299 40:0.95779198 41:0.69999999 42:0.724675 43:0.44805199 44:0.224675 45:0.101948 46:1.6474 47:0.15454499 48:0.00064935099 49:0.13571399 50:0.14415599 51:0.081818201 52:0 53:0.494156 54:0.069480501 55:0.316883 56:1.06558 57:0.120779 58:0 59:0.011039 60:0 61:0.0012987 62:0.527273 63:0.00324675 64:0 65:0.36103901 66:1.49481 67:0.15649299 68:0.065584399 69:0.27987 70:0.222727 71:0.468182 72:0 73:0.75 74:0.75239998 75:0.47350001 76:0.3443 77:0.4646 78:0.61220002 79:0.4201 80:0.31510001 81:0.46950001 82:0.174261 83:0.165709 84:0.150325 85:0.131466 86:0.111564 87:0.093960799 88:0.081925496 89:0.078441903 90:0.084961496 91:0.100157 92:0.121129 93:0.140944 94:0.15817399 95:0.169632 96:0.179033 97:0.190773 
0.1653574120112533 1:0.48831201 2:0.116883 3:1.01818 4:2.1779201 5:0.37727299 6:1.9532501 7:0.51558399 8:0.050000001 9:0.88960999 10:0.52857101 11:0.52272701 12:0.0038961 13:0.106494 14:0.042857099 15:0.091558397 16:0.00064935099 17:0.182468 18:1.9526 19:0.0214286 20:1.39221 21:0.054545499 22:0.36428601 23:0.22142901 24:1.09286 25:0.52597398 26:1.44481 27:0.39155799 28:0.00064935099 29:0.533117 30:0.44870099 31:0.092207797 32:0.0311688 33:0.028571401 34:1.8513 35:0.122727 36:0.0025974 37:0.95129901 38:0.107792 39:0.45129901 40:1.2915601 41:0.29545501 42:0.96753198 43:0.85519499 44:0.113636 45:0.48376599 46:1.82078 47:0.136364 48:0.00584416 49:0.113636 50:0.018181801 51:0.028571401 52:0 53:0.53571397 54:0.41688299 55:0.51038998 56:1.41299 57:0.401948 58:0.0025974 59:0.0012987 60:0 61:0.023376601 62:1.3668801 63:0.0038961 64:0.00194805 65:0.100649 66:1.86104 67:0.0214286 68:0.011039 69:0.070779197 70:0.54740298 71:0.47792199 72:0.0012987 73:0.72340399 74:1.1684 75:0.52850002 76:0.8484 77:0.47909999 78:0.84969997 79:0.47369999 80:0.57340002 81:0.47639999 82:0.219676 83:0.204851 84:0.178611 85:0.14816099 86:0.1193 87:0.099980399 88:0.097085103 89:0.112012 90:0.140462 91:0.173114 92:0.20266099 93:0.223481 94:0.236848 95:0.246658 96:0.25619999 97:0.26813599 
4.226340817758031 1:0.18571401 2:0.034415599 3:0.41818199 4:0.86688298 5:0.181169 6:0.73571402 7:0.23636401 8:0.046753202 9:0.38960999 10:0.190909 11:0.19870099 12:0.00064935099 13:0.071428597 14:0.032467499 15:0.0103896 16:0.0051948102 17:0.0116883 18:0.65454501 19:0.012987 20:0.438961 21:0.027922099 22:0.13961001 23:0.15649299 24:0.462338 25:0.0928571 26:0.24870101 27:0.142208 28:0 29:0.192857 30:0.087662302 31:0.044155799 32:0.038961001 33:0.0051948102 34:0.60584402 35:0.0201299 36:0.00064935099 37:0.41428599 38:0.0214286 39:0.151948 40:0.46558401 41:0.111039 42:0.348052 43:0.43051901 44:0.073376603 45:0.20064899 46:0.74155802 47:0.0253247 48:0.0077922102 49:0.0402597 50:0.034415599 51:0.033766199 52:0 53:0.281169 54:0.123377 55:0.10974 56:0.29610401 57:0.076623403 58:0 59:0.00194805 60:0.00064935099 61:0.0064935102 62:0.32597399 63:0 64:0.00064935099 65:0.037662301 66:0.72013003 67:0.0025974 68:0.0090909097 69:0.044155799 70:0.12922101 71:0.119481 72:0 73:0.765957 74:0.47659999 75:0.1811 76:0.26519999 77:0.1533 78:0.3414 79:0.1983 80:0.1259 81:0.1637 82:0.116268 83:0.1085 84:0.099357098 85:0.088686399 86:0.079254501 87:0.073970601 88:0.074255303 89:0.079593003 90:0.0888846 91:0.101471 92:0.112823 93:0.120407 94:0.127087 95:0.134105 96:0.13986699 97:0.146045 
24.12135207007654 1:0.055844199 2:0.0038961 3:0.16039 4:0.45519501 5:0.038961001 6:0.468182 7:0.134416 8:0.0136364 9:0.203896 10:0.118831 11:0.096753202 12:0.0064935102 13:0.126623 14:0.0298701 15:0.205844 16:0.00194805 17:0.0422078 18:0.397403 19:0.0155844 20:0.17013 21:0.0194805 22:0.111039 23:0.0935065 24:0.089610398 25:0.055194799 26:0.137013 27:0.0422078 28:0 29:0.164286 30:0.0149351 31:0.034415599 32:0.088960998 33:0.0616883 34:0.33506501 35:0.00324675 36:0.0038961 37:0.22013 38:0.0194805 39:0.024026001 40:0.181169 41:0.182468 42:0.18181799 43:0.178571 44:0.089610398 45:0.038311701 46:0.378571 47:0.00324675 48:0.0038961 49:0.0123377 50:0.0051948102 51:0.00064935099 52:0 53:0.12987 54:0.0207792 55:0.077922098 56:0.22987001 57:0.0402597 58:0.0012987 59:0.0012987 60:0.00064935099 61:0.0045454502 62:0.142857 63:0.00064935099 64:0.0012987 65:0.0214286 66:0.31168801 67:0.0025974 68:0.00064935099 69:0.0116883 70:0.103896 71:0.061039001 72:0.00064935099 73:0.765957 74:0.23630001 75:0.15800001 76:0.113 77:0.1088 78:0.1718 79:0.0854 80:0.076899998 81:0.079300001 82:0.12996501 83:0.12720101 84:0.12281 85:0.118093 86:0.113555 87:0.109559 88:0.107606 89:0.1085 90:0.112167 91:0.117629 92:0.124177 93:0.130556 94:0.136391 95:0.141526 96:0.14703301 97:0.154182 
4.098474004584346 1:0.206494 2:0.0311688 3:0.269481 4:0.50129902 5:0.075974002 6:0.54610401 7:0.077272698 8:0.00844156 9:0.2 10:0.142857 11:0.12013 12:0.00064935099 13:0.074026003 14:0.0025974 15:0.076623403 16:0.0051948102 17:0.050000001 18:0.464935 19:0.0305195 20:0.251948 21:0.018181801 22:0.120779 23:0.080519497 24:0.275325 25:0.15000001 26:0.197403 27:0.071428597 28:0 29:0.15000001 30:0.075974002 31:0.048701301 32:0.0175325 33:0.022077899 34:0.344156 35:0.00714286 36:0.00194805 37:0.22792201 38:0.065584399 39:0.108442 40:0.19025999 41:0.106494 42:0.23181801 43:0.114935 44:0.079870097 45:0.049350601 46:0.47013 47:0.00844156 48:0.0051948102 49:0.0123377 50:0.033116899 51:0.0246753 52:0.0051948102 53:0.183117 54:0.047402602 55:0.116234 56:0.174026 57:0.133766 58:0.0025974 59:0.0051948102 60:0 61:0.0025974 62:0.148701 63:0 64:0 65:0.0305195 66:0.417532 67:0.0136364 68:0.00324675 69:0.00584416 70:0.142208 71:0.130519 72:0 73:0.73913002 74:0.2951 75:0.1443 76:0.1842 77:0.1028 78:0.18089999 79:0.1216 80:0.0898 81:0.1145 82:0.134197 83:0.129582 84:0.12331 85:0.116695 86:0.111 87:0.107176 88:0.106543 89:0.109256 90:0.115449 91:0.124314 92:0.13222601 93:0.138815 94:0.144109 95:0.148711 96:0.153567 97:0.160864 
9.207173240224652 1:0.16948099 2:0.018831201 3:0.26233801 4:0.58051902 5:0.0415584 6:0.42792201 7:0.099350601 8:0.0051948102 9:0.157792 10:0.126623 11:0.087662302 12:0.00064935099 13:0.050649401 14:0.0123377 15:0.057142898 16:0.00064935099 17:0.033116899 18:0.45324701 19:0.0090909097 20:0.29090899 21:0.0253247 22:0.201948 23:0.082467496 24:0.16298699 25:0.13571399 26:0.224675 27:0.102597 28:0 29:0.145455 30:0.105844 31:0.0214286 32:0.0155844 33:0.0305195 34:0.40000001 35:0.0194805 36:0 37:0.208442 38:0.027272699 39:0.135065 40:0.103896 41:0.0623377 42:0.350649 43:0.203247 44:0.047402602 45:0.069480501 46:0.435065 47:0.00584416 48:0.00584416 49:0.00194805 50:0.0162338 51:0.0162338 52:0 53:0.163636 54:0.080519497 55:0.055194799 56:0.172078 57:0.121429 58:0.0012987 59:0.0025974 60:0 61:0.00584416 62:0.222727 63:0.00064935099 64:0.00064935099 65:0.023376601 66:0.47142899 67:0.0090909097 68:0.0064935102 69:0.0077922102 70:0.15454499 71:0.120779 72:0 73:0.71739101 74:0.27149999 75:0.1266 76:0.1903 77:0.1137 78:0.186 79:0.1117 80:0.089599997 81:0.1223 82:0.13192999 83:0.12788101 84:0.121667 85:0.114898 86:0.108864 87:0.105422 88:0.105979 89:0.110558 90:0.117744 91:0.125671 92:0.13428999 93:0.141278 94:0.145087 95:0.148421 96:0.15306699 97:0.16059101 
39.0498662784177 1:0.16493499 2:0.0246753 3:0.26753199 4:0.57207799 5:0.036363602 6:0.497403 7:0.099350601 8:0.0123377 9:0.20714299 10:0.138961 11:0.105844 12:0.00064935099 13:0.062987 14:0.011039 15:0.055194799 16:0.0025974 17:0.045454498 18:0.442857 19:0.0123377 20:0.255844 21:0.0097402604 22:0.097402602 23:0.107143 24:0.16103899 25:0.098701298 26:0.229221 27:0.0837662 28:0.0012987 29:0.175974 30:0.066233799 31:0.035064898 32:0.0201299 33:0.035714298 34:0.44999999 35:0.00584416 36:0.0025974 37:0.196753 38:0.082467496 39:0.100649 40:0.22013 41:0.12922101 42:0.235714 43:0.13116901 44:0.062987 45:0.0623377 46:0.44935101 47:0.0025974 48:0.00064935099 49:0.0103896 50:0.0090909097 51:0.0175325 52:0 53:0.14805201 54:0.038961001 55:0.12013 56:0.21948101 57:0.070779197 58:0.00064935099 59:0.0142857 60:0 61:0.0012987 62:0.18181799 63:0.011039 64:0.0025974 65:0.016883099 66:0.47727299 67:0.0116883 68:0.0051948102 69:0.0136364 70:0.145455 71:0.094805203 72:0.00194805 73:0.72340399 74:0.28979999 75:0.13330001 76:0.16249999 77:0.1221 78:0.1881 79:0.1042 80:0.095399998 81:0.1185 82:0.132725 83:0.12841 84:0.122333 85:0.116203 86:0.110418 87:0.106735 88:0.105532 89:0.107791 90:0.113705 91:0.121757 92:0.13 93:0.136685 94:0.141913 95:0.146816 96:0.1516 97:0.158545 
0.2397410670622525 1:0.46298701 2:0.0727273 3:0.92142898 4:1.98571 5:0.413636 6:1.71429 7:0.51883101 8:0.101948 9:0.91103899 10:0.50974 11:0.45714301 12:0.00194805 13:0.036363602 14:0.024026001 15:0.023376601 16:0.0025974 17:0.088960998 18:1.73831 19:0.016883099 20:1.27597 21:0.00714286 22:0.81948102 23:0.277922 24:1.15519 25:0.38636401 26:1.03442 27:0.44870099 28:0.00064935099 29:0.46298701 30:0.417532 31:0.079220802 32:0.022077899 33:0.027272699 34:1.7051899 35:0.122078 36:0.00194805 37:0.92272699 38:0.116234 39:0.47142899 40:0.783117 41:0.184416 42:0.85389602 43:0.88506502 44:0.132468 45:0.57077903 46:1.65 47:0.090909101 48:0.00324675 49:0.0727273 50:0.0305195 51:0.027922099 52:0 53:0.45324701 54:0.42077899 55:0.444805 56:1.16299 57:0.37532499 58:0.0012987 59:0.00324675 60:0 61:0.00324675 62:1.20649 63:0.0025974 64:0.00064935099 65:0.124675 66:1.7181799 67:0.048701301 68:0.0103896 69:0.125974 70:0.42142901 71:0.45584401 72:0 73:0.73913002 74:1.0937999 75:0.44389999 76:0.83499998 77:0.43720001 78:0.75770003 79:0.42340001 80:0.4928 81:0.44749999 82:0.20553499 83:0.19044 84:0.16599999 85:0.137839 86:0.112718 87:0.0969216 88:0.095744699 89:0.109826 90:0.136026 91:0.16657101 92:0.194306 93:0.213981 94:0.22660901 95:0.235447 96:0.244633 97:0.25559101 
3.241195091788066 1:0.44545501 2:0.0155844 3:0.77986997 4:1.8013 5:0.064935103 6:1.68571 7:0.437013 8:0.022077899 9:0.79610401 10:0.46948099 11:0.29415599 12:0 13:0.0214286 14:0.0038961 15:0.0162338 16:0.00714286 17:0.203896 18:1.24805 19:0.045454498 20:1.02662 21:0.0318182 22:0.41233799 23:0.104545 24:0.93116897 25:0.47922099 26:0.90259701 27:0.399351 28:0 29:0.41948101 30:0.34545499 31:0.018181801 32:0.011039 33:0.0162338 34:1.27273 35:0.153896 36:0.00584416 37:0.65194798 38:0.0409091 39:0.34740299 40:0.80064899 41:0.079870097 42:0.69805199 43:0.67857099 44:0.058441602 45:0.35389599 46:1.30065 47:0.16298699 48:0.0045454502 49:0.00714286 50:0.0149351 51:0.022727299 52:0 53:0.397403 54:0.31818199 55:0.50714302 56:1.0039001 57:0.401299 58:0 59:0.00584416 60:0 61:0.038961001 62:1.02792 63:0.011039 64:0.0012987 65:0.238961 66:1.25195 67:0.0207792 68:0.0038961 69:0.0077922102 70:0.44610399 71:0.28246799 72:0 73:0.69565201 74:0.9314 75:0.34869999 76:0.66729999 77:0.34540001 78:0.57130003 79:0.3432 80:0.4614 81:0.347 82:0.25499299 83:0.243709 84:0.222563 85:0.19903401 86:0.178073 87:0.16571601 88:0.166564 89:0.18109301 90:0.206513 91:0.23421399 92:0.255806 93:0.26846299 94:0.274739 95:0.28023699 96:0.287633 97:0.30018201 
0.5602102812224192 1:0.307143 2:0.0162338 3:0.64480501 4:1.48701 5:0.092207797 6:1.32662 7:0.35909101 8:0.012987 9:0.600649 10:0.39285699 11:0.20909099 12:0 13:0.0038961 14:0.00324675 15:0.045454498 16:0.00324675 17:0.203896 18:1.31883 19:0.044155799 20:0.88701302 21:0.070129901 22:0.45779201 23:0.187013 24:0.66168803 25:0.52077901 26:0.79415601 27:0.47727299 28:0 29:0.378571 30:0.213636 31:0.0155844 32:0.0142857 33:0.0162338 34:1.22273 35:0.119481 36:0.0051948102 37:0.54155803 38:0.064935103 39:0.18961 40:0.45974001 41:0.14350601 42:0.58636397 43:0.52986997 44:0.0616883 45:0.26363599 46:1.3045501 47:0.140909 48:0 49:0.0064935102 50:0.00844156 51:0.0207792 52:0 53:0.35779199 54:0.191558 55:0.51818198 56:0.92207801 57:0.374026 58:0 59:0.0097402604 60:0.00064935099 61:0.0402597 62:0.815584 63:0.0051948102 64:0.0051948102 65:0.233766 66:1.36948 67:0.00714286 68:0.0077922102 69:0.100649 70:0.35844201 71:0.20259701 72:0 73:0.69565201 74:0.7464 75:0.33579999 76:0.63139999 77:0.30579999 78:0.4375 79:0.3127 80:0.4136 81:0.35190001 82:0.231768 83:0.219119 84:0.199341 85:0.178314 86:0.160345 87:0.14902 88:0.147681 89:0.15736 90:0.176218 91:0.19901399 92:0.21817701 93:0.23101901 94:0.238043 95:0.244105 96:0.25156701 97:0.26277301 
2.176407942271182 1:0.407143 2:0.018181801 3:0.70649302 4:1.7181799 5:0.0512987 6:1.61429 7:0.45909101 8:0.016883099 9:0.81623399 10:0.48246801 11:0.26363599 12:0 13:0.0532468 14:0.0175325 15:0.0116883 16:0.00194805 17:0.188961 18:1.25779 19:0.037662301 20:1.02597 21:0.0246753 22:0.71753198 23:0.114935 24:0.68571401 25:0.44220799 26:0.785065 27:0.35909101 28:0 29:0.38766199 30:0.317532 31:0.0045454502 32:0.00844156 33:0.0149351 34:1.2460999 35:0.119481 36:0.00324675 37:0.66298699 38:0.039610401 39:0.31233799 40:0.41038999 41:0.125974 42:0.854545 43:0.66753203 44:0.0519481 45:0.381818 46:1.22922 47:0.15844201 48:0.00064935099 49:0.00584416 50:0.028571401 51:0.048701301 52:0 53:0.45194799 54:0.29415599 55:0.54026002 56:1.0188299 57:0.369481 58:0 59:0 60:0 61:0.022727299 62:0.92922097 63:0.00714286 64:0.0038961 65:0.27662301 66:1.2051899 67:0.032467499 68:0.0194805 69:0.036363602 70:0.43961 71:0.27402601 72:0 73:0.71111101 74:0.8944 75:0.35069999 76:0.64569998 77:0.32370001 78:0.54009998 79:0.34150001 80:0.4447 81:0.35229999 82:0.25313401 83:0.242881 84:0.22254799 85:0.199839 86:0.18004499 87:0.168578 88:0.169064 89:0.181802 90:0.20509 91:0.23302899 92:0.25490299 93:0.26631501 94:0.272957 95:0.278947 96:0.28703299 97:0.29986399 
2.503074451392652 1:0.39026001 2:0.0090909097 3:0.73181802 4:1.72403 5:0.048051901 6:1.37857 7:0.50974 8:0.00714286 9:0.73116899 10:0.44610399 11:0.306494 12:0.00064935099 13:0.028571401 14:0.00194805 15:0.054545499 16:0.0064935102 17:0.14610399 18:1.2032501 19:0.0266234 20:0.98376602 21:0.012987 22:0.54610401 23:0.105195 24:0.62987 25:0.42467499 26:0.66233802 27:0.39675301 28:0 29:0.374026 30:0.39870101 31:0.011039 32:0.0051948102 33:0.0136364 34:1.19675 35:0.096103899 36:0.00844156 37:0.60844201 38:0.029220801 39:0.352597 40:0.470779 41:0.057142898 42:0.92662299 43:0.62467498 44:0.037662301 45:0.33896101 46:1.22987 47:0.126623 48:0.00064935099 49:0.012987 50:0.0025974 51:0.0266234 52:0 53:0.36039001 54:0.29805201 55:0.474675 56:0.90649301 57:0.42662299 58:0.00194805 59:0 60:0.00064935099 61:0.0402597 62:1.00065 63:0.0194805 64:0.0025974 65:0.167532 66:1.21753 67:0.0038961 68:0 69:0.034415599 70:0.44935101 71:0.22402599 72:0 73:0.70454502 74:0.85159999 75:0.33790001 76:0.58340001 77:0.324 78:0.53070003 79:0.31690001 80:0.44209999 81:0.3233 82:0.252197 83:0.23803 84:0.217198 85:0.195703 86:0.17839999 87:0.170627 88:0.17467 89:0.19057 90:0.214872 91:0.24067099 92:0.259855 93:0.26992601 94:0.27587 95:0.28073701 96:0.28786701 97:0.30018201 
0.5184885568735185 1:0.33376601 2:0.018181801 3:0.56883103 4:1.6577899 5:0.028571401 6:1.2623399 7:0.42532501 8:0.0090909097 9:0.72013003 10:0.46168801 11:0.30779201 12:0 13:0.0402597 14:0.00064935099 15:0.037013002 16:0.00194805 17:0.191558 18:1.2460999 19:0.035064898 20:1.03896 21:0.060389601 22:0.37013 23:0.046103898 24:0.57922101 25:0.48766199 26:0.80259699 27:0.43376601 28:0 29:0.35779199 30:0.37727299 31:0.00714286 32:0.00064935099 33:0.012987 34:1.1610399 35:0.16039 36:0 37:0.58766198 38:0.0201299 39:0.32857099 40:0.61493498 41:0.045454498 42:1.0961 43:0.57597399 44:0.0409091 45:0.39675301 46:1.20714 47:0.196104 48:0.00194805 49:0.0525974 50:0.00584416 51:0.075324699 52:0.00064935099 53:0.42402601 54:0.381818 55:0.464286 56:1.08961 57:0.431169 58:0 59:0.00064935099 60:0 61:0.0409091 62:1.05779 63:0.011039 64:0.00194805 65:0.21558399 66:1.22922 67:0.0175325 68:0.00064935099 69:0.018181801 70:0.47922099 71:0.233766 72:0 73:0.673913 74:0.7737 75:0.3522 76:0.59350002 77:0.31990001 78:0.57080001 79:0.3612 80:0.47670001 81:0.3382 82:0.25232399 83:0.240119 84:0.219881 85:0.198203 86:0.179682 87:0.16995101 88:0.172755 89:0.18807 90:0.212731 91:0.24070001 92:0.26140299 93:0.27116701 94:0.27587 95:0.28068399 96:0.28786701 97:0.30018201 
0.00881681311474207 1:0.37532499 2:0.0201299 3:0.73246801 4:1.79805 5:0.121429 6:1.40195 7:0.468831 8:0.0090909097 9:0.81818199 10:0.49480501 11:0.32597399 12:0 13:0.018181801 14:0.018181801 15:0.0123377 16:0.00324675 17:0.17013 18:1.32143 19:0.048051901 20:1.1 21:0.044155799 22:0.56623399 23:0.127922 24:0.56428599 25:0.45909101 26:0.73506498 27:0.49090901 28:0 29:0.381818 30:0.403247 31:0.0194805 32:0.027272699 33:0.0512987 34:1.3259701 35:0.167532 36:0.0051948102 37:0.67272699 38:0.0155844 39:0.34155801 40:0.54610401 41:0.050000001 42:1.1837699 43:0.66039002 44:0.0311688 45:0.42727301 46:1.38701 47:0.193506 48:0.00194805 49:0.0149351 50:0.0175325 51:0.0305195 52:0 53:0.35649401 54:0.411688 55:0.558442 56:1.1103899 57:0.47337699 58:0 59:0.0097402604 60:0 61:0.0155844 62:1.09156 63:0.022727299 64:0 65:0.218182 66:1.4 67:0.0415584 68:0.018831201 69:0.035064898 70:0.43181801 71:0.32467499 72:0 73:0.68888903 74:0.88480002 75:0.36410001 76:0.63690001 77:0.36680001 78:0.60500002 79:0.37169999 80:0.5054 81:0.3804 82:0.249584 83:0.233739 84:0.210484 85:0.186746 86:0.167 87:0.157471 88:0.16116001 89:0.177663 90:0.203141 91:0.23187099 92:0.25329 93:0.26442599 94:0.27197799 95:0.279026 96:0.28643301 97:0.29881799 
0.7316392521795503 1:0.437013 2:0.0012987 3:0.78831202 4:1.8896101 5:0.0045454502 6:1.68961 7:0.47986999 8:0.00324675 9:0.771429 10:0.53376597 11:0.245455 12:0 13:0.050000001 14:0 15:0.068181798 16:0.0025974 17:0.197403 18:1.33636 19:0.077922098 20:1.1026 21:0.0162338 22:0.438961 23:0.172727 24:1.10974 25:0.56428599 26:0.88116902 27:0.45324701 28:0 29:0.466883 30:0.33701301 31:0.0201299 32:0.0038961 33:0.0253247 34:1.22403 35:0.124675 36:0.018831201 37:0.53766203 38:0.073376603 39:0.39870101 40:0.431169 41:0.092207797 42:0.62077898 43:0.58311701 44:0.082467496 45:0.37532499 46:1.33636 47:0.15454499 48:0.00324675 49:0.00584416 50:0.0045454502 51:0.029220801 52:0 53:0.44740301 54:0.29935101 55:0.54610401 56:1.06234 57:0.41623399 58:0 59:0 60:0 61:0.0512987 62:1.01299 63:0.00194805 64:0.00714286 65:0.22792201 66:1.38896 67:0.0246753 68:0 69:0.075974002 70:0.57986999 71:0.229221 72:0 73:0.68888903 74:0.93400002 75:0.3748 76:0.74180001 77:0.34200001 78:0.49200001 79:0.35120001 80:0.47600001 81:0.39019999 82:0.251634 83:0.23808999 84:0.21596 85:0.192839 86:0.173255 87:0.16302 88:0.16613799 89:0.182558 90:0.20867901 91:0.2361 92:0.25749999 93:0.26909301 94:0.27523899 95:0.280711 96:0.28786701 97:0.30018201 
0.4305533638321906 1:0.32727301 2:0.0038961 3:0.84545499 4:1.7720799 5:0.059090901 6:1.47013 7:0.37013 8:0 9:0.87987 10:0.55324697 11:0.228571 12:0 13:0.0116883 14:0.0116883 15:0.0318182 16:0.0012987 17:0.12987 18:1.32987 19:0.060389601 20:1.0792201 21:0.0123377 22:0.25974 23:0.075974002 24:0.19220801 25:0.53571397 26:0.82337701 27:0.346753 28:0 29:0.50259697 30:0.33571401 31:0.0064935102 32:0.059090901 33:0.088311702 34:1.28961 35:0.079220802 36:0 37:0.64025998 38:0.079870097 39:0.28701299 40:0.47792199 41:0.196753 42:1.30519 43:0.59220803 44:0.073376603 45:0.30974001 46:1.27662 47:0.14610399 48:0 49:0.029220801 50:0.048051901 51:0.091558397 52:0 53:0.476623 54:0.308442 55:0.57337701 56:1.02792 57:0.378571 58:0 59:0.039610401 60:0 61:0.033766199 62:0.99935102 63:0.00194805 64:0 65:0.201948 66:1.37403 67:0.0409091 68:0.0162338 69:0.046753202 70:0.56039 71:0.24675301 72:0 73:0.63043499 74:0.88209999 75:0.35389999 76:0.52139997 77:0.36359999 78:0.61019999 79:0.366 80:0.47040001 81:0.38299999 82:0.247831 83:0.232985 84:0.211603 85:0.18910199 86:0.17039099 87:0.16122501 88:0.16391499 89:0.177733 90:0.20083299 91:0.226871 92:0.24837101 93:0.26174101 94:0.269739 95:0.27686799 96:0.28523299 97:0.29809099 
8.277582200228224 1:0.38636401 2:0.10974 3:0.70324701 4:1.08506 5:0.303247 6:0.97532499 7:0.30779201 8:0.068181798 9:0.724675 10:0.195455 11:0.26883101 12:0 13:0.0305195 14:0.0051948102 15:0.035064898 16:0.00584416 17:0.035714298 18:0.62727302 19:0.037662301 20:0.531169 21:0.011039 22:0.211688 23:0.083116896 24:0.117532 25:0.132468 26:0.16039 27:0.16039 28:0.00064935099 29:0.42857099 30:0.16948099 31:0.088960998 32:0.046103898 33:0.113636 34:0.714935 35:0.038961001 36:0.0038961 37:0.52792197 38:0.201948 39:0.26039001 40:0.63831198 41:0.27207801 42:0.85000002 43:0.58246797 44:0.134416 45:0.16883101 46:0.69025999 47:0.016883099 48:0.0045454502 49:0.047402602 50:0.097402602 51:0.077272698 52:0.00064935099 53:0.42207801 54:0.170779 55:0.124675 56:0.192857 57:0.16039 58:0.0012987 59:0.0077922102 60:0 61:0 62:0.401948 63:0.00064935099 64:0.0077922102 65:0.027922099 66:0.73571402 67:0.035714298 68:0.044805199 69:0.042857099 70:0.16948099 71:0.279221 72:0 73:0.73913002 74:0.71820003 75:0.18539999 76:0.2226 77:0.2472 78:0.56 79:0.2352 80:0.13699999 81:0.2069 82:0.116972 83:0.107903 84:0.095992103 85:0.081313603 86:0.070190899 87:0.065186299 88:0.065893598 89:0.072523303 90:0.084576897 91:0.099242903 92:0.115113 93:0.129352 94:0.13913 95:0.14594699 96:0.152033 97:0.160318 
50.22176881984021 1:0.0116883 2:0.0142857 3:0.148701 4:0.15844201 5:0.087662302 6:0.22987001 7:0.0246753 8:0.00584416 9:0.120779 10:0.035064898 11:0.088311702 12:0.00194805 13:0.012987 14:0.0116883 15:0.00194805 16:0 17:0.0214286 18:0.207792 19:0.0623377 20:0.124026 21:0.012987 22:0.103247 23:0.082467496 24:0.080519497 25:0.085714303 26:0.151299 27:0.0636364 28:0.00714286 29:0.0616883 30:0.0116883 31:0.0201299 32:0.0123377 33:0.012987 34:0.168182 35:0.0123377 36:0 37:0.078571402 38:0.00584416 39:0.0155844 40:0.0844156 41:0.0298701 42:0.037013002 43:0.071428597 44:0.012987 45:0.0149351 46:0.20454501 47:0.00584416 48:0 49:0.0077922102 50:0.00584416 51:0.0155844 52:0.0012987 53:0.057792202 54:0.0175325 55:0.0311688 56:0.111039 57:0.0090909097 58:0 59:0.00194805 60:0.00194805 61:0.00584416 62:0.120779 63:0.0012987 64:0 65:0.0201299 66:0.122727 67:0.0025974 68:0.0045454502 69:0.0025974 70:0.0077922102 71:0.033116899 72:0 73:0.78260899 74:0.1235 75:0.058699999 76:0.118 77:0.047200002 78:0.054000001 79:0.048700001 80:0.0436 81:0.0298 82:0.069330998 83:0.067089602 84:0.0639048 85:0.060821999 86:0.057745501 87:0.055441201 88:0.054351099 89:0.054814 90:0.056807701 91:0.059414301 92:0.062532298 93:0.066796303 94:0.070456497 95:0.073578902 96:0.076266699 97:0.079499997 
26.57275063028265 1:0.064285703 2:0.0532468 3:0.35844201 4:0.45194799 5:0.32857099 6:0.56493503 7:0.088311702 8:0.047402602 9:0.34350601 10:0.096753202 11:0.287662 12:0 13:0.058441602 14:0.037013002 15:0.027272699 16:0.00064935099 17:0.060389601 18:0.56818199 19:0.037662301 20:0.31818199 21:0.00844156 22:0.305195 23:0.1 24:0.208442 25:0.135065 26:0.409091 27:0.153247 28:0.0025974 29:0.19025999 30:0.0519481 31:0.0064935102 32:0.053896099 33:0.027272699 34:0.507792 35:0.0214286 36:0 37:0.33311701 38:0.048051901 39:0.081168801 40:0.16298699 41:0.25649399 42:0.26818201 43:0.20909099 44:0.059090901 45:0.059740301 46:0.60194802 47:0.064935103 48:0 49:0.0266234 50:0.037013002 51:0.0298701 52:0 53:0.25974 54:0.079220802 55:0.175974 56:0.436364 57:0.125974 58:0 59:0.00324675 60:0.00064935099 61:0.0025974 62:0.29220799 63:0.0064935102 64:0 65:0.0311688 66:0.496104 67:0.022077899 68:0.042857099 69:0.0201299 70:0.059740301 71:0.15844201 72:0.0025974 73:0.69999999 74:0.35429999 75:0.175 76:0.25799999 77:0.1327 78:0.22759999 79:0.1693 80:0.16069999 81:0.1283 82:0.097190097 83:0.092761204 84:0.085182503 85:0.0762119 86:0.067290902 87:0.060519598 88:0.057340398 89:0.058790699 90:0.064525597 91:0.072442897 92:0.081451602 93:0.091833301 94:0.101652 95:0.108684 96:0.114 97:0.121455 
60 1:0.043506499 2:0.060389601 3:0.163636 4:0.163636 5:0.194805 6:0.26233801 7:0.0201299 8:0.0175325 9:0.182468 10:0.0149351 11:0.083116896 12:0 13:0.0155844 14:0.036363602 15:0.074026003 16:0.00064935099 17:0.044805199 18:0.35519499 19:0.00584416 20:0.16493499 21:0.0097402604 22:0.107143 23:0.073376603 24:0.062987 25:0.0623377 26:0.28701299 27:0.0519481 28:0.00064935099 29:0.060389601 30:0.0077922102 31:0.057142898 32:0.0246753 33:0.0097402604 34:0.247403 35:0.0103896 36:0 37:0.20909099 38:0.038311701 39:0.0266234 40:0.194805 41:0.12922101 42:0.116234 43:0.12727299 44:0.0266234 45:0.027272699 46:0.332468 47:0.034415599 48:0 49:0.0519481 50:0.0246753 51:0.028571401 52:0.00064935099 53:0.146753 54:0.033766199 55:0.059090901 56:0.26168799 57:0.068831198 58:0.00324675 59:0.0097402604 60:0.0038961 61:0.0090909097 62:0.132468 63:0.00714286 64:0.00064935099 65:0.0318182 66:0.23831201 67:0.0012987 68:0.0103896 69:0.058441602 70:0.0149351 71:0.070129901 72:0.0012987 73:0.81632698 74:0.1707 75:0.096199997 76:0.12710001 77:0.064400002 78:0.13789999 79:0.1006 80:0.085500002 81:0.065800004 82:0.084274597 83:0.083291002 84:0.0804286 85:0.076118603 86:0.070354499 87:0.065588199 88:0.0620851 89:0.0608023 90:0.062423099 91:0.065342903 92:0.070048399 93:0.076203696 94:0.081826098 95:0.086657897 96:0.090733297 97:0.095272698 
10.35186015023374 1:0.28831199 2:0.012987 3:0.395455 4:0.86883098 5:0.049350601 6:0.60974002 7:0.192857 8:0 9:0.27597401 10:0.26818201 11:0.12532499 12:0.00064935099 13:0.00194805 14:0 15:0.032467499 16:0.0045454502 17:0.0123377 18:0.45519501 19:0.00844156 20:0.368182 21:0.0253247 22:0.15844201 23:0.0928571 24:0.55064899 25:0.185065 26:0.25 27:0.098701298 28:0 29:0.23246799 30:0.147403 31:0.025974 32:0.00584416 33:0.0012987 34:0.407792 35:0.0194805 36:0.0025974 37:0.285714 38:0.070129901 39:0.198052 40:0.197403 41:0.1 42:0.122078 43:0.241558 44:0.0525974 45:0.130519 46:0.35973999 47:0.0012987 48:0.0038961 49:0.0103896 50:0.039610401 51:0.0162338 52:0 53:0.136364 54:0.0844156 55:0.109091 56:0.120779 57:0.0837662 58:0 59:0.028571401 60:0.0012987 61:0.00584416 62:0.37272701 63:0.00194805 64:0.00324675 65:0.00844156 66:0.53181797 67:0.0402597 68:0.0090909097 69:0.0103896 70:0.199351 71:0.068831198 72:0 73:0.68888903 74:0.41479999 75:0.13869999 76:0.2676 77:0.12980001 78:0.21529999 79:0.1004 80:0.1115 81:0.13420001 82:0.096183099 83:0.088723898 84:0.079420596 85:0.071525402 86:0.066581801 87:0.065647103 88:0.069095701 89:0.076023303 90:0.084371798 91:0.093928598 92:0.102661 93:0.108778 94:0.113261 95:0.116105 96:0.119133 97:0.124773 
4.583163337788622 1:0.222727 2:0.0142857 3:0.29220799 4:0.59026003 5:0.086363599 6:0.352597 7:0.16039 8:0.0162338 9:0.222727 10:0.085714303 11:0.104545 12:0 13:0.00064935099 14:0 15:0.027272699 16:0.0045454502 17:0.0025974 18:0.342857 19:0.0045454502 20:0.26233801 21:0.055194799 22:0.079220802 23:0.12013 24:0.29935101 25:0.12987 26:0.207792 27:0.0928571 28:0 29:0.142857 30:0.079220802 31:0.037662301 32:0.00064935099 33:0.0175325 34:0.377922 35:0.011039 36:0.0012987 37:0.29935101 38:0.0207792 39:0.13116901 40:0.31233799 41:0.012987 42:0.2 43:0.25 44:0.025974 45:0.1 46:0.371429 47:0.012987 48:0.0012987 49:0.0253247 50:0.0045454502 51:0.0097402604 52:0 53:0.111688 54:0.0844156 55:0.079220802 56:0.099350601 57:0.080519497 58:0 59:0.0012987 60:0 61:0 62:0.216883 63:0.00064935099 64:0.00324675 65:0.0097402604 66:0.397403 67:0.00324675 68:0.0123377 69:0.0149351 70:0.083116896 71:0.102597 72:0.00064935099 73:0.72727299 74:0.30149999 75:0.087499999 76:0.1927 77:0.1029 78:0.20829999 79:0.095700003 80:0.073600002 81:0.096600004 82:0.074950702 83:0.069895498 84:0.062571399 85:0.0557542 86:0.050790899 87:0.0483725 88:0.049042601 89:0.052930199 90:0.060012799 91:0.067957103 92:0.075016104 93:0.079722203 94:0.082652196 95:0.085710503 96:0.089199997 97:0.093545496 
6.745836018162112 1:0.0207792 2:0.018181801 3:0.12727299 4:0.149351 5:0.0318182 6:0.25714299 7:0.018181801 8:0.00324675 9:0.13766199 10:0.0402597 11:0.0422078 12:0 13:0.029220801 14:0.00714286 15:0.0045454502 16:0 17:0.0928571 18:0.138961 19:0.069480501 20:0.10974 21:0.00324675 22:0.099350601 23:0.23246799 24:0.0045454502 25:0.079870097 26:0.206494 27:0.0519481 28:0.00064935099 29:0.0415584 30:0.00194805 31:0.0266234 32:0.0097402604 33:0.0012987 34:0.150649 35:0.0090909097 36:0.0090909097 37:0.0512987 38:0.029220801 39:0.00064935099 40:0.064285703 41:0.0305195 42:0 43:0.116234 44:0.0422078 45:0.00194805 46:0.20909099 47:0.0045454502 48:0.00064935099 49:0.0103896 50:0.0025974 51:0.00064935099 52:0.0012987 53:0.055844199 54:0.00324675 55:0.0935065 56:0.198052 57:0.035714298 58:0.00194805 59:0.0025974 60:0.0025974 61:0.0097402604 62:0.089610398 63:0.0012987 64:0 65:0.075974002 66:0.116234 67:0.0045454502 68:0.00324675 69:0.0012987 70:0.016883099 71:0.0194805 72:0.0025974 73:0.81999999 74:0.1176 75:0.054699998 76:0.132 77:0.038600001 78:0.051800001 79:0.044399999 80:0.067000002 81:0.037 82:0.070154898 83:0.069380596 84:0.066865101 85:0.064271197 86:0.061500002 87:0.0588235 88:0.0567872 89:0.056407001 90:0.056461498 91:0.057557099 92:0.058871001 93:0.0611481 94:0.064021699 95:0.0667895 96:0.070900001 97:0.075590901 
0.8839462604582483 1:0.044155799 2:0 3:0.118182 4:0.230519 5:0.032467499 6:0.243506 7:0.044805199 8:0.0025974 9:0.0844156 10:0.039610401 11:0.022727299 12:0 13:0.0149351 14:0.0012987 15:0.0103896 16:0 17:0.027922099 18:0.14610399 19:0.0194805 20:0.105195 21:0.0077922102 22:0.111688 23:0.085714303 24:0.099350601 25:0.130519 26:0.191558 27:0.066883102 28:0 29:0.048701301 30:0.0103896 31:0.0142857 32:0.023376601 33:0.00844156 34:0.177922 35:0.00194805 36:0.00064935099 37:0.12013 38:0.0298701 39:0.0149351 40:0.119481 41:0.0214286 42:0.0422078 43:0.094805203 44:0.0097402604 45:0.0097402604 46:0.178571 47:0.00194805 48:0.00194805 49:0.0194805 50:0.00194805 51:0.0025974 52:0.0012987 53:0.034415599 54:0.0097402604 55:0.074026003 56:0.19025999 57:0.068181798 58:0.0012987 59:0 60:0 61:0.0097402604 62:0.12987 63:0 64:0 65:0.016883099 66:0.198052 67:0.0103896 68:0.0012987 69:0 70:0.035714298 71:0.0207792 72:0 73:0.693878 74:0.1233 75:0.0405 76:0.126 77:0.044 78:0.071199998 79:0.038800001 80:0.072899997 81:0.0436 82:0.062964797 83:0.062276099 84:0.0589206 85:0.055220298 86:0.051399998 87:0.048392199 88:0.046797901 89:0.047407001 90:0.0494744 91:0.052585699 92:0.0564516 93:0.059296299 94:0.061978299 95:0.064263202 96:0.066433303 97:0.069090903 
11.48271626640763 1:0.032467499 2:0.0194805 3:0.248052 4:0.18571401 5:0.190909 6:0.22142901 7:0.0116883 8:0.0038961 9:0.25324699 10:0.043506499 11:0.13571399 12:0.00064935099 13:0.033116899 14:0.018831201 15:0.0246753 16:0.0038961 17:0.0298701 18:0.34935099 19:0.077272698 20:0.182468 21:0.0045454502 22:0.079220802 23:0.074026003 24:0.066883102 25:0.108442 26:0.17142899 27:0.0246753 28:0.011039 29:0.123377 30:0.0123377 31:0.0207792 32:0.0318182 33:0.0097402604 34:0.19415601 35:0.0246753 36:0 37:0.142857 38:0.0512987 39:0.0064935102 40:0.103247 41:0.151948 42:0.087012999 43:0.13766199 44:0.012987 45:0.00324675 46:0.271429 47:0.047402602 48:0 49:0.0207792 50:0.037013002 51:0.0162338 52:0.00194805 53:0.178571 54:0.032467499 55:0.0636364 56:0.094805203 57:0.0116883 58:0.00064935099 59:0.0051948102 60:0.0012987 61:0.012987 62:0.15000001 63:0.0077922102 64:0 65:0.034415599 66:0.15454499 67:0.016883099 68:0.025974 69:0.0214286 70:0.023376601 71:0.050649401 72:0.0051948102 73:0.77083302 74:0.1797 75:0.098499998 76:0.1215 77:0.065899998 78:0.1073 79:0.0933 80:0.053599998 81:0.051199999 82:0.090563402 83:0.087701499 84:0.083634898 85:0.079754204 86:0.075654604 87:0.072725497 88:0.071638301 89:0.0721163 90:0.073794901 91:0.077200003 92:0.082112901 93:0.087925903 94:0.0935435 95:0.0993421 96:0.105267 97:0.112273 
0.9234746585651769 1:0.174026 2:0.0214286 3:0.43051901 4:0.70454502 5:0.19025999 6:0.602597 7:0.124026 8:0.023376601 9:0.40649399 10:0.148701 11:0.163636 12:0.00064935099 13:0.033766199 14:0.0298701 15:0.044155799 16:0 17:0.0194805 18:0.47986999 19:0.0103896 20:0.334416 21:0.0116883 22:0.170779 23:0.12013 24:0.26688299 25:0.083116896 26:0.174026 27:0.038311701 28:0.00064935099 29:0.22013 30:0.0935065 31:0.0422078 32:0.037662301 33:0.0207792 34:0.54026002 35:0.0207792 36:0.00064935099 37:0.35194799 38:0.106494 39:0.086363599 40:0.32922101 41:0.26039001 42:0.25064901 43:0.38116899 44:0.069480501 45:0.077272698 46:0.41883099 47:0.0064935102 48:0 49:0.0090909097 50:0.0266234 51:0.011039 52:0.00064935099 53:0.24675301 54:0.066233799 55:0.056493498 56:0.14350601 57:0.057142898 58:0 59:0.00324675 60:0.00064935099 61:0.0025974 62:0.291558 63:0 64:0.00194805 65:0.0064935102 66:0.436364 67:0.00324675 68:0.012987 69:0.016883099 70:0.128571 71:0.174675 72:0 73:0.744681 74:0.41229999 75:0.1417 76:0.18629999 77:0.1504 78:0.29460001 79:0.121 80:0.085500002 81:0.1203 82:0.112472 83:0.107351 84:0.100484 85:0.0922966 86:0.085363597 87:0.0809118 88:0.079648897 89:0.082476698 90:0.088961497 91:0.098457098 92:0.108952 93:0.11837 94:0.126978 95:0.133947 96:0.13896701 97:0.146955 
43.56157963892831 1:0.050649401 2:0.0720779 3:0.153247 4:0.183117 5:0.125974 6:0.30584401 7:0.0207792 8:0.016883099 9:0.14155801 10:0.0253247 11:0.089610398 12:0 13:0.00324675 14:0.0077922102 15:0.0142857 16:0 17:0.022077899 18:0.26883101 19:0.029220801 20:0.106494 21:0.0051948102 22:0.090259701 23:0.16688301 24:0.085714303 25:0.0844156 26:0.25714299 27:0.089610398 28:0.00064935099 29:0.074026003 30:0.0051948102 31:0.028571401 32:0.0090909097 33:0.00064935099 34:0.18961 35:0.0142857 36:0 37:0.196753 38:0.103247 39:0.0064935102 40:0.16688301 41:0.079220802 42:0.034415599 43:0.102597 44:0.0253247 45:0.0064935102 46:0.28441599 47:0.0149351 48:0.00324675 49:0.033766199 50:0.0194805 51:0.0123377 52:0.0012987 53:0.101948 54:0.0155844 55:0.079870097 56:0.126623 57:0.033116899 58:0.0025974 59:0.0090909097 60:0.0012987 61:0.0012987 62:0.086363599 63:0.00194805 64:0.0012987 65:0.0409091 66:0.31818199 67:0.012987 68:0.0311688 69:0.042857099 70:0.0149351 71:0.048051901 72:0.00064935099 73:0.847826 74:0.1648 75:0.066399999 76:0.1409 77:0.049600001 78:0.1111 79:0.075000003 80:0.052700002 81:0.078699999 82:0.072915502 83:0.0705299 84:0.066627003 85:0.062940702 86:0.058863599 87:0.055107798 88:0.0523936 89:0.051720899 90:0.0526154 91:0.055057101 92:0.058774199 93:0.063259304 94:0.067717403 95:0.071868397 96:0.075366698 97:0.079318203 
29.25849893686466 1:0.069480501 2:0.075324699 3:0.13116901 4:0.205844 5:0.18376601 6:0.26233801 7:0.035714298 8:0.0298701 9:0.137013 10:0.027272699 11:0.101299 12:0.00064935099 13:0.0097402604 14:0 15:0.0090909097 16:0.00064935099 17:0.0116883 18:0.27467501 19:0.0077922102 20:0.13116901 21:0.0194805 22:0.089610398 23:0.113636 24:0.14415599 25:0.057792202 26:0.21298701 27:0.120779 28:0.00064935099 29:0.097402602 30:0.0142857 31:0.038311701 32:0.0090909097 33:0.0077922102 34:0.27013001 35:0.0201299 36:0 37:0.184416 38:0.042857099 39:0.0201299 40:0.112338 41:0.0616883 42:0.075324699 43:0.096103899 44:0.0305195 45:0.049350601 46:0.38766199 47:0.0214286 48:0.0142857 49:0.0201299 50:0.0162338 51:0.00714286 52:0 53:0.085714303 54:0.0402597 55:0.10974 56:0.18181799 57:0.075324699 58:0.00064935099 59:0.0038961 60:0.00064935099 61:0 62:0.112338 63:0.00194805 64:0.0025974 65:0.0194805 66:0.33181801 67:0.0142857 68:0.029220801 69:0.027922099 70:0.0045454502 71:0.064935103 72:0.00064935099 73:0.80000001 74:0.1741 75:0.067000002 76:0.1382 77:0.070500001 78:0.1036 79:0.091300003 80:0.074900001 81:0.076300003 82:0.074204199 83:0.070723899 84:0.065880999 85:0.061211899 86:0.057145499 87:0.0537549 88:0.052000001 89:0.0529535 90:0.055987202 91:0.059757099 92:0.063645199 93:0.068685196 94:0.072347797 95:0.075710498 96:0.079733297 97:0.084227301 
6.043857611665445 1:0.118831 2:0.0162338 3:0.205844 4:0.43051901 5:0.061039001 6:0.377922 7:0.104545 8:0.0103896 9:0.186364 10:0.075324699 11:0.068831198 12:0 13:0.0194805 14:0.0103896 15:0.028571401 16:0.0025974 17:0.0090909097 18:0.31948099 19:0.027272699 20:0.134416 21:0.022727299 22:0.079220802 23:0.179221 24:0.246104 25:0.113636 26:0.23246799 27:0.079870097 28:0.0012987 29:0.12922101 30:0.039610401 31:0.0097402604 32:0.016883099 33:0.0077922102 34:0.32792199 35:0.00324675 36:0.00064935099 37:0.184416 38:0.055194799 39:0.064285703 40:0.20909099 41:0.045454498 42:0.060389601 43:0.17532501 44:0.0532468 45:0.038961001 46:0.36168799 47:0.0103896 48:0.00194805 49:0.022077899 50:0.0116883 51:0.00714286 52:0 53:0.113636 54:0.0246753 55:0.098701298 56:0.15974 57:0.108442 58:0.00064935099 59:0.0038961 60:0 61:0.0051948102 62:0.172727 63:0.0012987 64:0.00194805 65:0.0207792 66:0.443506 67:0.0253247 68:0.0077922102 69:0.0045454502 70:0.088960998 71:0.050000001 72:0 73:0.73333299 74:0.23280001 75:0.082199998 76:0.1717 77:0.082599998 78:0.1365 79:0.085199997 80:0.084799998 81:0.098999999 82:0.077063397 83:0.072238803 84:0.066174597 85:0.060313601 86:0.054945499 87:0.051490199 88:0.050819099 89:0.053034902 90:0.057935901 91:0.064528599 92:0.069145203 93:0.073703699 94:0.078543499 95:0.082315803 96:0.085766703 97:0.089954503 
16.00889904205696 1:0.0844156 2:0.0402597 3:0.32792199 4:0.51753199 5:0.29090899 6:0.56039 7:0.104545 8:0.035714298 9:0.332468 10:0.125974 11:0.176623 12:0 13:0.032467499 14:0.0149351 15:0.0149351 16:0.0038961 17:0.047402602 18:0.53571397 19:0.0162338 20:0.27207801 21:0.0064935102 22:0.28246799 23:0.118831 24:0.122727 25:0.107143 26:0.25844201 27:0.103247 28:0.00064935099 29:0.2 30:0.033766199 31:0.00584416 32:0.070129901 33:0.0194805 34:0.41948101 35:0.0246753 36:0 37:0.24480499 38:0.065584399 39:0.037662301 40:0.130519 41:0.314935 42:0.194805 43:0.207792 44:0.094805203 45:0.034415599 46:0.67402601 47:0.0090909097 48:0.00064935099 49:0.0077922102 50:0.044805199 51:0.011039 52:0 53:0.28051901 54:0.046753202 55:0.194805 56:0.44935101 57:0.14805201 58:0 59:0.00324675 60:0.0012987 61:0.00714286 62:0.231169 63:0.00194805 64:0 65:0.077922098 66:0.563636 67:0.00714286 68:0.00844156 69:0.064935103 70:0.069480501 71:0.151948 72:0 73:0.75 74:0.35330001 75:0.14659999 76:0.1983 77:0.1192 78:0.2041 79:0.1655 80:0.15970001 81:0.1453 82:0.099112697 83:0.094365701 84:0.087150797 85:0.078855902 86:0.070472702 87:0.0643529 88:0.0613617 89:0.062174398 90:0.066551298 91:0.073642902 92:0.081419401 93:0.0906111 94:0.099847801 95:0.107447 96:0.113767 97:0.121273 
32.10972171389543 1:0.027272699 2:0.083116896 3:0.28441599 4:0.114935 5:0.277922 6:0.39415601 7:0.0246753 8:0.055194799 9:0.22013 10:0.0077922102 11:0.144805 12:0 13:0.012987 14:0.024026001 15:0.016883099 16:0.00064935099 17:0.033766199 18:0.413636 19:0.036363602 20:0.126623 21:0.018831201 22:0.095454499 23:0.070129901 24:0.137013 25:0.061039001 26:0.193506 27:0.090909101 28:0.0012987 29:0.085064903 30:0.0136364 31:0.035064898 32:0.027272699 33:0.0077922102 34:0.33376601 35:0.0266234 36:0.00194805 37:0.22013 38:0.0727273 39:0.024026001 40:0.251948 41:0.098052002 42:0.092207797 43:0.183117 44:0.048701301 45:0.059090901 46:0.35324699 47:0.064285703 48:0 49:0.027922099 50:0.00714286 51:0.00714286 52:0 53:0.114935 54:0.033766199 55:0.050000001 56:0.19220801 57:0.035064898 58:0.00194805 59:0.00064935099 60:0 61:0 62:0.050000001 63:0.00194805 64:0.0136364 65:0.027922099 66:0.317532 67:0.00064935099 68:0.0162338 69:0.0201299 70:0.0051948102 71:0.096103899 72:0.00194805 73:0.89130402 74:0.2282 75:0.1008 76:0.1278 77:0.082000002 78:0.1617 79:0.093699999 80:0.051100001 81:0.076899998 82:0.085697196 83:0.083641797 84:0.080111101 85:0.075203396 86:0.069645502 87:0.064313702 88:0.061170202 89:0.059674401 90:0.0603333 91:0.063342899 92:0.068580598 93:0.0742222 94:0.079000004 95:0.083684199 96:0.088633299 97:0.093999997 
18.0273482750032 1:0.0266234 2:0.027922099 3:0.196753 4:0.187013 5:0.203247 6:0.39285699 7:0.0402597 8:0.034415599 9:0.194805 10:0.018181801 11:0.120779 12:0 13:0.0175325 14:0.0097402604 15:0.023376601 16:0.0025974 17:0.048051901 18:0.36298701 19:0.00714286 20:0.090259701 21:0.00064935099 22:0.14350601 23:0.115584 24:0.050000001 25:0.078571402 26:0.257792 27:0.066233799 28:0.00064935099 29:0.081818201 30:0.0051948102 31:0.0623377 32:0.032467499 33:0.00324675 34:0.313636 35:0.035714298 36:0.0051948102 37:0.18376601 38:0.064285703 39:0.0038961 40:0.192857 41:0.167532 42:0.034415599 43:0.18181799 44:0.071428597 45:0.0038961 46:0.35129899 47:0.0415584 48:0 49:0.0155844 50:0.00584416 51:0.0045454502 52:0.00064935099 53:0.123377 54:0.0012987 55:0.090909101 56:0.24480499 57:0.035714298 58:0 59:0 60:0 61:0 62:0.088311702 63:0.0012987 64:0 65:0.0532468 66:0.36363599 67:0.0012987 68:0.0077922102 69:0.0116883 70:0.0038961 71:0.0318182 72:0.00194805 73:0.875 74:0.2008 75:0.092900001 76:0.1247 77:0.0832 78:0.1392 79:0.083800003 80:0.071000002 81:0.073200002 82:0.086014099 83:0.084403001 84:0.080468297 85:0.076330498 86:0.071090899 87:0.066068597 88:0.061861701 89:0.0597791 90:0.060205098 91:0.062357102 92:0.065838702 93:0.070814803 94:0.076652199 95:0.082552597 96:0.087066703 97:0.091636397 
60 1:0.042857099 2:0.0422078 3:0.185065 4:0.237662 5:0.18766201 6:0.38831201 7:0.059740301 8:0.0298701 9:0.207792 10:0.0175325 11:0.111688 12:0 13:0.0194805 14:0.018831201 15:0.033766199 16:0.0025974 17:0.0636364 18:0.43961 19:0.0012987 20:0.138312 21:0.0077922102 22:0.25974 23:0.19025999 24:0.057792202 25:0.119481 26:0.28636399 27:0.075324699 28:0 29:0.079870097 30:0.0038961 31:0.0201299 32:0.018181801 33:0.0025974 34:0.348052 35:0.023376601 36:0 37:0.15454499 38:0.027272699 39:0.0038961 40:0.16103899 41:0.115584 42:0.0402597 43:0.16493499 44:0.082467496 45:0.00584416 46:0.44740301 47:0.050000001 48:0.00194805 49:0.00324675 50:0.0051948102 51:0.0045454502 52:0 53:0.116234 54:0.00324675 55:0.087012999 56:0.273377 57:0.028571401 58:0 59:0.0012987 60:0.0012987 61:0 62:0.0837662 63:0.00064935099 64:0.00064935099 65:0.0525974 66:0.38701299 67:0.0025974 68:0.0025974 69:0.0175325 70:0.0090909097 71:0.065584399 72:0 73:0.83673501 74:0.21269999 75:0.1089 76:0.175 77:0.076399997 78:0.1164 79:0.0973 80:0.073299997 81:0.082800001 82:0.090859197 83:0.089343302 84:0.085325398 85:0.079779699 86:0.073981799 87:0.068598002 88:0.064276598 89:0.062302299 90:0.062576897 91:0.064842902 92:0.069467701 93:0.075240701 94:0.080956496 95:0.086499996 96:0.091066703 97:0.096090898 
25.90498084553085 1:0.027272699 2:0.050000001 3:0.233766 4:0.18961 5:0.235065 6:0.38441601 7:0.037013002 8:0.046103898 9:0.220779 10:0.0253247 11:0.138961 12:0 13:0.018831201 14:0.0155844 15:0.0318182 16:0.0025974 17:0.044155799 18:0.51233798 19:0.027922099 20:0.122078 21:0.0207792 22:0.174026 23:0.109091 24:0.102597 25:0.105195 26:0.30000001 27:0.117532 28:0.0025974 29:0.079870097 30:0.0045454502 31:0.0415584 32:0.022077899 33:0.00584416 34:0.395455 35:0.032467499 36:0.00064935099 37:0.174026 38:0.044805199 39:0.018181801 40:0.191558 41:0.1 42:0.098701298 43:0.159091 44:0.060389601 45:0.0298701 46:0.413636 47:0.059740301 48:0.00064935099 49:0.0311688 50:0.0194805 51:0.0123377 52:0 53:0.102597 54:0.022727299 55:0.099350601 56:0.26103899 57:0.0616883 58:0 59:0.00194805 60:0 61:0 62:0.096103899 63:0 64:0.00064935099 65:0.033766199 66:0.348701 67:0.00324675 68:0.0090909097 69:0.0162338 70:0.0038961 71:0.050000001 72:0 73:0.8125 74:0.2193 75:0.1216 76:0.1662 77:0.090099998 78:0.13500001 79:0.102 80:0.0801 81:0.071699999 82:0.092429601 83:0.090328403 84:0.0850714 85:0.078703403 86:0.072527297 87:0.067382403 88:0.064127699 89:0.062790699 90:0.063205101 91:0.066485703 92:0.0723226 93:0.078444399 94:0.083673902 95:0.088684201 96:0.093466699 97:0.098727301 
39.10823026139477 1:0.039610401 2:0.0311688 3:0.18571401 4:0.27077901 5:0.18181799 6:0.42272699 7:0.0512987 8:0.039610401 9:0.20909099 10:0.036363602 11:0.109091 12:0 13:0.016883099 14:0.0051948102 15:0.0246753 16:0.00194805 17:0.0519481 18:0.45194799 19:0.0246753 20:0.187013 21:0.011039 22:0.077922098 23:0.16103899 24:0.107792 25:0.070779197 26:0.21948101 27:0.073376603 28:0 29:0.078571402 30:0.00194805 31:0.039610401 32:0.018181801 33:0.00844156 34:0.36753201 35:0.0207792 36:0 37:0.188961 38:0.0409091 39:0.0097402604 40:0.245455 41:0.088311702 42:0.0636364 43:0.134416 44:0.067532502 45:0.0311688 46:0.45194799 47:0.0422078 48:0.0045454502 49:0.0305195 50:0.0097402604 51:0.0038961 52:0 53:0.124675 54:0.022727299 55:0.133766 56:0.342208 57:0.068181798 58:0.00064935099 59:0.0097402604 60:0 61:0 62:0.079870097 63:0.00064935099 64:0 65:0.0519481 66:0.40974 67:0.00194805 68:0.0012987 69:0.0012987 70:0.0116883 71:0.0727273 72:0 73:0.79166698 74:0.22050001 75:0.1075 76:0.1437 77:0.082400002 78:0.134 79:0.1063 80:0.097800002 81:0.084799998 82:0.089901403 83:0.087477602 84:0.082650803 85:0.0764746 86:0.070563599 87:0.065392204 88:0.062127698 89:0.061558101 90:0.062897399 91:0.066742897 92:0.072112903 93:0.077592596 94:0.082999997 95:0.087605298 96:0.092333302 97:0.0966364 
21.79884824969179 1:0.0616883 2:0.0415584 3:0.21753199 4:0.41688299 5:0.213636 6:0.399351 7:0.059090901 8:0.037013002 9:0.25974 10:0.102597 11:0.183117 12:0 13:0.0051948102 14:0.0025974 15:0.0253247 16:0.0012987 17:0.0623377 18:0.51818198 19:0.0305195 20:0.348701 21:0.029220801 22:0.177922 23:0.140909 24:0.185065 25:0.092207797 26:0.287662 27:0.087012999 28:0.00064935099 29:0.112987 30:0.0253247 31:0.038311701 32:0.0097402604 33:0.012987 34:0.348701 35:0.0142857 36:0.00064935099 37:0.235714 38:0.033116899 39:0.027272699 40:0.19025999 41:0.095454499 42:0.174675 43:0.19220801 44:0.0162338 45:0.074026003 46:0.55454499 47:0.0305195 48:0 49:0.0415584 50:0.018181801 51:0.016883099 52:0.00064935099 53:0.15844201 54:0.0844156 55:0.101299 56:0.378571 57:0.090909101 58:0.0025974 59:0.0123377 60:0.00584416 61:0.0064935102 62:0.27857101 63:0.00714286 64:0 65:0.074026003 66:0.41428599 67:0.00714286 68:0.027272699 69:0.050649401 70:0.048701301 71:0.107143 72:0.0025974 73:0.75510198 74:0.26280001 75:0.13869999 76:0.2124 77:0.086800002 78:0.16 79:0.13940001 80:0.13609999 81:0.1127 82:0.098162003 83:0.093873098 84:0.087642901 85:0.080728799 86:0.073772699 87:0.068539202 88:0.066574499 89:0.067814 90:0.072461501 91:0.079442903 92:0.087145202 93:0.094370402 94:0.100935 95:0.106553 96:0.110467 97:0.1155 
1.845065257436308 1:0.20064899 2:0.0175325 3:0.37013 4:0.79740298 5:0.107143 6:0.78701299 7:0.170779 8:0.016883099 9:0.377922 10:0.15454499 11:0.077272698 12:0 13:0.00584416 14:0.00714286 15:0.0051948102 16:0.00064935099 17:0.044155799 18:0.58896101 19:0.0103896 20:0.46103901 21:0.0064935102 22:0.185065 23:0.077922098 24:0.44935101 25:0.16688301 26:0.315584 27:0.103896 28:0 29:0.153896 30:0.121429 31:0.028571401 32:0.0038961 33:0.018831201 34:0.54610401 35:0.027922099 36:0.00324675 37:0.21039 38:0.033116899 39:0.178571 40:0.346753 41:0.085064903 42:0.30194801 43:0.31623399 44:0.033116899 45:0.15844201 46:0.64090902 47:0.0253247 48:0.00194805 49:0.037662301 50:0.044155799 51:0.0253247 52:0.00064935099 53:0.176623 54:0.114286 55:0.218831 56:0.478571 57:0.183117 58:0 59:0.00844156 60:0 61:0.018181801 62:0.383766 63:0.00194805 64:0.0038961 65:0.061039001 66:0.718831 67:0.054545499 68:0.0253247 69:0.057792202 70:0.153896 71:0.15454499 72:0 73:0.71428603 74:0.4382 75:0.13609999 76:0.27360001 77:0.1392 78:0.25619999 79:0.16429999 80:0.1991 81:0.1894 82:0.117155 83:0.111388 84:0.102413 85:0.091728799 86:0.081872702 87:0.0752647 88:0.074234001 89:0.079395302 90:0.088987201 91:0.101043 92:0.112161 93:0.119167 94:0.123935 95:0.128447 96:0.13259999 97:0.13950001 
60 1:0.027272699 2:0.018831201 3:0.17013 4:0.14350601 5:0.0935065 6:0.242208 7:0.0103896 8:0.0051948102 9:0.15000001 10:0.028571401 11:0.0636364 12:0.00194805 13:0.0097402604 14:0.0051948102 15:0.012987 16:0 17:0.065584399 18:0.197403 19:0.066233799 20:0.116883 21:0.0025974 22:0.193506 23:0.102597 24:0.032467499 25:0.070129901 26:0.170779 27:0.038311701 28:0.0025974 29:0.056493498 30:0.00324675 31:0.0155844 32:0.012987 33:0.0123377 34:0.16493499 35:0.0142857 36:0 37:0.064285703 38:0.0402597 39:0.0038961 40:0.033116899 41:0.061039001 42:0.012987 43:0.104545 44:0.018181801 45:0.0025974 46:0.18831199 47:0.022727299 48:0 49:0.0012987 50:0.0162338 51:0.00844156 52:0.00064935099 53:0.0720779 54:0.0103896 55:0.058441602 56:0.116883 57:0.00714286 58:0 59:0.0038961 60:0.00194805 61:0.00064935099 62:0.0935065 63:0.00324675 64:0 65:0.028571401 66:0.115584 67:0.0051948102 68:0.0090909097 69:0.0149351 70:0.0090909097 71:0.035064898 72:0.00064935099 73:0.8125 74:0.13259999 75:0.059300002 76:0.1222 77:0.043499999 78:0.052499998 79:0.0493 80:0.044 81:0.033599999 82:0.070316903 83:0.069298498 84:0.066714302 85:0.063677996 86:0.060363598 87:0.057529401 88:0.055606399 89:0.054755799 90:0.055589698 91:0.057542901 92:0.0602419 93:0.064074099 94:0.068412997 95:0.072026297 96:0.075099997 97:0.079181798 
0.8783261629021589 1:0.48246801 2:0.087012999 3:0.82857102 4:1.39935 5:0.248052 6:1.43117 7:0.318831 8:0.101299 9:0.74026 10:0.30779201 11:0.28896099 12:0 13:0.066233799 14:0.0155844 15:0.0928571 16:0.00324675 17:0.120779 18:1.4013 19:0.00844156 20:0.79026002 21:0.00064935099 22:0.313636 23:0.17727301 24:0.45129901 25:0.44545501 26:1.09416 27:0.429221 28:0 29:0.45779201 30:0.223377 31:0.17142899 32:0.022727299 33:0.0519481 34:1.4026 35:0.124026 36:0 37:0.81428599 38:0.194805 39:0.35194799 40:0.93961 41:0.23441599 42:0.83376598 43:0.718831 44:0.112987 45:0.307143 46:1.23571 47:0.054545499 48:0.00324675 49:0.046103898 50:0.0298701 51:0.059740301 52:0 53:0.395455 54:0.20909099 55:0.30259699 56:0.64155799 57:0.22792201 58:0 59:0.0051948102 60:0.00064935099 61:0.00064935099 62:0.72142899 63:0.0025974 64:0.00064935099 65:0.133766 66:1.29805 67:0.10974 68:0.048701301 69:0.107792 70:0.255844 71:0.32727301 72:0 73:0.71739101 74:0.86809999 75:0.35370001 76:0.57139999 77:0.3779 78:0.69419998 79:0.3132 80:0.29300001 81:0.35139999 82:0.16313399 83:0.151067 84:0.13319001 85:0.110814 86:0.0900364 87:0.076009803 88:0.0727553 89:0.080302298 90:0.096923098 91:0.118271 92:0.138597 93:0.153907 94:0.162957 95:0.169947 96:0.175567 97:0.184273 
0.289881012382447 1:0.27662301 2:0.070129901 3:0.653247 4:1.66883 5:0.037662301 6:1.70649 7:0.563636 8:0.079870097 9:0.848701 10:0.346104 11:0.088311702 12:0.497403 13:0.070779197 14:0.0162338 15:0.114935 16:0.0038961 17:0.71168798 18:0.97402602 19:0.177922 20:0.59026003 21:0.273377 22:0.33896101 23:0.240909 24:0.0103896 25:0.66688299 26:1.05519 27:0.17142899 28:0.118182 29:0.33961001 30:0.1 31:0.0246753 32:0.14415599 33:0.0038961 34:1.34156 35:0.0051948102 36:0.106494 37:0.42532501 38:0.336364 39:0.0305195 40:0.67987001 41:1.4487 42:0.033766199 43:0.777273 44:0.519481 45:0.032467499 46:0.55064899 47:0.22013 48:0.066233799 49:0.043506499 50:0.022077899 51:0.0064935102 52:0 53:0.52467501 54:0 55:0.66493499 56:0.97727299 57:0.20519499 58:0 59:0.00194805 60:0.0207792 61:0.102597 62:0.47597399 63:0 64:0.26688299 65:0.51818198 66:0.42272699 67:0.00714286 68:0.0077922102 69:0.20974 70:0.48246801 71:0.070129901 72:0 73:0.80000001 74:0.90939999 75:0.4348 76:0.54290003 77:0.33629999 78:0.65969998 79:0.2208 80:0.37709999 81:0.3057 82:0.165627 83:0.153313 84:0.13734099 85:0.122754 86:0.112455 87:0.108304 88:0.109638 89:0.114407 90:0.117987 91:0.120229 92:0.119274 93:0.120963 94:0.127239 95:0.138 96:0.15316699 97:0.17131799 
0.06568975300808148 1:0.26298699 2:0.19220801 3:0.72207803 4:0.82272702 5:0.98116899 6:1.78506 7:0.247403 8:0.59350699 9:1.31883 10:0.068831198 11:0.45389599 12:0.344805 13:0.061039001 14:0.107792 15:0.016883099 16:0.027272699 17:0.077922098 18:1.22727 19:0.155844 20:0.62727302 21:0.285714 22:0.57077903 23:0.107143 24:0.107792 25:0.101299 26:0.291558 27:0.15000001 28:0.371429 29:0.271429 30:0.080519497 31:0.089610398 32:0.16493499 33:0.050649401 34:1.19221 35:0.067532502 36:0.0266234 37:0.55259699 38:0.243506 39:0.099350601 40:1.2558399 41:1.1013 42:0.45649299 43:1.39675 44:0.45584401 45:0.277922 46:0.40844199 47:0.376623 48:0.090259701 49:0.120779 50:0.00064935099 51:0.0051948102 52:0 53:0.44870099 54:0.0422078 55:0.165584 56:1.2590899 57:0.0519481 58:0.0012987 59:0.00064935099 60:0.0012987 61:0 62:0.56103897 63:0 64:0.30064899 65:0.18376601 66:0.42142901 67:0.0123377 68:0.0149351 69:0.23181801 70:0.0616883 71:0.54285699 72:0 73:0.91666698 74:1.0666 75:0.36739999 76:0.36919999 77:0.3565 78:0.89929998 79:0.2299 80:0.3143 81:0.27250001 82:0.16316199 83:0.157619 84:0.152079 85:0.147737 86:0.140891 87:0.127373 88:0.109245 89:0.092651203 90:0.084025599 91:0.0875571 92:0.104855 93:0.131852 94:0.156891 95:0.1745 96:0.184433 97:0.194545 
24.27208918282613 1:0.124675 2:0.0318182 3:0.42467499 4:0.55454499 5:0.19870099 6:0.59415603 7:0.094805203 8:0.0246753 9:0.41688299 10:0.12727299 11:0.161688 12:0.0025974 13:0.079870097 14:0.056493498 15:0.060389601 16:0.0038961 17:0.034415599 18:0.53766203 19:0.022077899 20:0.24026 21:0.00324675 22:0.229221 23:0.17727301 24:0.19870099 25:0.086363599 26:0.18831199 27:0.086363599 28:0.00194805 29:0.213636 30:0.044155799 31:0.0175325 32:0.0519481 33:0.0155844 34:0.41038999 35:0.016883099 36:0 37:0.32207799 38:0.047402602 39:0.049350601 40:0.151299 41:0.254545 42:0.165584 43:0.214935 44:0.090909101 45:0.071428597 46:0.48506501 47:0.00844156 48:0.0012987 49:0.0142857 50:0.0298701 51:0.0162338 52:0 53:0.26753199 54:0.034415599 55:0.098701298 56:0.19220801 57:0.033766199 58:0 59:0.0025974 60:0.00064935099 61:0.0012987 62:0.16688301 63:0.00064935099 64:0.00324675 65:0.034415599 66:0.41493499 67:0.0077922102 68:0.0318182 69:0.069480501 70:0.068831198 71:0.15649299 72:0 73:0.765957 74:0.37959999 75:0.1639 76:0.18970001 77:0.1189 78:0.2106 79:0.132 80:0.076499999 81:0.1212 82:0.110359 83:0.105545 84:0.098531701 85:0.0912119 86:0.085218199 87:0.080843098 88:0.078446798 89:0.079244196 90:0.0836154 91:0.091371402 92:0.100419 93:0.108741 94:0.116413 95:0.124132 96:0.13133299 97:0.139273 
6.890662810582063 1:0.055844199 2:0.059740301 3:0.399351 4:0.34350601 5:0.35129899 6:0.53246802 7:0.075974002 8:0.045454498 9:0.381818 10:0.0616883 11:0.222078 12:0 13:0.0194805 14:0.0266234 15:0.034415599 16:0 17:0.042857099 18:0.57142901 19:0.057142898 20:0.216883 21:0.0123377 22:0.273377 23:0.186364 24:0.170779 25:0.155195 26:0.23831201 27:0.075974002 28:0.0025974 29:0.168182 30:0.0207792 31:0.0116883 32:0.029220801 33:0.0051948102 34:0.40064901 35:0.032467499 36:0 37:0.24480499 38:0.066233799 39:0.032467499 40:0.155195 41:0.26168799 42:0.079220802 43:0.184416 44:0.050000001 45:0.028571401 46:0.45909101 47:0.035714298 48:0 49:0.012987 50:0.0246753 51:0.0123377 52:0 53:0.26623401 54:0.050000001 55:0.077922098 56:0.20259701 57:0.034415599 58:0.00064935099 59:0 60:0 61:0.0025974 62:0.184416 63:0.0064935102 64:0 65:0.044805199 66:0.34545499 67:0.00714286 68:0.0246753 69:0.023376601 70:0.036363602 71:0.147403 72:0.0045454502 73:0.78723401 74:0.34580001 75:0.1507 76:0.21349999 77:0.1033 78:0.1698 79:0.13259999 80:0.078400001 81:0.097599998 82:0.086760603 83:0.081164204 84:0.074460298 85:0.067661002 86:0.060600001 87:0.055313699 88:0.052691501 89:0.053058099 90:0.056384601 91:0.062185701 92:0.069096804 93:0.076333299 94:0.083847798 95:0.091342099 96:0.099299997 97:0.107545 
24.4187102294345 1:0.167532 2:0.068181798 3:0.50259697 4:0.67662299 5:0.33376601 6:0.78246802 7:0.123377 8:0.046753202 9:0.48506501 10:0.14350601 11:0.25129899 12:0 13:0.0415584 14:0.046753202 15:0.0246753 16:0.0025974 17:0.068831198 18:0.726623 19:0.0305195 20:0.32922101 21:0.0077922102 22:0.405195 23:0.36039001 24:0.399351 25:0.190909 26:0.30194801 27:0.167532 28:0.00064935099 29:0.315584 30:0.054545499 31:0.00714286 32:0.027272699 33:0.0045454502 34:0.61298698 35:0.022077899 36:0.00194805 37:0.37532499 38:0.122727 39:0.099350601 40:0.123377 41:0.29545501 42:0.081818201 43:0.29675299 44:0.091558397 45:0.081168801 46:0.651299 47:0.00584416 48:0.00064935099 49:0.00584416 50:0.0253247 51:0.00324675 52:0.00064935099 53:0.32207799 54:0.0727273 55:0.085064903 56:0.229221 57:0.0616883 58:0.00064935099 59:0.0012987 60:0.00064935099 61:0 62:0.277922 63:0 64:0.00064935099 65:0.022077899 66:0.58051902 67:0.048051901 68:0.0616883 69:0.027922099 70:0.122727 71:0.245455 72:0 73:0.744681 74:0.49070001 75:0.20110001 76:0.33770001 77:0.1612 78:0.2414 79:0.1675 80:0.1011 81:0.1708 82:0.0963521 83:0.089074597 84:0.079904802 85:0.069288097 86:0.0596455 87:0.0532059 88:0.051180899 89:0.053755801 90:0.059487201 91:0.0682 92:0.0792742 93:0.092055596 94:0.104087 95:0.112711 96:0.120167 97:0.128773 
21.01409966414158 1:0.048701301 2:0.066233799 3:0.20064899 4:0.21753199 5:0.161688 6:0.372078 7:0.023376601 8:0.057142898 9:0.174026 10:0.046103898 11:0.105844 12:0.00064935099 13:0.0103896 14:0.0201299 15:0 16:0.0012987 17:0.033116899 18:0.29025999 19:0.094155803 20:0.126623 21:0.0064935102 22:0.185065 23:0.090259701 24:0.060389601 25:0.074675299 26:0.120779 27:0.0512987 28:0.0025974 29:0.12013 30:0.0175325 31:0.00584416 32:0.0253247 33:0.00714286 34:0.212338 35:0.018181801 36:0 37:0.16493499 38:0.045454498 39:0.0175325 40:0.165584 41:0.151299 42:0.101948 43:0.124675 44:0.048701301 45:0.022727299 46:0.26688299 47:0.00194805 48:0.00064935099 49:0.044155799 50:0.068831198 51:0.025974 52:0.0012987 53:0.094805203 54:0.018831201 55:0.0512987 56:0.105844 57:0.029220801 58:0.00064935099 59:0.0123377 60:0.0025974 61:0 62:0.083116896 63:0.00064935099 64:0 65:0.042857099 66:0.229221 67:0.044805199 68:0.077272698 69:0.035064898 70:0.0116883 71:0.065584399 72:0.00064935099 73:0.82978702 74:0.2035 75:0.078199998 76:0.1247 77:0.063000001 78:0.12980001 79:0.080600001 80:0.044 81:0.078100003 82:0.107099 83:0.105112 84:0.101333 85:0.097161002 86:0.093018197 87:0.089500003 88:0.087159596 89:0.086895302 90:0.088910297 91:0.092614301 92:0.097596802 93:0.103556 94:0.109587 95:0.115447 96:0.121433 97:0.129136 
3.472887569620392 1:0.38701299 2:0.064935103 3:0.51038998 4:0.94870102 5:0.16298699 6:0.66753203 7:0.21298701 8:0.0318182 9:0.36363599 10:0.175974 11:0.2 12:0 13:0.0318182 14:0.0123377 15:0.0123377 16:0.0097402604 17:0.012987 18:0.51558399 19:0.0097402604 20:0.25064901 21:0.0246753 22:0.216234 23:0.30584401 24:0.21039 25:0.19220801 26:0.30064899 27:0.153247 28:0 29:0.342208 30:0.080519497 31:0.037013002 32:0.018831201 33:0.038311701 34:0.53051901 35:0.00584416 36:0.0051948102 37:0.405195 38:0.18961 39:0.14610399 40:0.176623 41:0.182468 42:0.32272699 43:0.32142901 44:0.046103898 45:0.101299 46:0.403896 47:0.018831201 48:0.0025974 49:0.00324675 50:0.0175325 51:0.0155844 52:0 53:0.244156 54:0.075324699 55:0.071428597 56:0.098052002 57:0.070129901 58:0.0012987 59:0.0064935102 60:0 61:0.0012987 62:0.36883101 63:0.00064935099 64:0.024026001 65:0.0090909097 66:0.54935098 67:0.037662301 68:0.024026001 69:0.0103896 70:0.186364 71:0.150649 72:0 73:0.71739101 74:0.51590002 75:0.1495 76:0.25619999 77:0.163 78:0.2913 79:0.1203 80:0.095200002 81:0.15270001 82:0.101711 83:0.093544804 84:0.083730198 85:0.075389802 86:0.069272697 87:0.066156901 88:0.066936202 89:0.072034903 90:0.080769204 91:0.092071399 92:0.102645 93:0.111648 94:0.12013 95:0.12765799 96:0.13313299 97:0.138364 
21.02020269893647 1:0.168182 2:0.124675 3:0.38831201 4:0.60519499 5:0.39415601 6:0.57922101 7:0.122727 8:0.068181798 9:0.36363599 10:0.060389601 11:0.187013 12:0.00064935099 13:0.0149351 14:0.0025974 15:0.0142857 16:0.0051948102 17:0.0103896 18:0.43051901 19:0.0077922102 20:0.208442 21:0.037013002 22:0.17727301 23:0.140909 24:0.191558 25:0.161688 26:0.31039 27:0.101299 28:0 29:0.29025999 30:0.081168801 31:0.057792202 32:0.0194805 33:0.0266234 34:0.55064899 35:0.0305195 36:0.0012987 37:0.29740301 38:0.103247 39:0.124026 40:0.40974 41:0.196753 42:0.33376601 43:0.34155801 44:0.055194799 45:0.098701298 46:0.47337699 47:0.022077899 48:0.0038961 49:0.029220801 50:0.0623377 51:0.0155844 52:0 53:0.182468 54:0.088960998 55:0.114286 56:0.197403 57:0.115584 58:0 59:0.0051948102 60:0 61:0.00064935099 62:0.279221 63:0.00194805 64:0.0064935102 65:0.0175325 66:0.51103902 67:0.0266234 68:0.0149351 69:0.00584416 70:0.087012999 71:0.180519 72:0 73:0.72916698 74:0.43340001 75:0.1118 76:0.2058 77:0.1629 78:0.3019 79:0.13519999 80:0.11 81:0.1309 82:0.100085 83:0.094358198 84:0.086047597 85:0.077610202 86:0.069499999 87:0.063960798 88:0.062776603 89:0.065720901 90:0.071897402 91:0.080328599 92:0.090387098 93:0.100852 94:0.108804 95:0.116316 96:0.122933 97:0.130136 
0.7029957311691903 1:0.45584401 2:0.074026003 3:0.64155799 4:1.54545 5:0.032467499 6:0.70454502 7:0.494156 8:0.103247 9:0.73831201 10:0.40974 11:0.087662302 12:0 13:0.111688 14:0.0077922102 15:0.63246799 16:0.0051948102 17:0.625974 18:0.69999999 19:0.062987 20:0.38896099 21:0.0012987 22:0.0720779 23:0.62987 24:0.54285699 25:0.309091 26:0.521429 27:0.027272699 28:0 29:0.41883099 30:0.0090909097 31:0.0298701 32:0.0928571 33:0.027922099 34:0.936364 35:0.0116883 36:0.00064935099 37:0.66753203 38:0.43766201 39:0.00324675 40:0.87272698 41:1.1539 42:0.011039 43:0.66688299 44:0.47986999 45:0 46:0.996104 47:0.0409091 48:0.0025974 49:0.077922098 50:0.0727273 51:0.0038961 52:0 53:0.443506 54:0.0090909097 55:0.34026 56:0.60389602 57:0.0207792 58:0.0012987 59:0 60:0.046103898 61:0.0636364 62:0.36233801 63:0 64:0.0012987 65:0.478571 66:0.93571401 67:0.038311701 68:0.0038961 69:0.97792202 70:0.38311699 71:0.048701301 72:0 73:0.88888901 74:0.73760003 75:0.39739999 76:0.39359999 77:0.2352 78:0.66109997 79:0.2536 80:0.22149999 81:0.44159999 82:0.214655 83:0.207343 84:0.194619 85:0.18099201 86:0.169718 87:0.164343 88:0.165819 89:0.17103501 90:0.175308 91:0.176871 92:0.17670999 93:0.180204 94:0.18847799 95:0.200737 96:0.21690001 97:0.23468199 
7.564651620486273 1:0.16298699 2:0.0415584 3:0.30000001 4:0.70779198 5:0.174675 6:0.58766198 7:0.172078 8:0.0305195 9:0.318831 10:0.102597 11:0.15649299 12:0.00324675 13:0.022727299 14:0.0266234 15:0.047402602 16:0.00324675 17:0.0525974 18:0.57467502 19:0.0116883 20:0.366234 21:0.0064935102 22:0.237013 23:0.223377 24:0.30194801 25:0.29870099 26:0.39350599 27:0.16688301 28:0 29:0.23831201 30:0.090909101 31:0.0116883 32:0.0103896 33:0.0136364 34:0.61883098 35:0.050649401 36:0.0012987 37:0.26103899 38:0.0623377 39:0.13116901 40:0.230519 41:0.125974 42:0.23246799 43:0.29090899 44:0.075974002 45:0.073376603 46:0.46103901 47:0.0097402604 48:0.0038961 49:0.0402597 50:0.0298701 51:0.0207792 52:0 53:0.203247 54:0.0512987 55:0.145455 56:0.36558399 57:0.136364 58:0 59:0.0012987 60:0.00064935099 61:0.00714286 62:0.318831 63:0 64:0.00064935099 65:0.0266234 66:0.60714298 67:0.0207792 68:0.0103896 69:0.00844156 70:0.13571399 71:0.153896 72:0 73:0.693878 74:0.38440001 75:0.1524 76:0.3089 77:0.1595 78:0.22849999 79:0.12630001 80:0.15019999 81:0.14839999 82:0.0907465 83:0.083806001 84:0.075055599 85:0.0663983 86:0.0577727 87:0.051460799 88:0.049393602 89:0.052313998 90:0.059525602 91:0.069399998 92:0.080225803 93:0.089537002 94:0.095739096 95:0.100868 96:0.1063 97:0.111636 
27.19175343821238 1:0.0837662 2:0.081818201 3:0.29350701 4:0.496104 5:0.432468 6:0.58246797 7:0.120779 8:0.075974002 9:0.41818199 10:0.0837662 11:0.30454499 12:0 13:0.0253247 14:0.036363602 15:0.088960998 16:0.0025974 17:0.049350601 18:0.67597401 19:0.0097402604 20:0.28701299 21:0.023376601 22:0.242208 23:0.243506 24:0.34935099 25:0.192857 26:0.40844199 27:0.20714299 28:0 29:0.193506 30:0.0311688 31:0.0207792 32:0.0142857 33:0.0077922102 34:0.50259697 35:0.0149351 36:0 37:0.31168801 38:0.087662302 39:0.098052002 40:0.29545501 41:0.24480499 42:0.137013 43:0.29415599 44:0.104545 45:0.059090901 46:0.76883101 47:0.0525974 48:0.0038961 49:0.029220801 50:0.029220801 51:0.00714286 52:0 53:0.28701299 54:0.070779197 55:0.192857 56:0.45259699 57:0.16883101 58:0 59:0.0038961 60:0 61:0.00064935099 62:0.24480499 63:0.00064935099 64:0.0012987 65:0.048051901 66:0.57662302 67:0.0077922102 68:0.036363602 69:0.0142857 70:0.047402602 71:0.16948099 72:0.0012987 73:0.734694 74:0.39809999 75:0.19509999 76:0.30239999 77:0.1209 78:0.25139999 79:0.19230001 80:0.1639 81:0.139 82:0.099232398 83:0.092716403 84:0.083738104 85:0.073101699 86:0.064190902 87:0.057558801 88:0.054436199 89:0.0554884 90:0.060448699 91:0.068828598 92:0.078967698 93:0.087055601 94:0.096282601 95:0.106395 96:0.114567 97:0.122273 
4.057053642843154 1:0.152597 2:0.032467499 3:0.42272699 4:0.79480499 5:0.14155801 6:0.844805 7:0.157792 8:0.045454498 9:0.45064899 10:0.17013 11:0.157792 12:0 13:0.073376603 14:0.033766199 15:0.0311688 16:0.00584416 17:0.034415599 18:0.70519501 19:0.0298701 20:0.31818199 21:0.027922099 22:0.120779 23:0.17532501 24:0.30779201 25:0.193506 26:0.354545 27:0.0928571 28:0.00064935099 29:0.205844 30:0.039610401 31:0.037013002 32:0.058441602 33:0.0116883 34:0.472078 35:0.0512987 36:0.0012987 37:0.27467501 38:0.060389601 39:0.077272698 40:0.34026 41:0.25324699 42:0.21558399 43:0.24480499 44:0.096753202 45:0.121429 46:0.67532498 47:0.012987 48:0.00324675 49:0.0311688 50:0.0103896 51:0.00194805 52:0 53:0.248052 54:0.071428597 55:0.27662301 56:0.525325 57:0.130519 58:0 59:0.0025974 60:0 61:0.0077922102 62:0.32727301 63:0.00064935099 64:0.0012987 65:0.0409091 66:0.62662297 67:0.0311688 68:0.0090909097 69:0.057142898 70:0.14415599 71:0.157143 72:0 73:0.6875 74:0.4686 75:0.1866 76:0.24959999 77:0.13519999 78:0.25940001 79:0.16240001 80:0.1957 81:0.1644 82:0.108585 83:0.102507 84:0.092642903 85:0.083110198 86:0.074218199 87:0.066833302 88:0.063031897 89:0.065407 90:0.073025599 91:0.083842903 92:0.0944677 93:0.102815 94:0.110587 95:0.117421 96:0.122967 97:0.129545 
3.78557535696868 1:0.059090901 2:0.0512987 3:0.107792 4:0.167532 5:0.155195 6:0.320779 7:0.0253247 8:0.018181801 9:0.14026 10:0.022077899 11:0.066883102 12:0 13:0.0038961 14:0.00324675 15:0.022077899 16:0.00064935099 17:0.046753202 18:0.248052 19:0.0155844 20:0.121429 21:0.0116883 22:0.16688301 23:0.177922 24:0.124675 25:0.091558397 26:0.27402601 27:0.088960998 28:0.0012987 29:0.043506499 30:0 31:0.018181801 32:0.0097402604 33:0.00064935099 34:0.247403 35:0.024026001 36:0 37:0.13961001 38:0.036363602 39:0.00194805 40:0.107792 41:0.0512987 42:0.00844156 43:0.111039 44:0.0318182 45:0.00584416 46:0.31623399 47:0.0038961 48:0.00324675 49:0.0097402604 50:0.0305195 51:0.0038961 52:0 53:0.096753202 54:0.0045454502 55:0.088960998 56:0.185065 57:0.054545499 58:0.00064935099 59:0.0045454502 60:0.00064935099 61:0.0025974 62:0.088960998 63:0.00324675 64:0.0045454502 65:0.037662301 66:0.34155801 67:0.0090909097 68:0.018181801 69:0.0175325 70:0.0097402604 71:0.046103898 72:0.00064935099 73:0.82978702 74:0.161 75:0.063699998 76:0.1652 77:0.053100001 78:0.076099999 79:0.0722 80:0.066100001 81:0.074699998 82:0.0719155 83:0.070096999 84:0.066388898 85:0.0619407 86:0.057627302 87:0.0535294 88:0.050595701 89:0.049651202 90:0.050884601 91:0.053471401 92:0.056903198 93:0.0603889 94:0.064608701 95:0.068894699 96:0.073333301 97:0.0774545 
3.199768536543554 1:0.074026003 2:0.070779197 3:0.157792 4:0.184416 5:0.17337701 6:0.29350701 7:0.0246753 8:0.018831201 9:0.177922 10:0.0214286 11:0.087012999 12:0 13:0.0038961 14:0 15:0.018831201 16:0 17:0.0207792 18:0.218831 19:0.064285703 20:0.0844156 21:0.00584416 22:0.13766199 23:0.255844 24:0.082467496 25:0.1 26:0.24480499 27:0.085064903 28:0 29:0.058441602 30:0.0012987 31:0.016883099 32:0 33:0 34:0.205844 35:0.0305195 36:0 37:0.0928571 38:0.079220802 39:0.0012987 40:0.142857 41:0.0214286 42:0.0103896 43:0.089610398 44:0.039610401 45:0.0149351 46:0.28441599 47:0.0025974 48:0.00194805 49:0.0246753 50:0.0077922102 51:0.00584416 52:0 53:0.074026003 54:0.0077922102 55:0.073376603 56:0.152597 57:0.0525974 58:0.00194805 59:0.0064935102 60:0.0090909097 61:0 62:0.085064903 63:0.0012987 64:0 65:0.061039001 66:0.291558 67:0.0201299 68:0.0298701 69:0.048701301 70:0.0136364 71:0.059740301 72:0 73:0.85106403 74:0.18099999 75:0.057100002 76:0.16329999 77:0.0482 78:0.075800002 79:0.063000001 80:0.058899999 81:0.080799997 82:0.070133798 83:0.068291001 84:0.064888902 85:0.061008502 86:0.057300001 87:0.053078402 88:0.0500319 89:0.0484186 90:0.048987199 91:0.051571399 92:0.055435501 93:0.0597593 94:0.0643043 95:0.068499997 96:0.072166704 97:0.077272698 
