svm_type c_svc
kernel_type rbf
gamma 0.0078125
nr_class 2
total_sv 214
rho 0.00292042
label 1 0
nr_sv 107 107
SV
0.03125 1:0.228571 2:0.41791 3:0.19403 4:0.54386 5:0.692308 6:0.342466 7:0.259259 8:0.574468 9:0.216216 10:0.458333 11:0.953125 12:0.611111 13:0.203125 14:0.333333 15:0.214286 16:0.378378 17:0.676056 18:0.623853 19:0.181818 20:0.45283 21:0.577778 22:0.72093 23:0.615385 24:0.325581 25:0.0891089 26:0.52439 27:0.358974 28:0.602941 29:0.461538 30:0.352273 31:0.297297 32:0.794118 33:0.44186 34:0.612245 35:0.666667 36:0.638554 37:0.785714 38:0.421053 39:0.55102 40:0.634146 41:0.709677 42:0.791209 43:0.0571429 44:0.123077 45:0.410256 46:0.45 47:0.845238 48:0.808989 49:0.333333 50:0.255319 51:0.404255 52:0.777778 53:1 54:0.725 55:0.161765 56:0.389831 57:0.777778 58:0.907692 59:0.674419 60:0.25 61:0.10101 62:0.52 63:0.780488 64:0.784314 65:0.842105 66:0.54717 67:0.352941 68:0.27381 69:0.355932 70:0.576271 71:0.6 72:0.45679 73:0.756098 74:0.333333 75:0.438596 76:0.603774 77:0.660714 78:0.816092 79:0.307692 80:0.321429 81:0.365385 82:0.444444 83:0.8625 84:0.724771 85:0.28125 86:0.4 87:0.481481 88:0.657895 89:0.811321 90:0.662162 91:0.313725 92:0.54902 93:1 94:0.87931 95:0.612245 96:0.186441 97:0.287356 98:0.578947 99:1 100:0.857143 101:0.662162 102:0.586957 103:0.72619 104:0.515625 105:0.395833 106:0.466667 107:0.387097 108:0.304348 109:0.636364 110:0.517857 111:0.188679 112:0.473684 113:0.795918 114:0.683544 115:0.857143 116:0.705882 117:0.140625 118:0.458333 119:0.954545 120:0.88 121:1 122:0.363636 123:0.305085 124:0.320755 125:0.647059 126:0.851852 127:0.910256 128:0.66 129:0.710526 130:0.707317 131:0.416667 132:0.653061 133:0.655556 134:0.506173 135:0.472222 136:0.666667 137:0.5 138:0.560976 139:0.607143 140:0.382979 141:0.69697 142:0.589744 143:0.4 144:0.859649 145:0.626506 146:0.395349 147:0.5 148:0.418605 149:0.710526 150:0.797297 151:0.606742 152:0.432432 153:0.202899 154:0.404762 155:0.9375 156:1 157:0.445783 158:0.266667 159:0.377778 160:0.217391 161:0.788462 162:0.852273 163:0.436364 164:0.220588 165:0.444444 166:0.75 167:0.681818 168:0.688525 169:0.435484 170:0.153846 171:0.313725 172:0.611111 173:0.708333 174:0.571429 175:0.211268 176:0.277778 177:0.611111 178:0.523077 179:0.515625 180:0.657143 181:0.618421 182:0.637681 183:0.482759 184:0.606557 185:0.5 186:0.623762 187:0.285714 188:0.372881 189:0.54 190:0.7 191:0.862745 192:0.726415 193:0.581395 194:0.704545 195:0.292308 196:0.422222 197:0.779661 198:0.371429 199:0.272727 200:0.217391 201:0.684211 202:0.697674 203:0.431818 204:0.258065 205:0.11236 206:0.168675 207:0.725 208:0.763158 209:0.746269 210:0.457143 211:0.352273 212:0.360656 213:0.463415 214:0.666667 215:0.6 216:0.27907 217:0.573529 218:0.296875 219:0.491525 220:0.714286 221:0.753846 222:0.770115 223:0.586957 224:0.32 225:0.522727 226:0.5 227:1 228:0.820225 229:0.357143 230:0.3125 231:0.263158 232:0.4 233:0.705882 234:0.52 235:0.2 236:0.32 237:0.621622 238:0.811321 239:0.209302 240:0.0909091 241:0.0654206 242:0.296296 243:0.913043 244:0.892857 245:0.769231 246:0.666667 247:0.315789 248:0.357143 249:0.775862 250:0.725806 251:0.672414 252:0.219512 253:0.526316 254:0.266667 255:0.214286 256:0.548387 257:0.869565 258:0.525424 259:0.45 260:0.22807 261:0.169811 262:0.5 263:0.9625 264:0.896552 265:0.565217 266:0.342857 267:0.395349 268:0.578947 269:0.692308 270:0.725 271:0.253165 272:0.315789 273:0.76 274:0.875 275:0.666667 276:0.468085 277:0.0582524 278:0.287879 279:0.520833 280:0.617647 281:0.617647 282:0.641509 283:0.173333 284:0.425532 285:0.672131 286:0.454545 287:0.578947 288:0.605263 
0.03125 1:0.157143 2:0.358209 3:0.328358 4:0.701754 5:0.333333 6:0.246575 7:0.740741 8:0.170213 9:0.337838 10:0.791667 11:0.90625 12:0.619048 13:0.359375 14:0.0888889 15:0.107143 16:0.702703 17:0.676056 18:0.59633 19:0.238636 20:0.490566 21:0.4 22:0.744186 23:0.5 24:0.313953 25:0.019802 26:0.719512 27:0.512821 28:0.455882 29:0.307692 30:0.443182 31:0.216216 32:0.647059 33:0.627907 34:0.591837 35:0.729167 36:0.686747 37:0.595238 38:0.385965 39:0.387755 40:0.439024 41:0.596774 42:0.758242 44:0.0307692 45:0.25641 46:0.575 47:0.714286 48:0.797753 49:0.242424 51:0.319149 52:1 53:0.851064 54:0.725 55:0.220588 56:0.423729 57:1 58:1 59:0.604651 60:0.340909 61:0.131313 62:0.58 63:0.804878 64:0.921569 65:0.807018 66:0.584906 67:0.362745 68:0.369048 69:0.542373 70:0.610169 71:0.542857 72:0.444444 73:0.707317 74:0.4 75:0.473684 76:0.679245 77:0.464286 78:0.770115 79:0.307692 80:0.321429 81:0.173077 82:0.555556 83:0.8 84:0.715596 85:0.53125 86:0.5 87:0.277778 88:1 89:0.90566 90:0.702703 91:0.607843 92:0.843137 93:0.840909 94:1 95:0.653061 96:0.288136 97:0.287356 98:0.684211 99:0.860465 100:0.928571 101:0.743243 102:0.608696 103:0.666667 104:0.578125 105:0.5 106:0.45 107:0.403226 108:0.289855 109:0.636364 110:0.375 111:0.320755 112:0.421053 113:0.428571 114:0.56962 115:0.897959 116:1 117:0.1875 118:0.375 119:0.939394 120:0.89 121:0.851064 122:0.515152 123:0.271186 124:0.396226 125:0.911765 126:0.790123 127:0.871795 128:0.58 129:0.394737 130:0.609756 131:0.527778 132:0.693878 133:0.655556 134:0.604938 135:0.527778 136:0.555556 137:0.481481 138:0.560976 139:0.678571 140:0.510638 141:0.878788 142:0.666667 143:0.625 144:0.824561 145:0.506024 146:0.348837 147:0.36 148:0.488372 149:0.868421 150:0.716216 151:0.640449 152:0.243243 153:0.217391 154:0.404762 155:0.95 156:0.95 157:0.554217 158:0.733333 159:0.333333 160:0.543478 161:1 162:0.818182 163:0.481818 164:0.308824 165:0.583333 166:0.982143 167:0.477273 168:0.606557 169:0.459677 170:0.461538 171:0.686275 172:0.708333 173:0.770833 174:0.5 175:0.183099 176:0.722222 177:0.703704 178:0.507692 179:0.546875 180:0.528571 181:0.657895 182:0.666667 183:0.534483 184:0.491803 185:0.407895 186:0.564356 187:0.306122 188:0.372881 189:0.46 190:1 191:0.813725 192:0.679245 193:0.604651 194:0.772727 195:0.338462 196:0.822222 197:0.830508 198:0.571429 199:0.727273 200:0.413043 201:0.552632 202:0.651163 203:0.318182 204:0.290323 205:0.11236 206:0.313253 207:0.75 208:1 209:0.731343 210:0.485714 211:0.295455 212:0.377049 213:0.414634 214:0.583333 215:0.581818 216:0.232558 217:0.514706 218:0.296875 219:0.389831 220:0.55102 221:0.630769 222:0.735632 223:0.26087 224:0.266667 225:0.295455 226:0.543478 227:0.804124 228:0.786517 229:0.375 230:0.1875 231:0.315789 232:0.977778 233:0.901961 234:0.68 235:0.466667 236:0.26 237:0.567568 238:0.830189 239:0.209302 240:0.181818 241:0.0560748 242:0.530864 243:0.978261 244:1 245:0.826923 246:0.666667 247:0.284211 248:0.339286 249:0.724138 250:0.66129 251:0.568966 252:0.170732 253:0.333333 254:0.355556 255:0.333333 256:0.451613 257:0.565217 258:0.661017 259:0.375 260:0.368421 261:0.226415 262:0.5 263:0.8875 264:0.942529 265:0.673913 266:0.371429 267:0.44186 268:0.894737 269:0.769231 270:0.775 271:0.240506 272:0.131579 273:0.86 274:0.946429 275:0.575758 276:0.489362 277:0.0485437 278:0.606061 279:0.833333 280:0.705882 281:0.676471 282:0.660377 283:0.173333 284:0.723404 285:0.786885 286:0.509091 287:0.578947 288:0.578947 
0.03125 1:0.157143 2:0.41791 3:0.38806 4:0.754386 5:0.564103 6:0.438356 7:0.444444 8:0.425532 9:0.351351 10:0.666667 11:1 12:0.666667 14:0.133333 15:0.214286 16:0.783784 17:0.71831 18:0.59633 19:0.113636 20:0.471698 21:0.4 22:0.72093 23:0.538462 24:0.337209 25:0.039604 26:0.792683 27:0.666667 28:0.632353 29:0.205128 30:0.329545 31:0.256757 32:0.882353 33:0.790698 34:0.77551 35:0.75 36:0.60241 37:0.928571 38:0.526316 39:0.244898 40:0.195122 41:0.435484 42:0.703297 43:0.0571429 44:0.230769 45:0.358974 46:0.525 47:0.916667 48:0.820225 51:0.255319 52:0.944444 53:0.829787 54:0.5 55:0.0147059 56:0.59322 57:0.933333 58:0.784615 59:0.55814 60:0.272727 61:0.0707071 62:0.49 63:0.829268 64:0.784314 65:0.719298 66:0.490566 67:0.352941 68:0.309524 69:0.372881 70:0.542373 71:0.557143 72:0.432099 73:0.853659 74:0.416667 75:0.368421 76:0.509434 77:0.5 78:0.804598 79:0.435897 80:0.410714 81:0.384615 82:0.555556 83:0.8625 84:0.743119 85:0.15625 86:0.175 87:0.296296 88:0.657895 89:0.716981 90:0.581081 91:0.54902 92:0.921569 93:0.909091 94:0.775862 95:0.612245 96:0.186441 97:0.172414 98:0.652632 99:0.860465 100:0.928571 101:0.72973 102:0.521739 103:0.642857 104:0.546875 105:0.5 106:0.483333 107:0.419355 108:0.275362 109:0.623377 110:0.339286 111:0.320755 112:0.561404 113:0.530612 114:0.696203 115:0.979592 116:0.764706 117:0.34375 118:0.375 119:0.924242 120:0.9 121:0.574468 122:0.181818 123:0.40678 124:0.660377 125:0.735294 126:0.82716 127:0.858974 128:0.58 129:0.631579 130:0.585366 131:0.361111 132:0.591837 133:0.655556 134:0.592593 135:0.805556 136:0.666667 137:0.462963 138:0.439024 139:0.678571 140:0.574468 141:0.969697 142:0.769231 143:0.675 144:0.824561 145:0.53012 146:0.418605 147:0.36 148:0.651163 149:0.815789 150:0.797297 151:0.52809 152:0.27027 153:0.144928 154:0.642857 155:0.9625 156:0.97 157:0.481928 158:0.966667 159:0.333333 160:0.413043 161:0.942308 162:0.886364 163:0.463636 164:0.352941 165:0.666667 166:0.732143 167:0.477273 168:0.737705 169:0.451613 170:0.430769 171:0.54902 172:0.652778 173:0.6875 174:0.642857 175:0.169014 176:0.527778 177:0.62963 178:0.538462 179:0.5625 180:0.6 181:0.723684 182:0.652174 183:0.413793 184:0.327869 185:0.263158 186:0.514851 187:0.346939 188:0.237288 189:0.18 190:0.3 191:0.705882 192:0.584906 193:0.325581 194:0.386364 195:0.338462 196:0.8 197:0.983051 198:0.514286 199:0.590909 200:0.391304 201:0.789474 202:0.55814 203:0.318182 204:0.112903 205:0.134831 206:0.53012 207:0.9 208:0.894737 209:0.80597 210:0.4 211:0.306818 212:0.344262 213:0.341463 214:0.625 215:0.654545 216:0.302326 217:0.5 218:0.390625 219:0.288136 220:0.22449 221:0.676923 222:0.678161 224:0.293333 225:0.181818 226:0.369565 227:0.783505 228:0.707865 230:0.166667 231:0.438596 232:1 233:0.980392 234:0.58 235:0.32 236:0.38 237:0.675676 238:0.735849 239:0.139535 240:0.0909091 241:0.0560748 242:0.469136 243:1 244:0.928571 245:0.730769 246:0.717949 247:0.273684 248:0.267857 249:0.603448 250:0.580645 251:0.568966 252:0.170732 253:0.22807 254:0.311111 255:0.47619 256:0.290323 257:0.673913 258:0.677966 259:0.15 260:0.350877 261:0.226415 262:0.40625 263:0.9125 264:0.827586 265:0.630435 266:0.0857143 267:0.511628 268:0.710526 269:0.865385 270:0.8375 271:0.278481 272:0.263158 273:0.92 274:0.714286 275:0.545455 276:0.638298 277:0.0291262 278:0.484848 279:0.708333 280:0.632353 281:0.676471 282:0.641509 283:0.12 284:0.574468 285:0.688525 286:0.436364 287:0.508772 288:0.605263 
0.03125 1:0.185714 2:0.313433 3:0.223881 4:0.245614 5:0.461538 6:0.739726 7:0.37037 8:0.382979 9:0.175676 10:0.229167 11:0.890625 12:0.936508 13:0.375 14:0.244444 15:0.0714286 16:0.324324 17:0.704225 18:0.926606 19:0.272727 20:0.396226 21:0.288889 22:0.744186 23:0.769231 24:0.802326 25:0.227723 26:0.536585 27:0.692308 28:0.735294 29:0.769231 30:0.840909 31:0.256757 32:0.264706 33:0.511628 34:0.632653 35:0.6875 36:0.86747 37:0.52381 38:0.245614 39:0.306122 40:0.463415 41:0.645161 42:0.681319 43:0.428571 44:0.476923 45:0.589744 46:0.825 47:0.964286 48:0.865169 49:0.378788 50:0.12766 51:0.170213 52:0.5 53:0.829787 54:0.675 55:0.294118 56:0.457627 57:0.444444 58:0.784615 59:0.418605 60:0.181818 61:0.191919 62:0.48 63:0.512195 64:0.705882 65:0.754386 66:0.396226 67:0.568627 68:0.47619 69:0.491525 70:0.762712 71:0.7 72:0.580247 73:0.756098 74:0.366667 75:0.280702 76:0.679245 77:0.642857 78:0.747126 79:0.564103 80:0.375 81:0.461538 82:0.688889 83:0.95 84:0.807339 85:0.3125 86:0.275 87:0.407407 88:0.552632 89:0.698113 90:0.675676 91:0.352941 92:0.411765 93:0.636364 94:0.810345 95:0.510204 96:0.254237 97:0.218391 98:0.547368 99:0.651163 100:0.857143 101:0.797297 102:0.73913 103:0.785714 104:0.734375 105:0.625 106:0.7 107:0.693548 108:0.492754 109:0.480519 110:0.410714 111:0.264151 112:0.298246 113:0.510204 114:0.607595 115:0.693878 116:0.617647 117:0.328125 118:0.3125 119:0.863636 120:0.97 121:0.574468 122:0.454545 123:0.20339 124:0.358491 125:0.676471 126:0.851852 127:0.666667 128:0.46 129:0.421053 130:0.609756 131:0.444444 132:0.77551 133:0.533333 134:0.54321 135:0.555556 136:0.833333 137:0.648148 138:0.804878 139:0.5 140:0.297872 141:0.69697 142:0.692308 143:0.65 144:0.842105 145:0.53012 146:0.139535 147:0.18 148:0.255814 149:0.578947 150:0.5 151:0.426966 152:0.243243 153:0.217391 154:0.380952 155:0.875 156:0.82 157:0.421687 158:0.533333 159:0.4 160:0.326087 161:0.692308 162:0.875 163:0.509091 164:0.367647 165:0.583333 166:0.803571 167:0.454545 168:0.836066 169:0.556452 170:0.307692 171:0.686275 172:0.916667 173:0.833333 174:0.785714 175:0.577465 176:0.611111 177:0.833333 178:0.769231 179:0.8125 180:0.8 181:0.881579 182:0.73913 183:0.689655 184:0.655738 185:0.736842 186:0.732673 187:0.122449 188:0.135593 189:0.32 190:0.6 191:0.833333 192:0.688679 193:0.488372 194:0.568182 195:0.215385 196:0.311111 197:0.711864 198:0.657143 199:0.681818 200:0.434783 201:0.342105 202:0.511628 203:0.318182 204:0.306452 205:0.157303 206:0.156627 207:0.425 208:0.736842 209:0.880597 210:0.514286 211:0.545455 212:0.590164 213:0.804878 214:0.833333 215:0.818182 216:0.534884 217:0.529412 218:0.4375 219:0.491525 220:0.857143 221:0.846154 222:0.83908 223:0.195652 224:0.213333 225:0.272727 226:0.5 227:0.886598 228:0.764045 229:0.392857 230:0.145833 231:0.175439 232:0.377778 233:0.72549 234:0.62 235:0.386667 236:0.32 237:0.243243 238:0.679245 239:0.139535 240:0.121212 241:0.158879 242:0.17284 243:0.304348 244:0.875 245:0.903846 246:0.820513 247:0.421053 248:0.357143 249:0.724138 250:0.887097 251:0.844828 252:0.682927 253:0.0877193 254:0.0888889 255:0.261905 256:0.225806 257:0.326087 258:0.694915 259:0.075 260:0.140351 261:0.283019 262:0.46875 263:0.8625 264:0.83908 265:0.434783 266:0.257143 267:0.348837 268:0.552632 269:0.884615 270:0.9125 271:0.291139 272:0.394737 273:0.76 274:0.75 275:0.757576 276:0.680851 277:0.184466 278:0.393939 279:0.645833 280:0.808824 281:0.617647 282:0.90566 283:0.4 284:0.808511 285:0.901639 286:0.727273 287:0.754386 288:0.960526 
0.03125 1:0.142857 2:0.283582 3:0.179104 4:0.245614 5:0.435897 6:0.726027 7:0.37037 8:0.361702 9:0.189189 10:0.25 11:0.859375 12:0.936508 13:0.34375 14:0.2 15:0.0357143 16:0.324324 17:0.704225 18:0.917431 19:0.25 20:0.377358 21:0.266667 22:0.744186 23:0.769231 24:0.813953 25:0.207921 26:0.536585 27:0.666667 28:0.75 29:0.769231 30:0.852273 31:0.216216 32:0.176471 33:0.488372 34:0.632653 35:0.6875 36:0.879518 37:0.47619 38:0.263158 39:0.265306 40:0.439024 41:0.66129 42:0.659341 43:0.457143 44:0.476923 45:0.564103 46:0.8 47:0.97619 48:0.865169 49:0.393939 50:0.148936 51:0.170213 52:0.472222 53:0.829787 54:0.675 55:0.308824 56:0.423729 57:0.466667 58:0.769231 59:0.395349 60:0.113636 61:0.222222 62:0.49 63:0.512195 64:0.686275 65:0.77193 66:0.396226 67:0.558824 68:0.452381 69:0.423729 70:0.745763 71:0.714286 72:0.592593 73:0.853659 74:0.366667 75:0.315789 76:0.698113 77:0.625 78:0.770115 79:0.538462 80:0.357143 81:0.480769 82:0.711111 83:0.95 84:0.816514 85:0.3125 86:0.25 87:0.425926 88:0.552632 89:0.698113 90:0.675676 91:0.392157 92:0.45098 93:0.613636 94:0.793103 95:0.510204 96:0.271186 97:0.218391 98:0.547368 99:0.651163 100:0.857143 101:0.797297 102:0.782609 103:0.821429 104:0.765625 105:0.6875 106:0.716667 107:0.709677 108:0.478261 109:0.467532 110:0.375 111:0.226415 112:0.298246 113:0.510204 114:0.632911 115:0.714286 116:0.588235 117:0.3125 118:0.270833 119:0.878788 120:0.97 121:0.531915 122:0.454545 123:0.186441 124:0.358491 125:0.647059 126:0.851852 127:0.653846 128:0.42 129:0.421053 130:0.634146 131:0.444444 132:0.755102 133:0.511111 134:0.530864 135:0.527778 136:0.851852 137:0.648148 138:0.804878 139:0.5 140:0.234043 141:0.636364 142:0.74359 143:0.625 144:0.807018 145:0.518072 146:0.139535 147:0.18 148:0.255814 149:0.578947 150:0.459459 151:0.426966 152:0.27027 153:0.188406 154:0.380952 155:0.8625 156:0.81 157:0.445783 158:0.533333 159:0.377778 160:0.326087 161:0.730769 162:0.897727 163:0.527273 164:0.382353 165:0.583333 166:0.785714 167:0.477273 168:0.852459 169:0.556452 170:0.338462 171:0.686275 172:0.916667 173:0.833333 174:0.75 175:0.549296 176:0.694444 177:0.833333 178:0.738462 179:0.84375 180:0.814286 181:0.894737 182:0.73913 183:0.672414 184:0.688525 185:0.736842 186:0.722772 187:0.122449 188:0.135593 189:0.34 190:0.575 191:0.823529 192:0.679245 193:0.488372 194:0.545455 195:0.215385 196:0.311111 197:0.694915 198:0.614286 199:0.659091 200:0.369565 201:0.289474 202:0.511628 203:0.295455 204:0.274194 205:0.168539 206:0.156627 207:0.4 208:0.684211 209:0.880597 210:0.485714 211:0.545455 212:0.590164 213:0.804878 214:0.833333 215:0.8 216:0.55814 217:0.5 218:0.46875 219:0.508475 220:0.795918 221:0.830769 222:0.862069 223:0.23913 224:0.213333 225:0.272727 226:0.543478 227:0.907216 228:0.786517 229:0.392857 230:0.166667 231:0.192982 232:0.377778 233:0.764706 234:0.7 235:0.386667 236:0.38 237:0.27027 238:0.679245 239:0.162791 240:0.181818 241:0.149533 242:0.185185 243:0.369565 244:0.875 245:0.923077 246:0.871795 247:0.442105 248:0.375 249:0.758621 250:0.903226 251:0.862069 252:0.658537 253:0.122807 254:0.111111 255:0.309524 256:0.290323 257:0.347826 258:0.711864 259:0.075 260:0.140351 261:0.245283 262:0.40625 263:0.8625 264:0.827586 265:0.456522 266:0.314286 267:0.348837 268:0.552632 269:0.884615 270:0.925 271:0.303797 272:0.368421 273:0.78 274:0.732143 275:0.727273 276:0.680851 277:0.194175 278:0.378788 279:0.645833 280:0.794118 281:0.617647 282:0.849057 283:0.413333 284:0.808511 285:0.885246 286:0.727273 287:0.754386 288:0.934211 
0.03125 1:0.157143 2:0.373134 3:0.283582 4:0.245614 5:0.384615 6:0.69863 7:0.296296 8:0.382979 9:0.243243 10:0.229167 11:0.859375 12:0.936508 13:0.296875 14:0.2 15:0.107143 16:0.432432 17:0.71831 18:0.944954 19:0.272727 20:0.377358 21:0.355556 22:0.906977 23:0.846154 24:0.813953 25:0.227723 26:0.536585 27:0.641026 28:0.735294 29:0.794872 30:0.829545 31:0.27027 32:0.0294118 33:0.465116 34:0.632653 35:0.8125 36:0.891566 37:0.5 38:0.263158 39:0.306122 40:0.487805 41:0.66129 42:0.714286 43:0.428571 44:0.461538 45:0.358974 46:0.675 47:0.940476 48:0.820225 49:0.454545 50:0.212766 51:0.191489 52:0.444444 53:0.808511 54:0.65 55:0.367647 56:0.474576 57:0.4 58:0.707692 59:0.395349 60:0.159091 61:0.191919 62:0.46 63:0.536585 64:0.72549 65:0.701754 66:0.415094 67:0.480392 68:0.464286 69:0.423729 70:0.728814 71:0.685714 72:0.62963 73:0.780488 74:0.416667 75:0.368421 76:0.641509 77:0.642857 78:0.724138 79:0.512821 80:0.339286 81:0.480769 82:0.666667 83:0.95 84:0.844037 85:0.3125 86:0.3 87:0.444444 88:0.657895 89:0.735849 90:0.675676 91:0.313725 92:0.431373 93:0.590909 94:0.844828 95:0.530612 96:0.271186 97:0.241379 98:0.568421 99:0.651163 100:0.833333 101:0.824324 102:0.73913 103:0.869048 104:0.75 105:0.729167 106:0.716667 107:0.677419 108:0.449275 109:0.506494 110:0.410714 111:0.283019 112:0.333333 113:0.510204 114:0.56962 115:0.673469 116:0.617647 117:0.34375 118:0.3125 119:0.878788 120:0.93 121:0.531915 122:0.484848 123:0.186441 124:0.320755 125:0.676471 126:0.851852 127:0.666667 128:0.48 129:0.473684 130:0.658537 131:0.5 132:0.77551 133:0.433333 134:0.555556 135:0.638889 136:0.87037 137:0.703704 138:0.853659 139:0.5 140:0.255319 141:0.757576 142:0.74359 143:0.675 144:0.859649 145:0.542169 146:0.116279 147:0.18 148:0.162791 149:0.605263 150:0.540541 151:0.438202 152:0.216216 153:0.144928 154:0.238095 155:0.8625 156:0.83 157:0.433735 158:0.533333 159:0.355556 160:0.304348 161:0.75 162:0.886364 163:0.518182 164:0.323529 165:0.527778 166:0.767857 167:0.5 168:0.852459 169:0.58871 170:0.323077 171:0.529412 172:0.861111 173:0.791667 174:0.75 175:0.56338 176:0.694444 177:0.777778 178:0.8 179:0.890625 180:0.785714 181:0.868421 182:0.73913 183:0.586207 184:0.639344 185:0.697368 186:0.752475 187:0.183673 188:0.152542 189:0.36 190:0.7 191:0.833333 192:0.679245 193:0.534884 194:0.590909 195:0.292308 196:0.355556 197:0.711864 198:0.628571 199:0.681818 200:0.434783 201:0.447368 202:0.55814 203:0.272727 204:0.258065 205:0.168539 206:0.144578 207:0.45 208:0.684211 209:0.850746 210:0.428571 211:0.522727 212:0.557377 213:0.780488 214:0.8125 215:0.745455 216:0.534884 217:0.558824 218:0.453125 219:0.627119 220:0.897959 221:0.861538 222:0.83908 223:0.217391 224:0.24 225:0.318182 226:0.478261 227:0.896907 228:0.775281 229:0.410714 230:0.208333 231:0.175439 232:0.333333 233:0.72549 234:0.64 235:0.413333 236:0.4 237:0.243243 238:0.698113 239:0.232558 240:0.212121 241:0.149533 242:0.17284 243:0.326087 244:0.892857 245:0.923077 246:0.871795 247:0.431579 248:0.357143 249:0.775862 250:0.887097 251:0.844828 252:0.634146 253:0.105263 254:0.0888889 255:0.238095 256:0.322581 257:0.391304 258:0.745763 259:0.15 260:0.0877193 261:0.207547 262:0.5 263:0.8625 264:0.83908 265:0.5 266:0.314286 267:0.325581 268:0.526316 269:0.846154 270:0.8875 271:0.265823 272:0.315789 273:0.72 274:0.732143 275:0.69697 276:0.680851 277:0.203883 278:0.424242 279:0.625 280:0.794118 281:0.735294 282:0.924528 283:0.413333 284:0.87234 285:0.901639 286:0.781818 287:0.807018 288:0.960526 
0.03125 1:0.214286 2:0.19403 3:0.164179 4:0.192982 5:0.282051 6:0.493151 7:0.444444 8:0.340426 9:0.216216 10:0.25 11:0.8125 12:0.801587 13:0.3125 14:0.266667 15:0.0892857 16:0.27027 17:0.676056 18:0.770642 19:0.261364 20:0.377358 21:0.333333 22:0.72093 23:0.730769 24:0.627907 25:0.217822 26:0.54878 27:0.717949 28:0.764706 29:0.820513 30:0.738636 31:0.27027 32:0.117647 33:0.511628 34:0.632653 35:0.708333 36:0.771084 37:0.357143 38:0.263158 39:0.285714 40:0.414634 41:0.693548 42:0.659341 43:0.457143 44:0.461538 45:0.410256 46:0.675 47:0.904762 48:0.820225 49:0.469697 50:0.234043 51:0.234043 52:0.583333 53:0.787234 54:0.7 55:0.367647 56:0.474576 57:0.444444 58:0.784615 59:0.395349 60:0.25 61:0.212121 62:0.47 63:0.536585 64:0.686275 65:0.684211 66:0.415094 67:0.578431 68:0.452381 69:0.440678 70:0.728814 71:0.714286 72:0.62963 73:0.804878 74:0.4 75:0.315789 76:0.735849 77:0.625 78:0.793103 79:0.410256 80:0.410714 81:0.423077 82:0.644444 83:0.9125 84:0.779817 85:0.28125 86:0.375 87:0.388889 88:0.526316 89:0.698113 90:0.635135 91:0.294118 92:0.509804 93:0.5 94:0.706897 95:0.469388 96:0.254237 97:0.264368 98:0.568421 99:0.581395 100:0.809524 101:0.810811 102:0.73913 103:0.809524 104:0.765625 105:0.645833 106:0.7 107:0.693548 108:0.521739 109:0.480519 110:0.25 111:0.226415 112:0.245614 113:0.530612 114:0.620253 115:0.612245 116:0.529412 117:0.296875 118:0.25 119:0.848485 120:0.94 121:0.425532 122:0.454545 123:0.237288 124:0.245283 125:0.617647 126:0.839506 127:0.512821 128:0.42 129:0.394737 130:0.512195 131:0.361111 132:0.632653 133:0.411111 134:0.530864 135:0.555556 136:0.851852 137:0.666667 138:0.804878 139:0.428571 140:0.212766 141:0.666667 142:0.589744 143:0.6 144:0.807018 145:0.662651 146:0.162791 147:0.1 148:0.139535 149:0.552632 150:0.459459 151:0.629213 152:0.324324 153:0.130435 154:0.285714 155:0.8625 156:0.79 157:0.60241 158:0.566667 159:0.333333 160:0.195652 161:0.730769 162:0.840909 163:0.663636 164:0.367647 165:0.472222 166:0.714286 167:0.568182 168:0.852459 169:0.629032 170:0.384615 171:0.54902 172:0.902778 173:0.875 174:0.714286 175:0.577465 176:0.722222 177:0.796296 178:0.769231 179:0.75 180:0.771429 181:0.881579 182:0.681159 183:0.637931 184:0.622951 185:0.697368 186:0.643564 187:0.204082 188:0.152542 189:0.36 190:0.525 191:0.833333 192:0.660377 193:0.488372 194:0.659091 195:0.246154 196:0.266667 197:0.627119 198:0.557143 199:0.590909 200:0.456522 201:0.368421 202:0.534884 203:0.340909 204:0.306452 205:0.247191 206:0.13253 207:0.425 208:0.657895 209:0.791045 210:0.485714 211:0.522727 212:0.52459 213:0.804878 214:0.8125 215:0.763636 216:0.55814 217:0.529412 218:0.5 219:0.576271 220:0.836735 221:0.8 222:0.896552 223:0.26087 224:0.226667 225:0.340909 226:0.521739 227:0.845361 228:0.752809 229:0.464286 230:0.25 231:0.192982 232:0.355556 233:0.686275 234:0.72 235:0.426667 236:0.5 237:0.189189 238:0.679245 239:0.232558 240:0.333333 241:0.121495 242:0.160494 243:0.304348 244:0.857143 245:0.884615 246:0.769231 247:0.410526 248:0.375 249:0.775862 250:0.870968 251:0.862069 252:0.560976 253:0.157895 254:0.177778 255:0.190476 256:0.290323 257:0.434783 258:0.762712 259:0.175 260:0.157895 261:0.188679 262:0.4375 263:0.8875 264:0.850575 265:0.478261 266:0.314286 267:0.232558 268:0.552632 269:0.788462 270:0.875 271:0.227848 272:0.315789 273:0.7 274:0.767857 275:0.636364 276:0.617021 277:0.203883 278:0.469697 279:0.645833 280:0.808824 281:0.558824 282:0.830189 283:0.4 284:0.87234 285:0.868852 286:0.709091 287:0.719298 288:0.934211 
0.03125 1:0.114286 2:0.149254 3:0.149254 4:0.245614 5:0.333333 6:0.561644 7:0.37037 8:0.297872 9:0.175676 10:0.1875 11:0.78125 12:0.865079 13:0.34375 14:0.266667 15:0.0714286 16:0.297297 17:0.676056 18:0.899083 19:0.25 20:0.358491 21:0.311111 22:0.72093 23:0.884615 24:0.77907 25:0.207921 26:0.536585 27:0.666667 28:0.75 29:0.794872 30:0.875 31:0.310811 32:0.117647 33:0.488372 34:0.612245 35:0.708333 36:0.927711 37:0.5 38:0.280702 39:0.326531 40:0.390244 41:0.645161 42:0.703297 43:0.428571 44:0.476923 45:0.461538 46:0.775 47:0.928571 48:0.831461 49:0.348485 50:0.148936 51:0.170213 52:0.5 53:0.829787 54:0.7 55:0.279412 56:0.423729 57:0.422222 58:0.769231 59:0.418605 60:0.25 61:0.212121 62:0.5 63:0.512195 64:0.72549 65:0.701754 66:0.45283 67:0.558824 68:0.440476 69:0.559322 70:0.830508 71:0.8 72:0.641975 73:0.707317 74:0.366667 75:0.298246 76:0.641509 77:0.589286 78:0.724138 79:0.435897 80:0.392857 81:0.480769 82:0.622222 83:0.9375 84:0.807339 85:0.375 86:0.325 87:0.407407 88:0.526316 89:0.679245 90:0.689189 91:0.352941 92:0.45098 93:0.5 94:0.758621 95:0.510204 96:0.20339 97:0.206897 98:0.505263 99:0.55814 100:0.761905 101:0.824324 102:0.717391 103:0.797619 104:0.78125 105:0.791667 106:0.85 107:0.887097 108:0.652174 109:0.428571 110:0.357143 111:0.207547 112:0.245614 113:0.44898 114:0.582278 115:0.591837 116:0.676471 117:0.3125 118:0.229167 119:0.833333 120:0.96 121:0.361702 122:0.484848 123:0.254237 124:0.226415 125:0.647059 126:0.876543 127:0.423077 128:0.4 129:0.368421 130:0.414634 131:0.416667 132:0.734694 133:0.355556 134:0.530864 135:0.527778 136:0.814815 137:0.666667 138:0.829268 139:0.339286 140:0.191489 141:0.575758 142:0.641026 143:0.6 144:0.842105 145:0.662651 147:0.14 148:0.162791 149:0.552632 150:0.5 151:0.606742 152:0.189189 153:0.130435 154:0.261905 155:0.875 156:0.8 157:0.578313 158:0.533333 159:0.355556 160:0.282609 161:0.730769 162:0.840909 163:0.663636 164:0.323529 165:0.5 166:0.803571 167:0.568182 168:0.868852 169:0.620968 170:0.338462 171:0.588235 172:0.916667 173:0.8125 174:0.75 175:0.633803 176:0.694444 177:0.851852 178:0.784615 179:0.828125 180:0.785714 181:0.855263 182:0.724638 183:0.672414 184:0.639344 185:0.697368 186:0.673267 187:0.183673 188:0.135593 189:0.4 190:0.55 191:0.803922 192:0.650943 193:0.534884 194:0.636364 195:0.246154 196:0.266667 197:0.661017 198:0.628571 199:0.590909 200:0.5 201:0.315789 202:0.488372 203:0.25 204:0.241935 205:0.191011 206:0.156627 207:0.375 208:0.657895 209:0.761194 210:0.285714 211:0.511364 212:0.508197 213:0.682927 214:0.729167 215:0.745455 216:0.488372 217:0.529412 218:0.453125 219:0.525424 220:0.816327 221:0.815385 222:0.885057 223:0.195652 224:0.173333 225:0.25 226:0.5 227:0.876289 228:0.786517 229:0.375 230:0.166667 231:0.122807 232:0.355556 233:0.72549 234:0.68 235:0.413333 236:0.4 237:0.216216 238:0.679245 239:0.302326 240:0.30303 241:0.158879 242:0.185185 243:0.282609 244:0.839286 245:0.923077 246:0.897436 247:0.410526 248:0.375 249:0.758621 250:0.887097 251:0.827586 252:0.634146 253:0.0701754 254:0.155556 255:0.142857 256:0.225806 257:0.347826 258:0.694915 259:0.1 260:0.175439 261:0.207547 262:0.34375 263:0.8625 264:0.804598 265:0.413043 266:0.342857 267:0.27907 268:0.526316 269:0.788462 270:0.8125 271:0.21519 272:0.236842 273:0.64 274:0.732143 275:0.515152 276:0.617021 277:0.145631 278:0.378788 279:0.583333 280:0.764706 281:0.647059 282:0.811321 283:0.333333 284:0.765957 285:0.803279 286:0.709091 287:0.736842 288:0.907895 
0.03125 1:0.142857 2:0.223881 3:0.343284 4:0.403509 5:0.666667 6:0.767123 7:0.555556 8:0.361702 9:0.243243 10:0.3125 11:0.96875 12:0.984127 13:0.359375 14:0.155556 15:0.196429 16:0.432432 17:0.704225 18:0.93578 19:0.159091 20:0.433962 21:0.511111 22:0.744186 23:0.923077 24:0.918605 26:0.317073 27:0.615385 28:0.735294 29:0.666667 30:0.943182 31:0.148649 32:0.323529 33:0.651163 34:0.836735 35:0.6875 36:0.951807 37:0.47619 38:0.438596 39:0.571429 40:0.780488 41:0.774194 42:0.703297 43:0.485714 44:0.538462 45:0.692308 46:0.925 47:0.916667 48:0.831461 49:0.469697 50:0.191489 51:0.319149 52:0.555556 53:0.723404 54:0.675 55:0.205882 56:0.491525 57:0.822222 58:0.846154 59:0.44186 60:0.431818 61:0.0808081 62:0.4 63:0.390244 64:0.686275 65:0.649123 66:0.490566 67:0.294118 68:0.202381 69:0.254237 70:0.491525 71:0.585714 72:0.469136 73:0.756098 74:0.516667 75:0.491228 76:0.830189 77:0.75 78:0.816092 79:0.615385 80:0.410714 81:0.557692 82:0.755556 83:0.9875 84:0.862385 85:0.71875 86:0.65 87:0.388889 88:0.394737 89:0.773585 90:0.783784 91:0.529412 92:0.686275 93:0.727273 94:0.844828 95:0.77551 96:0.559322 97:0.252874 98:0.547368 99:0.44186 100:0.690476 101:0.824324 102:0.826087 103:0.738095 104:0.75 105:0.75 106:0.583333 107:0.483871 108:0.492754 109:0.363636 110:0.303571 111:0.377358 112:0.350877 113:0.693878 114:0.670886 115:0.734694 116:0.411765 117:0.296875 118:0.270833 119:0.954545 120:1 121:0.638298 122:0.545455 123:0.305085 124:0.358491 125:0.676471 126:0.876543 127:0.641026 128:0.54 129:0.526316 130:0.658537 131:0.583333 132:0.877551 133:0.633333 134:0.506173 135:0.555556 136:0.703704 137:0.685185 138:0.804878 139:0.464286 140:0.404255 141:0.757576 142:0.666667 143:0.75 144:0.929825 145:0.445783 146:0.395349 147:0.52 148:0.348837 149:0.736842 150:0.702703 151:0.393258 152:0.351351 153:0.347826 154:0.404762 155:0.9125 156:0.92 157:0.26506 158:0.6 159:0.533333 160:0.5 161:0.826923 162:0.943182 163:0.354545 164:0.397059 165:0.722222 166:0.839286 167:0.522727 168:0.852459 169:0.209677 170:0.138462 171:0.686275 172:0.805556 173:0.75 174:0.785714 175:0.056338 176:0.611111 177:0.777778 178:0.630769 179:0.75 180:0.742857 181:0.960526 182:0.768116 183:0.551724 184:0.704918 185:0.815789 186:0.851485 187:0.306122 188:0.254237 189:0.4 190:0.775 191:0.882353 192:0.773585 193:0.651163 194:0.772727 195:0.338462 196:0.333333 197:0.813559 198:0.8 199:0.818182 200:0.413043 201:0.447368 202:0.55814 203:0.522727 204:0.548387 206:0.0361446 207:0.375 208:0.631579 209:0.716418 210:0.457143 211:0.340909 212:0.311475 213:0.463415 214:0.583333 215:0.636364 216:0.302326 217:0.455882 218:0.578125 219:0.559322 220:1 221:0.876923 222:0.781609 223:0.26087 224:0.333333 225:0.522727 226:0.673913 227:0.907216 228:0.797753 229:0.428571 230:0.3125 231:0.333333 232:0.488889 233:0.862745 234:0.84 235:0.36 236:0.38 237:0.513514 238:0.641509 239:0.255814 240:0.545455 241:0.00934579 242:0.0740741 243:0.347826 244:0.839286 245:0.788462 246:0.769231 247:0.263158 248:0.25 249:0.655172 250:0.758065 251:0.62069 252:0.390244 253:0.192982 254:0.533333 255:0.619048 256:0.677419 257:0.543478 258:0.813559 259:0.175 260:0.315789 261:0.528302 262:0.6875 263:0.9375 264:0.83908 265:0.521739 266:0.371429 267:0.604651 268:0.684211 269:1 270:0.9625 271:0.291139 272:0.394737 273:0.82 274:0.732143 275:0.636364 276:0.723404 277:0.00970874 278:0.212121 279:0.583333 280:0.808824 281:0.588235 282:0.622642 283:0.173333 284:0.574468 285:0.704918 286:0.654545 287:0.649123 288:0.802632 
0.03125 1:0.0714286 2:0.223881 3:0.238806 4:0.210526 5:0.384615 6:0.739726 7:0.37037 8:0.191489 9:0.0810811 10:0.208333 11:0.734375 12:0.880952 13:0.1875 14:0.2 15:0.285714 16:0.567568 17:0.71831 18:0.963303 19:0.0454545 20:0.283019 21:0.377778 22:0.72093 23:0.653846 24:0.837209 25:0.128713 26:0.573171 27:0.717949 28:0.823529 29:0.923077 30:0.977273 31:0.27027 32:0.323529 33:0.674419 34:0.77551 35:0.729167 36:0.819277 37:0.238095 38:0.140351 39:0.183673 40:0.341463 41:0.564516 42:0.56044 43:0.257143 44:0.323077 45:0.128205 46:0.35 47:0.72619 48:0.752809 49:0.272727 50:0.106383 51:0.361702 52:0.833333 53:0.723404 54:0.725 55:0.264706 56:0.288136 57:0.355556 58:0.676923 59:0.395349 60:0.454545 61:0.121212 62:0.48 63:0.731707 64:0.862745 65:0.754386 66:0.490566 67:0.411765 68:0.5 69:0.661017 70:0.915254 71:0.742857 72:0.617284 73:0.365854 74:0.15 75:0.122807 76:0.415094 77:0.464286 78:0.793103 79:0.410256 80:0.232143 81:0.346154 82:0.4 83:0.775 84:0.807339 85:0.375 86:0.35 87:0.648148 88:0.842105 89:0.811321 90:0.743243 91:0.392157 92:0.411765 93:0.477273 94:0.637931 95:0.612245 96:0.542373 97:0.241379 98:0.6 99:0.790698 100:0.928571 101:0.891892 102:0.826087 103:0.964286 104:0.921875 105:0.916667 106:0.816667 107:0.854839 108:0.695652 109:0.116883 110:0.214286 111:0.320755 112:0.245614 113:0.530612 114:0.721519 115:0.22449 116:0.294118 117:0.09375 118:0.25 119:0.772727 120:0.83 121:0.170213 122:0.151515 123:0.237288 124:0.396226 125:0.823529 126:0.851852 127:0.423077 128:0.3 129:0.394737 130:0.609756 131:0.638889 132:0.755102 133:0.488889 134:0.555556 135:0.638889 136:0.851852 137:0.777778 138:0.97561 139:0.607143 140:0.382979 141:0.848485 142:0.717949 143:0.775 144:0.982456 145:0.578313 146:0.255814 147:0.52 148:0.44186 149:0.868421 150:0.783784 151:0.629213 152:0.216216 153:0.0724638 154:0.333333 155:0.75 156:0.9 157:0.60241 158:0.633333 159:0.577778 160:0.413043 161:0.826923 162:0.977273 163:0.663636 164:0.323529 165:0.805556 166:0.928571 167:0.659091 168:0.967213 169:0.629032 170:0.461538 171:0.705882 172:0.902778 173:0.854167 174:0.821429 175:0.56338 176:0.888889 177:0.851852 178:0.784615 179:0.828125 180:1 181:0.671053 182:0.391304 183:0.241379 184:0.47541 185:0.5 186:0.683168 187:0.244898 188:0.169492 189:0.4 190:0.45 191:0.77451 192:0.716981 193:0.837209 194:0.909091 195:0.384615 196:0.377778 197:0.694915 198:0.657143 199:0.5 200:0.434783 201:0.684211 202:0.813953 203:0.704545 204:0.693548 205:0.179775 206:0.216867 207:0.45 208:0.736842 209:0.776119 210:0.542857 211:0.534091 212:0.622951 213:0.780488 214:0.8125 215:0.745455 216:0.55814 217:0.220588 218:0.203125 219:0.220339 220:0.367347 221:0.523077 222:0.609195 223:0.0217391 224:0.16 225:0.204545 226:0.5 227:0.835052 228:0.730337 229:0.446429 230:0.3125 231:0.263158 232:0.511111 233:0.705882 234:0.78 235:0.146667 236:0.22 237:0.648649 238:0.943396 239:0.651163 240:0.848485 241:0.0841121 242:0.185185 243:0.413043 244:0.910714 245:0.769231 246:0.666667 247:0.4 248:0.428571 249:0.896552 250:0.887097 251:0.775862 252:0.512195 253:0.0350877 254:0.355556 255:0.571429 256:0.709677 257:0.76087 258:0.830508 259:0.05 260:0.0526316 261:0.150943 262:0.5625 263:0.8 264:0.804598 265:0.478261 266:0.485714 267:0.534884 268:0.710526 269:0.923077 270:0.8875 271:0.101266 272:0.263158 273:0.94 274:0.928571 275:0.939394 276:0.914894 277:0.106796 278:0.484848 279:0.8125 280:0.926471 281:0.764706 282:0.754717 283:0.306667 284:0.893617 285:0.967213 286:0.818182 287:0.789474 288:0.868421 
0.03125 1:0.171429 2:0.164179 3:0.179104 4:0.421053 5:0.461538 6:0.520548 7:0.703704 8:0.404255 9:0.256757 10:0.291667 11:0.796875 12:0.769841 13:0.46875 14:0.355556 15:0.178571 16:0.351351 17:0.605634 18:0.743119 19:0.181818 20:0.377358 21:0.466667 22:0.860465 23:0.769231 24:0.616279 25:0.029703 26:0.341463 27:0.717949 28:0.794118 29:0.692308 30:0.625 31:0.337838 32:0.588235 33:0.744186 34:0.755102 35:0.666667 36:0.686747 37:0.5 38:0.350877 39:0.530612 40:0.707317 41:0.806452 42:0.769231 43:0.6 44:0.569231 45:0.717949 46:0.95 47:1 48:0.842697 49:0.575758 50:0.234043 51:0.234043 52:0.611111 53:0.808511 54:0.675 55:0.367647 56:0.423729 57:0.688889 58:0.923077 59:0.697674 60:0.5 61:0.141414 62:0.44 63:0.463415 64:0.72549 65:0.684211 66:0.45283 67:0.392157 68:0.309524 69:0.40678 70:0.59322 71:0.585714 72:0.45679 73:0.658537 74:0.416667 75:0.473684 76:0.886792 77:0.678571 78:0.747126 79:0.589744 80:0.410714 81:0.538462 82:0.844444 83:0.9375 84:0.834862 85:0.59375 86:0.45 87:0.444444 88:0.552632 89:0.679245 90:0.675676 91:0.392157 92:0.568627 93:0.772727 94:0.931034 95:0.877551 96:0.542373 97:0.287356 98:0.536842 99:0.418605 100:0.738095 101:0.675676 102:0.456522 103:0.761905 104:0.609375 105:0.458333 106:0.333333 107:0.306452 108:0.275362 109:0.298701 110:0.303571 111:0.283019 112:0.298246 113:0.612245 114:0.607595 115:0.653061 116:0.647059 117:0.296875 118:0.229167 119:0.939394 120:0.92 121:0.574468 122:0.575758 123:0.271186 124:0.226415 125:0.823529 126:0.740741 127:0.602564 128:0.4 129:0.394737 130:0.560976 131:0.777778 132:0.693878 133:0.466667 134:0.419753 135:0.416667 136:0.740741 137:0.62963 138:0.463415 139:0.642857 140:0.446809 141:1 142:0.846154 143:0.6 144:0.649123 145:0.686747 146:0.232558 147:0.38 148:0.348837 149:0.631579 150:0.648649 151:0.494382 152:0.216216 153:0.275362 154:0.404762 155:0.9 156:0.8 157:0.554217 158:0.566667 159:0.533333 160:0.391304 161:0.865385 162:0.727273 163:0.563636 164:0.470588 165:0.722222 166:0.785714 167:0.522727 168:0.459016 169:0.524194 170:0.215385 171:0.588235 172:0.875 173:0.666667 174:0.142857 175:0.28169 176:0.666667 177:0.703704 178:0.615385 179:0.53125 180:0.457143 181:0.855263 182:0.695652 183:0.758621 184:0.885246 185:0.802632 186:0.70297 187:0.306122 188:0.237288 189:0.56 190:0.8 191:0.872549 192:0.735849 193:0.72093 194:0.818182 195:0.4 196:0.444444 197:0.898305 198:0.814286 199:0.795455 200:0.652174 201:0.5 202:0.651163 203:0.590909 204:0.5 205:0.101124 206:0.060241 207:0.325 208:0.684211 209:0.626866 210:0.257143 211:0.363636 212:0.311475 213:0.390244 214:0.541667 215:0.490909 216:0.116279 217:0.617647 218:0.609375 219:0.762712 220:0.959184 221:0.861538 222:0.873563 223:0.26087 224:0.266667 225:0.5 226:0.673913 227:0.907216 228:0.775281 229:0.464286 230:0.229167 231:0.280702 232:0.577778 233:1 234:0.8 235:0.426667 236:0.34 237:0.405405 238:0.792453 239:0.302326 240:0.30303 241:0.0186916 242:0.0864198 243:0.369565 244:0.803571 245:0.692308 246:0.564103 247:0.305263 248:0.232143 249:0.672414 250:0.709677 251:0.534483 252:0.170732 253:0.22807 254:0.444444 255:0.5 256:0.645161 257:0.521739 258:0.661017 259:0.2 260:0.22807 261:0.358491 262:0.65625 263:0.8625 264:0.804598 265:0.586957 266:0.457143 267:0.465116 268:0.815789 269:0.884615 270:0.8125 271:0.405063 272:0.447368 273:0.76 274:0.839286 275:0.575758 276:0.553191 277:0.00970874 278:0.242424 279:0.645833 280:0.794118 281:0.588235 282:0.528302 283:0.226667 284:0.723404 285:0.770492 286:0.6 287:0.631579 288:0.578947 
0.03125 1:0.185714 2:0.253731 3:0.179104 4:0.263158 5:0.179487 6:0.191781 7:0.962963 8:0.404255 9:0.135135 10:0.0833333 11:0.5 12:0.468254 13:0.40625 14:0.311111 15:0.303571 16:0.486486 17:0.605634 18:0.53211 19:0.193182 20:0.283019 21:0.288889 22:0.767442 23:0.461538 24:0.337209 25:0.306931 26:0.573171 27:0.769231 28:0.911765 29:0.897436 30:0.556818 31:0.472973 32:0.176471 33:0.581395 34:0.693878 35:0.791667 36:0.73494 37:0.428571 38:0.140351 39:0.163265 40:0.268293 41:0.467742 42:0.571429 43:0.828571 44:0.430769 45:0.128205 46:0.35 47:0.654762 48:0.674157 49:0.484848 50:0.255319 51:0.382979 52:0.916667 53:0.723404 54:0.75 55:0.352941 56:0.40678 57:0.288889 58:0.723077 59:0.511628 60:0.386364 61:0.252525 62:0.53 63:0.682927 64:0.882353 65:0.947368 66:0.603774 67:0.715686 68:0.571429 69:0.627119 70:0.881356 71:0.942857 72:0.679012 73:0.512195 74:0.25 75:0.245614 76:0.396226 77:0.357143 78:0.643678 79:0.384615 80:0.410714 81:0.288462 82:0.355556 83:0.75 84:0.66055 85:0.65625 86:0.4 87:0.518519 88:0.789474 89:0.830189 90:0.567568 91:0.392157 92:0.352941 93:0.272727 94:0.62069 95:0.632653 96:0.305085 97:0.264368 98:0.589474 99:0.674419 100:0.928571 101:0.864865 102:0.717391 103:0.857143 104:0.8125 105:0.875 106:0.85 107:0.758065 108:0.57971 109:0.350649 110:0.232143 111:0.301887 112:0.0877193 113:0.22449 114:0.405063 115:0.469388 116:0.588235 117:0.125 118:0.0416667 119:0.621212 120:0.67 121:0.382979 122:0.272727 123:0.288136 124:0.415094 125:0.735294 126:0.641975 127:0.538462 128:0.18 129:0.236842 130:0.682927 131:0.583333 132:0.387755 133:0.388889 134:0.469136 135:0.555556 136:0.944444 137:0.888889 138:0.682927 139:0.714286 140:0.234043 141:0.757576 142:0.717949 143:0.6 144:0.754386 145:0.710843 146:0.0232558 147:0.44 148:0.325581 149:0.631579 150:0.513514 151:0.764045 152:0.243243 153:0.0144928 154:0.119048 155:0.7125 156:0.7 157:0.746988 158:0.7 159:0.511111 160:0.413043 161:0.846154 162:0.727273 163:0.681818 164:0.25 165:0.583333 166:0.946429 167:0.840909 168:0.672131 169:0.741935 170:0.4 171:0.686275 172:0.944444 173:0.895833 174:0.678571 175:0.704225 176:0.638889 177:0.87037 178:0.753846 179:0.734375 180:0.771429 181:0.552632 182:0.289855 183:0.310345 184:0.393443 185:0.447368 186:0.49505 187:0.244898 188:0.118644 189:0.36 190:0.425 191:0.764706 192:0.537736 193:0.860465 194:0.954545 195:0.384615 196:0.422222 197:0.728814 198:0.4 199:0.431818 200:0.347826 201:0.684211 202:0.883721 203:0.681818 204:0.451613 205:0.258427 206:0.228916 207:0.35 208:0.789474 209:0.761194 210:0.2 211:0.522727 212:0.590164 213:0.756098 214:0.916667 215:0.8 216:0.44186 217:0.632353 218:0.484375 219:0.355932 220:0.44898 221:0.538462 222:0.689655 223:0.521739 224:0.253333 225:0.295455 226:0.565217 227:0.85567 228:0.797753 229:0.767857 230:0.458333 231:0.210526 232:0.533333 233:0.843137 234:0.84 235:0.386667 236:0.38 237:0.405405 238:0.962264 239:0.837209 240:0.969697 241:0.214953 242:0.246914 243:0.326087 244:0.910714 245:0.865385 246:0.871795 247:0.505263 248:0.410714 249:0.827586 250:0.887097 251:0.862069 252:0.439024 253:0.298246 254:0.466667 255:0.428571 256:0.806452 257:0.434783 258:0.576271 259:0.5 260:0.175439 262:0.5625 263:0.7625 264:0.793103 265:0.76087 266:0.685714 267:0.488372 268:0.763158 269:0.846154 270:0.8125 271:0.265823 272:0.342105 273:0.94 274:0.946429 275:0.878788 276:0.851064 277:0.271845 278:0.621212 279:0.791667 280:0.897059 281:0.676471 282:0.811321 283:0.506667 284:0.93617 285:0.868852 286:0.690909 287:0.736842 288:0.815789 
0.03125 1:0.0571429 2:0.238806 3:0.19403 4:0.22807 5:0.153846 6:0.150685 7:0.555556 8:0.255319 9:0.0945946 10:0.0208333 11:0.578125 12:0.555556 13:0.328125 14:0.244444 15:0.267857 16:0.378378 17:0.535211 18:0.587156 19:0.102273 20:0.245283 21:0.288889 22:0.790698 23:0.423077 24:0.465116 25:0.168317 26:0.560976 27:0.74359 28:0.838235 29:0.820513 30:0.625 31:0.351351 32:0.235294 33:0.604651 34:0.734694 35:0.770833 36:0.73494 37:0.238095 38:0.0877193 39:0.204082 40:0.341463 41:0.467742 42:0.538462 43:0.342857 44:0.338462 45:0.128205 46:0.3 47:0.678571 48:0.662921 49:0.348485 50:0.191489 51:0.425532 52:0.916667 53:0.723404 54:0.575 55:0.147059 56:0.322034 57:0.4 58:0.738462 59:0.674419 60:0.522727 61:0.171717 62:0.46 63:0.682927 64:0.862745 65:0.859649 66:0.528302 67:0.490196 68:0.440476 69:0.576271 70:0.915254 71:0.814286 72:0.654321 73:0.390244 74:0.166667 75:0.157895 76:0.433962 77:0.357143 78:0.666667 79:0.333333 80:0.267857 81:0.192308 82:0.355556 83:0.7375 84:0.688073 85:0.5625 86:0.425 87:0.555556 88:0.763158 89:0.773585 90:0.635135 91:0.470588 92:0.45098 93:0.454545 94:0.741379 95:0.816327 96:0.644068 97:0.275862 98:0.568421 99:0.697674 100:0.952381 101:0.837838 102:0.782609 103:0.940476 104:0.90625 105:0.916667 106:0.766667 107:0.758065 108:0.594203 109:0.012987 110:0.196429 111:0.150943 112:0.0877193 113:0.204082 114:0.367089 115:0.265306 116:0.411765 117:0.015625 118:0.0416667 119:0.681818 120:0.72 121:0.297872 122:0.333333 123:0.305085 124:0.320755 125:0.588235 126:0.617284 127:0.269231 128:0.26 129:0.342105 130:0.707317 131:0.611111 132:0.510204 133:0.433333 134:0.54321 135:0.527778 136:0.87037 137:0.833333 138:0.780488 139:0.642857 140:0.319149 141:0.757576 142:0.615385 143:0.625 144:0.77193 145:0.614458 146:0.139535 147:0.38 148:0.209302 149:0.578947 150:0.527027 151:0.707865 152:0.297297 153:0.115942 154:0.238095 155:0.7375 156:0.7 157:0.674699 158:0.666667 159:0.466667 160:0.369565 161:0.884615 162:0.75 163:0.736364 164:0.323529 165:0.666667 166:0.910714 167:0.727273 168:0.672131 169:0.669355 170:0.4 171:0.666667 172:0.930556 173:0.770833 174:0.5 175:0.56338 176:0.75 177:0.833333 178:0.753846 179:0.75 180:0.757143 181:0.789474 182:0.550725 183:0.362069 184:0.311475 185:0.342105 186:0.455446 187:0.346939 188:0.186441 189:0.48 190:0.525 191:0.77451 192:0.54717 193:0.813953 194:0.954545 195:0.353846 196:0.333333 197:0.745763 198:0.614286 199:0.590909 200:0.456522 201:0.552632 202:0.767442 203:0.840909 204:0.677419 205:0.235955 206:0.144578 207:0.375 208:0.868421 209:0.791045 210:0.371429 211:0.477273 212:0.459016 213:0.756098 214:0.8125 215:0.727273 216:0.395349 217:0.294118 218:0.296875 219:0.40678 220:0.653061 221:0.661538 222:0.747126 223:0.23913 224:0.266667 225:0.363636 226:0.565217 227:0.824742 228:0.786517 229:0.392857 230:0.375 231:0.333333 232:0.511111 233:0.823529 234:0.78 235:0.173333 236:0.18 237:0.540541 238:0.924528 239:0.767442 240:0.818182 241:0.130841 242:0.160494 243:0.369565 244:0.910714 245:0.923077 246:0.846154 247:0.389474 248:0.357143 249:0.827586 250:0.83871 251:0.741379 252:0.390244 253:0.0877193 254:0.244444 255:0.285714 256:0.548387 257:0.369565 258:0.576271 259:0.175 260:0.175439 261:0.169811 262:0.65625 263:0.775 264:0.793103 265:0.630435 266:0.571429 267:0.465116 268:0.789474 269:0.865385 270:0.825 271:0.240506 272:0.236842 273:0.96 274:0.910714 275:0.818182 276:0.914894 277:0.145631 278:0.469697 279:0.75 280:0.852941 281:0.676471 282:0.773585 283:0.373333 284:0.87234 285:0.836066 286:0.727273 287:0.842105 288:0.802632 
0.03125 1:0.357143 2:0.253731 3:0.134328 4:0.315789 5:0.512821 6:0.424658 7:0.62963 8:0.0851064 9:0.0945946 10:0.0833333 11:0.546875 12:0.484127 13:0.21875 14:0.0444444 15:0.285714 16:0.621622 17:0.661972 18:0.495413 19:0.0909091 21:0.0444444 22:0.55814 23:0.423077 24:0.290698 25:0.207921 26:0.621951 27:0.794872 28:0.882353 29:0.974359 30:0.511364 31:0.310811 32:0.264706 33:0.72093 34:0.816327 35:1 36:0.662651 37:0.357143 38:0.140351 39:0.204082 40:0.170732 41:0.629032 42:0.714286 43:0.285714 45:0.025641 46:0.225 47:0.619048 48:0.707865 49:0.19697 50:0.0638298 51:0.106383 52:0.416667 53:0.531915 54:0.775 56:0.0169492 57:0.0444444 58:0.415385 59:0.116279 60:0.363636 61:0.121212 62:0.53 63:0.658537 64:0.72549 65:0.754386 66:0.528302 67:0.323529 68:0.22619 69:0.169492 70:0.40678 71:0.542857 72:0.234568 73:0.414634 74:0.2 75:0.245614 76:0.471698 77:0.732143 78:0.965517 79:0.410256 80:0.214286 81:0.25 82:0.444444 83:0.7375 84:0.743119 85:0.5625 86:0.125 87:0.388889 88:0.605263 89:0.754717 90:0.716216 91:0.0392157 93:0.204545 94:0.517241 95:0.469388 96:0.355932 97:0.16092 98:0.515789 99:0.627907 100:0.880952 101:0.864865 102:0.73913 103:0.392857 104:0.078125 105:0.125 106:0.45 107:0.467742 108:0.26087 109:0.441558 110:0.267857 111:0.245283 112:0.298246 113:0.510204 114:0.759494 115:0.408163 116:0.382353 117:0.078125 118:0.125 119:0.742424 120:0.77 121:0.0425532 123:0.355932 124:0.433962 125:0.705882 126:0.802469 127:0.0897436 128:0.06 129:0.105263 130:0.341463 131:0.388889 132:0.469388 133:0.244444 134:0.518519 135:0.694444 136:0.925926 137:0.833333 138:0.97561 139:0.196429 140:0.446809 141:0.636364 142:0.846154 143:1 144:1 145:0.0481928 146:0.0697674 147:0.22 148:0.372093 149:0.710526 150:0.635135 151:0.168539 152:0.324324 153:0.0144928 154:0.261905 155:0.8 156:0.8 157:0.060241 158:0.333333 159:0.622222 160:0.521739 161:0.807692 162:0.897727 163:0.218182 164:0.102941 165:0.277778 166:0.714286 167:0.727273 168:1 169:0.233871 170:0.507692 171:0.843137 172:0.972222 173:0.895833 174:0.75 175:0.211268 176:0.777778 177:0.833333 178:0.830769 179:0.890625 180:0.814286 183:0.0517241 184:0.245902 185:0.421053 186:0.584158 187:0.204082 188:0.101695 189:0.12 190:0.225 191:0.715686 192:0.660377 193:0.953488 194:0.590909 195:0.246154 196:0.266667 197:0.610169 198:0.542857 199:0.25 200:0.0652174 201:0.421053 202:0.511628 203:0.613636 204:0.645161 205:0.258427 206:0.216867 207:0.325 208:0.631579 209:0.776119 210:0.457143 211:0.568182 212:0.557377 213:0.756098 214:0.895833 215:0.909091 216:0.627907 218:0.015625 219:0.118644 220:0.183673 221:0.338462 222:0.597701 223:0.434783 224:0.04 225:0.181818 226:0.369565 227:0.701031 228:0.808989 229:0.482143 230:0.333333 231:0.22807 232:0.555556 233:0.686275 234:0.72 235:0.133333 236:0.3 237:0.378378 238:0.735849 239:0.744186 240:0.939394 241:0.186916 242:0.271605 243:0.195652 244:0.696429 245:0.826923 246:0.717949 247:0.442105 248:0.517857 249:0.810345 250:0.870968 251:0.87931 252:0.756098 253:0.140351 254:0.133333 255:0.452381 256:0.419355 257:0.565217 258:0.474576 259:0.65 260:0.0350877 261:0.0943396 262:0.375 263:0.875 264:0.781609 265:0.586957 266:0.228571 267:0.604651 268:0.710526 269:0.807692 270:0.7375 271:0.126582 272:0.0263158 273:0.6 274:0.75 275:0.969697 276:0.702128 277:0.223301 278:0.515152 279:0.854167 280:0.926471 281:0.764706 282:0.716981 283:0.453333 284:0.829787 285:0.868852 286:0.763636 287:0.842105 288:0.894737 
0.03125 1:0.2 2:0.373134 3:0.328358 4:0.333333 5:0.333333 6:0.273973 7:0.444444 8:0.276596 9:0.121622 10:0.104167 11:0.625 12:0.507937 13:0.265625 14:0.244444 15:0.0535714 16:0.27027 17:0.591549 18:0.504587 19:0.193182 20:0.301887 21:0.422222 22:0.790698 23:0.423077 24:0.267442 25:0.158416 26:0.487805 27:0.692308 28:0.779412 29:0.769231 30:0.431818 31:0.378378 32:0.441176 33:0.72093 34:0.857143 35:0.895833 36:0.698795 37:0.452381 38:0.22807 39:0.326531 40:0.536585 41:0.677419 42:0.681319 43:0.2 44:0.261538 45:0.102564 46:0.175 47:0.738095 48:0.797753 49:0.363636 50:0.12766 51:0.12766 52:0.527778 53:0.765957 54:0.725 55:0.220588 56:0.288136 57:0.2 58:0.615385 59:0.44186 60:0.454545 61:0.161616 62:0.46 63:0.658537 64:0.686275 65:0.736842 66:0.528302 67:0.441176 68:0.285714 69:0.186441 70:0.440678 71:0.5 72:0.259259 73:0.634146 74:0.333333 75:0.333333 76:0.603774 77:0.625 78:0.804598 79:0.282051 80:0.196429 81:0.269231 82:0.355556 83:0.775 84:0.743119 85:0.46875 86:0.275 87:0.333333 88:0.394737 89:0.603774 90:0.72973 91:0.294118 92:0.235294 93:0.318182 94:0.551724 95:0.408163 96:0.389831 97:0.195402 98:0.526316 99:0.604651 100:0.809524 101:0.783784 102:0.717391 103:0.571429 104:0.25 105:0.354167 106:0.516667 107:0.548387 108:0.318841 109:0.272727 110:0.303571 111:0.264151 112:0.298246 113:0.44898 114:0.582278 115:0.265306 116:0.411765 117:0.171875 118:0.125 119:0.80303 120:0.78 121:0.234043 122:0.242424 123:0.135593 124:0.169811 125:0.529412 126:0.765432 127:0.25641 128:0.22 129:0.394737 130:0.560976 131:0.416667 132:0.55102 133:0.277778 134:0.382716 135:0.527778 136:0.814815 137:0.722222 138:0.829268 139:0.571429 140:0.319149 141:0.606061 142:0.820513 143:0.8 144:0.912281 145:0.39759 146:0.0465116 147:0.2 148:0.255814 149:0.552632 150:0.554054 151:0.258427 152:0.189189 153:0.101449 154:0.261905 155:0.775 156:0.78 157:0.277108 158:0.533333 159:0.244444 160:0.108696 161:0.653846 162:0.795455 163:0.363636 164:0.279412 165:0.611111 166:0.767857 167:0.659091 168:0.95082 169:0.362903 170:0.338462 171:0.745098 172:0.972222 173:0.979167 174:0.857143 175:0.338028 176:0.805556 177:0.944444 178:0.861538 179:0.96875 180:0.814286 181:0.460526 182:0.202899 183:0.155172 184:0.360656 185:0.447368 186:0.50495 187:0.244898 188:0.20339 189:0.36 190:0.55 191:0.803922 192:0.707547 193:0.604651 194:0.659091 195:0.215385 196:0.2 197:0.59322 198:0.642857 199:0.613636 200:0.347826 201:0.394737 202:0.534884 203:0.386364 204:0.467742 205:0.280899 206:0.168675 207:0.425 208:0.763158 209:0.850746 210:0.742857 211:0.511364 212:0.47541 213:0.707317 214:0.791667 215:0.781818 216:0.72093 217:0.338235 218:0.1875 219:0.271186 220:0.306122 221:0.353846 222:0.551724 223:0.369565 224:0.293333 225:0.386364 226:0.5 227:0.835052 228:0.797753 229:0.464286 230:0.208333 231:0.157895 232:0.288889 233:0.647059 234:0.68 235:0.36 236:0.42 237:0.243243 238:0.641509 239:0.302326 240:0.515152 241:0.224299 242:0.209877 243:0.347826 244:0.857143 245:1 246:0.897436 247:0.505263 248:0.428571 249:0.827586 250:0.983871 251:1 252:0.756098 253:0.122807 255:0.166667 256:0.193548 257:0.478261 258:0.542373 259:0.15 260:0.105263 261:0.169811 262:0.40625 263:0.8125 264:0.781609 265:0.543478 266:0.514286 267:0.232558 268:0.394737 269:0.692308 270:0.7 271:0.227848 272:0.263158 273:0.74 274:0.767857 275:0.878788 276:0.617021 277:0.184466 278:0.409091 279:0.75 280:0.911765 281:0.882353 282:0.716981 283:0.4 284:0.914894 285:0.934426 286:0.8 287:0.912281 288:0.815789 
0.03125 1:0.357143 2:0.328358 3:0.283582 4:0.385965 5:0.487179 6:0.356164 7:0.592593 8:0.340426 9:0.148649 10:0.291667 11:0.578125 12:0.47619 13:0.15625 14:0.311111 15:0.25 16:0.648649 17:0.690141 18:0.477064 19:0.125 20:0.0566038 21:0.0666667 22:0.581395 23:0.461538 24:0.197674 25:0.19802 26:0.621951 27:0.846154 28:0.955882 29:0.974359 30:0.465909 31:0.391892 32:0.382353 33:0.72093 34:0.877551 35:0.9375 36:0.60241 37:0.309524 38:0.0701754 39:0.326531 40:0.390244 41:0.612903 42:0.714286 43:0.0571429 44:0.0923077 45:0.128205 46:0.275 47:0.583333 48:0.696629 49:0.287879 50:0.12766 51:0.106383 52:0.527778 53:0.531915 54:0.675 55:0.0441176 57:0.0666667 58:0.461538 59:0.0697674 60:0.295455 61:0.151515 62:0.49 63:0.585366 64:0.72549 65:0.754386 66:0.396226 67:0.372549 68:0.202381 69:0.118644 70:0.40678 71:0.471429 72:0.271605 73:0.365854 74:0.15 75:0.175439 76:0.415094 77:0.625 78:0.885057 79:0.307692 80:0.196429 81:0.153846 82:0.266667 83:0.7 84:0.678899 85:0.65625 86:0.2 87:0.37037 88:0.368421 89:0.528302 90:0.581081 91:0.0588235 92:0.0588235 93:0.113636 94:0.37931 95:0.285714 96:0.169492 97:0.16092 98:0.484211 99:0.604651 100:0.761905 101:0.77027 102:0.608696 103:0.464286 104:0.078125 105:0.1875 106:0.483333 107:0.387097 108:0.231884 109:0.337662 110:0.5 111:0.301887 112:0.263158 113:0.469388 114:0.683544 115:0.265306 116:0.617647 117:0.09375 118:0.125 119:0.651515 120:0.74 121:0.191489 122:0.181818 123:0.271186 124:0.301887 125:0.411765 126:0.666667 127:0.179487 128:0.02 130:0.365854 131:0.222222 132:0.265306 133:0.266667 134:0.506173 135:0.611111 136:1 137:0.796296 138:0.853659 139:0.428571 140:0.361702 141:0.727273 142:0.769231 143:0.825 144:0.859649 145:0.0722892 146:0.209302 147:0.36 148:0.395349 149:0.631579 150:0.635135 151:0.235955 152:0.405405 153:0.057971 154:0.166667 155:0.775 156:0.76 157:0.108434 158:0.4 159:0.555556 160:0.478261 161:0.788462 162:0.875 163:0.190909 164:0.117647 165:0.277778 166:0.589286 167:0.568182 168:0.885246 169:0.193548 170:0.369231 171:0.72549 172:0.972222 173:0.958333 174:0.535714 175:0.211268 176:0.666667 177:0.740741 178:0.861538 179:0.96875 180:0.785714 181:0.25 182:0.057971 183:0.0344828 184:0.147541 185:0.368421 186:0.49505 187:0.183673 188:0.152542 190:0.175 191:0.637255 192:0.575472 193:0.813953 194:0.613636 195:0.230769 196:0.311111 197:0.525424 198:0.428571 199:0.181818 200:0.0217391 201:0.394737 202:0.534884 203:0.477273 204:0.467742 205:0.247191 206:0.180723 207:0.3 208:0.552632 209:0.701493 210:0.142857 211:0.522727 212:0.47541 213:0.707317 214:0.791667 215:0.854545 216:0.581395 217:0.323529 218:0.0625 219:0.101695 220:0.122449 221:0.323077 222:0.632184 223:0.434783 224:0.0666667 225:0.113636 226:0.26087 227:0.721649 228:0.764045 229:0.535714 230:0.354167 231:0.192982 232:0.377778 233:0.607843 234:0.68 235:0.186667 236:0.34 237:0.378378 238:0.716981 239:0.651163 240:0.939394 241:0.196262 242:0.222222 243:0.152174 244:0.625 245:0.692308 246:0.74359 247:0.442105 248:0.410714 249:0.758621 250:0.83871 251:0.793103 252:0.658537 253:0.157895 254:0.333333 255:0.404762 256:0.451613 257:0.478261 258:0.457627 259:0.55 260:0.245614 261:0.113208 262:0.3125 263:0.775 264:0.724138 265:0.630435 266:0.542857 267:0.581395 268:0.763158 269:0.711538 270:0.6375 271:0.177215 272:0.184211 273:0.62 274:0.678571 275:0.69697 276:0.574468 277:0.23301 278:0.515152 279:0.791667 280:0.897059 281:0.882353 282:0.622642 283:0.453333 284:0.87234 285:0.836066 286:0.8 287:1 288:0.828947 
0.03125 1:0.4 2:0.313433 3:0.179104 4:0.315789 5:0.512821 6:0.383562 7:0.666667 8:0.12766 9:0.121622 10:0.25 11:0.59375 12:0.47619 13:0.234375 14:0.155556 15:0.357143 16:0.648649 17:0.619718 18:0.440367 19:0.147727 20:0.113208 21:0.2 22:0.581395 23:0.192308 24:0.151163 25:0.237624 26:0.634146 27:0.897436 28:0.897059 29:0.820513 30:0.431818 31:0.405405 32:0.470588 33:0.790698 34:0.897959 35:0.875 36:0.638554 37:0.357143 38:0.175439 39:0.306122 40:0.243902 41:0.596774 42:0.67033 43:0.428571 44:0.0461538 45:0.102564 46:0.275 47:0.571429 48:0.595506 49:0.333333 50:0.212766 51:0.191489 52:0.444444 53:0.468085 54:0.575 55:0.0294118 56:0.0508475 57:0.111111 58:0.384615 59:0.0930233 60:0.318182 61:0.191919 62:0.5 63:0.560976 64:0.72549 65:0.719298 66:0.433962 67:0.392157 68:0.166667 69:0.101695 70:0.474576 71:0.471429 72:0.185185 73:0.463415 74:0.166667 75:0.157895 76:0.377358 77:0.678571 78:0.873563 79:0.461538 80:0.25 81:0.230769 82:0.266667 83:0.7 84:0.733945 85:0.59375 86:0.125 87:0.388889 88:0.473684 89:0.641509 90:0.648649 91:0.0588235 92:0.0784314 93:0.181818 94:0.465517 95:0.265306 96:0.118644 97:0.149425 98:0.568421 99:0.744186 100:0.880952 101:0.810811 102:0.673913 103:0.333333 104:0.125 105:0.166667 106:0.383333 107:0.451613 108:0.26087 109:0.467532 110:0.303571 111:0.245283 112:0.350877 113:0.55102 114:0.772152 115:0.408163 116:0.323529 117:0.0625 118:0.270833 119:0.757576 120:0.77 121:0.0851064 123:0.288136 124:0.396226 125:0.352941 126:0.716049 127:0.128205 128:0.02 129:0.210526 130:0.365854 131:0.166667 132:0.326531 133:0.233333 134:0.469136 135:0.861111 136:0.87037 137:0.703704 138:0.780488 139:0.178571 140:0.382979 141:0.818182 142:0.692308 143:0.85 144:0.842105 145:0.0722892 146:0.139535 147:0.28 148:0.418605 149:0.578947 150:0.554054 151:0.213483 152:0.378378 153:0.0434783 154:0.238095 155:0.7 156:0.72 157:0.108434 158:0.366667 159:0.622222 160:0.608696 161:0.730769 162:0.840909 163:0.181818 165:0.166667 166:0.607143 167:0.545455 168:0.868852 169:0.193548 170:0.476923 171:0.823529 172:0.986111 173:1 174:0.678571 175:0.169014 176:0.944444 177:0.851852 178:0.876923 179:1 180:0.8 181:0.0131579 183:0.0344828 184:0.213115 185:0.342105 186:0.445545 187:0.183673 188:0.135593 189:0.14 190:0.225 191:0.627451 192:0.54717 193:1 194:0.590909 195:0.261538 196:0.311111 197:0.542373 198:0.471429 199:0.272727 200:0.0217391 201:0.421053 202:0.511628 203:0.431818 204:0.387097 205:0.224719 206:0.192771 207:0.45 208:0.605263 209:0.716418 210:0.2 211:0.488636 212:0.459016 213:0.634146 214:0.708333 215:0.763636 216:0.511628 217:0.0735294 218:0.09375 219:0.118644 220:0.102041 221:0.369231 222:0.62069 223:0.586957 224:0.0666667 225:0.181818 226:0.304348 227:0.742268 228:0.775281 229:0.660714 230:0.4375 231:0.263158 232:0.422222 233:0.607843 234:0.68 235:0.24 236:0.38 237:0.405405 238:0.641509 239:0.697674 240:1 241:0.196262 242:0.197531 243:0.217391 244:0.714286 245:0.711538 246:0.74359 247:0.463158 248:0.428571 249:0.827586 250:0.903226 251:0.862069 252:0.780488 253:0.192982 254:0.222222 255:0.47619 256:0.451613 257:0.521739 258:0.457627 259:0.675 260:0.140351 261:0.226415 262:0.28125 263:0.7625 264:0.747126 265:0.608696 266:0.257143 267:0.72093 268:0.763158 269:0.788462 270:0.6625 271:0.151899 272:0.157895 273:0.6 274:0.75 275:0.818182 276:0.553191 277:0.242718 278:0.621212 279:0.8125 280:0.955882 281:1 282:0.679245 283:0.453333 284:0.87234 285:0.819672 286:0.872727 287:0.929825 288:0.828947 
0.03125 1:0.214286 2:0.358209 3:0.328358 4:0.350877 5:0.487179 6:0.273973 7:0.555556 8:0.276596 9:0.121622 10:0.125 11:0.6875 12:0.5 13:0.296875 14:0.288889 15:0.160714 16:0.243243 17:0.591549 18:0.477064 19:0.181818 20:0.320755 21:0.422222 22:0.767442 23:0.346154 24:0.255814 25:0.138614 26:0.463415 27:0.717949 28:0.764706 29:0.794872 30:0.409091 31:0.351351 32:0.441176 33:0.790698 34:0.693878 35:0.854167 36:0.590361 37:0.52381 38:0.263158 39:0.428571 40:0.609756 41:0.677419 42:0.714286 43:0.228571 44:0.276923 45:0.153846 46:0.325 47:0.738095 48:0.797753 49:0.378788 50:0.191489 51:0.191489 52:0.638889 53:0.765957 54:0.8 55:0.220588 56:0.305085 57:0.111111 58:0.523077 59:0.534884 60:0.568182 61:0.131313 62:0.45 63:0.585366 64:0.666667 65:0.666667 66:0.471698 67:0.382353 68:0.190476 69:0.135593 70:0.491525 71:0.514286 72:0.271605 73:0.658537 74:0.366667 75:0.280702 76:0.716981 77:0.607143 78:0.701149 79:0.307692 80:0.160714 81:0.307692 82:0.333333 83:0.725 84:0.669725 85:0.5625 86:0.3 87:0.351852 88:0.526316 89:0.622642 90:0.662162 91:0.254902 92:0.215686 93:0.25 94:0.534483 95:0.55102 96:0.389831 97:0.114943 98:0.484211 99:0.581395 100:0.738095 101:0.756757 102:0.673913 103:0.369048 104:0.125 105:0.166667 106:0.45 107:0.451613 108:0.231884 109:0.207792 110:0.321429 111:0.358491 112:0.315789 113:0.510204 114:0.594937 115:0.183673 116:0.470588 117:0.125 118:0.104167 119:0.80303 120:0.78 121:0.212766 122:0.242424 123:0.152542 124:0.169811 125:0.558824 126:0.728395 127:0.217949 128:0.18 129:0.421053 130:0.560976 131:0.5 132:0.530612 133:0.166667 134:0.333333 135:0.527778 136:0.796296 137:0.666667 138:0.780488 139:0.517857 140:0.276596 141:0.545455 142:0.74359 143:0.85 144:0.842105 145:0.349398 146:0.162791 147:0.32 148:0.348837 149:0.684211 150:0.567568 151:0.235955 152:0.243243 153:0.0724638 154:0.238095 155:0.7625 156:0.76 157:0.216867 158:0.6 159:0.222222 160:0.0869565 161:0.673077 162:0.829545 163:0.236364 164:0.205882 165:0.527778 166:0.714286 167:0.704545 168:0.95082 169:0.201613 170:0.230769 171:0.686275 172:0.875 173:0.875 174:0.714286 175:0.15493 176:0.694444 177:0.944444 178:0.815385 179:0.796875 180:0.728571 181:0.394737 182:0.144928 183:0.0862069 184:0.344262 185:0.407895 186:0.455446 187:0.265306 188:0.254237 189:0.48 190:0.7 191:0.843137 192:0.688679 193:0.651163 194:0.659091 195:0.2 196:0.244444 197:0.627119 198:0.542857 199:0.522727 200:0.195652 201:0.368421 202:0.581395 203:0.613636 204:0.451613 205:0.168539 206:0.108434 207:0.4 208:0.789474 209:0.835821 210:0.542857 211:0.443182 212:0.393443 213:0.585366 214:0.8125 215:0.854545 216:0.581395 217:0.441176 218:0.203125 219:0.169492 220:0.285714 221:0.415385 222:0.528736 223:0.434783 224:0.293333 225:0.386364 226:0.543478 227:0.835052 228:0.797753 229:0.535714 230:0.270833 231:0.175439 232:0.311111 233:0.627451 234:0.74 235:0.386667 236:0.44 237:0.216216 238:0.584906 239:0.534884 240:0.787879 241:0.158879 242:0.160494 243:0.282609 244:0.785714 245:0.903846 246:0.948718 247:0.410526 248:0.321429 249:0.810345 250:0.903226 251:0.862069 252:0.634146 253:0.175439 254:0.244444 255:0.404762 256:0.322581 257:0.456522 258:0.508475 259:0.25 260:0.210526 261:0.264151 262:0.46875 263:0.7875 264:0.735632 265:0.652174 266:0.514286 267:0.209302 268:0.447368 269:0.807692 270:0.7375 271:0.253165 272:0.315789 273:0.74 274:0.803571 275:1 276:0.808511 277:0.184466 278:0.393939 279:0.770833 280:0.852941 281:0.735294 282:0.735849 283:0.386667 284:0.87234 285:0.918033 286:0.836364 287:0.859649 288:0.776316 
0.03125 1:0.171429 2:0.238806 3:0.223881 4:0.175439 5:0.512821 6:0.287671 7:0.37037 9:0.0675676 10:0.125 11:0.671875 12:0.531746 13:0.34375 15:0.0535714 16:0.297297 17:0.619718 18:0.513761 19:0.272727 20:0.283019 21:0.288889 22:0.744186 23:0.538462 24:0.337209 25:0.178218 26:0.463415 27:0.589744 28:0.838235 29:0.846154 30:0.431818 31:0.324324 32:0.529412 33:0.744186 34:0.918367 35:0.916667 36:0.674699 37:0.547619 38:0.298246 39:0.326531 40:0.756098 41:0.774194 42:0.714286 43:0.228571 44:0.246154 45:0.25641 46:0.375 47:0.797619 48:0.820225 49:0.409091 50:0.106383 51:0.276596 52:0.583333 53:0.723404 54:0.75 55:0.294118 56:0.355932 57:0.422222 58:0.569231 59:0.44186 60:0.613636 61:0.151515 62:0.48 63:0.512195 64:0.627451 65:0.649123 66:0.528302 67:0.372549 68:0.154762 69:0.118644 70:0.423729 71:0.442857 72:0.234568 73:0.634146 74:0.35 75:0.333333 76:0.641509 77:0.660714 78:0.804598 79:0.307692 80:0.125 81:0.288462 82:0.333333 83:0.8125 84:0.798165 85:0.5625 86:0.35 87:0.388889 88:0.421053 89:0.773585 90:0.837838 91:0.372549 92:0.372549 93:0.454545 94:0.586207 95:0.612245 96:0.627119 97:0.172414 98:0.515789 99:0.674419 100:0.904762 101:0.824324 102:0.869565 103:0.464286 104:0.171875 105:0.1875 106:0.533333 107:0.548387 108:0.275362 109:0.181818 110:0.25 111:0.226415 112:0.245614 113:0.530612 114:0.708861 115:0.408163 117:0.15625 118:0.291667 119:0.848485 120:0.84 121:0.191489 122:0.272727 123:0.169492 124:0.301887 125:0.558824 126:0.82716 127:0.128205 128:0.18 129:0.394737 130:0.560976 131:0.527778 132:0.693878 133:0.177778 134:0.345679 135:0.638889 136:0.777778 137:0.759259 138:0.853659 139:0.107143 140:0.425532 141:0.909091 142:0.74359 143:0.925 144:0.877193 145:0.0722892 146:0.27907 147:0.24 148:0.348837 149:0.736842 150:0.621622 151:0.179775 152:0.216216 153:0.173913 154:0.333333 155:0.8375 156:0.86 157:0.144578 158:0.4 159:0.355556 160:0.282609 161:0.673077 162:0.886364 163:0.236364 164:0.235294 165:0.75 166:0.892857 167:0.659091 168:0.983607 169:0.201613 170:0.276923 171:0.705882 172:0.888889 173:0.895833 174:0.75 175:0.197183 176:0.916667 177:0.87037 178:0.753846 179:0.953125 180:0.785714 181:0.473684 182:0.231884 183:0.275862 184:0.508197 185:0.526316 186:0.534653 187:0.285714 188:0.254237 189:0.46 190:0.75 191:0.882353 192:0.783019 193:0.767442 194:0.568182 195:0.261538 196:0.222222 197:0.677966 198:0.728571 199:0.863636 200:0.391304 201:0.5 202:0.488372 203:0.568182 204:0.645161 205:0.258427 206:0.168675 207:0.525 208:0.842105 209:0.925373 210:0.8 211:0.5 212:0.508197 213:0.804878 214:0.958333 215:0.890909 216:0.581395 217:0.470588 218:0.234375 219:0.186441 220:0.346939 221:0.523077 222:0.597701 223:0.391304 224:0.306667 225:0.386364 226:0.521739 227:0.886598 228:0.820225 229:0.428571 230:0.291667 231:0.22807 232:0.333333 233:0.705882 234:0.74 235:0.373333 236:0.4 237:0.324324 238:0.603774 239:0.44186 240:0.878788 241:0.196262 242:0.234568 243:0.347826 244:0.785714 245:0.865385 246:0.948718 247:0.463158 248:0.428571 249:0.793103 250:0.903226 251:0.810345 252:0.658537 253:0.175439 254:0.2 255:0.357143 256:0.354839 257:0.478261 258:0.542373 259:0.25 260:0.0877193 261:0.320755 262:0.6875 263:0.8875 264:0.83908 265:0.673913 266:0.114286 267:0.255814 268:0.447368 269:0.807692 270:0.8375 271:0.316456 272:0.315789 273:0.84 274:0.785714 275:0.909091 276:0.744681 277:0.223301 278:0.393939 279:0.666667 280:0.867647 281:0.705882 282:0.716981 283:0.44 284:0.829787 285:0.868852 286:0.818182 287:0.789474 288:0.75 
0.03125 1:0.214286 2:0.283582 3:0.268657 4:0.298246 5:0.538462 6:0.30137 7:0.481481 8:0.0851064 9:0.121622 10:0.145833 11:0.71875 12:0.531746 13:0.359375 14:0.0222222 15:0.107143 16:0.297297 17:0.619718 18:0.504587 19:0.261364 20:0.301887 21:0.355556 22:0.674419 23:0.5 24:0.337209 25:0.207921 26:0.47561 27:0.615385 28:0.808824 29:0.74359 30:0.443182 31:0.310811 32:0.470588 33:0.697674 34:0.857143 35:0.833333 36:0.662651 37:0.547619 38:0.315789 39:0.326531 40:0.731707 41:0.790323 42:0.725275 43:0.257143 44:0.261538 45:0.282051 46:0.475 47:0.809524 48:0.786517 49:0.454545 50:0.106383 51:0.255319 52:0.694444 53:0.808511 54:0.8 55:0.264706 56:0.305085 57:0.311111 58:0.538462 59:0.55814 60:0.704545 61:0.151515 62:0.49 63:0.512195 64:0.666667 65:0.666667 66:0.45283 67:0.392157 68:0.166667 69:0.0847458 70:0.508475 71:0.485714 72:0.222222 73:0.634146 74:0.35 75:0.368421 76:0.716981 77:0.696429 78:0.827586 79:0.410256 80:0.214286 81:0.346154 82:0.311111 83:0.825 84:0.779817 85:0.53125 86:0.325 87:0.37037 88:0.421053 89:0.773585 90:0.77027 91:0.294118 92:0.294118 93:0.340909 94:0.534483 95:0.673469 96:0.576271 97:0.137931 98:0.505263 99:0.627907 100:0.738095 101:0.783784 102:0.76087 103:0.571429 104:0.203125 105:0.229167 106:0.483333 107:0.516129 108:0.275362 109:0.220779 110:0.321429 111:0.301887 112:0.315789 113:0.591837 114:0.696203 115:0.428571 116:0.0588235 117:0.203125 118:0.25 119:0.848485 120:0.84 121:0.12766 122:0.212121 123:0.152542 124:0.245283 125:0.647059 126:0.82716 127:0.0897436 128:0.22 129:0.526316 130:0.536585 131:0.472222 132:0.653061 133:0.166667 134:0.37037 135:0.666667 136:0.777778 137:0.703704 138:0.853659 139:0.0892857 140:0.404255 141:0.787879 142:0.641026 143:0.875 144:0.842105 145:0.0722892 146:0.302326 147:0.24 148:0.325581 149:0.736842 150:0.635135 151:0.168539 152:0.216216 153:0.115942 154:0.404762 155:0.85 156:0.85 157:0.168675 158:0.5 159:0.333333 160:0.304348 161:0.692308 162:0.909091 163:0.190909 164:0.25 165:0.722222 166:0.875 167:0.727273 168:0.918033 169:0.169355 170:0.307692 171:0.686275 172:0.875 173:0.958333 174:0.678571 175:0.112676 176:0.777778 177:0.87037 178:0.784615 179:0.96875 180:0.771429 181:0.513158 182:0.231884 183:0.206897 184:0.442623 185:0.5 186:0.514851 187:0.387755 188:0.322034 189:0.5 190:0.75 191:0.911765 192:0.764151 193:0.744186 194:0.568182 195:0.246154 196:0.111111 197:0.644068 198:0.685714 199:0.704545 200:0.26087 201:0.473684 202:0.44186 203:0.659091 204:0.693548 205:0.213483 206:0.192771 207:0.55 208:0.842105 209:0.865672 210:0.571429 211:0.465909 212:0.52459 213:0.707317 214:0.833333 215:0.763636 216:0.488372 217:0.411765 218:0.1875 219:0.186441 220:0.346939 221:0.507692 222:0.62069 223:0.456522 224:0.306667 225:0.431818 226:0.586957 227:0.907216 228:0.842697 229:0.5 230:0.1875 231:0.105263 232:0.288889 233:0.803922 234:0.82 235:0.466667 236:0.42 237:0.216216 238:0.603774 239:0.651163 240:0.909091 241:0.205607 242:0.259259 243:0.326087 244:0.785714 245:0.884615 246:1 247:0.410526 248:0.410714 249:0.775862 250:0.887097 251:0.827586 252:0.634146 253:0.0701754 254:0.177778 255:0.357143 256:0.354839 257:0.565217 258:0.576271 259:0.225 260:0.140351 261:0.283019 262:0.71875 263:0.875 264:0.83908 265:0.673913 266:0.114286 267:0.232558 268:0.421053 269:0.75 270:0.8375 271:0.265823 272:0.342105 273:0.88 274:0.803571 275:0.818182 276:0.744681 277:0.184466 278:0.424242 279:0.708333 280:0.867647 281:0.676471 282:0.698113 283:0.346667 284:0.765957 285:0.901639 286:0.836364 287:0.859649 288:0.723684 
0.03125 1:0.185714 2:0.38806 3:0.328358 4:0.333333 5:0.358974 6:0.219178 7:0.518519 8:0.340426 9:0.189189 10:0.229167 11:0.625 12:0.484127 13:0.3125 14:0.355556 15:0.125 16:0.351351 17:0.577465 18:0.477064 19:0.193182 20:0.339623 21:0.311111 22:0.790698 23:0.384615 24:0.267442 25:0.128713 26:0.365854 27:0.589744 28:0.779412 29:0.717949 30:0.386364 31:0.324324 32:0.323529 33:0.767442 34:0.795918 35:0.791667 36:0.650602 37:0.5 38:0.368421 39:0.44898 40:0.609756 41:0.693548 42:0.692308 43:0.314286 44:0.307692 45:0.307692 46:0.325 47:0.714286 48:0.775281 49:0.424242 50:0.148936 51:0.12766 52:0.527778 53:0.765957 54:0.65 55:0.191176 56:0.237288 57:0.244444 58:0.553846 59:0.55814 60:0.659091 61:0.121212 62:0.44 63:0.585366 64:0.627451 65:0.649123 66:0.528302 67:0.313725 68:0.130952 69:0.0677966 70:0.423729 71:0.442857 72:0.209877 73:0.707317 74:0.316667 75:0.245614 76:0.622642 77:0.571429 78:0.724138 79:0.307692 80:0.160714 81:0.192308 82:0.288889 83:0.7625 84:0.706422 85:0.59375 86:0.2 87:0.333333 88:0.421053 89:0.54717 90:0.72973 91:0.27451 92:0.235294 93:0.318182 94:0.517241 95:0.591837 96:0.457627 97:0.091954 98:0.473684 99:0.581395 100:0.785714 101:0.783784 102:0.717391 103:0.285714 105:0.0625 106:0.416667 107:0.483871 108:0.231884 109:0.194805 110:0.375 111:0.301887 112:0.245614 113:0.428571 114:0.594937 115:0.163265 116:0.470588 117:0.171875 118:0.104167 119:0.757576 120:0.76 121:0.234043 122:0.393939 123:0.0847458 124:0.169811 125:0.5 126:0.740741 127:0.128205 128:0.12 129:0.394737 130:0.463415 131:0.388889 132:0.571429 133:0.111111 134:0.259259 135:0.444444 136:0.796296 137:0.62963 138:0.731707 139:0.410714 140:0.340426 141:0.818182 142:0.74359 143:0.725 144:0.77193 145:0.313253 146:0.209302 147:0.38 148:0.27907 149:0.631579 150:0.554054 151:0.191011 152:0.243243 153:0.173913 154:0.261905 155:0.8125 156:0.78 157:0.144578 158:0.466667 159:0.244444 160:0.173913 161:0.692308 162:0.772727 163:0.163636 164:0.205882 165:0.611111 166:0.785714 167:0.659091 168:0.885246 169:0.145161 170:0.184615 171:0.588235 172:0.847222 173:0.8125 174:0.678571 175:0.0985915 176:0.694444 177:0.796296 178:0.784615 179:0.75 180:0.714286 181:0.486842 182:0.289855 183:0.241379 184:0.344262 185:0.407895 186:0.475248 187:0.306122 188:0.237288 189:0.4 190:0.625 191:0.784314 192:0.688679 193:0.581395 194:0.613636 195:0.184615 196:0.2 197:0.59322 198:0.657143 199:0.545455 200:0.23913 201:0.263158 202:0.465116 203:0.636364 204:0.532258 205:0.191011 206:0.108434 207:0.425 208:0.763158 209:0.80597 210:0.542857 211:0.443182 212:0.409836 213:0.682927 214:0.875 215:0.818182 216:0.55814 217:0.602941 218:0.390625 219:0.288136 220:0.387755 221:0.384615 222:0.528736 223:0.5 224:0.36 225:0.477273 226:0.565217 227:0.845361 228:0.786517 229:0.446429 230:0.145833 231:0.157895 232:0.311111 233:0.72549 234:0.64 235:0.386667 236:0.4 237:0.243243 238:0.584906 239:0.488372 240:0.878788 241:0.149533 242:0.17284 243:0.304348 244:0.767857 245:0.865385 246:0.923077 247:0.368421 248:0.303571 249:0.810345 250:0.854839 251:0.87931 252:0.609756 253:0.263158 254:0.222222 255:0.357143 256:0.225806 257:0.5 258:0.559322 259:0.375 260:0.22807 261:0.283019 262:0.4375 263:0.8375 264:0.770115 265:0.73913 266:0.542857 267:0.186047 268:0.421053 269:0.788462 270:0.7125 271:0.291139 272:0.342105 273:0.82 274:0.75 275:0.909091 276:0.680851 277:0.174757 278:0.393939 279:0.729167 280:0.808824 281:0.676471 282:0.679245 283:0.36 284:0.893617 285:0.852459 286:0.745455 287:0.789474 288:0.710526 
0.03125 1:0.171429 2:0.223881 3:0.19403 4:0.315789 5:0.435897 6:0.232877 7:0.444444 8:0.191489 9:0.121622 10:0.291667 11:0.734375 12:0.539683 13:0.328125 14:0.288889 15:0.0357143 16:0.351351 17:0.619718 18:0.541284 19:0.227273 20:0.320755 21:0.311111 22:0.767442 23:0.346154 24:0.360465 25:0.128713 26:0.45122 27:0.615385 28:0.720588 29:0.794872 30:0.397727 31:0.364865 32:0.588235 33:0.72093 34:0.632653 35:0.75 36:0.614458 37:0.452381 38:0.298246 39:0.469388 40:0.658537 41:0.774194 42:0.747253 43:0.314286 44:0.292308 45:0.307692 46:0.4 47:0.77381 48:0.764045 49:0.439394 50:0.148936 51:0.234043 52:0.638889 53:0.723404 54:0.675 55:0.25 56:0.322034 57:0.288889 58:0.569231 59:0.55814 60:0.636364 61:0.0909091 62:0.43 63:0.487805 64:0.627451 65:0.666667 66:0.490566 67:0.264706 68:0.0833333 69:0.118644 70:0.576271 71:0.514286 72:0.358025 73:0.658537 74:0.383333 75:0.350877 76:0.679245 77:0.696429 78:0.793103 79:0.358974 80:0.214286 81:0.288462 82:0.377778 83:0.8 84:0.779817 85:0.53125 86:0.3 87:0.333333 88:0.473684 89:0.735849 90:0.851351 91:0.294118 92:0.313725 93:0.25 94:0.551724 95:0.673469 96:0.610169 97:0.103448 98:0.463158 99:0.581395 100:0.761905 101:0.77027 102:0.73913 103:0.27381 104:0.03125 105:0.125 106:0.45 107:0.532258 108:0.318841 109:0.194805 110:0.303571 111:0.207547 112:0.245614 113:0.489796 114:0.632911 115:0.122449 116:0.411765 117:0.171875 118:0.270833 119:0.818182 120:0.85 121:0.234043 122:0.333333 123:0.101695 124:0.150943 125:0.617647 126:0.814815 127:0.205128 128:0.18 129:0.263158 130:0.439024 131:0.416667 132:0.693878 133:0.177778 134:0.308642 135:0.472222 136:0.796296 137:0.666667 138:0.780488 139:0.535714 140:0.234043 141:0.666667 142:0.871795 143:0.7 144:0.719298 145:0.277108 146:0.209302 147:0.34 148:0.372093 149:0.842105 150:0.621622 151:0.213483 152:0.351351 153:0.231884 154:0.404762 155:0.85 156:0.82 157:0.144578 158:0.566667 159:0.288889 160:0.173913 161:0.730769 162:0.852273 163:0.181818 164:0.25 165:0.666667 166:0.839286 167:0.840909 168:0.967213 169:0.185484 170:0.246154 171:0.627451 172:0.888889 173:0.958333 174:0.892857 175:0.169014 176:0.638889 177:0.87037 178:0.8 179:0.828125 180:0.757143 181:0.486842 182:0.318841 183:0.293103 184:0.459016 185:0.552632 186:0.564356 187:0.326531 188:0.271186 189:0.44 190:0.675 191:0.872549 192:0.764151 193:0.627907 194:0.636364 195:0.215385 196:0.222222 197:0.677966 198:0.742857 199:0.704545 200:0.369565 201:0.315789 202:0.465116 203:0.636364 204:0.66129 205:0.191011 206:0.144578 207:0.4 208:0.763158 209:0.895522 210:0.714286 211:0.443182 212:0.393443 213:0.682927 214:0.854167 215:0.8 216:0.465116 217:0.397059 218:0.25 219:0.322034 220:0.469388 221:0.6 222:0.655172 223:0.413043 224:0.28 225:0.431818 226:0.608696 227:0.907216 228:0.808989 229:0.482143 230:0.208333 231:0.140351 232:0.288889 233:0.72549 234:0.72 235:0.426667 236:0.44 237:0.216216 238:0.698113 239:0.511628 240:0.757576 241:0.168224 242:0.197531 243:0.326087 244:0.785714 245:0.826923 246:0.74359 247:0.389474 248:0.339286 249:0.741379 250:0.870968 251:0.844828 252:0.585366 253:0.22807 254:0.288889 255:0.380952 256:0.451613 257:0.521739 258:0.559322 259:0.375 260:0.245614 261:0.301887 262:0.65625 263:0.825 264:0.827586 265:0.608696 266:0.457143 267:0.139535 268:0.421053 269:0.75 270:0.7875 271:0.278481 272:0.368421 273:0.7 274:0.75 275:1 276:0.829787 277:0.145631 278:0.363636 279:0.625 280:0.882353 281:0.794118 282:0.735849 283:0.306667 284:0.765957 285:0.885246 286:0.854545 287:0.807018 288:0.671053 
0.03125 1:0.142857 2:0.298507 3:0.283582 4:0.315789 5:0.487179 6:0.273973 7:0.333333 8:0.212766 9:0.148649 10:0.125 11:0.703125 12:0.531746 13:0.328125 14:0.244444 15:0.0714286 16:0.27027 17:0.605634 18:0.513761 19:0.261364 20:0.339623 21:0.4 22:0.767442 23:0.5 24:0.337209 25:0.168317 26:0.390244 27:0.717949 28:0.823529 29:0.871795 30:0.443182 31:0.351351 32:0.411765 33:0.72093 34:0.959184 35:0.958333 36:0.650602 37:0.47619 38:0.333333 39:0.387755 40:0.585366 41:0.725806 42:0.769231 43:0.257143 44:0.292308 45:0.179487 46:0.375 47:0.77381 48:0.831461 49:0.363636 50:0.148936 51:0.12766 52:0.5 53:0.723404 54:0.8 55:0.205882 56:0.288136 57:0.266667 58:0.6 59:0.465116 60:0.454545 61:0.131313 62:0.46 63:0.634146 64:0.666667 65:0.649123 66:0.45283 67:0.352941 68:0.154762 69:0.101695 70:0.389831 71:0.428571 72:0.246914 73:0.536585 74:0.233333 75:0.280702 76:0.716981 77:0.660714 78:0.724138 79:0.282051 80:0.125 81:0.25 82:0.333333 83:0.8125 84:0.779817 85:0.6875 86:0.325 87:0.37037 88:0.447368 89:0.716981 90:0.810811 91:0.372549 92:0.313725 93:0.295455 94:0.551724 95:0.591837 96:0.610169 97:0.114943 98:0.473684 99:0.465116 100:0.738095 101:0.797297 102:0.869565 103:0.440476 104:0.078125 105:0.104167 106:0.466667 107:0.564516 108:0.318841 109:0.194805 110:0.339286 111:0.301887 112:0.298246 113:0.530612 114:0.607595 115:0.163265 116:0.441176 117:0.171875 118:0.208333 119:0.878788 120:0.82 121:0.148936 122:0.333333 123:0.135593 124:0.169811 125:0.558824 126:0.864198 127:0.153846 128:0.18 129:0.342105 130:0.536585 131:0.444444 132:0.714286 133:0.177778 134:0.320988 135:0.5 136:0.851852 137:0.777778 138:0.804878 139:0.446429 140:0.297872 141:0.69697 142:0.846154 143:0.9 144:0.842105 145:0.228916 146:0.186047 147:0.26 148:0.395349 149:0.710526 150:0.675676 151:0.202247 152:0.243243 153:0.130435 154:0.357143 155:0.8375 156:0.85 157:0.144578 158:0.433333 159:0.288889 160:0.195652 161:0.692308 162:0.806818 163:0.227273 164:0.25 165:0.611111 166:0.803571 167:0.727273 168:0.967213 169:0.185484 170:0.230769 171:0.686275 172:0.902778 173:0.958333 174:0.857143 175:0.126761 176:0.694444 177:0.851852 178:0.815385 179:0.921875 180:0.785714 181:0.539474 182:0.304348 183:0.293103 184:0.540984 185:0.539474 186:0.514851 187:0.265306 188:0.186441 189:0.48 190:0.65 191:0.862745 192:0.764151 193:0.651163 194:0.704545 195:0.292308 196:0.266667 197:0.661017 198:0.685714 199:0.75 200:0.369565 201:0.447368 202:0.534884 203:0.545455 204:0.66129 205:0.269663 206:0.192771 207:0.475 208:0.868421 209:0.835821 210:0.857143 211:0.477273 212:0.491803 213:0.658537 214:0.895833 215:0.818182 216:0.674419 217:0.455882 218:0.265625 219:0.338983 220:0.428571 221:0.492308 222:0.609195 223:0.434783 224:0.333333 225:0.363636 226:0.630435 227:0.896907 228:0.842697 229:0.428571 230:0.208333 231:0.140351 232:0.266667 233:0.72549 234:0.84 235:0.413333 236:0.4 237:0.108108 238:0.566038 239:0.44186 240:0.636364 241:0.196262 242:0.209877 243:0.282609 244:0.75 245:0.903846 246:0.794872 247:0.410526 248:0.321429 249:0.810345 250:0.903226 251:0.913793 252:0.609756 253:0.22807 254:0.177778 255:0.285714 256:0.225806 257:0.413043 258:0.59322 259:0.25 260:0.140351 261:0.245283 262:0.5 263:0.8375 264:0.827586 265:0.608696 266:0.457143 267:0.186047 268:0.368421 269:0.75 270:0.775 271:0.291139 272:0.342105 273:0.72 274:0.75 275:0.909091 276:0.723404 277:0.194175 278:0.409091 279:0.625 280:0.838235 281:0.794118 282:0.679245 283:0.36 284:0.851064 285:0.819672 286:0.727273 287:0.859649 288:0.763158 
0.03125 1:0.214286 2:0.298507 3:0.223881 4:0.280702 5:0.461538 6:0.273973 7:0.481481 8:0.0425532 9:0.108108 10:0.125 11:0.609375 12:0.5 13:0.390625 14:0.0666667 15:0.142857 16:0.378378 17:0.56338 18:0.477064 19:0.25 20:0.339623 21:0.488889 22:0.837209 23:0.576923 24:0.267442 25:0.19802 26:0.52439 27:0.820513 28:0.867647 29:0.794872 30:0.409091 31:0.378378 32:0.617647 33:0.813953 34:0.959184 35:0.875 36:0.698795 37:0.547619 38:0.280702 39:0.367347 40:0.609756 41:0.693548 42:0.714286 43:0.257143 44:0.230769 45:0.153846 46:0.275 47:0.690476 48:0.775281 49:0.424242 50:0.0212766 51:0.234043 52:0.555556 53:0.680851 54:0.675 55:0.279412 56:0.288136 57:0.4 58:0.646154 59:0.348837 60:0.522727 61:0.20202 62:0.53 63:0.634146 64:0.72549 65:0.701754 66:0.566038 67:0.411765 68:0.178571 69:0.101695 70:0.440678 71:0.485714 72:0.185185 73:0.731707 74:0.383333 75:0.298246 76:0.679245 77:0.571429 78:0.735632 79:0.333333 80:0.142857 81:0.326923 82:0.311111 83:0.8125 84:0.743119 85:0.6875 86:0.375 87:0.388889 88:0.368421 89:0.660377 90:0.72973 91:0.372549 92:0.352941 93:0.363636 94:0.448276 95:0.428571 96:0.355932 97:0.126437 98:0.526316 99:0.581395 100:0.785714 101:0.837838 102:0.782609 103:0.369048 104:0.15625 105:0.1875 106:0.533333 107:0.548387 108:0.304348 109:0.285714 110:0.375 111:0.245283 112:0.22807 113:0.489796 114:0.620253 115:0.510204 116:0.0294118 117:0.15625 118:0.104167 119:0.757576 120:0.78 121:0.170213 122:0.181818 123:0.0847458 124:0.226415 125:0.411765 126:0.765432 127:0.141026 128:0.2 129:0.394737 130:0.609756 131:0.305556 132:0.530612 133:0.166667 134:0.419753 135:0.805556 136:0.833333 137:0.722222 138:0.707317 139:0.0892857 140:0.382979 141:0.818182 142:0.74359 143:0.925 144:0.912281 146:0.209302 147:0.16 148:0.255814 149:0.631579 150:0.5 151:0.179775 152:0.162162 153:0.115942 154:0.333333 155:0.825 156:0.79 157:0.192771 158:0.466667 159:0.333333 160:0.26087 161:0.596154 162:0.784091 163:0.218182 164:0.205882 165:0.666667 166:0.767857 167:0.590909 168:0.918033 169:0.185484 170:0.292308 171:0.745098 172:0.888889 173:0.875 174:0.75 175:0.169014 176:1 177:1 178:0.8 179:0.921875 180:0.785714 181:0.394737 182:0.115942 183:0.0862069 184:0.409836 185:0.513158 186:0.514851 187:0.285714 188:0.20339 189:0.36 190:0.575 191:0.803922 192:0.735849 193:0.837209 194:0.613636 195:0.261538 196:0.2 197:0.525424 198:0.6 199:0.727273 200:0.282609 201:0.447368 202:0.465116 203:0.386364 204:0.451613 205:0.258427 206:0.180723 207:0.45 208:0.842105 209:0.910448 210:0.714286 211:0.5 212:0.52459 213:0.707317 214:0.875 215:0.927273 216:0.72093 217:0.382353 218:0.203125 219:0.322034 220:0.530612 221:0.523077 222:0.712644 223:0.434783 224:0.333333 225:0.454545 226:0.543478 227:0.824742 228:0.786517 229:0.535714 230:0.25 231:0.210526 232:0.311111 233:0.647059 234:0.72 235:0.386667 236:0.44 237:0.513514 238:0.716981 239:0.348837 240:0.606061 241:0.205607 242:0.234568 243:0.456522 244:0.857143 245:1 246:0.974359 247:0.463158 248:0.446429 249:0.87931 250:1 251:0.896552 252:0.756098 253:0.140351 254:0.222222 255:0.285714 256:0.225806 257:0.456522 258:0.440678 259:0.275 260:0.122807 261:0.264151 262:0.65625 263:0.8625 264:0.758621 265:0.695652 266:0.114286 267:0.232558 268:0.447368 269:0.75 270:0.7 271:0.240506 272:0.236842 273:0.72 274:0.732143 275:0.69697 276:0.574468 277:0.194175 278:0.409091 279:0.6875 280:0.897059 281:0.647059 282:0.716981 283:0.426667 284:0.914894 285:0.901639 286:0.927273 287:0.859649 288:0.802632 
0.03125 1:0.4 2:0.268657 3:0.119403 4:0.368421 5:0.487179 6:0.39726 7:0.592593 8:0.361702 9:0.148649 10:0.291667 11:0.546875 12:0.484127 13:0.109375 14:0.355556 15:0.25 16:0.513514 17:0.591549 18:0.440367 19:0.113636 20:0.0377358 22:0.465116 23:0.307692 24:0.209302 25:0.207921 26:0.585366 27:0.74359 28:0.867647 29:0.897436 30:0.454545 31:0.418919 32:0.411765 33:0.72093 34:0.816327 35:0.958333 36:0.638554 37:0.309524 38:0.0877193 39:0.306122 40:0.243902 41:0.5 42:0.692308 43:0.257143 44:0.0769231 45:0.0769231 46:0.25 47:0.583333 48:0.707865 49:0.257576 50:0.148936 51:0.170213 52:0.555556 53:0.382979 54:0.675 55:0.0588235 56:0.0508475 57:0.111111 58:0.507692 59:0.0232558 60:0.159091 61:0.171717 62:0.5 63:0.634146 64:0.666667 65:0.666667 66:0.433962 67:0.411765 68:0.202381 69:0.101695 70:0.440678 71:0.528571 72:0.17284 73:0.365854 74:0.183333 75:0.192982 76:0.339623 77:0.625 78:0.83908 79:0.307692 80:0.25 81:0.211538 82:0.333333 83:0.7125 84:0.688073 85:0.625 86:0.25 87:0.314815 88:0.421053 89:0.584906 90:0.581081 91:0.0392157 92:0.0980392 93:0.0681818 94:0.344828 95:0.244898 96:0.152542 97:0.137931 98:0.473684 99:0.55814 100:0.833333 101:0.743243 102:0.608696 103:0.380952 104:0.09375 105:0.125 106:0.45 107:0.451613 108:0.246377 109:0.298701 110:0.446429 111:0.226415 112:0.192982 113:0.469388 114:0.696203 115:0.22449 116:0.558824 117:0.109375 118:0.104167 119:0.681818 120:0.75 121:0.12766 122:0.0909091 123:0.288136 124:0.283019 125:0.382353 126:0.691358 127:0.205128 128:0.04 129:0.0526316 130:0.341463 131:0.194444 132:0.306122 133:0.288889 134:0.493827 135:0.694444 136:0.962963 137:0.777778 138:0.804878 139:0.571429 140:0.276596 141:0.727273 142:0.871795 143:0.9 144:0.912281 145:0.108434 146:0.209302 147:0.28 148:0.372093 149:0.631579 150:0.675676 151:0.269663 152:0.459459 153:0.057971 154:0.261905 155:0.7625 156:0.74 157:0.144578 158:0.466667 159:0.577778 160:0.521739 161:0.730769 162:0.840909 163:0.227273 164:0.132353 165:0.222222 166:0.607143 167:0.545455 168:0.885246 169:0.274194 170:0.369231 171:0.705882 172:0.930556 173:0.875 174:0.535714 175:0.295775 176:0.805556 177:0.851852 178:0.907692 179:0.921875 180:0.785714 181:0.223684 182:0.0434783 183:0.0689655 184:0.213115 185:0.394737 186:0.514851 187:0.163265 188:0.152542 189:0.08 190:0.15 191:0.647059 192:0.59434 193:0.790698 194:0.681818 195:0.246154 196:0.266667 197:0.457627 198:0.514286 199:0.159091 200:0.0217391 201:0.342105 202:0.44186 203:0.409091 204:0.403226 205:0.224719 206:0.168675 207:0.25 208:0.605263 209:0.686567 210:0.142857 211:0.511364 212:0.42623 213:0.658537 214:0.791667 215:0.872727 216:0.55814 217:0.25 218:0.0625 219:0.0847458 220:0.0612245 221:0.276923 222:0.574713 223:0.521739 224:0.08 225:0.113636 226:0.23913 227:0.680412 228:0.719101 229:0.553571 230:0.375 231:0.210526 232:0.4 233:0.54902 234:0.58 235:0.173333 236:0.32 237:0.405405 238:0.754717 239:0.651163 240:0.848485 241:0.196262 242:0.234568 243:0.195652 244:0.732143 245:0.788462 246:0.769231 247:0.473684 248:0.428571 249:0.827586 250:0.870968 251:0.810345 252:0.707317 253:0.122807 254:0.333333 255:0.452381 256:0.516129 257:0.565217 258:0.474576 259:0.525 260:0.245614 261:0.132075 262:0.46875 263:0.8375 264:0.735632 265:0.652174 266:0.542857 267:0.581395 268:0.868421 269:0.807692 270:0.675 271:0.189873 272:0.184211 273:0.62 274:0.714286 275:0.757576 276:0.553191 277:0.213592 278:0.530303 279:0.833333 280:0.897059 281:0.676471 282:0.584906 283:0.413333 284:0.893617 285:0.901639 286:0.836364 287:0.947368 288:0.828947 
0.03125 1:0.142857 2:0.343284 3:0.238806 4:0.333333 5:0.384615 6:0.273973 7:0.481481 8:0.255319 9:0.0810811 10:0.25 11:0.703125 12:0.515873 13:0.328125 14:0.244444 15:0.0714286 16:0.351351 17:0.591549 18:0.53211 19:0.227273 20:0.339623 21:0.377778 22:0.790698 23:0.423077 24:0.360465 25:0.168317 26:0.426829 27:0.717949 28:0.808824 29:0.871795 30:0.420455 31:0.310811 32:0.441176 33:0.697674 34:0.877551 35:0.895833 36:0.650602 37:0.452381 38:0.263158 39:0.367347 40:0.682927 41:0.806452 42:0.747253 43:0.142857 44:0.261538 45:0.205128 46:0.2 47:0.785714 48:0.831461 49:0.409091 50:0.106383 51:0.191489 52:0.5 53:0.723404 54:0.775 55:0.25 56:0.322034 57:0.266667 58:0.569231 59:0.511628 60:0.590909 61:0.131313 62:0.45 63:0.560976 64:0.607843 65:0.649123 66:0.490566 67:0.343137 68:0.130952 69:0.0847458 70:0.40678 71:0.471429 72:0.222222 73:0.585366 74:0.3 75:0.315789 76:0.698113 77:0.625 78:0.781609 79:0.358974 80:0.142857 81:0.326923 82:0.488889 83:0.8125 84:0.770642 85:0.53125 86:0.375 87:0.314815 88:0.447368 89:0.773585 90:0.851351 91:0.27451 92:0.333333 93:0.272727 94:0.534483 95:0.632653 96:0.559322 97:0.126437 98:0.473684 99:0.465116 100:0.809524 101:0.783784 102:0.782609 103:0.392857 104:0.0625 105:0.0833333 106:0.466667 107:0.532258 108:0.289855 109:0.194805 110:0.357143 111:0.301887 112:0.350877 113:0.510204 114:0.620253 115:0.163265 116:0.441176 117:0.171875 118:0.229167 119:0.833333 120:0.81 121:0.170213 122:0.333333 123:0.169492 124:0.207547 125:0.588235 126:0.864198 127:0.128205 128:0.18 129:0.394737 130:0.536585 131:0.5 132:0.734694 133:0.177778 134:0.320988 135:0.5 136:0.796296 137:0.722222 138:0.780488 139:0.464286 140:0.276596 141:0.69697 142:0.846154 143:0.85 144:0.859649 145:0.240964 146:0.186047 147:0.26 148:0.372093 149:0.789474 150:0.716216 151:0.202247 152:0.297297 153:0.15942 154:0.404762 155:0.8875 156:0.87 157:0.156627 158:0.6 159:0.288889 160:0.195652 161:0.730769 162:0.829545 163:0.2 164:0.279412 165:0.694444 166:0.821429 167:0.727273 168:0.967213 169:0.177419 170:0.246154 171:0.627451 172:0.916667 173:0.979167 174:0.964286 175:0.140845 176:0.722222 177:0.851852 178:0.830769 179:0.921875 180:0.785714 181:0.618421 182:0.434783 183:0.327586 184:0.52459 185:0.565789 186:0.544554 187:0.244898 188:0.237288 189:0.46 190:0.725 191:0.862745 192:0.764151 193:0.55814 194:0.590909 195:0.261538 196:0.244444 197:0.661017 198:0.728571 199:0.704545 200:0.304348 201:0.342105 202:0.44186 203:0.568182 204:0.629032 205:0.235955 206:0.180723 207:0.45 208:0.842105 209:0.850746 210:0.714286 211:0.431818 212:0.42623 213:0.658537 214:0.895833 215:0.818182 216:0.581395 217:0.470588 218:0.265625 219:0.372881 220:0.530612 221:0.538462 222:0.574713 223:0.456522 224:0.28 225:0.340909 226:0.586957 227:0.907216 228:0.831461 229:0.446429 230:0.208333 231:0.140351 232:0.266667 233:0.745098 234:0.84 235:0.453333 236:0.5 237:0.162162 238:0.603774 239:0.511628 240:0.818182 241:0.186916 242:0.209877 243:0.347826 244:0.767857 245:0.884615 246:0.846154 247:0.410526 248:0.339286 249:0.810345 250:0.903226 251:0.862069 252:0.585366 253:0.210526 254:0.177778 255:0.309524 256:0.354839 257:0.543478 258:0.661017 259:0.25 260:0.192982 261:0.283019 262:0.5 263:0.875 264:0.862069 265:0.630435 266:0.457143 267:0.209302 268:0.394737 269:0.807692 270:0.7875 271:0.278481 272:0.342105 273:0.7 274:0.767857 275:0.969697 276:0.723404 277:0.165049 278:0.393939 279:0.5625 280:0.808824 281:0.764706 282:0.698113 283:0.306667 284:0.787234 285:0.836066 286:0.781818 287:0.824561 288:0.75 
0.03125 1:0.214286 2:0.313433 3:0.283582 4:0.298246 5:0.435897 6:0.246575 7:0.518519 8:0.319149 9:0.135135 10:0.125 11:0.65625 12:0.507937 13:0.3125 14:0.311111 15:0.125 16:0.27027 17:0.549296 18:0.504587 19:0.204545 20:0.339623 21:0.488889 22:0.744186 23:0.346154 24:0.290698 25:0.148515 26:0.463415 27:0.717949 28:0.75 29:0.74359 30:0.386364 31:0.418919 32:0.529412 33:0.767442 34:0.693878 35:0.854167 36:0.638554 37:0.547619 38:0.368421 39:0.44898 40:0.634146 41:0.709677 42:0.714286 43:0.314286 44:0.323077 45:0.230769 46:0.325 47:0.75 48:0.752809 49:0.454545 50:0.170213 51:0.191489 52:0.583333 53:0.744681 54:0.625 55:0.264706 56:0.322034 57:0.244444 58:0.6 59:0.55814 60:0.636364 61:0.111111 62:0.42 63:0.585366 64:0.686275 65:0.684211 66:0.528302 67:0.333333 68:0.130952 69:0.135593 70:0.508475 71:0.485714 72:0.333333 73:0.585366 74:0.333333 75:0.368421 76:0.698113 77:0.607143 78:0.689655 79:0.307692 80:0.125 81:0.269231 82:0.377778 83:0.7375 84:0.697248 85:0.6875 86:0.4 87:0.296296 88:0.368421 89:0.641509 90:0.689189 91:0.313725 92:0.333333 93:0.25 94:0.551724 95:0.530612 96:0.389831 97:0.091954 98:0.494737 99:0.604651 100:0.738095 101:0.743243 102:0.717391 103:0.285714 104:0.078125 105:0.145833 106:0.4 107:0.5 108:0.275362 109:0.194805 110:0.339286 111:0.264151 112:0.280702 113:0.469388 114:0.594937 115:0.142857 116:0.470588 117:0.140625 118:0.0833333 119:0.787879 120:0.79 121:0.191489 122:0.333333 123:0.135593 124:0.169811 125:0.529412 126:0.765432 127:0.141026 128:0.1 129:0.394737 130:0.512195 131:0.472222 132:0.55102 133:0.144444 134:0.296296 135:0.5 136:0.796296 137:0.666667 138:0.780488 139:0.553571 140:0.276596 141:0.69697 142:0.846154 143:0.75 144:0.789474 145:0.216867 146:0.0930233 147:0.24 148:0.325581 149:0.736842 150:0.540541 151:0.168539 152:0.216216 153:0.144928 154:0.380952 155:0.775 156:0.78 157:0.156627 158:0.6 159:0.288889 160:0.173913 161:0.634615 162:0.806818 163:0.163636 164:0.235294 165:0.638889 166:0.785714 167:0.727273 168:0.934426 169:0.129032 170:0.2 171:0.647059 172:0.902778 173:0.895833 174:0.75 175:0.126761 176:0.666667 177:0.833333 178:0.815385 179:0.828125 180:0.757143 181:0.513158 182:0.275362 183:0.275862 184:0.491803 185:0.447368 186:0.485149 187:0.326531 188:0.237288 189:0.48 190:0.625 191:0.843137 192:0.660377 193:0.651163 194:0.590909 195:0.215385 196:0.222222 197:0.644068 198:0.571429 199:0.636364 200:0.282609 201:0.315789 202:0.44186 203:0.545455 204:0.516129 205:0.168539 206:0.120482 207:0.375 208:0.736842 209:0.865672 210:0.628571 211:0.431818 212:0.42623 213:0.707317 214:0.895833 215:0.836364 216:0.55814 217:0.485294 218:0.359375 219:0.372881 220:0.428571 221:0.492308 222:0.574713 223:0.456522 224:0.333333 225:0.340909 226:0.565217 227:0.845361 228:0.797753 229:0.482143 230:0.25 231:0.157895 232:0.311111 233:0.686275 234:0.68 235:0.453333 236:0.48 237:0.27027 238:0.641509 239:0.511628 240:0.818182 241:0.158879 242:0.160494 243:0.326087 244:0.821429 245:0.865385 246:0.897436 247:0.410526 248:0.285714 249:0.793103 250:0.903226 251:0.87931 252:0.585366 253:0.157895 254:0.2 255:0.357143 256:0.354839 257:0.413043 258:0.440678 259:0.275 260:0.210526 261:0.377358 262:0.53125 263:0.7875 264:0.758621 265:0.673913 266:0.514286 267:0.232558 268:0.473684 269:0.75 270:0.7 271:0.291139 272:0.342105 273:0.7 274:0.803571 275:0.939394 276:0.659574 277:0.165049 278:0.393939 279:0.708333 280:0.852941 281:0.676471 282:0.698113 283:0.32 284:0.87234 285:0.868852 286:0.818182 287:0.77193 288:0.723684 
0.03125 1:0.214286 2:0.432836 3:0.38806 4:0.438596 5:0.487179 6:0.315068 7:0.407407 8:0.212766 9:0.108108 10:0.25 11:0.71875 12:0.52381 13:0.265625 14:0.177778 15:0.0357143 16:0.405405 17:0.549296 18:0.522936 19:0.227273 20:0.283019 21:0.266667 22:0.813953 23:0.615385 24:0.453488 25:0.178218 26:0.353659 27:0.461538 28:0.75 29:0.692308 30:0.363636 31:0.324324 32:0.323529 33:0.55814 34:0.795918 35:0.895833 36:0.638554 37:0.5 38:0.280702 39:0.428571 40:0.756098 41:0.790323 42:0.747253 43:0.228571 44:0.292308 45:0.205128 46:0.35 47:0.77381 48:0.786517 49:0.318182 51:0.12766 52:0.527778 53:0.595745 54:0.475 55:0.264706 56:0.288136 57:0.177778 58:0.492308 59:0.581395 60:0.386364 61:0.191919 62:0.43 63:0.341463 64:0.509804 65:0.631579 66:0.377358 67:0.382353 68:0.166667 69:0.0169492 70:0.305085 71:0.442857 72:0.296296 73:0.512195 74:0.316667 75:0.368421 76:0.943396 77:0.875 78:0.931034 79:0.230769 80:0.178571 81:0.307692 82:0.466667 83:0.9375 84:0.917431 85:0.40625 86:0.325 87:0.462963 88:0.631579 89:0.867925 90:0.932432 91:0.294118 92:0.372549 93:0.431818 94:0.637931 95:0.857143 96:0.813559 97:0.183908 98:0.484211 99:0.55814 100:0.857143 101:0.864865 102:0.782609 103:0.488095 104:0.1875 105:0.208333 106:0.516667 107:0.516129 108:0.275362 109:0.25974 110:0.428571 111:0.490566 112:0.421053 113:0.653061 114:0.746835 115:0.22449 116:0.382353 117:0.234375 118:0.291667 119:0.954545 120:0.85 121:0.0851064 122:0.181818 123:0.254237 124:0.283019 125:0.941176 126:0.740741 127:0.217949 128:0.38 129:0.473684 130:0.560976 131:0.888889 132:0.612245 133:0.2 134:0.432099 135:0.416667 136:0.833333 137:0.796296 138:0.804878 139:0.285714 140:0.297872 141:0.606061 142:0.846154 143:0.95 144:0.842105 145:0.253012 146:0.302326 147:0.42 148:0.465116 149:0.789474 150:0.635135 151:0.134831 152:0.189189 153:0.231884 154:0.47619 155:0.925 156:0.85 157:0.0963855 158:0.233333 159:0.333333 160:0.304348 161:0.903846 162:0.761364 163:0.0909091 164:0.220588 165:0.611111 166:0.839286 167:0.977273 168:0.770492 169:0.0887097 170:0.215385 171:0.588235 172:0.847222 173:0.895833 174:0.464286 175:0.0704225 176:0.583333 177:0.703704 178:0.769231 179:0.9375 180:0.757143 181:0.342105 182:0.188406 183:0.206897 184:0.508197 185:0.513158 186:0.594059 187:0.204082 188:0.220339 189:0.42 190:0.8 191:0.921569 192:0.915094 193:0.488372 194:0.613636 195:0.246154 196:0.244444 197:0.79661 198:0.928571 199:0.454545 200:0.195652 201:0.368421 202:0.55814 203:0.727273 204:0.741935 205:0.0674157 206:0.0481928 207:0.3 208:0.710526 209:0.80597 210:0.657143 211:0.386364 212:0.360656 213:0.487805 214:0.791667 215:0.854545 216:0.534884 217:0.411765 218:0.109375 219:0.0508475 220:0.326531 221:0.430769 222:0.517241 223:0.26087 224:0.2 225:0.204545 226:0.5 227:0.886598 228:0.831461 229:0.285714 230:0.0208333 231:0.0526316 232:0.133333 233:0.647059 234:0.68 235:0.266667 236:0.24 237:0.0540541 238:0.566038 239:0.511628 240:0.424242 241:0.0841121 242:0.0987654 243:0.130435 244:0.714286 245:0.692308 246:0.307692 247:0.357895 248:0.214286 249:0.62069 250:0.758065 251:0.724138 252:0.390244 253:0.192982 254:0.155556 255:0.380952 256:0.322581 257:0.565217 258:0.661017 259:0.125 260:0.0877193 261:0.245283 262:0.53125 263:0.925 264:0.862069 265:0.478261 266:0.228571 267:0.139535 268:0.342105 269:0.673077 270:0.725 271:0.189873 272:0.210526 273:0.74 274:0.642857 275:0.545455 276:0.617021 277:0.0679612 278:0.227273 279:0.5 280:0.735294 281:0.676471 282:0.528302 283:0.28 284:0.553191 285:0.721311 286:0.727273 287:0.842105 288:0.605263 
